463.703887179822,314.488047804445,271.765505356139,-47.8422987343604,100.318553352627,-36.8348158876247,-35.7527588872655,10.0789892802879,-3.98735031584098,17.6881726285935,75.5257423166219,-11.8889104496963,28.0196826565693,-32.9833030750526,26.1245534193422,-26.4694205147574,-50.813133600001,14.0460491550033,-40.104848068318,-27.8877951741205,-14.2776740718086,-21.6450795041877,-102.550406417268,-68.6912447927855,24.3346995100464,28.7644339581051,14.4841304597703,-85.7566384764216,75.8266848177023,53.4200342861941,61.8411178552302,30.727787852346,6.0230971162252,-18.702926681284,-44.7630822283801,3.40920092405874,8.21124688946599,-24.0784685886481,-37.5696516747862,-2.83154671880231,-14.3483009610776,46.4502956096929,-24.8280067704786,-33.174055536372,41.055373747683,-50.0472905196766,60.2227605923594,-60.0437908313143,-8.88282144855892,12.6512603733904,8.11547467609208,6.83459267325994,13.82868435008,10.3484395988096,36.8532371611142,78.8873191721772,-11.7231170653255,-19.1500991032695,24.7982412241335,-38.3146138247086,29.4106056493844,23.2471036661967,13.9223481703678,-28.2668078917051,-63.2259391864883,-10.665490028975,-7.93757067204707,-16.3968882709794,6.19664798904631,69.2669049300827,44.9365095000073,-2.65525771711918,2.95262727745237,77.7067614640215,-5.62063154490567,22.3226518540459,40.5389218330755,1.2222389726816,16.4865247971071,-28.9551341458436,33.2858359266688,-20.276523858098,8.71495669382636,22.959737467153,-0.385548917070544,-30.8827793365516,-25.7652219534222,-1.19094765483937,28.0980548783726,46.0718397385072,28.9677735221073,33.8522871624426,18.4188810678323,-14.7173064585893,16.4971273225153,-30.2262527380309,-1.91972552465718,55.5565459144631,29.9420828959472,103.748921195939,0.0806995962645746,2.4409644878857,4.23857240330564,20.9509787272262,24.8496506595154,-1.90244777591691,14.1239879487142,-71.2631194459321,4.1909201969772,-45.0275220384446,40.8301673675993,-84.3226243953867,0.713954825869728,-37.4358695030537,59.3219236405823,-8.56420057563296,68.8891594535856,29.570923196363,-17.0003240678647,58.056946143491,-17.3253808798602,4.82025448553444,91.4875961005555,-5.54285438346145,-27.6210364978282,18.0247396660551,6.15225444492437,-36.7940699031889,-19.7380744686081,2.00075036701828,-50.9317947916801,12.6993470320026,113.238496884656,-35.5139983028864,-43.5378190386011,109.193237949076,12.1974578874655,6.95966704096178,22.949970685534,-42.6618666504417,9.32374719313545,19.8781914270816,61.3601520002527,46.0185240136555,1.43699342962532,-26.5840124837593,-21.8879369376856,-37.081388958964,12.0961491403467,-52.7796324109272,35.7573381671932,-1.81819939303108,53.8493880474401,27.4820364446072,-11.0966588802464,-6.43007484973286,13.8239794872043,18.7824336200961,0.150654859843087,20.6259203627643,-0.896227052805564,-14.6324740218197,-33.2318215119532,36.8374084113733,1.5369729572357,6.37688800747162,-44.4959521249391,29.3369265525547,44.4516401458959,-11.4545209948787,50.183276461211,26.0642853836313,7.00817705543698,0.193144947148484,17.4182603938618,-26.4746112189363,-38.546616847811,66.3734660947423,26.6237278816568,72.8780732860113,56.7674639362746,47.962642249927,49.6128560275584,12.6270282285367,12.5294084358543,-24.4850466112074,31.1109034613842,69.9357363375862,53.7440262535223,-23.5297450658669,37.2611819182798,21.2678677501793,102.751500247937,36.5370563787946,42.3507735701289,-16.1436293353156,-38.3775024450178,29.3472962117131,-38.4229080794527,62.6303096030732,-32.1067654808597,50.5445204993687,-35.2686079835181,-37.818169442845,-100.713787282328,-1.40591806355838,54.3043554959613,-3.06807389149443,-58.0896384511647,-7.99494199413021,-39.4270170888802,-7.68596473071264,-20.0982387097521,-1.67096954651702,55.0971566264876,26.3525407889967,-24.1914669617727,53.1748602775108,20.2819785500583,15.4501938088586,-48.7538105573333,24.0796111231233,-1.04534577583753,28.9577627700106,-11.8488283601965,1.84064094233888,-18.2713963034158,16.1895350981614,-6.16000707559569,-62.7781471648929,20.5345192168028,-80.5227855659633,-83.4962633929226,19.8836570046119,-10.2126720821169,-16.1964905651931,10.5514015195632,-18.4929012605841,65.1145796402771,118.72866970796,3.90913120476845,-37.2467118092105,-55.2517994965653,29.4132847030816,14.6726632476346,14.1901897181066,-30.5249460914962,12.9537362548631,-19.3848639825138,47.9390698117588,44.5947220086924,77.2996382492093,-24.7390521492414,-33.1428297430928,49.4551280177545,16.3300501265247,22.1973713882693,-21.6069606543467,20.596649118338,25.0130989059841,78.8883519668026,12.5230089019215,-3.97098013150874,-39.5288441230726,22.7492033633815,-9.25599691128135,18.1221654432212,31.6139808766015,44.4246248395763,-6.44132104564853,0.679484214499447,76.871596473416,-55.1325873416922,18.783749231792,-30.344184618844,1,1,1,1,1,1,1,1,1,1,1,1,1,1,1,1,1,1,1,1,1,1,1,1,1,1,1,1,1,1,1,1,1,1,1,1,1,1,1,1,1,1,1,1,1,1,1,1,1,1,1,1,1,1,1,1,1,1,1,1,1,1,1,1,1,1,1,1,1,1,1,1,1,1,1,1,1,1,1,1,1,1,1,1,1,1,1,1,1,1,1,1,1,1,1,1,1,1,1,1,1,1,1,1,1,1,1,1,1,1,1,1,1,1,1,1,1,1,1,1,1,1,1,1,1,1,1,1,1,1,1,1,1,1,1,1,1,1,1,1,1,1,1,1,1,1,1,1,1,1,1,1,1,1,1,1,1,1,1,1,1,1,1,1,1,1,1,1,1,1,1,1,1,1,1,1,1,1,1,1,1,1,1,1,1,1,1,1,1,1,1,1,1,1,1,1,1,1,1,1,1,1,1,1,1,1,1,1,1,1,1,1,1,1,1,1,1,1,1,1,1,1,1,1,1,1,1,1,1,1,1,1,1,1,1,1,1,1,1,1,1,1,1,1,1,1,1,1,1,1,1,1,1,1,1,1,1,1,1,1,1,1,1,1,1,1,1,1,1,1,-11.9092896055073,10.73459783168,0.277141570013805,9.46666106946167,20.9753490509512,-6.42124001961171,-62.9897511312138,-14.0211768960074,50.6583459624122,17.1867911406175,-22.2300588630694,-24.6245959355639,28.5853771146038,-40.0264543514541,5.1760609725188,-17.2949160522103,-30.0597278684795,-16.4470790357787,-25.5492405719241,14.9802978412972,-50.4891490799222,-47.6634465108168,-37.8107914314073,-14.0307062070373,-70.4870414237613,21.9268712145683,-60.8005362914037,8.21080590630563,2.77217743111118,-116.160468864323,13.531493032663,92.7233724783649,-9.4779381054963,-58.3931263479273,13.319179687451,-1.57173098256522,-10.3726330599861,15.6370767948626,-72.2617285585171,-1.6461903188185,9.51559388230216,-10.0001548255929,6.45029688993605,-22.832685354823,17.7915585772827,-5.71542221864556,13.9787779904162,-17.3283923614276,-35.3849796319941,-38.632220106499,19.6993235883399,-54.8081400947136,-11.9373984280153,-17.6277037065468,-1.55110974641437,67.9139265329188,-28.9388757944601,-90.3626011824333,-39.7873450303489,18.0285197083624,-35.9906657725598,13.5861157653516,23.2894082915127,-14.4322168106576,-81.104751106455,-6.46586810894723,-5.71149854998257,-2.6006689223624,-4.77979669215089,-17.1116568188167,-40.5259677549622,-26.0708858537482,-14.3527138510037,2.10802592999783,-30.9905447386007,-18.0567235087308,-24.297764609152,-41.9887843091848,-12.0329032305798,10.8177246366619,-52.2932171857652,-43.3396488990039,19.9237468866935,20.7755791586291,46.373837132589,-33.4572090114323,9.05138158253363,-23.6337062708164,-12.4832537530163,27.6772847826561,-15.984939061732,-24.2400268332961,-8.00339951747155,16.6094726764871,69.0578828162672,-31.2835877159915,9.18036876144471,-30.5935226528701,38.2392717679977,-6.63098046881925,-40.5055968972954,17.7405516144914,9.69538615968514,69.8587661707161,4.67048581932293,-1.73368618585354,33.213019869143,-6.79109053093119,11.482929951791,-41.134802716186,18.3420007787894,-75.6441440819414,8.17665688887431,-61.7292050363343,1.41139751822237,15.0961369828909,11.5249933672947,15.7467661059591,11.8768671667513,41.8136939574568,26.4608564531688,14.6391577279043,-13.5043687636431,78.1974540526847,-8.31094569610425,32.0343558196103,36.7790855425665,8.33734019016611,19.5813175130969,26.755462776518,4.16524639661239,-19.2577744715321,-45.5671317727039,43.8303299982474,-46.516360082794,26.8214704775133,-11.8421213616456,-4.22353745211287,53.1400160857529,19.0208696826736,34.5279495189099,-37.5049118835534,-62.4466262612382,19.794975725986,-46.8435893783454,27.5658064444473,26.7528912574429,-15.2520570054414,27.0308833532665,29.7552242572762,27.1214077025609,-5.46817438550425,15.1518764217147,-12.8822897220516,29.6665476740941,41.0272009920576,32.8239555715745,-36.6720449054973,-12.3748778299917,-12.4741726350874,-22.0435834039245,-25.5622031665416,-6.8898075636175,36.7003858796511,1.82016908269373,-20.0939221882586,8.67410846866003,10.2792174784232,-18.12961080803,-54.7313977467432,-18.9294373157326,-61.549634119087,-3.16762672676159,-2.31866323827621,56.6676481084264,50.2478348580136,-9.72197662567578,4.96506932144979,-42.8968434482723,-26.8964473387882,-4.82463907035299,25.05735122806,43.6836546019511,10.9397676759134,-49.5368779760741,1.19336642997259,-16.7942168004734,20.6764113722233,-33.0963343696469,-2.57303088930221,-30.8629311865949,-44.12043109582,-17.173305873159,40.5490419486233,-37.3734129373844,-3.78987432069134,-7.72688517269995,41.2732737001973,8.3379899351227,-20.9035398344624,-34.8410546777318,-0.985763582803642,-0.0362842399261619,-30.5898066042105,69.0163982254455,-26.2407340734876,-3.73612841313708,14.0336409567839,-58.3167852866864,26.8970805693141,-18.0793424630981,34.5470777561481,0.429342645987861,-24.3042623485062,34.8327519017497,5.00899337964627,-30.8931487330405,-62.5025240053788,-74.9106869973252,-48.2026340112265,50.9403062634356,3.4885822874826,19.3410479022594,-3.29639018706659,14.3118254312719,20.3916097726747,-11.0601323980922,-27.8988256431933,-33.3547681551674,-15.6670903508951,35.6676813825376,-25.2448162969394,-10.0117920508966,-16.1925347168356,8.56400736087898,8.20136344089619,42.7518684409911,26.0312111041422,-12.3188181126898,-6.75489655561259,-9.66779662442314,43.4088034831225,-29.6536581821172,51.2322070725751,-1.14451302833482,31.8076737303459,8.01827296526717,10.5635390717895,62.3504408180325,-22.5614080488558,-70.2794659780543,2.25389982299499,5.94717862728111,29.9474318824144,-59.2445776254822,17.517699994782,-14.4223688233924,36.6656393292532,0.533936291370095,46.4245344843492,-31.3504792023941,32.1329016507573,10.5805350234164,34.7326535448888,6.49109401503317,-71.9124337746178,-65.1068975898952,-7.64757168494082,-90.329463281215,17.7710372784357,1,1,1,1,1,1,1,1,1,1,1,1,1,1,1,1,1,1,1,1,1,1,1,1,1,1,1,1,1,1,1,1,1,1,1,1,1,1,1,1,1,1,1,1,1,1,1,1,1,1,1,1,1,1,1,1,1,1,1,1,1,1,1,1,1,1,1,1,1,1,1,1,1,1,1,1,1,1,1,1,1,1,1,1,1,1,1,1,1,1,1,1,1,1,1,1,1,1,1,1,1,1,1,1,1,1,1,1,1,1,1,1,1,1,1,1,1,1,1,1,1,1,1,1,1,1,1,1,1,1,1,1,1,1,1,1,1,1,1,1,1,1,1,1,1,1,1,1,1,1,1,1,1,1,1,1,1,1,1,1,1,1,1,1,1,1,1,1,1,1,1,1,1,1,1,1,1,1,1,1,1,1,1,1,1,1,1,1,1,1,1,1,1,1,1,1,1,1,1,1,1,1,1,1,1,1,1,1,1,1,1,1,1,1,1,1,1,1,1,1,1,1,1,1,1,1,1,1,1,1,1,1,1,1,1,1,1,1,1,1,1,1,1,1,1,1,1,1,1,1,1,1,1,1,1,1,1,1,1,1,1,1,1,1,1,1,1,1,1,1,-21.610885990238,54.9445183987301,-36.8348158876247,-35.7527588872655,10.0789892802879,-3.98735031584098,17.6881726285935,75.5257423166219,-11.8889104496963,28.0196826565693,-32.9833030750526,26.1245534193422,-26.4694205147574,-50.813133600001,14.0460491550033,-40.104848068318,-27.8877951741205,-14.2776740718086,-21.6450795041877,-102.550406417268,-68.6912447927855,24.3346995100464,28.7644339581051,14.4841304597703,-85.7566384764216,75.8266848177023,53.4200342861941,61.8411178552302,30.727787852346,6.0230971162252,-18.702926681284,-44.7630822283801,3.40920092405874,8.21124688946599,-24.0784685886481,-37.5696516747862,-2.83154671880231,-14.3483009610776,46.4502956096929,-24.8280067704786,-33.174055536372,41.055373747683,-50.0472905196766,60.2227605923594,-60.0437908313143,-8.88282144855892,12.6512603733904,8.11547467609208,6.83459267325994,13.82868435008,10.3484395988096,36.8532371611142,78.8873191721772,-11.7231170653255,-19.1500991032695,24.7982412241335,-38.3146138247086,29.4106056493844,23.2471036661967,13.9223481703678,-28.2668078917051,-63.2259391864883,-10.665490028975,-7.93757067204707,-16.3968882709794,6.19664798904631,69.2669049300827,44.9365095000073,-2.65525771711918,2.95262727745237,77.7067614640215,-5.62063154490567,22.3226518540459,40.5389218330755,1.2222389726816,16.4865247971071,-28.9551341458436,33.2858359266688,-20.276523858098,8.71495669382636,22.959737467153,-0.385548917070544,-30.8827793365516,-25.7652219534222,-1.19094765483937,28.0980548783726,46.0718397385072,28.9677735221073,33.8522871624426,18.4188810678323,-14.7173064585893,16.4971273225153,-30.2262527380309,-1.91972552465718,55.5565459144631,29.9420828959472,103.748921195939,0.0806995962645746,2.4409644878857,4.23857240330564,20.9509787272262,24.8496506595154,-1.90244777591691,14.1239879487142,-71.2631194459321,4.1909201969772,-45.0275220384446,40.8301673675993,-84.3226243953867,0.713954825869728,-37.4358695030537,59.3219236405823,-8.56420057563296,68.8891594535856,29.570923196363,-17.0003240678647,58.056946143491,-17.3253808798602,4.82025448553444,91.4875961005555,-5.54285438346145,-27.6210364978282,18.0247396660551,6.15225444492437,-36.7940699031889,-19.7380744686081,2.00075036701828,-50.9317947916801,12.6993470320026,113.238496884656,-35.5139983028864,-43.5378190386011,109.193237949076,12.1974578874655,6.95966704096178,22.949970685534,-42.6618666504417,9.32374719313545,19.8781914270816,61.3601520002527,46.0185240136555,1.43699342962532,-26.5840124837593,-21.8879369376856,-37.081388958964,12.0961491403467,-52.7796324109272,35.7573381671932,-1.81819939303108,53.8493880474401,27.4820364446072,-11.0966588802464,-6.43007484973286,13.8239794872043,18.7824336200961,0.150654859843087,20.6259203627643,-0.896227052805564,-14.6324740218197,-33.2318215119532,36.8374084113733,1.5369729572357,6.37688800747162,-44.4959521249391,29.3369265525547,44.4516401458959,-11.4545209948787,50.183276461211,26.0642853836313,7.00817705543698,0.193144947148484,17.4182603938618,-26.4746112189363,-38.546616847811,66.3734660947423,26.6237278816568,72.8780732860113,56.7674639362746,47.962642249927,49.6128560275584,12.6270282285367,12.5294084358543,-24.4850466112074,31.1109034613842,69.9357363375862,53.7440262535223,-23.5297450658669,37.2611819182798,21.2678677501793,102.751500247937,36.5370563787946,42.3507735701289,-16.1436293353156,-38.3775024450178,29.3472962117131,-38.4229080794527,62.6303096030732,-32.1067654808597,50.5445204993687,-35.2686079835181,-37.818169442845,-100.713787282328,-1.40591806355838,54.3043554959613,-3.06807389149443,-58.0896384511647,-7.99494199413021,-39.4270170888802,-7.68596473071264,-20.0982387097521,-1.67096954651702,55.0971566264876,26.3525407889967,-24.1914669617727,53.1748602775108,20.2819785500583,15.4501938088586,-48.7538105573333,24.0796111231233,-1.04534577583753,28.9577627700106,-11.8488283601965,1.84064094233888,-18.2713963034158,16.1895350981614,-6.16000707559569,-62.7781471648929,20.5345192168028,-80.5227855659633,-83.4962633929226,19.8836570046119,-10.2126720821169,-16.1964905651931,10.5514015195632,-18.4929012605841,65.1145796402771,118.72866970796,3.90913120476845,-37.2467118092105,-55.2517994965653,29.4132847030816,14.6726632476346,14.1901897181066,-30.5249460914962,12.9537362548631,-19.3848639825138,47.9390698117588,44.5947220086924,77.2996382492093,-24.7390521492414,-33.1428297430928,49.4551280177545,16.3300501265247,22.1973713882693,-21.6069606543467,20.596649118338,25.0130989059841,78.8883519668026,12.5230089019215,-3.97098013150874,-39.5288441230726,22.7492033633815,-9.25599691128135,18.1221654432212,31.6139808766015,44.4246248395763,-6.44132104564853,0.679484214499447,76.871596473416,-55.1325873416922,18.783749231792,-30.344184618844,1,1,1,1,1,1,1,1,1,1,1,1,1,1,1,1,1,1,1,1,1,1,1,1,1,1,1,1,1,1,1,1,1,1,1,1,1,1,1,1,1,1,1,1,1,1,1,1,1,1,1,1,1,1,1,1,1,1,1,1,1,1,1,1,1,1,1,1,1,1,1,1,1,1,1,1,1,1,1,1,1,1,1,1,1,1,1,1,1,1,1,1,1,1,1,1,1,1,1,1,1,1,1,1,1,1,1,1,1,1,1,1,1,1,1,1,1,1,1,1,1,1,1,1,1,1,1,1,1,1,1,1,1,1,1,1,1,1,1,1,1,1,1,1,1,1,1,1,1,1,1,1,1,1,1,1,1,1,1,1,1,1,1,1,1,1,1,1,1,1,1,1,1,1,1,1,1,1,1,1,1,1,1,1,1,1,1,1,1,1,1,1,1,1,1,1,1,1,1,1,1,1,1,1,1,1,1,1,1,1,1,1,1,1,1,1,1,1,1,1,1,1,1,1,1,1,1,1,1,1,1,1,1,1,1,1,1,1,1,1,1,1,1,1,1,1,1,1,1,1,1,1,1,1,1,1,1,1,1,1,1,1,1,1,1,1,1,1,1,1,-11.9092896055073,10.73459783168,0.277141570013805,9.46666106946167,20.9753490509512,-6.42124001961171,-62.9897511312138,-14.0211768960074,50.6583459624122,17.1867911406175,-22.2300588630694,-24.6245959355639,28.5853771146038,-40.0264543514541,5.1760609725188,-17.2949160522103,-30.0597278684795,-16.4470790357787,-25.5492405719241,14.9802978412972,-50.4891490799222,-47.6634465108168,-37.8107914314073,-14.0307062070373,-70.4870414237613,21.9268712145683,-60.8005362914037,8.21080590630563,2.77217743111118,-116.160468864323,13.531493032663,92.7233724783649,-9.4779381054963,-58.3931263479273,13.319179687451,-1.57173098256522,-10.3726330599861,15.6370767948626,-72.2617285585171,-1.6461903188185,9.51559388230216,-10.0001548255929,6.45029688993605,-22.832685354823,17.7915585772827,-5.71542221864556,13.9787779904162,-17.3283923614276,-35.3849796319941,-38.632220106499,19.6993235883399,-54.8081400947136,-11.9373984280153,-17.6277037065468,-1.55110974641437,67.9139265329188,-28.9388757944601,-90.3626011824333,-39.7873450303489,18.0285197083624,-35.9906657725598,13.5861157653516,23.2894082915127,-14.4322168106576,-81.104751106455,-6.46586810894723,-5.71149854998257,-2.6006689223624,-4.77979669215089,-17.1116568188167,-40.5259677549622,-26.0708858537482,-14.3527138510037,2.10802592999783,-30.9905447386007,-18.0567235087308,-24.297764609152,-41.9887843091848,-12.0329032305798,10.8177246366619,-52.2932171857652,-43.3396488990039,19.9237468866935,20.7755791586291,46.373837132589,-33.4572090114323,9.05138158253363,-23.6337062708164,-12.4832537530163,27.6772847826561,-15.984939061732,-24.2400268332961,-8.00339951747155,16.6094726764871,69.0578828162672,-31.2835877159915,9.18036876144471,-30.5935226528701,38.2392717679977,-6.63098046881925,-40.5055968972954,17.7405516144914,9.69538615968514,69.8587661707161,4.67048581932293,-1.73368618585354,33.213019869143,-6.79109053093119,11.482929951791,-41.134802716186,18.3420007787894,-75.6441440819414,8.17665688887431,-61.7292050363343,1.41139751822237,15.0961369828909,11.5249933672947,15.7467661059591,11.8768671667513,41.8136939574568,26.4608564531688,14.6391577279043,-13.5043687636431,78.1974540526847,-8.31094569610425,32.0343558196103,36.7790855425665,8.33734019016611,19.5813175130969,26.755462776518,4.16524639661239,-19.2577744715321,-45.5671317727039,43.8303299982474,-46.516360082794,26.8214704775133,-11.8421213616456,-4.22353745211287,53.1400160857529,19.0208696826736,34.5279495189099,-37.5049118835534,-62.4466262612382,19.794975725986,-46.8435893783454,27.5658064444473,26.7528912574429,-15.2520570054414,27.0308833532665,29.7552242572762,27.1214077025609,-5.46817438550425,15.1518764217147,-12.8822897220516,29.6665476740941,41.0272009920576,32.8239555715745,-36.6720449054973,-12.3748778299917,-12.4741726350874,-22.0435834039245,-25.5622031665416,-6.8898075636175,36.7003858796511,1.82016908269373,-20.0939221882586,8.67410846866003,10.2792174784232,-18.12961080803,-54.7313977467432,-18.9294373157326,-61.549634119087,-3.16762672676159,-2.31866323827621,56.6676481084264,50.2478348580136,-9.72197662567578,4.96506932144979,-42.8968434482723,-26.8964473387882,-4.82463907035299,25.05735122806,43.6836546019511,10.9397676759134,-49.5368779760741,1.19336642997259,-16.7942168004734,20.6764113722233,-33.0963343696469,-2.57303088930221,-30.8629311865949,-44.12043109582,-17.173305873159,40.5490419486233,-37.3734129373844,-3.78987432069134,-7.72688517269995,41.2732737001973,8.3379899351227,-20.9035398344624,-34.8410546777318,-0.985763582803642,-0.0362842399261619,-30.5898066042105,69.0163982254455,-26.2407340734876,-3.73612841313708,14.0336409567839,-58.3167852866864,26.8970805693141,-18.0793424630981,34.5470777561481,0.429342645987861,-24.3042623485062,34.8327519017497,5.00899337964627,-30.8931487330405,-62.5025240053788,-74.9106869973252,-48.2026340112265,50.9403062634356,3.4885822874826,19.3410479022594,-3.29639018706659,14.3118254312719,20.3916097726747,-11.0601323980922,-27.8988256431933,-33.3547681551674,-15.6670903508951,35.6676813825376,-25.2448162969394,-10.0117920508966,-16.1925347168356,8.56400736087898,8.20136344089619,42.7518684409911,26.0312111041422,-12.3188181126898,-6.75489655561259,-9.66779662442314,43.4088034831225,-29.6536581821172,51.2322070725751,-1.14451302833482,31.8076737303459,8.01827296526717,10.5635390717895,62.3504408180325,-22.5614080488558,-70.2794659780543,2.25389982299499,5.94717862728111,29.9474318824144,-59.2445776254822,17.517699994782,-14.4223688233924,36.6656393292532,0.533936291370095,46.4245344843492,-31.3504792023941,32.1329016507573,10.5805350234164,34.7326535448888,6.49109401503317,-71.9124337746178,-65.1068975898952,-7.64757168494082,-90.329463281215,17.7710372784357,1,1,1,1,1,1,1,1,1,1,1,1,1,1,1,1,1,1,1,1,1,1,1,1,1,1,1,1,1,1,1,1,1,1,1,1,1,1,1,1,1,1,1,1,1,1,1,1,1,1,1,1,1,1,1,1,1,1,1,1,1,1,1,1,1,1,1,1,1,1,1,1,1,1,1,1,1,1,1,1,1,1,1,1,1,1,1,1,1,1,1,1,1,1,1,1,1,1,1,1,1,1,1,1,1,1,1,1,1,1,1,1,1,1,1,1,1,1,1,1,1,1,1,1,1,1,1,1,1,1,1,1,1,1,1,1,1,1,1,1,1,1,1,1,1,1,1,1,1,1,1,1,1,1,1,1,1,1,1,1,1,1,1,1,1,1,1,1,1,1,1,1,1,1,1,1,1,1,1,1,1,1,1,1,1,1,1,1,1,1,1,1,1,1,1,1,1,1,1,1,1,1,1,1,1,1,1,1,1,1,1,1,1,1,1,1,1,1,1,1,1,1,1,1,1,1,1,1,1,1,1,1,1,1,1,1,1,1,1,1,1,1,1,1,1,1,1,1,1,1,1,1,1,1,1,1,1,1,1,1,1,1,1,1,1,1,1,1,1,1,55.7892678977796,147.63383040858,-36.8348158876247,-35.7527588872655,10.0789892802879,-3.98735031584098,17.6881726285935,75.5257423166219,-11.8889104496963,28.0196826565693,-32.9833030750526,26.1245534193422,-26.4694205147574,-50.813133600001,14.0460491550033,-40.104848068318,-27.8877951741205,-14.2776740718086,-21.6450795041877,-102.550406417268,-68.6912447927855,24.3346995100464,28.7644339581051,14.4841304597703,-85.7566384764216,75.8266848177023,53.4200342861941,61.8411178552302,30.727787852346,6.0230971162252,-18.702926681284,-44.7630822283801,3.40920092405874,8.21124688946599,-24.0784685886481,-37.5696516747862,-2.83154671880231,-14.3483009610776,46.4502956096929,-24.8280067704786,-33.174055536372,41.055373747683,-50.0472905196766,60.2227605923594,-60.0437908313143,-8.88282144855892,12.6512603733904,8.11547467609208,6.83459267325994,13.82868435008,10.3484395988096,36.8532371611142,78.8873191721772,-11.7231170653255,-19.1500991032695,24.7982412241335,-38.3146138247086,29.4106056493844,23.2471036661967,13.9223481703678,-28.2668078917051,-63.2259391864883,-10.665490028975,-7.93757067204707,-16.3968882709794,6.19664798904631,69.2669049300827,44.9365095000073,-2.65525771711918,2.95262727745237,77.7067614640215,-5.62063154490567,22.3226518540459,40.5389218330755,1.2222389726816,16.4865247971071,-28.9551341458436,33.2858359266688,-20.276523858098,8.71495669382636,22.959737467153,-0.385548917070544,-30.8827793365516,-25.7652219534222,-1.19094765483937,28.0980548783726,46.0718397385072,28.9677735221073,33.8522871624426,18.4188810678323,-14.7173064585893,16.4971273225153,-30.2262527380309,-1.91972552465718,55.5565459144631,29.9420828959472,103.748921195939,0.0806995962645746,2.4409644878857,4.23857240330564,20.9509787272262,24.8496506595154,-1.90244777591691,14.1239879487142,-71.2631194459321,4.1909201969772,-45.0275220384446,40.8301673675993,-84.3226243953867,0.713954825869728,-37.4358695030537,59.3219236405823,-8.56420057563296,68.8891594535856,29.570923196363,-17.0003240678647,58.056946143491,-17.3253808798602,4.82025448553444,91.4875961005555,-5.54285438346145,-27.6210364978282,18.0247396660551,6.15225444492437,-36.7940699031889,-19.7380744686081,2.00075036701828,-50.9317947916801,12.6993470320026,113.238496884656,-35.5139983028864,-43.5378190386011,109.193237949076,12.1974578874655,6.95966704096178,22.949970685534,-42.6618666504417,9.32374719313545,19.8781914270816,61.3601520002527,46.0185240136555,1.43699342962532,-26.5840124837593,-21.8879369376856,-37.081388958964,12.0961491403467,-52.7796324109272,35.7573381671932,-1.81819939303108,53.8493880474401,27.4820364446072,-11.0966588802464,-6.43007484973286,13.8239794872043,18.7824336200961,0.150654859843087,20.6259203627643,-0.896227052805564,-14.6324740218197,-33.2318215119532,36.8374084113733,1.5369729572357,6.37688800747162,-44.4959521249391,29.3369265525547,44.4516401458959,-11.4545209948787,50.183276461211,26.0642853836313,7.00817705543698,0.193144947148484,17.4182603938618,-26.4746112189363,-38.546616847811,66.3734660947423,26.6237278816568,72.8780732860113,56.7674639362746,47.962642249927,49.6128560275584,12.6270282285367,12.5294084358543,-24.4850466112074,31.1109034613842,69.9357363375862,53.7440262535223,-23.5297450658669,37.2611819182798,21.2678677501793,102.751500247937,36.5370563787946,42.3507735701289,-16.1436293353156,-38.3775024450178,29.3472962117131,-38.4229080794527,62.6303096030732,-32.1067654808597,50.5445204993687,-35.2686079835181,-37.818169442845,-100.713787282328,-1.40591806355838,54.3043554959613,-3.06807389149443,-58.0896384511647,-7.99494199413021,-39.4270170888802,-7.68596473071264,-20.0982387097521,-1.67096954651702,55.0971566264876,26.3525407889967,-24.1914669617727,53.1748602775108,20.2819785500583,15.4501938088586,-48.7538105573333,24.0796111231233,-1.04534577583753,28.9577627700106,-11.8488283601965,1.84064094233888,-18.2713963034158,16.1895350981614,-6.16000707559569,-62.7781471648929,20.5345192168028,-80.5227855659633,-83.4962633929226,19.8836570046119,-10.2126720821169,-16.1964905651931,10.5514015195632,-18.4929012605841,65.1145796402771,118.72866970796,3.90913120476845,-37.2467118092105,-55.2517994965653,29.4132847030816,14.6726632476346,14.1901897181066,-30.5249460914962,12.9537362548631,-19.3848639825138,47.9390698117588,44.5947220086924,77.2996382492093,-24.7390521492414,-33.1428297430928,49.4551280177545,16.3300501265247,22.1973713882693,-21.6069606543467,20.596649118338,25.0130989059841,78.8883519668026,12.5230089019215,-3.97098013150874,-39.5288441230726,22.7492033633815,-9.25599691128135,18.1221654432212,31.6139808766015,44.4246248395763,-6.44132104564853,0.679484214499447,76.871596473416,-55.1325873416922,18.783749231792,-30.344184618844,1,1,1,1,1,1,1,1,1,1,1,1,1,1,1,1,1,1,1,1,1,1,1,1,1,1,1,1,1,1,1,1,1,1,1,1,1,1,1,1,1,1,1,1,1,1,1,1,1,1,1,1,1,1,1,1,1,1,1,1,1,1,1,1,1,1,1,1,1,1,1,1,1,1,1,1,1,1,1,1,1,1,1,1,1,1,1,1,1,1,1,1,1,1,1,1,1,1,1,1,1,1,1,1,1,1,1,1,1,1,1,1,1,1,1,1,1,1,1,1,1,1,1,1,1,1,1,1,1,1,1,1,1,1,1,1,1,1,1,1,1,1,1,1,1,1,1,1,1,1,1,1,1,1,1,1,1,1,1,1,1,1,1,1,1,1,1,1,1,1,1,1,1,1,1,1,1,1,1,1,1,1,1,1,1,1,1,1,1,1,1,1,1,1,1,1,1,1,1,1,1,1,1,1,1,1,1,1,1,1,1,1,1,1,1,1,1,1,1,1,1,1,1,1,1,1,1,1,1,1,1,1,1,1,1,1,1,1,1,1,1,1,1,1,1,1,1,1,1,1,1,1,1,1,1,1,1,1,1,1,1,1,1,1,1,1,1,1,1,1,-11.9092896055073,10.73459783168,0.277141570013805,9.46666106946167,20.9753490509512,-6.42124001961171,-62.9897511312138,-14.0211768960074,50.6583459624122,17.1867911406175,-22.2300588630694,-24.6245959355639,28.5853771146038,-40.0264543514541,5.1760609725188,-17.2949160522103,-30.0597278684795,-16.4470790357787,-25.5492405719241,14.9802978412972,-50.4891490799222,-47.6634465108168,-37.8107914314073,-14.0307062070373,-70.4870414237613,21.9268712145683,-60.8005362914037,8.21080590630563,2.77217743111118,-116.160468864323,13.531493032663,92.7233724783649,-9.4779381054963,-58.3931263479273,13.319179687451,-1.57173098256522,-10.3726330599861,15.6370767948626,-72.2617285585171,-1.6461903188185,9.51559388230216,-10.0001548255929,6.45029688993605,-22.832685354823,17.7915585772827,-5.71542221864556,13.9787779904162,-17.3283923614276,-35.3849796319941,-38.632220106499,19.6993235883399,-54.8081400947136,-11.9373984280153,-17.6277037065468,-1.55110974641437,67.9139265329188,-28.9388757944601,-90.3626011824333,-39.7873450303489,18.0285197083624,-35.9906657725598,13.5861157653516,23.2894082915127,-14.4322168106576,-81.104751106455,-6.46586810894723,-5.71149854998257,-2.6006689223624,-4.77979669215089,-17.1116568188167,-40.5259677549622,-26.0708858537482,-14.3527138510037,2.10802592999783,-30.9905447386007,-18.0567235087308,-24.297764609152,-41.9887843091848,-12.0329032305798,10.8177246366619,-52.2932171857652,-43.3396488990039,19.9237468866935,20.7755791586291,46.373837132589,-33.4572090114323,9.05138158253363,-23.6337062708164,-12.4832537530163,27.6772847826561,-15.984939061732,-24.2400268332961,-8.00339951747155,16.6094726764871,69.0578828162672,-31.2835877159915,9.18036876144471,-30.5935226528701,38.2392717679977,-6.63098046881925,-40.5055968972954,17.7405516144914,9.69538615968514,69.8587661707161,4.67048581932293,-1.73368618585354,33.213019869143,-6.79109053093119,11.482929951791,-41.134802716186,18.3420007787894,-75.6441440819414,8.17665688887431,-61.7292050363343,1.41139751822237,15.0961369828909,11.5249933672947,15.7467661059591,11.8768671667513,41.8136939574568,26.4608564531688,14.6391577279043,-13.5043687636431,78.1974540526847,-8.31094569610425,32.0343558196103,36.7790855425665,8.33734019016611,19.5813175130969,26.755462776518,4.16524639661239,-19.2577744715321,-45.5671317727039,43.8303299982474,-46.516360082794,26.8214704775133,-11.8421213616456,-4.22353745211287,53.1400160857529,19.0208696826736,34.5279495189099,-37.5049118835534,-62.4466262612382,19.794975725986,-46.8435893783454,27.5658064444473,26.7528912574429,-15.2520570054414,27.0308833532665,29.7552242572762,27.1214077025609,-5.46817438550425,15.1518764217147,-12.8822897220516,29.6665476740941,41.0272009920576,32.8239555715745,-36.6720449054973,-12.3748778299917,-12.4741726350874,-22.0435834039245,-25.5622031665416,-6.8898075636175,36.7003858796511,1.82016908269373,-20.0939221882586,8.67410846866003,10.2792174784232,-18.12961080803,-54.7313977467432,-18.9294373157326,-61.549634119087,-3.16762672676159,-2.31866323827621,56.6676481084264,50.2478348580136,-9.72197662567578,4.96506932144979,-42.8968434482723,-26.8964473387882,-4.82463907035299,25.05735122806,43.6836546019511,10.9397676759134,-49.5368779760741,1.19336642997259,-16.7942168004734,20.6764113722233,-33.0963343696469,-2.57303088930221,-30.8629311865949,-44.12043109582,-17.173305873159,40.5490419486233,-37.3734129373844,-3.78987432069134,-7.72688517269995,41.2732737001973,8.3379899351227,-20.9035398344624,-34.8410546777318,-0.985763582803642,-0.0362842399261619,-30.5898066042105,69.0163982254455,-26.2407340734876,-3.73612841313708,14.0336409567839,-58.3167852866864,26.8970805693141,-18.0793424630981,34.5470777561481,0.429342645987861,-24.3042623485062,34.8327519017497,5.00899337964627,-30.8931487330405,-62.5025240053788,-74.9106869973252,-48.2026340112265,50.9403062634356,3.4885822874826,19.3410479022594,-3.29639018706659,14.3118254312719,20.3916097726747,-11.0601323980922,-27.8988256431933,-33.3547681551674,-15.6670903508951,35.6676813825376,-25.2448162969394,-10.0117920508966,-16.1925347168356,8.56400736087898,8.20136344089619,42.7518684409911,26.0312111041422,-12.3188181126898,-6.75489655561259,-9.66779662442314,43.4088034831225,-29.6536581821172,51.2322070725751,-1.14451302833482,31.8076737303459,8.01827296526717,10.5635390717895,62.3504408180325,-22.5614080488558,-70.2794659780543,2.25389982299499,5.94717862728111,29.9474318824144,-59.2445776254822,17.517699994782,-14.4223688233924,36.6656393292532,0.533936291370095,46.4245344843492,-31.3504792023941,32.1329016507573,10.5805350234164,34.7326535448888,6.49109401503317,-71.9124337746178,-65.1068975898952,-7.64757168494082,-90.329463281215,17.7710372784357,1,1,1,1,1,1,1,1,1,1,1,1,1,1,1,1,1,1,1,1,1,1,1,1,1,1,1,1,1,1,1,1,1,1,1,1,1,1,1,1,1,1,1,1,1,1,1,1,1,1,1,1,1,1,1,1,1,1,1,1,1,1,1,1,1,1,1,1,1,1,1,1,1,1,1,1,1,1,1,1,1,1,1,1,1,1,1,1,1,1,1,1,1,1,1,1,1,1,1,1,1,1,1,1,1,1,1,1,1,1,1,1,1,1,1,1,1,1,1,1,1,1,1,1,1,1,1,1,1,1,1,1,1,1,1,1,1,1,1,1,1,1,1,1,1,1,1,1,1,1,1,1,1,1,1,1,1,1,1,1,1,1,1,1,1,1,1,1,1,1,1,1,1,1,1,1,1,1,1,1,1,1,1,1,1,1,1,1,1,1,1,1,1,1,1,1,1,1,1,1,1,1,1,1,1,1,1,1,1,1,1,1,1,1,1,1,1,1,1,1,1,1,1,1,1,1,1,1,1,1,1,1,1,1,1,1,1,1,1,1,1,1,1,1,1,1,1,1,1,1,1,1,1,1,1,1,1,1,1,1,1,1,1,1,1,1,1,1,1,1
100.029289184618,165.172501118934,-124.632211797699,-47.8422987343604,100.318553352627,-36.8348158876247,-35.7527588872655,10.0789892802879,-3.98735031584098,17.6881726285935,75.5257423166219,-11.8889104496963,28.0196826565693,-32.9833030750526,26.1245534193422,-26.4694205147574,-50.813133600001,14.0460491550033,-40.104848068318,-27.8877951741205,-14.2776740718086,-21.6450795041877,-102.550406417268,-68.6912447927855,24.3346995100464,28.7644339581051,14.4841304597703,-85.7566384764216,75.8266848177023,53.4200342861941,61.8411178552302,30.727787852346,6.0230971162252,-18.702926681284,-44.7630822283801,3.40920092405874,8.21124688946599,-24.0784685886481,-37.5696516747862,-2.83154671880231,-14.3483009610776,46.4502956096929,-24.8280067704786,-33.174055536372,41.055373747683,-50.0472905196766,60.2227605923594,-60.0437908313143,-8.88282144855892,12.6512603733904,8.11547467609208,6.83459267325994,13.82868435008,10.3484395988096,36.8532371611142,78.8873191721772,-11.7231170653255,-19.1500991032695,24.7982412241335,-38.3146138247086,29.4106056493844,23.2471036661967,13.9223481703678,-28.2668078917051,-63.2259391864883,-10.665490028975,-7.93757067204707,-16.3968882709794,6.19664798904631,69.2669049300827,44.9365095000073,-2.65525771711918,2.95262727745237,77.7067614640215,-5.62063154490567,22.3226518540459,40.5389218330755,1.2222389726816,16.4865247971071,-28.9551341458436,33.2858359266688,-20.276523858098,8.71495669382636,22.959737467153,-0.385548917070544,-30.8827793365516,-25.7652219534222,-1.19094765483937,28.0980548783726,46.0718397385072,28.9677735221073,33.8522871624426,18.4188810678323,-14.7173064585893,16.4971273225153,-30.2262527380309,-1.91972552465718,55.5565459144631,29.9420828959472,103.748921195939,0.0806995962645746,2.4409644878857,4.23857240330564,20.9509787272262,24.8496506595154,-1.90244777591691,14.1239879487142,-71.2631194459321,4.1909201969772,-45.0275220384446,40.8301673675993,-84.3226243953867,0.713954825869728,-37.4358695030537,59.3219236405823,-8.56420057563296,68.8891594535856,29.570923196363,-17.0003240678647,58.056946143491,-17.3253808798602,4.82025448553444,91.4875961005555,-5.54285438346145,-27.6210364978282,18.0247396660551,6.15225444492437,-36.7940699031889,-19.7380744686081,2.00075036701828,-50.9317947916801,12.6993470320026,113.238496884656,-35.5139983028864,-43.5378190386011,109.193237949076,12.1974578874655,6.95966704096178,22.949970685534,-42.6618666504417,9.32374719313545,19.8781914270816,61.3601520002527,46.0185240136555,1.43699342962532,-26.5840124837593,-21.8879369376856,-37.081388958964,12.0961491403467,-52.7796324109272,35.7573381671932,-1.81819939303108,53.8493880474401,27.4820364446072,-11.0966588802464,-6.43007484973286,13.8239794872043,18.7824336200961,0.150654859843087,20.6259203627643,-0.896227052805564,-14.6324740218197,-33.2318215119532,36.8374084113733,1.5369729572357,6.37688800747162,-44.4959521249391,29.3369265525547,44.4516401458959,-11.4545209948787,50.183276461211,26.0642853836313,7.00817705543698,0.193144947148484,17.4182603938618,-26.4746112189363,-38.546616847811,66.3734660947423,26.6237278816568,72.8780732860113,56.7674639362746,47.962642249927,49.6128560275584,12.6270282285367,12.5294084358543,-24.4850466112074,31.1109034613842,69.9357363375862,53.7440262535223,-23.5297450658669,37.2611819182798,21.2678677501793,102.751500247937,36.5370563787946,42.3507735701289,-16.1436293353156,-38.3775024450178,29.3472962117131,-38.4229080794527,62.6303096030732,-32.1067654808597,50.5445204993687,-35.2686079835181,-37.818169442845,-100.713787282328,-1.40591806355838,54.3043554959613,-3.06807389149443,-58.0896384511647,-7.99494199413021,-39.4270170888802,-7.68596473071264,-20.0982387097521,-1.67096954651702,55.0971566264876,26.3525407889967,-24.1914669617727,53.1748602775108,20.2819785500583,15.4501938088586,-48.7538105573333,24.0796111231233,-1.04534577583753,28.9577627700106,-11.8488283601965,1.84064094233888,-18.2713963034158,16.1895350981614,-6.16000707559569,-62.7781471648929,20.5345192168028,-80.5227855659633,-83.4962633929226,19.8836570046119,-10.2126720821169,-16.1964905651931,10.5514015195632,-18.4929012605841,65.1145796402771,118.72866970796,3.90913120476845,-37.2467118092105,-55.2517994965653,29.4132847030816,14.6726632476346,14.1901897181066,-30.5249460914962,12.9537362548631,-19.3848639825138,47.9390698117588,44.5947220086924,77.2996382492093,-24.7390521492414,-33.1428297430928,49.4551280177545,16.3300501265247,22.1973713882693,-21.6069606543467,20.596649118338,25.0130989059841,78.8883519668026,12.5230089019215,-3.97098013150874,-39.5288441230726,22.7492033633815,-9.25599691128135,18.1221654432212,31.6139808766015,44.4246248395763,-6.44132104564853,0.679484214499447,76.871596473416,-55.1325873416922,18.783749231792,-30.344184618844,1,1,1,1,1,1,1,1,1,1,1,1,1,1,1,1,1,1,1,1,1,1,1,1,1,1,1,1,1,1,1,1,1,1,1,1,1,1,1,1,1,1,1,1,1,1,1,1,1,1,1,1,1,1,1,1,1,1,1,1,1,1,1,1,1,1,1,1,1,1,1,1,1,1,1,1,1,1,1,1,1,1,1,1,1,1,1,1,1,1,1,1,1,1,1,1,1,1,1,1,1,1,1,1,1,1,1,1,1,1,1,1,1,1,1,1,1,1,1,1,1,1,1,1,1,1,1,1,1,1,1,1,1,1,1,1,1,1,1,1,1,1,1,1,1,1,1,1,1,1,1,1,1,1,1,1,1,1,1,1,1,1,1,1,1,1,1,1,1,1,1,1,1,1,1,1,1,1,1,1,1,1,1,1,1,1,1,1,1,1,1,1,1,1,1,1,1,1,1,1,1,1,1,1,1,1,1,1,1,1,1,1,1,1,1,1,1,1,1,1,1,1,1,1,1,1,1,1,1,1,1,1,1,1,1,1,1,1,1,1,1,1,1,1,1,1,1,1,1,1,1,1,1,1,1,1,1,1,1,1,1,1,1,1,1,1,1,1,1,1,-11.9092896055073,10.73459783168,0.277141570013805,9.46666106946167,20.9753490509512,-6.42124001961171,-62.9897511312138,-14.0211768960074,50.6583459624122,17.1867911406175,-22.2300588630694,-24.6245959355639,28.5853771146038,-40.0264543514541,5.1760609725188,-17.2949160522103,-30.0597278684795,-16.4470790357787,-25.5492405719241,14.9802978412972,-50.4891490799222,-47.6634465108168,-37.8107914314073,-14.0307062070373,-70.4870414237613,21.9268712145683,-60.8005362914037,8.21080590630563,2.77217743111118,-116.160468864323,13.531493032663,92.7233724783649,-9.4779381054963,-58.3931263479273,13.319179687451,-1.57173098256522,-10.3726330599861,15.6370767948626,-72.2617285585171,-1.6461903188185,9.51559388230216,-10.0001548255929,6.45029688993605,-22.832685354823,17.7915585772827,-5.71542221864556,13.9787779904162,-17.3283923614276,-35.3849796319941,-38.632220106499,19.6993235883399,-54.8081400947136,-11.9373984280153,-17.6277037065468,-1.55110974641437,67.9139265329188,-28.9388757944601,-90.3626011824333,-39.7873450303489,18.0285197083624,-35.9906657725598,13.5861157653516,23.2894082915127,-14.4322168106576,-81.104751106455,-6.46586810894723,-5.71149854998257,-2.6006689223624,-4.77979669215089,-17.1116568188167,-40.5259677549622,-26.0708858537482,-14.3527138510037,2.10802592999783,-30.9905447386007,-18.0567235087308,-24.297764609152,-41.9887843091848,-12.0329032305798,10.8177246366619,-52.2932171857652,-43.3396488990039,19.9237468866935,20.7755791586291,46.373837132589,-33.4572090114323,9.05138158253363,-23.6337062708164,-12.4832537530163,27.6772847826561,-15.984939061732,-24.2400268332961,-8.00339951747155,16.6094726764871,69.0578828162672,-31.2835877159915,9.18036876144471,-30.5935226528701,38.2392717679977,-6.63098046881925,-40.5055968972954,17.7405516144914,9.69538615968514,69.8587661707161,4.67048581932293,-1.73368618585354,33.213019869143,-6.79109053093119,11.482929951791,-41.134802716186,18.3420007787894,-75.6441440819414,8.17665688887431,-61.7292050363343,1.41139751822237,15.0961369828909,11.5249933672947,15.7467661059591,11.8768671667513,41.8136939574568,26.4608564531688,14.6391577279043,-13.5043687636431,78.1974540526847,-8.31094569610425,32.0343558196103,36.7790855425665,8.33734019016611,19.5813175130969,26.755462776518,4.16524639661239,-19.2577744715321,-45.5671317727039,43.8303299982474,-46.516360082794,26.8214704775133,-11.8421213616456,-4.22353745211287,53.1400160857529,19.0208696826736,34.5279495189099,-37.5049118835534,-62.4466262612382,19.794975725986,-46.8435893783454,27.5658064444473,26.7528912574429,-15.2520570054414,27.0308833532665,29.7552242572762,27.1214077025609,-5.46817438550425,15.1518764217147,-12.8822897220516,29.6665476740941,41.0272009920576,32.8239555715745,-36.6720449054973,-12.3748778299917,-12.4741726350874,-22.0435834039245,-25.5622031665416,-6.8898075636175,36.7003858796511,1.82016908269373,-20.0939221882586,8.67410846866003,10.2792174784232,-18.12961080803,-54.7313977467432,-18.9294373157326,-61.549634119087,-3.16762672676159,-2.31866323827621,56.6676481084264,50.2478348580136,-9.72197662567578,4.96506932144979,-42.8968434482723,-26.8964473387882,-4.82463907035299,25.05735122806,43.6836546019511,10.9397676759134,-49.5368779760741,1.19336642997259,-16.7942168004734,20.6764113722233,-33.0963343696469,-2.57303088930221,-30.8629311865949,-44.12043109582,-17.173305873159,40.5490419486233,-37.3734129373844,-3.78987432069134,-7.72688517269995,41.2732737001973,8.3379899351227,-20.9035398344624,-34.8410546777318,-0.985763582803642,-0.0362842399261619,-30.5898066042105,69.0163982254455,-26.2407340734876,-3.73612841313708,14.0336409567839,-58.3167852866864,26.8970805693141,-18.0793424630981,34.5470777561481,0.429342645987861,-24.3042623485062,34.8327519017497,5.00899337964627,-30.8931487330405,-62.5025240053788,-74.9106869973252,-48.2026340112265,50.9403062634356,3.4885822874826,19.3410479022594,-3.29639018706659,14.3118254312719,20.3916097726747,-11.0601323980922,-27.8988256431933,-33.3547681551674,-15.6670903508951,35.6676813825376,-25.2448162969394,-10.0117920508966,-16.1925347168356,8.56400736087898,8.20136344089619,42.7518684409911,26.0312111041422,-12.3188181126898,-6.75489655561259,-9.66779662442314,43.4088034831225,-29.6536581821172,51.2322070725751,-1.14451302833482,31.8076737303459,8.01827296526717,10.5635390717895,62.3504408180325,-22.5614080488558,-70.2794659780543,2.25389982299499,5.94717862728111,29.9474318824144,-59.2445776254822,17.517699994782,-14.4223688233924,36.6656393292532,0.533936291370095,46.4245344843492,-31.3504792023941,32.1329016507573,10.5805350234164,34.7326535448888,6.49109401503317,-71.9124337746178,-65.1068975898952,-7.64757168494082,-90.329463281215,17.7710372784357,1,1,1,1,1,1,1,1,1,1,1,1,1,1,1,1,1,1,1,1,1,1,1,1,1,1,1,1,1,1,1,1,1,1,1,1,1,1,1,1,1,1,1,1,1,1,1,1,1,1,1,1,1,1,1,1,1,1,1,1,1,1,1,1,1,1,1,1,1,1,1,1,1,1,1,1,1,1,1,1,1,1,1,1,1,1,1,1,1,1,1,1,1,1,1,1,1,1,1,1,1,1,1,1,1,1,1,1,1,1,1,1,1,1,1,1,1,1,1,1,1,1,1,1,1,1,1,1,1,1,1,1,1,1,1,1,1,1,1,1,1,1,1,1,1,1,1,1,1,1,1,1,1,1,1,1,1,1,1,1,1,1,1,1,1,1,1,1,1,1,1,1,1,1,1,1,1,1,1,1,1,1,1,1,1,1,1,1,1,1,1,1,1,1,1,1,1,1,1,1,1,1,1,1,1,1,1,1,1,1,1,1,1,1,1,1,1,1,1,1,1,1,1,1,1,1,1,1,1,1,1,1,1,1,1,1,1,1,1,1,1,1,1,1,1,1,1,1,1,1,1,1,1,1,1,1,1,1,1,1,1,1,1,1,1,1,1,1,1,1,-21.610885990238,54.9445183987301,-36.8348158876247,-35.7527588872655,10.0789892802879,-3.98735031584098,17.6881726285935,75.5257423166219,-11.8889104496963,28.0196826565693,-32.9833030750526,26.1245534193422,-26.4694205147574,-50.813133600001,14.0460491550033,-40.104848068318,-27.8877951741205,-14.2776740718086,-21.6450795041877,-102.550406417268,-68.6912447927855,24.3346995100464,28.7644339581051,14.4841304597703,-85.7566384764216,75.8266848177023,53.4200342861941,61.8411178552302,30.727787852346,6.0230971162252,-18.702926681284,-44.7630822283801,3.40920092405874,8.21124688946599,-24.0784685886481,-37.5696516747862,-2.83154671880231,-14.3483009610776,46.4502956096929,-24.8280067704786,-33.174055536372,41.055373747683,-50.0472905196766,60.2227605923594,-60.0437908313143,-8.88282144855892,12.6512603733904,8.11547467609208,6.83459267325994,13.82868435008,10.3484395988096,36.8532371611142,78.8873191721772,-11.7231170653255,-19.1500991032695,24.7982412241335,-38.3146138247086,29.4106056493844,23.2471036661967,13.9223481703678,-28.2668078917051,-63.2259391864883,-10.665490028975,-7.93757067204707,-16.3968882709794,6.19664798904631,69.2669049300827,44.9365095000073,-2.65525771711918,2.95262727745237,77.7067614640215,-5.62063154490567,22.3226518540459,40.5389218330755,1.2222389726816,16.4865247971071,-28.9551341458436,33.2858359266688,-20.276523858098,8.71495669382636,22.959737467153,-0.385548917070544,-30.8827793365516,-25.7652219534222,-1.19094765483937,28.0980548783726,46.0718397385072,28.9677735221073,33.8522871624426,18.4188810678323,-14.7173064585893,16.4971273225153,-30.2262527380309,-1.91972552465718,55.5565459144631,29.9420828959472,103.748921195939,0.0806995962645746,2.4409644878857,4.23857240330564,20.9509787272262,24.8496506595154,-1.90244777591691,14.1239879487142,-71.2631194459321,4.1909201969772,-45.0275220384446,40.8301673675993,-84.3226243953867,0.713954825869728,-37.4358695030537,59.3219236405823,-8.56420057563296,68.8891594535856,29.570923196363,-17.0003240678647,58.056946143491,-17.3253808798602,4.82025448553444,91.4875961005555,-5.54285438346145,-27.6210364978282,18.0247396660551,6.15225444492437,-36.7940699031889,-19.7380744686081,2.00075036701828,-50.9317947916801,12.6993470320026,113.238496884656,-35.5139983028864,-43.5378190386011,109.193237949076,12.1974578874655,6.95966704096178,22.949970685534,-42.6618666504417,9.32374719313545,19.8781914270816,61.3601520002527,46.0185240136555,1.43699342962532,-26.5840124837593,-21.8879369376856,-37.081388958964,12.0961491403467,-52.7796324109272,35.7573381671932,-1.81819939303108,53.8493880474401,27.4820364446072,-11.0966588802464,-6.43007484973286,13.8239794872043,18.7824336200961,0.150654859843087,20.6259203627643,-0.896227052805564,-14.6324740218197,-33.2318215119532,36.8374084113733,1.5369729572357,6.37688800747162,-44.4959521249391,29.3369265525547,44.4516401458959,-11.4545209948787,50.183276461211,26.0642853836313,7.00817705543698,0.193144947148484,17.4182603938618,-26.4746112189363,-38.546616847811,66.3734660947423,26.6237278816568,72.8780732860113,56.7674639362746,47.962642249927,49.6128560275584,12.6270282285367,12.5294084358543,-24.4850466112074,31.1109034613842,69.9357363375862,53.7440262535223,-23.5297450658669,37.2611819182798,21.2678677501793,102.751500247937,36.5370563787946,42.3507735701289,-16.1436293353156,-38.3775024450178,29.3472962117131,-38.4229080794527,62.6303096030732,-32.1067654808597,50.5445204993687,-35.2686079835181,-37.818169442845,-100.713787282328,-1.40591806355838,54.3043554959613,-3.06807389149443,-58.0896384511647,-7.99494199413021,-39.4270170888802,-7.68596473071264,-20.0982387097521,-1.67096954651702,55.0971566264876,26.3525407889967,-24.1914669617727,53.1748602775108,20.2819785500583,15.4501938088586,-48.7538105573333,24.0796111231233,-1.04534577583753,28.9577627700106,-11.8488283601965,1.84064094233888,-18.2713963034158,16.1895350981614,-6.16000707559569,-62.7781471648929,20.5345192168028,-80.5227855659633,-83.4962633929226,19.8836570046119,-10.2126720821169,-16.1964905651931,10.5514015195632,-18.4929012605841,65.1145796402771,118.72866970796,3.90913120476845,-37.2467118092105,-55.2517994965653,29.4132847030816,14.6726632476346,14.1901897181066,-30.5249460914962,12.9537362548631,-19.3848639825138,47.9390698117588,44.5947220086924,77.2996382492093,-24.7390521492414,-33.1428297430928,49.4551280177545,16.3300501265247,22.1973713882693,-21.6069606543467,20.596649118338,25.0130989059841,78.8883519668026,12.5230089019215,-3.97098013150874,-39.5288441230726,22.7492033633815,-9.25599691128135,18.1221654432212,31.6139808766015,44.4246248395763,-6.44132104564853,0.679484214499447,76.871596473416,-55.1325873416922,18.783749231792,-30.344184618844,1,1,1,1,1,1,1,1,1,1,1,1,1,1,1,1,1,1,1,1,1,1,1,1,1,1,1,1,1,1,1,1,1,1,1,1,1,1,1,1,1,1,1,1,1,1,1,1,1,1,1,1,1,1,1,1,1,1,1,1,1,1,1,1,1,1,1,1,1,1,1,1,1,1,1,1,1,1,1,1,1,1,1,1,1,1,1,1,1,1,1,1,1,1,1,1,1,1,1,1,1,1,1,1,1,1,1,1,1,1,1,1,1,1,1,1,1,1,1,1,1,1,1,1,1,1,1,1,1,1,1,1,1,1,1,1,1,1,1,1,1,1,1,1,1,1,1,1,1,1,1,1,1,1,1,1,1,1,1,1,1,1,1,1,1,1,1,1,1,1,1,1,1,1,1,1,1,1,1,1,1,1,1,1,1,1,1,1,1,1,1,1,1,1,1,1,1,1,1,1,1,1,1,1,1,1,1,1,1,1,1,1,1,1,1,1,1,1,1,1,1,1,1,1,1,1,1,1,1,1,1,1,1,1,1,1,1,1,1,1,1,1,1,1,1,1,1,1,1,1,1,1,1,1,1,1,1,1,1,1,1,1,1,1,1,1,1,1,1,1,-11.9092896055073,10.73459783168,0.277141570013805,9.46666106946167,20.9753490509512,-6.42124001961171,-62.9897511312138,-14.0211768960074,50.6583459624122,17.1867911406175,-22.2300588630694,-24.6245959355639,28.5853771146038,-40.0264543514541,5.1760609725188,-17.2949160522103,-30.0597278684795,-16.4470790357787,-25.5492405719241,14.9802978412972,-50.4891490799222,-47.6634465108168,-37.8107914314073,-14.0307062070373,-70.4870414237613,21.9268712145683,-60.8005362914037,8.21080590630563,2.77217743111118,-116.160468864323,13.531493032663,92.7233724783649,-9.4779381054963,-58.3931263479273,13.319179687451,-1.57173098256522,-10.3726330599861,15.6370767948626,-72.2617285585171,-1.6461903188185,9.51559388230216,-10.0001548255929,6.45029688993605,-22.832685354823,17.7915585772827,-5.71542221864556,13.9787779904162,-17.3283923614276,-35.3849796319941,-38.632220106499,19.6993235883399,-54.8081400947136,-11.9373984280153,-17.6277037065468,-1.55110974641437,67.9139265329188,-28.9388757944601,-90.3626011824333,-39.7873450303489,18.0285197083624,-35.9906657725598,13.5861157653516,23.2894082915127,-14.4322168106576,-81.104751106455,-6.46586810894723,-5.71149854998257,-2.6006689223624,-4.77979669215089,-17.1116568188167,-40.5259677549622,-26.0708858537482,-14.3527138510037,2.10802592999783,-30.9905447386007,-18.0567235087308,-24.297764609152,-41.9887843091848,-12.0329032305798,10.8177246366619,-52.2932171857652,-43.3396488990039,19.9237468866935,20.7755791586291,46.373837132589,-33.4572090114323,9.05138158253363,-23.6337062708164,-12.4832537530163,27.6772847826561,-15.984939061732,-24.2400268332961,-8.00339951747155,16.6094726764871,69.0578828162672,-31.2835877159915,9.18036876144471,-30.5935226528701,38.2392717679977,-6.63098046881925,-40.5055968972954,17.7405516144914,9.69538615968514,69.8587661707161,4.67048581932293,-1.73368618585354,33.213019869143,-6.79109053093119,11.482929951791,-41.134802716186,18.3420007787894,-75.6441440819414,8.17665688887431,-61.7292050363343,1.41139751822237,15.0961369828909,11.5249933672947,15.7467661059591,11.8768671667513,41.8136939574568,26.4608564531688,14.6391577279043,-13.5043687636431,78.1974540526847,-8.31094569610425,32.0343558196103,36.7790855425665,8.33734019016611,19.5813175130969,26.755462776518,4.16524639661239,-19.2577744715321,-45.5671317727039,43.8303299982474,-46.516360082794,26.8214704775133,-11.8421213616456,-4.22353745211287,53.1400160857529,19.0208696826736,34.5279495189099,-37.5049118835534,-62.4466262612382,19.794975725986,-46.8435893783454,27.5658064444473,26.7528912574429,-15.2520570054414,27.0308833532665,29.7552242572762,27.1214077025609,-5.46817438550425,15.1518764217147,-12.8822897220516,29.6665476740941,41.0272009920576,32.8239555715745,-36.6720449054973,-12.3748778299917,-12.4741726350874,-22.0435834039245,-25.5622031665416,-6.8898075636175,36.7003858796511,1.82016908269373,-20.0939221882586,8.67410846866003,10.2792174784232,-18.12961080803,-54.7313977467432,-18.9294373157326,-61.549634119087,-3.16762672676159,-2.31866323827621,56.6676481084264,50.2478348580136,-9.72197662567578,4.96506932144979,-42.8968434482723,-26.8964473387882,-4.82463907035299,25.05735122806,43.6836546019511,10.9397676759134,-49.5368779760741,1.19336642997259,-16.7942168004734,20.6764113722233,-33.0963343696469,-2.57303088930221,-30.8629311865949,-44.12043109582,-17.173305873159,40.5490419486233,-37.3734129373844,-3.78987432069134,-7.72688517269995,41.2732737001973,8.3379899351227,-20.9035398344624,-34.8410546777318,-0.985763582803642,-0.0362842399261619,-30.5898066042105,69.0163982254455,-26.2407340734876,-3.73612841313708,14.0336409567839,-58.3167852866864,26.8970805693141,-18.0793424630981,34.5470777561481,0.429342645987861,-24.3042623485062,34.8327519017497,5.00899337964627,-30.8931487330405,-62.5025240053788,-74.9106869973252,-48.2026340112265,50.9403062634356,3.4885822874826,19.3410479022594,-3.29639018706659,14.3118254312719,20.3916097726747,-11.0601323980922,-27.8988256431933,-33.3547681551674,-15.6670903508951,35.6676813825376,-25.2448162969394,-10.0117920508966,-16.1925347168356,8.56400736087898,8.20136344089619,42.7518684409911,26.0312111041422,-12.3188181126898,-6.75489655561259,-9.66779662442314,43.4088034831225,-29.6536581821172,51.2322070725751,-1.14451302833482,31.8076737303459,8.01827296526717,10.5635390717895,62.3504408180325,-22.5614080488558,-70.2794659780543,2.25389982299499,5.94717862728111,29.9474318824144,-59.2445776254822,17.517699994782,-14.4223688233924,36.6656393292532,0.533936291370095,46.4245344843492,-31.3504792023941,32.1329016507573,10.5805350234164,34.7326535448888,6.49109401503317,-71.9124337746178,-65.1068975898952,-7.64757168494082,-90.329463281215,17.7710372784357,1,1,1,1,1,1,1,1,1,1,1,1,1,1,1,1,1,1,1,1,1,1,1,1,1,1,1,1,1,1,1,1,1,1,1,1,1,1,1,1,1,1,1,1,1,1,1,1,1,1,1,1,1,1,1,1,1,1,1,1,1,1,1,1,1,1,1,1,1,1,1,1,1,1,1,1,1,1,1,1,1,1,1,1,1,1,1,1,1,1,1,1,1,1,1,1,1,1,1,1,1,1,1,1,1,1,1,1,1,1,1,1,1,1,1,1,1,1,1,1,1,1,1,1,1,1,1,1,1,1,1,1,1,1,1,1,1,1,1,1,1,1,1,1,1,1,1,1,1,1,1,1,1,1,1,1,1,1,1,1,1,1,1,1,1,1,1,1,1,1,1,1,1,1,1,1,1,1,1,1,1,1,1,1,1,1,1,1,1,1,1,1,1,1,1,1,1,1,1,1,1,1,1,1,1,1,1,1,1,1,1,1,1,1,1,1,1,1,1,1,1,1,1,1,1,1,1,1,1,1,1,1,1,1,1,1,1,1,1,1,1,1,1,1,1,1,1,1,1,1,1,1,1,1,1,1,1,1,1,1,1,1,1,1,1,1,1,1,1,1,55.7892678977796,147.63383040858,-36.8348158876247,-35.7527588872655,10.0789892802879,-3.98735031584098,17.6881726285935,75.5257423166219,-11.8889104496963,28.0196826565693,-32.9833030750526,26.1245534193422,-26.4694205147574,-50.813133600001,14.0460491550033,-40.104848068318,-27.8877951741205,-14.2776740718086,-21.6450795041877,-102.550406417268,-68.6912447927855,24.3346995100464,28.7644339581051,14.4841304597703,-85.7566384764216,75.8266848177023,53.4200342861941,61.8411178552302,30.727787852346,6.0230971162252,-18.702926681284,-44.7630822283801,3.40920092405874,8.21124688946599,-24.0784685886481,-37.5696516747862,-2.83154671880231,-14.3483009610776,46.4502956096929,-24.8280067704786,-33.174055536372,41.055373747683,-50.0472905196766,60.2227605923594,-60.0437908313143,-8.88282144855892,12.6512603733904,8.11547467609208,6.83459267325994,13.82868435008,10.3484395988096,36.8532371611142,78.8873191721772,-11.7231170653255,-19.1500991032695,24.7982412241335,-38.3146138247086,29.4106056493844,23.2471036661967,13.9223481703678,-28.2668078917051,-63.2259391864883,-10.665490028975,-7.93757067204707,-16.3968882709794,6.19664798904631,69.2669049300827,44.9365095000073,-2.65525771711918,2.95262727745237,77.7067614640215,-5.62063154490567,22.3226518540459,40.5389218330755,1.2222389726816,16.4865247971071,-28.9551341458436,33.2858359266688,-20.276523858098,8.71495669382636,22.959737467153,-0.385548917070544,-30.8827793365516,-25.7652219534222,-1.19094765483937,28.0980548783726,46.0718397385072,28.9677735221073,33.8522871624426,18.4188810678323,-14.7173064585893,16.4971273225153,-30.2262527380309,-1.91972552465718,55.5565459144631,29.9420828959472,103.748921195939,0.0806995962645746,2.4409644878857,4.23857240330564,20.9509787272262,24.8496506595154,-1.90244777591691,14.1239879487142,-71.2631194459321,4.1909201969772,-45.0275220384446,40.8301673675993,-84.3226243953867,0.713954825869728,-37.4358695030537,59.3219236405823,-8.56420057563296,68.8891594535856,29.570923196363,-17.0003240678647,58.056946143491,-17.3253808798602,4.82025448553444,91.4875961005555,-5.54285438346145,-27.6210364978282,18.0247396660551,6.15225444492437,-36.7940699031889,-19.7380744686081,2.00075036701828,-50.9317947916801,12.6993470320026,113.238496884656,-35.5139983028864,-43.5378190386011,109.193237949076,12.1974578874655,6.95966704096178,22.949970685534,-42.6618666504417,9.32374719313545,19.8781914270816,61.3601520002527,46.0185240136555,1.43699342962532,-26.5840124837593,-21.8879369376856,-37.081388958964,12.0961491403467,-52.7796324109272,35.7573381671932,-1.81819939303108,53.8493880474401,27.4820364446072,-11.0966588802464,-6.43007484973286,13.8239794872043,18.7824336200961,0.150654859843087,20.6259203627643,-0.896227052805564,-14.6324740218197,-33.2318215119532,36.8374084113733,1.5369729572357,6.37688800747162,-44.4959521249391,29.3369265525547,44.4516401458959,-11.4545209948787,50.183276461211,26.0642853836313,7.00817705543698,0.193144947148484,17.4182603938618,-26.4746112189363,-38.546616847811,66.3734660947423,26.6237278816568,72.8780732860113,56.7674639362746,47.962642249927,49.6128560275584,12.6270282285367,12.5294084358543,-24.4850466112074,31.1109034613842,69.9357363375862,53.7440262535223,-23.5297450658669,37.2611819182798,21.2678677501793,102.751500247937,36.5370563787946,42.3507735701289,-16.1436293353156,-38.3775024450178,29.3472962117131,-38.4229080794527,62.6303096030732,-32.1067654808597,50.5445204993687,-35.2686079835181,-37.818169442845,-100.713787282328,-1.40591806355838,54.3043554959613,-3.06807389149443,-58.0896384511647,-7.99494199413021,-39.4270170888802,-7.68596473071264,-20.0982387097521,-1.67096954651702,55.0971566264876,26.3525407889967,-24.1914669617727,53.1748602775108,20.2819785500583,15.4501938088586,-48.7538105573333,24.0796111231233,-1.04534577583753,28.9577627700106,-11.8488283601965,1.84064094233888,-18.2713963034158,16.1895350981614,-6.16000707559569,-62.7781471648929,20.5345192168028,-80.5227855659633,-83.4962633929226,19.8836570046119,-10.2126720821169,-16.1964905651931,10.5514015195632,-18.4929012605841,65.1145796402771,118.72866970796,3.90913120476845,-37.2467118092105,-55.2517994965653,29.4132847030816,14.6726632476346,14.1901897181066,-30.5249460914962,12.9537362548631,-19.3848639825138,47.9390698117588,44.5947220086924,77.2996382492093,-24.7390521492414,-33.1428297430928,49.4551280177545,16.3300501265247,22.1973713882693,-21.6069606543467,20.596649118338,25.0130989059841,78.8883519668026,12.5230089019215,-3.97098013150874,-39.5288441230726,22.7492033633815,-9.25599691128135,18.1221654432212,31.6139808766015,44.4246248395763,-6.44132104564853,0.679484214499447,76.871596473416,-55.1325873416922,18.783749231792,-30.344184618844,1,1,1,1,1,1,1,1,1,1,1,1,1,1,1,1,1,1,1,1,1,1,1,1,1,1,1,1,1,1,1,1,1,1,1,1,1,1,1,1,1,1,1,1,1,1,1,1,1,1,1,1,1,1,1,1,1,1,1,1,1,1,1,1,1,1,1,1,1,1,1,1,1,1,1,1,1,1,1,1,1,1,1,1,1,1,1,1,1,1,1,1,1,1,1,1,1,1,1,1,1,1,1,1,1,1,1,1,1,1,1,1,1,1,1,1,1,1,1,1,1,1,1,1,1,1,1,1,1,1,1,1,1,1,1,1,1,1,1,1,1,1,1,1,1,1,1,1,1,1,1,1,1,1,1,1,1,1,1,1,1,1,1,1,1,1,1,1,1,1,1,1,1,1,1,1,1,1,1,1,1,1,1,1,1,1,1,1,1,1,1,1,1,1,1,1,1,1,1,1,1,1,1,1,1,1,1,1,1,1,1,1,1,1,1,1,1,1,1,1,1,1,1,1,1,1,1,1,1,1,1,1,1,1,1,1,1,1,1,1,1,1,1,1,1,1,1,1,1,1,1,1,1,1,1,1,1,1,1,1,1,1,1,1,1,1,1,1,1,1,-11.9092896055073,10.73459783168,0.277141570013805,9.46666106946167,20.9753490509512,-6.42124001961171,-62.9897511312138,-14.0211768960074,50.6583459624122,17.1867911406175,-22.2300588630694,-24.6245959355639,28.5853771146038,-40.0264543514541,5.1760609725188,-17.2949160522103,-30.0597278684795,-16.4470790357787,-25.5492405719241,14.9802978412972,-50.4891490799222,-47.6634465108168,-37.8107914314073,-14.0307062070373,-70.4870414237613,21.9268712145683,-60.8005362914037,8.21080590630563,2.77217743111118,-116.160468864323,13.531493032663,92.7233724783649,-9.4779381054963,-58.3931263479273,13.319179687451,-1.57173098256522,-10.3726330599861,15.6370767948626,-72.2617285585171,-1.6461903188185,9.51559388230216,-10.0001548255929,6.45029688993605,-22.832685354823,17.7915585772827,-5.71542221864556,13.9787779904162,-17.3283923614276,-35.3849796319941,-38.632220106499,19.6993235883399,-54.8081400947136,-11.9373984280153,-17.6277037065468,-1.55110974641437,67.9139265329188,-28.9388757944601,-90.3626011824333,-39.7873450303489,18.0285197083624,-35.9906657725598,13.5861157653516,23.2894082915127,-14.4322168106576,-81.104751106455,-6.46586810894723,-5.71149854998257,-2.6006689223624,-4.77979669215089,-17.1116568188167,-40.5259677549622,-26.0708858537482,-14.3527138510037,2.10802592999783,-30.9905447386007,-18.0567235087308,-24.297764609152,-41.9887843091848,-12.0329032305798,10.8177246366619,-52.2932171857652,-43.3396488990039,19.9237468866935,20.7755791586291,46.373837132589,-33.4572090114323,9.05138158253363,-23.6337062708164,-12.4832537530163,27.6772847826561,-15.984939061732,-24.2400268332961,-8.00339951747155,16.6094726764871,69.0578828162672,-31.2835877159915,9.18036876144471,-30.5935226528701,38.2392717679977,-6.63098046881925,-40.5055968972954,17.7405516144914,9.69538615968514,69.8587661707161,4.67048581932293,-1.73368618585354,33.213019869143,-6.79109053093119,11.482929951791,-41.134802716186,18.3420007787894,-75.6441440819414,8.17665688887431,-61.7292050363343,1.41139751822237,15.0961369828909,11.5249933672947,15.7467661059591,11.8768671667513,41.8136939574568,26.4608564531688,14.6391577279043,-13.5043687636431,78.1974540526847,-8.31094569610425,32.0343558196103,36.7790855425665,8.33734019016611,19.5813175130969,26.755462776518,4.16524639661239,-19.2577744715321,-45.5671317727039,43.8303299982474,-46.516360082794,26.8214704775133,-11.8421213616456,-4.22353745211287,53.1400160857529,19.0208696826736,34.5279495189099,-37.5049118835534,-62.4466262612382,19.794975725986,-46.8435893783454,27.5658064444473,26.7528912574429,-15.2520570054414,27.0308833532665,29.7552242572762,27.1214077025609,-5.46817438550425,15.1518764217147,-12.8822897220516,29.6665476740941,41.0272009920576,32.8239555715745,-36.6720449054973,-12.3748778299917,-12.4741726350874,-22.0435834039245,-25.5622031665416,-6.8898075636175,36.7003858796511,1.82016908269373,-20.0939221882586,8.67410846866003,10.2792174784232,-18.12961080803,-54.7313977467432,-18.9294373157326,-61.549634119087,-3.16762672676159,-2.31866323827621,56.6676481084264,50.2478348580136,-9.72197662567578,4.96506932144979,-42.8968434482723,-26.8964473387882,-4.82463907035299,25.05735122806,43.6836546019511,10.9397676759134,-49.5368779760741,1.19336642997259,-16.7942168004734,20.6764113722233,-33.0963343696469,-2.57303088930221,-30.8629311865949,-44.12043109582,-17.173305873159,40.5490419486233,-37.3734129373844,-3.78987432069134,-7.72688517269995,41.2732737001973,8.3379899351227,-20.9035398344624,-34.8410546777318,-0.985763582803642,-0.0362842399261619,-30.5898066042105,69.0163982254455,-26.2407340734876,-3.73612841313708,14.0336409567839,-58.3167852866864,26.8970805693141,-18.0793424630981,34.5470777561481,0.429342645987861,-24.3042623485062,34.8327519017497,5.00899337964627,-30.8931487330405,-62.5025240053788,-74.9106869973252,-48.2026340112265,50.9403062634356,3.4885822874826,19.3410479022594,-3.29639018706659,14.3118254312719,20.3916097726747,-11.0601323980922,-27.8988256431933,-33.3547681551674,-15.6670903508951,35.6676813825376,-25.2448162969394,-10.0117920508966,-16.1925347168356,8.56400736087898,8.20136344089619,42.7518684409911,26.0312111041422,-12.3188181126898,-6.75489655561259,-9.66779662442314,43.4088034831225,-29.6536581821172,51.2322070725751,-1.14451302833482,31.8076737303459,8.01827296526717,10.5635390717895,62.3504408180325,-22.5614080488558,-70.2794659780543,2.25389982299499,5.94717862728111,29.9474318824144,-59.2445776254822,17.517699994782,-14.4223688233924,36.6656393292532,0.533936291370095,46.4245344843492,-31.3504792023941,32.1329016507573,10.5805350234164,34.7326535448888,6.49109401503317,-71.9124337746178,-65.1068975898952,-7.64757168494082,-90.329463281215,17.7710372784357,1,1,1,1,1,1,1,1,1,1,1,1,1,1,1,1,1,1,1,1,1,1,1,1,1,1,1,1,1,1,1,1,1,1,1,1,1,1,1,1,1,1,1,1,1,1,1,1,1,1,1,1,1,1,1,1,1,1,1,1,1,1,1,1,1,1,1,1,1,1,1,1,1,1,1,1,1,1,1,1,1,1,1,1,1,1,1,1,1,1,1,1,1,1,1,1,1,1,1,1,1,1,1,1,1,1,1,1,1,1,1,1,1,1,1,1,1,1,1,1,1,1,1,1,1,1,1,1,1,1,1,1,1,1,1,1,1,1,1,1,1,1,1,1,1,1,1,1,1,1,1,1,1,1,1,1,1,1,1,1,1,1,1,1,1,1,1,1,1,1,1,1,1,1,1,1,1,1,1,1,1,1,1,1,1,1,1,1,1,1,1,1,1,1,1,1,1,1,1,1,1,1,1,1,1,1,1,1,1,1,1,1,1,1,1,1,1,1,1,1,1,1,1,1,1,1,1,1,1,1,1,1,1,1,1,1,1,1,1,1,1,1,1,1,1,1,1,1,1,1,1,1,1,1,1,1,1,1,1,1,1,1,1,1,1,1,1,1,1,1
365.949809365417,42.9158400073255,315.762018004787,-47.8422987343604,100.318553352627,-36.8348158876247,-35.7527588872655,10.0789892802879,-3.98735031584098,17.6881726285935,75.5257423166219,-11.8889104496963,28.0196826565693,-32.9833030750526,26.1245534193422,-26.4694205147574,-50.813133600001,14.0460491550033,-40.104848068318,-27.8877951741205,-14.2776740718086,-21.6450795041877,-102.550406417268,-68.6912447927855,24.3346995100464,28.7644339581051,14.4841304597703,-85.7566384764216,75.8266848177023,53.4200342861941,61.8411178552302,30.727787852346,6.0230971162252,-18.702926681284,-44.7630822283801,3.40920092405874,8.21124688946599,-24.0784685886481,-37.5696516747862,-2.83154671880231,-14.3483009610776,46.4502956096929,-24.8280067704786,-33.174055536372,41.055373747683,-50.0472905196766,60.2227605923594,-60.0437908313143,-8.88282144855892,12.6512603733904,8.11547467609208,6.83459267325994,13.82868435008,10.3484395988096,36.8532371611142,78.8873191721772,-11.7231170653255,-19.1500991032695,24.7982412241335,-38.3146138247086,29.4106056493844,23.2471036661967,13.9223481703678,-28.2668078917051,-63.2259391864883,-10.665490028975,-7.93757067204707,-16.3968882709794,6.19664798904631,69.2669049300827,44.9365095000073,-2.65525771711918,2.95262727745237,77.7067614640215,-5.62063154490567,22.3226518540459,40.5389218330755,1.2222389726816,16.4865247971071,-28.9551341458436,33.2858359266688,-20.276523858098,8.71495669382636,22.959737467153,-0.385548917070544,-30.8827793365516,-25.7652219534222,-1.19094765483937,28.0980548783726,46.0718397385072,28.9677735221073,33.8522871624426,18.4188810678323,-14.7173064585893,16.4971273225153,-30.2262527380309,-1.91972552465718,55.5565459144631,29.9420828959472,103.748921195939,0.0806995962645746,2.4409644878857,4.23857240330564,20.9509787272262,24.8496506595154,-1.90244777591691,14.1239879487142,-71.2631194459321,4.1909201969772,-45.0275220384446,40.8301673675993,-84.3226243953867,0.713954825869728,-37.4358695030537,59.3219236405823,-8.56420057563296,68.8891594535856,29.570923196363,-17.0003240678647,58.056946143491,-17.3253808798602,4.82025448553444,91.4875961005555,-5.54285438346145,-27.6210364978282,18.0247396660551,6.15225444492437,-36.7940699031889,-19.7380744686081,2.00075036701828,-50.9317947916801,12.6993470320026,113.238496884656,-35.5139983028864,-43.5378190386011,109.193237949076,12.1974578874655,6.95966704096178,22.949970685534,-42.6618666504417,9.32374719313545,19.8781914270816,61.3601520002527,46.0185240136555,1.43699342962532,-26.5840124837593,-21.8879369376856,-37.081388958964,12.0961491403467,-52.7796324109272,35.7573381671932,-1.81819939303108,53.8493880474401,27.4820364446072,-11.0966588802464,-6.43007484973286,13.8239794872043,18.7824336200961,0.150654859843087,20.6259203627643,-0.896227052805564,-14.6324740218197,-33.2318215119532,36.8374084113733,1.5369729572357,6.37688800747162,-44.4959521249391,29.3369265525547,44.4516401458959,-11.4545209948787,50.183276461211,26.0642853836313,7.00817705543698,0.193144947148484,17.4182603938618,-26.4746112189363,-38.546616847811,66.3734660947423,26.6237278816568,72.8780732860113,56.7674639362746,47.962642249927,49.6128560275584,12.6270282285367,12.5294084358543,-24.4850466112074,31.1109034613842,69.9357363375862,53.7440262535223,-23.5297450658669,37.2611819182798,21.2678677501793,102.751500247937,36.5370563787946,42.3507735701289,-16.1436293353156,-38.3775024450178,29.3472962117131,-38.4229080794527,62.6303096030732,-32.1067654808597,50.5445204993687,-35.2686079835181,-37.818169442845,-100.713787282328,-1.40591806355838,54.3043554959613,-3.06807389149443,-58.0896384511647,-7.99494199413021,-39.4270170888802,-7.68596473071264,-20.0982387097521,-1.67096954651702,55.0971566264876,26.3525407889967,-24.1914669617727,53.1748602775108,20.2819785500583,15.4501938088586,-48.7538105573333,24.0796111231233,-1.04534577583753,28.9577627700106,-11.8488283601965,1.84064094233888,-18.2713963034158,16.1895350981614,-6.16000707559569,-62.7781471648929,20.5345192168028,-80.5227855659633,-83.4962633929226,19.8836570046119,-10.2126720821169,-16.1964905651931,10.5514015195632,-18.4929012605841,65.1145796402771,118.72866970796,3.90913120476845,-37.2467118092105,-55.2517994965653,29.4132847030816,14.6726632476346,14.1901897181066,-30.5249460914962,12.9537362548631,-19.3848639825138,47.9390698117588,44.5947220086924,77.2996382492093,-24.7390521492414,-33.1428297430928,49.4551280177545,16.3300501265247,22.1973713882693,-21.6069606543467,20.596649118338,25.0130989059841,78.8883519668026,12.5230089019215,-3.97098013150874,-39.5288441230726,22.7492033633815,-9.25599691128135,18.1221654432212,31.6139808766015,44.4246248395763,-6.44132104564853,0.679484214499447,76.871596473416,-55.1325873416922,18.783749231792,-30.344184618844,1,1,1,1,1,1,1,1,1,1,1,1,1,1,1,1,1,1,1,1,1,1,1,1,1,1,1,1,1,1,1,1,1,1,1,1,1,1,1,1,1,1,1,1,1,1,1,1,1,1,1,1,1,1,1,1,1,1,1,1,1,1,1,1,1,1,1,1,1,1,1,1,1,1,1,1,1,1,1,1,1,1,1,1,1,1,1,1,1,1,1,1,1,1,1,1,1,1,1,1,1,1,1,1,1,1,1,1,1,1,1,1,1,1,1,1,1,1,1,1,1,1,1,1,1,1,1,1,1,1,1,1,1,1,1,1,1,1,1,1,1,1,1,1,1,1,1,1,1,1,1,1,1,1,1,1,1,1,1,1,1,1,1,1,1,1,1,1,1,1,1,1,1,1,1,1,1,1,1,1,1,1,1,1,1,1,1,1,1,1,1,1,1,1,1,1,1,1,1,1,1,1,1,1,1,1,1,1,1,1,1,1,1,1,1,1,1,1,1,1,1,1,1,1,1,1,1,1,1,1,1,1,1,1,1,1,1,1,1,1,1,1,1,1,1,1,1,1,1,1,1,1,1,1,1,1,1,1,1,1,1,1,1,1,1,1,1,1,1,1,-11.9092896055073,10.73459783168,0.277141570013805,9.46666106946167,20.9753490509512,-6.42124001961171,-62.9897511312138,-14.0211768960074,50.6583459624122,17.1867911406175,-22.2300588630694,-24.6245959355639,28.5853771146038,-40.0264543514541,5.1760609725188,-17.2949160522103,-30.0597278684795,-16.4470790357787,-25.5492405719241,14.9802978412972,-50.4891490799222,-47.6634465108168,-37.8107914314073,-14.0307062070373,-70.4870414237613,21.9268712145683,-60.8005362914037,8.21080590630563,2.77217743111118,-116.160468864323,13.531493032663,92.7233724783649,-9.4779381054963,-58.3931263479273,13.319179687451,-1.57173098256522,-10.3726330599861,15.6370767948626,-72.2617285585171,-1.6461903188185,9.51559388230216,-10.0001548255929,6.45029688993605,-22.832685354823,17.7915585772827,-5.71542221864556,13.9787779904162,-17.3283923614276,-35.3849796319941,-38.632220106499,19.6993235883399,-54.8081400947136,-11.9373984280153,-17.6277037065468,-1.55110974641437,67.9139265329188,-28.9388757944601,-90.3626011824333,-39.7873450303489,18.0285197083624,-35.9906657725598,13.5861157653516,23.2894082915127,-14.4322168106576,-81.104751106455,-6.46586810894723,-5.71149854998257,-2.6006689223624,-4.77979669215089,-17.1116568188167,-40.5259677549622,-26.0708858537482,-14.3527138510037,2.10802592999783,-30.9905447386007,-18.0567235087308,-24.297764609152,-41.9887843091848,-12.0329032305798,10.8177246366619,-52.2932171857652,-43.3396488990039,19.9237468866935,20.7755791586291,46.373837132589,-33.4572090114323,9.05138158253363,-23.6337062708164,-12.4832537530163,27.6772847826561,-15.984939061732,-24.2400268332961,-8.00339951747155,16.6094726764871,69.0578828162672,-31.2835877159915,9.18036876144471,-30.5935226528701,38.2392717679977,-6.63098046881925,-40.5055968972954,17.7405516144914,9.69538615968514,69.8587661707161,4.67048581932293,-1.73368618585354,33.213019869143,-6.79109053093119,11.482929951791,-41.134802716186,18.3420007787894,-75.6441440819414,8.17665688887431,-61.7292050363343,1.41139751822237,15.0961369828909,11.5249933672947,15.7467661059591,11.8768671667513,41.8136939574568,26.4608564531688,14.6391577279043,-13.5043687636431,78.1974540526847,-8.31094569610425,32.0343558196103,36.7790855425665,8.33734019016611,19.5813175130969,26.755462776518,4.16524639661239,-19.2577744715321,-45.5671317727039,43.8303299982474,-46.516360082794,26.8214704775133,-11.8421213616456,-4.22353745211287,53.1400160857529,19.0208696826736,34.5279495189099,-37.5049118835534,-62.4466262612382,19.794975725986,-46.8435893783454,27.5658064444473,26.7528912574429,-15.2520570054414,27.0308833532665,29.7552242572762,27.1214077025609,-5.46817438550425,15.1518764217147,-12.8822897220516,29.6665476740941,41.0272009920576,32.8239555715745,-36.6720449054973,-12.3748778299917,-12.4741726350874,-22.0435834039245,-25.5622031665416,-6.8898075636175,36.7003858796511,1.82016908269373,-20.0939221882586,8.67410846866003,10.2792174784232,-18.12961080803,-54.7313977467432,-18.9294373157326,-61.549634119087,-3.16762672676159,-2.31866323827621,56.6676481084264,50.2478348580136,-9.72197662567578,4.96506932144979,-42.8968434482723,-26.8964473387882,-4.82463907035299,25.05735122806,43.6836546019511,10.9397676759134,-49.5368779760741,1.19336642997259,-16.7942168004734,20.6764113722233,-33.0963343696469,-2.57303088930221,-30.8629311865949,-44.12043109582,-17.173305873159,40.5490419486233,-37.3734129373844,-3.78987432069134,-7.72688517269995,41.2732737001973,8.3379899351227,-20.9035398344624,-34.8410546777318,-0.985763582803642,-0.0362842399261619,-30.5898066042105,69.0163982254455,-26.2407340734876,-3.73612841313708,14.0336409567839,-58.3167852866864,26.8970805693141,-18.0793424630981,34.5470777561481,0.429342645987861,-24.3042623485062,34.8327519017497,5.00899337964627,-30.8931487330405,-62.5025240053788,-74.9106869973252,-48.2026340112265,50.9403062634356,3.4885822874826,19.3410479022594,-3.29639018706659,14.3118254312719,20.3916097726747,-11.0601323980922,-27.8988256431933,-33.3547681551674,-15.6670903508951,35.6676813825376,-25.2448162969394,-10.0117920508966,-16.1925347168356,8.56400736087898,8.20136344089619,42.7518684409911,26.0312111041422,-12.3188181126898,-6.75489655561259,-9.66779662442314,43.4088034831225,-29.6536581821172,51.2322070725751,-1.14451302833482,31.8076737303459,8.01827296526717,10.5635390717895,62.3504408180325,-22.5614080488558,-70.2794659780543,2.25389982299499,5.94717862728111,29.9474318824144,-59.2445776254822,17.517699994782,-14.4223688233924,36.6656393292532,0.533936291370095,46.4245344843492,-31.3504792023941,32.1329016507573,10.5805350234164,34.7326535448888,6.49109401503317,-71.9124337746178,-65.1068975898952,-7.64757168494082,-90.329463281215,17.7710372784357,1,1,1,1,1,1,1,1,1,1,1,1,1,1,1,1,1,1,1,1,1,1,1,1,1,1,1,1,1,1,1,1,1,1,1,1,1,1,1,1,1,1,1,1,1,1,1,1,1,1,1,1,1,1,1,1,1,1,1,1,1,1,1,1,1,1,1,1,1,1,1,1,1,1,1,1,1,1,1,1,1,1,1,1,1,1,1,1,1,1,1,1,1,1,1,1,1,1,1,1,1,1,1,1,1,1,1,1,1,1,1,1,1,1,1,1,1,1,1,1,1,1,1,1,1,1,1,1,1,1,1,1,1,1,1,1,1,1,1,1,1,1,1,1,1,1,1,1,1,1,1,1,1,1,1,1,1,1,1,1,1,1,1,1,1,1,1,1,1,1,1,1,1,1,1,1,1,1,1,1,1,1,1,1,1,1,1,1,1,1,1,1,1,1,1,1,1,1,1,1,1,1,1,1,1,1,1,1,1,1,1,1,1,1,1,1,1,1,1,1,1,1,1,1,1,1,1,1,1,1,1,1,1,1,1,1,1,1,1,1,1,1,1,1,1,1,1,1,1,1,1,1,1,1,1,1,1,1,1,1,1,1,1,1,1,1,1,1,1,1,-21.610885990238,54.9445183987301,-36.8348158876247,-35.7527588872655,10.0789892802879,-3.98735031584098,17.6881726285935,75.5257423166219,-11.8889104496963,28.0196826565693,-32.9833030750526,26.1245534193422,-26.4694205147574,-50.813133600001,14.0460491550033,-40.104848068318,-27.8877951741205,-14.2776740718086,-21.6450795041877,-102.550406417268,-68.6912447927855,24.3346995100464,28.7644339581051,14.4841304597703,-85.7566384764216,75.8266848177023,53.4200342861941,61.8411178552302,30.727787852346,6.0230971162252,-18.702926681284,-44.7630822283801,3.40920092405874,8.21124688946599,-24.0784685886481,-37.5696516747862,-2.83154671880231,-14.3483009610776,46.4502956096929,-24.8280067704786,-33.174055536372,41.055373747683,-50.0472905196766,60.2227605923594,-60.0437908313143,-8.88282144855892,12.6512603733904,8.11547467609208,6.83459267325994,13.82868435008,10.3484395988096,36.8532371611142,78.8873191721772,-11.7231170653255,-19.1500991032695,24.7982412241335,-38.3146138247086,29.4106056493844,23.2471036661967,13.9223481703678,-28.2668078917051,-63.2259391864883,-10.665490028975,-7.93757067204707,-16.3968882709794,6.19664798904631,69.2669049300827,44.9365095000073,-2.65525771711918,2.95262727745237,77.7067614640215,-5.62063154490567,22.3226518540459,40.5389218330755,1.2222389726816,16.4865247971071,-28.9551341458436,33.2858359266688,-20.276523858098,8.71495669382636,22.959737467153,-0.385548917070544,-30.8827793365516,-25.7652219534222,-1.19094765483937,28.0980548783726,46.0718397385072,28.9677735221073,33.8522871624426,18.4188810678323,-14.7173064585893,16.4971273225153,-30.2262527380309,-1.91972552465718,55.5565459144631,29.9420828959472,103.748921195939,0.0806995962645746,2.4409644878857,4.23857240330564,20.9509787272262,24.8496506595154,-1.90244777591691,14.1239879487142,-71.2631194459321,4.1909201969772,-45.0275220384446,40.8301673675993,-84.3226243953867,0.713954825869728,-37.4358695030537,59.3219236405823,-8.56420057563296,68.8891594535856,29.570923196363,-17.0003240678647,58.056946143491,-17.3253808798602,4.82025448553444,91.4875961005555,-5.54285438346145,-27.6210364978282,18.0247396660551,6.15225444492437,-36.7940699031889,-19.7380744686081,2.00075036701828,-50.9317947916801,12.6993470320026,113.238496884656,-35.5139983028864,-43.5378190386011,109.193237949076,12.1974578874655,6.95966704096178,22.949970685534,-42.6618666504417,9.32374719313545,19.8781914270816,61.3601520002527,46.0185240136555,1.43699342962532,-26.5840124837593,-21.8879369376856,-37.081388958964,12.0961491403467,-52.7796324109272,35.7573381671932,-1.81819939303108,53.8493880474401,27.4820364446072,-11.0966588802464,-6.43007484973286,13.8239794872043,18.7824336200961,0.150654859843087,20.6259203627643,-0.896227052805564,-14.6324740218197,-33.2318215119532,36.8374084113733,1.5369729572357,6.37688800747162,-44.4959521249391,29.3369265525547,44.4516401458959,-11.4545209948787,50.183276461211,26.0642853836313,7.00817705543698,0.193144947148484,17.4182603938618,-26.4746112189363,-38.546616847811,66.3734660947423,26.6237278816568,72.8780732860113,56.7674639362746,47.962642249927,49.6128560275584,12.6270282285367,12.5294084358543,-24.4850466112074,31.1109034613842,69.9357363375862,53.7440262535223,-23.5297450658669,37.2611819182798,21.2678677501793,102.751500247937,36.5370563787946,42.3507735701289,-16.1436293353156,-38.3775024450178,29.3472962117131,-38.4229080794527,62.6303096030732,-32.1067654808597,50.5445204993687,-35.2686079835181,-37.818169442845,-100.713787282328,-1.40591806355838,54.3043554959613,-3.06807389149443,-58.0896384511647,-7.99494199413021,-39.4270170888802,-7.68596473071264,-20.0982387097521,-1.67096954651702,55.0971566264876,26.3525407889967,-24.1914669617727,53.1748602775108,20.2819785500583,15.4501938088586,-48.7538105573333,24.0796111231233,-1.04534577583753,28.9577627700106,-11.8488283601965,1.84064094233888,-18.2713963034158,16.1895350981614,-6.16000707559569,-62.7781471648929,20.5345192168028,-80.5227855659633,-83.4962633929226,19.8836570046119,-10.2126720821169,-16.1964905651931,10.5514015195632,-18.4929012605841,65.1145796402771,118.72866970796,3.90913120476845,-37.2467118092105,-55.2517994965653,29.4132847030816,14.6726632476346,14.1901897181066,-30.5249460914962,12.9537362548631,-19.3848639825138,47.9390698117588,44.5947220086924,77.2996382492093,-24.7390521492414,-33.1428297430928,49.4551280177545,16.3300501265247,22.1973713882693,-21.6069606543467,20.596649118338,25.0130989059841,78.8883519668026,12.5230089019215,-3.97098013150874,-39.5288441230726,22.7492033633815,-9.25599691128135,18.1221654432212,31.6139808766015,44.4246248395763,-6.44132104564853,0.679484214499447,76.871596473416,-55.1325873416922,18.783749231792,-30.344184618844,1,1,1,1,1,1,1,1,1,1,1,1,1,1,1,1,1,1,1,1,1,1,1,1,1,1,1,1,1,1,1,1,1,1,1,1,1,1,1,1,1,1,1,1,1,1,1,1,1,1,1,1,1,1,1,1,1,1,1,1,1,1,1,1,1,1,1,1,1,1,1,1,1,1,1,1,1,1,1,1,1,1,1,1,1,1,1,1,1,1,1,1,1,1,1,1,1,1,1,1,1,1,1,1,1,1,1,1,1,1,1,1,1,1,1,1,1,1,1,1,1,1,1,1,1,1,1,1,1,1,1,1,1,1,1,1,1,1,1,1,1,1,1,1,1,1,1,1,1,1,1,1,1,1,1,1,1,1,1,1,1,1,1,1,1,1,1,1,1,1,1,1,1,1,1,1,1,1,1,1,1,1,1,1,1,1,1,1,1,1,1,1,1,1,1,1,1,1,1,1,1,1,1,1,1,1,1,1,1,1,1,1,1,1,1,1,1,1,1,1,1,1,1,1,1,1,1,1,1,1,1,1,1,1,1,1,1,1,1,1,1,1,1,1,1,1,1,1,1,1,1,1,1,1,1,1,1,1,1,1,1,1,1,1,1,1,1,1,1,1,-11.9092896055073,10.73459783168,0.277141570013805,9.46666106946167,20.9753490509512,-6.42124001961171,-62.9897511312138,-14.0211768960074,50.6583459624122,17.1867911406175,-22.2300588630694,-24.6245959355639,28.5853771146038,-40.0264543514541,5.1760609725188,-17.2949160522103,-30.0597278684795,-16.4470790357787,-25.5492405719241,14.9802978412972,-50.4891490799222,-47.6634465108168,-37.8107914314073,-14.0307062070373,-70.4870414237613,21.9268712145683,-60.8005362914037,8.21080590630563,2.77217743111118,-116.160468864323,13.531493032663,92.7233724783649,-9.4779381054963,-58.3931263479273,13.319179687451,-1.57173098256522,-10.3726330599861,15.6370767948626,-72.2617285585171,-1.6461903188185,9.51559388230216,-10.0001548255929,6.45029688993605,-22.832685354823,17.7915585772827,-5.71542221864556,13.9787779904162,-17.3283923614276,-35.3849796319941,-38.632220106499,19.6993235883399,-54.8081400947136,-11.9373984280153,-17.6277037065468,-1.55110974641437,67.9139265329188,-28.9388757944601,-90.3626011824333,-39.7873450303489,18.0285197083624,-35.9906657725598,13.5861157653516,23.2894082915127,-14.4322168106576,-81.104751106455,-6.46586810894723,-5.71149854998257,-2.6006689223624,-4.77979669215089,-17.1116568188167,-40.5259677549622,-26.0708858537482,-14.3527138510037,2.10802592999783,-30.9905447386007,-18.0567235087308,-24.297764609152,-41.9887843091848,-12.0329032305798,10.8177246366619,-52.2932171857652,-43.3396488990039,19.9237468866935,20.7755791586291,46.373837132589,-33.4572090114323,9.05138158253363,-23.6337062708164,-12.4832537530163,27.6772847826561,-15.984939061732,-24.2400268332961,-8.00339951747155,16.6094726764871,69.0578828162672,-31.2835877159915,9.18036876144471,-30.5935226528701,38.2392717679977,-6.63098046881925,-40.5055968972954,17.7405516144914,9.69538615968514,69.8587661707161,4.67048581932293,-1.73368618585354,33.213019869143,-6.79109053093119,11.482929951791,-41.134802716186,18.3420007787894,-75.6441440819414,8.17665688887431,-61.7292050363343,1.41139751822237,15.0961369828909,11.5249933672947,15.7467661059591,11.8768671667513,41.8136939574568,26.4608564531688,14.6391577279043,-13.5043687636431,78.1974540526847,-8.31094569610425,32.0343558196103,36.7790855425665,8.33734019016611,19.5813175130969,26.755462776518,4.16524639661239,-19.2577744715321,-45.5671317727039,43.8303299982474,-46.516360082794,26.8214704775133,-11.8421213616456,-4.22353745211287,53.1400160857529,19.0208696826736,34.5279495189099,-37.5049118835534,-62.4466262612382,19.794975725986,-46.8435893783454,27.5658064444473,26.7528912574429,-15.2520570054414,27.0308833532665,29.7552242572762,27.1214077025609,-5.46817438550425,15.1518764217147,-12.8822897220516,29.6665476740941,41.0272009920576,32.8239555715745,-36.6720449054973,-12.3748778299917,-12.4741726350874,-22.0435834039245,-25.5622031665416,-6.8898075636175,36.7003858796511,1.82016908269373,-20.0939221882586,8.67410846866003,10.2792174784232,-18.12961080803,-54.7313977467432,-18.9294373157326,-61.549634119087,-3.16762672676159,-2.31866323827621,56.6676481084264,50.2478348580136,-9.72197662567578,4.96506932144979,-42.8968434482723,-26.8964473387882,-4.82463907035299,25.05735122806,43.6836546019511,10.9397676759134,-49.5368779760741,1.19336642997259,-16.7942168004734,20.6764113722233,-33.0963343696469,-2.57303088930221,-30.8629311865949,-44.12043109582,-17.173305873159,40.5490419486233,-37.3734129373844,-3.78987432069134,-7.72688517269995,41.2732737001973,8.3379899351227,-20.9035398344624,-34.8410546777318,-0.985763582803642,-0.0362842399261619,-30.5898066042105,69.0163982254455,-26.2407340734876,-3.73612841313708,14.0336409567839,-58.3167852866864,26.8970805693141,-18.0793424630981,34.5470777561481,0.429342645987861,-24.3042623485062,34.8327519017497,5.00899337964627,-30.8931487330405,-62.5025240053788,-74.9106869973252,-48.2026340112265,50.9403062634356,3.4885822874826,19.3410479022594,-3.29639018706659,14.3118254312719,20.3916097726747,-11.0601323980922,-27.8988256431933,-33.3547681551674,-15.6670903508951,35.6676813825376,-25.2448162969394,-10.0117920508966,-16.1925347168356,8.56400736087898,8.20136344089619,42.7518684409911,26.0312111041422,-12.3188181126898,-6.75489655561259,-9.66779662442314,43.4088034831225,-29.6536581821172,51.2322070725751,-1.14451302833482,31.8076737303459,8.01827296526717,10.5635390717895,62.3504408180325,-22.5614080488558,-70.2794659780543,2.25389982299499,5.94717862728111,29.9474318824144,-59.2445776254822,17.517699994782,-14.4223688233924,36.6656393292532,0.533936291370095,46.4245344843492,-31.3504792023941,32.1329016507573,10.5805350234164,34.7326535448888,6.49109401503317,-71.9124337746178,-65.1068975898952,-7.64757168494082,-90.329463281215,17.7710372784357,1,1,1,1,1,1,1,1,1,1,1,1,1,1,1,1,1,1,1,1,1,1,1,1,1,1,1,1,1,1,1,1,1,1,1,1,1,1,1,1,1,1,1,1,1,1,1,1,1,1,1,1,1,1,1,1,1,1,1,1,1,1,1,1,1,1,1,1,1,1,1,1,1,1,1,1,1,1,1,1,1,1,1,1,1,1,1,1,1,1,1,1,1,1,1,1,1,1,1,1,1,1,1,1,1,1,1,1,1,1,1,1,1,1,1,1,1,1,1,1,1,1,1,1,1,1,1,1,1,1,1,1,1,1,1,1,1,1,1,1,1,1,1,1,1,1,1,1,1,1,1,1,1,1,1,1,1,1,1,1,1,1,1,1,1,1,1,1,1,1,1,1,1,1,1,1,1,1,1,1,1,1,1,1,1,1,1,1,1,1,1,1,1,1,1,1,1,1,1,1,1,1,1,1,1,1,1,1,1,1,1,1,1,1,1,1,1,1,1,1,1,1,1,1,1,1,1,1,1,1,1,1,1,1,1,1,1,1,1,1,1,1,1,1,1,1,1,1,1,1,1,1,1,1,1,1,1,1,1,1,1,1,1,1,1,1,1,1,1,1,55.7892678977796,147.63383040858,-36.8348158876247,-35.7527588872655,10.0789892802879,-3.98735031584098,17.6881726285935,75.5257423166219,-11.8889104496963,28.0196826565693,-32.9833030750526,26.1245534193422,-26.4694205147574,-50.813133600001,14.0460491550033,-40.104848068318,-27.8877951741205,-14.2776740718086,-21.6450795041877,-102.550406417268,-68.6912447927855,24.3346995100464,28.7644339581051,14.4841304597703,-85.7566384764216,75.8266848177023,53.4200342861941,61.8411178552302,30.727787852346,6.0230971162252,-18.702926681284,-44.7630822283801,3.40920092405874,8.21124688946599,-24.0784685886481,-37.5696516747862,-2.83154671880231,-14.3483009610776,46.4502956096929,-24.8280067704786,-33.174055536372,41.055373747683,-50.0472905196766,60.2227605923594,-60.0437908313143,-8.88282144855892,12.6512603733904,8.11547467609208,6.83459267325994,13.82868435008,10.3484395988096,36.8532371611142,78.8873191721772,-11.7231170653255,-19.1500991032695,24.7982412241335,-38.3146138247086,29.4106056493844,23.2471036661967,13.9223481703678,-28.2668078917051,-63.2259391864883,-10.665490028975,-7.93757067204707,-16.3968882709794,6.19664798904631,69.2669049300827,44.9365095000073,-2.65525771711918,2.95262727745237,77.7067614640215,-5.62063154490567,22.3226518540459,40.5389218330755,1.2222389726816,16.4865247971071,-28.9551341458436,33.2858359266688,-20.276523858098,8.71495669382636,22.959737467153,-0.385548917070544,-30.8827793365516,-25.7652219534222,-1.19094765483937,28.0980548783726,46.0718397385072,28.9677735221073,33.8522871624426,18.4188810678323,-14.7173064585893,16.4971273225153,-30.2262527380309,-1.91972552465718,55.5565459144631,29.9420828959472,103.748921195939,0.0806995962645746,2.4409644878857,4.23857240330564,20.9509787272262,24.8496506595154,-1.90244777591691,14.1239879487142,-71.2631194459321,4.1909201969772,-45.0275220384446,40.8301673675993,-84.3226243953867,0.713954825869728,-37.4358695030537,59.3219236405823,-8.56420057563296,68.8891594535856,29.570923196363,-17.0003240678647,58.056946143491,-17.3253808798602,4.82025448553444,91.4875961005555,-5.54285438346145,-27.6210364978282,18.0247396660551,6.15225444492437,-36.7940699031889,-19.7380744686081,2.00075036701828,-50.9317947916801,12.6993470320026,113.238496884656,-35.5139983028864,-43.5378190386011,109.193237949076,12.1974578874655,6.95966704096178,22.949970685534,-42.6618666504417,9.32374719313545,19.8781914270816,61.3601520002527,46.0185240136555,1.43699342962532,-26.5840124837593,-21.8879369376856,-37.081388958964,12.0961491403467,-52.7796324109272,35.7573381671932,-1.81819939303108,53.8493880474401,27.4820364446072,-11.0966588802464,-6.43007484973286,13.8239794872043,18.7824336200961,0.150654859843087,20.6259203627643,-0.896227052805564,-14.6324740218197,-33.2318215119532,36.8374084113733,1.5369729572357,6.37688800747162,-44.4959521249391,29.3369265525547,44.4516401458959,-11.4545209948787,50.183276461211,26.0642853836313,7.00817705543698,0.193144947148484,17.4182603938618,-26.4746112189363,-38.546616847811,66.3734660947423,26.6237278816568,72.8780732860113,56.7674639362746,47.962642249927,49.6128560275584,12.6270282285367,12.5294084358543,-24.4850466112074,31.1109034613842,69.9357363375862,53.7440262535223,-23.5297450658669,37.2611819182798,21.2678677501793,102.751500247937,36.5370563787946,42.3507735701289,-16.1436293353156,-38.3775024450178,29.3472962117131,-38.4229080794527,62.6303096030732,-32.1067654808597,50.5445204993687,-35.2686079835181,-37.818169442845,-100.713787282328,-1.40591806355838,54.3043554959613,-3.06807389149443,-58.0896384511647,-7.99494199413021,-39.4270170888802,-7.68596473071264,-20.0982387097521,-1.67096954651702,55.0971566264876,26.3525407889967,-24.1914669617727,53.1748602775108,20.2819785500583,15.4501938088586,-48.7538105573333,24.0796111231233,-1.04534577583753,28.9577627700106,-11.8488283601965,1.84064094233888,-18.2713963034158,16.1895350981614,-6.16000707559569,-62.7781471648929,20.5345192168028,-80.5227855659633,-83.4962633929226,19.8836570046119,-10.2126720821169,-16.1964905651931,10.5514015195632,-18.4929012605841,65.1145796402771,118.72866970796,3.90913120476845,-37.2467118092105,-55.2517994965653,29.4132847030816,14.6726632476346,14.1901897181066,-30.5249460914962,12.9537362548631,-19.3848639825138,47.9390698117588,44.5947220086924,77.2996382492093,-24.7390521492414,-33.1428297430928,49.4551280177545,16.3300501265247,22.1973713882693,-21.6069606543467,20.596649118338,25.0130989059841,78.8883519668026,12.5230089019215,-3.97098013150874,-39.5288441230726,22.7492033633815,-9.25599691128135,18.1221654432212,31.6139808766015,44.4246248395763,-6.44132104564853,0.679484214499447,76.871596473416,-55.1325873416922,18.783749231792,-30.344184618844,1,1,1,1,1,1,1,1,1,1,1,1,1,1,1,1,1,1,1,1,1,1,1,1,1,1,1,1,1,1,1,1,1,1,1,1,1,1,1,1,1,1,1,1,1,1,1,1,1,1,1,1,1,1,1,1,1,1,1,1,1,1,1,1,1,1,1,1,1,1,1,1,1,1,1,1,1,1,1,1,1,1,1,1,1,1,1,1,1,1,1,1,1,1,1,1,1,1,1,1,1,1,1,1,1,1,1,1,1,1,1,1,1,1,1,1,1,1,1,1,1,1,1,1,1,1,1,1,1,1,1,1,1,1,1,1,1,1,1,1,1,1,1,1,1,1,1,1,1,1,1,1,1,1,1,1,1,1,1,1,1,1,1,1,1,1,1,1,1,1,1,1,1,1,1,1,1,1,1,1,1,1,1,1,1,1,1,1,1,1,1,1,1,1,1,1,1,1,1,1,1,1,1,1,1,1,1,1,1,1,1,1,1,1,1,1,1,1,1,1,1,1,1,1,1,1,1,1,1,1,1,1,1,1,1,1,1,1,1,1,1,1,1,1,1,1,1,1,1,1,1,1,1,1,1,1,1,1,1,1,1,1,1,1,1,1,1,1,1,1,-11.9092896055073,10.73459783168,0.277141570013805,9.46666106946167,20.9753490509512,-6.42124001961171,-62.9897511312138,-14.0211768960074,50.6583459624122,17.1867911406175,-22.2300588630694,-24.6245959355639,28.5853771146038,-40.0264543514541,5.1760609725188,-17.2949160522103,-30.0597278684795,-16.4470790357787,-25.5492405719241,14.9802978412972,-50.4891490799222,-47.6634465108168,-37.8107914314073,-14.0307062070373,-70.4870414237613,21.9268712145683,-60.8005362914037,8.21080590630563,2.77217743111118,-116.160468864323,13.531493032663,92.7233724783649,-9.4779381054963,-58.3931263479273,13.319179687451,-1.57173098256522,-10.3726330599861,15.6370767948626,-72.2617285585171,-1.6461903188185,9.51559388230216,-10.0001548255929,6.45029688993605,-22.832685354823,17.7915585772827,-5.71542221864556,13.9787779904162,-17.3283923614276,-35.3849796319941,-38.632220106499,19.6993235883399,-54.8081400947136,-11.9373984280153,-17.6277037065468,-1.55110974641437,67.9139265329188,-28.9388757944601,-90.3626011824333,-39.7873450303489,18.0285197083624,-35.9906657725598,13.5861157653516,23.2894082915127,-14.4322168106576,-81.104751106455,-6.46586810894723,-5.71149854998257,-2.6006689223624,-4.77979669215089,-17.1116568188167,-40.5259677549622,-26.0708858537482,-14.3527138510037,2.10802592999783,-30.9905447386007,-18.0567235087308,-24.297764609152,-41.9887843091848,-12.0329032305798,10.8177246366619,-52.2932171857652,-43.3396488990039,19.9237468866935,20.7755791586291,46.373837132589,-33.4572090114323,9.05138158253363,-23.6337062708164,-12.4832537530163,27.6772847826561,-15.984939061732,-24.2400268332961,-8.00339951747155,16.6094726764871,69.0578828162672,-31.2835877159915,9.18036876144471,-30.5935226528701,38.2392717679977,-6.63098046881925,-40.5055968972954,17.7405516144914,9.69538615968514,69.8587661707161,4.67048581932293,-1.73368618585354,33.213019869143,-6.79109053093119,11.482929951791,-41.134802716186,18.3420007787894,-75.6441440819414,8.17665688887431,-61.7292050363343,1.41139751822237,15.0961369828909,11.5249933672947,15.7467661059591,11.8768671667513,41.8136939574568,26.4608564531688,14.6391577279043,-13.5043687636431,78.1974540526847,-8.31094569610425,32.0343558196103,36.7790855425665,8.33734019016611,19.5813175130969,26.755462776518,4.16524639661239,-19.2577744715321,-45.5671317727039,43.8303299982474,-46.516360082794,26.8214704775133,-11.8421213616456,-4.22353745211287,53.1400160857529,19.0208696826736,34.5279495189099,-37.5049118835534,-62.4466262612382,19.794975725986,-46.8435893783454,27.5658064444473,26.7528912574429,-15.2520570054414,27.0308833532665,29.7552242572762,27.1214077025609,-5.46817438550425,15.1518764217147,-12.8822897220516,29.6665476740941,41.0272009920576,32.8239555715745,-36.6720449054973,-12.3748778299917,-12.4741726350874,-22.0435834039245,-25.5622031665416,-6.8898075636175,36.7003858796511,1.82016908269373,-20.0939221882586,8.67410846866003,10.2792174784232,-18.12961080803,-54.7313977467432,-18.9294373157326,-61.549634119087,-3.16762672676159,-2.31866323827621,56.6676481084264,50.2478348580136,-9.72197662567578,4.96506932144979,-42.8968434482723,-26.8964473387882,-4.82463907035299,25.05735122806,43.6836546019511,10.9397676759134,-49.5368779760741,1.19336642997259,-16.7942168004734,20.6764113722233,-33.0963343696469,-2.57303088930221,-30.8629311865949,-44.12043109582,-17.173305873159,40.5490419486233,-37.3734129373844,-3.78987432069134,-7.72688517269995,41.2732737001973,8.3379899351227,-20.9035398344624,-34.8410546777318,-0.985763582803642,-0.0362842399261619,-30.5898066042105,69.0163982254455,-26.2407340734876,-3.73612841313708,14.0336409567839,-58.3167852866864,26.8970805693141,-18.0793424630981,34.5470777561481,0.429342645987861,-24.3042623485062,34.8327519017497,5.00899337964627,-30.8931487330405,-62.5025240053788,-74.9106869973252,-48.2026340112265,50.9403062634356,3.4885822874826,19.3410479022594,-3.29639018706659,14.3118254312719,20.3916097726747,-11.0601323980922,-27.8988256431933,-33.3547681551674,-15.6670903508951,35.6676813825376,-25.2448162969394,-10.0117920508966,-16.1925347168356,8.56400736087898,8.20136344089619,42.7518684409911,26.0312111041422,-12.3188181126898,-6.75489655561259,-9.66779662442314,43.4088034831225,-29.6536581821172,51.2322070725751,-1.14451302833482,31.8076737303459,8.01827296526717,10.5635390717895,62.3504408180325,-22.5614080488558,-70.2794659780543,2.25389982299499,5.94717862728111,29.9474318824144,-59.2445776254822,17.517699994782,-14.4223688233924,36.6656393292532,0.533936291370095,46.4245344843492,-31.3504792023941,32.1329016507573,10.5805350234164,34.7326535448888,6.49109401503317,-71.9124337746178,-65.1068975898952,-7.64757168494082,-90.329463281215,17.7710372784357,1,1,1,1,1,1,1,1,1,1,1,1,1,1,1,1,1,1,1,1,1,1,1,1,1,1,1,1,1,1,1,1,1,1,1,1,1,1,1,1,1,1,1,1,1,1,1,1,1,1,1,1,1,1,1,1,1,1,1,1,1,1,1,1,1,1,1,1,1,1,1,1,1,1,1,1,1,1,1,1,1,1,1,1,1,1,1,1,1,1,1,1,1,1,1,1,1,1,1,1,1,1,1,1,1,1,1,1,1,1,1,1,1,1,1,1,1,1,1,1,1,1,1,1,1,1,1,1,1,1,1,1,1,1,1,1,1,1,1,1,1,1,1,1,1,1,1,1,1,1,1,1,1,1,1,1,1,1,1,1,1,1,1,1,1,1,1,1,1,1,1,1,1,1,1,1,1,1,1,1,1,1,1,1,1,1,1,1,1,1,1,1,1,1,1,1,1,1,1,1,1,1,1,1,1,1,1,1,1,1,1,1,1,1,1,1,1,1,1,1,1,1,1,1,1,1,1,1,1,1,1,1,1,1,1,1,1,1,1,1,1,1,1,1,1,1,1,1,1,1,1,1,1,1,1,1,1,1,1,1,1,1,1,1,1,1,1,1,1,1
