334.906157631849,15.0137637802464,272.349413961335,-44.1265324216029,137.459294924081,-19.6850473004607,7.07282628502874,-18.0480196941312,36.9047085117779,0.0664685891949655,44.3370724120581,11.1345022884514,10.3873485472875,-41.8136911018098,8.41572709164278,-3.89210604252799,-67.1783228270732,18.8244209526301,-62.6757537968974,-14.3054646794656,6.33281231473096,-18.3977010480981,-99.9103859411234,-55.4525085847913,12.0988798359139,38.2639228915132,37.6427408417359,-59.0258365934316,43.6019395426008,57.2441087879931,61.1999357362063,21.1779638227603,14.4339914013344,-22.7239732636169,-35.3797168435586,1.8729356681565,24.3966416532002,-54.0127758323435,-21.7328345138655,-50.3190908137632,-16.0573595983176,35.8218396037903,7.17300168685201,-21.4433317373596,60.8186889844995,-47.3691387561091,78.6176937390904,-83.8256347736198,-1.37555789753466,11.6472291217183,-56.9278662956705,-5.20104681489651,28.9441300426048,6.66671660300451,48.1787714689401,72.3696073894471,-17.3319481415319,-6.84258904961612,34.8795602345004,5.09350305821921,26.6626137812745,27.8253113211816,-9.87279476232339,-20.0810742449917,-8.43033251223618,10.6036037479116,34.7351338807177,-34.7622473297626,-11.2746184534353,53.2518195892004,56.6922234971821,-5.56697174758278,-3.48671898895186,75.14179364157,48.9411832696809,17.1481464827357,13.3495561949127,34.2641580300194,35.5576403042618,-54.1909959184882,70.0831541410143,6.23680500017872,-22.3881087491589,24.5455629334636,-13.7245060498482,-14.0024879563573,-38.74966468738,31.9974553005878,20.1219403631852,28.7852012782802,32.958410524969,41.2297082032182,-30.2484780550671,-7.41376995096547,22.5223056823832,-27.3000098625716,-24.4965616329143,52.4577301956517,61.5385355142757,114.833354825167,24.0856180398677,2.37227594655783,-32.5039189008928,-16.1673928082922,31.1391299277247,-27.9553351679103,16.1910338556992,-33.2199660941494,11.045307367924,-35.9300454270183,0.616434331951788,-92.5758042446273,-19.1872637936222,9.30852900929314,49.2730751741799,-16.6320743046215,51.5785785388779,35.0934775642387,46.0616902973792,46.6397911622072,-42.4238194763299,38.423887607135,33.9027920804608,-9.73499409135232,-17.4646423062794,9.26020838525609,-15.5396405946115,-24.0998453871333,-22.0547888062771,9.16243225842639,-19.9280075795515,9.71200582504347,98.8387999930317,-15.3678881947616,-34.0996787906808,103.98436436553,-16.345385899312,13.4222020180237,29.0313872997694,-49.8939151179898,24.7642619992567,2.80574724919767,43.8190108390506,64.7690248399205,-2.4990404605487,-7.53486598562482,-27.7152321530731,-32.6518856592382,-2.69745163464496,-41.5254228647644,42.3206500811885,-29.2949430992369,22.9573202946943,-9.17922403947653,-11.1021587065676,6.42217874849083,-28.0756538357527,2.8879091170772,-24.7040955730631,11.9541740672316,1.02753793272464,-16.34395753949,-43.4149643512199,24.3298147588893,-10.6524082684791,34.5545316027889,-36.3880900830812,28.8285880201187,23.3101985311559,-1.54882453428565,60.0817315655821,18.9835779355295,14.0682692005645,-9.41796447022839,-9.82221271342077,-17.9031317409228,-42.457245346675,54.8568430120331,51.7776908400442,40.9015153134118,50.0199541773273,79.780781735501,45.8569546295615,44.2664860747273,-6.2579298136443,-5.21860386745382,52.1243247667053,62.9265696009819,55.2763647564267,-11.7139210715016,69.1802294929302,-0.770444625773515,98.9670460193563,63.5430686132354,40.0798114054497,-39.6096673277604,-9.81890280545358,36.1613194779003,-51.3902805636374,89.528263897481,-30.2448537519699,64.3401314461758,-44.5399893596717,-63.0632197865745,-74.8381959138405,-10.3708367364097,56.8289376979789,23.8476292809393,-30.9353122806771,2.25272822511422,-30.1043011327891,-14.3887585576623,-38.8419191918358,-34.1419145201566,65.8864920111164,7.00868295805964,15.2169071402472,50.6316448544414,32.8858943343624,-5.40425894325933,-18.4356011073577,32.0728125161115,9.93648255587456,31.2238649071036,-12.4521620105576,-7.29797069716773,17.3472269060645,32.164129058594,27.4970617399578,-46.465793955092,23.5942413579888,-68.1785248127196,-66.9137427584942,21.0537637143727,-28.9545095755846,-48.423009538831,-24.5248055489695,17.554157564143,19.550478772123,117.97787351784,9.71439863147721,-17.4689732689246,-33.9646530311535,42.2505930819386,17.8242954300883,46.3070894010977,-10.1893681236456,-17.9001446688588,-74.21816882299,39.6871719332259,32.8459436288466,50.3707007531896,17.9437938182161,-22.7462810355518,51.6987830690277,-8.44154456589405,-25.8982838433837,-10.7757754382536,46.3946754928022,13.6040687545888,113.926978670609,22.0786614810892,-20.8714937594003,-3.9825080121682,6.78950614768281,-16.5806846780891,38.3074796414433,25.4484325520175,60.8611619559631,-29.1379574550456,7.16337240772005,59.1673415249844,-28.8709120215793,12.9452628293113,-12.0454571149862,1,1,1,1,1,1,1,1,1,1,1,1,1,1,1,1,1,1,1,1,1,1,1,1,1,1,1,1,1,1,1,1,1,1,1,1,1,1,1,1,1,1,1,1,1,1,1,1,1,1,1,1,1,1,1,1,1,1,1,1,1,1,1,1,1,1,1,1,1,1,1,1,1,1,1,1,1,1,1,1,1,1,1,1,1,1,1,1,1,1,1,1,1,1,1,1,1,1,1,1,1,1,1,1,1,1,1,1,1,1,1,1,1,1,1,1,1,1,1,1,1,1,1,1,1,1,1,1,1,1,1,1,1,1,1,1,1,1,1,1,1,1,1,1,1,1,1,1,1,1,1,1,1,1,1,1,1,1,1,1,1,1,1,1,1,1,1,1,1,1,1,1,1,1,1,1,1,1,1,1,1,1,1,1,1,1,1,1,1,1,1,1,1,1,1,1,1,1,1,1,1,1,1,1,1,1,1,1,1,1,1,1,1,1,1,1,1,1,1,1,1,1,1,1,1,1,1,1,1,1,1,1,1,1,1,1,1,1,1,1,1,1,1,1,1,1,1,1,1,1,1,1,1,1,1,1,1,1,1,1,1,1,1,1,1,1,1,1,1,1,10.2738747818258,4.30662337194552,17.6137064534358,47.6277367709783,-6.93921106040926,-24.1266016752577,-51.259312517173,-49.0535061739497,-12.0980735758365,-53.8207847304626,26.3659498123417,-14.8218550949193,3.14841715741106,-43.0769902488695,10.1181755066314,-12.4565885101814,-25.9429328208499,-42.5074549032488,-21.8960428793397,-17.2834576223476,10.0630581135296,-1.0986749681285,-32.8317413873303,-18.3775463673812,-11.7147117304284,21.6703447629891,-43.5559981503593,-1.69846308359983,-10.116148933862,-36.766124934631,-17.7975835330163,-18.8801572794642,-8.66909562819939,-34.5375447563933,0.436259044233331,28.5624451231298,19.2323221559723,59.1612381773017,-77.0388844870297,-26.1100964588097,13.7084303156692,-38.012198031874,-16.1705096719636,-8.82169648502825,7.52584056158197,11.2224451967139,2.85933668476469,-53.5116899177575,-12.6756723130543,-43.8288286545784,11.7957592217674,-7.34708477495572,10.7296065322089,19.5276471873782,-56.9770183791775,85.0412951670338,-26.8766576377147,-14.9339023906618,-18.8823099289599,31.541036780267,-39.9546228951141,-29.7645847589104,-13.3184537910283,-15.5943155770274,-48.2109459936885,-3.7123641768539,8.58079183174573,10.1615441308608,2.72699630326779,-7.63172118834232,25.2008766418653,10.6481887975077,-4.07927970740546,24.3465667474696,-15.1491237312883,4.7633833067254,4.02482203586911,-53.0828385969939,12.4915317161383,-10.9675260982899,-29.9856601877236,-43.4342687570998,-15.0215818639887,3.95219118283416,10.535415166893,-17.0187883229525,2.05433765035019,-19.7448740369533,-2.03819071614786,8.93741322681017,4.60302562630466,-7.63425576127461,12.8801571787718,-26.3090544566284,-6.42916995414045,-58.8579638951736,-33.6330911262768,8.09134744419774,29.233712620379,47.2085153476305,-0.585326337199743,35.6875376616743,-31.8189115786064,12.5565110468266,-0.458383515431522,-5.70770829808519,-5.55384069143368,1.3194260534123,29.1656466962152,-32.7607974554063,0.621453462941625,-30.8952452437664,-15.4967798609336,-38.8070930857142,-9.03293227758284,-24.7045890228987,15.6518962479219,-21.3735570776524,-11.6994365179925,-12.6780590943068,15.3433154586147,-6.35289840254663,-23.3584819767649,23.5957306469353,-2.86269989208779,34.6361516463411,-19.8561714427799,-10.8636237357798,7.32208779820622,26.6645669531393,46.2791821380485,-14.2690917571774,-49.4754045649659,13.0824862078233,-20.3638615391896,5.29122402803659,35.5778962481786,-31.144714195701,46.9371875107669,-7.15313764375074,21.2037774301321,3.47266864277276,7.33157274069102,72.7015918234938,-24.8380526237255,13.9486478172562,2.48088109175878,-15.030913079742,26.4766626275987,33.9272798024644,20.3811447313593,5.95838477445631,55.6158058717747,23.3857799869883,-16.7195538737964,-47.155715034302,14.3848892384973,-9.50955969632359,-10.4160639643526,-8.84141918568596,-33.654454608977,21.1334330026704,-1.70733756817887,15.2787741728979,35.6667415401087,10.1108145791108,5.30207659402674,-4.80701619248573,16.6642611533903,-20.3801076165914,38.9321460796011,-0.552271303757734,8.42844103755852,45.5335181234843,9.89506166173404,29.7803014455672,-2.29056072324282,1.01535405981863,47.0298885109875,-52.1305379470468,0.714576049775558,-3.55566916111139,40.6303512779938,4.16072880440213,-32.2595256071248,-13.7962920182157,-0.229056948211273,4.67319178680217,-13.7013290946168,5.87211821134309,-1.36221558655592,1.66054696351574,-8.94423572079317,-22.9727388253287,-17.0596213588844,10.8788066677091,20.0815199634275,-2.80668736897449,8.20400581579517,-45.6360618187219,-3.42333702027747,-8.8634124405452,16.5282278802332,-12.397707359467,43.3571992257553,-45.4981237490708,41.1490790522712,10.5507007266442,-27.3790330919761,14.6674689674943,-28.9556269735539,-3.11565984518337,36.3725404330742,-8.67553063250572,4.47707557642736,-14.3657103070282,9.10688778365169,-4.1977853314286,-18.0625422092877,13.4203356334292,8.45149736030943,27.6029884723012,18.7614037244097,-14.309687581096,5.80647266456285,13.7589299966262,3.84496537647785,-0.600999265356019,19.7905348858518,-35.2407915289321,-15.0059216993342,15.3520066324418,-4.98515880199802,19.7275761190102,-46.8891739377948,43.2898035943289,36.874728277464,-9.67530150068849,-10.7132348959102,58.586003467708,-25.5755300885627,35.2764392937454,-39.3410723418452,-16.5926024617875,6.12224039738902,25.4460530157721,-18.9726018250929,8.20151200284601,42.9520379873793,-21.1632641206771,-51.3611682815055,-3.99717266291492,26.7520885464468,6.40858483540058,-18.2046430260002,19.5219158737028,-1.61212396868699,14.147078848696,-6.34440562601009,51.9743975244911,2.98896661063504,8.62116215473791,15.3475550407674,26.6825833429035,9.65213036999809,-59.9143696866161,26.4039577919078,4.59102579747514,-26.3982823312924,93.2108654631082,1,1,1,1,1,1,1,1,1,1,1,1,1,1,1,1,1,1,1,1,1,1,1,1,1,1,1,1,1,1,1,1,1,1,1,1,1,1,1,1,1,1,1,1,1,1,1,1,1,1,1,1,1,1,1,1,1,1,1,1,1,1,1,1,1,1,1,1,1,1,1,1,1,1,1,1,1,1,1,1,1,1,1,1,1,1,1,1,1,1,1,1,1,1,1,1,1,1,1,1,1,1,1,1,1,1,1,1,1,1,1,1,1,1,1,1,1,1,1,1,1,1,1,1,1,1,1,1,1,1,1,1,1,1,1,1,1,1,1,1,1,1,1,1,1,1,1,1,1,1,1,1,1,1,1,1,1,1,1,1,1,1,1,1,1,1,1,1,1,1,1,1,1,1,1,1,1,1,1,1,1,1,1,1,1,1,1,1,1,1,1,1,1,1,1,1,1,1,1,1,1,1,1,1,1,1,1,1,1,1,1,1,1,1,1,1,1,1,1,1,1,1,1,1,1,1,1,1,1,1,1,1,1,1,1,1,1,1,1,1,1,1,1,1,1,1,1,1,1,1,1,1,1,1,1,1,1,1,1,1,1,1,1,1,1,1,1,1,1,1,-62.9858979423031,-43.2752964205617,-19.6850473004607,7.07282628502874,-18.0480196941312,36.9047085117779,0.0664685891949655,44.3370724120581,11.1345022884514,10.3873485472875,-41.8136911018098,8.41572709164278,-3.89210604252799,-67.1783228270732,18.8244209526301,-62.6757537968974,-14.3054646794656,6.33281231473096,-18.3977010480981,-99.9103859411234,-55.4525085847913,12.0988798359139,38.2639228915132,37.6427408417359,-59.0258365934316,43.6019395426008,57.2441087879931,61.1999357362063,21.1779638227603,14.4339914013344,-22.7239732636169,-35.3797168435586,1.8729356681565,24.3966416532002,-54.0127758323435,-21.7328345138655,-50.3190908137632,-16.0573595983176,35.8218396037903,7.17300168685201,-21.4433317373596,60.8186889844995,-47.3691387561091,78.6176937390904,-83.8256347736198,-1.37555789753466,11.6472291217183,-56.9278662956705,-5.20104681489651,28.9441300426048,6.66671660300451,48.1787714689401,72.3696073894471,-17.3319481415319,-6.84258904961612,34.8795602345004,5.09350305821921,26.6626137812745,27.8253113211816,-9.87279476232339,-20.0810742449917,-8.43033251223618,10.6036037479116,34.7351338807177,-34.7622473297626,-11.2746184534353,53.2518195892004,56.6922234971821,-5.56697174758278,-3.48671898895186,75.14179364157,48.9411832696809,17.1481464827357,13.3495561949127,34.2641580300194,35.5576403042618,-54.1909959184882,70.0831541410143,6.23680500017872,-22.3881087491589,24.5455629334636,-13.7245060498482,-14.0024879563573,-38.74966468738,31.9974553005878,20.1219403631852,28.7852012782802,32.958410524969,41.2297082032182,-30.2484780550671,-7.41376995096547,22.5223056823832,-27.3000098625716,-24.4965616329143,52.4577301956517,61.5385355142757,114.833354825167,24.0856180398677,2.37227594655783,-32.5039189008928,-16.1673928082922,31.1391299277247,-27.9553351679103,16.1910338556992,-33.2199660941494,11.045307367924,-35.9300454270183,0.616434331951788,-92.5758042446273,-19.1872637936222,9.30852900929314,49.2730751741799,-16.6320743046215,51.5785785388779,35.0934775642387,46.0616902973792,46.6397911622072,-42.4238194763299,38.423887607135,33.9027920804608,-9.73499409135232,-17.4646423062794,9.26020838525609,-15.5396405946115,-24.0998453871333,-22.0547888062771,9.16243225842639,-19.9280075795515,9.71200582504347,98.8387999930317,-15.3678881947616,-34.0996787906808,103.98436436553,-16.345385899312,13.4222020180237,29.0313872997694,-49.8939151179898,24.7642619992567,2.80574724919767,43.8190108390506,64.7690248399205,-2.4990404605487,-7.53486598562482,-27.7152321530731,-32.6518856592382,-2.69745163464496,-41.5254228647644,42.3206500811885,-29.2949430992369,22.9573202946943,-9.17922403947653,-11.1021587065676,6.42217874849083,-28.0756538357527,2.8879091170772,-24.7040955730631,11.9541740672316,1.02753793272464,-16.34395753949,-43.4149643512199,24.3298147588893,-10.6524082684791,34.5545316027889,-36.3880900830812,28.8285880201187,23.3101985311559,-1.54882453428565,60.0817315655821,18.9835779355295,14.0682692005645,-9.41796447022839,-9.82221271342077,-17.9031317409228,-42.457245346675,54.8568430120331,51.7776908400442,40.9015153134118,50.0199541773273,79.780781735501,45.8569546295615,44.2664860747273,-6.2579298136443,-5.21860386745382,52.1243247667053,62.9265696009819,55.2763647564267,-11.7139210715016,69.1802294929302,-0.770444625773515,98.9670460193563,63.5430686132354,40.0798114054497,-39.6096673277604,-9.81890280545358,36.1613194779003,-51.3902805636374,89.528263897481,-30.2448537519699,64.3401314461758,-44.5399893596717,-63.0632197865745,-74.8381959138405,-10.3708367364097,56.8289376979789,23.8476292809393,-30.9353122806771,2.25272822511422,-30.1043011327891,-14.3887585576623,-38.8419191918358,-34.1419145201566,65.8864920111164,7.00868295805964,15.2169071402472,50.6316448544414,32.8858943343624,-5.40425894325933,-18.4356011073577,32.0728125161115,9.93648255587456,31.2238649071036,-12.4521620105576,-7.29797069716773,17.3472269060645,32.164129058594,27.4970617399578,-46.465793955092,23.5942413579888,-68.1785248127196,-66.9137427584942,21.0537637143727,-28.9545095755846,-48.423009538831,-24.5248055489695,17.554157564143,19.550478772123,117.97787351784,9.71439863147721,-17.4689732689246,-33.9646530311535,42.2505930819386,17.8242954300883,46.3070894010977,-10.1893681236456,-17.9001446688588,-74.21816882299,39.6871719332259,32.8459436288466,50.3707007531896,17.9437938182161,-22.7462810355518,51.6987830690277,-8.44154456589405,-25.8982838433837,-10.7757754382536,46.3946754928022,13.6040687545888,113.926978670609,22.0786614810892,-20.8714937594003,-3.9825080121682,6.78950614768281,-16.5806846780891,38.3074796414433,25.4484325520175,60.8611619559631,-29.1379574550456,7.16337240772005,59.1673415249844,-28.8709120215793,12.9452628293113,-12.0454571149862,1,1,1,1,1,1,1,1,1,1,1,1,1,1,1,1,1,1,1,1,1,1,1,1,1,1,1,1,1,1,1,1,1,1,1,1,1,1,1,1,1,1,1,1,1,1,1,1,1,1,1,1,1,1,1,1,1,1,1,1,1,1,1,1,1,1,1,1,1,1,1,1,1,1,1,1,1,1,1,1,1,1,1,1,1,1,1,1,1,1,1,1,1,1,1,1,1,1,1,1,1,1,1,1,1,1,1,1,1,1,1,1,1,1,1,1,1,1,1,1,1,1,1,1,1,1,1,1,1,1,1,1,1,1,1,1,1,1,1,1,1,1,1,1,1,1,1,1,1,1,1,1,1,1,1,1,1,1,1,1,1,1,1,1,1,1,1,1,1,1,1,1,1,1,1,1,1,1,1,1,1,1,1,1,1,1,1,1,1,1,1,1,1,1,1,1,1,1,1,1,1,1,1,1,1,1,1,1,1,1,1,1,1,1,1,1,1,1,1,1,1,1,1,1,1,1,1,1,1,1,1,1,1,1,1,1,1,1,1,1,1,1,1,1,1,1,1,1,1,1,1,1,1,1,1,1,1,1,1,1,1,1,1,1,1,1,1,1,1,1,10.2738747818258,4.30662337194552,17.6137064534358,47.6277367709783,-6.93921106040926,-24.1266016752577,-51.259312517173,-49.0535061739497,-12.0980735758365,-53.8207847304626,26.3659498123417,-14.8218550949193,3.14841715741106,-43.0769902488695,10.1181755066314,-12.4565885101814,-25.9429328208499,-42.5074549032488,-21.8960428793397,-17.2834576223476,10.0630581135296,-1.0986749681285,-32.8317413873303,-18.3775463673812,-11.7147117304284,21.6703447629891,-43.5559981503593,-1.69846308359983,-10.116148933862,-36.766124934631,-17.7975835330163,-18.8801572794642,-8.66909562819939,-34.5375447563933,0.436259044233331,28.5624451231298,19.2323221559723,59.1612381773017,-77.0388844870297,-26.1100964588097,13.7084303156692,-38.012198031874,-16.1705096719636,-8.82169648502825,7.52584056158197,11.2224451967139,2.85933668476469,-53.5116899177575,-12.6756723130543,-43.8288286545784,11.7957592217674,-7.34708477495572,10.7296065322089,19.5276471873782,-56.9770183791775,85.0412951670338,-26.8766576377147,-14.9339023906618,-18.8823099289599,31.541036780267,-39.9546228951141,-29.7645847589104,-13.3184537910283,-15.5943155770274,-48.2109459936885,-3.7123641768539,8.58079183174573,10.1615441308608,2.72699630326779,-7.63172118834232,25.2008766418653,10.6481887975077,-4.07927970740546,24.3465667474696,-15.1491237312883,4.7633833067254,4.02482203586911,-53.0828385969939,12.4915317161383,-10.9675260982899,-29.9856601877236,-43.4342687570998,-15.0215818639887,3.95219118283416,10.535415166893,-17.0187883229525,2.05433765035019,-19.7448740369533,-2.03819071614786,8.93741322681017,4.60302562630466,-7.63425576127461,12.8801571787718,-26.3090544566284,-6.42916995414045,-58.8579638951736,-33.6330911262768,8.09134744419774,29.233712620379,47.2085153476305,-0.585326337199743,35.6875376616743,-31.8189115786064,12.5565110468266,-0.458383515431522,-5.70770829808519,-5.55384069143368,1.3194260534123,29.1656466962152,-32.7607974554063,0.621453462941625,-30.8952452437664,-15.4967798609336,-38.8070930857142,-9.03293227758284,-24.7045890228987,15.6518962479219,-21.3735570776524,-11.6994365179925,-12.6780590943068,15.3433154586147,-6.35289840254663,-23.3584819767649,23.5957306469353,-2.86269989208779,34.6361516463411,-19.8561714427799,-10.8636237357798,7.32208779820622,26.6645669531393,46.2791821380485,-14.2690917571774,-49.4754045649659,13.0824862078233,-20.3638615391896,5.29122402803659,35.5778962481786,-31.144714195701,46.9371875107669,-7.15313764375074,21.2037774301321,3.47266864277276,7.33157274069102,72.7015918234938,-24.8380526237255,13.9486478172562,2.48088109175878,-15.030913079742,26.4766626275987,33.9272798024644,20.3811447313593,5.95838477445631,55.6158058717747,23.3857799869883,-16.7195538737964,-47.155715034302,14.3848892384973,-9.50955969632359,-10.4160639643526,-8.84141918568596,-33.654454608977,21.1334330026704,-1.70733756817887,15.2787741728979,35.6667415401087,10.1108145791108,5.30207659402674,-4.80701619248573,16.6642611533903,-20.3801076165914,38.9321460796011,-0.552271303757734,8.42844103755852,45.5335181234843,9.89506166173404,29.7803014455672,-2.29056072324282,1.01535405981863,47.0298885109875,-52.1305379470468,0.714576049775558,-3.55566916111139,40.6303512779938,4.16072880440213,-32.2595256071248,-13.7962920182157,-0.229056948211273,4.67319178680217,-13.7013290946168,5.87211821134309,-1.36221558655592,1.66054696351574,-8.94423572079317,-22.9727388253287,-17.0596213588844,10.8788066677091,20.0815199634275,-2.80668736897449,8.20400581579517,-45.6360618187219,-3.42333702027747,-8.8634124405452,16.5282278802332,-12.397707359467,43.3571992257553,-45.4981237490708,41.1490790522712,10.5507007266442,-27.3790330919761,14.6674689674943,-28.9556269735539,-3.11565984518337,36.3725404330742,-8.67553063250572,4.47707557642736,-14.3657103070282,9.10688778365169,-4.1977853314286,-18.0625422092877,13.4203356334292,8.45149736030943,27.6029884723012,18.7614037244097,-14.309687581096,5.80647266456285,13.7589299966262,3.84496537647785,-0.600999265356019,19.7905348858518,-35.2407915289321,-15.0059216993342,15.3520066324418,-4.98515880199802,19.7275761190102,-46.8891739377948,43.2898035943289,36.874728277464,-9.67530150068849,-10.7132348959102,58.586003467708,-25.5755300885627,35.2764392937454,-39.3410723418452,-16.5926024617875,6.12224039738902,25.4460530157721,-18.9726018250929,8.20151200284601,42.9520379873793,-21.1632641206771,-51.3611682815055,-3.99717266291492,26.7520885464468,6.40858483540058,-18.2046430260002,19.5219158737028,-1.61212396868699,14.147078848696,-6.34440562601009,51.9743975244911,2.98896661063504,8.62116215473791,15.3475550407674,26.6825833429035,9.65213036999809,-59.9143696866161,26.4039577919078,4.59102579747514,-26.3982823312924,93.2108654631082,1,1,1,1,1,1,1,1,1,1,1,1,1,1,1,1,1,1,1,1,1,1,1,1,1,1,1,1,1,1,1,1,1,1,1,1,1,1,1,1,1,1,1,1,1,1,1,1,1,1,1,1,1,1,1,1,1,1,1,1,1,1,1,1,1,1,1,1,1,1,1,1,1,1,1,1,1,1,1,1,1,1,1,1,1,1,1,1,1,1,1,1,1,1,1,1,1,1,1,1,1,1,1,1,1,1,1,1,1,1,1,1,1,1,1,1,1,1,1,1,1,1,1,1,1,1,1,1,1,1,1,1,1,1,1,1,1,1,1,1,1,1,1,1,1,1,1,1,1,1,1,1,1,1,1,1,1,1,1,1,1,1,1,1,1,1,1,1,1,1,1,1,1,1,1,1,1,1,1,1,1,1,1,1,1,1,1,1,1,1,1,1,1,1,1,1,1,1,1,1,1,1,1,1,1,1,1,1,1,1,1,1,1,1,1,1,1,1,1,1,1,1,1,1,1,1,1,1,1,1,1,1,1,1,1,1,1,1,1,1,1,1,1,1,1,1,1,1,1,1,1,1,1,1,1,1,1,1,1,1,1,1,1,1,1,1,1,1,1,1,85.4372780475137,121.551597618236,-19.6850473004607,7.07282628502874,-18.0480196941312,36.9047085117779,0.0664685891949655,44.3370724120581,11.1345022884514,10.3873485472875,-41.8136911018098,8.41572709164278,-3.89210604252799,-67.1783228270732,18.8244209526301,-62.6757537968974,-14.3054646794656,6.33281231473096,-18.3977010480981,-99.9103859411234,-55.4525085847913,12.0988798359139,38.2639228915132,37.6427408417359,-59.0258365934316,43.6019395426008,57.2441087879931,61.1999357362063,21.1779638227603,14.4339914013344,-22.7239732636169,-35.3797168435586,1.8729356681565,24.3966416532002,-54.0127758323435,-21.7328345138655,-50.3190908137632,-16.0573595983176,35.8218396037903,7.17300168685201,-21.4433317373596,60.8186889844995,-47.3691387561091,78.6176937390904,-83.8256347736198,-1.37555789753466,11.6472291217183,-56.9278662956705,-5.20104681489651,28.9441300426048,6.66671660300451,48.1787714689401,72.3696073894471,-17.3319481415319,-6.84258904961612,34.8795602345004,5.09350305821921,26.6626137812745,27.8253113211816,-9.87279476232339,-20.0810742449917,-8.43033251223618,10.6036037479116,34.7351338807177,-34.7622473297626,-11.2746184534353,53.2518195892004,56.6922234971821,-5.56697174758278,-3.48671898895186,75.14179364157,48.9411832696809,17.1481464827357,13.3495561949127,34.2641580300194,35.5576403042618,-54.1909959184882,70.0831541410143,6.23680500017872,-22.3881087491589,24.5455629334636,-13.7245060498482,-14.0024879563573,-38.74966468738,31.9974553005878,20.1219403631852,28.7852012782802,32.958410524969,41.2297082032182,-30.2484780550671,-7.41376995096547,22.5223056823832,-27.3000098625716,-24.4965616329143,52.4577301956517,61.5385355142757,114.833354825167,24.0856180398677,2.37227594655783,-32.5039189008928,-16.1673928082922,31.1391299277247,-27.9553351679103,16.1910338556992,-33.2199660941494,11.045307367924,-35.9300454270183,0.616434331951788,-92.5758042446273,-19.1872637936222,9.30852900929314,49.2730751741799,-16.6320743046215,51.5785785388779,35.0934775642387,46.0616902973792,46.6397911622072,-42.4238194763299,38.423887607135,33.9027920804608,-9.73499409135232,-17.4646423062794,9.26020838525609,-15.5396405946115,-24.0998453871333,-22.0547888062771,9.16243225842639,-19.9280075795515,9.71200582504347,98.8387999930317,-15.3678881947616,-34.0996787906808,103.98436436553,-16.345385899312,13.4222020180237,29.0313872997694,-49.8939151179898,24.7642619992567,2.80574724919767,43.8190108390506,64.7690248399205,-2.4990404605487,-7.53486598562482,-27.7152321530731,-32.6518856592382,-2.69745163464496,-41.5254228647644,42.3206500811885,-29.2949430992369,22.9573202946943,-9.17922403947653,-11.1021587065676,6.42217874849083,-28.0756538357527,2.8879091170772,-24.7040955730631,11.9541740672316,1.02753793272464,-16.34395753949,-43.4149643512199,24.3298147588893,-10.6524082684791,34.5545316027889,-36.3880900830812,28.8285880201187,23.3101985311559,-1.54882453428565,60.0817315655821,18.9835779355295,14.0682692005645,-9.41796447022839,-9.82221271342077,-17.9031317409228,-42.457245346675,54.8568430120331,51.7776908400442,40.9015153134118,50.0199541773273,79.780781735501,45.8569546295615,44.2664860747273,-6.2579298136443,-5.21860386745382,52.1243247667053,62.9265696009819,55.2763647564267,-11.7139210715016,69.1802294929302,-0.770444625773515,98.9670460193563,63.5430686132354,40.0798114054497,-39.6096673277604,-9.81890280545358,36.1613194779003,-51.3902805636374,89.528263897481,-30.2448537519699,64.3401314461758,-44.5399893596717,-63.0632197865745,-74.8381959138405,-10.3708367364097,56.8289376979789,23.8476292809393,-30.9353122806771,2.25272822511422,-30.1043011327891,-14.3887585576623,-38.8419191918358,-34.1419145201566,65.8864920111164,7.00868295805964,15.2169071402472,50.6316448544414,32.8858943343624,-5.40425894325933,-18.4356011073577,32.0728125161115,9.93648255587456,31.2238649071036,-12.4521620105576,-7.29797069716773,17.3472269060645,32.164129058594,27.4970617399578,-46.465793955092,23.5942413579888,-68.1785248127196,-66.9137427584942,21.0537637143727,-28.9545095755846,-48.423009538831,-24.5248055489695,17.554157564143,19.550478772123,117.97787351784,9.71439863147721,-17.4689732689246,-33.9646530311535,42.2505930819386,17.8242954300883,46.3070894010977,-10.1893681236456,-17.9001446688588,-74.21816882299,39.6871719332259,32.8459436288466,50.3707007531896,17.9437938182161,-22.7462810355518,51.6987830690277,-8.44154456589405,-25.8982838433837,-10.7757754382536,46.3946754928022,13.6040687545888,113.926978670609,22.0786614810892,-20.8714937594003,-3.9825080121682,6.78950614768281,-16.5806846780891,38.3074796414433,25.4484325520175,60.8611619559631,-29.1379574550456,7.16337240772005,59.1673415249844,-28.8709120215793,12.9452628293113,-12.0454571149862,1,1,1,1,1,1,1,1,1,1,1,1,1,1,1,1,1,1,1,1,1,1,1,1,1,1,1,1,1,1,1,1,1,1,1,1,1,1,1,1,1,1,1,1,1,1,1,1,1,1,1,1,1,1,1,1,1,1,1,1,1,1,1,1,1,1,1,1,1,1,1,1,1,1,1,1,1,1,1,1,1,1,1,1,1,1,1,1,1,1,1,1,1,1,1,1,1,1,1,1,1,1,1,1,1,1,1,1,1,1,1,1,1,1,1,1,1,1,1,1,1,1,1,1,1,1,1,1,1,1,1,1,1,1,1,1,1,1,1,1,1,1,1,1,1,1,1,1,1,1,1,1,1,1,1,1,1,1,1,1,1,1,1,1,1,1,1,1,1,1,1,1,1,1,1,1,1,1,1,1,1,1,1,1,1,1,1,1,1,1,1,1,1,1,1,1,1,1,1,1,1,1,1,1,1,1,1,1,1,1,1,1,1,1,1,1,1,1,1,1,1,1,1,1,1,1,1,1,1,1,1,1,1,1,1,1,1,1,1,1,1,1,1,1,1,1,1,1,1,1,1,1,1,1,1,1,1,1,1,1,1,1,1,1,1,1,1,1,1,1,10.2738747818258,4.30662337194552,17.6137064534358,47.6277367709783,-6.93921106040926,-24.1266016752577,-51.259312517173,-49.0535061739497,-12.0980735758365,-53.8207847304626,26.3659498123417,-14.8218550949193,3.14841715741106,-43.0769902488695,10.1181755066314,-12.4565885101814,-25.9429328208499,-42.5074549032488,-21.8960428793397,-17.2834576223476,10.0630581135296,-1.0986749681285,-32.8317413873303,-18.3775463673812,-11.7147117304284,21.6703447629891,-43.5559981503593,-1.69846308359983,-10.116148933862,-36.766124934631,-17.7975835330163,-18.8801572794642,-8.66909562819939,-34.5375447563933,0.436259044233331,28.5624451231298,19.2323221559723,59.1612381773017,-77.0388844870297,-26.1100964588097,13.7084303156692,-38.012198031874,-16.1705096719636,-8.82169648502825,7.52584056158197,11.2224451967139,2.85933668476469,-53.5116899177575,-12.6756723130543,-43.8288286545784,11.7957592217674,-7.34708477495572,10.7296065322089,19.5276471873782,-56.9770183791775,85.0412951670338,-26.8766576377147,-14.9339023906618,-18.8823099289599,31.541036780267,-39.9546228951141,-29.7645847589104,-13.3184537910283,-15.5943155770274,-48.2109459936885,-3.7123641768539,8.58079183174573,10.1615441308608,2.72699630326779,-7.63172118834232,25.2008766418653,10.6481887975077,-4.07927970740546,24.3465667474696,-15.1491237312883,4.7633833067254,4.02482203586911,-53.0828385969939,12.4915317161383,-10.9675260982899,-29.9856601877236,-43.4342687570998,-15.0215818639887,3.95219118283416,10.535415166893,-17.0187883229525,2.05433765035019,-19.7448740369533,-2.03819071614786,8.93741322681017,4.60302562630466,-7.63425576127461,12.8801571787718,-26.3090544566284,-6.42916995414045,-58.8579638951736,-33.6330911262768,8.09134744419774,29.233712620379,47.2085153476305,-0.585326337199743,35.6875376616743,-31.8189115786064,12.5565110468266,-0.458383515431522,-5.70770829808519,-5.55384069143368,1.3194260534123,29.1656466962152,-32.7607974554063,0.621453462941625,-30.8952452437664,-15.4967798609336,-38.8070930857142,-9.03293227758284,-24.7045890228987,15.6518962479219,-21.3735570776524,-11.6994365179925,-12.6780590943068,15.3433154586147,-6.35289840254663,-23.3584819767649,23.5957306469353,-2.86269989208779,34.6361516463411,-19.8561714427799,-10.8636237357798,7.32208779820622,26.6645669531393,46.2791821380485,-14.2690917571774,-49.4754045649659,13.0824862078233,-20.3638615391896,5.29122402803659,35.5778962481786,-31.144714195701,46.9371875107669,-7.15313764375074,21.2037774301321,3.47266864277276,7.33157274069102,72.7015918234938,-24.8380526237255,13.9486478172562,2.48088109175878,-15.030913079742,26.4766626275987,33.9272798024644,20.3811447313593,5.95838477445631,55.6158058717747,23.3857799869883,-16.7195538737964,-47.155715034302,14.3848892384973,-9.50955969632359,-10.4160639643526,-8.84141918568596,-33.654454608977,21.1334330026704,-1.70733756817887,15.2787741728979,35.6667415401087,10.1108145791108,5.30207659402674,-4.80701619248573,16.6642611533903,-20.3801076165914,38.9321460796011,-0.552271303757734,8.42844103755852,45.5335181234843,9.89506166173404,29.7803014455672,-2.29056072324282,1.01535405981863,47.0298885109875,-52.1305379470468,0.714576049775558,-3.55566916111139,40.6303512779938,4.16072880440213,-32.2595256071248,-13.7962920182157,-0.229056948211273,4.67319178680217,-13.7013290946168,5.87211821134309,-1.36221558655592,1.66054696351574,-8.94423572079317,-22.9727388253287,-17.0596213588844,10.8788066677091,20.0815199634275,-2.80668736897449,8.20400581579517,-45.6360618187219,-3.42333702027747,-8.8634124405452,16.5282278802332,-12.397707359467,43.3571992257553,-45.4981237490708,41.1490790522712,10.5507007266442,-27.3790330919761,14.6674689674943,-28.9556269735539,-3.11565984518337,36.3725404330742,-8.67553063250572,4.47707557642736,-14.3657103070282,9.10688778365169,-4.1977853314286,-18.0625422092877,13.4203356334292,8.45149736030943,27.6029884723012,18.7614037244097,-14.309687581096,5.80647266456285,13.7589299966262,3.84496537647785,-0.600999265356019,19.7905348858518,-35.2407915289321,-15.0059216993342,15.3520066324418,-4.98515880199802,19.7275761190102,-46.8891739377948,43.2898035943289,36.874728277464,-9.67530150068849,-10.7132348959102,58.586003467708,-25.5755300885627,35.2764392937454,-39.3410723418452,-16.5926024617875,6.12224039738902,25.4460530157721,-18.9726018250929,8.20151200284601,42.9520379873793,-21.1632641206771,-51.3611682815055,-3.99717266291492,26.7520885464468,6.40858483540058,-18.2046430260002,19.5219158737028,-1.61212396868699,14.147078848696,-6.34440562601009,51.9743975244911,2.98896661063504,8.62116215473791,15.3475550407674,26.6825833429035,9.65213036999809,-59.9143696866161,26.4039577919078,4.59102579747514,-26.3982823312924,93.2108654631082,1,1,1,1,1,1,1,1,1,1,1,1,1,1,1,1,1,1,1,1,1,1,1,1,1,1,1,1,1,1,1,1,1,1,1,1,1,1,1,1,1,1,1,1,1,1,1,1,1,1,1,1,1,1,1,1,1,1,1,1,1,1,1,1,1,1,1,1,1,1,1,1,1,1,1,1,1,1,1,1,1,1,1,1,1,1,1,1,1,1,1,1,1,1,1,1,1,1,1,1,1,1,1,1,1,1,1,1,1,1,1,1,1,1,1,1,1,1,1,1,1,1,1,1,1,1,1,1,1,1,1,1,1,1,1,1,1,1,1,1,1,1,1,1,1,1,1,1,1,1,1,1,1,1,1,1,1,1,1,1,1,1,1,1,1,1,1,1,1,1,1,1,1,1,1,1,1,1,1,1,1,1,1,1,1,1,1,1,1,1,1,1,1,1,1,1,1,1,1,1,1,1,1,1,1,1,1,1,1,1,1,1,1,1,1,1,1,1,1,1,1,1,1,1,1,1,1,1,1,1,1,1,1,1,1,1,1,1,1,1,1,1,1,1,1,1,1,1,1,1,1,1,1,1,1,1,1,1,1,1,1,1,1,1,1,1,1,1,1,1
368.697445280244,221.736591183458,-52.8277527861427,-44.1265324216029,137.459294924081,-19.6850473004607,7.07282628502874,-18.0480196941312,36.9047085117779,0.0664685891949655,44.3370724120581,11.1345022884514,10.3873485472875,-41.8136911018098,8.41572709164278,-3.89210604252799,-67.1783228270732,18.8244209526301,-62.6757537968974,-14.3054646794656,6.33281231473096,-18.3977010480981,-99.9103859411234,-55.4525085847913,12.0988798359139,38.2639228915132,37.6427408417359,-59.0258365934316,43.6019395426008,57.2441087879931,61.1999357362063,21.1779638227603,14.4339914013344,-22.7239732636169,-35.3797168435586,1.8729356681565,24.3966416532002,-54.0127758323435,-21.7328345138655,-50.3190908137632,-16.0573595983176,35.8218396037903,7.17300168685201,-21.4433317373596,60.8186889844995,-47.3691387561091,78.6176937390904,-83.8256347736198,-1.37555789753466,11.6472291217183,-56.9278662956705,-5.20104681489651,28.9441300426048,6.66671660300451,48.1787714689401,72.3696073894471,-17.3319481415319,-6.84258904961612,34.8795602345004,5.09350305821921,26.6626137812745,27.8253113211816,-9.87279476232339,-20.0810742449917,-8.43033251223618,10.6036037479116,34.7351338807177,-34.7622473297626,-11.2746184534353,53.2518195892004,56.6922234971821,-5.56697174758278,-3.48671898895186,75.14179364157,48.9411832696809,17.1481464827357,13.3495561949127,34.2641580300194,35.5576403042618,-54.1909959184882,70.0831541410143,6.23680500017872,-22.3881087491589,24.5455629334636,-13.7245060498482,-14.0024879563573,-38.74966468738,31.9974553005878,20.1219403631852,28.7852012782802,32.958410524969,41.2297082032182,-30.2484780550671,-7.41376995096547,22.5223056823832,-27.3000098625716,-24.4965616329143,52.4577301956517,61.5385355142757,114.833354825167,24.0856180398677,2.37227594655783,-32.5039189008928,-16.1673928082922,31.1391299277247,-27.9553351679103,16.1910338556992,-33.2199660941494,11.045307367924,-35.9300454270183,0.616434331951788,-92.5758042446273,-19.1872637936222,9.30852900929314,49.2730751741799,-16.6320743046215,51.5785785388779,35.0934775642387,46.0616902973792,46.6397911622072,-42.4238194763299,38.423887607135,33.9027920804608,-9.73499409135232,-17.4646423062794,9.26020838525609,-15.5396405946115,-24.0998453871333,-22.0547888062771,9.16243225842639,-19.9280075795515,9.71200582504347,98.8387999930317,-15.3678881947616,-34.0996787906808,103.98436436553,-16.345385899312,13.4222020180237,29.0313872997694,-49.8939151179898,24.7642619992567,2.80574724919767,43.8190108390506,64.7690248399205,-2.4990404605487,-7.53486598562482,-27.7152321530731,-32.6518856592382,-2.69745163464496,-41.5254228647644,42.3206500811885,-29.2949430992369,22.9573202946943,-9.17922403947653,-11.1021587065676,6.42217874849083,-28.0756538357527,2.8879091170772,-24.7040955730631,11.9541740672316,1.02753793272464,-16.34395753949,-43.4149643512199,24.3298147588893,-10.6524082684791,34.5545316027889,-36.3880900830812,28.8285880201187,23.3101985311559,-1.54882453428565,60.0817315655821,18.9835779355295,14.0682692005645,-9.41796447022839,-9.82221271342077,-17.9031317409228,-42.457245346675,54.8568430120331,51.7776908400442,40.9015153134118,50.0199541773273,79.780781735501,45.8569546295615,44.2664860747273,-6.2579298136443,-5.21860386745382,52.1243247667053,62.9265696009819,55.2763647564267,-11.7139210715016,69.1802294929302,-0.770444625773515,98.9670460193563,63.5430686132354,40.0798114054497,-39.6096673277604,-9.81890280545358,36.1613194779003,-51.3902805636374,89.528263897481,-30.2448537519699,64.3401314461758,-44.5399893596717,-63.0632197865745,-74.8381959138405,-10.3708367364097,56.8289376979789,23.8476292809393,-30.9353122806771,2.25272822511422,-30.1043011327891,-14.3887585576623,-38.8419191918358,-34.1419145201566,65.8864920111164,7.00868295805964,15.2169071402472,50.6316448544414,32.8858943343624,-5.40425894325933,-18.4356011073577,32.0728125161115,9.93648255587456,31.2238649071036,-12.4521620105576,-7.29797069716773,17.3472269060645,32.164129058594,27.4970617399578,-46.465793955092,23.5942413579888,-68.1785248127196,-66.9137427584942,21.0537637143727,-28.9545095755846,-48.423009538831,-24.5248055489695,17.554157564143,19.550478772123,117.97787351784,9.71439863147721,-17.4689732689246,-33.9646530311535,42.2505930819386,17.8242954300883,46.3070894010977,-10.1893681236456,-17.9001446688588,-74.21816882299,39.6871719332259,32.8459436288466,50.3707007531896,17.9437938182161,-22.7462810355518,51.6987830690277,-8.44154456589405,-25.8982838433837,-10.7757754382536,46.3946754928022,13.6040687545888,113.926978670609,22.0786614810892,-20.8714937594003,-3.9825080121682,6.78950614768281,-16.5806846780891,38.3074796414433,25.4484325520175,60.8611619559631,-29.1379574550456,7.16337240772005,59.1673415249844,-28.8709120215793,12.9452628293113,-12.0454571149862,1,1,1,1,1,1,1,1,1,1,1,1,1,1,1,1,1,1,1,1,1,1,1,1,1,1,1,1,1,1,1,1,1,1,1,1,1,1,1,1,1,1,1,1,1,1,1,1,1,1,1,1,1,1,1,1,1,1,1,1,1,1,1,1,1,1,1,1,1,1,1,1,1,1,1,1,1,1,1,1,1,1,1,1,1,1,1,1,1,1,1,1,1,1,1,1,1,1,1,1,1,1,1,1,1,1,1,1,1,1,1,1,1,1,1,1,1,1,1,1,1,1,1,1,1,1,1,1,1,1,1,1,1,1,1,1,1,1,1,1,1,1,1,1,1,1,1,1,1,1,1,1,1,1,1,1,1,1,1,1,1,1,1,1,1,1,1,1,1,1,1,1,1,1,1,1,1,1,1,1,1,1,1,1,1,1,1,1,1,1,1,1,1,1,1,1,1,1,1,1,1,1,1,1,1,1,1,1,1,1,1,1,1,1,1,1,1,1,1,1,1,1,1,1,1,1,1,1,1,1,1,1,1,1,1,1,1,1,1,1,1,1,1,1,1,1,1,1,1,1,1,1,1,1,1,1,1,1,1,1,1,1,1,1,1,1,1,1,1,1,10.2738747818258,4.30662337194552,17.6137064534358,47.6277367709783,-6.93921106040926,-24.1266016752577,-51.259312517173,-49.0535061739497,-12.0980735758365,-53.8207847304626,26.3659498123417,-14.8218550949193,3.14841715741106,-43.0769902488695,10.1181755066314,-12.4565885101814,-25.9429328208499,-42.5074549032488,-21.8960428793397,-17.2834576223476,10.0630581135296,-1.0986749681285,-32.8317413873303,-18.3775463673812,-11.7147117304284,21.6703447629891,-43.5559981503593,-1.69846308359983,-10.116148933862,-36.766124934631,-17.7975835330163,-18.8801572794642,-8.66909562819939,-34.5375447563933,0.436259044233331,28.5624451231298,19.2323221559723,59.1612381773017,-77.0388844870297,-26.1100964588097,13.7084303156692,-38.012198031874,-16.1705096719636,-8.82169648502825,7.52584056158197,11.2224451967139,2.85933668476469,-53.5116899177575,-12.6756723130543,-43.8288286545784,11.7957592217674,-7.34708477495572,10.7296065322089,19.5276471873782,-56.9770183791775,85.0412951670338,-26.8766576377147,-14.9339023906618,-18.8823099289599,31.541036780267,-39.9546228951141,-29.7645847589104,-13.3184537910283,-15.5943155770274,-48.2109459936885,-3.7123641768539,8.58079183174573,10.1615441308608,2.72699630326779,-7.63172118834232,25.2008766418653,10.6481887975077,-4.07927970740546,24.3465667474696,-15.1491237312883,4.7633833067254,4.02482203586911,-53.0828385969939,12.4915317161383,-10.9675260982899,-29.9856601877236,-43.4342687570998,-15.0215818639887,3.95219118283416,10.535415166893,-17.0187883229525,2.05433765035019,-19.7448740369533,-2.03819071614786,8.93741322681017,4.60302562630466,-7.63425576127461,12.8801571787718,-26.3090544566284,-6.42916995414045,-58.8579638951736,-33.6330911262768,8.09134744419774,29.233712620379,47.2085153476305,-0.585326337199743,35.6875376616743,-31.8189115786064,12.5565110468266,-0.458383515431522,-5.70770829808519,-5.55384069143368,1.3194260534123,29.1656466962152,-32.7607974554063,0.621453462941625,-30.8952452437664,-15.4967798609336,-38.8070930857142,-9.03293227758284,-24.7045890228987,15.6518962479219,-21.3735570776524,-11.6994365179925,-12.6780590943068,15.3433154586147,-6.35289840254663,-23.3584819767649,23.5957306469353,-2.86269989208779,34.6361516463411,-19.8561714427799,-10.8636237357798,7.32208779820622,26.6645669531393,46.2791821380485,-14.2690917571774,-49.4754045649659,13.0824862078233,-20.3638615391896,5.29122402803659,35.5778962481786,-31.144714195701,46.9371875107669,-7.15313764375074,21.2037774301321,3.47266864277276,7.33157274069102,72.7015918234938,-24.8380526237255,13.9486478172562,2.48088109175878,-15.030913079742,26.4766626275987,33.9272798024644,20.3811447313593,5.95838477445631,55.6158058717747,23.3857799869883,-16.7195538737964,-47.155715034302,14.3848892384973,-9.50955969632359,-10.4160639643526,-8.84141918568596,-33.654454608977,21.1334330026704,-1.70733756817887,15.2787741728979,35.6667415401087,10.1108145791108,5.30207659402674,-4.80701619248573,16.6642611533903,-20.3801076165914,38.9321460796011,-0.552271303757734,8.42844103755852,45.5335181234843,9.89506166173404,29.7803014455672,-2.29056072324282,1.01535405981863,47.0298885109875,-52.1305379470468,0.714576049775558,-3.55566916111139,40.6303512779938,4.16072880440213,-32.2595256071248,-13.7962920182157,-0.229056948211273,4.67319178680217,-13.7013290946168,5.87211821134309,-1.36221558655592,1.66054696351574,-8.94423572079317,-22.9727388253287,-17.0596213588844,10.8788066677091,20.0815199634275,-2.80668736897449,8.20400581579517,-45.6360618187219,-3.42333702027747,-8.8634124405452,16.5282278802332,-12.397707359467,43.3571992257553,-45.4981237490708,41.1490790522712,10.5507007266442,-27.3790330919761,14.6674689674943,-28.9556269735539,-3.11565984518337,36.3725404330742,-8.67553063250572,4.47707557642736,-14.3657103070282,9.10688778365169,-4.1977853314286,-18.0625422092877,13.4203356334292,8.45149736030943,27.6029884723012,18.7614037244097,-14.309687581096,5.80647266456285,13.7589299966262,3.84496537647785,-0.600999265356019,19.7905348858518,-35.2407915289321,-15.0059216993342,15.3520066324418,-4.98515880199802,19.7275761190102,-46.8891739377948,43.2898035943289,36.874728277464,-9.67530150068849,-10.7132348959102,58.586003467708,-25.5755300885627,35.2764392937454,-39.3410723418452,-16.5926024617875,6.12224039738902,25.4460530157721,-18.9726018250929,8.20151200284601,42.9520379873793,-21.1632641206771,-51.3611682815055,-3.99717266291492,26.7520885464468,6.40858483540058,-18.2046430260002,19.5219158737028,-1.61212396868699,14.147078848696,-6.34440562601009,51.9743975244911,2.98896661063504,8.62116215473791,15.3475550407674,26.6825833429035,9.65213036999809,-59.9143696866161,26.4039577919078,4.59102579747514,-26.3982823312924,93.2108654631082,1,1,1,1,1,1,1,1,1,1,1,1,1,1,1,1,1,1,1,1,1,1,1,1,1,1,1,1,1,1,1,1,1,1,1,1,1,1,1,1,1,1,1,1,1,1,1,1,1,1,1,1,1,1,1,1,1,1,1,1,1,1,1,1,1,1,1,1,1,1,1,1,1,1,1,1,1,1,1,1,1,1,1,1,1,1,1,1,1,1,1,1,1,1,1,1,1,1,1,1,1,1,1,1,1,1,1,1,1,1,1,1,1,1,1,1,1,1,1,1,1,1,1,1,1,1,1,1,1,1,1,1,1,1,1,1,1,1,1,1,1,1,1,1,1,1,1,1,1,1,1,1,1,1,1,1,1,1,1,1,1,1,1,1,1,1,1,1,1,1,1,1,1,1,1,1,1,1,1,1,1,1,1,1,1,1,1,1,1,1,1,1,1,1,1,1,1,1,1,1,1,1,1,1,1,1,1,1,1,1,1,1,1,1,1,1,1,1,1,1,1,1,1,1,1,1,1,1,1,1,1,1,1,1,1,1,1,1,1,1,1,1,1,1,1,1,1,1,1,1,1,1,1,1,1,1,1,1,1,1,1,1,1,1,1,1,1,1,1,1,-62.9858979423031,-43.2752964205617,-19.6850473004607,7.07282628502874,-18.0480196941312,36.9047085117779,0.0664685891949655,44.3370724120581,11.1345022884514,10.3873485472875,-41.8136911018098,8.41572709164278,-3.89210604252799,-67.1783228270732,18.8244209526301,-62.6757537968974,-14.3054646794656,6.33281231473096,-18.3977010480981,-99.9103859411234,-55.4525085847913,12.0988798359139,38.2639228915132,37.6427408417359,-59.0258365934316,43.6019395426008,57.2441087879931,61.1999357362063,21.1779638227603,14.4339914013344,-22.7239732636169,-35.3797168435586,1.8729356681565,24.3966416532002,-54.0127758323435,-21.7328345138655,-50.3190908137632,-16.0573595983176,35.8218396037903,7.17300168685201,-21.4433317373596,60.8186889844995,-47.3691387561091,78.6176937390904,-83.8256347736198,-1.37555789753466,11.6472291217183,-56.9278662956705,-5.20104681489651,28.9441300426048,6.66671660300451,48.1787714689401,72.3696073894471,-17.3319481415319,-6.84258904961612,34.8795602345004,5.09350305821921,26.6626137812745,27.8253113211816,-9.87279476232339,-20.0810742449917,-8.43033251223618,10.6036037479116,34.7351338807177,-34.7622473297626,-11.2746184534353,53.2518195892004,56.6922234971821,-5.56697174758278,-3.48671898895186,75.14179364157,48.9411832696809,17.1481464827357,13.3495561949127,34.2641580300194,35.5576403042618,-54.1909959184882,70.0831541410143,6.23680500017872,-22.3881087491589,24.5455629334636,-13.7245060498482,-14.0024879563573,-38.74966468738,31.9974553005878,20.1219403631852,28.7852012782802,32.958410524969,41.2297082032182,-30.2484780550671,-7.41376995096547,22.5223056823832,-27.3000098625716,-24.4965616329143,52.4577301956517,61.5385355142757,114.833354825167,24.0856180398677,2.37227594655783,-32.5039189008928,-16.1673928082922,31.1391299277247,-27.9553351679103,16.1910338556992,-33.2199660941494,11.045307367924,-35.9300454270183,0.616434331951788,-92.5758042446273,-19.1872637936222,9.30852900929314,49.2730751741799,-16.6320743046215,51.5785785388779,35.0934775642387,46.0616902973792,46.6397911622072,-42.4238194763299,38.423887607135,33.9027920804608,-9.73499409135232,-17.4646423062794,9.26020838525609,-15.5396405946115,-24.0998453871333,-22.0547888062771,9.16243225842639,-19.9280075795515,9.71200582504347,98.8387999930317,-15.3678881947616,-34.0996787906808,103.98436436553,-16.345385899312,13.4222020180237,29.0313872997694,-49.8939151179898,24.7642619992567,2.80574724919767,43.8190108390506,64.7690248399205,-2.4990404605487,-7.53486598562482,-27.7152321530731,-32.6518856592382,-2.69745163464496,-41.5254228647644,42.3206500811885,-29.2949430992369,22.9573202946943,-9.17922403947653,-11.1021587065676,6.42217874849083,-28.0756538357527,2.8879091170772,-24.7040955730631,11.9541740672316,1.02753793272464,-16.34395753949,-43.4149643512199,24.3298147588893,-10.6524082684791,34.5545316027889,-36.3880900830812,28.8285880201187,23.3101985311559,-1.54882453428565,60.0817315655821,18.9835779355295,14.0682692005645,-9.41796447022839,-9.82221271342077,-17.9031317409228,-42.457245346675,54.8568430120331,51.7776908400442,40.9015153134118,50.0199541773273,79.780781735501,45.8569546295615,44.2664860747273,-6.2579298136443,-5.21860386745382,52.1243247667053,62.9265696009819,55.2763647564267,-11.7139210715016,69.1802294929302,-0.770444625773515,98.9670460193563,63.5430686132354,40.0798114054497,-39.6096673277604,-9.81890280545358,36.1613194779003,-51.3902805636374,89.528263897481,-30.2448537519699,64.3401314461758,-44.5399893596717,-63.0632197865745,-74.8381959138405,-10.3708367364097,56.8289376979789,23.8476292809393,-30.9353122806771,2.25272822511422,-30.1043011327891,-14.3887585576623,-38.8419191918358,-34.1419145201566,65.8864920111164,7.00868295805964,15.2169071402472,50.6316448544414,32.8858943343624,-5.40425894325933,-18.4356011073577,32.0728125161115,9.93648255587456,31.2238649071036,-12.4521620105576,-7.29797069716773,17.3472269060645,32.164129058594,27.4970617399578,-46.465793955092,23.5942413579888,-68.1785248127196,-66.9137427584942,21.0537637143727,-28.9545095755846,-48.423009538831,-24.5248055489695,17.554157564143,19.550478772123,117.97787351784,9.71439863147721,-17.4689732689246,-33.9646530311535,42.2505930819386,17.8242954300883,46.3070894010977,-10.1893681236456,-17.9001446688588,-74.21816882299,39.6871719332259,32.8459436288466,50.3707007531896,17.9437938182161,-22.7462810355518,51.6987830690277,-8.44154456589405,-25.8982838433837,-10.7757754382536,46.3946754928022,13.6040687545888,113.926978670609,22.0786614810892,-20.8714937594003,-3.9825080121682,6.78950614768281,-16.5806846780891,38.3074796414433,25.4484325520175,60.8611619559631,-29.1379574550456,7.16337240772005,59.1673415249844,-28.8709120215793,12.9452628293113,-12.0454571149862,1,1,1,1,1,1,1,1,1,1,1,1,1,1,1,1,1,1,1,1,1,1,1,1,1,1,1,1,1,1,1,1,1,1,1,1,1,1,1,1,1,1,1,1,1,1,1,1,1,1,1,1,1,1,1,1,1,1,1,1,1,1,1,1,1,1,1,1,1,1,1,1,1,1,1,1,1,1,1,1,1,1,1,1,1,1,1,1,1,1,1,1,1,1,1,1,1,1,1,1,1,1,1,1,1,1,1,1,1,1,1,1,1,1,1,1,1,1,1,1,1,1,1,1,1,1,1,1,1,1,1,1,1,1,1,1,1,1,1,1,1,1,1,1,1,1,1,1,1,1,1,1,1,1,1,1,1,1,1,1,1,1,1,1,1,1,1,1,1,1,1,1,1,1,1,1,1,1,1,1,1,1,1,1,1,1,1,1,1,1,1,1,1,1,1,1,1,1,1,1,1,1,1,1,1,1,1,1,1,1,1,1,1,1,1,1,1,1,1,1,1,1,1,1,1,1,1,1,1,1,1,1,1,1,1,1,1,1,1,1,1,1,1,1,1,1,1,1,1,1,1,1,1,1,1,1,1,1,1,1,1,1,1,1,1,1,1,1,1,1,10.2738747818258,4.30662337194552,17.6137064534358,47.6277367709783,-6.93921106040926,-24.1266016752577,-51.259312517173,-49.0535061739497,-12.0980735758365,-53.8207847304626,26.3659498123417,-14.8218550949193,3.14841715741106,-43.0769902488695,10.1181755066314,-12.4565885101814,-25.9429328208499,-42.5074549032488,-21.8960428793397,-17.2834576223476,10.0630581135296,-1.0986749681285,-32.8317413873303,-18.3775463673812,-11.7147117304284,21.6703447629891,-43.5559981503593,-1.69846308359983,-10.116148933862,-36.766124934631,-17.7975835330163,-18.8801572794642,-8.66909562819939,-34.5375447563933,0.436259044233331,28.5624451231298,19.2323221559723,59.1612381773017,-77.0388844870297,-26.1100964588097,13.7084303156692,-38.012198031874,-16.1705096719636,-8.82169648502825,7.52584056158197,11.2224451967139,2.85933668476469,-53.5116899177575,-12.6756723130543,-43.8288286545784,11.7957592217674,-7.34708477495572,10.7296065322089,19.5276471873782,-56.9770183791775,85.0412951670338,-26.8766576377147,-14.9339023906618,-18.8823099289599,31.541036780267,-39.9546228951141,-29.7645847589104,-13.3184537910283,-15.5943155770274,-48.2109459936885,-3.7123641768539,8.58079183174573,10.1615441308608,2.72699630326779,-7.63172118834232,25.2008766418653,10.6481887975077,-4.07927970740546,24.3465667474696,-15.1491237312883,4.7633833067254,4.02482203586911,-53.0828385969939,12.4915317161383,-10.9675260982899,-29.9856601877236,-43.4342687570998,-15.0215818639887,3.95219118283416,10.535415166893,-17.0187883229525,2.05433765035019,-19.7448740369533,-2.03819071614786,8.93741322681017,4.60302562630466,-7.63425576127461,12.8801571787718,-26.3090544566284,-6.42916995414045,-58.8579638951736,-33.6330911262768,8.09134744419774,29.233712620379,47.2085153476305,-0.585326337199743,35.6875376616743,-31.8189115786064,12.5565110468266,-0.458383515431522,-5.70770829808519,-5.55384069143368,1.3194260534123,29.1656466962152,-32.7607974554063,0.621453462941625,-30.8952452437664,-15.4967798609336,-38.8070930857142,-9.03293227758284,-24.7045890228987,15.6518962479219,-21.3735570776524,-11.6994365179925,-12.6780590943068,15.3433154586147,-6.35289840254663,-23.3584819767649,23.5957306469353,-2.86269989208779,34.6361516463411,-19.8561714427799,-10.8636237357798,7.32208779820622,26.6645669531393,46.2791821380485,-14.2690917571774,-49.4754045649659,13.0824862078233,-20.3638615391896,5.29122402803659,35.5778962481786,-31.144714195701,46.9371875107669,-7.15313764375074,21.2037774301321,3.47266864277276,7.33157274069102,72.7015918234938,-24.8380526237255,13.9486478172562,2.48088109175878,-15.030913079742,26.4766626275987,33.9272798024644,20.3811447313593,5.95838477445631,55.6158058717747,23.3857799869883,-16.7195538737964,-47.155715034302,14.3848892384973,-9.50955969632359,-10.4160639643526,-8.84141918568596,-33.654454608977,21.1334330026704,-1.70733756817887,15.2787741728979,35.6667415401087,10.1108145791108,5.30207659402674,-4.80701619248573,16.6642611533903,-20.3801076165914,38.9321460796011,-0.552271303757734,8.42844103755852,45.5335181234843,9.89506166173404,29.7803014455672,-2.29056072324282,1.01535405981863,47.0298885109875,-52.1305379470468,0.714576049775558,-3.55566916111139,40.6303512779938,4.16072880440213,-32.2595256071248,-13.7962920182157,-0.229056948211273,4.67319178680217,-13.7013290946168,5.87211821134309,-1.36221558655592,1.66054696351574,-8.94423572079317,-22.9727388253287,-17.0596213588844,10.8788066677091,20.0815199634275,-2.80668736897449,8.20400581579517,-45.6360618187219,-3.42333702027747,-8.8634124405452,16.5282278802332,-12.397707359467,43.3571992257553,-45.4981237490708,41.1490790522712,10.5507007266442,-27.3790330919761,14.6674689674943,-28.9556269735539,-3.11565984518337,36.3725404330742,-8.67553063250572,4.47707557642736,-14.3657103070282,9.10688778365169,-4.1977853314286,-18.0625422092877,13.4203356334292,8.45149736030943,27.6029884723012,18.7614037244097,-14.309687581096,5.80647266456285,13.7589299966262,3.84496537647785,-0.600999265356019,19.7905348858518,-35.2407915289321,-15.0059216993342,15.3520066324418,-4.98515880199802,19.7275761190102,-46.8891739377948,43.2898035943289,36.874728277464,-9.67530150068849,-10.7132348959102,58.586003467708,-25.5755300885627,35.2764392937454,-39.3410723418452,-16.5926024617875,6.12224039738902,25.4460530157721,-18.9726018250929,8.20151200284601,42.9520379873793,-21.1632641206771,-51.3611682815055,-3.99717266291492,26.7520885464468,6.40858483540058,-18.2046430260002,19.5219158737028,-1.61212396868699,14.147078848696,-6.34440562601009,51.9743975244911,2.98896661063504,8.62116215473791,15.3475550407674,26.6825833429035,9.65213036999809,-59.9143696866161,26.4039577919078,4.59102579747514,-26.3982823312924,93.2108654631082,1,1,1,1,1,1,1,1,1,1,1,1,1,1,1,1,1,1,1,1,1,1,1,1,1,1,1,1,1,1,1,1,1,1,1,1,1,1,1,1,1,1,1,1,1,1,1,1,1,1,1,1,1,1,1,1,1,1,1,1,1,1,1,1,1,1,1,1,1,1,1,1,1,1,1,1,1,1,1,1,1,1,1,1,1,1,1,1,1,1,1,1,1,1,1,1,1,1,1,1,1,1,1,1,1,1,1,1,1,1,1,1,1,1,1,1,1,1,1,1,1,1,1,1,1,1,1,1,1,1,1,1,1,1,1,1,1,1,1,1,1,1,1,1,1,1,1,1,1,1,1,1,1,1,1,1,1,1,1,1,1,1,1,1,1,1,1,1,1,1,1,1,1,1,1,1,1,1,1,1,1,1,1,1,1,1,1,1,1,1,1,1,1,1,1,1,1,1,1,1,1,1,1,1,1,1,1,1,1,1,1,1,1,1,1,1,1,1,1,1,1,1,1,1,1,1,1,1,1,1,1,1,1,1,1,1,1,1,1,1,1,1,1,1,1,1,1,1,1,1,1,1,1,1,1,1,1,1,1,1,1,1,1,1,1,1,1,1,1,1,85.4372780475137,121.551597618236,-19.6850473004607,7.07282628502874,-18.0480196941312,36.9047085117779,0.0664685891949655,44.3370724120581,11.1345022884514,10.3873485472875,-41.8136911018098,8.41572709164278,-3.89210604252799,-67.1783228270732,18.8244209526301,-62.6757537968974,-14.3054646794656,6.33281231473096,-18.3977010480981,-99.9103859411234,-55.4525085847913,12.0988798359139,38.2639228915132,37.6427408417359,-59.0258365934316,43.6019395426008,57.2441087879931,61.1999357362063,21.1779638227603,14.4339914013344,-22.7239732636169,-35.3797168435586,1.8729356681565,24.3966416532002,-54.0127758323435,-21.7328345138655,-50.3190908137632,-16.0573595983176,35.8218396037903,7.17300168685201,-21.4433317373596,60.8186889844995,-47.3691387561091,78.6176937390904,-83.8256347736198,-1.37555789753466,11.6472291217183,-56.9278662956705,-5.20104681489651,28.9441300426048,6.66671660300451,48.1787714689401,72.3696073894471,-17.3319481415319,-6.84258904961612,34.8795602345004,5.09350305821921,26.6626137812745,27.8253113211816,-9.87279476232339,-20.0810742449917,-8.43033251223618,10.6036037479116,34.7351338807177,-34.7622473297626,-11.2746184534353,53.2518195892004,56.6922234971821,-5.56697174758278,-3.48671898895186,75.14179364157,48.9411832696809,17.1481464827357,13.3495561949127,34.2641580300194,35.5576403042618,-54.1909959184882,70.0831541410143,6.23680500017872,-22.3881087491589,24.5455629334636,-13.7245060498482,-14.0024879563573,-38.74966468738,31.9974553005878,20.1219403631852,28.7852012782802,32.958410524969,41.2297082032182,-30.2484780550671,-7.41376995096547,22.5223056823832,-27.3000098625716,-24.4965616329143,52.4577301956517,61.5385355142757,114.833354825167,24.0856180398677,2.37227594655783,-32.5039189008928,-16.1673928082922,31.1391299277247,-27.9553351679103,16.1910338556992,-33.2199660941494,11.045307367924,-35.9300454270183,0.616434331951788,-92.5758042446273,-19.1872637936222,9.30852900929314,49.2730751741799,-16.6320743046215,51.5785785388779,35.0934775642387,46.0616902973792,46.6397911622072,-42.4238194763299,38.423887607135,33.9027920804608,-9.73499409135232,-17.4646423062794,9.26020838525609,-15.5396405946115,-24.0998453871333,-22.0547888062771,9.16243225842639,-19.9280075795515,9.71200582504347,98.8387999930317,-15.3678881947616,-34.0996787906808,103.98436436553,-16.345385899312,13.4222020180237,29.0313872997694,-49.8939151179898,24.7642619992567,2.80574724919767,43.8190108390506,64.7690248399205,-2.4990404605487,-7.53486598562482,-27.7152321530731,-32.6518856592382,-2.69745163464496,-41.5254228647644,42.3206500811885,-29.2949430992369,22.9573202946943,-9.17922403947653,-11.1021587065676,6.42217874849083,-28.0756538357527,2.8879091170772,-24.7040955730631,11.9541740672316,1.02753793272464,-16.34395753949,-43.4149643512199,24.3298147588893,-10.6524082684791,34.5545316027889,-36.3880900830812,28.8285880201187,23.3101985311559,-1.54882453428565,60.0817315655821,18.9835779355295,14.0682692005645,-9.41796447022839,-9.82221271342077,-17.9031317409228,-42.457245346675,54.8568430120331,51.7776908400442,40.9015153134118,50.0199541773273,79.780781735501,45.8569546295615,44.2664860747273,-6.2579298136443,-5.21860386745382,52.1243247667053,62.9265696009819,55.2763647564267,-11.7139210715016,69.1802294929302,-0.770444625773515,98.9670460193563,63.5430686132354,40.0798114054497,-39.6096673277604,-9.81890280545358,36.1613194779003,-51.3902805636374,89.528263897481,-30.2448537519699,64.3401314461758,-44.5399893596717,-63.0632197865745,-74.8381959138405,-10.3708367364097,56.8289376979789,23.8476292809393,-30.9353122806771,2.25272822511422,-30.1043011327891,-14.3887585576623,-38.8419191918358,-34.1419145201566,65.8864920111164,7.00868295805964,15.2169071402472,50.6316448544414,32.8858943343624,-5.40425894325933,-18.4356011073577,32.0728125161115,9.93648255587456,31.2238649071036,-12.4521620105576,-7.29797069716773,17.3472269060645,32.164129058594,27.4970617399578,-46.465793955092,23.5942413579888,-68.1785248127196,-66.9137427584942,21.0537637143727,-28.9545095755846,-48.423009538831,-24.5248055489695,17.554157564143,19.550478772123,117.97787351784,9.71439863147721,-17.4689732689246,-33.9646530311535,42.2505930819386,17.8242954300883,46.3070894010977,-10.1893681236456,-17.9001446688588,-74.21816882299,39.6871719332259,32.8459436288466,50.3707007531896,17.9437938182161,-22.7462810355518,51.6987830690277,-8.44154456589405,-25.8982838433837,-10.7757754382536,46.3946754928022,13.6040687545888,113.926978670609,22.0786614810892,-20.8714937594003,-3.9825080121682,6.78950614768281,-16.5806846780891,38.3074796414433,25.4484325520175,60.8611619559631,-29.1379574550456,7.16337240772005,59.1673415249844,-28.8709120215793,12.9452628293113,-12.0454571149862,1,1,1,1,1,1,1,1,1,1,1,1,1,1,1,1,1,1,1,1,1,1,1,1,1,1,1,1,1,1,1,1,1,1,1,1,1,1,1,1,1,1,1,1,1,1,1,1,1,1,1,1,1,1,1,1,1,1,1,1,1,1,1,1,1,1,1,1,1,1,1,1,1,1,1,1,1,1,1,1,1,1,1,1,1,1,1,1,1,1,1,1,1,1,1,1,1,1,1,1,1,1,1,1,1,1,1,1,1,1,1,1,1,1,1,1,1,1,1,1,1,1,1,1,1,1,1,1,1,1,1,1,1,1,1,1,1,1,1,1,1,1,1,1,1,1,1,1,1,1,1,1,1,1,1,1,1,1,1,1,1,1,1,1,1,1,1,1,1,1,1,1,1,1,1,1,1,1,1,1,1,1,1,1,1,1,1,1,1,1,1,1,1,1,1,1,1,1,1,1,1,1,1,1,1,1,1,1,1,1,1,1,1,1,1,1,1,1,1,1,1,1,1,1,1,1,1,1,1,1,1,1,1,1,1,1,1,1,1,1,1,1,1,1,1,1,1,1,1,1,1,1,1,1,1,1,1,1,1,1,1,1,1,1,1,1,1,1,1,1,10.2738747818258,4.30662337194552,17.6137064534358,47.6277367709783,-6.93921106040926,-24.1266016752577,-51.259312517173,-49.0535061739497,-12.0980735758365,-53.8207847304626,26.3659498123417,-14.8218550949193,3.14841715741106,-43.0769902488695,10.1181755066314,-12.4565885101814,-25.9429328208499,-42.5074549032488,-21.8960428793397,-17.2834576223476,10.0630581135296,-1.0986749681285,-32.8317413873303,-18.3775463673812,-11.7147117304284,21.6703447629891,-43.5559981503593,-1.69846308359983,-10.116148933862,-36.766124934631,-17.7975835330163,-18.8801572794642,-8.66909562819939,-34.5375447563933,0.436259044233331,28.5624451231298,19.2323221559723,59.1612381773017,-77.0388844870297,-26.1100964588097,13.7084303156692,-38.012198031874,-16.1705096719636,-8.82169648502825,7.52584056158197,11.2224451967139,2.85933668476469,-53.5116899177575,-12.6756723130543,-43.8288286545784,11.7957592217674,-7.34708477495572,10.7296065322089,19.5276471873782,-56.9770183791775,85.0412951670338,-26.8766576377147,-14.9339023906618,-18.8823099289599,31.541036780267,-39.9546228951141,-29.7645847589104,-13.3184537910283,-15.5943155770274,-48.2109459936885,-3.7123641768539,8.58079183174573,10.1615441308608,2.72699630326779,-7.63172118834232,25.2008766418653,10.6481887975077,-4.07927970740546,24.3465667474696,-15.1491237312883,4.7633833067254,4.02482203586911,-53.0828385969939,12.4915317161383,-10.9675260982899,-29.9856601877236,-43.4342687570998,-15.0215818639887,3.95219118283416,10.535415166893,-17.0187883229525,2.05433765035019,-19.7448740369533,-2.03819071614786,8.93741322681017,4.60302562630466,-7.63425576127461,12.8801571787718,-26.3090544566284,-6.42916995414045,-58.8579638951736,-33.6330911262768,8.09134744419774,29.233712620379,47.2085153476305,-0.585326337199743,35.6875376616743,-31.8189115786064,12.5565110468266,-0.458383515431522,-5.70770829808519,-5.55384069143368,1.3194260534123,29.1656466962152,-32.7607974554063,0.621453462941625,-30.8952452437664,-15.4967798609336,-38.8070930857142,-9.03293227758284,-24.7045890228987,15.6518962479219,-21.3735570776524,-11.6994365179925,-12.6780590943068,15.3433154586147,-6.35289840254663,-23.3584819767649,23.5957306469353,-2.86269989208779,34.6361516463411,-19.8561714427799,-10.8636237357798,7.32208779820622,26.6645669531393,46.2791821380485,-14.2690917571774,-49.4754045649659,13.0824862078233,-20.3638615391896,5.29122402803659,35.5778962481786,-31.144714195701,46.9371875107669,-7.15313764375074,21.2037774301321,3.47266864277276,7.33157274069102,72.7015918234938,-24.8380526237255,13.9486478172562,2.48088109175878,-15.030913079742,26.4766626275987,33.9272798024644,20.3811447313593,5.95838477445631,55.6158058717747,23.3857799869883,-16.7195538737964,-47.155715034302,14.3848892384973,-9.50955969632359,-10.4160639643526,-8.84141918568596,-33.654454608977,21.1334330026704,-1.70733756817887,15.2787741728979,35.6667415401087,10.1108145791108,5.30207659402674,-4.80701619248573,16.6642611533903,-20.3801076165914,38.9321460796011,-0.552271303757734,8.42844103755852,45.5335181234843,9.89506166173404,29.7803014455672,-2.29056072324282,1.01535405981863,47.0298885109875,-52.1305379470468,0.714576049775558,-3.55566916111139,40.6303512779938,4.16072880440213,-32.2595256071248,-13.7962920182157,-0.229056948211273,4.67319178680217,-13.7013290946168,5.87211821134309,-1.36221558655592,1.66054696351574,-8.94423572079317,-22.9727388253287,-17.0596213588844,10.8788066677091,20.0815199634275,-2.80668736897449,8.20400581579517,-45.6360618187219,-3.42333702027747,-8.8634124405452,16.5282278802332,-12.397707359467,43.3571992257553,-45.4981237490708,41.1490790522712,10.5507007266442,-27.3790330919761,14.6674689674943,-28.9556269735539,-3.11565984518337,36.3725404330742,-8.67553063250572,4.47707557642736,-14.3657103070282,9.10688778365169,-4.1977853314286,-18.0625422092877,13.4203356334292,8.45149736030943,27.6029884723012,18.7614037244097,-14.309687581096,5.80647266456285,13.7589299966262,3.84496537647785,-0.600999265356019,19.7905348858518,-35.2407915289321,-15.0059216993342,15.3520066324418,-4.98515880199802,19.7275761190102,-46.8891739377948,43.2898035943289,36.874728277464,-9.67530150068849,-10.7132348959102,58.586003467708,-25.5755300885627,35.2764392937454,-39.3410723418452,-16.5926024617875,6.12224039738902,25.4460530157721,-18.9726018250929,8.20151200284601,42.9520379873793,-21.1632641206771,-51.3611682815055,-3.99717266291492,26.7520885464468,6.40858483540058,-18.2046430260002,19.5219158737028,-1.61212396868699,14.147078848696,-6.34440562601009,51.9743975244911,2.98896661063504,8.62116215473791,15.3475550407674,26.6825833429035,9.65213036999809,-59.9143696866161,26.4039577919078,4.59102579747514,-26.3982823312924,93.2108654631082,1,1,1,1,1,1,1,1,1,1,1,1,1,1,1,1,1,1,1,1,1,1,1,1,1,1,1,1,1,1,1,1,1,1,1,1,1,1,1,1,1,1,1,1,1,1,1,1,1,1,1,1,1,1,1,1,1,1,1,1,1,1,1,1,1,1,1,1,1,1,1,1,1,1,1,1,1,1,1,1,1,1,1,1,1,1,1,1,1,1,1,1,1,1,1,1,1,1,1,1,1,1,1,1,1,1,1,1,1,1,1,1,1,1,1,1,1,1,1,1,1,1,1,1,1,1,1,1,1,1,1,1,1,1,1,1,1,1,1,1,1,1,1,1,1,1,1,1,1,1,1,1,1,1,1,1,1,1,1,1,1,1,1,1,1,1,1,1,1,1,1,1,1,1,1,1,1,1,1,1,1,1,1,1,1,1,1,1,1,1,1,1,1,1,1,1,1,1,1,1,1,1,1,1,1,1,1,1,1,1,1,1,1,1,1,1,1,1,1,1,1,1,1,1,1,1,1,1,1,1,1,1,1,1,1,1,1,1,1,1,1,1,1,1,1,1,1,1,1,1,1,1,1,1,1,1,1,1,1,1,1,1,1,1,1,1,1,1,1,1
517.876185192669,-114.94483116965,162.411028086399,-44.1265324216029,137.459294924081,-19.6850473004607,7.07282628502874,-18.0480196941312,36.9047085117779,0.0664685891949655,44.3370724120581,11.1345022884514,10.3873485472875,-41.8136911018098,8.41572709164278,-3.89210604252799,-67.1783228270732,18.8244209526301,-62.6757537968974,-14.3054646794656,6.33281231473096,-18.3977010480981,-99.9103859411234,-55.4525085847913,12.0988798359139,38.2639228915132,37.6427408417359,-59.0258365934316,43.6019395426008,57.2441087879931,61.1999357362063,21.1779638227603,14.4339914013344,-22.7239732636169,-35.3797168435586,1.8729356681565,24.3966416532002,-54.0127758323435,-21.7328345138655,-50.3190908137632,-16.0573595983176,35.8218396037903,7.17300168685201,-21.4433317373596,60.8186889844995,-47.3691387561091,78.6176937390904,-83.8256347736198,-1.37555789753466,11.6472291217183,-56.9278662956705,-5.20104681489651,28.9441300426048,6.66671660300451,48.1787714689401,72.3696073894471,-17.3319481415319,-6.84258904961612,34.8795602345004,5.09350305821921,26.6626137812745,27.8253113211816,-9.87279476232339,-20.0810742449917,-8.43033251223618,10.6036037479116,34.7351338807177,-34.7622473297626,-11.2746184534353,53.2518195892004,56.6922234971821,-5.56697174758278,-3.48671898895186,75.14179364157,48.9411832696809,17.1481464827357,13.3495561949127,34.2641580300194,35.5576403042618,-54.1909959184882,70.0831541410143,6.23680500017872,-22.3881087491589,24.5455629334636,-13.7245060498482,-14.0024879563573,-38.74966468738,31.9974553005878,20.1219403631852,28.7852012782802,32.958410524969,41.2297082032182,-30.2484780550671,-7.41376995096547,22.5223056823832,-27.3000098625716,-24.4965616329143,52.4577301956517,61.5385355142757,114.833354825167,24.0856180398677,2.37227594655783,-32.5039189008928,-16.1673928082922,31.1391299277247,-27.9553351679103,16.1910338556992,-33.2199660941494,11.045307367924,-35.9300454270183,0.616434331951788,-92.5758042446273,-19.1872637936222,9.30852900929314,49.2730751741799,-16.6320743046215,51.5785785388779,35.0934775642387,46.0616902973792,46.6397911622072,-42.4238194763299,38.423887607135,33.9027920804608,-9.73499409135232,-17.4646423062794,9.26020838525609,-15.5396405946115,-24.0998453871333,-22.0547888062771,9.16243225842639,-19.9280075795515,9.71200582504347,98.8387999930317,-15.3678881947616,-34.0996787906808,103.98436436553,-16.345385899312,13.4222020180237,29.0313872997694,-49.8939151179898,24.7642619992567,2.80574724919767,43.8190108390506,64.7690248399205,-2.4990404605487,-7.53486598562482,-27.7152321530731,-32.6518856592382,-2.69745163464496,-41.5254228647644,42.3206500811885,-29.2949430992369,22.9573202946943,-9.17922403947653,-11.1021587065676,6.42217874849083,-28.0756538357527,2.8879091170772,-24.7040955730631,11.9541740672316,1.02753793272464,-16.34395753949,-43.4149643512199,24.3298147588893,-10.6524082684791,34.5545316027889,-36.3880900830812,28.8285880201187,23.3101985311559,-1.54882453428565,60.0817315655821,18.9835779355295,14.0682692005645,-9.41796447022839,-9.82221271342077,-17.9031317409228,-42.457245346675,54.8568430120331,51.7776908400442,40.9015153134118,50.0199541773273,79.780781735501,45.8569546295615,44.2664860747273,-6.2579298136443,-5.21860386745382,52.1243247667053,62.9265696009819,55.2763647564267,-11.7139210715016,69.1802294929302,-0.770444625773515,98.9670460193563,63.5430686132354,40.0798114054497,-39.6096673277604,-9.81890280545358,36.1613194779003,-51.3902805636374,89.528263897481,-30.2448537519699,64.3401314461758,-44.5399893596717,-63.0632197865745,-74.8381959138405,-10.3708367364097,56.8289376979789,23.8476292809393,-30.9353122806771,2.25272822511422,-30.1043011327891,-14.3887585576623,-38.8419191918358,-34.1419145201566,65.8864920111164,7.00868295805964,15.2169071402472,50.6316448544414,32.8858943343624,-5.40425894325933,-18.4356011073577,32.0728125161115,9.93648255587456,31.2238649071036,-12.4521620105576,-7.29797069716773,17.3472269060645,32.164129058594,27.4970617399578,-46.465793955092,23.5942413579888,-68.1785248127196,-66.9137427584942,21.0537637143727,-28.9545095755846,-48.423009538831,-24.5248055489695,17.554157564143,19.550478772123,117.97787351784,9.71439863147721,-17.4689732689246,-33.9646530311535,42.2505930819386,17.8242954300883,46.3070894010977,-10.1893681236456,-17.9001446688588,-74.21816882299,39.6871719332259,32.8459436288466,50.3707007531896,17.9437938182161,-22.7462810355518,51.6987830690277,-8.44154456589405,-25.8982838433837,-10.7757754382536,46.3946754928022,13.6040687545888,113.926978670609,22.0786614810892,-20.8714937594003,-3.9825080121682,6.78950614768281,-16.5806846780891,38.3074796414433,25.4484325520175,60.8611619559631,-29.1379574550456,7.16337240772005,59.1673415249844,-28.8709120215793,12.9452628293113,-12.0454571149862,1,1,1,1,1,1,1,1,1,1,1,1,1,1,1,1,1,1,1,1,1,1,1,1,1,1,1,1,1,1,1,1,1,1,1,1,1,1,1,1,1,1,1,1,1,1,1,1,1,1,1,1,1,1,1,1,1,1,1,1,1,1,1,1,1,1,1,1,1,1,1,1,1,1,1,1,1,1,1,1,1,1,1,1,1,1,1,1,1,1,1,1,1,1,1,1,1,1,1,1,1,1,1,1,1,1,1,1,1,1,1,1,1,1,1,1,1,1,1,1,1,1,1,1,1,1,1,1,1,1,1,1,1,1,1,1,1,1,1,1,1,1,1,1,1,1,1,1,1,1,1,1,1,1,1,1,1,1,1,1,1,1,1,1,1,1,1,1,1,1,1,1,1,1,1,1,1,1,1,1,1,1,1,1,1,1,1,1,1,1,1,1,1,1,1,1,1,1,1,1,1,1,1,1,1,1,1,1,1,1,1,1,1,1,1,1,1,1,1,1,1,1,1,1,1,1,1,1,1,1,1,1,1,1,1,1,1,1,1,1,1,1,1,1,1,1,1,1,1,1,1,1,1,1,1,1,1,1,1,1,1,1,1,1,1,1,1,1,1,1,10.2738747818258,4.30662337194552,17.6137064534358,47.6277367709783,-6.93921106040926,-24.1266016752577,-51.259312517173,-49.0535061739497,-12.0980735758365,-53.8207847304626,26.3659498123417,-14.8218550949193,3.14841715741106,-43.0769902488695,10.1181755066314,-12.4565885101814,-25.9429328208499,-42.5074549032488,-21.8960428793397,-17.2834576223476,10.0630581135296,-1.0986749681285,-32.8317413873303,-18.3775463673812,-11.7147117304284,21.6703447629891,-43.5559981503593,-1.69846308359983,-10.116148933862,-36.766124934631,-17.7975835330163,-18.8801572794642,-8.66909562819939,-34.5375447563933,0.436259044233331,28.5624451231298,19.2323221559723,59.1612381773017,-77.0388844870297,-26.1100964588097,13.7084303156692,-38.012198031874,-16.1705096719636,-8.82169648502825,7.52584056158197,11.2224451967139,2.85933668476469,-53.5116899177575,-12.6756723130543,-43.8288286545784,11.7957592217674,-7.34708477495572,10.7296065322089,19.5276471873782,-56.9770183791775,85.0412951670338,-26.8766576377147,-14.9339023906618,-18.8823099289599,31.541036780267,-39.9546228951141,-29.7645847589104,-13.3184537910283,-15.5943155770274,-48.2109459936885,-3.7123641768539,8.58079183174573,10.1615441308608,2.72699630326779,-7.63172118834232,25.2008766418653,10.6481887975077,-4.07927970740546,24.3465667474696,-15.1491237312883,4.7633833067254,4.02482203586911,-53.0828385969939,12.4915317161383,-10.9675260982899,-29.9856601877236,-43.4342687570998,-15.0215818639887,3.95219118283416,10.535415166893,-17.0187883229525,2.05433765035019,-19.7448740369533,-2.03819071614786,8.93741322681017,4.60302562630466,-7.63425576127461,12.8801571787718,-26.3090544566284,-6.42916995414045,-58.8579638951736,-33.6330911262768,8.09134744419774,29.233712620379,47.2085153476305,-0.585326337199743,35.6875376616743,-31.8189115786064,12.5565110468266,-0.458383515431522,-5.70770829808519,-5.55384069143368,1.3194260534123,29.1656466962152,-32.7607974554063,0.621453462941625,-30.8952452437664,-15.4967798609336,-38.8070930857142,-9.03293227758284,-24.7045890228987,15.6518962479219,-21.3735570776524,-11.6994365179925,-12.6780590943068,15.3433154586147,-6.35289840254663,-23.3584819767649,23.5957306469353,-2.86269989208779,34.6361516463411,-19.8561714427799,-10.8636237357798,7.32208779820622,26.6645669531393,46.2791821380485,-14.2690917571774,-49.4754045649659,13.0824862078233,-20.3638615391896,5.29122402803659,35.5778962481786,-31.144714195701,46.9371875107669,-7.15313764375074,21.2037774301321,3.47266864277276,7.33157274069102,72.7015918234938,-24.8380526237255,13.9486478172562,2.48088109175878,-15.030913079742,26.4766626275987,33.9272798024644,20.3811447313593,5.95838477445631,55.6158058717747,23.3857799869883,-16.7195538737964,-47.155715034302,14.3848892384973,-9.50955969632359,-10.4160639643526,-8.84141918568596,-33.654454608977,21.1334330026704,-1.70733756817887,15.2787741728979,35.6667415401087,10.1108145791108,5.30207659402674,-4.80701619248573,16.6642611533903,-20.3801076165914,38.9321460796011,-0.552271303757734,8.42844103755852,45.5335181234843,9.89506166173404,29.7803014455672,-2.29056072324282,1.01535405981863,47.0298885109875,-52.1305379470468,0.714576049775558,-3.55566916111139,40.6303512779938,4.16072880440213,-32.2595256071248,-13.7962920182157,-0.229056948211273,4.67319178680217,-13.7013290946168,5.87211821134309,-1.36221558655592,1.66054696351574,-8.94423572079317,-22.9727388253287,-17.0596213588844,10.8788066677091,20.0815199634275,-2.80668736897449,8.20400581579517,-45.6360618187219,-3.42333702027747,-8.8634124405452,16.5282278802332,-12.397707359467,43.3571992257553,-45.4981237490708,41.1490790522712,10.5507007266442,-27.3790330919761,14.6674689674943,-28.9556269735539,-3.11565984518337,36.3725404330742,-8.67553063250572,4.47707557642736,-14.3657103070282,9.10688778365169,-4.1977853314286,-18.0625422092877,13.4203356334292,8.45149736030943,27.6029884723012,18.7614037244097,-14.309687581096,5.80647266456285,13.7589299966262,3.84496537647785,-0.600999265356019,19.7905348858518,-35.2407915289321,-15.0059216993342,15.3520066324418,-4.98515880199802,19.7275761190102,-46.8891739377948,43.2898035943289,36.874728277464,-9.67530150068849,-10.7132348959102,58.586003467708,-25.5755300885627,35.2764392937454,-39.3410723418452,-16.5926024617875,6.12224039738902,25.4460530157721,-18.9726018250929,8.20151200284601,42.9520379873793,-21.1632641206771,-51.3611682815055,-3.99717266291492,26.7520885464468,6.40858483540058,-18.2046430260002,19.5219158737028,-1.61212396868699,14.147078848696,-6.34440562601009,51.9743975244911,2.98896661063504,8.62116215473791,15.3475550407674,26.6825833429035,9.65213036999809,-59.9143696866161,26.4039577919078,4.59102579747514,-26.3982823312924,93.2108654631082,1,1,1,1,1,1,1,1,1,1,1,1,1,1,1,1,1,1,1,1,1,1,1,1,1,1,1,1,1,1,1,1,1,1,1,1,1,1,1,1,1,1,1,1,1,1,1,1,1,1,1,1,1,1,1,1,1,1,1,1,1,1,1,1,1,1,1,1,1,1,1,1,1,1,1,1,1,1,1,1,1,1,1,1,1,1,1,1,1,1,1,1,1,1,1,1,1,1,1,1,1,1,1,1,1,1,1,1,1,1,1,1,1,1,1,1,1,1,1,1,1,1,1,1,1,1,1,1,1,1,1,1,1,1,1,1,1,1,1,1,1,1,1,1,1,1,1,1,1,1,1,1,1,1,1,1,1,1,1,1,1,1,1,1,1,1,1,1,1,1,1,1,1,1,1,1,1,1,1,1,1,1,1,1,1,1,1,1,1,1,1,1,1,1,1,1,1,1,1,1,1,1,1,1,1,1,1,1,1,1,1,1,1,1,1,1,1,1,1,1,1,1,1,1,1,1,1,1,1,1,1,1,1,1,1,1,1,1,1,1,1,1,1,1,1,1,1,1,1,1,1,1,1,1,1,1,1,1,1,1,1,1,1,1,1,1,1,1,1,1,-62.9858979423031,-43.2752964205617,-19.6850473004607,7.07282628502874,-18.0480196941312,36.9047085117779,0.0664685891949655,44.3370724120581,11.1345022884514,10.3873485472875,-41.8136911018098,8.41572709164278,-3.89210604252799,-67.1783228270732,18.8244209526301,-62.6757537968974,-14.3054646794656,6.33281231473096,-18.3977010480981,-99.9103859411234,-55.4525085847913,12.0988798359139,38.2639228915132,37.6427408417359,-59.0258365934316,43.6019395426008,57.2441087879931,61.1999357362063,21.1779638227603,14.4339914013344,-22.7239732636169,-35.3797168435586,1.8729356681565,24.3966416532002,-54.0127758323435,-21.7328345138655,-50.3190908137632,-16.0573595983176,35.8218396037903,7.17300168685201,-21.4433317373596,60.8186889844995,-47.3691387561091,78.6176937390904,-83.8256347736198,-1.37555789753466,11.6472291217183,-56.9278662956705,-5.20104681489651,28.9441300426048,6.66671660300451,48.1787714689401,72.3696073894471,-17.3319481415319,-6.84258904961612,34.8795602345004,5.09350305821921,26.6626137812745,27.8253113211816,-9.87279476232339,-20.0810742449917,-8.43033251223618,10.6036037479116,34.7351338807177,-34.7622473297626,-11.2746184534353,53.2518195892004,56.6922234971821,-5.56697174758278,-3.48671898895186,75.14179364157,48.9411832696809,17.1481464827357,13.3495561949127,34.2641580300194,35.5576403042618,-54.1909959184882,70.0831541410143,6.23680500017872,-22.3881087491589,24.5455629334636,-13.7245060498482,-14.0024879563573,-38.74966468738,31.9974553005878,20.1219403631852,28.7852012782802,32.958410524969,41.2297082032182,-30.2484780550671,-7.41376995096547,22.5223056823832,-27.3000098625716,-24.4965616329143,52.4577301956517,61.5385355142757,114.833354825167,24.0856180398677,2.37227594655783,-32.5039189008928,-16.1673928082922,31.1391299277247,-27.9553351679103,16.1910338556992,-33.2199660941494,11.045307367924,-35.9300454270183,0.616434331951788,-92.5758042446273,-19.1872637936222,9.30852900929314,49.2730751741799,-16.6320743046215,51.5785785388779,35.0934775642387,46.0616902973792,46.6397911622072,-42.4238194763299,38.423887607135,33.9027920804608,-9.73499409135232,-17.4646423062794,9.26020838525609,-15.5396405946115,-24.0998453871333,-22.0547888062771,9.16243225842639,-19.9280075795515,9.71200582504347,98.8387999930317,-15.3678881947616,-34.0996787906808,103.98436436553,-16.345385899312,13.4222020180237,29.0313872997694,-49.8939151179898,24.7642619992567,2.80574724919767,43.8190108390506,64.7690248399205,-2.4990404605487,-7.53486598562482,-27.7152321530731,-32.6518856592382,-2.69745163464496,-41.5254228647644,42.3206500811885,-29.2949430992369,22.9573202946943,-9.17922403947653,-11.1021587065676,6.42217874849083,-28.0756538357527,2.8879091170772,-24.7040955730631,11.9541740672316,1.02753793272464,-16.34395753949,-43.4149643512199,24.3298147588893,-10.6524082684791,34.5545316027889,-36.3880900830812,28.8285880201187,23.3101985311559,-1.54882453428565,60.0817315655821,18.9835779355295,14.0682692005645,-9.41796447022839,-9.82221271342077,-17.9031317409228,-42.457245346675,54.8568430120331,51.7776908400442,40.9015153134118,50.0199541773273,79.780781735501,45.8569546295615,44.2664860747273,-6.2579298136443,-5.21860386745382,52.1243247667053,62.9265696009819,55.2763647564267,-11.7139210715016,69.1802294929302,-0.770444625773515,98.9670460193563,63.5430686132354,40.0798114054497,-39.6096673277604,-9.81890280545358,36.1613194779003,-51.3902805636374,89.528263897481,-30.2448537519699,64.3401314461758,-44.5399893596717,-63.0632197865745,-74.8381959138405,-10.3708367364097,56.8289376979789,23.8476292809393,-30.9353122806771,2.25272822511422,-30.1043011327891,-14.3887585576623,-38.8419191918358,-34.1419145201566,65.8864920111164,7.00868295805964,15.2169071402472,50.6316448544414,32.8858943343624,-5.40425894325933,-18.4356011073577,32.0728125161115,9.93648255587456,31.2238649071036,-12.4521620105576,-7.29797069716773,17.3472269060645,32.164129058594,27.4970617399578,-46.465793955092,23.5942413579888,-68.1785248127196,-66.9137427584942,21.0537637143727,-28.9545095755846,-48.423009538831,-24.5248055489695,17.554157564143,19.550478772123,117.97787351784,9.71439863147721,-17.4689732689246,-33.9646530311535,42.2505930819386,17.8242954300883,46.3070894010977,-10.1893681236456,-17.9001446688588,-74.21816882299,39.6871719332259,32.8459436288466,50.3707007531896,17.9437938182161,-22.7462810355518,51.6987830690277,-8.44154456589405,-25.8982838433837,-10.7757754382536,46.3946754928022,13.6040687545888,113.926978670609,22.0786614810892,-20.8714937594003,-3.9825080121682,6.78950614768281,-16.5806846780891,38.3074796414433,25.4484325520175,60.8611619559631,-29.1379574550456,7.16337240772005,59.1673415249844,-28.8709120215793,12.9452628293113,-12.0454571149862,1,1,1,1,1,1,1,1,1,1,1,1,1,1,1,1,1,1,1,1,1,1,1,1,1,1,1,1,1,1,1,1,1,1,1,1,1,1,1,1,1,1,1,1,1,1,1,1,1,1,1,1,1,1,1,1,1,1,1,1,1,1,1,1,1,1,1,1,1,1,1,1,1,1,1,1,1,1,1,1,1,1,1,1,1,1,1,1,1,1,1,1,1,1,1,1,1,1,1,1,1,1,1,1,1,1,1,1,1,1,1,1,1,1,1,1,1,1,1,1,1,1,1,1,1,1,1,1,1,1,1,1,1,1,1,1,1,1,1,1,1,1,1,1,1,1,1,1,1,1,1,1,1,1,1,1,1,1,1,1,1,1,1,1,1,1,1,1,1,1,1,1,1,1,1,1,1,1,1,1,1,1,1,1,1,1,1,1,1,1,1,1,1,1,1,1,1,1,1,1,1,1,1,1,1,1,1,1,1,1,1,1,1,1,1,1,1,1,1,1,1,1,1,1,1,1,1,1,1,1,1,1,1,1,1,1,1,1,1,1,1,1,1,1,1,1,1,1,1,1,1,1,1,1,1,1,1,1,1,1,1,1,1,1,1,1,1,1,1,1,10.2738747818258,4.30662337194552,17.6137064534358,47.6277367709783,-6.93921106040926,-24.1266016752577,-51.259312517173,-49.0535061739497,-12.0980735758365,-53.8207847304626,26.3659498123417,-14.8218550949193,3.14841715741106,-43.0769902488695,10.1181755066314,-12.4565885101814,-25.9429328208499,-42.5074549032488,-21.8960428793397,-17.2834576223476,10.0630581135296,-1.0986749681285,-32.8317413873303,-18.3775463673812,-11.7147117304284,21.6703447629891,-43.5559981503593,-1.69846308359983,-10.116148933862,-36.766124934631,-17.7975835330163,-18.8801572794642,-8.66909562819939,-34.5375447563933,0.436259044233331,28.5624451231298,19.2323221559723,59.1612381773017,-77.0388844870297,-26.1100964588097,13.7084303156692,-38.012198031874,-16.1705096719636,-8.82169648502825,7.52584056158197,11.2224451967139,2.85933668476469,-53.5116899177575,-12.6756723130543,-43.8288286545784,11.7957592217674,-7.34708477495572,10.7296065322089,19.5276471873782,-56.9770183791775,85.0412951670338,-26.8766576377147,-14.9339023906618,-18.8823099289599,31.541036780267,-39.9546228951141,-29.7645847589104,-13.3184537910283,-15.5943155770274,-48.2109459936885,-3.7123641768539,8.58079183174573,10.1615441308608,2.72699630326779,-7.63172118834232,25.2008766418653,10.6481887975077,-4.07927970740546,24.3465667474696,-15.1491237312883,4.7633833067254,4.02482203586911,-53.0828385969939,12.4915317161383,-10.9675260982899,-29.9856601877236,-43.4342687570998,-15.0215818639887,3.95219118283416,10.535415166893,-17.0187883229525,2.05433765035019,-19.7448740369533,-2.03819071614786,8.93741322681017,4.60302562630466,-7.63425576127461,12.8801571787718,-26.3090544566284,-6.42916995414045,-58.8579638951736,-33.6330911262768,8.09134744419774,29.233712620379,47.2085153476305,-0.585326337199743,35.6875376616743,-31.8189115786064,12.5565110468266,-0.458383515431522,-5.70770829808519,-5.55384069143368,1.3194260534123,29.1656466962152,-32.7607974554063,0.621453462941625,-30.8952452437664,-15.4967798609336,-38.8070930857142,-9.03293227758284,-24.7045890228987,15.6518962479219,-21.3735570776524,-11.6994365179925,-12.6780590943068,15.3433154586147,-6.35289840254663,-23.3584819767649,23.5957306469353,-2.86269989208779,34.6361516463411,-19.8561714427799,-10.8636237357798,7.32208779820622,26.6645669531393,46.2791821380485,-14.2690917571774,-49.4754045649659,13.0824862078233,-20.3638615391896,5.29122402803659,35.5778962481786,-31.144714195701,46.9371875107669,-7.15313764375074,21.2037774301321,3.47266864277276,7.33157274069102,72.7015918234938,-24.8380526237255,13.9486478172562,2.48088109175878,-15.030913079742,26.4766626275987,33.9272798024644,20.3811447313593,5.95838477445631,55.6158058717747,23.3857799869883,-16.7195538737964,-47.155715034302,14.3848892384973,-9.50955969632359,-10.4160639643526,-8.84141918568596,-33.654454608977,21.1334330026704,-1.70733756817887,15.2787741728979,35.6667415401087,10.1108145791108,5.30207659402674,-4.80701619248573,16.6642611533903,-20.3801076165914,38.9321460796011,-0.552271303757734,8.42844103755852,45.5335181234843,9.89506166173404,29.7803014455672,-2.29056072324282,1.01535405981863,47.0298885109875,-52.1305379470468,0.714576049775558,-3.55566916111139,40.6303512779938,4.16072880440213,-32.2595256071248,-13.7962920182157,-0.229056948211273,4.67319178680217,-13.7013290946168,5.87211821134309,-1.36221558655592,1.66054696351574,-8.94423572079317,-22.9727388253287,-17.0596213588844,10.8788066677091,20.0815199634275,-2.80668736897449,8.20400581579517,-45.6360618187219,-3.42333702027747,-8.8634124405452,16.5282278802332,-12.397707359467,43.3571992257553,-45.4981237490708,41.1490790522712,10.5507007266442,-27.3790330919761,14.6674689674943,-28.9556269735539,-3.11565984518337,36.3725404330742,-8.67553063250572,4.47707557642736,-14.3657103070282,9.10688778365169,-4.1977853314286,-18.0625422092877,13.4203356334292,8.45149736030943,27.6029884723012,18.7614037244097,-14.309687581096,5.80647266456285,13.7589299966262,3.84496537647785,-0.600999265356019,19.7905348858518,-35.2407915289321,-15.0059216993342,15.3520066324418,-4.98515880199802,19.7275761190102,-46.8891739377948,43.2898035943289,36.874728277464,-9.67530150068849,-10.7132348959102,58.586003467708,-25.5755300885627,35.2764392937454,-39.3410723418452,-16.5926024617875,6.12224039738902,25.4460530157721,-18.9726018250929,8.20151200284601,42.9520379873793,-21.1632641206771,-51.3611682815055,-3.99717266291492,26.7520885464468,6.40858483540058,-18.2046430260002,19.5219158737028,-1.61212396868699,14.147078848696,-6.34440562601009,51.9743975244911,2.98896661063504,8.62116215473791,15.3475550407674,26.6825833429035,9.65213036999809,-59.9143696866161,26.4039577919078,4.59102579747514,-26.3982823312924,93.2108654631082,1,1,1,1,1,1,1,1,1,1,1,1,1,1,1,1,1,1,1,1,1,1,1,1,1,1,1,1,1,1,1,1,1,1,1,1,1,1,1,1,1,1,1,1,1,1,1,1,1,1,1,1,1,1,1,1,1,1,1,1,1,1,1,1,1,1,1,1,1,1,1,1,1,1,1,1,1,1,1,1,1,1,1,1,1,1,1,1,1,1,1,1,1,1,1,1,1,1,1,1,1,1,1,1,1,1,1,1,1,1,1,1,1,1,1,1,1,1,1,1,1,1,1,1,1,1,1,1,1,1,1,1,1,1,1,1,1,1,1,1,1,1,1,1,1,1,1,1,1,1,1,1,1,1,1,1,1,1,1,1,1,1,1,1,1,1,1,1,1,1,1,1,1,1,1,1,1,1,1,1,1,1,1,1,1,1,1,1,1,1,1,1,1,1,1,1,1,1,1,1,1,1,1,1,1,1,1,1,1,1,1,1,1,1,1,1,1,1,1,1,1,1,1,1,1,1,1,1,1,1,1,1,1,1,1,1,1,1,1,1,1,1,1,1,1,1,1,1,1,1,1,1,1,1,1,1,1,1,1,1,1,1,1,1,1,1,1,1,1,1,85.4372780475137,121.551597618236,-19.6850473004607,7.07282628502874,-18.0480196941312,36.9047085117779,0.0664685891949655,44.3370724120581,11.1345022884514,10.3873485472875,-41.8136911018098,8.41572709164278,-3.89210604252799,-67.1783228270732,18.8244209526301,-62.6757537968974,-14.3054646794656,6.33281231473096,-18.3977010480981,-99.9103859411234,-55.4525085847913,12.0988798359139,38.2639228915132,37.6427408417359,-59.0258365934316,43.6019395426008,57.2441087879931,61.1999357362063,21.1779638227603,14.4339914013344,-22.7239732636169,-35.3797168435586,1.8729356681565,24.3966416532002,-54.0127758323435,-21.7328345138655,-50.3190908137632,-16.0573595983176,35.8218396037903,7.17300168685201,-21.4433317373596,60.8186889844995,-47.3691387561091,78.6176937390904,-83.8256347736198,-1.37555789753466,11.6472291217183,-56.9278662956705,-5.20104681489651,28.9441300426048,6.66671660300451,48.1787714689401,72.3696073894471,-17.3319481415319,-6.84258904961612,34.8795602345004,5.09350305821921,26.6626137812745,27.8253113211816,-9.87279476232339,-20.0810742449917,-8.43033251223618,10.6036037479116,34.7351338807177,-34.7622473297626,-11.2746184534353,53.2518195892004,56.6922234971821,-5.56697174758278,-3.48671898895186,75.14179364157,48.9411832696809,17.1481464827357,13.3495561949127,34.2641580300194,35.5576403042618,-54.1909959184882,70.0831541410143,6.23680500017872,-22.3881087491589,24.5455629334636,-13.7245060498482,-14.0024879563573,-38.74966468738,31.9974553005878,20.1219403631852,28.7852012782802,32.958410524969,41.2297082032182,-30.2484780550671,-7.41376995096547,22.5223056823832,-27.3000098625716,-24.4965616329143,52.4577301956517,61.5385355142757,114.833354825167,24.0856180398677,2.37227594655783,-32.5039189008928,-16.1673928082922,31.1391299277247,-27.9553351679103,16.1910338556992,-33.2199660941494,11.045307367924,-35.9300454270183,0.616434331951788,-92.5758042446273,-19.1872637936222,9.30852900929314,49.2730751741799,-16.6320743046215,51.5785785388779,35.0934775642387,46.0616902973792,46.6397911622072,-42.4238194763299,38.423887607135,33.9027920804608,-9.73499409135232,-17.4646423062794,9.26020838525609,-15.5396405946115,-24.0998453871333,-22.0547888062771,9.16243225842639,-19.9280075795515,9.71200582504347,98.8387999930317,-15.3678881947616,-34.0996787906808,103.98436436553,-16.345385899312,13.4222020180237,29.0313872997694,-49.8939151179898,24.7642619992567,2.80574724919767,43.8190108390506,64.7690248399205,-2.4990404605487,-7.53486598562482,-27.7152321530731,-32.6518856592382,-2.69745163464496,-41.5254228647644,42.3206500811885,-29.2949430992369,22.9573202946943,-9.17922403947653,-11.1021587065676,6.42217874849083,-28.0756538357527,2.8879091170772,-24.7040955730631,11.9541740672316,1.02753793272464,-16.34395753949,-43.4149643512199,24.3298147588893,-10.6524082684791,34.5545316027889,-36.3880900830812,28.8285880201187,23.3101985311559,-1.54882453428565,60.0817315655821,18.9835779355295,14.0682692005645,-9.41796447022839,-9.82221271342077,-17.9031317409228,-42.457245346675,54.8568430120331,51.7776908400442,40.9015153134118,50.0199541773273,79.780781735501,45.8569546295615,44.2664860747273,-6.2579298136443,-5.21860386745382,52.1243247667053,62.9265696009819,55.2763647564267,-11.7139210715016,69.1802294929302,-0.770444625773515,98.9670460193563,63.5430686132354,40.0798114054497,-39.6096673277604,-9.81890280545358,36.1613194779003,-51.3902805636374,89.528263897481,-30.2448537519699,64.3401314461758,-44.5399893596717,-63.0632197865745,-74.8381959138405,-10.3708367364097,56.8289376979789,23.8476292809393,-30.9353122806771,2.25272822511422,-30.1043011327891,-14.3887585576623,-38.8419191918358,-34.1419145201566,65.8864920111164,7.00868295805964,15.2169071402472,50.6316448544414,32.8858943343624,-5.40425894325933,-18.4356011073577,32.0728125161115,9.93648255587456,31.2238649071036,-12.4521620105576,-7.29797069716773,17.3472269060645,32.164129058594,27.4970617399578,-46.465793955092,23.5942413579888,-68.1785248127196,-66.9137427584942,21.0537637143727,-28.9545095755846,-48.423009538831,-24.5248055489695,17.554157564143,19.550478772123,117.97787351784,9.71439863147721,-17.4689732689246,-33.9646530311535,42.2505930819386,17.8242954300883,46.3070894010977,-10.1893681236456,-17.9001446688588,-74.21816882299,39.6871719332259,32.8459436288466,50.3707007531896,17.9437938182161,-22.7462810355518,51.6987830690277,-8.44154456589405,-25.8982838433837,-10.7757754382536,46.3946754928022,13.6040687545888,113.926978670609,22.0786614810892,-20.8714937594003,-3.9825080121682,6.78950614768281,-16.5806846780891,38.3074796414433,25.4484325520175,60.8611619559631,-29.1379574550456,7.16337240772005,59.1673415249844,-28.8709120215793,12.9452628293113,-12.0454571149862,1,1,1,1,1,1,1,1,1,1,1,1,1,1,1,1,1,1,1,1,1,1,1,1,1,1,1,1,1,1,1,1,1,1,1,1,1,1,1,1,1,1,1,1,1,1,1,1,1,1,1,1,1,1,1,1,1,1,1,1,1,1,1,1,1,1,1,1,1,1,1,1,1,1,1,1,1,1,1,1,1,1,1,1,1,1,1,1,1,1,1,1,1,1,1,1,1,1,1,1,1,1,1,1,1,1,1,1,1,1,1,1,1,1,1,1,1,1,1,1,1,1,1,1,1,1,1,1,1,1,1,1,1,1,1,1,1,1,1,1,1,1,1,1,1,1,1,1,1,1,1,1,1,1,1,1,1,1,1,1,1,1,1,1,1,1,1,1,1,1,1,1,1,1,1,1,1,1,1,1,1,1,1,1,1,1,1,1,1,1,1,1,1,1,1,1,1,1,1,1,1,1,1,1,1,1,1,1,1,1,1,1,1,1,1,1,1,1,1,1,1,1,1,1,1,1,1,1,1,1,1,1,1,1,1,1,1,1,1,1,1,1,1,1,1,1,1,1,1,1,1,1,1,1,1,1,1,1,1,1,1,1,1,1,1,1,1,1,1,1,10.2738747818258,4.30662337194552,17.6137064534358,47.6277367709783,-6.93921106040926,-24.1266016752577,-51.259312517173,-49.0535061739497,-12.0980735758365,-53.8207847304626,26.3659498123417,-14.8218550949193,3.14841715741106,-43.0769902488695,10.1181755066314,-12.4565885101814,-25.9429328208499,-42.5074549032488,-21.8960428793397,-17.2834576223476,10.0630581135296,-1.0986749681285,-32.8317413873303,-18.3775463673812,-11.7147117304284,21.6703447629891,-43.5559981503593,-1.69846308359983,-10.116148933862,-36.766124934631,-17.7975835330163,-18.8801572794642,-8.66909562819939,-34.5375447563933,0.436259044233331,28.5624451231298,19.2323221559723,59.1612381773017,-77.0388844870297,-26.1100964588097,13.7084303156692,-38.012198031874,-16.1705096719636,-8.82169648502825,7.52584056158197,11.2224451967139,2.85933668476469,-53.5116899177575,-12.6756723130543,-43.8288286545784,11.7957592217674,-7.34708477495572,10.7296065322089,19.5276471873782,-56.9770183791775,85.0412951670338,-26.8766576377147,-14.9339023906618,-18.8823099289599,31.541036780267,-39.9546228951141,-29.7645847589104,-13.3184537910283,-15.5943155770274,-48.2109459936885,-3.7123641768539,8.58079183174573,10.1615441308608,2.72699630326779,-7.63172118834232,25.2008766418653,10.6481887975077,-4.07927970740546,24.3465667474696,-15.1491237312883,4.7633833067254,4.02482203586911,-53.0828385969939,12.4915317161383,-10.9675260982899,-29.9856601877236,-43.4342687570998,-15.0215818639887,3.95219118283416,10.535415166893,-17.0187883229525,2.05433765035019,-19.7448740369533,-2.03819071614786,8.93741322681017,4.60302562630466,-7.63425576127461,12.8801571787718,-26.3090544566284,-6.42916995414045,-58.8579638951736,-33.6330911262768,8.09134744419774,29.233712620379,47.2085153476305,-0.585326337199743,35.6875376616743,-31.8189115786064,12.5565110468266,-0.458383515431522,-5.70770829808519,-5.55384069143368,1.3194260534123,29.1656466962152,-32.7607974554063,0.621453462941625,-30.8952452437664,-15.4967798609336,-38.8070930857142,-9.03293227758284,-24.7045890228987,15.6518962479219,-21.3735570776524,-11.6994365179925,-12.6780590943068,15.3433154586147,-6.35289840254663,-23.3584819767649,23.5957306469353,-2.86269989208779,34.6361516463411,-19.8561714427799,-10.8636237357798,7.32208779820622,26.6645669531393,46.2791821380485,-14.2690917571774,-49.4754045649659,13.0824862078233,-20.3638615391896,5.29122402803659,35.5778962481786,-31.144714195701,46.9371875107669,-7.15313764375074,21.2037774301321,3.47266864277276,7.33157274069102,72.7015918234938,-24.8380526237255,13.9486478172562,2.48088109175878,-15.030913079742,26.4766626275987,33.9272798024644,20.3811447313593,5.95838477445631,55.6158058717747,23.3857799869883,-16.7195538737964,-47.155715034302,14.3848892384973,-9.50955969632359,-10.4160639643526,-8.84141918568596,-33.654454608977,21.1334330026704,-1.70733756817887,15.2787741728979,35.6667415401087,10.1108145791108,5.30207659402674,-4.80701619248573,16.6642611533903,-20.3801076165914,38.9321460796011,-0.552271303757734,8.42844103755852,45.5335181234843,9.89506166173404,29.7803014455672,-2.29056072324282,1.01535405981863,47.0298885109875,-52.1305379470468,0.714576049775558,-3.55566916111139,40.6303512779938,4.16072880440213,-32.2595256071248,-13.7962920182157,-0.229056948211273,4.67319178680217,-13.7013290946168,5.87211821134309,-1.36221558655592,1.66054696351574,-8.94423572079317,-22.9727388253287,-17.0596213588844,10.8788066677091,20.0815199634275,-2.80668736897449,8.20400581579517,-45.6360618187219,-3.42333702027747,-8.8634124405452,16.5282278802332,-12.397707359467,43.3571992257553,-45.4981237490708,41.1490790522712,10.5507007266442,-27.3790330919761,14.6674689674943,-28.9556269735539,-3.11565984518337,36.3725404330742,-8.67553063250572,4.47707557642736,-14.3657103070282,9.10688778365169,-4.1977853314286,-18.0625422092877,13.4203356334292,8.45149736030943,27.6029884723012,18.7614037244097,-14.309687581096,5.80647266456285,13.7589299966262,3.84496537647785,-0.600999265356019,19.7905348858518,-35.2407915289321,-15.0059216993342,15.3520066324418,-4.98515880199802,19.7275761190102,-46.8891739377948,43.2898035943289,36.874728277464,-9.67530150068849,-10.7132348959102,58.586003467708,-25.5755300885627,35.2764392937454,-39.3410723418452,-16.5926024617875,6.12224039738902,25.4460530157721,-18.9726018250929,8.20151200284601,42.9520379873793,-21.1632641206771,-51.3611682815055,-3.99717266291492,26.7520885464468,6.40858483540058,-18.2046430260002,19.5219158737028,-1.61212396868699,14.147078848696,-6.34440562601009,51.9743975244911,2.98896661063504,8.62116215473791,15.3475550407674,26.6825833429035,9.65213036999809,-59.9143696866161,26.4039577919078,4.59102579747514,-26.3982823312924,93.2108654631082,1,1,1,1,1,1,1,1,1,1,1,1,1,1,1,1,1,1,1,1,1,1,1,1,1,1,1,1,1,1,1,1,1,1,1,1,1,1,1,1,1,1,1,1,1,1,1,1,1,1,1,1,1,1,1,1,1,1,1,1,1,1,1,1,1,1,1,1,1,1,1,1,1,1,1,1,1,1,1,1,1,1,1,1,1,1,1,1,1,1,1,1,1,1,1,1,1,1,1,1,1,1,1,1,1,1,1,1,1,1,1,1,1,1,1,1,1,1,1,1,1,1,1,1,1,1,1,1,1,1,1,1,1,1,1,1,1,1,1,1,1,1,1,1,1,1,1,1,1,1,1,1,1,1,1,1,1,1,1,1,1,1,1,1,1,1,1,1,1,1,1,1,1,1,1,1,1,1,1,1,1,1,1,1,1,1,1,1,1,1,1,1,1,1,1,1,1,1,1,1,1,1,1,1,1,1,1,1,1,1,1,1,1,1,1,1,1,1,1,1,1,1,1,1,1,1,1,1,1,1,1,1,1,1,1,1,1,1,1,1,1,1,1,1,1,1,1,1,1,1,1,1,1,1,1,1,1,1,1,1,1,1,1,1,1,1,1,1,1,1
