278.341950702175,-41.0878552161566,216.076857129613,-163.263765378143,43.7089344381728,9.98184252814759,-2.18553329219039,-12.4587386338609,7.72323443693308,-47.2513278854514,65.3253576941793,17.9843861296138,-9.06990463456312,-59.9708853928945,27.5007102507842,-5.51276748578867,-20.1662037176919,56.9498359370556,-10.6963662021677,-46.624858912493,0.0285970791268464,-29.4675962670605,-30.8218323313918,-41.9664049929458,-10.5330236175908,47.7980284126793,19.7242352274536,-46.6013713899182,46.1399608492444,27.0593685316737,46.9292418524856,59.3778485181836,22.0462447920977,-34.9413177014949,-39.7473584043195,7.41205169536611,29.3490365369909,-0.830602949571469,11.7576772650085,-36.3669637550971,6.59060584125341,59.6926284786745,9.34124548120274,37.9431725117446,-2.39407938015983,-27.4602890661205,33.1331951268718,-55.2229895680825,-15.5968511977239,13.4102174829017,-26.5199909829622,-1.69389213355344,39.7097746049527,19.3274972176507,24.7635713188802,39.5603012302868,-0.135231152683227,-34.4448833135946,-6.32245382056064,-27.9239420420695,-6.01855622019903,18.404879934937,-58.4658676860814,-23.032248990023,-22.8253254369727,37.5071803330747,-21.8754767592062,-19.9542848261898,17.4993128569673,24.3987894508883,31.704972733922,-14.7848713627048,-19.6339214368924,56.5678773006641,30.5609202168816,21.6796415980744,34.8152108068293,6.88912644135652,23.9038094289574,-17.2850849115717,57.2032990135374,-46.2739669551562,-28.2104163511606,18.2373015373099,-27.7520466261364,-56.0027724185656,-5.69252983894599,22.9599405174259,33.0701958715538,8.8697214882225,-2.16074822919218,16.8308561099431,-5.90501880717489,24.698496718022,1.58734595247812,-17.6268555861435,-16.354211806912,63.2745627977596,25.1383886816782,107.003816958601,16.8095772554848,19.8742534333169,10.522955401697,40.9569185919723,38.7709703541278,8.13273652893456,33.2687788824827,-75.0000198566146,4.2280601310399,-23.8331820883315,29.6337610455587,-85.5941256223271,9.25343223451798,9.85642314157883,69.9489418207637,-1.00439240871784,52.9254839483761,-4.36849565812884,67.2583016447566,-6.59041599565388,-28.5641739738947,82.0062111866944,42.2172475544348,-9.30948381834227,-14.2773809150889,-10.3065241308745,-26.6479631716329,-47.6012114679633,-20.4669601178531,49.2089776341545,-36.5786302266924,44.4395511773069,80.4743702271207,-16.6477502319245,-55.8034326345933,86.5863329790704,25.5431648841188,3.75688819218809,57.4126099064848,-43.9814938353124,10.9423822482401,14.8821086321981,93.5145813805253,48.3543254958516,29.1333009112916,8.91137009598432,-21.5692738067504,-20.8839943201992,-4.87739406658897,-37.2800388861923,7.30488974685129,4.29464193483635,13.5879603330103,46.9763015756158,16.7541436812038,-3.46547275434389,-30.152343683947,35.1859212348311,-23.4431203053032,-46.8170545363209,-2.79769629425733,4.10234544276389,-37.7371223602308,1.33500522537916,-15.3112458593458,-2.13891336788646,-39.1964386924837,17.0957047807419,20.1379988316077,38.2071607744295,19.2997126470007,-23.8586444035695,9.05202016134959,-23.3022929476112,-34.817716726463,-55.9526108046288,-63.6847537153118,60.6423536351618,56.0780364323416,28.3675195638279,61.2348708435591,51.1961162431123,-0.646151946660067,34.9927409155931,-20.1865630615929,-24.2172811358637,42.5896487850809,29.910269901831,61.7202844777377,-8.04927453596925,30.1544218318449,13.6553039032599,69.7765807220635,57.8960850740568,41.5825884020151,12.809353022041,-18.8823501054726,12.6349867209278,-20.1282415690738,28.3588735726811,-72.4084053344115,40.2751632361939,-40.8086421354134,-51.8658117404825,-21.4558231231767,-13.1235507544974,46.62502146496,29.7147867832929,-54.01863243242,-55.9202982334817,-24.0162256687145,2.15140783337007,-29.4255971616098,-9.11742773750753,36.7044361967135,-6.15109498219072,52.0174984916221,2.98987213403102,43.7272833673237,33.1566555073217,-38.4584205613451,4.60446318197823,23.6593669850662,41.5697497277141,-46.738214624248,57.1048073618904,6.74330410684796,23.5055515087994,-13.5012658573897,-51.4467965802217,33.2423619208475,-51.2976631737505,-44.4437213788845,75.5952648343338,-43.5246119306158,-26.1984889856494,-19.852296953028,28.0894406852489,57.393887160601,92.5272843818867,-14.1049304735637,18.0743149877529,-44.642466507956,14.4215759759142,23.8116926208108,12.4904376355778,17.3758118784384,4.46835178523501,-37.530654329016,3.89927086945504,-9.7660922541423,51.6968614510662,-25.1708341408872,-2.96013083666838,10.8777081746952,-5.41243693898001,-17.5386279737389,23.3209869796557,47.7578543162635,-17.9050555622138,56.5181548377394,-21.4592648825129,-4.58026292974236,0.493102665749868,-3.25431793617384,-21.2798870424977,-15.864942954453,17.4535117520604,66.5916399584636,-47.3921381792992,9.26907484594337,85.2541854144538,-68.607167878888,-0.637305859476831,1.67023543928356,1,1,1,1,1,1,1,1,1,1,1,1,1,1,1,1,1,1,1,1,1,1,1,1,1,1,1,1,1,1,1,1,1,1,1,1,1,1,1,1,1,1,1,1,1,1,1,1,1,1,1,1,1,1,1,1,1,1,1,1,1,1,1,1,1,1,1,1,1,1,1,1,1,1,1,1,1,1,1,1,1,1,1,1,1,1,1,1,1,1,1,1,1,1,1,1,1,1,1,1,1,1,1,1,1,1,1,1,1,1,1,1,1,1,1,1,1,1,1,1,1,1,1,1,1,1,1,1,1,1,1,1,1,1,1,1,1,1,1,1,1,1,1,1,1,1,1,1,1,1,1,1,1,1,1,1,1,1,1,1,1,1,1,1,1,1,1,1,1,1,1,1,1,1,1,1,1,1,1,1,1,1,1,1,1,1,1,1,1,1,1,1,1,1,1,1,1,1,1,1,1,1,1,1,1,1,1,1,1,1,1,1,1,1,1,1,1,1,1,1,1,1,1,1,1,1,1,1,1,1,1,1,1,1,1,1,1,1,1,1,1,1,1,1,1,1,1,1,1,1,1,1,1,1,1,1,1,1,1,1,1,1,1,1,1,1,1,1,1,1,4.44401962056927,-9.93594958050456,-0.415220864311189,-19.6096383589617,-8.5171508257363,-25.9685584872335,-16.6362804345129,7.68663611103272,10.1069019663887,13.3835959346632,7.22295251358901,3.92399117119922,11.3442026406788,-24.7376569987394,-3.5592620485406,12.6923057885239,-3.52547255954902,20.0367229422976,11.1963538471807,-10.5858343576469,9.73541272231328,6.19799066608543,-5.56729106734348,6.39680505376067,6.36969606274191,3.94378112638766,-9.15162202383689,-7.28539912324348,8.24675605393169,-6.95358698042879,-3.31373042232465,-3.24976536887213,-24.759868066263,24.8440780352648,-8.2862411153188,-24.9655373151548,9.61869369396807,-5.65780896872231,8.47305180677169,-6.29620249762223,-8.69213350189184,18.9178985364257,-6.19661415347887,14.4113997985164,-11.3639102852713,11.1304650818547,-10.8029448260519,4.56771526979394,8.16027046850573,-21.4990643301404,28.4892981167194,-2.43260597443828,7.10427327281504,4.11254081577077,7.83326582031624,15.5366972209301,-6.25597629292551,15.3959159012973,-11.479571840655,-4.35220161740784,-4.41628086146956,2.73556745914342,-2.06177689063824,8.55780339640094,-14.2261797804264,14.988515971592,0.379780628217263,-25.140703672997,10.3061452828631,-7.46467124153638,-6.8850177045318,6.10199565823471,3.51151920416717,5.57582482374337,-24.0290158760572,-4.27820126697667,1.14001965442681,8.06925603664332,0.688515610916742,2.06112884561698,-7.64699417409563,-9.42543247680248,-26.5614269204137,-2.05096552241607,4.46075172897152,-8.0705080361807,1.74001636355762,-19.2447720353185,31.4143190285055,-11.6069774850227,13.2170211859641,-13.4520492519203,8.48384376572477,-21.9514954526725,-18.0075191181346,-13.3403899345087,-14.2214813539701,-9.0416667950683,2.3251119803992,-17.77125267066,9.82231117721089,7.43735231044993,39.8434376876011,9.10889289537176,-12.033513275477,12.5595205418188,29.0600443838257,-0.07137286183666,-9.74001777771425,11.9437167110166,12.1036823965098,39.3078955157953,-7.3072518608266,-3.84422425847406,-0.0239352831021051,-33.2807045751951,-11.6958794409839,-0.443800781982178,-27.1731870086748,-2.50109527564726,2.30641680065888,-7.01572505313432,11.9177294078735,-23.8085472726174,11.0198310143755,-0.985814316496625,-19.747447141628,-4.21394432747184,12.9883476169436,-20.9057638640168,7.86541435830169,17.3841634494302,2.56354690856658,-9.09882050914826,-3.4981791452475,-6.88128101520992,-3.07591883079044,6.05267694031466,15.4883189534022,-11.7622161162273,0.337812124896095,14.1780080171883,-3.50938494469803,-2.73428871615985,7.57440510268377,-0.387578329091619,13.1920164403002,-0.435332951838922,-8.70156429054618,-5.6625639654425,-12.7862080648659,3.76993872355617,4.56695037904019,9.37878118193261,-1.33695150250862,8.81461823931114,-0.778440028459428,-0.428919930779373,-3.9787838182274,2.53494508571549,-13.6554177734817,20.0149964144392,-3.23806470877066,-7.00751403420977,-16.252206347189,-8.1479159706642,19.5215429934901,21.0302553865856,-11.1552865761446,4.2920094189657,5.89372375662445,3.32268647548145,-20.8445862120514,-1.16112093861948,-11.0464985777552,-8.35045568459355,7.79045279840047,9.98339468375246,-7.36726245103561,-4.51237642630739,11.1178333405142,-9.80290196592323,6.52736668363457,-8.49562022244484,2.51952202925751,-8.01238766962778,-13.6231117168569,-0.967953817850527,2.62106917339255,4.38960241006284,0.587683967093088,-3.25206516099816,3.95420049281912,0.410459708516317,-1.75272490406565,-3.83083923662808,3.32428514220289,11.6895023183144,5.2044340894053,-18.4100103017347,2.20216986527232,3.99966850796576,17.9873762487275,-6.08489094914837,1.56198596211839,21.348000757318,-3.33561349348132,7.60282690827207,23.3424465634758,-3.14156367985766,-7.89813942631127,-2.56935116732414,-0.0634698433647664,20.4391814026814,14.3246511229622,12.9309351675817,-1.4931139963968,-0.445697110841027,-4.70106600736615,-0.381141502411457,9.22222930676348,-0.530416843501983,-8.81541902307664,-0.0486253413312181,-6.62938881479391,10.597402762142,13.5598618157379,-9.96213363168041,16.0453384228769,-10.653098663508,8.76312911947855,-9.90103223790573,6.09141467891731,-4.42548362255424,-16.8744922545696,-12.470803464334,2.45770420551813,3.09876782126781,-9.58556733442331,-12.5842566657206,-0.582072590527156,6.37842543154439,2.76817158017893,7.79748044420125,28.2387063116975,-22.9908858664621,25.392711611997,-5.56412580396328,5.65407150696643,20.1097608788253,-21.9992483916561,-0.0247461784190568,3.91934470557475,-3.24830778592367,4.66466287396361,10.3938435151748,20.9959640705232,-19.933992663408,6.94203454531087,-10.925823133776,11.6927904516239,28.6529252926491,17.8249937506871,-9.24753473485609,9.86370175184276,-1.23516622458134,5.20502064525774,10.3959567264429,-43.2864983964503,12.8515777749891,1,1,1,1,1,1,1,1,1,1,1,1,1,1,1,1,1,1,1,1,1,1,1,1,1,1,1,1,1,1,1,1,1,1,1,1,1,1,1,1,1,1,1,1,1,1,1,1,1,1,1,1,1,1,1,1,1,1,1,1,1,1,1,1,1,1,1,1,1,1,1,1,1,1,1,1,1,1,1,1,1,1,1,1,1,1,1,1,1,1,1,1,1,1,1,1,1,1,1,1,1,1,1,1,1,1,1,1,1,1,1,1,1,1,1,1,1,1,1,1,1,1,1,1,1,1,1,1,1,1,1,1,1,1,1,1,1,1,1,1,1,1,1,1,1,1,1,1,1,1,1,1,1,1,1,1,1,1,1,1,1,1,1,1,1,1,1,1,1,1,1,1,1,1,1,1,1,1,1,1,1,1,1,1,1,1,1,1,1,1,1,1,1,1,1,1,1,1,1,1,1,1,1,1,1,1,1,1,1,1,1,1,1,1,1,1,1,1,1,1,1,1,1,1,1,1,1,1,1,1,1,1,1,1,1,1,1,1,1,1,1,1,1,1,1,1,1,1,1,1,1,1,1,1,1,1,1,1,1,1,1,1,1,1,1,1,1,1,1,1,19.4047984512814,4.31184740935121,9.98184252814759,-2.18553329219039,-12.4587386338609,7.72323443693308,-47.2513278854514,65.3253576941793,17.9843861296138,-9.06990463456312,-59.9708853928945,27.5007102507842,-5.51276748578867,-20.1662037176919,56.9498359370556,-10.6963662021677,-46.624858912493,0.0285970791268464,-29.4675962670605,-30.8218323313918,-41.9664049929458,-10.5330236175908,47.7980284126793,19.7242352274536,-46.6013713899182,46.1399608492444,27.0593685316737,46.9292418524856,59.3778485181836,22.0462447920977,-34.9413177014949,-39.7473584043195,7.41205169536611,29.3490365369909,-0.830602949571469,11.7576772650085,-36.3669637550971,6.59060584125341,59.6926284786745,9.34124548120274,37.9431725117446,-2.39407938015983,-27.4602890661205,33.1331951268718,-55.2229895680825,-15.5968511977239,13.4102174829017,-26.5199909829622,-1.69389213355344,39.7097746049527,19.3274972176507,24.7635713188802,39.5603012302868,-0.135231152683227,-34.4448833135946,-6.32245382056064,-27.9239420420695,-6.01855622019903,18.404879934937,-58.4658676860814,-23.032248990023,-22.8253254369727,37.5071803330747,-21.8754767592062,-19.9542848261898,17.4993128569673,24.3987894508883,31.704972733922,-14.7848713627048,-19.6339214368924,56.5678773006641,30.5609202168816,21.6796415980744,34.8152108068293,6.88912644135652,23.9038094289574,-17.2850849115717,57.2032990135374,-46.2739669551562,-28.2104163511606,18.2373015373099,-27.7520466261364,-56.0027724185656,-5.69252983894599,22.9599405174259,33.0701958715538,8.8697214882225,-2.16074822919218,16.8308561099431,-5.90501880717489,24.698496718022,1.58734595247812,-17.6268555861435,-16.354211806912,63.2745627977596,25.1383886816782,107.003816958601,16.8095772554848,19.8742534333169,10.522955401697,40.9569185919723,38.7709703541278,8.13273652893456,33.2687788824827,-75.0000198566146,4.2280601310399,-23.8331820883315,29.6337610455587,-85.5941256223271,9.25343223451798,9.85642314157883,69.9489418207637,-1.00439240871784,52.9254839483761,-4.36849565812884,67.2583016447566,-6.59041599565388,-28.5641739738947,82.0062111866944,42.2172475544348,-9.30948381834227,-14.2773809150889,-10.3065241308745,-26.6479631716329,-47.6012114679633,-20.4669601178531,49.2089776341545,-36.5786302266924,44.4395511773069,80.4743702271207,-16.6477502319245,-55.8034326345933,86.5863329790704,25.5431648841188,3.75688819218809,57.4126099064848,-43.9814938353124,10.9423822482401,14.8821086321981,93.5145813805253,48.3543254958516,29.1333009112916,8.91137009598432,-21.5692738067504,-20.8839943201992,-4.87739406658897,-37.2800388861923,7.30488974685129,4.29464193483635,13.5879603330103,46.9763015756158,16.7541436812038,-3.46547275434389,-30.152343683947,35.1859212348311,-23.4431203053032,-46.8170545363209,-2.79769629425733,4.10234544276389,-37.7371223602308,1.33500522537916,-15.3112458593458,-2.13891336788646,-39.1964386924837,17.0957047807419,20.1379988316077,38.2071607744295,19.2997126470007,-23.8586444035695,9.05202016134959,-23.3022929476112,-34.817716726463,-55.9526108046288,-63.6847537153118,60.6423536351618,56.0780364323416,28.3675195638279,61.2348708435591,51.1961162431123,-0.646151946660067,34.9927409155931,-20.1865630615929,-24.2172811358637,42.5896487850809,29.910269901831,61.7202844777377,-8.04927453596925,30.1544218318449,13.6553039032599,69.7765807220635,57.8960850740568,41.5825884020151,12.809353022041,-18.8823501054726,12.6349867209278,-20.1282415690738,28.3588735726811,-72.4084053344115,40.2751632361939,-40.8086421354134,-51.8658117404825,-21.4558231231767,-13.1235507544974,46.62502146496,29.7147867832929,-54.01863243242,-55.9202982334817,-24.0162256687145,2.15140783337007,-29.4255971616098,-9.11742773750753,36.7044361967135,-6.15109498219072,52.0174984916221,2.98987213403102,43.7272833673237,33.1566555073217,-38.4584205613451,4.60446318197823,23.6593669850662,41.5697497277141,-46.738214624248,57.1048073618904,6.74330410684796,23.5055515087994,-13.5012658573897,-51.4467965802217,33.2423619208475,-51.2976631737505,-44.4437213788845,75.5952648343338,-43.5246119306158,-26.1984889856494,-19.852296953028,28.0894406852489,57.393887160601,92.5272843818867,-14.1049304735637,18.0743149877529,-44.642466507956,14.4215759759142,23.8116926208108,12.4904376355778,17.3758118784384,4.46835178523501,-37.530654329016,3.89927086945504,-9.7660922541423,51.6968614510662,-25.1708341408872,-2.96013083666838,10.8777081746952,-5.41243693898001,-17.5386279737389,23.3209869796557,47.7578543162635,-17.9050555622138,56.5181548377394,-21.4592648825129,-4.58026292974236,0.493102665749868,-3.25431793617384,-21.2798870424977,-15.864942954453,17.4535117520604,66.5916399584636,-47.3921381792992,9.26907484594337,85.2541854144538,-68.607167878888,-0.637305859476831,1.67023543928356,1,1,1,1,1,1,1,1,1,1,1,1,1,1,1,1,1,1,1,1,1,1,1,1,1,1,1,1,1,1,1,1,1,1,1,1,1,1,1,1,1,1,1,1,1,1,1,1,1,1,1,1,1,1,1,1,1,1,1,1,1,1,1,1,1,1,1,1,1,1,1,1,1,1,1,1,1,1,1,1,1,1,1,1,1,1,1,1,1,1,1,1,1,1,1,1,1,1,1,1,1,1,1,1,1,1,1,1,1,1,1,1,1,1,1,1,1,1,1,1,1,1,1,1,1,1,1,1,1,1,1,1,1,1,1,1,1,1,1,1,1,1,1,1,1,1,1,1,1,1,1,1,1,1,1,1,1,1,1,1,1,1,1,1,1,1,1,1,1,1,1,1,1,1,1,1,1,1,1,1,1,1,1,1,1,1,1,1,1,1,1,1,1,1,1,1,1,1,1,1,1,1,1,1,1,1,1,1,1,1,1,1,1,1,1,1,1,1,1,1,1,1,1,1,1,1,1,1,1,1,1,1,1,1,1,1,1,1,1,1,1,1,1,1,1,1,1,1,1,1,1,1,1,1,1,1,1,1,1,1,1,1,1,1,1,1,1,1,1,1,4.44401962056927,-9.93594958050456,-0.415220864311189,-19.6096383589617,-8.5171508257363,-25.9685584872335,-16.6362804345129,7.68663611103272,10.1069019663887,13.3835959346632,7.22295251358901,3.92399117119922,11.3442026406788,-24.7376569987394,-3.5592620485406,12.6923057885239,-3.52547255954902,20.0367229422976,11.1963538471807,-10.5858343576469,9.73541272231328,6.19799066608543,-5.56729106734348,6.39680505376067,6.36969606274191,3.94378112638766,-9.15162202383689,-7.28539912324348,8.24675605393169,-6.95358698042879,-3.31373042232465,-3.24976536887213,-24.759868066263,24.8440780352648,-8.2862411153188,-24.9655373151548,9.61869369396807,-5.65780896872231,8.47305180677169,-6.29620249762223,-8.69213350189184,18.9178985364257,-6.19661415347887,14.4113997985164,-11.3639102852713,11.1304650818547,-10.8029448260519,4.56771526979394,8.16027046850573,-21.4990643301404,28.4892981167194,-2.43260597443828,7.10427327281504,4.11254081577077,7.83326582031624,15.5366972209301,-6.25597629292551,15.3959159012973,-11.479571840655,-4.35220161740784,-4.41628086146956,2.73556745914342,-2.06177689063824,8.55780339640094,-14.2261797804264,14.988515971592,0.379780628217263,-25.140703672997,10.3061452828631,-7.46467124153638,-6.8850177045318,6.10199565823471,3.51151920416717,5.57582482374337,-24.0290158760572,-4.27820126697667,1.14001965442681,8.06925603664332,0.688515610916742,2.06112884561698,-7.64699417409563,-9.42543247680248,-26.5614269204137,-2.05096552241607,4.46075172897152,-8.0705080361807,1.74001636355762,-19.2447720353185,31.4143190285055,-11.6069774850227,13.2170211859641,-13.4520492519203,8.48384376572477,-21.9514954526725,-18.0075191181346,-13.3403899345087,-14.2214813539701,-9.0416667950683,2.3251119803992,-17.77125267066,9.82231117721089,7.43735231044993,39.8434376876011,9.10889289537176,-12.033513275477,12.5595205418188,29.0600443838257,-0.07137286183666,-9.74001777771425,11.9437167110166,12.1036823965098,39.3078955157953,-7.3072518608266,-3.84422425847406,-0.0239352831021051,-33.2807045751951,-11.6958794409839,-0.443800781982178,-27.1731870086748,-2.50109527564726,2.30641680065888,-7.01572505313432,11.9177294078735,-23.8085472726174,11.0198310143755,-0.985814316496625,-19.747447141628,-4.21394432747184,12.9883476169436,-20.9057638640168,7.86541435830169,17.3841634494302,2.56354690856658,-9.09882050914826,-3.4981791452475,-6.88128101520992,-3.07591883079044,6.05267694031466,15.4883189534022,-11.7622161162273,0.337812124896095,14.1780080171883,-3.50938494469803,-2.73428871615985,7.57440510268377,-0.387578329091619,13.1920164403002,-0.435332951838922,-8.70156429054618,-5.6625639654425,-12.7862080648659,3.76993872355617,4.56695037904019,9.37878118193261,-1.33695150250862,8.81461823931114,-0.778440028459428,-0.428919930779373,-3.9787838182274,2.53494508571549,-13.6554177734817,20.0149964144392,-3.23806470877066,-7.00751403420977,-16.252206347189,-8.1479159706642,19.5215429934901,21.0302553865856,-11.1552865761446,4.2920094189657,5.89372375662445,3.32268647548145,-20.8445862120514,-1.16112093861948,-11.0464985777552,-8.35045568459355,7.79045279840047,9.98339468375246,-7.36726245103561,-4.51237642630739,11.1178333405142,-9.80290196592323,6.52736668363457,-8.49562022244484,2.51952202925751,-8.01238766962778,-13.6231117168569,-0.967953817850527,2.62106917339255,4.38960241006284,0.587683967093088,-3.25206516099816,3.95420049281912,0.410459708516317,-1.75272490406565,-3.83083923662808,3.32428514220289,11.6895023183144,5.2044340894053,-18.4100103017347,2.20216986527232,3.99966850796576,17.9873762487275,-6.08489094914837,1.56198596211839,21.348000757318,-3.33561349348132,7.60282690827207,23.3424465634758,-3.14156367985766,-7.89813942631127,-2.56935116732414,-0.0634698433647664,20.4391814026814,14.3246511229622,12.9309351675817,-1.4931139963968,-0.445697110841027,-4.70106600736615,-0.381141502411457,9.22222930676348,-0.530416843501983,-8.81541902307664,-0.0486253413312181,-6.62938881479391,10.597402762142,13.5598618157379,-9.96213363168041,16.0453384228769,-10.653098663508,8.76312911947855,-9.90103223790573,6.09141467891731,-4.42548362255424,-16.8744922545696,-12.470803464334,2.45770420551813,3.09876782126781,-9.58556733442331,-12.5842566657206,-0.582072590527156,6.37842543154439,2.76817158017893,7.79748044420125,28.2387063116975,-22.9908858664621,25.392711611997,-5.56412580396328,5.65407150696643,20.1097608788253,-21.9992483916561,-0.0247461784190568,3.91934470557475,-3.24830778592367,4.66466287396361,10.3938435151748,20.9959640705232,-19.933992663408,6.94203454531087,-10.925823133776,11.6927904516239,28.6529252926491,17.8249937506871,-9.24753473485609,9.86370175184276,-1.23516622458134,5.20502064525774,10.3959567264429,-43.2864983964503,12.8515777749891,1,1,1,1,1,1,1,1,1,1,1,1,1,1,1,1,1,1,1,1,1,1,1,1,1,1,1,1,1,1,1,1,1,1,1,1,1,1,1,1,1,1,1,1,1,1,1,1,1,1,1,1,1,1,1,1,1,1,1,1,1,1,1,1,1,1,1,1,1,1,1,1,1,1,1,1,1,1,1,1,1,1,1,1,1,1,1,1,1,1,1,1,1,1,1,1,1,1,1,1,1,1,1,1,1,1,1,1,1,1,1,1,1,1,1,1,1,1,1,1,1,1,1,1,1,1,1,1,1,1,1,1,1,1,1,1,1,1,1,1,1,1,1,1,1,1,1,1,1,1,1,1,1,1,1,1,1,1,1,1,1,1,1,1,1,1,1,1,1,1,1,1,1,1,1,1,1,1,1,1,1,1,1,1,1,1,1,1,1,1,1,1,1,1,1,1,1,1,1,1,1,1,1,1,1,1,1,1,1,1,1,1,1,1,1,1,1,1,1,1,1,1,1,1,1,1,1,1,1,1,1,1,1,1,1,1,1,1,1,1,1,1,1,1,1,1,1,1,1,1,1,1,1,1,1,1,1,1,1,1,1,1,1,1,1,1,1,1,1,1,79.7053472477979,10.0008696111942,9.98184252814759,-2.18553329219039,-12.4587386338609,7.72323443693308,-47.2513278854514,65.3253576941793,17.9843861296138,-9.06990463456312,-59.9708853928945,27.5007102507842,-5.51276748578867,-20.1662037176919,56.9498359370556,-10.6963662021677,-46.624858912493,0.0285970791268464,-29.4675962670605,-30.8218323313918,-41.9664049929458,-10.5330236175908,47.7980284126793,19.7242352274536,-46.6013713899182,46.1399608492444,27.0593685316737,46.9292418524856,59.3778485181836,22.0462447920977,-34.9413177014949,-39.7473584043195,7.41205169536611,29.3490365369909,-0.830602949571469,11.7576772650085,-36.3669637550971,6.59060584125341,59.6926284786745,9.34124548120274,37.9431725117446,-2.39407938015983,-27.4602890661205,33.1331951268718,-55.2229895680825,-15.5968511977239,13.4102174829017,-26.5199909829622,-1.69389213355344,39.7097746049527,19.3274972176507,24.7635713188802,39.5603012302868,-0.135231152683227,-34.4448833135946,-6.32245382056064,-27.9239420420695,-6.01855622019903,18.404879934937,-58.4658676860814,-23.032248990023,-22.8253254369727,37.5071803330747,-21.8754767592062,-19.9542848261898,17.4993128569673,24.3987894508883,31.704972733922,-14.7848713627048,-19.6339214368924,56.5678773006641,30.5609202168816,21.6796415980744,34.8152108068293,6.88912644135652,23.9038094289574,-17.2850849115717,57.2032990135374,-46.2739669551562,-28.2104163511606,18.2373015373099,-27.7520466261364,-56.0027724185656,-5.69252983894599,22.9599405174259,33.0701958715538,8.8697214882225,-2.16074822919218,16.8308561099431,-5.90501880717489,24.698496718022,1.58734595247812,-17.6268555861435,-16.354211806912,63.2745627977596,25.1383886816782,107.003816958601,16.8095772554848,19.8742534333169,10.522955401697,40.9569185919723,38.7709703541278,8.13273652893456,33.2687788824827,-75.0000198566146,4.2280601310399,-23.8331820883315,29.6337610455587,-85.5941256223271,9.25343223451798,9.85642314157883,69.9489418207637,-1.00439240871784,52.9254839483761,-4.36849565812884,67.2583016447566,-6.59041599565388,-28.5641739738947,82.0062111866944,42.2172475544348,-9.30948381834227,-14.2773809150889,-10.3065241308745,-26.6479631716329,-47.6012114679633,-20.4669601178531,49.2089776341545,-36.5786302266924,44.4395511773069,80.4743702271207,-16.6477502319245,-55.8034326345933,86.5863329790704,25.5431648841188,3.75688819218809,57.4126099064848,-43.9814938353124,10.9423822482401,14.8821086321981,93.5145813805253,48.3543254958516,29.1333009112916,8.91137009598432,-21.5692738067504,-20.8839943201992,-4.87739406658897,-37.2800388861923,7.30488974685129,4.29464193483635,13.5879603330103,46.9763015756158,16.7541436812038,-3.46547275434389,-30.152343683947,35.1859212348311,-23.4431203053032,-46.8170545363209,-2.79769629425733,4.10234544276389,-37.7371223602308,1.33500522537916,-15.3112458593458,-2.13891336788646,-39.1964386924837,17.0957047807419,20.1379988316077,38.2071607744295,19.2997126470007,-23.8586444035695,9.05202016134959,-23.3022929476112,-34.817716726463,-55.9526108046288,-63.6847537153118,60.6423536351618,56.0780364323416,28.3675195638279,61.2348708435591,51.1961162431123,-0.646151946660067,34.9927409155931,-20.1865630615929,-24.2172811358637,42.5896487850809,29.910269901831,61.7202844777377,-8.04927453596925,30.1544218318449,13.6553039032599,69.7765807220635,57.8960850740568,41.5825884020151,12.809353022041,-18.8823501054726,12.6349867209278,-20.1282415690738,28.3588735726811,-72.4084053344115,40.2751632361939,-40.8086421354134,-51.8658117404825,-21.4558231231767,-13.1235507544974,46.62502146496,29.7147867832929,-54.01863243242,-55.9202982334817,-24.0162256687145,2.15140783337007,-29.4255971616098,-9.11742773750753,36.7044361967135,-6.15109498219072,52.0174984916221,2.98987213403102,43.7272833673237,33.1566555073217,-38.4584205613451,4.60446318197823,23.6593669850662,41.5697497277141,-46.738214624248,57.1048073618904,6.74330410684796,23.5055515087994,-13.5012658573897,-51.4467965802217,33.2423619208475,-51.2976631737505,-44.4437213788845,75.5952648343338,-43.5246119306158,-26.1984889856494,-19.852296953028,28.0894406852489,57.393887160601,92.5272843818867,-14.1049304735637,18.0743149877529,-44.642466507956,14.4215759759142,23.8116926208108,12.4904376355778,17.3758118784384,4.46835178523501,-37.530654329016,3.89927086945504,-9.7660922541423,51.6968614510662,-25.1708341408872,-2.96013083666838,10.8777081746952,-5.41243693898001,-17.5386279737389,23.3209869796557,47.7578543162635,-17.9050555622138,56.5181548377394,-21.4592648825129,-4.58026292974236,0.493102665749868,-3.25431793617384,-21.2798870424977,-15.864942954453,17.4535117520604,66.5916399584636,-47.3921381792992,9.26907484594337,85.2541854144538,-68.607167878888,-0.637305859476831,1.67023543928356,1,1,1,1,1,1,1,1,1,1,1,1,1,1,1,1,1,1,1,1,1,1,1,1,1,1,1,1,1,1,1,1,1,1,1,1,1,1,1,1,1,1,1,1,1,1,1,1,1,1,1,1,1,1,1,1,1,1,1,1,1,1,1,1,1,1,1,1,1,1,1,1,1,1,1,1,1,1,1,1,1,1,1,1,1,1,1,1,1,1,1,1,1,1,1,1,1,1,1,1,1,1,1,1,1,1,1,1,1,1,1,1,1,1,1,1,1,1,1,1,1,1,1,1,1,1,1,1,1,1,1,1,1,1,1,1,1,1,1,1,1,1,1,1,1,1,1,1,1,1,1,1,1,1,1,1,1,1,1,1,1,1,1,1,1,1,1,1,1,1,1,1,1,1,1,1,1,1,1,1,1,1,1,1,1,1,1,1,1,1,1,1,1,1,1,1,1,1,1,1,1,1,1,1,1,1,1,1,1,1,1,1,1,1,1,1,1,1,1,1,1,1,1,1,1,1,1,1,1,1,1,1,1,1,1,1,1,1,1,1,1,1,1,1,1,1,1,1,1,1,1,1,1,1,1,1,1,1,1,1,1,1,1,1,1,1,1,1,1,1,4.44401962056927,-9.93594958050456,-0.415220864311189,-19.6096383589617,-8.5171508257363,-25.9685584872335,-16.6362804345129,7.68663611103272,10.1069019663887,13.3835959346632,7.22295251358901,3.92399117119922,11.3442026406788,-24.7376569987394,-3.5592620485406,12.6923057885239,-3.52547255954902,20.0367229422976,11.1963538471807,-10.5858343576469,9.73541272231328,6.19799066608543,-5.56729106734348,6.39680505376067,6.36969606274191,3.94378112638766,-9.15162202383689,-7.28539912324348,8.24675605393169,-6.95358698042879,-3.31373042232465,-3.24976536887213,-24.759868066263,24.8440780352648,-8.2862411153188,-24.9655373151548,9.61869369396807,-5.65780896872231,8.47305180677169,-6.29620249762223,-8.69213350189184,18.9178985364257,-6.19661415347887,14.4113997985164,-11.3639102852713,11.1304650818547,-10.8029448260519,4.56771526979394,8.16027046850573,-21.4990643301404,28.4892981167194,-2.43260597443828,7.10427327281504,4.11254081577077,7.83326582031624,15.5366972209301,-6.25597629292551,15.3959159012973,-11.479571840655,-4.35220161740784,-4.41628086146956,2.73556745914342,-2.06177689063824,8.55780339640094,-14.2261797804264,14.988515971592,0.379780628217263,-25.140703672997,10.3061452828631,-7.46467124153638,-6.8850177045318,6.10199565823471,3.51151920416717,5.57582482374337,-24.0290158760572,-4.27820126697667,1.14001965442681,8.06925603664332,0.688515610916742,2.06112884561698,-7.64699417409563,-9.42543247680248,-26.5614269204137,-2.05096552241607,4.46075172897152,-8.0705080361807,1.74001636355762,-19.2447720353185,31.4143190285055,-11.6069774850227,13.2170211859641,-13.4520492519203,8.48384376572477,-21.9514954526725,-18.0075191181346,-13.3403899345087,-14.2214813539701,-9.0416667950683,2.3251119803992,-17.77125267066,9.82231117721089,7.43735231044993,39.8434376876011,9.10889289537176,-12.033513275477,12.5595205418188,29.0600443838257,-0.07137286183666,-9.74001777771425,11.9437167110166,12.1036823965098,39.3078955157953,-7.3072518608266,-3.84422425847406,-0.0239352831021051,-33.2807045751951,-11.6958794409839,-0.443800781982178,-27.1731870086748,-2.50109527564726,2.30641680065888,-7.01572505313432,11.9177294078735,-23.8085472726174,11.0198310143755,-0.985814316496625,-19.747447141628,-4.21394432747184,12.9883476169436,-20.9057638640168,7.86541435830169,17.3841634494302,2.56354690856658,-9.09882050914826,-3.4981791452475,-6.88128101520992,-3.07591883079044,6.05267694031466,15.4883189534022,-11.7622161162273,0.337812124896095,14.1780080171883,-3.50938494469803,-2.73428871615985,7.57440510268377,-0.387578329091619,13.1920164403002,-0.435332951838922,-8.70156429054618,-5.6625639654425,-12.7862080648659,3.76993872355617,4.56695037904019,9.37878118193261,-1.33695150250862,8.81461823931114,-0.778440028459428,-0.428919930779373,-3.9787838182274,2.53494508571549,-13.6554177734817,20.0149964144392,-3.23806470877066,-7.00751403420977,-16.252206347189,-8.1479159706642,19.5215429934901,21.0302553865856,-11.1552865761446,4.2920094189657,5.89372375662445,3.32268647548145,-20.8445862120514,-1.16112093861948,-11.0464985777552,-8.35045568459355,7.79045279840047,9.98339468375246,-7.36726245103561,-4.51237642630739,11.1178333405142,-9.80290196592323,6.52736668363457,-8.49562022244484,2.51952202925751,-8.01238766962778,-13.6231117168569,-0.967953817850527,2.62106917339255,4.38960241006284,0.587683967093088,-3.25206516099816,3.95420049281912,0.410459708516317,-1.75272490406565,-3.83083923662808,3.32428514220289,11.6895023183144,5.2044340894053,-18.4100103017347,2.20216986527232,3.99966850796576,17.9873762487275,-6.08489094914837,1.56198596211839,21.348000757318,-3.33561349348132,7.60282690827207,23.3424465634758,-3.14156367985766,-7.89813942631127,-2.56935116732414,-0.0634698433647664,20.4391814026814,14.3246511229622,12.9309351675817,-1.4931139963968,-0.445697110841027,-4.70106600736615,-0.381141502411457,9.22222930676348,-0.530416843501983,-8.81541902307664,-0.0486253413312181,-6.62938881479391,10.597402762142,13.5598618157379,-9.96213363168041,16.0453384228769,-10.653098663508,8.76312911947855,-9.90103223790573,6.09141467891731,-4.42548362255424,-16.8744922545696,-12.470803464334,2.45770420551813,3.09876782126781,-9.58556733442331,-12.5842566657206,-0.582072590527156,6.37842543154439,2.76817158017893,7.79748044420125,28.2387063116975,-22.9908858664621,25.392711611997,-5.56412580396328,5.65407150696643,20.1097608788253,-21.9992483916561,-0.0247461784190568,3.91934470557475,-3.24830778592367,4.66466287396361,10.3938435151748,20.9959640705232,-19.933992663408,6.94203454531087,-10.925823133776,11.6927904516239,28.6529252926491,17.8249937506871,-9.24753473485609,9.86370175184276,-1.23516622458134,5.20502064525774,10.3959567264429,-43.2864983964503,12.8515777749891,1,1,1,1,1,1,1,1,1,1,1,1,1,1,1,1,1,1,1,1,1,1,1,1,1,1,1,1,1,1,1,1,1,1,1,1,1,1,1,1,1,1,1,1,1,1,1,1,1,1,1,1,1,1,1,1,1,1,1,1,1,1,1,1,1,1,1,1,1,1,1,1,1,1,1,1,1,1,1,1,1,1,1,1,1,1,1,1,1,1,1,1,1,1,1,1,1,1,1,1,1,1,1,1,1,1,1,1,1,1,1,1,1,1,1,1,1,1,1,1,1,1,1,1,1,1,1,1,1,1,1,1,1,1,1,1,1,1,1,1,1,1,1,1,1,1,1,1,1,1,1,1,1,1,1,1,1,1,1,1,1,1,1,1,1,1,1,1,1,1,1,1,1,1,1,1,1,1,1,1,1,1,1,1,1,1,1,1,1,1,1,1,1,1,1,1,1,1,1,1,1,1,1,1,1,1,1,1,1,1,1,1,1,1,1,1,1,1,1,1,1,1,1,1,1,1,1,1,1,1,1,1,1,1,1,1,1,1,1,1,1,1,1,1,1,1,1,1,1,1,1,1,1,1,1,1,1,1,1,1,1,1,1,1,1,1,1,1,1,1
265.770118795694,0.47588367642642,-16.0000333874487,-163.263765378143,43.7089344381728,9.98184252814759,-2.18553329219039,-12.4587386338609,7.72323443693308,-47.2513278854514,65.3253576941793,17.9843861296138,-9.06990463456312,-59.9708853928945,27.5007102507842,-5.51276748578867,-20.1662037176919,56.9498359370556,-10.6963662021677,-46.624858912493,0.0285970791268464,-29.4675962670605,-30.8218323313918,-41.9664049929458,-10.5330236175908,47.7980284126793,19.7242352274536,-46.6013713899182,46.1399608492444,27.0593685316737,46.9292418524856,59.3778485181836,22.0462447920977,-34.9413177014949,-39.7473584043195,7.41205169536611,29.3490365369909,-0.830602949571469,11.7576772650085,-36.3669637550971,6.59060584125341,59.6926284786745,9.34124548120274,37.9431725117446,-2.39407938015983,-27.4602890661205,33.1331951268718,-55.2229895680825,-15.5968511977239,13.4102174829017,-26.5199909829622,-1.69389213355344,39.7097746049527,19.3274972176507,24.7635713188802,39.5603012302868,-0.135231152683227,-34.4448833135946,-6.32245382056064,-27.9239420420695,-6.01855622019903,18.404879934937,-58.4658676860814,-23.032248990023,-22.8253254369727,37.5071803330747,-21.8754767592062,-19.9542848261898,17.4993128569673,24.3987894508883,31.704972733922,-14.7848713627048,-19.6339214368924,56.5678773006641,30.5609202168816,21.6796415980744,34.8152108068293,6.88912644135652,23.9038094289574,-17.2850849115717,57.2032990135374,-46.2739669551562,-28.2104163511606,18.2373015373099,-27.7520466261364,-56.0027724185656,-5.69252983894599,22.9599405174259,33.0701958715538,8.8697214882225,-2.16074822919218,16.8308561099431,-5.90501880717489,24.698496718022,1.58734595247812,-17.6268555861435,-16.354211806912,63.2745627977596,25.1383886816782,107.003816958601,16.8095772554848,19.8742534333169,10.522955401697,40.9569185919723,38.7709703541278,8.13273652893456,33.2687788824827,-75.0000198566146,4.2280601310399,-23.8331820883315,29.6337610455587,-85.5941256223271,9.25343223451798,9.85642314157883,69.9489418207637,-1.00439240871784,52.9254839483761,-4.36849565812884,67.2583016447566,-6.59041599565388,-28.5641739738947,82.0062111866944,42.2172475544348,-9.30948381834227,-14.2773809150889,-10.3065241308745,-26.6479631716329,-47.6012114679633,-20.4669601178531,49.2089776341545,-36.5786302266924,44.4395511773069,80.4743702271207,-16.6477502319245,-55.8034326345933,86.5863329790704,25.5431648841188,3.75688819218809,57.4126099064848,-43.9814938353124,10.9423822482401,14.8821086321981,93.5145813805253,48.3543254958516,29.1333009112916,8.91137009598432,-21.5692738067504,-20.8839943201992,-4.87739406658897,-37.2800388861923,7.30488974685129,4.29464193483635,13.5879603330103,46.9763015756158,16.7541436812038,-3.46547275434389,-30.152343683947,35.1859212348311,-23.4431203053032,-46.8170545363209,-2.79769629425733,4.10234544276389,-37.7371223602308,1.33500522537916,-15.3112458593458,-2.13891336788646,-39.1964386924837,17.0957047807419,20.1379988316077,38.2071607744295,19.2997126470007,-23.8586444035695,9.05202016134959,-23.3022929476112,-34.817716726463,-55.9526108046288,-63.6847537153118,60.6423536351618,56.0780364323416,28.3675195638279,61.2348708435591,51.1961162431123,-0.646151946660067,34.9927409155931,-20.1865630615929,-24.2172811358637,42.5896487850809,29.910269901831,61.7202844777377,-8.04927453596925,30.1544218318449,13.6553039032599,69.7765807220635,57.8960850740568,41.5825884020151,12.809353022041,-18.8823501054726,12.6349867209278,-20.1282415690738,28.3588735726811,-72.4084053344115,40.2751632361939,-40.8086421354134,-51.8658117404825,-21.4558231231767,-13.1235507544974,46.62502146496,29.7147867832929,-54.01863243242,-55.9202982334817,-24.0162256687145,2.15140783337007,-29.4255971616098,-9.11742773750753,36.7044361967135,-6.15109498219072,52.0174984916221,2.98987213403102,43.7272833673237,33.1566555073217,-38.4584205613451,4.60446318197823,23.6593669850662,41.5697497277141,-46.738214624248,57.1048073618904,6.74330410684796,23.5055515087994,-13.5012658573897,-51.4467965802217,33.2423619208475,-51.2976631737505,-44.4437213788845,75.5952648343338,-43.5246119306158,-26.1984889856494,-19.852296953028,28.0894406852489,57.393887160601,92.5272843818867,-14.1049304735637,18.0743149877529,-44.642466507956,14.4215759759142,23.8116926208108,12.4904376355778,17.3758118784384,4.46835178523501,-37.530654329016,3.89927086945504,-9.7660922541423,51.6968614510662,-25.1708341408872,-2.96013083666838,10.8777081746952,-5.41243693898001,-17.5386279737389,23.3209869796557,47.7578543162635,-17.9050555622138,56.5181548377394,-21.4592648825129,-4.58026292974236,0.493102665749868,-3.25431793617384,-21.2798870424977,-15.864942954453,17.4535117520604,66.5916399584636,-47.3921381792992,9.26907484594337,85.2541854144538,-68.607167878888,-0.637305859476831,1.67023543928356,1,1,1,1,1,1,1,1,1,1,1,1,1,1,1,1,1,1,1,1,1,1,1,1,1,1,1,1,1,1,1,1,1,1,1,1,1,1,1,1,1,1,1,1,1,1,1,1,1,1,1,1,1,1,1,1,1,1,1,1,1,1,1,1,1,1,1,1,1,1,1,1,1,1,1,1,1,1,1,1,1,1,1,1,1,1,1,1,1,1,1,1,1,1,1,1,1,1,1,1,1,1,1,1,1,1,1,1,1,1,1,1,1,1,1,1,1,1,1,1,1,1,1,1,1,1,1,1,1,1,1,1,1,1,1,1,1,1,1,1,1,1,1,1,1,1,1,1,1,1,1,1,1,1,1,1,1,1,1,1,1,1,1,1,1,1,1,1,1,1,1,1,1,1,1,1,1,1,1,1,1,1,1,1,1,1,1,1,1,1,1,1,1,1,1,1,1,1,1,1,1,1,1,1,1,1,1,1,1,1,1,1,1,1,1,1,1,1,1,1,1,1,1,1,1,1,1,1,1,1,1,1,1,1,1,1,1,1,1,1,1,1,1,1,1,1,1,1,1,1,1,1,1,1,1,1,1,1,1,1,1,1,1,1,1,1,1,1,1,1,4.44401962056927,-9.93594958050456,-0.415220864311189,-19.6096383589617,-8.5171508257363,-25.9685584872335,-16.6362804345129,7.68663611103272,10.1069019663887,13.3835959346632,7.22295251358901,3.92399117119922,11.3442026406788,-24.7376569987394,-3.5592620485406,12.6923057885239,-3.52547255954902,20.0367229422976,11.1963538471807,-10.5858343576469,9.73541272231328,6.19799066608543,-5.56729106734348,6.39680505376067,6.36969606274191,3.94378112638766,-9.15162202383689,-7.28539912324348,8.24675605393169,-6.95358698042879,-3.31373042232465,-3.24976536887213,-24.759868066263,24.8440780352648,-8.2862411153188,-24.9655373151548,9.61869369396807,-5.65780896872231,8.47305180677169,-6.29620249762223,-8.69213350189184,18.9178985364257,-6.19661415347887,14.4113997985164,-11.3639102852713,11.1304650818547,-10.8029448260519,4.56771526979394,8.16027046850573,-21.4990643301404,28.4892981167194,-2.43260597443828,7.10427327281504,4.11254081577077,7.83326582031624,15.5366972209301,-6.25597629292551,15.3959159012973,-11.479571840655,-4.35220161740784,-4.41628086146956,2.73556745914342,-2.06177689063824,8.55780339640094,-14.2261797804264,14.988515971592,0.379780628217263,-25.140703672997,10.3061452828631,-7.46467124153638,-6.8850177045318,6.10199565823471,3.51151920416717,5.57582482374337,-24.0290158760572,-4.27820126697667,1.14001965442681,8.06925603664332,0.688515610916742,2.06112884561698,-7.64699417409563,-9.42543247680248,-26.5614269204137,-2.05096552241607,4.46075172897152,-8.0705080361807,1.74001636355762,-19.2447720353185,31.4143190285055,-11.6069774850227,13.2170211859641,-13.4520492519203,8.48384376572477,-21.9514954526725,-18.0075191181346,-13.3403899345087,-14.2214813539701,-9.0416667950683,2.3251119803992,-17.77125267066,9.82231117721089,7.43735231044993,39.8434376876011,9.10889289537176,-12.033513275477,12.5595205418188,29.0600443838257,-0.07137286183666,-9.74001777771425,11.9437167110166,12.1036823965098,39.3078955157953,-7.3072518608266,-3.84422425847406,-0.0239352831021051,-33.2807045751951,-11.6958794409839,-0.443800781982178,-27.1731870086748,-2.50109527564726,2.30641680065888,-7.01572505313432,11.9177294078735,-23.8085472726174,11.0198310143755,-0.985814316496625,-19.747447141628,-4.21394432747184,12.9883476169436,-20.9057638640168,7.86541435830169,17.3841634494302,2.56354690856658,-9.09882050914826,-3.4981791452475,-6.88128101520992,-3.07591883079044,6.05267694031466,15.4883189534022,-11.7622161162273,0.337812124896095,14.1780080171883,-3.50938494469803,-2.73428871615985,7.57440510268377,-0.387578329091619,13.1920164403002,-0.435332951838922,-8.70156429054618,-5.6625639654425,-12.7862080648659,3.76993872355617,4.56695037904019,9.37878118193261,-1.33695150250862,8.81461823931114,-0.778440028459428,-0.428919930779373,-3.9787838182274,2.53494508571549,-13.6554177734817,20.0149964144392,-3.23806470877066,-7.00751403420977,-16.252206347189,-8.1479159706642,19.5215429934901,21.0302553865856,-11.1552865761446,4.2920094189657,5.89372375662445,3.32268647548145,-20.8445862120514,-1.16112093861948,-11.0464985777552,-8.35045568459355,7.79045279840047,9.98339468375246,-7.36726245103561,-4.51237642630739,11.1178333405142,-9.80290196592323,6.52736668363457,-8.49562022244484,2.51952202925751,-8.01238766962778,-13.6231117168569,-0.967953817850527,2.62106917339255,4.38960241006284,0.587683967093088,-3.25206516099816,3.95420049281912,0.410459708516317,-1.75272490406565,-3.83083923662808,3.32428514220289,11.6895023183144,5.2044340894053,-18.4100103017347,2.20216986527232,3.99966850796576,17.9873762487275,-6.08489094914837,1.56198596211839,21.348000757318,-3.33561349348132,7.60282690827207,23.3424465634758,-3.14156367985766,-7.89813942631127,-2.56935116732414,-0.0634698433647664,20.4391814026814,14.3246511229622,12.9309351675817,-1.4931139963968,-0.445697110841027,-4.70106600736615,-0.381141502411457,9.22222930676348,-0.530416843501983,-8.81541902307664,-0.0486253413312181,-6.62938881479391,10.597402762142,13.5598618157379,-9.96213363168041,16.0453384228769,-10.653098663508,8.76312911947855,-9.90103223790573,6.09141467891731,-4.42548362255424,-16.8744922545696,-12.470803464334,2.45770420551813,3.09876782126781,-9.58556733442331,-12.5842566657206,-0.582072590527156,6.37842543154439,2.76817158017893,7.79748044420125,28.2387063116975,-22.9908858664621,25.392711611997,-5.56412580396328,5.65407150696643,20.1097608788253,-21.9992483916561,-0.0247461784190568,3.91934470557475,-3.24830778592367,4.66466287396361,10.3938435151748,20.9959640705232,-19.933992663408,6.94203454531087,-10.925823133776,11.6927904516239,28.6529252926491,17.8249937506871,-9.24753473485609,9.86370175184276,-1.23516622458134,5.20502064525774,10.3959567264429,-43.2864983964503,12.8515777749891,1,1,1,1,1,1,1,1,1,1,1,1,1,1,1,1,1,1,1,1,1,1,1,1,1,1,1,1,1,1,1,1,1,1,1,1,1,1,1,1,1,1,1,1,1,1,1,1,1,1,1,1,1,1,1,1,1,1,1,1,1,1,1,1,1,1,1,1,1,1,1,1,1,1,1,1,1,1,1,1,1,1,1,1,1,1,1,1,1,1,1,1,1,1,1,1,1,1,1,1,1,1,1,1,1,1,1,1,1,1,1,1,1,1,1,1,1,1,1,1,1,1,1,1,1,1,1,1,1,1,1,1,1,1,1,1,1,1,1,1,1,1,1,1,1,1,1,1,1,1,1,1,1,1,1,1,1,1,1,1,1,1,1,1,1,1,1,1,1,1,1,1,1,1,1,1,1,1,1,1,1,1,1,1,1,1,1,1,1,1,1,1,1,1,1,1,1,1,1,1,1,1,1,1,1,1,1,1,1,1,1,1,1,1,1,1,1,1,1,1,1,1,1,1,1,1,1,1,1,1,1,1,1,1,1,1,1,1,1,1,1,1,1,1,1,1,1,1,1,1,1,1,1,1,1,1,1,1,1,1,1,1,1,1,1,1,1,1,1,1,19.4047984512814,4.31184740935121,9.98184252814759,-2.18553329219039,-12.4587386338609,7.72323443693308,-47.2513278854514,65.3253576941793,17.9843861296138,-9.06990463456312,-59.9708853928945,27.5007102507842,-5.51276748578867,-20.1662037176919,56.9498359370556,-10.6963662021677,-46.624858912493,0.0285970791268464,-29.4675962670605,-30.8218323313918,-41.9664049929458,-10.5330236175908,47.7980284126793,19.7242352274536,-46.6013713899182,46.1399608492444,27.0593685316737,46.9292418524856,59.3778485181836,22.0462447920977,-34.9413177014949,-39.7473584043195,7.41205169536611,29.3490365369909,-0.830602949571469,11.7576772650085,-36.3669637550971,6.59060584125341,59.6926284786745,9.34124548120274,37.9431725117446,-2.39407938015983,-27.4602890661205,33.1331951268718,-55.2229895680825,-15.5968511977239,13.4102174829017,-26.5199909829622,-1.69389213355344,39.7097746049527,19.3274972176507,24.7635713188802,39.5603012302868,-0.135231152683227,-34.4448833135946,-6.32245382056064,-27.9239420420695,-6.01855622019903,18.404879934937,-58.4658676860814,-23.032248990023,-22.8253254369727,37.5071803330747,-21.8754767592062,-19.9542848261898,17.4993128569673,24.3987894508883,31.704972733922,-14.7848713627048,-19.6339214368924,56.5678773006641,30.5609202168816,21.6796415980744,34.8152108068293,6.88912644135652,23.9038094289574,-17.2850849115717,57.2032990135374,-46.2739669551562,-28.2104163511606,18.2373015373099,-27.7520466261364,-56.0027724185656,-5.69252983894599,22.9599405174259,33.0701958715538,8.8697214882225,-2.16074822919218,16.8308561099431,-5.90501880717489,24.698496718022,1.58734595247812,-17.6268555861435,-16.354211806912,63.2745627977596,25.1383886816782,107.003816958601,16.8095772554848,19.8742534333169,10.522955401697,40.9569185919723,38.7709703541278,8.13273652893456,33.2687788824827,-75.0000198566146,4.2280601310399,-23.8331820883315,29.6337610455587,-85.5941256223271,9.25343223451798,9.85642314157883,69.9489418207637,-1.00439240871784,52.9254839483761,-4.36849565812884,67.2583016447566,-6.59041599565388,-28.5641739738947,82.0062111866944,42.2172475544348,-9.30948381834227,-14.2773809150889,-10.3065241308745,-26.6479631716329,-47.6012114679633,-20.4669601178531,49.2089776341545,-36.5786302266924,44.4395511773069,80.4743702271207,-16.6477502319245,-55.8034326345933,86.5863329790704,25.5431648841188,3.75688819218809,57.4126099064848,-43.9814938353124,10.9423822482401,14.8821086321981,93.5145813805253,48.3543254958516,29.1333009112916,8.91137009598432,-21.5692738067504,-20.8839943201992,-4.87739406658897,-37.2800388861923,7.30488974685129,4.29464193483635,13.5879603330103,46.9763015756158,16.7541436812038,-3.46547275434389,-30.152343683947,35.1859212348311,-23.4431203053032,-46.8170545363209,-2.79769629425733,4.10234544276389,-37.7371223602308,1.33500522537916,-15.3112458593458,-2.13891336788646,-39.1964386924837,17.0957047807419,20.1379988316077,38.2071607744295,19.2997126470007,-23.8586444035695,9.05202016134959,-23.3022929476112,-34.817716726463,-55.9526108046288,-63.6847537153118,60.6423536351618,56.0780364323416,28.3675195638279,61.2348708435591,51.1961162431123,-0.646151946660067,34.9927409155931,-20.1865630615929,-24.2172811358637,42.5896487850809,29.910269901831,61.7202844777377,-8.04927453596925,30.1544218318449,13.6553039032599,69.7765807220635,57.8960850740568,41.5825884020151,12.809353022041,-18.8823501054726,12.6349867209278,-20.1282415690738,28.3588735726811,-72.4084053344115,40.2751632361939,-40.8086421354134,-51.8658117404825,-21.4558231231767,-13.1235507544974,46.62502146496,29.7147867832929,-54.01863243242,-55.9202982334817,-24.0162256687145,2.15140783337007,-29.4255971616098,-9.11742773750753,36.7044361967135,-6.15109498219072,52.0174984916221,2.98987213403102,43.7272833673237,33.1566555073217,-38.4584205613451,4.60446318197823,23.6593669850662,41.5697497277141,-46.738214624248,57.1048073618904,6.74330410684796,23.5055515087994,-13.5012658573897,-51.4467965802217,33.2423619208475,-51.2976631737505,-44.4437213788845,75.5952648343338,-43.5246119306158,-26.1984889856494,-19.852296953028,28.0894406852489,57.393887160601,92.5272843818867,-14.1049304735637,18.0743149877529,-44.642466507956,14.4215759759142,23.8116926208108,12.4904376355778,17.3758118784384,4.46835178523501,-37.530654329016,3.89927086945504,-9.7660922541423,51.6968614510662,-25.1708341408872,-2.96013083666838,10.8777081746952,-5.41243693898001,-17.5386279737389,23.3209869796557,47.7578543162635,-17.9050555622138,56.5181548377394,-21.4592648825129,-4.58026292974236,0.493102665749868,-3.25431793617384,-21.2798870424977,-15.864942954453,17.4535117520604,66.5916399584636,-47.3921381792992,9.26907484594337,85.2541854144538,-68.607167878888,-0.637305859476831,1.67023543928356,1,1,1,1,1,1,1,1,1,1,1,1,1,1,1,1,1,1,1,1,1,1,1,1,1,1,1,1,1,1,1,1,1,1,1,1,1,1,1,1,1,1,1,1,1,1,1,1,1,1,1,1,1,1,1,1,1,1,1,1,1,1,1,1,1,1,1,1,1,1,1,1,1,1,1,1,1,1,1,1,1,1,1,1,1,1,1,1,1,1,1,1,1,1,1,1,1,1,1,1,1,1,1,1,1,1,1,1,1,1,1,1,1,1,1,1,1,1,1,1,1,1,1,1,1,1,1,1,1,1,1,1,1,1,1,1,1,1,1,1,1,1,1,1,1,1,1,1,1,1,1,1,1,1,1,1,1,1,1,1,1,1,1,1,1,1,1,1,1,1,1,1,1,1,1,1,1,1,1,1,1,1,1,1,1,1,1,1,1,1,1,1,1,1,1,1,1,1,1,1,1,1,1,1,1,1,1,1,1,1,1,1,1,1,1,1,1,1,1,1,1,1,1,1,1,1,1,1,1,1,1,1,1,1,1,1,1,1,1,1,1,1,1,1,1,1,1,1,1,1,1,1,1,1,1,1,1,1,1,1,1,1,1,1,1,1,1,1,1,1,4.44401962056927,-9.93594958050456,-0.415220864311189,-19.6096383589617,-8.5171508257363,-25.9685584872335,-16.6362804345129,7.68663611103272,10.1069019663887,13.3835959346632,7.22295251358901,3.92399117119922,11.3442026406788,-24.7376569987394,-3.5592620485406,12.6923057885239,-3.52547255954902,20.0367229422976,11.1963538471807,-10.5858343576469,9.73541272231328,6.19799066608543,-5.56729106734348,6.39680505376067,6.36969606274191,3.94378112638766,-9.15162202383689,-7.28539912324348,8.24675605393169,-6.95358698042879,-3.31373042232465,-3.24976536887213,-24.759868066263,24.8440780352648,-8.2862411153188,-24.9655373151548,9.61869369396807,-5.65780896872231,8.47305180677169,-6.29620249762223,-8.69213350189184,18.9178985364257,-6.19661415347887,14.4113997985164,-11.3639102852713,11.1304650818547,-10.8029448260519,4.56771526979394,8.16027046850573,-21.4990643301404,28.4892981167194,-2.43260597443828,7.10427327281504,4.11254081577077,7.83326582031624,15.5366972209301,-6.25597629292551,15.3959159012973,-11.479571840655,-4.35220161740784,-4.41628086146956,2.73556745914342,-2.06177689063824,8.55780339640094,-14.2261797804264,14.988515971592,0.379780628217263,-25.140703672997,10.3061452828631,-7.46467124153638,-6.8850177045318,6.10199565823471,3.51151920416717,5.57582482374337,-24.0290158760572,-4.27820126697667,1.14001965442681,8.06925603664332,0.688515610916742,2.06112884561698,-7.64699417409563,-9.42543247680248,-26.5614269204137,-2.05096552241607,4.46075172897152,-8.0705080361807,1.74001636355762,-19.2447720353185,31.4143190285055,-11.6069774850227,13.2170211859641,-13.4520492519203,8.48384376572477,-21.9514954526725,-18.0075191181346,-13.3403899345087,-14.2214813539701,-9.0416667950683,2.3251119803992,-17.77125267066,9.82231117721089,7.43735231044993,39.8434376876011,9.10889289537176,-12.033513275477,12.5595205418188,29.0600443838257,-0.07137286183666,-9.74001777771425,11.9437167110166,12.1036823965098,39.3078955157953,-7.3072518608266,-3.84422425847406,-0.0239352831021051,-33.2807045751951,-11.6958794409839,-0.443800781982178,-27.1731870086748,-2.50109527564726,2.30641680065888,-7.01572505313432,11.9177294078735,-23.8085472726174,11.0198310143755,-0.985814316496625,-19.747447141628,-4.21394432747184,12.9883476169436,-20.9057638640168,7.86541435830169,17.3841634494302,2.56354690856658,-9.09882050914826,-3.4981791452475,-6.88128101520992,-3.07591883079044,6.05267694031466,15.4883189534022,-11.7622161162273,0.337812124896095,14.1780080171883,-3.50938494469803,-2.73428871615985,7.57440510268377,-0.387578329091619,13.1920164403002,-0.435332951838922,-8.70156429054618,-5.6625639654425,-12.7862080648659,3.76993872355617,4.56695037904019,9.37878118193261,-1.33695150250862,8.81461823931114,-0.778440028459428,-0.428919930779373,-3.9787838182274,2.53494508571549,-13.6554177734817,20.0149964144392,-3.23806470877066,-7.00751403420977,-16.252206347189,-8.1479159706642,19.5215429934901,21.0302553865856,-11.1552865761446,4.2920094189657,5.89372375662445,3.32268647548145,-20.8445862120514,-1.16112093861948,-11.0464985777552,-8.35045568459355,7.79045279840047,9.98339468375246,-7.36726245103561,-4.51237642630739,11.1178333405142,-9.80290196592323,6.52736668363457,-8.49562022244484,2.51952202925751,-8.01238766962778,-13.6231117168569,-0.967953817850527,2.62106917339255,4.38960241006284,0.587683967093088,-3.25206516099816,3.95420049281912,0.410459708516317,-1.75272490406565,-3.83083923662808,3.32428514220289,11.6895023183144,5.2044340894053,-18.4100103017347,2.20216986527232,3.99966850796576,17.9873762487275,-6.08489094914837,1.56198596211839,21.348000757318,-3.33561349348132,7.60282690827207,23.3424465634758,-3.14156367985766,-7.89813942631127,-2.56935116732414,-0.0634698433647664,20.4391814026814,14.3246511229622,12.9309351675817,-1.4931139963968,-0.445697110841027,-4.70106600736615,-0.381141502411457,9.22222930676348,-0.530416843501983,-8.81541902307664,-0.0486253413312181,-6.62938881479391,10.597402762142,13.5598618157379,-9.96213363168041,16.0453384228769,-10.653098663508,8.76312911947855,-9.90103223790573,6.09141467891731,-4.42548362255424,-16.8744922545696,-12.470803464334,2.45770420551813,3.09876782126781,-9.58556733442331,-12.5842566657206,-0.582072590527156,6.37842543154439,2.76817158017893,7.79748044420125,28.2387063116975,-22.9908858664621,25.392711611997,-5.56412580396328,5.65407150696643,20.1097608788253,-21.9992483916561,-0.0247461784190568,3.91934470557475,-3.24830778592367,4.66466287396361,10.3938435151748,20.9959640705232,-19.933992663408,6.94203454531087,-10.925823133776,11.6927904516239,28.6529252926491,17.8249937506871,-9.24753473485609,9.86370175184276,-1.23516622458134,5.20502064525774,10.3959567264429,-43.2864983964503,12.8515777749891,1,1,1,1,1,1,1,1,1,1,1,1,1,1,1,1,1,1,1,1,1,1,1,1,1,1,1,1,1,1,1,1,1,1,1,1,1,1,1,1,1,1,1,1,1,1,1,1,1,1,1,1,1,1,1,1,1,1,1,1,1,1,1,1,1,1,1,1,1,1,1,1,1,1,1,1,1,1,1,1,1,1,1,1,1,1,1,1,1,1,1,1,1,1,1,1,1,1,1,1,1,1,1,1,1,1,1,1,1,1,1,1,1,1,1,1,1,1,1,1,1,1,1,1,1,1,1,1,1,1,1,1,1,1,1,1,1,1,1,1,1,1,1,1,1,1,1,1,1,1,1,1,1,1,1,1,1,1,1,1,1,1,1,1,1,1,1,1,1,1,1,1,1,1,1,1,1,1,1,1,1,1,1,1,1,1,1,1,1,1,1,1,1,1,1,1,1,1,1,1,1,1,1,1,1,1,1,1,1,1,1,1,1,1,1,1,1,1,1,1,1,1,1,1,1,1,1,1,1,1,1,1,1,1,1,1,1,1,1,1,1,1,1,1,1,1,1,1,1,1,1,1,1,1,1,1,1,1,1,1,1,1,1,1,1,1,1,1,1,1,79.7053472477979,10.0008696111942,9.98184252814759,-2.18553329219039,-12.4587386338609,7.72323443693308,-47.2513278854514,65.3253576941793,17.9843861296138,-9.06990463456312,-59.9708853928945,27.5007102507842,-5.51276748578867,-20.1662037176919,56.9498359370556,-10.6963662021677,-46.624858912493,0.0285970791268464,-29.4675962670605,-30.8218323313918,-41.9664049929458,-10.5330236175908,47.7980284126793,19.7242352274536,-46.6013713899182,46.1399608492444,27.0593685316737,46.9292418524856,59.3778485181836,22.0462447920977,-34.9413177014949,-39.7473584043195,7.41205169536611,29.3490365369909,-0.830602949571469,11.7576772650085,-36.3669637550971,6.59060584125341,59.6926284786745,9.34124548120274,37.9431725117446,-2.39407938015983,-27.4602890661205,33.1331951268718,-55.2229895680825,-15.5968511977239,13.4102174829017,-26.5199909829622,-1.69389213355344,39.7097746049527,19.3274972176507,24.7635713188802,39.5603012302868,-0.135231152683227,-34.4448833135946,-6.32245382056064,-27.9239420420695,-6.01855622019903,18.404879934937,-58.4658676860814,-23.032248990023,-22.8253254369727,37.5071803330747,-21.8754767592062,-19.9542848261898,17.4993128569673,24.3987894508883,31.704972733922,-14.7848713627048,-19.6339214368924,56.5678773006641,30.5609202168816,21.6796415980744,34.8152108068293,6.88912644135652,23.9038094289574,-17.2850849115717,57.2032990135374,-46.2739669551562,-28.2104163511606,18.2373015373099,-27.7520466261364,-56.0027724185656,-5.69252983894599,22.9599405174259,33.0701958715538,8.8697214882225,-2.16074822919218,16.8308561099431,-5.90501880717489,24.698496718022,1.58734595247812,-17.6268555861435,-16.354211806912,63.2745627977596,25.1383886816782,107.003816958601,16.8095772554848,19.8742534333169,10.522955401697,40.9569185919723,38.7709703541278,8.13273652893456,33.2687788824827,-75.0000198566146,4.2280601310399,-23.8331820883315,29.6337610455587,-85.5941256223271,9.25343223451798,9.85642314157883,69.9489418207637,-1.00439240871784,52.9254839483761,-4.36849565812884,67.2583016447566,-6.59041599565388,-28.5641739738947,82.0062111866944,42.2172475544348,-9.30948381834227,-14.2773809150889,-10.3065241308745,-26.6479631716329,-47.6012114679633,-20.4669601178531,49.2089776341545,-36.5786302266924,44.4395511773069,80.4743702271207,-16.6477502319245,-55.8034326345933,86.5863329790704,25.5431648841188,3.75688819218809,57.4126099064848,-43.9814938353124,10.9423822482401,14.8821086321981,93.5145813805253,48.3543254958516,29.1333009112916,8.91137009598432,-21.5692738067504,-20.8839943201992,-4.87739406658897,-37.2800388861923,7.30488974685129,4.29464193483635,13.5879603330103,46.9763015756158,16.7541436812038,-3.46547275434389,-30.152343683947,35.1859212348311,-23.4431203053032,-46.8170545363209,-2.79769629425733,4.10234544276389,-37.7371223602308,1.33500522537916,-15.3112458593458,-2.13891336788646,-39.1964386924837,17.0957047807419,20.1379988316077,38.2071607744295,19.2997126470007,-23.8586444035695,9.05202016134959,-23.3022929476112,-34.817716726463,-55.9526108046288,-63.6847537153118,60.6423536351618,56.0780364323416,28.3675195638279,61.2348708435591,51.1961162431123,-0.646151946660067,34.9927409155931,-20.1865630615929,-24.2172811358637,42.5896487850809,29.910269901831,61.7202844777377,-8.04927453596925,30.1544218318449,13.6553039032599,69.7765807220635,57.8960850740568,41.5825884020151,12.809353022041,-18.8823501054726,12.6349867209278,-20.1282415690738,28.3588735726811,-72.4084053344115,40.2751632361939,-40.8086421354134,-51.8658117404825,-21.4558231231767,-13.1235507544974,46.62502146496,29.7147867832929,-54.01863243242,-55.9202982334817,-24.0162256687145,2.15140783337007,-29.4255971616098,-9.11742773750753,36.7044361967135,-6.15109498219072,52.0174984916221,2.98987213403102,43.7272833673237,33.1566555073217,-38.4584205613451,4.60446318197823,23.6593669850662,41.5697497277141,-46.738214624248,57.1048073618904,6.74330410684796,23.5055515087994,-13.5012658573897,-51.4467965802217,33.2423619208475,-51.2976631737505,-44.4437213788845,75.5952648343338,-43.5246119306158,-26.1984889856494,-19.852296953028,28.0894406852489,57.393887160601,92.5272843818867,-14.1049304735637,18.0743149877529,-44.642466507956,14.4215759759142,23.8116926208108,12.4904376355778,17.3758118784384,4.46835178523501,-37.530654329016,3.89927086945504,-9.7660922541423,51.6968614510662,-25.1708341408872,-2.96013083666838,10.8777081746952,-5.41243693898001,-17.5386279737389,23.3209869796557,47.7578543162635,-17.9050555622138,56.5181548377394,-21.4592648825129,-4.58026292974236,0.493102665749868,-3.25431793617384,-21.2798870424977,-15.864942954453,17.4535117520604,66.5916399584636,-47.3921381792992,9.26907484594337,85.2541854144538,-68.607167878888,-0.637305859476831,1.67023543928356,1,1,1,1,1,1,1,1,1,1,1,1,1,1,1,1,1,1,1,1,1,1,1,1,1,1,1,1,1,1,1,1,1,1,1,1,1,1,1,1,1,1,1,1,1,1,1,1,1,1,1,1,1,1,1,1,1,1,1,1,1,1,1,1,1,1,1,1,1,1,1,1,1,1,1,1,1,1,1,1,1,1,1,1,1,1,1,1,1,1,1,1,1,1,1,1,1,1,1,1,1,1,1,1,1,1,1,1,1,1,1,1,1,1,1,1,1,1,1,1,1,1,1,1,1,1,1,1,1,1,1,1,1,1,1,1,1,1,1,1,1,1,1,1,1,1,1,1,1,1,1,1,1,1,1,1,1,1,1,1,1,1,1,1,1,1,1,1,1,1,1,1,1,1,1,1,1,1,1,1,1,1,1,1,1,1,1,1,1,1,1,1,1,1,1,1,1,1,1,1,1,1,1,1,1,1,1,1,1,1,1,1,1,1,1,1,1,1,1,1,1,1,1,1,1,1,1,1,1,1,1,1,1,1,1,1,1,1,1,1,1,1,1,1,1,1,1,1,1,1,1,1,1,1,1,1,1,1,1,1,1,1,1,1,1,1,1,1,1,1,4.44401962056927,-9.93594958050456,-0.415220864311189,-19.6096383589617,-8.5171508257363,-25.9685584872335,-16.6362804345129,7.68663611103272,10.1069019663887,13.3835959346632,7.22295251358901,3.92399117119922,11.3442026406788,-24.7376569987394,-3.5592620485406,12.6923057885239,-3.52547255954902,20.0367229422976,11.1963538471807,-10.5858343576469,9.73541272231328,6.19799066608543,-5.56729106734348,6.39680505376067,6.36969606274191,3.94378112638766,-9.15162202383689,-7.28539912324348,8.24675605393169,-6.95358698042879,-3.31373042232465,-3.24976536887213,-24.759868066263,24.8440780352648,-8.2862411153188,-24.9655373151548,9.61869369396807,-5.65780896872231,8.47305180677169,-6.29620249762223,-8.69213350189184,18.9178985364257,-6.19661415347887,14.4113997985164,-11.3639102852713,11.1304650818547,-10.8029448260519,4.56771526979394,8.16027046850573,-21.4990643301404,28.4892981167194,-2.43260597443828,7.10427327281504,4.11254081577077,7.83326582031624,15.5366972209301,-6.25597629292551,15.3959159012973,-11.479571840655,-4.35220161740784,-4.41628086146956,2.73556745914342,-2.06177689063824,8.55780339640094,-14.2261797804264,14.988515971592,0.379780628217263,-25.140703672997,10.3061452828631,-7.46467124153638,-6.8850177045318,6.10199565823471,3.51151920416717,5.57582482374337,-24.0290158760572,-4.27820126697667,1.14001965442681,8.06925603664332,0.688515610916742,2.06112884561698,-7.64699417409563,-9.42543247680248,-26.5614269204137,-2.05096552241607,4.46075172897152,-8.0705080361807,1.74001636355762,-19.2447720353185,31.4143190285055,-11.6069774850227,13.2170211859641,-13.4520492519203,8.48384376572477,-21.9514954526725,-18.0075191181346,-13.3403899345087,-14.2214813539701,-9.0416667950683,2.3251119803992,-17.77125267066,9.82231117721089,7.43735231044993,39.8434376876011,9.10889289537176,-12.033513275477,12.5595205418188,29.0600443838257,-0.07137286183666,-9.74001777771425,11.9437167110166,12.1036823965098,39.3078955157953,-7.3072518608266,-3.84422425847406,-0.0239352831021051,-33.2807045751951,-11.6958794409839,-0.443800781982178,-27.1731870086748,-2.50109527564726,2.30641680065888,-7.01572505313432,11.9177294078735,-23.8085472726174,11.0198310143755,-0.985814316496625,-19.747447141628,-4.21394432747184,12.9883476169436,-20.9057638640168,7.86541435830169,17.3841634494302,2.56354690856658,-9.09882050914826,-3.4981791452475,-6.88128101520992,-3.07591883079044,6.05267694031466,15.4883189534022,-11.7622161162273,0.337812124896095,14.1780080171883,-3.50938494469803,-2.73428871615985,7.57440510268377,-0.387578329091619,13.1920164403002,-0.435332951838922,-8.70156429054618,-5.6625639654425,-12.7862080648659,3.76993872355617,4.56695037904019,9.37878118193261,-1.33695150250862,8.81461823931114,-0.778440028459428,-0.428919930779373,-3.9787838182274,2.53494508571549,-13.6554177734817,20.0149964144392,-3.23806470877066,-7.00751403420977,-16.252206347189,-8.1479159706642,19.5215429934901,21.0302553865856,-11.1552865761446,4.2920094189657,5.89372375662445,3.32268647548145,-20.8445862120514,-1.16112093861948,-11.0464985777552,-8.35045568459355,7.79045279840047,9.98339468375246,-7.36726245103561,-4.51237642630739,11.1178333405142,-9.80290196592323,6.52736668363457,-8.49562022244484,2.51952202925751,-8.01238766962778,-13.6231117168569,-0.967953817850527,2.62106917339255,4.38960241006284,0.587683967093088,-3.25206516099816,3.95420049281912,0.410459708516317,-1.75272490406565,-3.83083923662808,3.32428514220289,11.6895023183144,5.2044340894053,-18.4100103017347,2.20216986527232,3.99966850796576,17.9873762487275,-6.08489094914837,1.56198596211839,21.348000757318,-3.33561349348132,7.60282690827207,23.3424465634758,-3.14156367985766,-7.89813942631127,-2.56935116732414,-0.0634698433647664,20.4391814026814,14.3246511229622,12.9309351675817,-1.4931139963968,-0.445697110841027,-4.70106600736615,-0.381141502411457,9.22222930676348,-0.530416843501983,-8.81541902307664,-0.0486253413312181,-6.62938881479391,10.597402762142,13.5598618157379,-9.96213363168041,16.0453384228769,-10.653098663508,8.76312911947855,-9.90103223790573,6.09141467891731,-4.42548362255424,-16.8744922545696,-12.470803464334,2.45770420551813,3.09876782126781,-9.58556733442331,-12.5842566657206,-0.582072590527156,6.37842543154439,2.76817158017893,7.79748044420125,28.2387063116975,-22.9908858664621,25.392711611997,-5.56412580396328,5.65407150696643,20.1097608788253,-21.9992483916561,-0.0247461784190568,3.91934470557475,-3.24830778592367,4.66466287396361,10.3938435151748,20.9959640705232,-19.933992663408,6.94203454531087,-10.925823133776,11.6927904516239,28.6529252926491,17.8249937506871,-9.24753473485609,9.86370175184276,-1.23516622458134,5.20502064525774,10.3959567264429,-43.2864983964503,12.8515777749891,1,1,1,1,1,1,1,1,1,1,1,1,1,1,1,1,1,1,1,1,1,1,1,1,1,1,1,1,1,1,1,1,1,1,1,1,1,1,1,1,1,1,1,1,1,1,1,1,1,1,1,1,1,1,1,1,1,1,1,1,1,1,1,1,1,1,1,1,1,1,1,1,1,1,1,1,1,1,1,1,1,1,1,1,1,1,1,1,1,1,1,1,1,1,1,1,1,1,1,1,1,1,1,1,1,1,1,1,1,1,1,1,1,1,1,1,1,1,1,1,1,1,1,1,1,1,1,1,1,1,1,1,1,1,1,1,1,1,1,1,1,1,1,1,1,1,1,1,1,1,1,1,1,1,1,1,1,1,1,1,1,1,1,1,1,1,1,1,1,1,1,1,1,1,1,1,1,1,1,1,1,1,1,1,1,1,1,1,1,1,1,1,1,1,1,1,1,1,1,1,1,1,1,1,1,1,1,1,1,1,1,1,1,1,1,1,1,1,1,1,1,1,1,1,1,1,1,1,1,1,1,1,1,1,1,1,1,1,1,1,1,1,1,1,1,1,1,1,1,1,1,1,1,1,1,1,1,1,1,1,1,1,1,1,1,1,1,1,1,1
420.113238075336,108.587847600499,57.7235375338809,-163.263765378143,43.7089344381728,9.98184252814759,-2.18553329219039,-12.4587386338609,7.72323443693308,-47.2513278854514,65.3253576941793,17.9843861296138,-9.06990463456312,-59.9708853928945,27.5007102507842,-5.51276748578867,-20.1662037176919,56.9498359370556,-10.6963662021677,-46.624858912493,0.0285970791268464,-29.4675962670605,-30.8218323313918,-41.9664049929458,-10.5330236175908,47.7980284126793,19.7242352274536,-46.6013713899182,46.1399608492444,27.0593685316737,46.9292418524856,59.3778485181836,22.0462447920977,-34.9413177014949,-39.7473584043195,7.41205169536611,29.3490365369909,-0.830602949571469,11.7576772650085,-36.3669637550971,6.59060584125341,59.6926284786745,9.34124548120274,37.9431725117446,-2.39407938015983,-27.4602890661205,33.1331951268718,-55.2229895680825,-15.5968511977239,13.4102174829017,-26.5199909829622,-1.69389213355344,39.7097746049527,19.3274972176507,24.7635713188802,39.5603012302868,-0.135231152683227,-34.4448833135946,-6.32245382056064,-27.9239420420695,-6.01855622019903,18.404879934937,-58.4658676860814,-23.032248990023,-22.8253254369727,37.5071803330747,-21.8754767592062,-19.9542848261898,17.4993128569673,24.3987894508883,31.704972733922,-14.7848713627048,-19.6339214368924,56.5678773006641,30.5609202168816,21.6796415980744,34.8152108068293,6.88912644135652,23.9038094289574,-17.2850849115717,57.2032990135374,-46.2739669551562,-28.2104163511606,18.2373015373099,-27.7520466261364,-56.0027724185656,-5.69252983894599,22.9599405174259,33.0701958715538,8.8697214882225,-2.16074822919218,16.8308561099431,-5.90501880717489,24.698496718022,1.58734595247812,-17.6268555861435,-16.354211806912,63.2745627977596,25.1383886816782,107.003816958601,16.8095772554848,19.8742534333169,10.522955401697,40.9569185919723,38.7709703541278,8.13273652893456,33.2687788824827,-75.0000198566146,4.2280601310399,-23.8331820883315,29.6337610455587,-85.5941256223271,9.25343223451798,9.85642314157883,69.9489418207637,-1.00439240871784,52.9254839483761,-4.36849565812884,67.2583016447566,-6.59041599565388,-28.5641739738947,82.0062111866944,42.2172475544348,-9.30948381834227,-14.2773809150889,-10.3065241308745,-26.6479631716329,-47.6012114679633,-20.4669601178531,49.2089776341545,-36.5786302266924,44.4395511773069,80.4743702271207,-16.6477502319245,-55.8034326345933,86.5863329790704,25.5431648841188,3.75688819218809,57.4126099064848,-43.9814938353124,10.9423822482401,14.8821086321981,93.5145813805253,48.3543254958516,29.1333009112916,8.91137009598432,-21.5692738067504,-20.8839943201992,-4.87739406658897,-37.2800388861923,7.30488974685129,4.29464193483635,13.5879603330103,46.9763015756158,16.7541436812038,-3.46547275434389,-30.152343683947,35.1859212348311,-23.4431203053032,-46.8170545363209,-2.79769629425733,4.10234544276389,-37.7371223602308,1.33500522537916,-15.3112458593458,-2.13891336788646,-39.1964386924837,17.0957047807419,20.1379988316077,38.2071607744295,19.2997126470007,-23.8586444035695,9.05202016134959,-23.3022929476112,-34.817716726463,-55.9526108046288,-63.6847537153118,60.6423536351618,56.0780364323416,28.3675195638279,61.2348708435591,51.1961162431123,-0.646151946660067,34.9927409155931,-20.1865630615929,-24.2172811358637,42.5896487850809,29.910269901831,61.7202844777377,-8.04927453596925,30.1544218318449,13.6553039032599,69.7765807220635,57.8960850740568,41.5825884020151,12.809353022041,-18.8823501054726,12.6349867209278,-20.1282415690738,28.3588735726811,-72.4084053344115,40.2751632361939,-40.8086421354134,-51.8658117404825,-21.4558231231767,-13.1235507544974,46.62502146496,29.7147867832929,-54.01863243242,-55.9202982334817,-24.0162256687145,2.15140783337007,-29.4255971616098,-9.11742773750753,36.7044361967135,-6.15109498219072,52.0174984916221,2.98987213403102,43.7272833673237,33.1566555073217,-38.4584205613451,4.60446318197823,23.6593669850662,41.5697497277141,-46.738214624248,57.1048073618904,6.74330410684796,23.5055515087994,-13.5012658573897,-51.4467965802217,33.2423619208475,-51.2976631737505,-44.4437213788845,75.5952648343338,-43.5246119306158,-26.1984889856494,-19.852296953028,28.0894406852489,57.393887160601,92.5272843818867,-14.1049304735637,18.0743149877529,-44.642466507956,14.4215759759142,23.8116926208108,12.4904376355778,17.3758118784384,4.46835178523501,-37.530654329016,3.89927086945504,-9.7660922541423,51.6968614510662,-25.1708341408872,-2.96013083666838,10.8777081746952,-5.41243693898001,-17.5386279737389,23.3209869796557,47.7578543162635,-17.9050555622138,56.5181548377394,-21.4592648825129,-4.58026292974236,0.493102665749868,-3.25431793617384,-21.2798870424977,-15.864942954453,17.4535117520604,66.5916399584636,-47.3921381792992,9.26907484594337,85.2541854144538,-68.607167878888,-0.637305859476831,1.67023543928356,1,1,1,1,1,1,1,1,1,1,1,1,1,1,1,1,1,1,1,1,1,1,1,1,1,1,1,1,1,1,1,1,1,1,1,1,1,1,1,1,1,1,1,1,1,1,1,1,1,1,1,1,1,1,1,1,1,1,1,1,1,1,1,1,1,1,1,1,1,1,1,1,1,1,1,1,1,1,1,1,1,1,1,1,1,1,1,1,1,1,1,1,1,1,1,1,1,1,1,1,1,1,1,1,1,1,1,1,1,1,1,1,1,1,1,1,1,1,1,1,1,1,1,1,1,1,1,1,1,1,1,1,1,1,1,1,1,1,1,1,1,1,1,1,1,1,1,1,1,1,1,1,1,1,1,1,1,1,1,1,1,1,1,1,1,1,1,1,1,1,1,1,1,1,1,1,1,1,1,1,1,1,1,1,1,1,1,1,1,1,1,1,1,1,1,1,1,1,1,1,1,1,1,1,1,1,1,1,1,1,1,1,1,1,1,1,1,1,1,1,1,1,1,1,1,1,1,1,1,1,1,1,1,1,1,1,1,1,1,1,1,1,1,1,1,1,1,1,1,1,1,1,1,1,1,1,1,1,1,1,1,1,1,1,1,1,1,1,1,1,4.44401962056927,-9.93594958050456,-0.415220864311189,-19.6096383589617,-8.5171508257363,-25.9685584872335,-16.6362804345129,7.68663611103272,10.1069019663887,13.3835959346632,7.22295251358901,3.92399117119922,11.3442026406788,-24.7376569987394,-3.5592620485406,12.6923057885239,-3.52547255954902,20.0367229422976,11.1963538471807,-10.5858343576469,9.73541272231328,6.19799066608543,-5.56729106734348,6.39680505376067,6.36969606274191,3.94378112638766,-9.15162202383689,-7.28539912324348,8.24675605393169,-6.95358698042879,-3.31373042232465,-3.24976536887213,-24.759868066263,24.8440780352648,-8.2862411153188,-24.9655373151548,9.61869369396807,-5.65780896872231,8.47305180677169,-6.29620249762223,-8.69213350189184,18.9178985364257,-6.19661415347887,14.4113997985164,-11.3639102852713,11.1304650818547,-10.8029448260519,4.56771526979394,8.16027046850573,-21.4990643301404,28.4892981167194,-2.43260597443828,7.10427327281504,4.11254081577077,7.83326582031624,15.5366972209301,-6.25597629292551,15.3959159012973,-11.479571840655,-4.35220161740784,-4.41628086146956,2.73556745914342,-2.06177689063824,8.55780339640094,-14.2261797804264,14.988515971592,0.379780628217263,-25.140703672997,10.3061452828631,-7.46467124153638,-6.8850177045318,6.10199565823471,3.51151920416717,5.57582482374337,-24.0290158760572,-4.27820126697667,1.14001965442681,8.06925603664332,0.688515610916742,2.06112884561698,-7.64699417409563,-9.42543247680248,-26.5614269204137,-2.05096552241607,4.46075172897152,-8.0705080361807,1.74001636355762,-19.2447720353185,31.4143190285055,-11.6069774850227,13.2170211859641,-13.4520492519203,8.48384376572477,-21.9514954526725,-18.0075191181346,-13.3403899345087,-14.2214813539701,-9.0416667950683,2.3251119803992,-17.77125267066,9.82231117721089,7.43735231044993,39.8434376876011,9.10889289537176,-12.033513275477,12.5595205418188,29.0600443838257,-0.07137286183666,-9.74001777771425,11.9437167110166,12.1036823965098,39.3078955157953,-7.3072518608266,-3.84422425847406,-0.0239352831021051,-33.2807045751951,-11.6958794409839,-0.443800781982178,-27.1731870086748,-2.50109527564726,2.30641680065888,-7.01572505313432,11.9177294078735,-23.8085472726174,11.0198310143755,-0.985814316496625,-19.747447141628,-4.21394432747184,12.9883476169436,-20.9057638640168,7.86541435830169,17.3841634494302,2.56354690856658,-9.09882050914826,-3.4981791452475,-6.88128101520992,-3.07591883079044,6.05267694031466,15.4883189534022,-11.7622161162273,0.337812124896095,14.1780080171883,-3.50938494469803,-2.73428871615985,7.57440510268377,-0.387578329091619,13.1920164403002,-0.435332951838922,-8.70156429054618,-5.6625639654425,-12.7862080648659,3.76993872355617,4.56695037904019,9.37878118193261,-1.33695150250862,8.81461823931114,-0.778440028459428,-0.428919930779373,-3.9787838182274,2.53494508571549,-13.6554177734817,20.0149964144392,-3.23806470877066,-7.00751403420977,-16.252206347189,-8.1479159706642,19.5215429934901,21.0302553865856,-11.1552865761446,4.2920094189657,5.89372375662445,3.32268647548145,-20.8445862120514,-1.16112093861948,-11.0464985777552,-8.35045568459355,7.79045279840047,9.98339468375246,-7.36726245103561,-4.51237642630739,11.1178333405142,-9.80290196592323,6.52736668363457,-8.49562022244484,2.51952202925751,-8.01238766962778,-13.6231117168569,-0.967953817850527,2.62106917339255,4.38960241006284,0.587683967093088,-3.25206516099816,3.95420049281912,0.410459708516317,-1.75272490406565,-3.83083923662808,3.32428514220289,11.6895023183144,5.2044340894053,-18.4100103017347,2.20216986527232,3.99966850796576,17.9873762487275,-6.08489094914837,1.56198596211839,21.348000757318,-3.33561349348132,7.60282690827207,23.3424465634758,-3.14156367985766,-7.89813942631127,-2.56935116732414,-0.0634698433647664,20.4391814026814,14.3246511229622,12.9309351675817,-1.4931139963968,-0.445697110841027,-4.70106600736615,-0.381141502411457,9.22222930676348,-0.530416843501983,-8.81541902307664,-0.0486253413312181,-6.62938881479391,10.597402762142,13.5598618157379,-9.96213363168041,16.0453384228769,-10.653098663508,8.76312911947855,-9.90103223790573,6.09141467891731,-4.42548362255424,-16.8744922545696,-12.470803464334,2.45770420551813,3.09876782126781,-9.58556733442331,-12.5842566657206,-0.582072590527156,6.37842543154439,2.76817158017893,7.79748044420125,28.2387063116975,-22.9908858664621,25.392711611997,-5.56412580396328,5.65407150696643,20.1097608788253,-21.9992483916561,-0.0247461784190568,3.91934470557475,-3.24830778592367,4.66466287396361,10.3938435151748,20.9959640705232,-19.933992663408,6.94203454531087,-10.925823133776,11.6927904516239,28.6529252926491,17.8249937506871,-9.24753473485609,9.86370175184276,-1.23516622458134,5.20502064525774,10.3959567264429,-43.2864983964503,12.8515777749891,1,1,1,1,1,1,1,1,1,1,1,1,1,1,1,1,1,1,1,1,1,1,1,1,1,1,1,1,1,1,1,1,1,1,1,1,1,1,1,1,1,1,1,1,1,1,1,1,1,1,1,1,1,1,1,1,1,1,1,1,1,1,1,1,1,1,1,1,1,1,1,1,1,1,1,1,1,1,1,1,1,1,1,1,1,1,1,1,1,1,1,1,1,1,1,1,1,1,1,1,1,1,1,1,1,1,1,1,1,1,1,1,1,1,1,1,1,1,1,1,1,1,1,1,1,1,1,1,1,1,1,1,1,1,1,1,1,1,1,1,1,1,1,1,1,1,1,1,1,1,1,1,1,1,1,1,1,1,1,1,1,1,1,1,1,1,1,1,1,1,1,1,1,1,1,1,1,1,1,1,1,1,1,1,1,1,1,1,1,1,1,1,1,1,1,1,1,1,1,1,1,1,1,1,1,1,1,1,1,1,1,1,1,1,1,1,1,1,1,1,1,1,1,1,1,1,1,1,1,1,1,1,1,1,1,1,1,1,1,1,1,1,1,1,1,1,1,1,1,1,1,1,1,1,1,1,1,1,1,1,1,1,1,1,1,1,1,1,1,1,19.4047984512814,4.31184740935121,9.98184252814759,-2.18553329219039,-12.4587386338609,7.72323443693308,-47.2513278854514,65.3253576941793,17.9843861296138,-9.06990463456312,-59.9708853928945,27.5007102507842,-5.51276748578867,-20.1662037176919,56.9498359370556,-10.6963662021677,-46.624858912493,0.0285970791268464,-29.4675962670605,-30.8218323313918,-41.9664049929458,-10.5330236175908,47.7980284126793,19.7242352274536,-46.6013713899182,46.1399608492444,27.0593685316737,46.9292418524856,59.3778485181836,22.0462447920977,-34.9413177014949,-39.7473584043195,7.41205169536611,29.3490365369909,-0.830602949571469,11.7576772650085,-36.3669637550971,6.59060584125341,59.6926284786745,9.34124548120274,37.9431725117446,-2.39407938015983,-27.4602890661205,33.1331951268718,-55.2229895680825,-15.5968511977239,13.4102174829017,-26.5199909829622,-1.69389213355344,39.7097746049527,19.3274972176507,24.7635713188802,39.5603012302868,-0.135231152683227,-34.4448833135946,-6.32245382056064,-27.9239420420695,-6.01855622019903,18.404879934937,-58.4658676860814,-23.032248990023,-22.8253254369727,37.5071803330747,-21.8754767592062,-19.9542848261898,17.4993128569673,24.3987894508883,31.704972733922,-14.7848713627048,-19.6339214368924,56.5678773006641,30.5609202168816,21.6796415980744,34.8152108068293,6.88912644135652,23.9038094289574,-17.2850849115717,57.2032990135374,-46.2739669551562,-28.2104163511606,18.2373015373099,-27.7520466261364,-56.0027724185656,-5.69252983894599,22.9599405174259,33.0701958715538,8.8697214882225,-2.16074822919218,16.8308561099431,-5.90501880717489,24.698496718022,1.58734595247812,-17.6268555861435,-16.354211806912,63.2745627977596,25.1383886816782,107.003816958601,16.8095772554848,19.8742534333169,10.522955401697,40.9569185919723,38.7709703541278,8.13273652893456,33.2687788824827,-75.0000198566146,4.2280601310399,-23.8331820883315,29.6337610455587,-85.5941256223271,9.25343223451798,9.85642314157883,69.9489418207637,-1.00439240871784,52.9254839483761,-4.36849565812884,67.2583016447566,-6.59041599565388,-28.5641739738947,82.0062111866944,42.2172475544348,-9.30948381834227,-14.2773809150889,-10.3065241308745,-26.6479631716329,-47.6012114679633,-20.4669601178531,49.2089776341545,-36.5786302266924,44.4395511773069,80.4743702271207,-16.6477502319245,-55.8034326345933,86.5863329790704,25.5431648841188,3.75688819218809,57.4126099064848,-43.9814938353124,10.9423822482401,14.8821086321981,93.5145813805253,48.3543254958516,29.1333009112916,8.91137009598432,-21.5692738067504,-20.8839943201992,-4.87739406658897,-37.2800388861923,7.30488974685129,4.29464193483635,13.5879603330103,46.9763015756158,16.7541436812038,-3.46547275434389,-30.152343683947,35.1859212348311,-23.4431203053032,-46.8170545363209,-2.79769629425733,4.10234544276389,-37.7371223602308,1.33500522537916,-15.3112458593458,-2.13891336788646,-39.1964386924837,17.0957047807419,20.1379988316077,38.2071607744295,19.2997126470007,-23.8586444035695,9.05202016134959,-23.3022929476112,-34.817716726463,-55.9526108046288,-63.6847537153118,60.6423536351618,56.0780364323416,28.3675195638279,61.2348708435591,51.1961162431123,-0.646151946660067,34.9927409155931,-20.1865630615929,-24.2172811358637,42.5896487850809,29.910269901831,61.7202844777377,-8.04927453596925,30.1544218318449,13.6553039032599,69.7765807220635,57.8960850740568,41.5825884020151,12.809353022041,-18.8823501054726,12.6349867209278,-20.1282415690738,28.3588735726811,-72.4084053344115,40.2751632361939,-40.8086421354134,-51.8658117404825,-21.4558231231767,-13.1235507544974,46.62502146496,29.7147867832929,-54.01863243242,-55.9202982334817,-24.0162256687145,2.15140783337007,-29.4255971616098,-9.11742773750753,36.7044361967135,-6.15109498219072,52.0174984916221,2.98987213403102,43.7272833673237,33.1566555073217,-38.4584205613451,4.60446318197823,23.6593669850662,41.5697497277141,-46.738214624248,57.1048073618904,6.74330410684796,23.5055515087994,-13.5012658573897,-51.4467965802217,33.2423619208475,-51.2976631737505,-44.4437213788845,75.5952648343338,-43.5246119306158,-26.1984889856494,-19.852296953028,28.0894406852489,57.393887160601,92.5272843818867,-14.1049304735637,18.0743149877529,-44.642466507956,14.4215759759142,23.8116926208108,12.4904376355778,17.3758118784384,4.46835178523501,-37.530654329016,3.89927086945504,-9.7660922541423,51.6968614510662,-25.1708341408872,-2.96013083666838,10.8777081746952,-5.41243693898001,-17.5386279737389,23.3209869796557,47.7578543162635,-17.9050555622138,56.5181548377394,-21.4592648825129,-4.58026292974236,0.493102665749868,-3.25431793617384,-21.2798870424977,-15.864942954453,17.4535117520604,66.5916399584636,-47.3921381792992,9.26907484594337,85.2541854144538,-68.607167878888,-0.637305859476831,1.67023543928356,1,1,1,1,1,1,1,1,1,1,1,1,1,1,1,1,1,1,1,1,1,1,1,1,1,1,1,1,1,1,1,1,1,1,1,1,1,1,1,1,1,1,1,1,1,1,1,1,1,1,1,1,1,1,1,1,1,1,1,1,1,1,1,1,1,1,1,1,1,1,1,1,1,1,1,1,1,1,1,1,1,1,1,1,1,1,1,1,1,1,1,1,1,1,1,1,1,1,1,1,1,1,1,1,1,1,1,1,1,1,1,1,1,1,1,1,1,1,1,1,1,1,1,1,1,1,1,1,1,1,1,1,1,1,1,1,1,1,1,1,1,1,1,1,1,1,1,1,1,1,1,1,1,1,1,1,1,1,1,1,1,1,1,1,1,1,1,1,1,1,1,1,1,1,1,1,1,1,1,1,1,1,1,1,1,1,1,1,1,1,1,1,1,1,1,1,1,1,1,1,1,1,1,1,1,1,1,1,1,1,1,1,1,1,1,1,1,1,1,1,1,1,1,1,1,1,1,1,1,1,1,1,1,1,1,1,1,1,1,1,1,1,1,1,1,1,1,1,1,1,1,1,1,1,1,1,1,1,1,1,1,1,1,1,1,1,1,1,1,1,4.44401962056927,-9.93594958050456,-0.415220864311189,-19.6096383589617,-8.5171508257363,-25.9685584872335,-16.6362804345129,7.68663611103272,10.1069019663887,13.3835959346632,7.22295251358901,3.92399117119922,11.3442026406788,-24.7376569987394,-3.5592620485406,12.6923057885239,-3.52547255954902,20.0367229422976,11.1963538471807,-10.5858343576469,9.73541272231328,6.19799066608543,-5.56729106734348,6.39680505376067,6.36969606274191,3.94378112638766,-9.15162202383689,-7.28539912324348,8.24675605393169,-6.95358698042879,-3.31373042232465,-3.24976536887213,-24.759868066263,24.8440780352648,-8.2862411153188,-24.9655373151548,9.61869369396807,-5.65780896872231,8.47305180677169,-6.29620249762223,-8.69213350189184,18.9178985364257,-6.19661415347887,14.4113997985164,-11.3639102852713,11.1304650818547,-10.8029448260519,4.56771526979394,8.16027046850573,-21.4990643301404,28.4892981167194,-2.43260597443828,7.10427327281504,4.11254081577077,7.83326582031624,15.5366972209301,-6.25597629292551,15.3959159012973,-11.479571840655,-4.35220161740784,-4.41628086146956,2.73556745914342,-2.06177689063824,8.55780339640094,-14.2261797804264,14.988515971592,0.379780628217263,-25.140703672997,10.3061452828631,-7.46467124153638,-6.8850177045318,6.10199565823471,3.51151920416717,5.57582482374337,-24.0290158760572,-4.27820126697667,1.14001965442681,8.06925603664332,0.688515610916742,2.06112884561698,-7.64699417409563,-9.42543247680248,-26.5614269204137,-2.05096552241607,4.46075172897152,-8.0705080361807,1.74001636355762,-19.2447720353185,31.4143190285055,-11.6069774850227,13.2170211859641,-13.4520492519203,8.48384376572477,-21.9514954526725,-18.0075191181346,-13.3403899345087,-14.2214813539701,-9.0416667950683,2.3251119803992,-17.77125267066,9.82231117721089,7.43735231044993,39.8434376876011,9.10889289537176,-12.033513275477,12.5595205418188,29.0600443838257,-0.07137286183666,-9.74001777771425,11.9437167110166,12.1036823965098,39.3078955157953,-7.3072518608266,-3.84422425847406,-0.0239352831021051,-33.2807045751951,-11.6958794409839,-0.443800781982178,-27.1731870086748,-2.50109527564726,2.30641680065888,-7.01572505313432,11.9177294078735,-23.8085472726174,11.0198310143755,-0.985814316496625,-19.747447141628,-4.21394432747184,12.9883476169436,-20.9057638640168,7.86541435830169,17.3841634494302,2.56354690856658,-9.09882050914826,-3.4981791452475,-6.88128101520992,-3.07591883079044,6.05267694031466,15.4883189534022,-11.7622161162273,0.337812124896095,14.1780080171883,-3.50938494469803,-2.73428871615985,7.57440510268377,-0.387578329091619,13.1920164403002,-0.435332951838922,-8.70156429054618,-5.6625639654425,-12.7862080648659,3.76993872355617,4.56695037904019,9.37878118193261,-1.33695150250862,8.81461823931114,-0.778440028459428,-0.428919930779373,-3.9787838182274,2.53494508571549,-13.6554177734817,20.0149964144392,-3.23806470877066,-7.00751403420977,-16.252206347189,-8.1479159706642,19.5215429934901,21.0302553865856,-11.1552865761446,4.2920094189657,5.89372375662445,3.32268647548145,-20.8445862120514,-1.16112093861948,-11.0464985777552,-8.35045568459355,7.79045279840047,9.98339468375246,-7.36726245103561,-4.51237642630739,11.1178333405142,-9.80290196592323,6.52736668363457,-8.49562022244484,2.51952202925751,-8.01238766962778,-13.6231117168569,-0.967953817850527,2.62106917339255,4.38960241006284,0.587683967093088,-3.25206516099816,3.95420049281912,0.410459708516317,-1.75272490406565,-3.83083923662808,3.32428514220289,11.6895023183144,5.2044340894053,-18.4100103017347,2.20216986527232,3.99966850796576,17.9873762487275,-6.08489094914837,1.56198596211839,21.348000757318,-3.33561349348132,7.60282690827207,23.3424465634758,-3.14156367985766,-7.89813942631127,-2.56935116732414,-0.0634698433647664,20.4391814026814,14.3246511229622,12.9309351675817,-1.4931139963968,-0.445697110841027,-4.70106600736615,-0.381141502411457,9.22222930676348,-0.530416843501983,-8.81541902307664,-0.0486253413312181,-6.62938881479391,10.597402762142,13.5598618157379,-9.96213363168041,16.0453384228769,-10.653098663508,8.76312911947855,-9.90103223790573,6.09141467891731,-4.42548362255424,-16.8744922545696,-12.470803464334,2.45770420551813,3.09876782126781,-9.58556733442331,-12.5842566657206,-0.582072590527156,6.37842543154439,2.76817158017893,7.79748044420125,28.2387063116975,-22.9908858664621,25.392711611997,-5.56412580396328,5.65407150696643,20.1097608788253,-21.9992483916561,-0.0247461784190568,3.91934470557475,-3.24830778592367,4.66466287396361,10.3938435151748,20.9959640705232,-19.933992663408,6.94203454531087,-10.925823133776,11.6927904516239,28.6529252926491,17.8249937506871,-9.24753473485609,9.86370175184276,-1.23516622458134,5.20502064525774,10.3959567264429,-43.2864983964503,12.8515777749891,1,1,1,1,1,1,1,1,1,1,1,1,1,1,1,1,1,1,1,1,1,1,1,1,1,1,1,1,1,1,1,1,1,1,1,1,1,1,1,1,1,1,1,1,1,1,1,1,1,1,1,1,1,1,1,1,1,1,1,1,1,1,1,1,1,1,1,1,1,1,1,1,1,1,1,1,1,1,1,1,1,1,1,1,1,1,1,1,1,1,1,1,1,1,1,1,1,1,1,1,1,1,1,1,1,1,1,1,1,1,1,1,1,1,1,1,1,1,1,1,1,1,1,1,1,1,1,1,1,1,1,1,1,1,1,1,1,1,1,1,1,1,1,1,1,1,1,1,1,1,1,1,1,1,1,1,1,1,1,1,1,1,1,1,1,1,1,1,1,1,1,1,1,1,1,1,1,1,1,1,1,1,1,1,1,1,1,1,1,1,1,1,1,1,1,1,1,1,1,1,1,1,1,1,1,1,1,1,1,1,1,1,1,1,1,1,1,1,1,1,1,1,1,1,1,1,1,1,1,1,1,1,1,1,1,1,1,1,1,1,1,1,1,1,1,1,1,1,1,1,1,1,1,1,1,1,1,1,1,1,1,1,1,1,1,1,1,1,1,1,79.7053472477979,10.0008696111942,9.98184252814759,-2.18553329219039,-12.4587386338609,7.72323443693308,-47.2513278854514,65.3253576941793,17.9843861296138,-9.06990463456312,-59.9708853928945,27.5007102507842,-5.51276748578867,-20.1662037176919,56.9498359370556,-10.6963662021677,-46.624858912493,0.0285970791268464,-29.4675962670605,-30.8218323313918,-41.9664049929458,-10.5330236175908,47.7980284126793,19.7242352274536,-46.6013713899182,46.1399608492444,27.0593685316737,46.9292418524856,59.3778485181836,22.0462447920977,-34.9413177014949,-39.7473584043195,7.41205169536611,29.3490365369909,-0.830602949571469,11.7576772650085,-36.3669637550971,6.59060584125341,59.6926284786745,9.34124548120274,37.9431725117446,-2.39407938015983,-27.4602890661205,33.1331951268718,-55.2229895680825,-15.5968511977239,13.4102174829017,-26.5199909829622,-1.69389213355344,39.7097746049527,19.3274972176507,24.7635713188802,39.5603012302868,-0.135231152683227,-34.4448833135946,-6.32245382056064,-27.9239420420695,-6.01855622019903,18.404879934937,-58.4658676860814,-23.032248990023,-22.8253254369727,37.5071803330747,-21.8754767592062,-19.9542848261898,17.4993128569673,24.3987894508883,31.704972733922,-14.7848713627048,-19.6339214368924,56.5678773006641,30.5609202168816,21.6796415980744,34.8152108068293,6.88912644135652,23.9038094289574,-17.2850849115717,57.2032990135374,-46.2739669551562,-28.2104163511606,18.2373015373099,-27.7520466261364,-56.0027724185656,-5.69252983894599,22.9599405174259,33.0701958715538,8.8697214882225,-2.16074822919218,16.8308561099431,-5.90501880717489,24.698496718022,1.58734595247812,-17.6268555861435,-16.354211806912,63.2745627977596,25.1383886816782,107.003816958601,16.8095772554848,19.8742534333169,10.522955401697,40.9569185919723,38.7709703541278,8.13273652893456,33.2687788824827,-75.0000198566146,4.2280601310399,-23.8331820883315,29.6337610455587,-85.5941256223271,9.25343223451798,9.85642314157883,69.9489418207637,-1.00439240871784,52.9254839483761,-4.36849565812884,67.2583016447566,-6.59041599565388,-28.5641739738947,82.0062111866944,42.2172475544348,-9.30948381834227,-14.2773809150889,-10.3065241308745,-26.6479631716329,-47.6012114679633,-20.4669601178531,49.2089776341545,-36.5786302266924,44.4395511773069,80.4743702271207,-16.6477502319245,-55.8034326345933,86.5863329790704,25.5431648841188,3.75688819218809,57.4126099064848,-43.9814938353124,10.9423822482401,14.8821086321981,93.5145813805253,48.3543254958516,29.1333009112916,8.91137009598432,-21.5692738067504,-20.8839943201992,-4.87739406658897,-37.2800388861923,7.30488974685129,4.29464193483635,13.5879603330103,46.9763015756158,16.7541436812038,-3.46547275434389,-30.152343683947,35.1859212348311,-23.4431203053032,-46.8170545363209,-2.79769629425733,4.10234544276389,-37.7371223602308,1.33500522537916,-15.3112458593458,-2.13891336788646,-39.1964386924837,17.0957047807419,20.1379988316077,38.2071607744295,19.2997126470007,-23.8586444035695,9.05202016134959,-23.3022929476112,-34.817716726463,-55.9526108046288,-63.6847537153118,60.6423536351618,56.0780364323416,28.3675195638279,61.2348708435591,51.1961162431123,-0.646151946660067,34.9927409155931,-20.1865630615929,-24.2172811358637,42.5896487850809,29.910269901831,61.7202844777377,-8.04927453596925,30.1544218318449,13.6553039032599,69.7765807220635,57.8960850740568,41.5825884020151,12.809353022041,-18.8823501054726,12.6349867209278,-20.1282415690738,28.3588735726811,-72.4084053344115,40.2751632361939,-40.8086421354134,-51.8658117404825,-21.4558231231767,-13.1235507544974,46.62502146496,29.7147867832929,-54.01863243242,-55.9202982334817,-24.0162256687145,2.15140783337007,-29.4255971616098,-9.11742773750753,36.7044361967135,-6.15109498219072,52.0174984916221,2.98987213403102,43.7272833673237,33.1566555073217,-38.4584205613451,4.60446318197823,23.6593669850662,41.5697497277141,-46.738214624248,57.1048073618904,6.74330410684796,23.5055515087994,-13.5012658573897,-51.4467965802217,33.2423619208475,-51.2976631737505,-44.4437213788845,75.5952648343338,-43.5246119306158,-26.1984889856494,-19.852296953028,28.0894406852489,57.393887160601,92.5272843818867,-14.1049304735637,18.0743149877529,-44.642466507956,14.4215759759142,23.8116926208108,12.4904376355778,17.3758118784384,4.46835178523501,-37.530654329016,3.89927086945504,-9.7660922541423,51.6968614510662,-25.1708341408872,-2.96013083666838,10.8777081746952,-5.41243693898001,-17.5386279737389,23.3209869796557,47.7578543162635,-17.9050555622138,56.5181548377394,-21.4592648825129,-4.58026292974236,0.493102665749868,-3.25431793617384,-21.2798870424977,-15.864942954453,17.4535117520604,66.5916399584636,-47.3921381792992,9.26907484594337,85.2541854144538,-68.607167878888,-0.637305859476831,1.67023543928356,1,1,1,1,1,1,1,1,1,1,1,1,1,1,1,1,1,1,1,1,1,1,1,1,1,1,1,1,1,1,1,1,1,1,1,1,1,1,1,1,1,1,1,1,1,1,1,1,1,1,1,1,1,1,1,1,1,1,1,1,1,1,1,1,1,1,1,1,1,1,1,1,1,1,1,1,1,1,1,1,1,1,1,1,1,1,1,1,1,1,1,1,1,1,1,1,1,1,1,1,1,1,1,1,1,1,1,1,1,1,1,1,1,1,1,1,1,1,1,1,1,1,1,1,1,1,1,1,1,1,1,1,1,1,1,1,1,1,1,1,1,1,1,1,1,1,1,1,1,1,1,1,1,1,1,1,1,1,1,1,1,1,1,1,1,1,1,1,1,1,1,1,1,1,1,1,1,1,1,1,1,1,1,1,1,1,1,1,1,1,1,1,1,1,1,1,1,1,1,1,1,1,1,1,1,1,1,1,1,1,1,1,1,1,1,1,1,1,1,1,1,1,1,1,1,1,1,1,1,1,1,1,1,1,1,1,1,1,1,1,1,1,1,1,1,1,1,1,1,1,1,1,1,1,1,1,1,1,1,1,1,1,1,1,1,1,1,1,1,1,4.44401962056927,-9.93594958050456,-0.415220864311189,-19.6096383589617,-8.5171508257363,-25.9685584872335,-16.6362804345129,7.68663611103272,10.1069019663887,13.3835959346632,7.22295251358901,3.92399117119922,11.3442026406788,-24.7376569987394,-3.5592620485406,12.6923057885239,-3.52547255954902,20.0367229422976,11.1963538471807,-10.5858343576469,9.73541272231328,6.19799066608543,-5.56729106734348,6.39680505376067,6.36969606274191,3.94378112638766,-9.15162202383689,-7.28539912324348,8.24675605393169,-6.95358698042879,-3.31373042232465,-3.24976536887213,-24.759868066263,24.8440780352648,-8.2862411153188,-24.9655373151548,9.61869369396807,-5.65780896872231,8.47305180677169,-6.29620249762223,-8.69213350189184,18.9178985364257,-6.19661415347887,14.4113997985164,-11.3639102852713,11.1304650818547,-10.8029448260519,4.56771526979394,8.16027046850573,-21.4990643301404,28.4892981167194,-2.43260597443828,7.10427327281504,4.11254081577077,7.83326582031624,15.5366972209301,-6.25597629292551,15.3959159012973,-11.479571840655,-4.35220161740784,-4.41628086146956,2.73556745914342,-2.06177689063824,8.55780339640094,-14.2261797804264,14.988515971592,0.379780628217263,-25.140703672997,10.3061452828631,-7.46467124153638,-6.8850177045318,6.10199565823471,3.51151920416717,5.57582482374337,-24.0290158760572,-4.27820126697667,1.14001965442681,8.06925603664332,0.688515610916742,2.06112884561698,-7.64699417409563,-9.42543247680248,-26.5614269204137,-2.05096552241607,4.46075172897152,-8.0705080361807,1.74001636355762,-19.2447720353185,31.4143190285055,-11.6069774850227,13.2170211859641,-13.4520492519203,8.48384376572477,-21.9514954526725,-18.0075191181346,-13.3403899345087,-14.2214813539701,-9.0416667950683,2.3251119803992,-17.77125267066,9.82231117721089,7.43735231044993,39.8434376876011,9.10889289537176,-12.033513275477,12.5595205418188,29.0600443838257,-0.07137286183666,-9.74001777771425,11.9437167110166,12.1036823965098,39.3078955157953,-7.3072518608266,-3.84422425847406,-0.0239352831021051,-33.2807045751951,-11.6958794409839,-0.443800781982178,-27.1731870086748,-2.50109527564726,2.30641680065888,-7.01572505313432,11.9177294078735,-23.8085472726174,11.0198310143755,-0.985814316496625,-19.747447141628,-4.21394432747184,12.9883476169436,-20.9057638640168,7.86541435830169,17.3841634494302,2.56354690856658,-9.09882050914826,-3.4981791452475,-6.88128101520992,-3.07591883079044,6.05267694031466,15.4883189534022,-11.7622161162273,0.337812124896095,14.1780080171883,-3.50938494469803,-2.73428871615985,7.57440510268377,-0.387578329091619,13.1920164403002,-0.435332951838922,-8.70156429054618,-5.6625639654425,-12.7862080648659,3.76993872355617,4.56695037904019,9.37878118193261,-1.33695150250862,8.81461823931114,-0.778440028459428,-0.428919930779373,-3.9787838182274,2.53494508571549,-13.6554177734817,20.0149964144392,-3.23806470877066,-7.00751403420977,-16.252206347189,-8.1479159706642,19.5215429934901,21.0302553865856,-11.1552865761446,4.2920094189657,5.89372375662445,3.32268647548145,-20.8445862120514,-1.16112093861948,-11.0464985777552,-8.35045568459355,7.79045279840047,9.98339468375246,-7.36726245103561,-4.51237642630739,11.1178333405142,-9.80290196592323,6.52736668363457,-8.49562022244484,2.51952202925751,-8.01238766962778,-13.6231117168569,-0.967953817850527,2.62106917339255,4.38960241006284,0.587683967093088,-3.25206516099816,3.95420049281912,0.410459708516317,-1.75272490406565,-3.83083923662808,3.32428514220289,11.6895023183144,5.2044340894053,-18.4100103017347,2.20216986527232,3.99966850796576,17.9873762487275,-6.08489094914837,1.56198596211839,21.348000757318,-3.33561349348132,7.60282690827207,23.3424465634758,-3.14156367985766,-7.89813942631127,-2.56935116732414,-0.0634698433647664,20.4391814026814,14.3246511229622,12.9309351675817,-1.4931139963968,-0.445697110841027,-4.70106600736615,-0.381141502411457,9.22222930676348,-0.530416843501983,-8.81541902307664,-0.0486253413312181,-6.62938881479391,10.597402762142,13.5598618157379,-9.96213363168041,16.0453384228769,-10.653098663508,8.76312911947855,-9.90103223790573,6.09141467891731,-4.42548362255424,-16.8744922545696,-12.470803464334,2.45770420551813,3.09876782126781,-9.58556733442331,-12.5842566657206,-0.582072590527156,6.37842543154439,2.76817158017893,7.79748044420125,28.2387063116975,-22.9908858664621,25.392711611997,-5.56412580396328,5.65407150696643,20.1097608788253,-21.9992483916561,-0.0247461784190568,3.91934470557475,-3.24830778592367,4.66466287396361,10.3938435151748,20.9959640705232,-19.933992663408,6.94203454531087,-10.925823133776,11.6927904516239,28.6529252926491,17.8249937506871,-9.24753473485609,9.86370175184276,-1.23516622458134,5.20502064525774,10.3959567264429,-43.2864983964503,12.8515777749891,1,1,1,1,1,1,1,1,1,1,1,1,1,1,1,1,1,1,1,1,1,1,1,1,1,1,1,1,1,1,1,1,1,1,1,1,1,1,1,1,1,1,1,1,1,1,1,1,1,1,1,1,1,1,1,1,1,1,1,1,1,1,1,1,1,1,1,1,1,1,1,1,1,1,1,1,1,1,1,1,1,1,1,1,1,1,1,1,1,1,1,1,1,1,1,1,1,1,1,1,1,1,1,1,1,1,1,1,1,1,1,1,1,1,1,1,1,1,1,1,1,1,1,1,1,1,1,1,1,1,1,1,1,1,1,1,1,1,1,1,1,1,1,1,1,1,1,1,1,1,1,1,1,1,1,1,1,1,1,1,1,1,1,1,1,1,1,1,1,1,1,1,1,1,1,1,1,1,1,1,1,1,1,1,1,1,1,1,1,1,1,1,1,1,1,1,1,1,1,1,1,1,1,1,1,1,1,1,1,1,1,1,1,1,1,1,1,1,1,1,1,1,1,1,1,1,1,1,1,1,1,1,1,1,1,1,1,1,1,1,1,1,1,1,1,1,1,1,1,1,1,1,1,1,1,1,1,1,1,1,1,1,1,1,1,1,1,1,1,1
