306.691379029626,156.128668056861,3.60215321444071,-64.8113630485675,166.981843712382,17.0278793569971,-54.0917464973501,20.1520210860484,-15.7432482615946,9.23732685957109,57.5438157335355,19.0593120574464,49.0116735352922,-54.084221501092,17.8110890589449,-8.36655708440926,-40.4661314870312,3.94212041452804,-40.7762039829738,-35.846433036237,-16.4838778356028,6.55575282778661,-105.223867427756,-39.5453884159064,14.2210741468611,41.8966819995232,6.39515164372342,-79.2413147228611,81.6227945868971,-1.52983486639767,66.5620599693045,76.3745531252881,6.26117995179947,-25.8743841265014,-54.0857582127096,-28.2647672963202,-5.73355183897096,12.6188394789911,-27.5691877725146,-32.448698859923,2.45481792967225,25.8623447585882,-17.5978706414378,-48.1863907358355,72.4005423925431,-53.9620133775478,35.4098093390085,-60.4602180275734,-7.54893092097525,8.73474931847525,2.04099251016843,-16.7546226831053,18.4310397509973,13.3955117792063,5.1888934136696,105.992975281987,-21.2215406094051,-27.2122104000054,74.9876428925878,-7.30386352073934,26.6984524265725,44.9861764452829,-12.2987377128738,-55.0890645065593,-62.2347578691659,-15.5649733042121,-12.7499924347406,-46.6150641671115,-8.37128838009395,46.5020752794247,67.4557070941367,-17.4196030772446,-21.4971053659976,76.9423211155763,14.4372956519808,22.4106075705033,39.6066220089239,8.0326821518274,42.0088023063983,-25.5031711889474,11.1198697971809,-16.9512260254276,19.5571602705991,32.1867474864651,11.9331061452042,-7.49432299934071,-8.03986879136056,-3.59550886510698,62.9520122408615,58.5604005833474,36.8680634929001,63.3527551941829,-15.0775577074406,-34.2193254031213,39.4127598883648,-51.5587013909259,-7.16379039940243,-19.1476814445853,52.0348752820926,111.021714695667,-61.208334557524,27.5357568100494,5.56563131508728,-15.2870074524701,46.5568378022461,-1.61973242513876,60.3608453794967,-76.3673304085129,10.7661916429006,-9.34198692003791,23.0762122595483,-101.115858991082,13.4259876764602,-38.989252256094,127.741992189106,-25.9760026888951,81.3784772618054,19.7846673204676,2.18369228233969,38.1531835021112,-45.1088697081943,17.5431559020964,108.391707219149,4.95430180704444,-1.33258872921392,29.6954145130538,-26.8396451987222,-38.5280801895742,17.670129579583,26.3644169655379,-22.6316616406445,-18.3068059564201,98.2744016974211,-62.9040599064057,-37.1772007982055,116.288249248704,22.1995051132264,-15.7323835358515,23.6297868985294,-99.8364102054179,24.9993781496649,32.5032256162234,59.0476914462471,56.7917981745879,-30.2975870164461,4.98994921614111,-45.539151784424,11.5138109301254,42.8449175720703,-44.1998346659057,29.0455214504172,-18.0019922793703,77.5631729683627,45.5099561360145,-8.72158617137793,-19.3371566103634,2.86075303733483,4.36156429634337,4.37366666507923,-28.1994917047086,11.3467409381161,-39.9797261043084,-37.975566838094,3.85236878138682,-41.5493981283245,4.08831734511458,-91.3030946364251,10.5477000989355,32.12148440518,-36.6908422454239,42.4976073059482,57.4647874871346,35.5158382900858,47.964857853265,20.4480295506007,-5.58706190680797,-86.4164391170244,31.1905461221834,54.7905812269234,53.4282290304705,46.6207663661732,64.8407304210595,32.7001070811193,20.3914583166237,-11.9959104930845,-32.4383680003433,55.2916748354924,67.3741439667064,64.9099941999124,-44.424585759198,27.8753909485859,-2.56120628220632,121.119148008342,15.7858201881197,9.54755747316967,-45.8970807979678,-18.5756761279294,49.0134332588245,-68.1633553682912,42.6690069252927,-36.5030226342122,44.3972665214512,-24.3777190358098,-9.0320030901615,-44.6636930043562,-22.9206506747218,67.3719753324713,7.14967747136409,-60.1861339508633,47.1738569633946,-36.9268437696331,7.29121140038871,-40.7272134267434,2.91930357426553,52.1303501676009,14.0016632963484,26.6060532679004,79.4735398468949,50.0224610692937,41.4250335322233,-65.11894696626,51.2552413955993,20.7226360626056,29.2850017383303,-33.8695877531684,-18.1982375598796,-37.6879074238498,41.6655050091475,16.9285168951844,-58.2475334291879,2.48016537610174,-50.5340394690357,-91.1379078933874,3.25762306421483,30.5546363307693,-6.48282422990134,-6.26130526946867,3.85638045937612,39.3494654330201,115.79660768329,35.5720308041453,-20.2805798433927,-68.9927246647184,-7.34556864144745,13.2678476702805,82.1969921095897,-6.77988975528853,5.22418935472114,-43.2731344605473,30.385408805375,28.9261618090218,66.4711220003471,-13.763616607607,-37.6206783645747,52.9211680936653,7.56644694831466,14.0649150014275,36.2663996705372,-1.10984450299344,23.0183695050687,88.9394579410919,0.702714333083545,-10.100235345088,-26.7518422202579,17.1638525876471,-4.12778828314397,29.4205579450508,18.4236289247325,51.593073510603,5.87599830994376,3.69144043366338,61.898403365178,-56.6355153370337,-29.8343591396123,-5.83772314239573,1,1,1,1,1,1,1,1,1,1,1,1,1,1,1,1,1,1,1,1,1,1,1,1,1,1,1,1,1,1,1,1,1,1,1,1,1,1,1,1,1,1,1,1,1,1,1,1,1,1,1,1,1,1,1,1,1,1,1,1,1,1,1,1,1,1,1,1,1,1,1,1,1,1,1,1,1,1,1,1,1,1,1,1,1,1,1,1,1,1,1,1,1,1,1,1,1,1,1,1,1,1,1,1,1,1,1,1,1,1,1,1,1,1,1,1,1,1,1,1,1,1,1,1,1,1,1,1,1,1,1,1,1,1,1,1,1,1,1,1,1,1,1,1,1,1,1,1,1,1,1,1,1,1,1,1,1,1,1,1,1,1,1,1,1,1,1,1,1,1,1,1,1,1,1,1,1,1,1,1,1,1,1,1,1,1,1,1,1,1,1,1,1,1,1,1,1,1,1,1,1,1,1,1,1,1,1,1,1,1,1,1,1,1,1,1,1,1,1,1,1,1,1,1,1,1,1,1,1,1,1,1,1,1,1,1,1,1,1,1,1,1,1,1,1,1,1,1,1,1,1,1,1,1,1,1,1,1,1,1,1,1,1,1,1,1,1,1,1,1,-1.30140069384697,-49.045980685741,-3.07186377309244,17.3740798946699,54.9080458075054,-14.4280135316026,-53.2190797239836,-6.85728474215949,48.0005044654755,-19.6889756829042,14.079546594013,-24.3998239979411,20.240646655258,-11.4320837173751,31.4300868453252,-10.2449796664814,-59.2563594088885,-9.5293987088667,-16.0675853844849,-11.7412643907998,-52.7161750026418,-21.2362757223965,-67.8850272148945,-16.0460597108569,-119.433449425868,19.9243132191396,-5.15980072090004,54.6427077102713,37.6973873814564,-72.0745563892894,-24.5401104239886,60.6495074635531,-3.57364842566671,-68.9113330417204,58.4574802947879,-36.934387900865,-10.9651470617167,7.58682956262924,-81.5042815157969,15.852904348693,13.1959780581996,-34.9796589399066,-5.27124709554166,-14.3745131309819,-10.9219395168237,-1.09617125034368,71.5316582510246,2.91568540281504,-4.98241832524948,-34.3681617414481,-4.77400203868421,-16.4693678800331,-31.7172113517998,-27.5085394354858,-4.15286353510693,57.3251208165768,-20.7163467309174,-49.2448670672935,-0.593193679606018,21.9960276304476,-22.509664464567,-0.61948576697382,-26.531132055295,-31.9383512460343,-35.3314661888569,-36.0237768941966,6.81685506353457,5.7049955667339,2.21031592271906,-18.8478855773278,-27.5216943057488,6.67179700191176,-25.9913581210613,24.3702978534097,-3.5313914292987,6.35891763903301,15.6877962036705,-7.42878571139834,-10.4737714625849,30.1311564428115,-19.8036347422745,8.86538478582897,-26.7158236476631,42.8753622885731,44.2581280002282,-42.0072202323946,-18.2696083435716,-33.352617243543,8.505988642382,-6.28650546018495,0.980785254237162,7.011325072965,-33.7990236409345,28.9485560486943,26.1014100244904,-41.4287834866258,-4.62426658902845,-57.840382858818,42.5044340673359,-34.5628443713815,7.39935333496503,39.0095319044709,-29.3888258737745,29.9544261238571,-9.95474893356048,10.1615862911113,14.9374658087786,-25.3148001725689,-6.7370696402269,-51.8122974133215,-18.3094013695702,-66.4124102109174,-35.4277272240481,2.67447965255073,-8.37419494772974,-3.79641410225233,-4.46849229450949,-46.7257700464223,13.8599993790332,-24.4305564366408,17.4163862892765,8.39262276870435,-0.356616864889754,78.5732330681343,5.06066626186396,10.6251571810354,-20.6629143429267,7.2479491764535,42.0857915086395,29.1832192200957,22.7815744606403,-16.548772655629,-66.186520439205,39.1819525756503,-62.1678295706518,50.3200085179133,15.9512643998225,1.43804992118524,10.1674525077937,25.7616702165446,56.639496846217,-63.5800745710372,-67.8968165284191,7.33131659459608,-54.0104677499481,-16.1508614791421,0.274464126361482,25.3817611606234,23.8093626947421,-11.5251037409674,23.1657507916371,-5.24371471275451,43.530333148564,7.40945919233324,13.7717310935474,47.6813503418416,31.3302918803216,-35.4605650303918,45.542804284811,-7.3909437158833,26.2790053011724,24.2562804133729,-10.1555350532876,43.5198312714509,-7.66099369441227,-51.5482648167633,22.3761904853628,45.2665201199533,-11.4692464142594,-64.0118995251683,8.6778743153483,-21.2153610840974,17.0177960970966,34.4066781347613,75.7882782050328,62.9606928061598,-25.8601912310953,39.9684608325753,-12.9885215768609,0.94954515030956,11.9148346361224,23.3961369615427,12.8147822283646,46.3540804606295,-2.4426787160118,35.1717100540637,-43.7382307542186,18.8787234326841,23.4449511159094,59.2649617151662,-18.6576006308729,-77.1319969914676,-23.7077112375094,53.0662608113523,-9.34531769275224,19.9360064989398,42.0919427981764,-2.2895899632417,-0.832230797501588,-27.9937193892623,-8.40222991522253,-49.1532253743906,8.83162680205747,-19.298473267679,74.8844292492366,-0.856545299012108,-4.62828277627097,33.1180960965449,-41.0436922470824,-28.8022192480684,-20.9426425191711,-13.0909246160424,44.2582286336225,-46.0111403564002,37.2272725161991,-15.2167946578251,-18.9884204230827,-86.3032214975504,-86.7237929138459,-60.0366124478796,35.622640026835,29.770223574121,43.1307961601264,-1.36791767905949,-34.1088552448396,10.2569263742336,-5.03114819773651,-46.1505992833396,-73.6275302778262,-24.9188565817314,48.2660272601867,10.7455864933115,-77.1221163785355,-12.6357730117032,11.8237999211961,-0.0202536075705639,26.1849855648068,15.2919906669435,-15.2225435640132,-13.3849220182917,-21.0417243478107,-2.88126798244683,-17.5644130127283,34.5769414239323,16.6319740872312,6.97802343893976,6.29087904922533,-41.5167520267707,43.2262708288759,28.1528897929886,-53.4997386443959,6.23818997797199,-36.3251347695628,13.0669871753259,-31.1830569246424,24.7280230948908,-36.5308075661991,43.7677785670712,15.6715917628297,57.659393796719,-26.5675904501863,67.2730916608618,47.4574840102417,79.1138210237473,1.6341116655628,-71.0016622286859,-25.5086895832068,44.352768752628,-87.8960810562825,45.3695481183814,1,1,1,1,1,1,1,1,1,1,1,1,1,1,1,1,1,1,1,1,1,1,1,1,1,1,1,1,1,1,1,1,1,1,1,1,1,1,1,1,1,1,1,1,1,1,1,1,1,1,1,1,1,1,1,1,1,1,1,1,1,1,1,1,1,1,1,1,1,1,1,1,1,1,1,1,1,1,1,1,1,1,1,1,1,1,1,1,1,1,1,1,1,1,1,1,1,1,1,1,1,1,1,1,1,1,1,1,1,1,1,1,1,1,1,1,1,1,1,1,1,1,1,1,1,1,1,1,1,1,1,1,1,1,1,1,1,1,1,1,1,1,1,1,1,1,1,1,1,1,1,1,1,1,1,1,1,1,1,1,1,1,1,1,1,1,1,1,1,1,1,1,1,1,1,1,1,1,1,1,1,1,1,1,1,1,1,1,1,1,1,1,1,1,1,1,1,1,1,1,1,1,1,1,1,1,1,1,1,1,1,1,1,1,1,1,1,1,1,1,1,1,1,1,1,1,1,1,1,1,1,1,1,1,1,1,1,1,1,1,1,1,1,1,1,1,1,1,1,1,1,1,1,1,1,1,1,1,1,1,1,1,1,1,1,1,1,1,1,1,-80.2254373469959,51.3368013045131,17.0278793569971,-54.0917464973501,20.1520210860484,-15.7432482615946,9.23732685957109,57.5438157335355,19.0593120574464,49.0116735352922,-54.084221501092,17.8110890589449,-8.36655708440926,-40.4661314870312,3.94212041452804,-40.7762039829738,-35.846433036237,-16.4838778356028,6.55575282778661,-105.223867427756,-39.5453884159064,14.2210741468611,41.8966819995232,6.39515164372342,-79.2413147228611,81.6227945868971,-1.52983486639767,66.5620599693045,76.3745531252881,6.26117995179947,-25.8743841265014,-54.0857582127096,-28.2647672963202,-5.73355183897096,12.6188394789911,-27.5691877725146,-32.448698859923,2.45481792967225,25.8623447585882,-17.5978706414378,-48.1863907358355,72.4005423925431,-53.9620133775478,35.4098093390085,-60.4602180275734,-7.54893092097525,8.73474931847525,2.04099251016843,-16.7546226831053,18.4310397509973,13.3955117792063,5.1888934136696,105.992975281987,-21.2215406094051,-27.2122104000054,74.9876428925878,-7.30386352073934,26.6984524265725,44.9861764452829,-12.2987377128738,-55.0890645065593,-62.2347578691659,-15.5649733042121,-12.7499924347406,-46.6150641671115,-8.37128838009395,46.5020752794247,67.4557070941367,-17.4196030772446,-21.4971053659976,76.9423211155763,14.4372956519808,22.4106075705033,39.6066220089239,8.0326821518274,42.0088023063983,-25.5031711889474,11.1198697971809,-16.9512260254276,19.5571602705991,32.1867474864651,11.9331061452042,-7.49432299934071,-8.03986879136056,-3.59550886510698,62.9520122408615,58.5604005833474,36.8680634929001,63.3527551941829,-15.0775577074406,-34.2193254031213,39.4127598883648,-51.5587013909259,-7.16379039940243,-19.1476814445853,52.0348752820926,111.021714695667,-61.208334557524,27.5357568100494,5.56563131508728,-15.2870074524701,46.5568378022461,-1.61973242513876,60.3608453794967,-76.3673304085129,10.7661916429006,-9.34198692003791,23.0762122595483,-101.115858991082,13.4259876764602,-38.989252256094,127.741992189106,-25.9760026888951,81.3784772618054,19.7846673204676,2.18369228233969,38.1531835021112,-45.1088697081943,17.5431559020964,108.391707219149,4.95430180704444,-1.33258872921392,29.6954145130538,-26.8396451987222,-38.5280801895742,17.670129579583,26.3644169655379,-22.6316616406445,-18.3068059564201,98.2744016974211,-62.9040599064057,-37.1772007982055,116.288249248704,22.1995051132264,-15.7323835358515,23.6297868985294,-99.8364102054179,24.9993781496649,32.5032256162234,59.0476914462471,56.7917981745879,-30.2975870164461,4.98994921614111,-45.539151784424,11.5138109301254,42.8449175720703,-44.1998346659057,29.0455214504172,-18.0019922793703,77.5631729683627,45.5099561360145,-8.72158617137793,-19.3371566103634,2.86075303733483,4.36156429634337,4.37366666507923,-28.1994917047086,11.3467409381161,-39.9797261043084,-37.975566838094,3.85236878138682,-41.5493981283245,4.08831734511458,-91.3030946364251,10.5477000989355,32.12148440518,-36.6908422454239,42.4976073059482,57.4647874871346,35.5158382900858,47.964857853265,20.4480295506007,-5.58706190680797,-86.4164391170244,31.1905461221834,54.7905812269234,53.4282290304705,46.6207663661732,64.8407304210595,32.7001070811193,20.3914583166237,-11.9959104930845,-32.4383680003433,55.2916748354924,67.3741439667064,64.9099941999124,-44.424585759198,27.8753909485859,-2.56120628220632,121.119148008342,15.7858201881197,9.54755747316967,-45.8970807979678,-18.5756761279294,49.0134332588245,-68.1633553682912,42.6690069252927,-36.5030226342122,44.3972665214512,-24.3777190358098,-9.0320030901615,-44.6636930043562,-22.9206506747218,67.3719753324713,7.14967747136409,-60.1861339508633,47.1738569633946,-36.9268437696331,7.29121140038871,-40.7272134267434,2.91930357426553,52.1303501676009,14.0016632963484,26.6060532679004,79.4735398468949,50.0224610692937,41.4250335322233,-65.11894696626,51.2552413955993,20.7226360626056,29.2850017383303,-33.8695877531684,-18.1982375598796,-37.6879074238498,41.6655050091475,16.9285168951844,-58.2475334291879,2.48016537610174,-50.5340394690357,-91.1379078933874,3.25762306421483,30.5546363307693,-6.48282422990134,-6.26130526946867,3.85638045937612,39.3494654330201,115.79660768329,35.5720308041453,-20.2805798433927,-68.9927246647184,-7.34556864144745,13.2678476702805,82.1969921095897,-6.77988975528853,5.22418935472114,-43.2731344605473,30.385408805375,28.9261618090218,66.4711220003471,-13.763616607607,-37.6206783645747,52.9211680936653,7.56644694831466,14.0649150014275,36.2663996705372,-1.10984450299344,23.0183695050687,88.9394579410919,0.702714333083545,-10.100235345088,-26.7518422202579,17.1638525876471,-4.12778828314397,29.4205579450508,18.4236289247325,51.593073510603,5.87599830994376,3.69144043366338,61.898403365178,-56.6355153370337,-29.8343591396123,-5.83772314239573,1,1,1,1,1,1,1,1,1,1,1,1,1,1,1,1,1,1,1,1,1,1,1,1,1,1,1,1,1,1,1,1,1,1,1,1,1,1,1,1,1,1,1,1,1,1,1,1,1,1,1,1,1,1,1,1,1,1,1,1,1,1,1,1,1,1,1,1,1,1,1,1,1,1,1,1,1,1,1,1,1,1,1,1,1,1,1,1,1,1,1,1,1,1,1,1,1,1,1,1,1,1,1,1,1,1,1,1,1,1,1,1,1,1,1,1,1,1,1,1,1,1,1,1,1,1,1,1,1,1,1,1,1,1,1,1,1,1,1,1,1,1,1,1,1,1,1,1,1,1,1,1,1,1,1,1,1,1,1,1,1,1,1,1,1,1,1,1,1,1,1,1,1,1,1,1,1,1,1,1,1,1,1,1,1,1,1,1,1,1,1,1,1,1,1,1,1,1,1,1,1,1,1,1,1,1,1,1,1,1,1,1,1,1,1,1,1,1,1,1,1,1,1,1,1,1,1,1,1,1,1,1,1,1,1,1,1,1,1,1,1,1,1,1,1,1,1,1,1,1,1,1,1,1,1,1,1,1,1,1,1,1,1,1,1,1,1,1,1,1,-1.30140069384697,-49.045980685741,-3.07186377309244,17.3740798946699,54.9080458075054,-14.4280135316026,-53.2190797239836,-6.85728474215949,48.0005044654755,-19.6889756829042,14.079546594013,-24.3998239979411,20.240646655258,-11.4320837173751,31.4300868453252,-10.2449796664814,-59.2563594088885,-9.5293987088667,-16.0675853844849,-11.7412643907998,-52.7161750026418,-21.2362757223965,-67.8850272148945,-16.0460597108569,-119.433449425868,19.9243132191396,-5.15980072090004,54.6427077102713,37.6973873814564,-72.0745563892894,-24.5401104239886,60.6495074635531,-3.57364842566671,-68.9113330417204,58.4574802947879,-36.934387900865,-10.9651470617167,7.58682956262924,-81.5042815157969,15.852904348693,13.1959780581996,-34.9796589399066,-5.27124709554166,-14.3745131309819,-10.9219395168237,-1.09617125034368,71.5316582510246,2.91568540281504,-4.98241832524948,-34.3681617414481,-4.77400203868421,-16.4693678800331,-31.7172113517998,-27.5085394354858,-4.15286353510693,57.3251208165768,-20.7163467309174,-49.2448670672935,-0.593193679606018,21.9960276304476,-22.509664464567,-0.61948576697382,-26.531132055295,-31.9383512460343,-35.3314661888569,-36.0237768941966,6.81685506353457,5.7049955667339,2.21031592271906,-18.8478855773278,-27.5216943057488,6.67179700191176,-25.9913581210613,24.3702978534097,-3.5313914292987,6.35891763903301,15.6877962036705,-7.42878571139834,-10.4737714625849,30.1311564428115,-19.8036347422745,8.86538478582897,-26.7158236476631,42.8753622885731,44.2581280002282,-42.0072202323946,-18.2696083435716,-33.352617243543,8.505988642382,-6.28650546018495,0.980785254237162,7.011325072965,-33.7990236409345,28.9485560486943,26.1014100244904,-41.4287834866258,-4.62426658902845,-57.840382858818,42.5044340673359,-34.5628443713815,7.39935333496503,39.0095319044709,-29.3888258737745,29.9544261238571,-9.95474893356048,10.1615862911113,14.9374658087786,-25.3148001725689,-6.7370696402269,-51.8122974133215,-18.3094013695702,-66.4124102109174,-35.4277272240481,2.67447965255073,-8.37419494772974,-3.79641410225233,-4.46849229450949,-46.7257700464223,13.8599993790332,-24.4305564366408,17.4163862892765,8.39262276870435,-0.356616864889754,78.5732330681343,5.06066626186396,10.6251571810354,-20.6629143429267,7.2479491764535,42.0857915086395,29.1832192200957,22.7815744606403,-16.548772655629,-66.186520439205,39.1819525756503,-62.1678295706518,50.3200085179133,15.9512643998225,1.43804992118524,10.1674525077937,25.7616702165446,56.639496846217,-63.5800745710372,-67.8968165284191,7.33131659459608,-54.0104677499481,-16.1508614791421,0.274464126361482,25.3817611606234,23.8093626947421,-11.5251037409674,23.1657507916371,-5.24371471275451,43.530333148564,7.40945919233324,13.7717310935474,47.6813503418416,31.3302918803216,-35.4605650303918,45.542804284811,-7.3909437158833,26.2790053011724,24.2562804133729,-10.1555350532876,43.5198312714509,-7.66099369441227,-51.5482648167633,22.3761904853628,45.2665201199533,-11.4692464142594,-64.0118995251683,8.6778743153483,-21.2153610840974,17.0177960970966,34.4066781347613,75.7882782050328,62.9606928061598,-25.8601912310953,39.9684608325753,-12.9885215768609,0.94954515030956,11.9148346361224,23.3961369615427,12.8147822283646,46.3540804606295,-2.4426787160118,35.1717100540637,-43.7382307542186,18.8787234326841,23.4449511159094,59.2649617151662,-18.6576006308729,-77.1319969914676,-23.7077112375094,53.0662608113523,-9.34531769275224,19.9360064989398,42.0919427981764,-2.2895899632417,-0.832230797501588,-27.9937193892623,-8.40222991522253,-49.1532253743906,8.83162680205747,-19.298473267679,74.8844292492366,-0.856545299012108,-4.62828277627097,33.1180960965449,-41.0436922470824,-28.8022192480684,-20.9426425191711,-13.0909246160424,44.2582286336225,-46.0111403564002,37.2272725161991,-15.2167946578251,-18.9884204230827,-86.3032214975504,-86.7237929138459,-60.0366124478796,35.622640026835,29.770223574121,43.1307961601264,-1.36791767905949,-34.1088552448396,10.2569263742336,-5.03114819773651,-46.1505992833396,-73.6275302778262,-24.9188565817314,48.2660272601867,10.7455864933115,-77.1221163785355,-12.6357730117032,11.8237999211961,-0.0202536075705639,26.1849855648068,15.2919906669435,-15.2225435640132,-13.3849220182917,-21.0417243478107,-2.88126798244683,-17.5644130127283,34.5769414239323,16.6319740872312,6.97802343893976,6.29087904922533,-41.5167520267707,43.2262708288759,28.1528897929886,-53.4997386443959,6.23818997797199,-36.3251347695628,13.0669871753259,-31.1830569246424,24.7280230948908,-36.5308075661991,43.7677785670712,15.6715917628297,57.659393796719,-26.5675904501863,67.2730916608618,47.4574840102417,79.1138210237473,1.6341116655628,-71.0016622286859,-25.5086895832068,44.352768752628,-87.8960810562825,45.3695481183814,1,1,1,1,1,1,1,1,1,1,1,1,1,1,1,1,1,1,1,1,1,1,1,1,1,1,1,1,1,1,1,1,1,1,1,1,1,1,1,1,1,1,1,1,1,1,1,1,1,1,1,1,1,1,1,1,1,1,1,1,1,1,1,1,1,1,1,1,1,1,1,1,1,1,1,1,1,1,1,1,1,1,1,1,1,1,1,1,1,1,1,1,1,1,1,1,1,1,1,1,1,1,1,1,1,1,1,1,1,1,1,1,1,1,1,1,1,1,1,1,1,1,1,1,1,1,1,1,1,1,1,1,1,1,1,1,1,1,1,1,1,1,1,1,1,1,1,1,1,1,1,1,1,1,1,1,1,1,1,1,1,1,1,1,1,1,1,1,1,1,1,1,1,1,1,1,1,1,1,1,1,1,1,1,1,1,1,1,1,1,1,1,1,1,1,1,1,1,1,1,1,1,1,1,1,1,1,1,1,1,1,1,1,1,1,1,1,1,1,1,1,1,1,1,1,1,1,1,1,1,1,1,1,1,1,1,1,1,1,1,1,1,1,1,1,1,1,1,1,1,1,1,1,1,1,1,1,1,1,1,1,1,1,1,1,1,1,1,1,1,41.3765579187808,135.630226989076,17.0278793569971,-54.0917464973501,20.1520210860484,-15.7432482615946,9.23732685957109,57.5438157335355,19.0593120574464,49.0116735352922,-54.084221501092,17.8110890589449,-8.36655708440926,-40.4661314870312,3.94212041452804,-40.7762039829738,-35.846433036237,-16.4838778356028,6.55575282778661,-105.223867427756,-39.5453884159064,14.2210741468611,41.8966819995232,6.39515164372342,-79.2413147228611,81.6227945868971,-1.52983486639767,66.5620599693045,76.3745531252881,6.26117995179947,-25.8743841265014,-54.0857582127096,-28.2647672963202,-5.73355183897096,12.6188394789911,-27.5691877725146,-32.448698859923,2.45481792967225,25.8623447585882,-17.5978706414378,-48.1863907358355,72.4005423925431,-53.9620133775478,35.4098093390085,-60.4602180275734,-7.54893092097525,8.73474931847525,2.04099251016843,-16.7546226831053,18.4310397509973,13.3955117792063,5.1888934136696,105.992975281987,-21.2215406094051,-27.2122104000054,74.9876428925878,-7.30386352073934,26.6984524265725,44.9861764452829,-12.2987377128738,-55.0890645065593,-62.2347578691659,-15.5649733042121,-12.7499924347406,-46.6150641671115,-8.37128838009395,46.5020752794247,67.4557070941367,-17.4196030772446,-21.4971053659976,76.9423211155763,14.4372956519808,22.4106075705033,39.6066220089239,8.0326821518274,42.0088023063983,-25.5031711889474,11.1198697971809,-16.9512260254276,19.5571602705991,32.1867474864651,11.9331061452042,-7.49432299934071,-8.03986879136056,-3.59550886510698,62.9520122408615,58.5604005833474,36.8680634929001,63.3527551941829,-15.0775577074406,-34.2193254031213,39.4127598883648,-51.5587013909259,-7.16379039940243,-19.1476814445853,52.0348752820926,111.021714695667,-61.208334557524,27.5357568100494,5.56563131508728,-15.2870074524701,46.5568378022461,-1.61973242513876,60.3608453794967,-76.3673304085129,10.7661916429006,-9.34198692003791,23.0762122595483,-101.115858991082,13.4259876764602,-38.989252256094,127.741992189106,-25.9760026888951,81.3784772618054,19.7846673204676,2.18369228233969,38.1531835021112,-45.1088697081943,17.5431559020964,108.391707219149,4.95430180704444,-1.33258872921392,29.6954145130538,-26.8396451987222,-38.5280801895742,17.670129579583,26.3644169655379,-22.6316616406445,-18.3068059564201,98.2744016974211,-62.9040599064057,-37.1772007982055,116.288249248704,22.1995051132264,-15.7323835358515,23.6297868985294,-99.8364102054179,24.9993781496649,32.5032256162234,59.0476914462471,56.7917981745879,-30.2975870164461,4.98994921614111,-45.539151784424,11.5138109301254,42.8449175720703,-44.1998346659057,29.0455214504172,-18.0019922793703,77.5631729683627,45.5099561360145,-8.72158617137793,-19.3371566103634,2.86075303733483,4.36156429634337,4.37366666507923,-28.1994917047086,11.3467409381161,-39.9797261043084,-37.975566838094,3.85236878138682,-41.5493981283245,4.08831734511458,-91.3030946364251,10.5477000989355,32.12148440518,-36.6908422454239,42.4976073059482,57.4647874871346,35.5158382900858,47.964857853265,20.4480295506007,-5.58706190680797,-86.4164391170244,31.1905461221834,54.7905812269234,53.4282290304705,46.6207663661732,64.8407304210595,32.7001070811193,20.3914583166237,-11.9959104930845,-32.4383680003433,55.2916748354924,67.3741439667064,64.9099941999124,-44.424585759198,27.8753909485859,-2.56120628220632,121.119148008342,15.7858201881197,9.54755747316967,-45.8970807979678,-18.5756761279294,49.0134332588245,-68.1633553682912,42.6690069252927,-36.5030226342122,44.3972665214512,-24.3777190358098,-9.0320030901615,-44.6636930043562,-22.9206506747218,67.3719753324713,7.14967747136409,-60.1861339508633,47.1738569633946,-36.9268437696331,7.29121140038871,-40.7272134267434,2.91930357426553,52.1303501676009,14.0016632963484,26.6060532679004,79.4735398468949,50.0224610692937,41.4250335322233,-65.11894696626,51.2552413955993,20.7226360626056,29.2850017383303,-33.8695877531684,-18.1982375598796,-37.6879074238498,41.6655050091475,16.9285168951844,-58.2475334291879,2.48016537610174,-50.5340394690357,-91.1379078933874,3.25762306421483,30.5546363307693,-6.48282422990134,-6.26130526946867,3.85638045937612,39.3494654330201,115.79660768329,35.5720308041453,-20.2805798433927,-68.9927246647184,-7.34556864144745,13.2678476702805,82.1969921095897,-6.77988975528853,5.22418935472114,-43.2731344605473,30.385408805375,28.9261618090218,66.4711220003471,-13.763616607607,-37.6206783645747,52.9211680936653,7.56644694831466,14.0649150014275,36.2663996705372,-1.10984450299344,23.0183695050687,88.9394579410919,0.702714333083545,-10.100235345088,-26.7518422202579,17.1638525876471,-4.12778828314397,29.4205579450508,18.4236289247325,51.593073510603,5.87599830994376,3.69144043366338,61.898403365178,-56.6355153370337,-29.8343591396123,-5.83772314239573,1,1,1,1,1,1,1,1,1,1,1,1,1,1,1,1,1,1,1,1,1,1,1,1,1,1,1,1,1,1,1,1,1,1,1,1,1,1,1,1,1,1,1,1,1,1,1,1,1,1,1,1,1,1,1,1,1,1,1,1,1,1,1,1,1,1,1,1,1,1,1,1,1,1,1,1,1,1,1,1,1,1,1,1,1,1,1,1,1,1,1,1,1,1,1,1,1,1,1,1,1,1,1,1,1,1,1,1,1,1,1,1,1,1,1,1,1,1,1,1,1,1,1,1,1,1,1,1,1,1,1,1,1,1,1,1,1,1,1,1,1,1,1,1,1,1,1,1,1,1,1,1,1,1,1,1,1,1,1,1,1,1,1,1,1,1,1,1,1,1,1,1,1,1,1,1,1,1,1,1,1,1,1,1,1,1,1,1,1,1,1,1,1,1,1,1,1,1,1,1,1,1,1,1,1,1,1,1,1,1,1,1,1,1,1,1,1,1,1,1,1,1,1,1,1,1,1,1,1,1,1,1,1,1,1,1,1,1,1,1,1,1,1,1,1,1,1,1,1,1,1,1,1,1,1,1,1,1,1,1,1,1,1,1,1,1,1,1,1,1,-1.30140069384697,-49.045980685741,-3.07186377309244,17.3740798946699,54.9080458075054,-14.4280135316026,-53.2190797239836,-6.85728474215949,48.0005044654755,-19.6889756829042,14.079546594013,-24.3998239979411,20.240646655258,-11.4320837173751,31.4300868453252,-10.2449796664814,-59.2563594088885,-9.5293987088667,-16.0675853844849,-11.7412643907998,-52.7161750026418,-21.2362757223965,-67.8850272148945,-16.0460597108569,-119.433449425868,19.9243132191396,-5.15980072090004,54.6427077102713,37.6973873814564,-72.0745563892894,-24.5401104239886,60.6495074635531,-3.57364842566671,-68.9113330417204,58.4574802947879,-36.934387900865,-10.9651470617167,7.58682956262924,-81.5042815157969,15.852904348693,13.1959780581996,-34.9796589399066,-5.27124709554166,-14.3745131309819,-10.9219395168237,-1.09617125034368,71.5316582510246,2.91568540281504,-4.98241832524948,-34.3681617414481,-4.77400203868421,-16.4693678800331,-31.7172113517998,-27.5085394354858,-4.15286353510693,57.3251208165768,-20.7163467309174,-49.2448670672935,-0.593193679606018,21.9960276304476,-22.509664464567,-0.61948576697382,-26.531132055295,-31.9383512460343,-35.3314661888569,-36.0237768941966,6.81685506353457,5.7049955667339,2.21031592271906,-18.8478855773278,-27.5216943057488,6.67179700191176,-25.9913581210613,24.3702978534097,-3.5313914292987,6.35891763903301,15.6877962036705,-7.42878571139834,-10.4737714625849,30.1311564428115,-19.8036347422745,8.86538478582897,-26.7158236476631,42.8753622885731,44.2581280002282,-42.0072202323946,-18.2696083435716,-33.352617243543,8.505988642382,-6.28650546018495,0.980785254237162,7.011325072965,-33.7990236409345,28.9485560486943,26.1014100244904,-41.4287834866258,-4.62426658902845,-57.840382858818,42.5044340673359,-34.5628443713815,7.39935333496503,39.0095319044709,-29.3888258737745,29.9544261238571,-9.95474893356048,10.1615862911113,14.9374658087786,-25.3148001725689,-6.7370696402269,-51.8122974133215,-18.3094013695702,-66.4124102109174,-35.4277272240481,2.67447965255073,-8.37419494772974,-3.79641410225233,-4.46849229450949,-46.7257700464223,13.8599993790332,-24.4305564366408,17.4163862892765,8.39262276870435,-0.356616864889754,78.5732330681343,5.06066626186396,10.6251571810354,-20.6629143429267,7.2479491764535,42.0857915086395,29.1832192200957,22.7815744606403,-16.548772655629,-66.186520439205,39.1819525756503,-62.1678295706518,50.3200085179133,15.9512643998225,1.43804992118524,10.1674525077937,25.7616702165446,56.639496846217,-63.5800745710372,-67.8968165284191,7.33131659459608,-54.0104677499481,-16.1508614791421,0.274464126361482,25.3817611606234,23.8093626947421,-11.5251037409674,23.1657507916371,-5.24371471275451,43.530333148564,7.40945919233324,13.7717310935474,47.6813503418416,31.3302918803216,-35.4605650303918,45.542804284811,-7.3909437158833,26.2790053011724,24.2562804133729,-10.1555350532876,43.5198312714509,-7.66099369441227,-51.5482648167633,22.3761904853628,45.2665201199533,-11.4692464142594,-64.0118995251683,8.6778743153483,-21.2153610840974,17.0177960970966,34.4066781347613,75.7882782050328,62.9606928061598,-25.8601912310953,39.9684608325753,-12.9885215768609,0.94954515030956,11.9148346361224,23.3961369615427,12.8147822283646,46.3540804606295,-2.4426787160118,35.1717100540637,-43.7382307542186,18.8787234326841,23.4449511159094,59.2649617151662,-18.6576006308729,-77.1319969914676,-23.7077112375094,53.0662608113523,-9.34531769275224,19.9360064989398,42.0919427981764,-2.2895899632417,-0.832230797501588,-27.9937193892623,-8.40222991522253,-49.1532253743906,8.83162680205747,-19.298473267679,74.8844292492366,-0.856545299012108,-4.62828277627097,33.1180960965449,-41.0436922470824,-28.8022192480684,-20.9426425191711,-13.0909246160424,44.2582286336225,-46.0111403564002,37.2272725161991,-15.2167946578251,-18.9884204230827,-86.3032214975504,-86.7237929138459,-60.0366124478796,35.622640026835,29.770223574121,43.1307961601264,-1.36791767905949,-34.1088552448396,10.2569263742336,-5.03114819773651,-46.1505992833396,-73.6275302778262,-24.9188565817314,48.2660272601867,10.7455864933115,-77.1221163785355,-12.6357730117032,11.8237999211961,-0.0202536075705639,26.1849855648068,15.2919906669435,-15.2225435640132,-13.3849220182917,-21.0417243478107,-2.88126798244683,-17.5644130127283,34.5769414239323,16.6319740872312,6.97802343893976,6.29087904922533,-41.5167520267707,43.2262708288759,28.1528897929886,-53.4997386443959,6.23818997797199,-36.3251347695628,13.0669871753259,-31.1830569246424,24.7280230948908,-36.5308075661991,43.7677785670712,15.6715917628297,57.659393796719,-26.5675904501863,67.2730916608618,47.4574840102417,79.1138210237473,1.6341116655628,-71.0016622286859,-25.5086895832068,44.352768752628,-87.8960810562825,45.3695481183814,1,1,1,1,1,1,1,1,1,1,1,1,1,1,1,1,1,1,1,1,1,1,1,1,1,1,1,1,1,1,1,1,1,1,1,1,1,1,1,1,1,1,1,1,1,1,1,1,1,1,1,1,1,1,1,1,1,1,1,1,1,1,1,1,1,1,1,1,1,1,1,1,1,1,1,1,1,1,1,1,1,1,1,1,1,1,1,1,1,1,1,1,1,1,1,1,1,1,1,1,1,1,1,1,1,1,1,1,1,1,1,1,1,1,1,1,1,1,1,1,1,1,1,1,1,1,1,1,1,1,1,1,1,1,1,1,1,1,1,1,1,1,1,1,1,1,1,1,1,1,1,1,1,1,1,1,1,1,1,1,1,1,1,1,1,1,1,1,1,1,1,1,1,1,1,1,1,1,1,1,1,1,1,1,1,1,1,1,1,1,1,1,1,1,1,1,1,1,1,1,1,1,1,1,1,1,1,1,1,1,1,1,1,1,1,1,1,1,1,1,1,1,1,1,1,1,1,1,1,1,1,1,1,1,1,1,1,1,1,1,1,1,1,1,1,1,1,1,1,1,1,1,1,1,1,1,1,1,1,1,1,1,1,1,1,1,1,1,1,1
210.92051887462,-52.0783512154959,35.619276989074,-64.8113630485675,166.981843712382,17.0278793569971,-54.0917464973501,20.1520210860484,-15.7432482615946,9.23732685957109,57.5438157335355,19.0593120574464,49.0116735352922,-54.084221501092,17.8110890589449,-8.36655708440926,-40.4661314870312,3.94212041452804,-40.7762039829738,-35.846433036237,-16.4838778356028,6.55575282778661,-105.223867427756,-39.5453884159064,14.2210741468611,41.8966819995232,6.39515164372342,-79.2413147228611,81.6227945868971,-1.52983486639767,66.5620599693045,76.3745531252881,6.26117995179947,-25.8743841265014,-54.0857582127096,-28.2647672963202,-5.73355183897096,12.6188394789911,-27.5691877725146,-32.448698859923,2.45481792967225,25.8623447585882,-17.5978706414378,-48.1863907358355,72.4005423925431,-53.9620133775478,35.4098093390085,-60.4602180275734,-7.54893092097525,8.73474931847525,2.04099251016843,-16.7546226831053,18.4310397509973,13.3955117792063,5.1888934136696,105.992975281987,-21.2215406094051,-27.2122104000054,74.9876428925878,-7.30386352073934,26.6984524265725,44.9861764452829,-12.2987377128738,-55.0890645065593,-62.2347578691659,-15.5649733042121,-12.7499924347406,-46.6150641671115,-8.37128838009395,46.5020752794247,67.4557070941367,-17.4196030772446,-21.4971053659976,76.9423211155763,14.4372956519808,22.4106075705033,39.6066220089239,8.0326821518274,42.0088023063983,-25.5031711889474,11.1198697971809,-16.9512260254276,19.5571602705991,32.1867474864651,11.9331061452042,-7.49432299934071,-8.03986879136056,-3.59550886510698,62.9520122408615,58.5604005833474,36.8680634929001,63.3527551941829,-15.0775577074406,-34.2193254031213,39.4127598883648,-51.5587013909259,-7.16379039940243,-19.1476814445853,52.0348752820926,111.021714695667,-61.208334557524,27.5357568100494,5.56563131508728,-15.2870074524701,46.5568378022461,-1.61973242513876,60.3608453794967,-76.3673304085129,10.7661916429006,-9.34198692003791,23.0762122595483,-101.115858991082,13.4259876764602,-38.989252256094,127.741992189106,-25.9760026888951,81.3784772618054,19.7846673204676,2.18369228233969,38.1531835021112,-45.1088697081943,17.5431559020964,108.391707219149,4.95430180704444,-1.33258872921392,29.6954145130538,-26.8396451987222,-38.5280801895742,17.670129579583,26.3644169655379,-22.6316616406445,-18.3068059564201,98.2744016974211,-62.9040599064057,-37.1772007982055,116.288249248704,22.1995051132264,-15.7323835358515,23.6297868985294,-99.8364102054179,24.9993781496649,32.5032256162234,59.0476914462471,56.7917981745879,-30.2975870164461,4.98994921614111,-45.539151784424,11.5138109301254,42.8449175720703,-44.1998346659057,29.0455214504172,-18.0019922793703,77.5631729683627,45.5099561360145,-8.72158617137793,-19.3371566103634,2.86075303733483,4.36156429634337,4.37366666507923,-28.1994917047086,11.3467409381161,-39.9797261043084,-37.975566838094,3.85236878138682,-41.5493981283245,4.08831734511458,-91.3030946364251,10.5477000989355,32.12148440518,-36.6908422454239,42.4976073059482,57.4647874871346,35.5158382900858,47.964857853265,20.4480295506007,-5.58706190680797,-86.4164391170244,31.1905461221834,54.7905812269234,53.4282290304705,46.6207663661732,64.8407304210595,32.7001070811193,20.3914583166237,-11.9959104930845,-32.4383680003433,55.2916748354924,67.3741439667064,64.9099941999124,-44.424585759198,27.8753909485859,-2.56120628220632,121.119148008342,15.7858201881197,9.54755747316967,-45.8970807979678,-18.5756761279294,49.0134332588245,-68.1633553682912,42.6690069252927,-36.5030226342122,44.3972665214512,-24.3777190358098,-9.0320030901615,-44.6636930043562,-22.9206506747218,67.3719753324713,7.14967747136409,-60.1861339508633,47.1738569633946,-36.9268437696331,7.29121140038871,-40.7272134267434,2.91930357426553,52.1303501676009,14.0016632963484,26.6060532679004,79.4735398468949,50.0224610692937,41.4250335322233,-65.11894696626,51.2552413955993,20.7226360626056,29.2850017383303,-33.8695877531684,-18.1982375598796,-37.6879074238498,41.6655050091475,16.9285168951844,-58.2475334291879,2.48016537610174,-50.5340394690357,-91.1379078933874,3.25762306421483,30.5546363307693,-6.48282422990134,-6.26130526946867,3.85638045937612,39.3494654330201,115.79660768329,35.5720308041453,-20.2805798433927,-68.9927246647184,-7.34556864144745,13.2678476702805,82.1969921095897,-6.77988975528853,5.22418935472114,-43.2731344605473,30.385408805375,28.9261618090218,66.4711220003471,-13.763616607607,-37.6206783645747,52.9211680936653,7.56644694831466,14.0649150014275,36.2663996705372,-1.10984450299344,23.0183695050687,88.9394579410919,0.702714333083545,-10.100235345088,-26.7518422202579,17.1638525876471,-4.12778828314397,29.4205579450508,18.4236289247325,51.593073510603,5.87599830994376,3.69144043366338,61.898403365178,-56.6355153370337,-29.8343591396123,-5.83772314239573,1,1,1,1,1,1,1,1,1,1,1,1,1,1,1,1,1,1,1,1,1,1,1,1,1,1,1,1,1,1,1,1,1,1,1,1,1,1,1,1,1,1,1,1,1,1,1,1,1,1,1,1,1,1,1,1,1,1,1,1,1,1,1,1,1,1,1,1,1,1,1,1,1,1,1,1,1,1,1,1,1,1,1,1,1,1,1,1,1,1,1,1,1,1,1,1,1,1,1,1,1,1,1,1,1,1,1,1,1,1,1,1,1,1,1,1,1,1,1,1,1,1,1,1,1,1,1,1,1,1,1,1,1,1,1,1,1,1,1,1,1,1,1,1,1,1,1,1,1,1,1,1,1,1,1,1,1,1,1,1,1,1,1,1,1,1,1,1,1,1,1,1,1,1,1,1,1,1,1,1,1,1,1,1,1,1,1,1,1,1,1,1,1,1,1,1,1,1,1,1,1,1,1,1,1,1,1,1,1,1,1,1,1,1,1,1,1,1,1,1,1,1,1,1,1,1,1,1,1,1,1,1,1,1,1,1,1,1,1,1,1,1,1,1,1,1,1,1,1,1,1,1,1,1,1,1,1,1,1,1,1,1,1,1,1,1,1,1,1,1,-1.30140069384697,-49.045980685741,-3.07186377309244,17.3740798946699,54.9080458075054,-14.4280135316026,-53.2190797239836,-6.85728474215949,48.0005044654755,-19.6889756829042,14.079546594013,-24.3998239979411,20.240646655258,-11.4320837173751,31.4300868453252,-10.2449796664814,-59.2563594088885,-9.5293987088667,-16.0675853844849,-11.7412643907998,-52.7161750026418,-21.2362757223965,-67.8850272148945,-16.0460597108569,-119.433449425868,19.9243132191396,-5.15980072090004,54.6427077102713,37.6973873814564,-72.0745563892894,-24.5401104239886,60.6495074635531,-3.57364842566671,-68.9113330417204,58.4574802947879,-36.934387900865,-10.9651470617167,7.58682956262924,-81.5042815157969,15.852904348693,13.1959780581996,-34.9796589399066,-5.27124709554166,-14.3745131309819,-10.9219395168237,-1.09617125034368,71.5316582510246,2.91568540281504,-4.98241832524948,-34.3681617414481,-4.77400203868421,-16.4693678800331,-31.7172113517998,-27.5085394354858,-4.15286353510693,57.3251208165768,-20.7163467309174,-49.2448670672935,-0.593193679606018,21.9960276304476,-22.509664464567,-0.61948576697382,-26.531132055295,-31.9383512460343,-35.3314661888569,-36.0237768941966,6.81685506353457,5.7049955667339,2.21031592271906,-18.8478855773278,-27.5216943057488,6.67179700191176,-25.9913581210613,24.3702978534097,-3.5313914292987,6.35891763903301,15.6877962036705,-7.42878571139834,-10.4737714625849,30.1311564428115,-19.8036347422745,8.86538478582897,-26.7158236476631,42.8753622885731,44.2581280002282,-42.0072202323946,-18.2696083435716,-33.352617243543,8.505988642382,-6.28650546018495,0.980785254237162,7.011325072965,-33.7990236409345,28.9485560486943,26.1014100244904,-41.4287834866258,-4.62426658902845,-57.840382858818,42.5044340673359,-34.5628443713815,7.39935333496503,39.0095319044709,-29.3888258737745,29.9544261238571,-9.95474893356048,10.1615862911113,14.9374658087786,-25.3148001725689,-6.7370696402269,-51.8122974133215,-18.3094013695702,-66.4124102109174,-35.4277272240481,2.67447965255073,-8.37419494772974,-3.79641410225233,-4.46849229450949,-46.7257700464223,13.8599993790332,-24.4305564366408,17.4163862892765,8.39262276870435,-0.356616864889754,78.5732330681343,5.06066626186396,10.6251571810354,-20.6629143429267,7.2479491764535,42.0857915086395,29.1832192200957,22.7815744606403,-16.548772655629,-66.186520439205,39.1819525756503,-62.1678295706518,50.3200085179133,15.9512643998225,1.43804992118524,10.1674525077937,25.7616702165446,56.639496846217,-63.5800745710372,-67.8968165284191,7.33131659459608,-54.0104677499481,-16.1508614791421,0.274464126361482,25.3817611606234,23.8093626947421,-11.5251037409674,23.1657507916371,-5.24371471275451,43.530333148564,7.40945919233324,13.7717310935474,47.6813503418416,31.3302918803216,-35.4605650303918,45.542804284811,-7.3909437158833,26.2790053011724,24.2562804133729,-10.1555350532876,43.5198312714509,-7.66099369441227,-51.5482648167633,22.3761904853628,45.2665201199533,-11.4692464142594,-64.0118995251683,8.6778743153483,-21.2153610840974,17.0177960970966,34.4066781347613,75.7882782050328,62.9606928061598,-25.8601912310953,39.9684608325753,-12.9885215768609,0.94954515030956,11.9148346361224,23.3961369615427,12.8147822283646,46.3540804606295,-2.4426787160118,35.1717100540637,-43.7382307542186,18.8787234326841,23.4449511159094,59.2649617151662,-18.6576006308729,-77.1319969914676,-23.7077112375094,53.0662608113523,-9.34531769275224,19.9360064989398,42.0919427981764,-2.2895899632417,-0.832230797501588,-27.9937193892623,-8.40222991522253,-49.1532253743906,8.83162680205747,-19.298473267679,74.8844292492366,-0.856545299012108,-4.62828277627097,33.1180960965449,-41.0436922470824,-28.8022192480684,-20.9426425191711,-13.0909246160424,44.2582286336225,-46.0111403564002,37.2272725161991,-15.2167946578251,-18.9884204230827,-86.3032214975504,-86.7237929138459,-60.0366124478796,35.622640026835,29.770223574121,43.1307961601264,-1.36791767905949,-34.1088552448396,10.2569263742336,-5.03114819773651,-46.1505992833396,-73.6275302778262,-24.9188565817314,48.2660272601867,10.7455864933115,-77.1221163785355,-12.6357730117032,11.8237999211961,-0.0202536075705639,26.1849855648068,15.2919906669435,-15.2225435640132,-13.3849220182917,-21.0417243478107,-2.88126798244683,-17.5644130127283,34.5769414239323,16.6319740872312,6.97802343893976,6.29087904922533,-41.5167520267707,43.2262708288759,28.1528897929886,-53.4997386443959,6.23818997797199,-36.3251347695628,13.0669871753259,-31.1830569246424,24.7280230948908,-36.5308075661991,43.7677785670712,15.6715917628297,57.659393796719,-26.5675904501863,67.2730916608618,47.4574840102417,79.1138210237473,1.6341116655628,-71.0016622286859,-25.5086895832068,44.352768752628,-87.8960810562825,45.3695481183814,1,1,1,1,1,1,1,1,1,1,1,1,1,1,1,1,1,1,1,1,1,1,1,1,1,1,1,1,1,1,1,1,1,1,1,1,1,1,1,1,1,1,1,1,1,1,1,1,1,1,1,1,1,1,1,1,1,1,1,1,1,1,1,1,1,1,1,1,1,1,1,1,1,1,1,1,1,1,1,1,1,1,1,1,1,1,1,1,1,1,1,1,1,1,1,1,1,1,1,1,1,1,1,1,1,1,1,1,1,1,1,1,1,1,1,1,1,1,1,1,1,1,1,1,1,1,1,1,1,1,1,1,1,1,1,1,1,1,1,1,1,1,1,1,1,1,1,1,1,1,1,1,1,1,1,1,1,1,1,1,1,1,1,1,1,1,1,1,1,1,1,1,1,1,1,1,1,1,1,1,1,1,1,1,1,1,1,1,1,1,1,1,1,1,1,1,1,1,1,1,1,1,1,1,1,1,1,1,1,1,1,1,1,1,1,1,1,1,1,1,1,1,1,1,1,1,1,1,1,1,1,1,1,1,1,1,1,1,1,1,1,1,1,1,1,1,1,1,1,1,1,1,1,1,1,1,1,1,1,1,1,1,1,1,1,1,1,1,1,1,-80.2254373469959,51.3368013045131,17.0278793569971,-54.0917464973501,20.1520210860484,-15.7432482615946,9.23732685957109,57.5438157335355,19.0593120574464,49.0116735352922,-54.084221501092,17.8110890589449,-8.36655708440926,-40.4661314870312,3.94212041452804,-40.7762039829738,-35.846433036237,-16.4838778356028,6.55575282778661,-105.223867427756,-39.5453884159064,14.2210741468611,41.8966819995232,6.39515164372342,-79.2413147228611,81.6227945868971,-1.52983486639767,66.5620599693045,76.3745531252881,6.26117995179947,-25.8743841265014,-54.0857582127096,-28.2647672963202,-5.73355183897096,12.6188394789911,-27.5691877725146,-32.448698859923,2.45481792967225,25.8623447585882,-17.5978706414378,-48.1863907358355,72.4005423925431,-53.9620133775478,35.4098093390085,-60.4602180275734,-7.54893092097525,8.73474931847525,2.04099251016843,-16.7546226831053,18.4310397509973,13.3955117792063,5.1888934136696,105.992975281987,-21.2215406094051,-27.2122104000054,74.9876428925878,-7.30386352073934,26.6984524265725,44.9861764452829,-12.2987377128738,-55.0890645065593,-62.2347578691659,-15.5649733042121,-12.7499924347406,-46.6150641671115,-8.37128838009395,46.5020752794247,67.4557070941367,-17.4196030772446,-21.4971053659976,76.9423211155763,14.4372956519808,22.4106075705033,39.6066220089239,8.0326821518274,42.0088023063983,-25.5031711889474,11.1198697971809,-16.9512260254276,19.5571602705991,32.1867474864651,11.9331061452042,-7.49432299934071,-8.03986879136056,-3.59550886510698,62.9520122408615,58.5604005833474,36.8680634929001,63.3527551941829,-15.0775577074406,-34.2193254031213,39.4127598883648,-51.5587013909259,-7.16379039940243,-19.1476814445853,52.0348752820926,111.021714695667,-61.208334557524,27.5357568100494,5.56563131508728,-15.2870074524701,46.5568378022461,-1.61973242513876,60.3608453794967,-76.3673304085129,10.7661916429006,-9.34198692003791,23.0762122595483,-101.115858991082,13.4259876764602,-38.989252256094,127.741992189106,-25.9760026888951,81.3784772618054,19.7846673204676,2.18369228233969,38.1531835021112,-45.1088697081943,17.5431559020964,108.391707219149,4.95430180704444,-1.33258872921392,29.6954145130538,-26.8396451987222,-38.5280801895742,17.670129579583,26.3644169655379,-22.6316616406445,-18.3068059564201,98.2744016974211,-62.9040599064057,-37.1772007982055,116.288249248704,22.1995051132264,-15.7323835358515,23.6297868985294,-99.8364102054179,24.9993781496649,32.5032256162234,59.0476914462471,56.7917981745879,-30.2975870164461,4.98994921614111,-45.539151784424,11.5138109301254,42.8449175720703,-44.1998346659057,29.0455214504172,-18.0019922793703,77.5631729683627,45.5099561360145,-8.72158617137793,-19.3371566103634,2.86075303733483,4.36156429634337,4.37366666507923,-28.1994917047086,11.3467409381161,-39.9797261043084,-37.975566838094,3.85236878138682,-41.5493981283245,4.08831734511458,-91.3030946364251,10.5477000989355,32.12148440518,-36.6908422454239,42.4976073059482,57.4647874871346,35.5158382900858,47.964857853265,20.4480295506007,-5.58706190680797,-86.4164391170244,31.1905461221834,54.7905812269234,53.4282290304705,46.6207663661732,64.8407304210595,32.7001070811193,20.3914583166237,-11.9959104930845,-32.4383680003433,55.2916748354924,67.3741439667064,64.9099941999124,-44.424585759198,27.8753909485859,-2.56120628220632,121.119148008342,15.7858201881197,9.54755747316967,-45.8970807979678,-18.5756761279294,49.0134332588245,-68.1633553682912,42.6690069252927,-36.5030226342122,44.3972665214512,-24.3777190358098,-9.0320030901615,-44.6636930043562,-22.9206506747218,67.3719753324713,7.14967747136409,-60.1861339508633,47.1738569633946,-36.9268437696331,7.29121140038871,-40.7272134267434,2.91930357426553,52.1303501676009,14.0016632963484,26.6060532679004,79.4735398468949,50.0224610692937,41.4250335322233,-65.11894696626,51.2552413955993,20.7226360626056,29.2850017383303,-33.8695877531684,-18.1982375598796,-37.6879074238498,41.6655050091475,16.9285168951844,-58.2475334291879,2.48016537610174,-50.5340394690357,-91.1379078933874,3.25762306421483,30.5546363307693,-6.48282422990134,-6.26130526946867,3.85638045937612,39.3494654330201,115.79660768329,35.5720308041453,-20.2805798433927,-68.9927246647184,-7.34556864144745,13.2678476702805,82.1969921095897,-6.77988975528853,5.22418935472114,-43.2731344605473,30.385408805375,28.9261618090218,66.4711220003471,-13.763616607607,-37.6206783645747,52.9211680936653,7.56644694831466,14.0649150014275,36.2663996705372,-1.10984450299344,23.0183695050687,88.9394579410919,0.702714333083545,-10.100235345088,-26.7518422202579,17.1638525876471,-4.12778828314397,29.4205579450508,18.4236289247325,51.593073510603,5.87599830994376,3.69144043366338,61.898403365178,-56.6355153370337,-29.8343591396123,-5.83772314239573,1,1,1,1,1,1,1,1,1,1,1,1,1,1,1,1,1,1,1,1,1,1,1,1,1,1,1,1,1,1,1,1,1,1,1,1,1,1,1,1,1,1,1,1,1,1,1,1,1,1,1,1,1,1,1,1,1,1,1,1,1,1,1,1,1,1,1,1,1,1,1,1,1,1,1,1,1,1,1,1,1,1,1,1,1,1,1,1,1,1,1,1,1,1,1,1,1,1,1,1,1,1,1,1,1,1,1,1,1,1,1,1,1,1,1,1,1,1,1,1,1,1,1,1,1,1,1,1,1,1,1,1,1,1,1,1,1,1,1,1,1,1,1,1,1,1,1,1,1,1,1,1,1,1,1,1,1,1,1,1,1,1,1,1,1,1,1,1,1,1,1,1,1,1,1,1,1,1,1,1,1,1,1,1,1,1,1,1,1,1,1,1,1,1,1,1,1,1,1,1,1,1,1,1,1,1,1,1,1,1,1,1,1,1,1,1,1,1,1,1,1,1,1,1,1,1,1,1,1,1,1,1,1,1,1,1,1,1,1,1,1,1,1,1,1,1,1,1,1,1,1,1,1,1,1,1,1,1,1,1,1,1,1,1,1,1,1,1,1,1,-1.30140069384697,-49.045980685741,-3.07186377309244,17.3740798946699,54.9080458075054,-14.4280135316026,-53.2190797239836,-6.85728474215949,48.0005044654755,-19.6889756829042,14.079546594013,-24.3998239979411,20.240646655258,-11.4320837173751,31.4300868453252,-10.2449796664814,-59.2563594088885,-9.5293987088667,-16.0675853844849,-11.7412643907998,-52.7161750026418,-21.2362757223965,-67.8850272148945,-16.0460597108569,-119.433449425868,19.9243132191396,-5.15980072090004,54.6427077102713,37.6973873814564,-72.0745563892894,-24.5401104239886,60.6495074635531,-3.57364842566671,-68.9113330417204,58.4574802947879,-36.934387900865,-10.9651470617167,7.58682956262924,-81.5042815157969,15.852904348693,13.1959780581996,-34.9796589399066,-5.27124709554166,-14.3745131309819,-10.9219395168237,-1.09617125034368,71.5316582510246,2.91568540281504,-4.98241832524948,-34.3681617414481,-4.77400203868421,-16.4693678800331,-31.7172113517998,-27.5085394354858,-4.15286353510693,57.3251208165768,-20.7163467309174,-49.2448670672935,-0.593193679606018,21.9960276304476,-22.509664464567,-0.61948576697382,-26.531132055295,-31.9383512460343,-35.3314661888569,-36.0237768941966,6.81685506353457,5.7049955667339,2.21031592271906,-18.8478855773278,-27.5216943057488,6.67179700191176,-25.9913581210613,24.3702978534097,-3.5313914292987,6.35891763903301,15.6877962036705,-7.42878571139834,-10.4737714625849,30.1311564428115,-19.8036347422745,8.86538478582897,-26.7158236476631,42.8753622885731,44.2581280002282,-42.0072202323946,-18.2696083435716,-33.352617243543,8.505988642382,-6.28650546018495,0.980785254237162,7.011325072965,-33.7990236409345,28.9485560486943,26.1014100244904,-41.4287834866258,-4.62426658902845,-57.840382858818,42.5044340673359,-34.5628443713815,7.39935333496503,39.0095319044709,-29.3888258737745,29.9544261238571,-9.95474893356048,10.1615862911113,14.9374658087786,-25.3148001725689,-6.7370696402269,-51.8122974133215,-18.3094013695702,-66.4124102109174,-35.4277272240481,2.67447965255073,-8.37419494772974,-3.79641410225233,-4.46849229450949,-46.7257700464223,13.8599993790332,-24.4305564366408,17.4163862892765,8.39262276870435,-0.356616864889754,78.5732330681343,5.06066626186396,10.6251571810354,-20.6629143429267,7.2479491764535,42.0857915086395,29.1832192200957,22.7815744606403,-16.548772655629,-66.186520439205,39.1819525756503,-62.1678295706518,50.3200085179133,15.9512643998225,1.43804992118524,10.1674525077937,25.7616702165446,56.639496846217,-63.5800745710372,-67.8968165284191,7.33131659459608,-54.0104677499481,-16.1508614791421,0.274464126361482,25.3817611606234,23.8093626947421,-11.5251037409674,23.1657507916371,-5.24371471275451,43.530333148564,7.40945919233324,13.7717310935474,47.6813503418416,31.3302918803216,-35.4605650303918,45.542804284811,-7.3909437158833,26.2790053011724,24.2562804133729,-10.1555350532876,43.5198312714509,-7.66099369441227,-51.5482648167633,22.3761904853628,45.2665201199533,-11.4692464142594,-64.0118995251683,8.6778743153483,-21.2153610840974,17.0177960970966,34.4066781347613,75.7882782050328,62.9606928061598,-25.8601912310953,39.9684608325753,-12.9885215768609,0.94954515030956,11.9148346361224,23.3961369615427,12.8147822283646,46.3540804606295,-2.4426787160118,35.1717100540637,-43.7382307542186,18.8787234326841,23.4449511159094,59.2649617151662,-18.6576006308729,-77.1319969914676,-23.7077112375094,53.0662608113523,-9.34531769275224,19.9360064989398,42.0919427981764,-2.2895899632417,-0.832230797501588,-27.9937193892623,-8.40222991522253,-49.1532253743906,8.83162680205747,-19.298473267679,74.8844292492366,-0.856545299012108,-4.62828277627097,33.1180960965449,-41.0436922470824,-28.8022192480684,-20.9426425191711,-13.0909246160424,44.2582286336225,-46.0111403564002,37.2272725161991,-15.2167946578251,-18.9884204230827,-86.3032214975504,-86.7237929138459,-60.0366124478796,35.622640026835,29.770223574121,43.1307961601264,-1.36791767905949,-34.1088552448396,10.2569263742336,-5.03114819773651,-46.1505992833396,-73.6275302778262,-24.9188565817314,48.2660272601867,10.7455864933115,-77.1221163785355,-12.6357730117032,11.8237999211961,-0.0202536075705639,26.1849855648068,15.2919906669435,-15.2225435640132,-13.3849220182917,-21.0417243478107,-2.88126798244683,-17.5644130127283,34.5769414239323,16.6319740872312,6.97802343893976,6.29087904922533,-41.5167520267707,43.2262708288759,28.1528897929886,-53.4997386443959,6.23818997797199,-36.3251347695628,13.0669871753259,-31.1830569246424,24.7280230948908,-36.5308075661991,43.7677785670712,15.6715917628297,57.659393796719,-26.5675904501863,67.2730916608618,47.4574840102417,79.1138210237473,1.6341116655628,-71.0016622286859,-25.5086895832068,44.352768752628,-87.8960810562825,45.3695481183814,1,1,1,1,1,1,1,1,1,1,1,1,1,1,1,1,1,1,1,1,1,1,1,1,1,1,1,1,1,1,1,1,1,1,1,1,1,1,1,1,1,1,1,1,1,1,1,1,1,1,1,1,1,1,1,1,1,1,1,1,1,1,1,1,1,1,1,1,1,1,1,1,1,1,1,1,1,1,1,1,1,1,1,1,1,1,1,1,1,1,1,1,1,1,1,1,1,1,1,1,1,1,1,1,1,1,1,1,1,1,1,1,1,1,1,1,1,1,1,1,1,1,1,1,1,1,1,1,1,1,1,1,1,1,1,1,1,1,1,1,1,1,1,1,1,1,1,1,1,1,1,1,1,1,1,1,1,1,1,1,1,1,1,1,1,1,1,1,1,1,1,1,1,1,1,1,1,1,1,1,1,1,1,1,1,1,1,1,1,1,1,1,1,1,1,1,1,1,1,1,1,1,1,1,1,1,1,1,1,1,1,1,1,1,1,1,1,1,1,1,1,1,1,1,1,1,1,1,1,1,1,1,1,1,1,1,1,1,1,1,1,1,1,1,1,1,1,1,1,1,1,1,1,1,1,1,1,1,1,1,1,1,1,1,1,1,1,1,1,1,41.3765579187808,135.630226989076,17.0278793569971,-54.0917464973501,20.1520210860484,-15.7432482615946,9.23732685957109,57.5438157335355,19.0593120574464,49.0116735352922,-54.084221501092,17.8110890589449,-8.36655708440926,-40.4661314870312,3.94212041452804,-40.7762039829738,-35.846433036237,-16.4838778356028,6.55575282778661,-105.223867427756,-39.5453884159064,14.2210741468611,41.8966819995232,6.39515164372342,-79.2413147228611,81.6227945868971,-1.52983486639767,66.5620599693045,76.3745531252881,6.26117995179947,-25.8743841265014,-54.0857582127096,-28.2647672963202,-5.73355183897096,12.6188394789911,-27.5691877725146,-32.448698859923,2.45481792967225,25.8623447585882,-17.5978706414378,-48.1863907358355,72.4005423925431,-53.9620133775478,35.4098093390085,-60.4602180275734,-7.54893092097525,8.73474931847525,2.04099251016843,-16.7546226831053,18.4310397509973,13.3955117792063,5.1888934136696,105.992975281987,-21.2215406094051,-27.2122104000054,74.9876428925878,-7.30386352073934,26.6984524265725,44.9861764452829,-12.2987377128738,-55.0890645065593,-62.2347578691659,-15.5649733042121,-12.7499924347406,-46.6150641671115,-8.37128838009395,46.5020752794247,67.4557070941367,-17.4196030772446,-21.4971053659976,76.9423211155763,14.4372956519808,22.4106075705033,39.6066220089239,8.0326821518274,42.0088023063983,-25.5031711889474,11.1198697971809,-16.9512260254276,19.5571602705991,32.1867474864651,11.9331061452042,-7.49432299934071,-8.03986879136056,-3.59550886510698,62.9520122408615,58.5604005833474,36.8680634929001,63.3527551941829,-15.0775577074406,-34.2193254031213,39.4127598883648,-51.5587013909259,-7.16379039940243,-19.1476814445853,52.0348752820926,111.021714695667,-61.208334557524,27.5357568100494,5.56563131508728,-15.2870074524701,46.5568378022461,-1.61973242513876,60.3608453794967,-76.3673304085129,10.7661916429006,-9.34198692003791,23.0762122595483,-101.115858991082,13.4259876764602,-38.989252256094,127.741992189106,-25.9760026888951,81.3784772618054,19.7846673204676,2.18369228233969,38.1531835021112,-45.1088697081943,17.5431559020964,108.391707219149,4.95430180704444,-1.33258872921392,29.6954145130538,-26.8396451987222,-38.5280801895742,17.670129579583,26.3644169655379,-22.6316616406445,-18.3068059564201,98.2744016974211,-62.9040599064057,-37.1772007982055,116.288249248704,22.1995051132264,-15.7323835358515,23.6297868985294,-99.8364102054179,24.9993781496649,32.5032256162234,59.0476914462471,56.7917981745879,-30.2975870164461,4.98994921614111,-45.539151784424,11.5138109301254,42.8449175720703,-44.1998346659057,29.0455214504172,-18.0019922793703,77.5631729683627,45.5099561360145,-8.72158617137793,-19.3371566103634,2.86075303733483,4.36156429634337,4.37366666507923,-28.1994917047086,11.3467409381161,-39.9797261043084,-37.975566838094,3.85236878138682,-41.5493981283245,4.08831734511458,-91.3030946364251,10.5477000989355,32.12148440518,-36.6908422454239,42.4976073059482,57.4647874871346,35.5158382900858,47.964857853265,20.4480295506007,-5.58706190680797,-86.4164391170244,31.1905461221834,54.7905812269234,53.4282290304705,46.6207663661732,64.8407304210595,32.7001070811193,20.3914583166237,-11.9959104930845,-32.4383680003433,55.2916748354924,67.3741439667064,64.9099941999124,-44.424585759198,27.8753909485859,-2.56120628220632,121.119148008342,15.7858201881197,9.54755747316967,-45.8970807979678,-18.5756761279294,49.0134332588245,-68.1633553682912,42.6690069252927,-36.5030226342122,44.3972665214512,-24.3777190358098,-9.0320030901615,-44.6636930043562,-22.9206506747218,67.3719753324713,7.14967747136409,-60.1861339508633,47.1738569633946,-36.9268437696331,7.29121140038871,-40.7272134267434,2.91930357426553,52.1303501676009,14.0016632963484,26.6060532679004,79.4735398468949,50.0224610692937,41.4250335322233,-65.11894696626,51.2552413955993,20.7226360626056,29.2850017383303,-33.8695877531684,-18.1982375598796,-37.6879074238498,41.6655050091475,16.9285168951844,-58.2475334291879,2.48016537610174,-50.5340394690357,-91.1379078933874,3.25762306421483,30.5546363307693,-6.48282422990134,-6.26130526946867,3.85638045937612,39.3494654330201,115.79660768329,35.5720308041453,-20.2805798433927,-68.9927246647184,-7.34556864144745,13.2678476702805,82.1969921095897,-6.77988975528853,5.22418935472114,-43.2731344605473,30.385408805375,28.9261618090218,66.4711220003471,-13.763616607607,-37.6206783645747,52.9211680936653,7.56644694831466,14.0649150014275,36.2663996705372,-1.10984450299344,23.0183695050687,88.9394579410919,0.702714333083545,-10.100235345088,-26.7518422202579,17.1638525876471,-4.12778828314397,29.4205579450508,18.4236289247325,51.593073510603,5.87599830994376,3.69144043366338,61.898403365178,-56.6355153370337,-29.8343591396123,-5.83772314239573,1,1,1,1,1,1,1,1,1,1,1,1,1,1,1,1,1,1,1,1,1,1,1,1,1,1,1,1,1,1,1,1,1,1,1,1,1,1,1,1,1,1,1,1,1,1,1,1,1,1,1,1,1,1,1,1,1,1,1,1,1,1,1,1,1,1,1,1,1,1,1,1,1,1,1,1,1,1,1,1,1,1,1,1,1,1,1,1,1,1,1,1,1,1,1,1,1,1,1,1,1,1,1,1,1,1,1,1,1,1,1,1,1,1,1,1,1,1,1,1,1,1,1,1,1,1,1,1,1,1,1,1,1,1,1,1,1,1,1,1,1,1,1,1,1,1,1,1,1,1,1,1,1,1,1,1,1,1,1,1,1,1,1,1,1,1,1,1,1,1,1,1,1,1,1,1,1,1,1,1,1,1,1,1,1,1,1,1,1,1,1,1,1,1,1,1,1,1,1,1,1,1,1,1,1,1,1,1,1,1,1,1,1,1,1,1,1,1,1,1,1,1,1,1,1,1,1,1,1,1,1,1,1,1,1,1,1,1,1,1,1,1,1,1,1,1,1,1,1,1,1,1,1,1,1,1,1,1,1,1,1,1,1,1,1,1,1,1,1,1,-1.30140069384697,-49.045980685741,-3.07186377309244,17.3740798946699,54.9080458075054,-14.4280135316026,-53.2190797239836,-6.85728474215949,48.0005044654755,-19.6889756829042,14.079546594013,-24.3998239979411,20.240646655258,-11.4320837173751,31.4300868453252,-10.2449796664814,-59.2563594088885,-9.5293987088667,-16.0675853844849,-11.7412643907998,-52.7161750026418,-21.2362757223965,-67.8850272148945,-16.0460597108569,-119.433449425868,19.9243132191396,-5.15980072090004,54.6427077102713,37.6973873814564,-72.0745563892894,-24.5401104239886,60.6495074635531,-3.57364842566671,-68.9113330417204,58.4574802947879,-36.934387900865,-10.9651470617167,7.58682956262924,-81.5042815157969,15.852904348693,13.1959780581996,-34.9796589399066,-5.27124709554166,-14.3745131309819,-10.9219395168237,-1.09617125034368,71.5316582510246,2.91568540281504,-4.98241832524948,-34.3681617414481,-4.77400203868421,-16.4693678800331,-31.7172113517998,-27.5085394354858,-4.15286353510693,57.3251208165768,-20.7163467309174,-49.2448670672935,-0.593193679606018,21.9960276304476,-22.509664464567,-0.61948576697382,-26.531132055295,-31.9383512460343,-35.3314661888569,-36.0237768941966,6.81685506353457,5.7049955667339,2.21031592271906,-18.8478855773278,-27.5216943057488,6.67179700191176,-25.9913581210613,24.3702978534097,-3.5313914292987,6.35891763903301,15.6877962036705,-7.42878571139834,-10.4737714625849,30.1311564428115,-19.8036347422745,8.86538478582897,-26.7158236476631,42.8753622885731,44.2581280002282,-42.0072202323946,-18.2696083435716,-33.352617243543,8.505988642382,-6.28650546018495,0.980785254237162,7.011325072965,-33.7990236409345,28.9485560486943,26.1014100244904,-41.4287834866258,-4.62426658902845,-57.840382858818,42.5044340673359,-34.5628443713815,7.39935333496503,39.0095319044709,-29.3888258737745,29.9544261238571,-9.95474893356048,10.1615862911113,14.9374658087786,-25.3148001725689,-6.7370696402269,-51.8122974133215,-18.3094013695702,-66.4124102109174,-35.4277272240481,2.67447965255073,-8.37419494772974,-3.79641410225233,-4.46849229450949,-46.7257700464223,13.8599993790332,-24.4305564366408,17.4163862892765,8.39262276870435,-0.356616864889754,78.5732330681343,5.06066626186396,10.6251571810354,-20.6629143429267,7.2479491764535,42.0857915086395,29.1832192200957,22.7815744606403,-16.548772655629,-66.186520439205,39.1819525756503,-62.1678295706518,50.3200085179133,15.9512643998225,1.43804992118524,10.1674525077937,25.7616702165446,56.639496846217,-63.5800745710372,-67.8968165284191,7.33131659459608,-54.0104677499481,-16.1508614791421,0.274464126361482,25.3817611606234,23.8093626947421,-11.5251037409674,23.1657507916371,-5.24371471275451,43.530333148564,7.40945919233324,13.7717310935474,47.6813503418416,31.3302918803216,-35.4605650303918,45.542804284811,-7.3909437158833,26.2790053011724,24.2562804133729,-10.1555350532876,43.5198312714509,-7.66099369441227,-51.5482648167633,22.3761904853628,45.2665201199533,-11.4692464142594,-64.0118995251683,8.6778743153483,-21.2153610840974,17.0177960970966,34.4066781347613,75.7882782050328,62.9606928061598,-25.8601912310953,39.9684608325753,-12.9885215768609,0.94954515030956,11.9148346361224,23.3961369615427,12.8147822283646,46.3540804606295,-2.4426787160118,35.1717100540637,-43.7382307542186,18.8787234326841,23.4449511159094,59.2649617151662,-18.6576006308729,-77.1319969914676,-23.7077112375094,53.0662608113523,-9.34531769275224,19.9360064989398,42.0919427981764,-2.2895899632417,-0.832230797501588,-27.9937193892623,-8.40222991522253,-49.1532253743906,8.83162680205747,-19.298473267679,74.8844292492366,-0.856545299012108,-4.62828277627097,33.1180960965449,-41.0436922470824,-28.8022192480684,-20.9426425191711,-13.0909246160424,44.2582286336225,-46.0111403564002,37.2272725161991,-15.2167946578251,-18.9884204230827,-86.3032214975504,-86.7237929138459,-60.0366124478796,35.622640026835,29.770223574121,43.1307961601264,-1.36791767905949,-34.1088552448396,10.2569263742336,-5.03114819773651,-46.1505992833396,-73.6275302778262,-24.9188565817314,48.2660272601867,10.7455864933115,-77.1221163785355,-12.6357730117032,11.8237999211961,-0.0202536075705639,26.1849855648068,15.2919906669435,-15.2225435640132,-13.3849220182917,-21.0417243478107,-2.88126798244683,-17.5644130127283,34.5769414239323,16.6319740872312,6.97802343893976,6.29087904922533,-41.5167520267707,43.2262708288759,28.1528897929886,-53.4997386443959,6.23818997797199,-36.3251347695628,13.0669871753259,-31.1830569246424,24.7280230948908,-36.5308075661991,43.7677785670712,15.6715917628297,57.659393796719,-26.5675904501863,67.2730916608618,47.4574840102417,79.1138210237473,1.6341116655628,-71.0016622286859,-25.5086895832068,44.352768752628,-87.8960810562825,45.3695481183814,1,1,1,1,1,1,1,1,1,1,1,1,1,1,1,1,1,1,1,1,1,1,1,1,1,1,1,1,1,1,1,1,1,1,1,1,1,1,1,1,1,1,1,1,1,1,1,1,1,1,1,1,1,1,1,1,1,1,1,1,1,1,1,1,1,1,1,1,1,1,1,1,1,1,1,1,1,1,1,1,1,1,1,1,1,1,1,1,1,1,1,1,1,1,1,1,1,1,1,1,1,1,1,1,1,1,1,1,1,1,1,1,1,1,1,1,1,1,1,1,1,1,1,1,1,1,1,1,1,1,1,1,1,1,1,1,1,1,1,1,1,1,1,1,1,1,1,1,1,1,1,1,1,1,1,1,1,1,1,1,1,1,1,1,1,1,1,1,1,1,1,1,1,1,1,1,1,1,1,1,1,1,1,1,1,1,1,1,1,1,1,1,1,1,1,1,1,1,1,1,1,1,1,1,1,1,1,1,1,1,1,1,1,1,1,1,1,1,1,1,1,1,1,1,1,1,1,1,1,1,1,1,1,1,1,1,1,1,1,1,1,1,1,1,1,1,1,1,1,1,1,1,1,1,1,1,1,1,1,1,1,1,1,1,1,1,1,1,1,1
171.539384783963,58.7870827367469,75.4682544104141,-64.8113630485675,166.981843712382,17.0278793569971,-54.0917464973501,20.1520210860484,-15.7432482615946,9.23732685957109,57.5438157335355,19.0593120574464,49.0116735352922,-54.084221501092,17.8110890589449,-8.36655708440926,-40.4661314870312,3.94212041452804,-40.7762039829738,-35.846433036237,-16.4838778356028,6.55575282778661,-105.223867427756,-39.5453884159064,14.2210741468611,41.8966819995232,6.39515164372342,-79.2413147228611,81.6227945868971,-1.52983486639767,66.5620599693045,76.3745531252881,6.26117995179947,-25.8743841265014,-54.0857582127096,-28.2647672963202,-5.73355183897096,12.6188394789911,-27.5691877725146,-32.448698859923,2.45481792967225,25.8623447585882,-17.5978706414378,-48.1863907358355,72.4005423925431,-53.9620133775478,35.4098093390085,-60.4602180275734,-7.54893092097525,8.73474931847525,2.04099251016843,-16.7546226831053,18.4310397509973,13.3955117792063,5.1888934136696,105.992975281987,-21.2215406094051,-27.2122104000054,74.9876428925878,-7.30386352073934,26.6984524265725,44.9861764452829,-12.2987377128738,-55.0890645065593,-62.2347578691659,-15.5649733042121,-12.7499924347406,-46.6150641671115,-8.37128838009395,46.5020752794247,67.4557070941367,-17.4196030772446,-21.4971053659976,76.9423211155763,14.4372956519808,22.4106075705033,39.6066220089239,8.0326821518274,42.0088023063983,-25.5031711889474,11.1198697971809,-16.9512260254276,19.5571602705991,32.1867474864651,11.9331061452042,-7.49432299934071,-8.03986879136056,-3.59550886510698,62.9520122408615,58.5604005833474,36.8680634929001,63.3527551941829,-15.0775577074406,-34.2193254031213,39.4127598883648,-51.5587013909259,-7.16379039940243,-19.1476814445853,52.0348752820926,111.021714695667,-61.208334557524,27.5357568100494,5.56563131508728,-15.2870074524701,46.5568378022461,-1.61973242513876,60.3608453794967,-76.3673304085129,10.7661916429006,-9.34198692003791,23.0762122595483,-101.115858991082,13.4259876764602,-38.989252256094,127.741992189106,-25.9760026888951,81.3784772618054,19.7846673204676,2.18369228233969,38.1531835021112,-45.1088697081943,17.5431559020964,108.391707219149,4.95430180704444,-1.33258872921392,29.6954145130538,-26.8396451987222,-38.5280801895742,17.670129579583,26.3644169655379,-22.6316616406445,-18.3068059564201,98.2744016974211,-62.9040599064057,-37.1772007982055,116.288249248704,22.1995051132264,-15.7323835358515,23.6297868985294,-99.8364102054179,24.9993781496649,32.5032256162234,59.0476914462471,56.7917981745879,-30.2975870164461,4.98994921614111,-45.539151784424,11.5138109301254,42.8449175720703,-44.1998346659057,29.0455214504172,-18.0019922793703,77.5631729683627,45.5099561360145,-8.72158617137793,-19.3371566103634,2.86075303733483,4.36156429634337,4.37366666507923,-28.1994917047086,11.3467409381161,-39.9797261043084,-37.975566838094,3.85236878138682,-41.5493981283245,4.08831734511458,-91.3030946364251,10.5477000989355,32.12148440518,-36.6908422454239,42.4976073059482,57.4647874871346,35.5158382900858,47.964857853265,20.4480295506007,-5.58706190680797,-86.4164391170244,31.1905461221834,54.7905812269234,53.4282290304705,46.6207663661732,64.8407304210595,32.7001070811193,20.3914583166237,-11.9959104930845,-32.4383680003433,55.2916748354924,67.3741439667064,64.9099941999124,-44.424585759198,27.8753909485859,-2.56120628220632,121.119148008342,15.7858201881197,9.54755747316967,-45.8970807979678,-18.5756761279294,49.0134332588245,-68.1633553682912,42.6690069252927,-36.5030226342122,44.3972665214512,-24.3777190358098,-9.0320030901615,-44.6636930043562,-22.9206506747218,67.3719753324713,7.14967747136409,-60.1861339508633,47.1738569633946,-36.9268437696331,7.29121140038871,-40.7272134267434,2.91930357426553,52.1303501676009,14.0016632963484,26.6060532679004,79.4735398468949,50.0224610692937,41.4250335322233,-65.11894696626,51.2552413955993,20.7226360626056,29.2850017383303,-33.8695877531684,-18.1982375598796,-37.6879074238498,41.6655050091475,16.9285168951844,-58.2475334291879,2.48016537610174,-50.5340394690357,-91.1379078933874,3.25762306421483,30.5546363307693,-6.48282422990134,-6.26130526946867,3.85638045937612,39.3494654330201,115.79660768329,35.5720308041453,-20.2805798433927,-68.9927246647184,-7.34556864144745,13.2678476702805,82.1969921095897,-6.77988975528853,5.22418935472114,-43.2731344605473,30.385408805375,28.9261618090218,66.4711220003471,-13.763616607607,-37.6206783645747,52.9211680936653,7.56644694831466,14.0649150014275,36.2663996705372,-1.10984450299344,23.0183695050687,88.9394579410919,0.702714333083545,-10.100235345088,-26.7518422202579,17.1638525876471,-4.12778828314397,29.4205579450508,18.4236289247325,51.593073510603,5.87599830994376,3.69144043366338,61.898403365178,-56.6355153370337,-29.8343591396123,-5.83772314239573,1,1,1,1,1,1,1,1,1,1,1,1,1,1,1,1,1,1,1,1,1,1,1,1,1,1,1,1,1,1,1,1,1,1,1,1,1,1,1,1,1,1,1,1,1,1,1,1,1,1,1,1,1,1,1,1,1,1,1,1,1,1,1,1,1,1,1,1,1,1,1,1,1,1,1,1,1,1,1,1,1,1,1,1,1,1,1,1,1,1,1,1,1,1,1,1,1,1,1,1,1,1,1,1,1,1,1,1,1,1,1,1,1,1,1,1,1,1,1,1,1,1,1,1,1,1,1,1,1,1,1,1,1,1,1,1,1,1,1,1,1,1,1,1,1,1,1,1,1,1,1,1,1,1,1,1,1,1,1,1,1,1,1,1,1,1,1,1,1,1,1,1,1,1,1,1,1,1,1,1,1,1,1,1,1,1,1,1,1,1,1,1,1,1,1,1,1,1,1,1,1,1,1,1,1,1,1,1,1,1,1,1,1,1,1,1,1,1,1,1,1,1,1,1,1,1,1,1,1,1,1,1,1,1,1,1,1,1,1,1,1,1,1,1,1,1,1,1,1,1,1,1,1,1,1,1,1,1,1,1,1,1,1,1,1,1,1,1,1,1,-1.30140069384697,-49.045980685741,-3.07186377309244,17.3740798946699,54.9080458075054,-14.4280135316026,-53.2190797239836,-6.85728474215949,48.0005044654755,-19.6889756829042,14.079546594013,-24.3998239979411,20.240646655258,-11.4320837173751,31.4300868453252,-10.2449796664814,-59.2563594088885,-9.5293987088667,-16.0675853844849,-11.7412643907998,-52.7161750026418,-21.2362757223965,-67.8850272148945,-16.0460597108569,-119.433449425868,19.9243132191396,-5.15980072090004,54.6427077102713,37.6973873814564,-72.0745563892894,-24.5401104239886,60.6495074635531,-3.57364842566671,-68.9113330417204,58.4574802947879,-36.934387900865,-10.9651470617167,7.58682956262924,-81.5042815157969,15.852904348693,13.1959780581996,-34.9796589399066,-5.27124709554166,-14.3745131309819,-10.9219395168237,-1.09617125034368,71.5316582510246,2.91568540281504,-4.98241832524948,-34.3681617414481,-4.77400203868421,-16.4693678800331,-31.7172113517998,-27.5085394354858,-4.15286353510693,57.3251208165768,-20.7163467309174,-49.2448670672935,-0.593193679606018,21.9960276304476,-22.509664464567,-0.61948576697382,-26.531132055295,-31.9383512460343,-35.3314661888569,-36.0237768941966,6.81685506353457,5.7049955667339,2.21031592271906,-18.8478855773278,-27.5216943057488,6.67179700191176,-25.9913581210613,24.3702978534097,-3.5313914292987,6.35891763903301,15.6877962036705,-7.42878571139834,-10.4737714625849,30.1311564428115,-19.8036347422745,8.86538478582897,-26.7158236476631,42.8753622885731,44.2581280002282,-42.0072202323946,-18.2696083435716,-33.352617243543,8.505988642382,-6.28650546018495,0.980785254237162,7.011325072965,-33.7990236409345,28.9485560486943,26.1014100244904,-41.4287834866258,-4.62426658902845,-57.840382858818,42.5044340673359,-34.5628443713815,7.39935333496503,39.0095319044709,-29.3888258737745,29.9544261238571,-9.95474893356048,10.1615862911113,14.9374658087786,-25.3148001725689,-6.7370696402269,-51.8122974133215,-18.3094013695702,-66.4124102109174,-35.4277272240481,2.67447965255073,-8.37419494772974,-3.79641410225233,-4.46849229450949,-46.7257700464223,13.8599993790332,-24.4305564366408,17.4163862892765,8.39262276870435,-0.356616864889754,78.5732330681343,5.06066626186396,10.6251571810354,-20.6629143429267,7.2479491764535,42.0857915086395,29.1832192200957,22.7815744606403,-16.548772655629,-66.186520439205,39.1819525756503,-62.1678295706518,50.3200085179133,15.9512643998225,1.43804992118524,10.1674525077937,25.7616702165446,56.639496846217,-63.5800745710372,-67.8968165284191,7.33131659459608,-54.0104677499481,-16.1508614791421,0.274464126361482,25.3817611606234,23.8093626947421,-11.5251037409674,23.1657507916371,-5.24371471275451,43.530333148564,7.40945919233324,13.7717310935474,47.6813503418416,31.3302918803216,-35.4605650303918,45.542804284811,-7.3909437158833,26.2790053011724,24.2562804133729,-10.1555350532876,43.5198312714509,-7.66099369441227,-51.5482648167633,22.3761904853628,45.2665201199533,-11.4692464142594,-64.0118995251683,8.6778743153483,-21.2153610840974,17.0177960970966,34.4066781347613,75.7882782050328,62.9606928061598,-25.8601912310953,39.9684608325753,-12.9885215768609,0.94954515030956,11.9148346361224,23.3961369615427,12.8147822283646,46.3540804606295,-2.4426787160118,35.1717100540637,-43.7382307542186,18.8787234326841,23.4449511159094,59.2649617151662,-18.6576006308729,-77.1319969914676,-23.7077112375094,53.0662608113523,-9.34531769275224,19.9360064989398,42.0919427981764,-2.2895899632417,-0.832230797501588,-27.9937193892623,-8.40222991522253,-49.1532253743906,8.83162680205747,-19.298473267679,74.8844292492366,-0.856545299012108,-4.62828277627097,33.1180960965449,-41.0436922470824,-28.8022192480684,-20.9426425191711,-13.0909246160424,44.2582286336225,-46.0111403564002,37.2272725161991,-15.2167946578251,-18.9884204230827,-86.3032214975504,-86.7237929138459,-60.0366124478796,35.622640026835,29.770223574121,43.1307961601264,-1.36791767905949,-34.1088552448396,10.2569263742336,-5.03114819773651,-46.1505992833396,-73.6275302778262,-24.9188565817314,48.2660272601867,10.7455864933115,-77.1221163785355,-12.6357730117032,11.8237999211961,-0.0202536075705639,26.1849855648068,15.2919906669435,-15.2225435640132,-13.3849220182917,-21.0417243478107,-2.88126798244683,-17.5644130127283,34.5769414239323,16.6319740872312,6.97802343893976,6.29087904922533,-41.5167520267707,43.2262708288759,28.1528897929886,-53.4997386443959,6.23818997797199,-36.3251347695628,13.0669871753259,-31.1830569246424,24.7280230948908,-36.5308075661991,43.7677785670712,15.6715917628297,57.659393796719,-26.5675904501863,67.2730916608618,47.4574840102417,79.1138210237473,1.6341116655628,-71.0016622286859,-25.5086895832068,44.352768752628,-87.8960810562825,45.3695481183814,1,1,1,1,1,1,1,1,1,1,1,1,1,1,1,1,1,1,1,1,1,1,1,1,1,1,1,1,1,1,1,1,1,1,1,1,1,1,1,1,1,1,1,1,1,1,1,1,1,1,1,1,1,1,1,1,1,1,1,1,1,1,1,1,1,1,1,1,1,1,1,1,1,1,1,1,1,1,1,1,1,1,1,1,1,1,1,1,1,1,1,1,1,1,1,1,1,1,1,1,1,1,1,1,1,1,1,1,1,1,1,1,1,1,1,1,1,1,1,1,1,1,1,1,1,1,1,1,1,1,1,1,1,1,1,1,1,1,1,1,1,1,1,1,1,1,1,1,1,1,1,1,1,1,1,1,1,1,1,1,1,1,1,1,1,1,1,1,1,1,1,1,1,1,1,1,1,1,1,1,1,1,1,1,1,1,1,1,1,1,1,1,1,1,1,1,1,1,1,1,1,1,1,1,1,1,1,1,1,1,1,1,1,1,1,1,1,1,1,1,1,1,1,1,1,1,1,1,1,1,1,1,1,1,1,1,1,1,1,1,1,1,1,1,1,1,1,1,1,1,1,1,1,1,1,1,1,1,1,1,1,1,1,1,1,1,1,1,1,1,-80.2254373469959,51.3368013045131,17.0278793569971,-54.0917464973501,20.1520210860484,-15.7432482615946,9.23732685957109,57.5438157335355,19.0593120574464,49.0116735352922,-54.084221501092,17.8110890589449,-8.36655708440926,-40.4661314870312,3.94212041452804,-40.7762039829738,-35.846433036237,-16.4838778356028,6.55575282778661,-105.223867427756,-39.5453884159064,14.2210741468611,41.8966819995232,6.39515164372342,-79.2413147228611,81.6227945868971,-1.52983486639767,66.5620599693045,76.3745531252881,6.26117995179947,-25.8743841265014,-54.0857582127096,-28.2647672963202,-5.73355183897096,12.6188394789911,-27.5691877725146,-32.448698859923,2.45481792967225,25.8623447585882,-17.5978706414378,-48.1863907358355,72.4005423925431,-53.9620133775478,35.4098093390085,-60.4602180275734,-7.54893092097525,8.73474931847525,2.04099251016843,-16.7546226831053,18.4310397509973,13.3955117792063,5.1888934136696,105.992975281987,-21.2215406094051,-27.2122104000054,74.9876428925878,-7.30386352073934,26.6984524265725,44.9861764452829,-12.2987377128738,-55.0890645065593,-62.2347578691659,-15.5649733042121,-12.7499924347406,-46.6150641671115,-8.37128838009395,46.5020752794247,67.4557070941367,-17.4196030772446,-21.4971053659976,76.9423211155763,14.4372956519808,22.4106075705033,39.6066220089239,8.0326821518274,42.0088023063983,-25.5031711889474,11.1198697971809,-16.9512260254276,19.5571602705991,32.1867474864651,11.9331061452042,-7.49432299934071,-8.03986879136056,-3.59550886510698,62.9520122408615,58.5604005833474,36.8680634929001,63.3527551941829,-15.0775577074406,-34.2193254031213,39.4127598883648,-51.5587013909259,-7.16379039940243,-19.1476814445853,52.0348752820926,111.021714695667,-61.208334557524,27.5357568100494,5.56563131508728,-15.2870074524701,46.5568378022461,-1.61973242513876,60.3608453794967,-76.3673304085129,10.7661916429006,-9.34198692003791,23.0762122595483,-101.115858991082,13.4259876764602,-38.989252256094,127.741992189106,-25.9760026888951,81.3784772618054,19.7846673204676,2.18369228233969,38.1531835021112,-45.1088697081943,17.5431559020964,108.391707219149,4.95430180704444,-1.33258872921392,29.6954145130538,-26.8396451987222,-38.5280801895742,17.670129579583,26.3644169655379,-22.6316616406445,-18.3068059564201,98.2744016974211,-62.9040599064057,-37.1772007982055,116.288249248704,22.1995051132264,-15.7323835358515,23.6297868985294,-99.8364102054179,24.9993781496649,32.5032256162234,59.0476914462471,56.7917981745879,-30.2975870164461,4.98994921614111,-45.539151784424,11.5138109301254,42.8449175720703,-44.1998346659057,29.0455214504172,-18.0019922793703,77.5631729683627,45.5099561360145,-8.72158617137793,-19.3371566103634,2.86075303733483,4.36156429634337,4.37366666507923,-28.1994917047086,11.3467409381161,-39.9797261043084,-37.975566838094,3.85236878138682,-41.5493981283245,4.08831734511458,-91.3030946364251,10.5477000989355,32.12148440518,-36.6908422454239,42.4976073059482,57.4647874871346,35.5158382900858,47.964857853265,20.4480295506007,-5.58706190680797,-86.4164391170244,31.1905461221834,54.7905812269234,53.4282290304705,46.6207663661732,64.8407304210595,32.7001070811193,20.3914583166237,-11.9959104930845,-32.4383680003433,55.2916748354924,67.3741439667064,64.9099941999124,-44.424585759198,27.8753909485859,-2.56120628220632,121.119148008342,15.7858201881197,9.54755747316967,-45.8970807979678,-18.5756761279294,49.0134332588245,-68.1633553682912,42.6690069252927,-36.5030226342122,44.3972665214512,-24.3777190358098,-9.0320030901615,-44.6636930043562,-22.9206506747218,67.3719753324713,7.14967747136409,-60.1861339508633,47.1738569633946,-36.9268437696331,7.29121140038871,-40.7272134267434,2.91930357426553,52.1303501676009,14.0016632963484,26.6060532679004,79.4735398468949,50.0224610692937,41.4250335322233,-65.11894696626,51.2552413955993,20.7226360626056,29.2850017383303,-33.8695877531684,-18.1982375598796,-37.6879074238498,41.6655050091475,16.9285168951844,-58.2475334291879,2.48016537610174,-50.5340394690357,-91.1379078933874,3.25762306421483,30.5546363307693,-6.48282422990134,-6.26130526946867,3.85638045937612,39.3494654330201,115.79660768329,35.5720308041453,-20.2805798433927,-68.9927246647184,-7.34556864144745,13.2678476702805,82.1969921095897,-6.77988975528853,5.22418935472114,-43.2731344605473,30.385408805375,28.9261618090218,66.4711220003471,-13.763616607607,-37.6206783645747,52.9211680936653,7.56644694831466,14.0649150014275,36.2663996705372,-1.10984450299344,23.0183695050687,88.9394579410919,0.702714333083545,-10.100235345088,-26.7518422202579,17.1638525876471,-4.12778828314397,29.4205579450508,18.4236289247325,51.593073510603,5.87599830994376,3.69144043366338,61.898403365178,-56.6355153370337,-29.8343591396123,-5.83772314239573,1,1,1,1,1,1,1,1,1,1,1,1,1,1,1,1,1,1,1,1,1,1,1,1,1,1,1,1,1,1,1,1,1,1,1,1,1,1,1,1,1,1,1,1,1,1,1,1,1,1,1,1,1,1,1,1,1,1,1,1,1,1,1,1,1,1,1,1,1,1,1,1,1,1,1,1,1,1,1,1,1,1,1,1,1,1,1,1,1,1,1,1,1,1,1,1,1,1,1,1,1,1,1,1,1,1,1,1,1,1,1,1,1,1,1,1,1,1,1,1,1,1,1,1,1,1,1,1,1,1,1,1,1,1,1,1,1,1,1,1,1,1,1,1,1,1,1,1,1,1,1,1,1,1,1,1,1,1,1,1,1,1,1,1,1,1,1,1,1,1,1,1,1,1,1,1,1,1,1,1,1,1,1,1,1,1,1,1,1,1,1,1,1,1,1,1,1,1,1,1,1,1,1,1,1,1,1,1,1,1,1,1,1,1,1,1,1,1,1,1,1,1,1,1,1,1,1,1,1,1,1,1,1,1,1,1,1,1,1,1,1,1,1,1,1,1,1,1,1,1,1,1,1,1,1,1,1,1,1,1,1,1,1,1,1,1,1,1,1,1,-1.30140069384697,-49.045980685741,-3.07186377309244,17.3740798946699,54.9080458075054,-14.4280135316026,-53.2190797239836,-6.85728474215949,48.0005044654755,-19.6889756829042,14.079546594013,-24.3998239979411,20.240646655258,-11.4320837173751,31.4300868453252,-10.2449796664814,-59.2563594088885,-9.5293987088667,-16.0675853844849,-11.7412643907998,-52.7161750026418,-21.2362757223965,-67.8850272148945,-16.0460597108569,-119.433449425868,19.9243132191396,-5.15980072090004,54.6427077102713,37.6973873814564,-72.0745563892894,-24.5401104239886,60.6495074635531,-3.57364842566671,-68.9113330417204,58.4574802947879,-36.934387900865,-10.9651470617167,7.58682956262924,-81.5042815157969,15.852904348693,13.1959780581996,-34.9796589399066,-5.27124709554166,-14.3745131309819,-10.9219395168237,-1.09617125034368,71.5316582510246,2.91568540281504,-4.98241832524948,-34.3681617414481,-4.77400203868421,-16.4693678800331,-31.7172113517998,-27.5085394354858,-4.15286353510693,57.3251208165768,-20.7163467309174,-49.2448670672935,-0.593193679606018,21.9960276304476,-22.509664464567,-0.61948576697382,-26.531132055295,-31.9383512460343,-35.3314661888569,-36.0237768941966,6.81685506353457,5.7049955667339,2.21031592271906,-18.8478855773278,-27.5216943057488,6.67179700191176,-25.9913581210613,24.3702978534097,-3.5313914292987,6.35891763903301,15.6877962036705,-7.42878571139834,-10.4737714625849,30.1311564428115,-19.8036347422745,8.86538478582897,-26.7158236476631,42.8753622885731,44.2581280002282,-42.0072202323946,-18.2696083435716,-33.352617243543,8.505988642382,-6.28650546018495,0.980785254237162,7.011325072965,-33.7990236409345,28.9485560486943,26.1014100244904,-41.4287834866258,-4.62426658902845,-57.840382858818,42.5044340673359,-34.5628443713815,7.39935333496503,39.0095319044709,-29.3888258737745,29.9544261238571,-9.95474893356048,10.1615862911113,14.9374658087786,-25.3148001725689,-6.7370696402269,-51.8122974133215,-18.3094013695702,-66.4124102109174,-35.4277272240481,2.67447965255073,-8.37419494772974,-3.79641410225233,-4.46849229450949,-46.7257700464223,13.8599993790332,-24.4305564366408,17.4163862892765,8.39262276870435,-0.356616864889754,78.5732330681343,5.06066626186396,10.6251571810354,-20.6629143429267,7.2479491764535,42.0857915086395,29.1832192200957,22.7815744606403,-16.548772655629,-66.186520439205,39.1819525756503,-62.1678295706518,50.3200085179133,15.9512643998225,1.43804992118524,10.1674525077937,25.7616702165446,56.639496846217,-63.5800745710372,-67.8968165284191,7.33131659459608,-54.0104677499481,-16.1508614791421,0.274464126361482,25.3817611606234,23.8093626947421,-11.5251037409674,23.1657507916371,-5.24371471275451,43.530333148564,7.40945919233324,13.7717310935474,47.6813503418416,31.3302918803216,-35.4605650303918,45.542804284811,-7.3909437158833,26.2790053011724,24.2562804133729,-10.1555350532876,43.5198312714509,-7.66099369441227,-51.5482648167633,22.3761904853628,45.2665201199533,-11.4692464142594,-64.0118995251683,8.6778743153483,-21.2153610840974,17.0177960970966,34.4066781347613,75.7882782050328,62.9606928061598,-25.8601912310953,39.9684608325753,-12.9885215768609,0.94954515030956,11.9148346361224,23.3961369615427,12.8147822283646,46.3540804606295,-2.4426787160118,35.1717100540637,-43.7382307542186,18.8787234326841,23.4449511159094,59.2649617151662,-18.6576006308729,-77.1319969914676,-23.7077112375094,53.0662608113523,-9.34531769275224,19.9360064989398,42.0919427981764,-2.2895899632417,-0.832230797501588,-27.9937193892623,-8.40222991522253,-49.1532253743906,8.83162680205747,-19.298473267679,74.8844292492366,-0.856545299012108,-4.62828277627097,33.1180960965449,-41.0436922470824,-28.8022192480684,-20.9426425191711,-13.0909246160424,44.2582286336225,-46.0111403564002,37.2272725161991,-15.2167946578251,-18.9884204230827,-86.3032214975504,-86.7237929138459,-60.0366124478796,35.622640026835,29.770223574121,43.1307961601264,-1.36791767905949,-34.1088552448396,10.2569263742336,-5.03114819773651,-46.1505992833396,-73.6275302778262,-24.9188565817314,48.2660272601867,10.7455864933115,-77.1221163785355,-12.6357730117032,11.8237999211961,-0.0202536075705639,26.1849855648068,15.2919906669435,-15.2225435640132,-13.3849220182917,-21.0417243478107,-2.88126798244683,-17.5644130127283,34.5769414239323,16.6319740872312,6.97802343893976,6.29087904922533,-41.5167520267707,43.2262708288759,28.1528897929886,-53.4997386443959,6.23818997797199,-36.3251347695628,13.0669871753259,-31.1830569246424,24.7280230948908,-36.5308075661991,43.7677785670712,15.6715917628297,57.659393796719,-26.5675904501863,67.2730916608618,47.4574840102417,79.1138210237473,1.6341116655628,-71.0016622286859,-25.5086895832068,44.352768752628,-87.8960810562825,45.3695481183814,1,1,1,1,1,1,1,1,1,1,1,1,1,1,1,1,1,1,1,1,1,1,1,1,1,1,1,1,1,1,1,1,1,1,1,1,1,1,1,1,1,1,1,1,1,1,1,1,1,1,1,1,1,1,1,1,1,1,1,1,1,1,1,1,1,1,1,1,1,1,1,1,1,1,1,1,1,1,1,1,1,1,1,1,1,1,1,1,1,1,1,1,1,1,1,1,1,1,1,1,1,1,1,1,1,1,1,1,1,1,1,1,1,1,1,1,1,1,1,1,1,1,1,1,1,1,1,1,1,1,1,1,1,1,1,1,1,1,1,1,1,1,1,1,1,1,1,1,1,1,1,1,1,1,1,1,1,1,1,1,1,1,1,1,1,1,1,1,1,1,1,1,1,1,1,1,1,1,1,1,1,1,1,1,1,1,1,1,1,1,1,1,1,1,1,1,1,1,1,1,1,1,1,1,1,1,1,1,1,1,1,1,1,1,1,1,1,1,1,1,1,1,1,1,1,1,1,1,1,1,1,1,1,1,1,1,1,1,1,1,1,1,1,1,1,1,1,1,1,1,1,1,1,1,1,1,1,1,1,1,1,1,1,1,1,1,1,1,1,1,41.3765579187808,135.630226989076,17.0278793569971,-54.0917464973501,20.1520210860484,-15.7432482615946,9.23732685957109,57.5438157335355,19.0593120574464,49.0116735352922,-54.084221501092,17.8110890589449,-8.36655708440926,-40.4661314870312,3.94212041452804,-40.7762039829738,-35.846433036237,-16.4838778356028,6.55575282778661,-105.223867427756,-39.5453884159064,14.2210741468611,41.8966819995232,6.39515164372342,-79.2413147228611,81.6227945868971,-1.52983486639767,66.5620599693045,76.3745531252881,6.26117995179947,-25.8743841265014,-54.0857582127096,-28.2647672963202,-5.73355183897096,12.6188394789911,-27.5691877725146,-32.448698859923,2.45481792967225,25.8623447585882,-17.5978706414378,-48.1863907358355,72.4005423925431,-53.9620133775478,35.4098093390085,-60.4602180275734,-7.54893092097525,8.73474931847525,2.04099251016843,-16.7546226831053,18.4310397509973,13.3955117792063,5.1888934136696,105.992975281987,-21.2215406094051,-27.2122104000054,74.9876428925878,-7.30386352073934,26.6984524265725,44.9861764452829,-12.2987377128738,-55.0890645065593,-62.2347578691659,-15.5649733042121,-12.7499924347406,-46.6150641671115,-8.37128838009395,46.5020752794247,67.4557070941367,-17.4196030772446,-21.4971053659976,76.9423211155763,14.4372956519808,22.4106075705033,39.6066220089239,8.0326821518274,42.0088023063983,-25.5031711889474,11.1198697971809,-16.9512260254276,19.5571602705991,32.1867474864651,11.9331061452042,-7.49432299934071,-8.03986879136056,-3.59550886510698,62.9520122408615,58.5604005833474,36.8680634929001,63.3527551941829,-15.0775577074406,-34.2193254031213,39.4127598883648,-51.5587013909259,-7.16379039940243,-19.1476814445853,52.0348752820926,111.021714695667,-61.208334557524,27.5357568100494,5.56563131508728,-15.2870074524701,46.5568378022461,-1.61973242513876,60.3608453794967,-76.3673304085129,10.7661916429006,-9.34198692003791,23.0762122595483,-101.115858991082,13.4259876764602,-38.989252256094,127.741992189106,-25.9760026888951,81.3784772618054,19.7846673204676,2.18369228233969,38.1531835021112,-45.1088697081943,17.5431559020964,108.391707219149,4.95430180704444,-1.33258872921392,29.6954145130538,-26.8396451987222,-38.5280801895742,17.670129579583,26.3644169655379,-22.6316616406445,-18.3068059564201,98.2744016974211,-62.9040599064057,-37.1772007982055,116.288249248704,22.1995051132264,-15.7323835358515,23.6297868985294,-99.8364102054179,24.9993781496649,32.5032256162234,59.0476914462471,56.7917981745879,-30.2975870164461,4.98994921614111,-45.539151784424,11.5138109301254,42.8449175720703,-44.1998346659057,29.0455214504172,-18.0019922793703,77.5631729683627,45.5099561360145,-8.72158617137793,-19.3371566103634,2.86075303733483,4.36156429634337,4.37366666507923,-28.1994917047086,11.3467409381161,-39.9797261043084,-37.975566838094,3.85236878138682,-41.5493981283245,4.08831734511458,-91.3030946364251,10.5477000989355,32.12148440518,-36.6908422454239,42.4976073059482,57.4647874871346,35.5158382900858,47.964857853265,20.4480295506007,-5.58706190680797,-86.4164391170244,31.1905461221834,54.7905812269234,53.4282290304705,46.6207663661732,64.8407304210595,32.7001070811193,20.3914583166237,-11.9959104930845,-32.4383680003433,55.2916748354924,67.3741439667064,64.9099941999124,-44.424585759198,27.8753909485859,-2.56120628220632,121.119148008342,15.7858201881197,9.54755747316967,-45.8970807979678,-18.5756761279294,49.0134332588245,-68.1633553682912,42.6690069252927,-36.5030226342122,44.3972665214512,-24.3777190358098,-9.0320030901615,-44.6636930043562,-22.9206506747218,67.3719753324713,7.14967747136409,-60.1861339508633,47.1738569633946,-36.9268437696331,7.29121140038871,-40.7272134267434,2.91930357426553,52.1303501676009,14.0016632963484,26.6060532679004,79.4735398468949,50.0224610692937,41.4250335322233,-65.11894696626,51.2552413955993,20.7226360626056,29.2850017383303,-33.8695877531684,-18.1982375598796,-37.6879074238498,41.6655050091475,16.9285168951844,-58.2475334291879,2.48016537610174,-50.5340394690357,-91.1379078933874,3.25762306421483,30.5546363307693,-6.48282422990134,-6.26130526946867,3.85638045937612,39.3494654330201,115.79660768329,35.5720308041453,-20.2805798433927,-68.9927246647184,-7.34556864144745,13.2678476702805,82.1969921095897,-6.77988975528853,5.22418935472114,-43.2731344605473,30.385408805375,28.9261618090218,66.4711220003471,-13.763616607607,-37.6206783645747,52.9211680936653,7.56644694831466,14.0649150014275,36.2663996705372,-1.10984450299344,23.0183695050687,88.9394579410919,0.702714333083545,-10.100235345088,-26.7518422202579,17.1638525876471,-4.12778828314397,29.4205579450508,18.4236289247325,51.593073510603,5.87599830994376,3.69144043366338,61.898403365178,-56.6355153370337,-29.8343591396123,-5.83772314239573,1,1,1,1,1,1,1,1,1,1,1,1,1,1,1,1,1,1,1,1,1,1,1,1,1,1,1,1,1,1,1,1,1,1,1,1,1,1,1,1,1,1,1,1,1,1,1,1,1,1,1,1,1,1,1,1,1,1,1,1,1,1,1,1,1,1,1,1,1,1,1,1,1,1,1,1,1,1,1,1,1,1,1,1,1,1,1,1,1,1,1,1,1,1,1,1,1,1,1,1,1,1,1,1,1,1,1,1,1,1,1,1,1,1,1,1,1,1,1,1,1,1,1,1,1,1,1,1,1,1,1,1,1,1,1,1,1,1,1,1,1,1,1,1,1,1,1,1,1,1,1,1,1,1,1,1,1,1,1,1,1,1,1,1,1,1,1,1,1,1,1,1,1,1,1,1,1,1,1,1,1,1,1,1,1,1,1,1,1,1,1,1,1,1,1,1,1,1,1,1,1,1,1,1,1,1,1,1,1,1,1,1,1,1,1,1,1,1,1,1,1,1,1,1,1,1,1,1,1,1,1,1,1,1,1,1,1,1,1,1,1,1,1,1,1,1,1,1,1,1,1,1,1,1,1,1,1,1,1,1,1,1,1,1,1,1,1,1,1,1,-1.30140069384697,-49.045980685741,-3.07186377309244,17.3740798946699,54.9080458075054,-14.4280135316026,-53.2190797239836,-6.85728474215949,48.0005044654755,-19.6889756829042,14.079546594013,-24.3998239979411,20.240646655258,-11.4320837173751,31.4300868453252,-10.2449796664814,-59.2563594088885,-9.5293987088667,-16.0675853844849,-11.7412643907998,-52.7161750026418,-21.2362757223965,-67.8850272148945,-16.0460597108569,-119.433449425868,19.9243132191396,-5.15980072090004,54.6427077102713,37.6973873814564,-72.0745563892894,-24.5401104239886,60.6495074635531,-3.57364842566671,-68.9113330417204,58.4574802947879,-36.934387900865,-10.9651470617167,7.58682956262924,-81.5042815157969,15.852904348693,13.1959780581996,-34.9796589399066,-5.27124709554166,-14.3745131309819,-10.9219395168237,-1.09617125034368,71.5316582510246,2.91568540281504,-4.98241832524948,-34.3681617414481,-4.77400203868421,-16.4693678800331,-31.7172113517998,-27.5085394354858,-4.15286353510693,57.3251208165768,-20.7163467309174,-49.2448670672935,-0.593193679606018,21.9960276304476,-22.509664464567,-0.61948576697382,-26.531132055295,-31.9383512460343,-35.3314661888569,-36.0237768941966,6.81685506353457,5.7049955667339,2.21031592271906,-18.8478855773278,-27.5216943057488,6.67179700191176,-25.9913581210613,24.3702978534097,-3.5313914292987,6.35891763903301,15.6877962036705,-7.42878571139834,-10.4737714625849,30.1311564428115,-19.8036347422745,8.86538478582897,-26.7158236476631,42.8753622885731,44.2581280002282,-42.0072202323946,-18.2696083435716,-33.352617243543,8.505988642382,-6.28650546018495,0.980785254237162,7.011325072965,-33.7990236409345,28.9485560486943,26.1014100244904,-41.4287834866258,-4.62426658902845,-57.840382858818,42.5044340673359,-34.5628443713815,7.39935333496503,39.0095319044709,-29.3888258737745,29.9544261238571,-9.95474893356048,10.1615862911113,14.9374658087786,-25.3148001725689,-6.7370696402269,-51.8122974133215,-18.3094013695702,-66.4124102109174,-35.4277272240481,2.67447965255073,-8.37419494772974,-3.79641410225233,-4.46849229450949,-46.7257700464223,13.8599993790332,-24.4305564366408,17.4163862892765,8.39262276870435,-0.356616864889754,78.5732330681343,5.06066626186396,10.6251571810354,-20.6629143429267,7.2479491764535,42.0857915086395,29.1832192200957,22.7815744606403,-16.548772655629,-66.186520439205,39.1819525756503,-62.1678295706518,50.3200085179133,15.9512643998225,1.43804992118524,10.1674525077937,25.7616702165446,56.639496846217,-63.5800745710372,-67.8968165284191,7.33131659459608,-54.0104677499481,-16.1508614791421,0.274464126361482,25.3817611606234,23.8093626947421,-11.5251037409674,23.1657507916371,-5.24371471275451,43.530333148564,7.40945919233324,13.7717310935474,47.6813503418416,31.3302918803216,-35.4605650303918,45.542804284811,-7.3909437158833,26.2790053011724,24.2562804133729,-10.1555350532876,43.5198312714509,-7.66099369441227,-51.5482648167633,22.3761904853628,45.2665201199533,-11.4692464142594,-64.0118995251683,8.6778743153483,-21.2153610840974,17.0177960970966,34.4066781347613,75.7882782050328,62.9606928061598,-25.8601912310953,39.9684608325753,-12.9885215768609,0.94954515030956,11.9148346361224,23.3961369615427,12.8147822283646,46.3540804606295,-2.4426787160118,35.1717100540637,-43.7382307542186,18.8787234326841,23.4449511159094,59.2649617151662,-18.6576006308729,-77.1319969914676,-23.7077112375094,53.0662608113523,-9.34531769275224,19.9360064989398,42.0919427981764,-2.2895899632417,-0.832230797501588,-27.9937193892623,-8.40222991522253,-49.1532253743906,8.83162680205747,-19.298473267679,74.8844292492366,-0.856545299012108,-4.62828277627097,33.1180960965449,-41.0436922470824,-28.8022192480684,-20.9426425191711,-13.0909246160424,44.2582286336225,-46.0111403564002,37.2272725161991,-15.2167946578251,-18.9884204230827,-86.3032214975504,-86.7237929138459,-60.0366124478796,35.622640026835,29.770223574121,43.1307961601264,-1.36791767905949,-34.1088552448396,10.2569263742336,-5.03114819773651,-46.1505992833396,-73.6275302778262,-24.9188565817314,48.2660272601867,10.7455864933115,-77.1221163785355,-12.6357730117032,11.8237999211961,-0.0202536075705639,26.1849855648068,15.2919906669435,-15.2225435640132,-13.3849220182917,-21.0417243478107,-2.88126798244683,-17.5644130127283,34.5769414239323,16.6319740872312,6.97802343893976,6.29087904922533,-41.5167520267707,43.2262708288759,28.1528897929886,-53.4997386443959,6.23818997797199,-36.3251347695628,13.0669871753259,-31.1830569246424,24.7280230948908,-36.5308075661991,43.7677785670712,15.6715917628297,57.659393796719,-26.5675904501863,67.2730916608618,47.4574840102417,79.1138210237473,1.6341116655628,-71.0016622286859,-25.5086895832068,44.352768752628,-87.8960810562825,45.3695481183814,1,1,1,1,1,1,1,1,1,1,1,1,1,1,1,1,1,1,1,1,1,1,1,1,1,1,1,1,1,1,1,1,1,1,1,1,1,1,1,1,1,1,1,1,1,1,1,1,1,1,1,1,1,1,1,1,1,1,1,1,1,1,1,1,1,1,1,1,1,1,1,1,1,1,1,1,1,1,1,1,1,1,1,1,1,1,1,1,1,1,1,1,1,1,1,1,1,1,1,1,1,1,1,1,1,1,1,1,1,1,1,1,1,1,1,1,1,1,1,1,1,1,1,1,1,1,1,1,1,1,1,1,1,1,1,1,1,1,1,1,1,1,1,1,1,1,1,1,1,1,1,1,1,1,1,1,1,1,1,1,1,1,1,1,1,1,1,1,1,1,1,1,1,1,1,1,1,1,1,1,1,1,1,1,1,1,1,1,1,1,1,1,1,1,1,1,1,1,1,1,1,1,1,1,1,1,1,1,1,1,1,1,1,1,1,1,1,1,1,1,1,1,1,1,1,1,1,1,1,1,1,1,1,1,1,1,1,1,1,1,1,1,1,1,1,1,1,1,1,1,1,1,1,1,1,1,1,1,1,1,1,1,1,1,1,1,1,1,1,1
