287.511947874219,54.479810141716,271.532899196508,-19.8367275668895,104.099431118249,8.98401462195367,-15.3608145446167,-6.28717832266014,23.3922700937604,-0.921036283851498,60.0806977093902,30.954635646073,1.23826872049364,-63.56905987874,2.14394387915932,-3.13500521061727,-32.0528473904713,38.1500787765866,-71.701765888098,-28.5032960874678,16.1847868586356,-48.8497639656597,-62.6174279339125,-76.4821826275677,48.011871453698,14.7534664618144,7.903459812759,-71.7344116174638,47.5488438326957,53.1056305830908,41.3498171558635,5.97984861870406,-8.76173625104551,-18.1890050881376,-48.3492995292287,27.4621929971263,-28.4848016299835,-9.88260754440912,-28.7344993302792,-46.1355262791684,-31.3447138529204,25.5272953346624,-4.61652342231766,-23.7077720624726,66.5868666851737,-42.4927403634442,67.2783000982901,-19.8905940983811,-4.87733674889909,-20.0628452437334,-55.375722764726,-7.16619904520309,43.5866908510284,43.8526136616781,64.7790318780583,55.6746782199533,-19.2355969779547,-20.3391940714684,17.9446217849588,-10.250035406874,22.9012739537433,10.3911567968514,-19.3412425242079,-32.326909794976,-24.1124287704722,9.08091629023139,-3.24643695136469,-31.8983569583621,-13.812442229428,83.9077663287383,26.5913441906209,18.071975550436,-1.46296812480887,38.8558115813561,42.3601677638463,47.8050337969309,-10.5805804439784,45.4708465186697,27.0187254067312,-12.899214150905,62.8435408378196,-17.6530004564282,11.0789499129545,64.8122607719146,10.6294735521213,-74.3155418583311,-15.1677377825902,15.6948530017414,12.7817096033663,32.7797668540384,17.9857207156055,67.151603180525,-11.4571770642414,1.37658040200704,-22.8485596508046,10.5115912007128,-24.5870920566897,44.6142871944818,31.3389373182388,98.5720210098004,22.7611721901955,18.9575519632455,23.2082459667022,-15.9087816359308,37.1341765092084,-9.79965930666862,24.5306307123743,-27.7576317727809,30.0182701897778,-45.4986661637744,18.6721492708488,-90.355509891307,12.4932840949936,17.880327545812,46.137039733895,-20.9912290076642,97.4266692812066,24.4284423856728,33.2098466213136,29.4660980524456,-10.6735515099709,45.0978144441294,50.2583994524128,-37.9121535188376,-16.3644729481743,8.19271253279818,19.7362404738182,-24.1099236879853,-20.1996288313929,21.5103891181562,20.8232823555396,10.7604546339558,73.9393447786573,-59.6838888109363,-42.053670181316,107.459097235148,17.0392990902214,-22.4305101093108,50.5934165315912,-55.8009043088948,23.137756040291,-3.55815699352657,74.5496726276262,16.3559175817792,21.3551889109383,-16.8515036494482,-15.2376848972541,-57.0747198774522,34.6921070142058,-28.5194693941059,28.5414182730695,31.5758259904751,25.3155193509359,0.321046998486747,-16.8779846192886,16.4622265619253,2.53950036621706,18.5324586858432,4.88788128600385,-21.4074164198152,34.6308902391562,-30.9907853894715,-38.6768696025016,21.1561077982292,1.74139693746869,-9.49143358529698,-40.9486524658284,9.32317320137184,25.4303819206709,-31.6962731229738,29.8892601457305,14.1925984980924,5.24596752763973,-21.9380153570096,2.38141274009598,-6.59404685425077,-71.6650285844962,66.7216639714372,-17.729561288815,3.70801462363242,72.5028443676358,64.8926273373502,48.8810069772843,18.1657624070659,6.3905477325278,-43.1769841143643,29.9235658867308,57.6389809954043,-1.83145567532157,-20.3640922512409,62.7463491500402,12.9129297295496,94.394421561797,42.0239020083673,28.934065578093,6.72989145726377,-32.6565381520411,3.44212922019668,-17.6369836175317,117.884957160373,-35.7648079953898,50.5925724681888,-7.41325336709501,-76.9398239476214,-52.5663223894375,-6.29508135285893,55.2605952410014,53.8324860427493,-50.959880661254,-7.08097600558573,-22.7514175557356,-29.4282693326854,-6.19179350534872,-20.2925622194063,55.409953430954,21.8002459495601,0.492510457836437,37.4627031187858,60.939683238171,20.7671160011617,-2.83705206775374,29.5254577524996,9.73832946279689,62.7819141962106,-22.6258262445881,10.7556926567854,-4.16559461880137,52.2199612491297,3.2272638165253,-67.7158770805471,37.1216493141303,-89.465039992522,-65.3019212587183,36.7542089252895,-32.3198454374098,-24.4571340254547,-1.9154982183675,-21.6737735967412,64.7124232133957,88.9251144344627,21.3749568794059,-17.078593257035,-28.8761688120484,26.1959774582656,-0.200093843492187,74.169909552054,9.2437376861208,6.90443061176125,-27.451719155906,40.1081179467508,34.2373512495606,49.5946426003917,-39.6561837948118,-14.3496067968226,-6.56219231448963,38.9041638672516,9.93710545417368,-21.5727465721146,72.6604143603438,24.2434351241602,68.106964512874,33.1201852624236,0.0590287800275143,-10.3058423651707,30.7065045896837,-20.2875107411511,8.19169503708904,13.0388144262908,42.6430880673183,-13.7792527922521,-9.80888315419751,76.8565733421156,-22.623883610398,-1.44515757218535,20.1422822122042,1,1,1,1,1,1,1,1,1,1,1,1,1,1,1,1,1,1,1,1,1,1,1,1,1,1,1,1,1,1,1,1,1,1,1,1,1,1,1,1,1,1,1,1,1,1,1,1,1,1,1,1,1,1,1,1,1,1,1,1,1,1,1,1,1,1,1,1,1,1,1,1,1,1,1,1,1,1,1,1,1,1,1,1,1,1,1,1,1,1,1,1,1,1,1,1,1,1,1,1,1,1,1,1,1,1,1,1,1,1,1,1,1,1,1,1,1,1,1,1,1,1,1,1,1,1,1,1,1,1,1,1,1,1,1,1,1,1,1,1,1,1,1,1,1,1,1,1,1,1,1,1,1,1,1,1,1,1,1,1,1,1,1,1,1,1,1,1,1,1,1,1,1,1,1,1,1,1,1,1,1,1,1,1,1,1,1,1,1,1,1,1,1,1,1,1,1,1,1,1,1,1,1,1,1,1,1,1,1,1,1,1,1,1,1,1,1,1,1,1,1,1,1,1,1,1,1,1,1,1,1,1,1,1,1,1,1,1,1,1,1,1,1,1,1,1,1,1,1,1,1,1,1,1,1,1,1,1,1,1,1,1,1,1,1,1,1,1,1,1,-30.3220782417567,-59.9736175668271,34.7932210315023,12.464706940908,-21.9007520539823,-25.757243615509,-58.2127850660493,-44.2589206637581,42.5314730346468,1.2108040732738,5.04020808519796,-27.57943616271,2.49837994774581,30.233606405417,-30.0625991023203,30.5800238672137,-25.3738820812473,0.231347757405068,2.56680524301035,-18.9240689675616,-33.383378491321,12.9570130820177,-43.8025184223463,-34.7741216352312,-4.54158610717977,3.03320741754858,-19.6166302277802,42.6874655794064,33.3576012142067,-53.0568994120029,48.8316110984984,-9.19310090388398,-15.0420238538166,-35.2728733208818,-5.63347937529313,-2.04002236278331,-21.5459730861565,30.1161429806056,-30.1975343795922,2.00347208242849,-1.35323900182489,18.1700977241025,-8.30776115876,42.8326440668761,-14.2539905879735,-1.21432540787498,19.7480044310188,1.51146018383029,-32.5339764934275,-9.94930159100758,55.95840815037,-21.4514497953025,19.8039465139034,17.7289950003296,-53.9350332989075,68.7448453338635,-30.8831370218371,-28.9759134343781,-20.2817388157832,36.6459175251694,-12.1556864019691,24.060240261429,-8.13527996182586,1.75208049412264,-25.825024390586,-34.791370859107,33.7888135011748,-15.2190132908654,4.50420908660285,16.6120635372676,23.0517739552532,-32.3424931247866,-43.7114544474889,-3.44680302523638,-9.45319266138372,19.559765985027,-3.92804522543116,-13.5086297291015,-45.6931537875351,26.4821160777103,-9.72121715831853,-61.1788741224253,17.3888953104042,37.7575332689284,5.85184025382462,-21.471818648332,-3.25299717708074,12.1927824591792,-23.0016221049947,14.0227296524384,-38.4815958846292,5.5058037346261,-1.36026395814804,-6.36897462363714,17.7604203340199,-26.007722606453,-18.0321509764096,-16.9198482842944,25.9560109303798,7.60481187840678,-29.8741598278108,-7.91916036575671,-10.8167829931963,-8.20928560768826,7.64029480712442,10.9924555880406,2.65601664026066,-10.2964611247125,1.52293432999264,-37.4312834652402,-9.61018359634959,-28.2543366539695,6.58141532834378,-25.2878479797526,-44.6802687348685,-14.4556084407917,-13.3401512010878,-37.9097350870931,0.607213263118739,4.31583357711862,-30.8374142241257,-22.0467108931303,-26.3756047563692,31.4655373238788,12.4556639822456,51.8340821215842,-9.21848898501164,2.63189674822765,12.5434843588612,-18.1168394848576,25.1602467986894,1.40629990937579,-8.98104161677449,45.4768473748477,-25.3398478620367,11.8646356406012,28.2483957759085,-19.4670048366143,-15.7393701250457,-8.04959850388197,19.5506529137496,-7.68071696054576,5.68924704733592,37.8083258731879,-42.3088067074746,-21.5253713586918,20.7967880960306,9.7404835751793,2.8781863977644,30.1411439379321,48.5802543459142,-21.0365962052795,-7.19237120485162,-0.152291212277956,-18.7594032879824,2.35444938145105,-7.93096559500681,12.8578159618913,5.36227659306036,41.9841056898925,-10.9659880291208,-9.39520254676357,14.4233065769226,-12.3730622653223,37.4308360991449,1.26635586077128,-14.3432183075238,-19.6307265371334,-19.7072053323019,-25.1120230148354,2.72422735509418,-24.175198386003,-15.9146305223412,0.7409653158969,20.1340641547854,1.2205729528697,-18.773788267269,-18.4306860180084,16.929789578262,26.4196436387566,-4.23310239764829,-9.15738810701464,48.9542122814484,11.3604162990305,-23.9554641519932,-27.4075388179078,-9.05348901997232,12.511848076664,0.588907924884984,17.5313658537542,-29.2517356390076,34.6542700327687,-32.2064384829475,-21.4749756359143,-20.2229876006119,7.00180427389467,26.6010742064262,20.1762797592993,-23.6350902493074,-13.9010390381196,-42.5513327402348,-31.8241917747045,21.1098518580196,16.5821642430174,30.8450545153659,-24.9448056027073,0.746188628924843,-29.9575823198452,-34.0311110540946,4.1633182720957,-1.66872792220565,9.8738835354373,29.6607709961096,4.00912359402627,47.1971137252128,18.3909262787331,13.2919057501838,-58.8759087894854,-16.3782964216085,-28.9292109393942,35.0001252254259,-4.88869253845773,11.2258401421557,-25.5036516372887,-36.8906448127383,25.5919384478522,-1.59911104715108,14.8662655041291,10.658573337579,-8.56937321032776,-48.4668609968728,32.837639040489,-22.1718703389491,26.3601626334433,13.9734444845508,16.5918623262576,-8.29444794390313,-13.2147264661474,-19.9016167128338,-11.3295886272897,26.7094130307353,36.77222626838,5.7726457492937,-9.6639818064987,-32.5416174746847,-11.7793241586981,-12.3761338758888,12.4174296208288,49.3379112598062,-26.5814409172627,-14.8279048000022,7.66917426943027,6.81677829313579,20.8327985700704,-34.7508425570709,-9.50446821794916,21.4971665933348,-31.9412757665756,-0.299515902568274,41.0785745045968,13.489578231281,16.142197333728,14.2992577178907,60.838478606539,5.61737983696842,-83.3475927704147,-15.5850901745845,26.1934844259117,-38.1619670873422,44.4372557977276,1,1,1,1,1,1,1,1,1,1,1,1,1,1,1,1,1,1,1,1,1,1,1,1,1,1,1,1,1,1,1,1,1,1,1,1,1,1,1,1,1,1,1,1,1,1,1,1,1,1,1,1,1,1,1,1,1,1,1,1,1,1,1,1,1,1,1,1,1,1,1,1,1,1,1,1,1,1,1,1,1,1,1,1,1,1,1,1,1,1,1,1,1,1,1,1,1,1,1,1,1,1,1,1,1,1,1,1,1,1,1,1,1,1,1,1,1,1,1,1,1,1,1,1,1,1,1,1,1,1,1,1,1,1,1,1,1,1,1,1,1,1,1,1,1,1,1,1,1,1,1,1,1,1,1,1,1,1,1,1,1,1,1,1,1,1,1,1,1,1,1,1,1,1,1,1,1,1,1,1,1,1,1,1,1,1,1,1,1,1,1,1,1,1,1,1,1,1,1,1,1,1,1,1,1,1,1,1,1,1,1,1,1,1,1,1,1,1,1,1,1,1,1,1,1,1,1,1,1,1,1,1,1,1,1,1,1,1,1,1,1,1,1,1,1,1,1,1,1,1,1,1,1,1,1,1,1,1,1,1,1,1,1,1,1,1,1,1,1,1,-61.5247097127461,-69.9372685860171,8.98401462195367,-15.3608145446167,-6.28717832266014,23.3922700937604,-0.921036283851498,60.0806977093902,30.954635646073,1.23826872049364,-63.56905987874,2.14394387915932,-3.13500521061727,-32.0528473904713,38.1500787765866,-71.701765888098,-28.5032960874678,16.1847868586356,-48.8497639656597,-62.6174279339125,-76.4821826275677,48.011871453698,14.7534664618144,7.903459812759,-71.7344116174638,47.5488438326957,53.1056305830908,41.3498171558635,5.97984861870406,-8.76173625104551,-18.1890050881376,-48.3492995292287,27.4621929971263,-28.4848016299835,-9.88260754440912,-28.7344993302792,-46.1355262791684,-31.3447138529204,25.5272953346624,-4.61652342231766,-23.7077720624726,66.5868666851737,-42.4927403634442,67.2783000982901,-19.8905940983811,-4.87733674889909,-20.0628452437334,-55.375722764726,-7.16619904520309,43.5866908510284,43.8526136616781,64.7790318780583,55.6746782199533,-19.2355969779547,-20.3391940714684,17.9446217849588,-10.250035406874,22.9012739537433,10.3911567968514,-19.3412425242079,-32.326909794976,-24.1124287704722,9.08091629023139,-3.24643695136469,-31.8983569583621,-13.812442229428,83.9077663287383,26.5913441906209,18.071975550436,-1.46296812480887,38.8558115813561,42.3601677638463,47.8050337969309,-10.5805804439784,45.4708465186697,27.0187254067312,-12.899214150905,62.8435408378196,-17.6530004564282,11.0789499129545,64.8122607719146,10.6294735521213,-74.3155418583311,-15.1677377825902,15.6948530017414,12.7817096033663,32.7797668540384,17.9857207156055,67.151603180525,-11.4571770642414,1.37658040200704,-22.8485596508046,10.5115912007128,-24.5870920566897,44.6142871944818,31.3389373182388,98.5720210098004,22.7611721901955,18.9575519632455,23.2082459667022,-15.9087816359308,37.1341765092084,-9.79965930666862,24.5306307123743,-27.7576317727809,30.0182701897778,-45.4986661637744,18.6721492708488,-90.355509891307,12.4932840949936,17.880327545812,46.137039733895,-20.9912290076642,97.4266692812066,24.4284423856728,33.2098466213136,29.4660980524456,-10.6735515099709,45.0978144441294,50.2583994524128,-37.9121535188376,-16.3644729481743,8.19271253279818,19.7362404738182,-24.1099236879853,-20.1996288313929,21.5103891181562,20.8232823555396,10.7604546339558,73.9393447786573,-59.6838888109363,-42.053670181316,107.459097235148,17.0392990902214,-22.4305101093108,50.5934165315912,-55.8009043088948,23.137756040291,-3.55815699352657,74.5496726276262,16.3559175817792,21.3551889109383,-16.8515036494482,-15.2376848972541,-57.0747198774522,34.6921070142058,-28.5194693941059,28.5414182730695,31.5758259904751,25.3155193509359,0.321046998486747,-16.8779846192886,16.4622265619253,2.53950036621706,18.5324586858432,4.88788128600385,-21.4074164198152,34.6308902391562,-30.9907853894715,-38.6768696025016,21.1561077982292,1.74139693746869,-9.49143358529698,-40.9486524658284,9.32317320137184,25.4303819206709,-31.6962731229738,29.8892601457305,14.1925984980924,5.24596752763973,-21.9380153570096,2.38141274009598,-6.59404685425077,-71.6650285844962,66.7216639714372,-17.729561288815,3.70801462363242,72.5028443676358,64.8926273373502,48.8810069772843,18.1657624070659,6.3905477325278,-43.1769841143643,29.9235658867308,57.6389809954043,-1.83145567532157,-20.3640922512409,62.7463491500402,12.9129297295496,94.394421561797,42.0239020083673,28.934065578093,6.72989145726377,-32.6565381520411,3.44212922019668,-17.6369836175317,117.884957160373,-35.7648079953898,50.5925724681888,-7.41325336709501,-76.9398239476214,-52.5663223894375,-6.29508135285893,55.2605952410014,53.8324860427493,-50.959880661254,-7.08097600558573,-22.7514175557356,-29.4282693326854,-6.19179350534872,-20.2925622194063,55.409953430954,21.8002459495601,0.492510457836437,37.4627031187858,60.939683238171,20.7671160011617,-2.83705206775374,29.5254577524996,9.73832946279689,62.7819141962106,-22.6258262445881,10.7556926567854,-4.16559461880137,52.2199612491297,3.2272638165253,-67.7158770805471,37.1216493141303,-89.465039992522,-65.3019212587183,36.7542089252895,-32.3198454374098,-24.4571340254547,-1.9154982183675,-21.6737735967412,64.7124232133957,88.9251144344627,21.3749568794059,-17.078593257035,-28.8761688120484,26.1959774582656,-0.200093843492187,74.169909552054,9.2437376861208,6.90443061176125,-27.451719155906,40.1081179467508,34.2373512495606,49.5946426003917,-39.6561837948118,-14.3496067968226,-6.56219231448963,38.9041638672516,9.93710545417368,-21.5727465721146,72.6604143603438,24.2434351241602,68.106964512874,33.1201852624236,0.0590287800275143,-10.3058423651707,30.7065045896837,-20.2875107411511,8.19169503708904,13.0388144262908,42.6430880673183,-13.7792527922521,-9.80888315419751,76.8565733421156,-22.623883610398,-1.44515757218535,20.1422822122042,1,1,1,1,1,1,1,1,1,1,1,1,1,1,1,1,1,1,1,1,1,1,1,1,1,1,1,1,1,1,1,1,1,1,1,1,1,1,1,1,1,1,1,1,1,1,1,1,1,1,1,1,1,1,1,1,1,1,1,1,1,1,1,1,1,1,1,1,1,1,1,1,1,1,1,1,1,1,1,1,1,1,1,1,1,1,1,1,1,1,1,1,1,1,1,1,1,1,1,1,1,1,1,1,1,1,1,1,1,1,1,1,1,1,1,1,1,1,1,1,1,1,1,1,1,1,1,1,1,1,1,1,1,1,1,1,1,1,1,1,1,1,1,1,1,1,1,1,1,1,1,1,1,1,1,1,1,1,1,1,1,1,1,1,1,1,1,1,1,1,1,1,1,1,1,1,1,1,1,1,1,1,1,1,1,1,1,1,1,1,1,1,1,1,1,1,1,1,1,1,1,1,1,1,1,1,1,1,1,1,1,1,1,1,1,1,1,1,1,1,1,1,1,1,1,1,1,1,1,1,1,1,1,1,1,1,1,1,1,1,1,1,1,1,1,1,1,1,1,1,1,1,1,1,1,1,1,1,1,1,1,1,1,1,1,1,1,1,1,1,-30.3220782417567,-59.9736175668271,34.7932210315023,12.464706940908,-21.9007520539823,-25.757243615509,-58.2127850660493,-44.2589206637581,42.5314730346468,1.2108040732738,5.04020808519796,-27.57943616271,2.49837994774581,30.233606405417,-30.0625991023203,30.5800238672137,-25.3738820812473,0.231347757405068,2.56680524301035,-18.9240689675616,-33.383378491321,12.9570130820177,-43.8025184223463,-34.7741216352312,-4.54158610717977,3.03320741754858,-19.6166302277802,42.6874655794064,33.3576012142067,-53.0568994120029,48.8316110984984,-9.19310090388398,-15.0420238538166,-35.2728733208818,-5.63347937529313,-2.04002236278331,-21.5459730861565,30.1161429806056,-30.1975343795922,2.00347208242849,-1.35323900182489,18.1700977241025,-8.30776115876,42.8326440668761,-14.2539905879735,-1.21432540787498,19.7480044310188,1.51146018383029,-32.5339764934275,-9.94930159100758,55.95840815037,-21.4514497953025,19.8039465139034,17.7289950003296,-53.9350332989075,68.7448453338635,-30.8831370218371,-28.9759134343781,-20.2817388157832,36.6459175251694,-12.1556864019691,24.060240261429,-8.13527996182586,1.75208049412264,-25.825024390586,-34.791370859107,33.7888135011748,-15.2190132908654,4.50420908660285,16.6120635372676,23.0517739552532,-32.3424931247866,-43.7114544474889,-3.44680302523638,-9.45319266138372,19.559765985027,-3.92804522543116,-13.5086297291015,-45.6931537875351,26.4821160777103,-9.72121715831853,-61.1788741224253,17.3888953104042,37.7575332689284,5.85184025382462,-21.471818648332,-3.25299717708074,12.1927824591792,-23.0016221049947,14.0227296524384,-38.4815958846292,5.5058037346261,-1.36026395814804,-6.36897462363714,17.7604203340199,-26.007722606453,-18.0321509764096,-16.9198482842944,25.9560109303798,7.60481187840678,-29.8741598278108,-7.91916036575671,-10.8167829931963,-8.20928560768826,7.64029480712442,10.9924555880406,2.65601664026066,-10.2964611247125,1.52293432999264,-37.4312834652402,-9.61018359634959,-28.2543366539695,6.58141532834378,-25.2878479797526,-44.6802687348685,-14.4556084407917,-13.3401512010878,-37.9097350870931,0.607213263118739,4.31583357711862,-30.8374142241257,-22.0467108931303,-26.3756047563692,31.4655373238788,12.4556639822456,51.8340821215842,-9.21848898501164,2.63189674822765,12.5434843588612,-18.1168394848576,25.1602467986894,1.40629990937579,-8.98104161677449,45.4768473748477,-25.3398478620367,11.8646356406012,28.2483957759085,-19.4670048366143,-15.7393701250457,-8.04959850388197,19.5506529137496,-7.68071696054576,5.68924704733592,37.8083258731879,-42.3088067074746,-21.5253713586918,20.7967880960306,9.7404835751793,2.8781863977644,30.1411439379321,48.5802543459142,-21.0365962052795,-7.19237120485162,-0.152291212277956,-18.7594032879824,2.35444938145105,-7.93096559500681,12.8578159618913,5.36227659306036,41.9841056898925,-10.9659880291208,-9.39520254676357,14.4233065769226,-12.3730622653223,37.4308360991449,1.26635586077128,-14.3432183075238,-19.6307265371334,-19.7072053323019,-25.1120230148354,2.72422735509418,-24.175198386003,-15.9146305223412,0.7409653158969,20.1340641547854,1.2205729528697,-18.773788267269,-18.4306860180084,16.929789578262,26.4196436387566,-4.23310239764829,-9.15738810701464,48.9542122814484,11.3604162990305,-23.9554641519932,-27.4075388179078,-9.05348901997232,12.511848076664,0.588907924884984,17.5313658537542,-29.2517356390076,34.6542700327687,-32.2064384829475,-21.4749756359143,-20.2229876006119,7.00180427389467,26.6010742064262,20.1762797592993,-23.6350902493074,-13.9010390381196,-42.5513327402348,-31.8241917747045,21.1098518580196,16.5821642430174,30.8450545153659,-24.9448056027073,0.746188628924843,-29.9575823198452,-34.0311110540946,4.1633182720957,-1.66872792220565,9.8738835354373,29.6607709961096,4.00912359402627,47.1971137252128,18.3909262787331,13.2919057501838,-58.8759087894854,-16.3782964216085,-28.9292109393942,35.0001252254259,-4.88869253845773,11.2258401421557,-25.5036516372887,-36.8906448127383,25.5919384478522,-1.59911104715108,14.8662655041291,10.658573337579,-8.56937321032776,-48.4668609968728,32.837639040489,-22.1718703389491,26.3601626334433,13.9734444845508,16.5918623262576,-8.29444794390313,-13.2147264661474,-19.9016167128338,-11.3295886272897,26.7094130307353,36.77222626838,5.7726457492937,-9.6639818064987,-32.5416174746847,-11.7793241586981,-12.3761338758888,12.4174296208288,49.3379112598062,-26.5814409172627,-14.8279048000022,7.66917426943027,6.81677829313579,20.8327985700704,-34.7508425570709,-9.50446821794916,21.4971665933348,-31.9412757665756,-0.299515902568274,41.0785745045968,13.489578231281,16.142197333728,14.2992577178907,60.838478606539,5.61737983696842,-83.3475927704147,-15.5850901745845,26.1934844259117,-38.1619670873422,44.4372557977276,1,1,1,1,1,1,1,1,1,1,1,1,1,1,1,1,1,1,1,1,1,1,1,1,1,1,1,1,1,1,1,1,1,1,1,1,1,1,1,1,1,1,1,1,1,1,1,1,1,1,1,1,1,1,1,1,1,1,1,1,1,1,1,1,1,1,1,1,1,1,1,1,1,1,1,1,1,1,1,1,1,1,1,1,1,1,1,1,1,1,1,1,1,1,1,1,1,1,1,1,1,1,1,1,1,1,1,1,1,1,1,1,1,1,1,1,1,1,1,1,1,1,1,1,1,1,1,1,1,1,1,1,1,1,1,1,1,1,1,1,1,1,1,1,1,1,1,1,1,1,1,1,1,1,1,1,1,1,1,1,1,1,1,1,1,1,1,1,1,1,1,1,1,1,1,1,1,1,1,1,1,1,1,1,1,1,1,1,1,1,1,1,1,1,1,1,1,1,1,1,1,1,1,1,1,1,1,1,1,1,1,1,1,1,1,1,1,1,1,1,1,1,1,1,1,1,1,1,1,1,1,1,1,1,1,1,1,1,1,1,1,1,1,1,1,1,1,1,1,1,1,1,1,1,1,1,1,1,1,1,1,1,1,1,1,1,1,1,1,1,160.847689632917,-81.1541573432428,8.98401462195367,-15.3608145446167,-6.28717832266014,23.3922700937604,-0.921036283851498,60.0806977093902,30.954635646073,1.23826872049364,-63.56905987874,2.14394387915932,-3.13500521061727,-32.0528473904713,38.1500787765866,-71.701765888098,-28.5032960874678,16.1847868586356,-48.8497639656597,-62.6174279339125,-76.4821826275677,48.011871453698,14.7534664618144,7.903459812759,-71.7344116174638,47.5488438326957,53.1056305830908,41.3498171558635,5.97984861870406,-8.76173625104551,-18.1890050881376,-48.3492995292287,27.4621929971263,-28.4848016299835,-9.88260754440912,-28.7344993302792,-46.1355262791684,-31.3447138529204,25.5272953346624,-4.61652342231766,-23.7077720624726,66.5868666851737,-42.4927403634442,67.2783000982901,-19.8905940983811,-4.87733674889909,-20.0628452437334,-55.375722764726,-7.16619904520309,43.5866908510284,43.8526136616781,64.7790318780583,55.6746782199533,-19.2355969779547,-20.3391940714684,17.9446217849588,-10.250035406874,22.9012739537433,10.3911567968514,-19.3412425242079,-32.326909794976,-24.1124287704722,9.08091629023139,-3.24643695136469,-31.8983569583621,-13.812442229428,83.9077663287383,26.5913441906209,18.071975550436,-1.46296812480887,38.8558115813561,42.3601677638463,47.8050337969309,-10.5805804439784,45.4708465186697,27.0187254067312,-12.899214150905,62.8435408378196,-17.6530004564282,11.0789499129545,64.8122607719146,10.6294735521213,-74.3155418583311,-15.1677377825902,15.6948530017414,12.7817096033663,32.7797668540384,17.9857207156055,67.151603180525,-11.4571770642414,1.37658040200704,-22.8485596508046,10.5115912007128,-24.5870920566897,44.6142871944818,31.3389373182388,98.5720210098004,22.7611721901955,18.9575519632455,23.2082459667022,-15.9087816359308,37.1341765092084,-9.79965930666862,24.5306307123743,-27.7576317727809,30.0182701897778,-45.4986661637744,18.6721492708488,-90.355509891307,12.4932840949936,17.880327545812,46.137039733895,-20.9912290076642,97.4266692812066,24.4284423856728,33.2098466213136,29.4660980524456,-10.6735515099709,45.0978144441294,50.2583994524128,-37.9121535188376,-16.3644729481743,8.19271253279818,19.7362404738182,-24.1099236879853,-20.1996288313929,21.5103891181562,20.8232823555396,10.7604546339558,73.9393447786573,-59.6838888109363,-42.053670181316,107.459097235148,17.0392990902214,-22.4305101093108,50.5934165315912,-55.8009043088948,23.137756040291,-3.55815699352657,74.5496726276262,16.3559175817792,21.3551889109383,-16.8515036494482,-15.2376848972541,-57.0747198774522,34.6921070142058,-28.5194693941059,28.5414182730695,31.5758259904751,25.3155193509359,0.321046998486747,-16.8779846192886,16.4622265619253,2.53950036621706,18.5324586858432,4.88788128600385,-21.4074164198152,34.6308902391562,-30.9907853894715,-38.6768696025016,21.1561077982292,1.74139693746869,-9.49143358529698,-40.9486524658284,9.32317320137184,25.4303819206709,-31.6962731229738,29.8892601457305,14.1925984980924,5.24596752763973,-21.9380153570096,2.38141274009598,-6.59404685425077,-71.6650285844962,66.7216639714372,-17.729561288815,3.70801462363242,72.5028443676358,64.8926273373502,48.8810069772843,18.1657624070659,6.3905477325278,-43.1769841143643,29.9235658867308,57.6389809954043,-1.83145567532157,-20.3640922512409,62.7463491500402,12.9129297295496,94.394421561797,42.0239020083673,28.934065578093,6.72989145726377,-32.6565381520411,3.44212922019668,-17.6369836175317,117.884957160373,-35.7648079953898,50.5925724681888,-7.41325336709501,-76.9398239476214,-52.5663223894375,-6.29508135285893,55.2605952410014,53.8324860427493,-50.959880661254,-7.08097600558573,-22.7514175557356,-29.4282693326854,-6.19179350534872,-20.2925622194063,55.409953430954,21.8002459495601,0.492510457836437,37.4627031187858,60.939683238171,20.7671160011617,-2.83705206775374,29.5254577524996,9.73832946279689,62.7819141962106,-22.6258262445881,10.7556926567854,-4.16559461880137,52.2199612491297,3.2272638165253,-67.7158770805471,37.1216493141303,-89.465039992522,-65.3019212587183,36.7542089252895,-32.3198454374098,-24.4571340254547,-1.9154982183675,-21.6737735967412,64.7124232133957,88.9251144344627,21.3749568794059,-17.078593257035,-28.8761688120484,26.1959774582656,-0.200093843492187,74.169909552054,9.2437376861208,6.90443061176125,-27.451719155906,40.1081179467508,34.2373512495606,49.5946426003917,-39.6561837948118,-14.3496067968226,-6.56219231448963,38.9041638672516,9.93710545417368,-21.5727465721146,72.6604143603438,24.2434351241602,68.106964512874,33.1201852624236,0.0590287800275143,-10.3058423651707,30.7065045896837,-20.2875107411511,8.19169503708904,13.0388144262908,42.6430880673183,-13.7792527922521,-9.80888315419751,76.8565733421156,-22.623883610398,-1.44515757218535,20.1422822122042,1,1,1,1,1,1,1,1,1,1,1,1,1,1,1,1,1,1,1,1,1,1,1,1,1,1,1,1,1,1,1,1,1,1,1,1,1,1,1,1,1,1,1,1,1,1,1,1,1,1,1,1,1,1,1,1,1,1,1,1,1,1,1,1,1,1,1,1,1,1,1,1,1,1,1,1,1,1,1,1,1,1,1,1,1,1,1,1,1,1,1,1,1,1,1,1,1,1,1,1,1,1,1,1,1,1,1,1,1,1,1,1,1,1,1,1,1,1,1,1,1,1,1,1,1,1,1,1,1,1,1,1,1,1,1,1,1,1,1,1,1,1,1,1,1,1,1,1,1,1,1,1,1,1,1,1,1,1,1,1,1,1,1,1,1,1,1,1,1,1,1,1,1,1,1,1,1,1,1,1,1,1,1,1,1,1,1,1,1,1,1,1,1,1,1,1,1,1,1,1,1,1,1,1,1,1,1,1,1,1,1,1,1,1,1,1,1,1,1,1,1,1,1,1,1,1,1,1,1,1,1,1,1,1,1,1,1,1,1,1,1,1,1,1,1,1,1,1,1,1,1,1,1,1,1,1,1,1,1,1,1,1,1,1,1,1,1,1,1,1,-30.3220782417567,-59.9736175668271,34.7932210315023,12.464706940908,-21.9007520539823,-25.757243615509,-58.2127850660493,-44.2589206637581,42.5314730346468,1.2108040732738,5.04020808519796,-27.57943616271,2.49837994774581,30.233606405417,-30.0625991023203,30.5800238672137,-25.3738820812473,0.231347757405068,2.56680524301035,-18.9240689675616,-33.383378491321,12.9570130820177,-43.8025184223463,-34.7741216352312,-4.54158610717977,3.03320741754858,-19.6166302277802,42.6874655794064,33.3576012142067,-53.0568994120029,48.8316110984984,-9.19310090388398,-15.0420238538166,-35.2728733208818,-5.63347937529313,-2.04002236278331,-21.5459730861565,30.1161429806056,-30.1975343795922,2.00347208242849,-1.35323900182489,18.1700977241025,-8.30776115876,42.8326440668761,-14.2539905879735,-1.21432540787498,19.7480044310188,1.51146018383029,-32.5339764934275,-9.94930159100758,55.95840815037,-21.4514497953025,19.8039465139034,17.7289950003296,-53.9350332989075,68.7448453338635,-30.8831370218371,-28.9759134343781,-20.2817388157832,36.6459175251694,-12.1556864019691,24.060240261429,-8.13527996182586,1.75208049412264,-25.825024390586,-34.791370859107,33.7888135011748,-15.2190132908654,4.50420908660285,16.6120635372676,23.0517739552532,-32.3424931247866,-43.7114544474889,-3.44680302523638,-9.45319266138372,19.559765985027,-3.92804522543116,-13.5086297291015,-45.6931537875351,26.4821160777103,-9.72121715831853,-61.1788741224253,17.3888953104042,37.7575332689284,5.85184025382462,-21.471818648332,-3.25299717708074,12.1927824591792,-23.0016221049947,14.0227296524384,-38.4815958846292,5.5058037346261,-1.36026395814804,-6.36897462363714,17.7604203340199,-26.007722606453,-18.0321509764096,-16.9198482842944,25.9560109303798,7.60481187840678,-29.8741598278108,-7.91916036575671,-10.8167829931963,-8.20928560768826,7.64029480712442,10.9924555880406,2.65601664026066,-10.2964611247125,1.52293432999264,-37.4312834652402,-9.61018359634959,-28.2543366539695,6.58141532834378,-25.2878479797526,-44.6802687348685,-14.4556084407917,-13.3401512010878,-37.9097350870931,0.607213263118739,4.31583357711862,-30.8374142241257,-22.0467108931303,-26.3756047563692,31.4655373238788,12.4556639822456,51.8340821215842,-9.21848898501164,2.63189674822765,12.5434843588612,-18.1168394848576,25.1602467986894,1.40629990937579,-8.98104161677449,45.4768473748477,-25.3398478620367,11.8646356406012,28.2483957759085,-19.4670048366143,-15.7393701250457,-8.04959850388197,19.5506529137496,-7.68071696054576,5.68924704733592,37.8083258731879,-42.3088067074746,-21.5253713586918,20.7967880960306,9.7404835751793,2.8781863977644,30.1411439379321,48.5802543459142,-21.0365962052795,-7.19237120485162,-0.152291212277956,-18.7594032879824,2.35444938145105,-7.93096559500681,12.8578159618913,5.36227659306036,41.9841056898925,-10.9659880291208,-9.39520254676357,14.4233065769226,-12.3730622653223,37.4308360991449,1.26635586077128,-14.3432183075238,-19.6307265371334,-19.7072053323019,-25.1120230148354,2.72422735509418,-24.175198386003,-15.9146305223412,0.7409653158969,20.1340641547854,1.2205729528697,-18.773788267269,-18.4306860180084,16.929789578262,26.4196436387566,-4.23310239764829,-9.15738810701464,48.9542122814484,11.3604162990305,-23.9554641519932,-27.4075388179078,-9.05348901997232,12.511848076664,0.588907924884984,17.5313658537542,-29.2517356390076,34.6542700327687,-32.2064384829475,-21.4749756359143,-20.2229876006119,7.00180427389467,26.6010742064262,20.1762797592993,-23.6350902493074,-13.9010390381196,-42.5513327402348,-31.8241917747045,21.1098518580196,16.5821642430174,30.8450545153659,-24.9448056027073,0.746188628924843,-29.9575823198452,-34.0311110540946,4.1633182720957,-1.66872792220565,9.8738835354373,29.6607709961096,4.00912359402627,47.1971137252128,18.3909262787331,13.2919057501838,-58.8759087894854,-16.3782964216085,-28.9292109393942,35.0001252254259,-4.88869253845773,11.2258401421557,-25.5036516372887,-36.8906448127383,25.5919384478522,-1.59911104715108,14.8662655041291,10.658573337579,-8.56937321032776,-48.4668609968728,32.837639040489,-22.1718703389491,26.3601626334433,13.9734444845508,16.5918623262576,-8.29444794390313,-13.2147264661474,-19.9016167128338,-11.3295886272897,26.7094130307353,36.77222626838,5.7726457492937,-9.6639818064987,-32.5416174746847,-11.7793241586981,-12.3761338758888,12.4174296208288,49.3379112598062,-26.5814409172627,-14.8279048000022,7.66917426943027,6.81677829313579,20.8327985700704,-34.7508425570709,-9.50446821794916,21.4971665933348,-31.9412757665756,-0.299515902568274,41.0785745045968,13.489578231281,16.142197333728,14.2992577178907,60.838478606539,5.61737983696842,-83.3475927704147,-15.5850901745845,26.1934844259117,-38.1619670873422,44.4372557977276,1,1,1,1,1,1,1,1,1,1,1,1,1,1,1,1,1,1,1,1,1,1,1,1,1,1,1,1,1,1,1,1,1,1,1,1,1,1,1,1,1,1,1,1,1,1,1,1,1,1,1,1,1,1,1,1,1,1,1,1,1,1,1,1,1,1,1,1,1,1,1,1,1,1,1,1,1,1,1,1,1,1,1,1,1,1,1,1,1,1,1,1,1,1,1,1,1,1,1,1,1,1,1,1,1,1,1,1,1,1,1,1,1,1,1,1,1,1,1,1,1,1,1,1,1,1,1,1,1,1,1,1,1,1,1,1,1,1,1,1,1,1,1,1,1,1,1,1,1,1,1,1,1,1,1,1,1,1,1,1,1,1,1,1,1,1,1,1,1,1,1,1,1,1,1,1,1,1,1,1,1,1,1,1,1,1,1,1,1,1,1,1,1,1,1,1,1,1,1,1,1,1,1,1,1,1,1,1,1,1,1,1,1,1,1,1,1,1,1,1,1,1,1,1,1,1,1,1,1,1,1,1,1,1,1,1,1,1,1,1,1,1,1,1,1,1,1,1,1,1,1,1,1,1,1,1,1,1,1,1,1,1,1,1,1,1,1,1,1,1
189.407031720694,340.305917692048,48.1457706071183,-19.8367275668895,104.099431118249,8.98401462195367,-15.3608145446167,-6.28717832266014,23.3922700937604,-0.921036283851498,60.0806977093902,30.954635646073,1.23826872049364,-63.56905987874,2.14394387915932,-3.13500521061727,-32.0528473904713,38.1500787765866,-71.701765888098,-28.5032960874678,16.1847868586356,-48.8497639656597,-62.6174279339125,-76.4821826275677,48.011871453698,14.7534664618144,7.903459812759,-71.7344116174638,47.5488438326957,53.1056305830908,41.3498171558635,5.97984861870406,-8.76173625104551,-18.1890050881376,-48.3492995292287,27.4621929971263,-28.4848016299835,-9.88260754440912,-28.7344993302792,-46.1355262791684,-31.3447138529204,25.5272953346624,-4.61652342231766,-23.7077720624726,66.5868666851737,-42.4927403634442,67.2783000982901,-19.8905940983811,-4.87733674889909,-20.0628452437334,-55.375722764726,-7.16619904520309,43.5866908510284,43.8526136616781,64.7790318780583,55.6746782199533,-19.2355969779547,-20.3391940714684,17.9446217849588,-10.250035406874,22.9012739537433,10.3911567968514,-19.3412425242079,-32.326909794976,-24.1124287704722,9.08091629023139,-3.24643695136469,-31.8983569583621,-13.812442229428,83.9077663287383,26.5913441906209,18.071975550436,-1.46296812480887,38.8558115813561,42.3601677638463,47.8050337969309,-10.5805804439784,45.4708465186697,27.0187254067312,-12.899214150905,62.8435408378196,-17.6530004564282,11.0789499129545,64.8122607719146,10.6294735521213,-74.3155418583311,-15.1677377825902,15.6948530017414,12.7817096033663,32.7797668540384,17.9857207156055,67.151603180525,-11.4571770642414,1.37658040200704,-22.8485596508046,10.5115912007128,-24.5870920566897,44.6142871944818,31.3389373182388,98.5720210098004,22.7611721901955,18.9575519632455,23.2082459667022,-15.9087816359308,37.1341765092084,-9.79965930666862,24.5306307123743,-27.7576317727809,30.0182701897778,-45.4986661637744,18.6721492708488,-90.355509891307,12.4932840949936,17.880327545812,46.137039733895,-20.9912290076642,97.4266692812066,24.4284423856728,33.2098466213136,29.4660980524456,-10.6735515099709,45.0978144441294,50.2583994524128,-37.9121535188376,-16.3644729481743,8.19271253279818,19.7362404738182,-24.1099236879853,-20.1996288313929,21.5103891181562,20.8232823555396,10.7604546339558,73.9393447786573,-59.6838888109363,-42.053670181316,107.459097235148,17.0392990902214,-22.4305101093108,50.5934165315912,-55.8009043088948,23.137756040291,-3.55815699352657,74.5496726276262,16.3559175817792,21.3551889109383,-16.8515036494482,-15.2376848972541,-57.0747198774522,34.6921070142058,-28.5194693941059,28.5414182730695,31.5758259904751,25.3155193509359,0.321046998486747,-16.8779846192886,16.4622265619253,2.53950036621706,18.5324586858432,4.88788128600385,-21.4074164198152,34.6308902391562,-30.9907853894715,-38.6768696025016,21.1561077982292,1.74139693746869,-9.49143358529698,-40.9486524658284,9.32317320137184,25.4303819206709,-31.6962731229738,29.8892601457305,14.1925984980924,5.24596752763973,-21.9380153570096,2.38141274009598,-6.59404685425077,-71.6650285844962,66.7216639714372,-17.729561288815,3.70801462363242,72.5028443676358,64.8926273373502,48.8810069772843,18.1657624070659,6.3905477325278,-43.1769841143643,29.9235658867308,57.6389809954043,-1.83145567532157,-20.3640922512409,62.7463491500402,12.9129297295496,94.394421561797,42.0239020083673,28.934065578093,6.72989145726377,-32.6565381520411,3.44212922019668,-17.6369836175317,117.884957160373,-35.7648079953898,50.5925724681888,-7.41325336709501,-76.9398239476214,-52.5663223894375,-6.29508135285893,55.2605952410014,53.8324860427493,-50.959880661254,-7.08097600558573,-22.7514175557356,-29.4282693326854,-6.19179350534872,-20.2925622194063,55.409953430954,21.8002459495601,0.492510457836437,37.4627031187858,60.939683238171,20.7671160011617,-2.83705206775374,29.5254577524996,9.73832946279689,62.7819141962106,-22.6258262445881,10.7556926567854,-4.16559461880137,52.2199612491297,3.2272638165253,-67.7158770805471,37.1216493141303,-89.465039992522,-65.3019212587183,36.7542089252895,-32.3198454374098,-24.4571340254547,-1.9154982183675,-21.6737735967412,64.7124232133957,88.9251144344627,21.3749568794059,-17.078593257035,-28.8761688120484,26.1959774582656,-0.200093843492187,74.169909552054,9.2437376861208,6.90443061176125,-27.451719155906,40.1081179467508,34.2373512495606,49.5946426003917,-39.6561837948118,-14.3496067968226,-6.56219231448963,38.9041638672516,9.93710545417368,-21.5727465721146,72.6604143603438,24.2434351241602,68.106964512874,33.1201852624236,0.0590287800275143,-10.3058423651707,30.7065045896837,-20.2875107411511,8.19169503708904,13.0388144262908,42.6430880673183,-13.7792527922521,-9.80888315419751,76.8565733421156,-22.623883610398,-1.44515757218535,20.1422822122042,1,1,1,1,1,1,1,1,1,1,1,1,1,1,1,1,1,1,1,1,1,1,1,1,1,1,1,1,1,1,1,1,1,1,1,1,1,1,1,1,1,1,1,1,1,1,1,1,1,1,1,1,1,1,1,1,1,1,1,1,1,1,1,1,1,1,1,1,1,1,1,1,1,1,1,1,1,1,1,1,1,1,1,1,1,1,1,1,1,1,1,1,1,1,1,1,1,1,1,1,1,1,1,1,1,1,1,1,1,1,1,1,1,1,1,1,1,1,1,1,1,1,1,1,1,1,1,1,1,1,1,1,1,1,1,1,1,1,1,1,1,1,1,1,1,1,1,1,1,1,1,1,1,1,1,1,1,1,1,1,1,1,1,1,1,1,1,1,1,1,1,1,1,1,1,1,1,1,1,1,1,1,1,1,1,1,1,1,1,1,1,1,1,1,1,1,1,1,1,1,1,1,1,1,1,1,1,1,1,1,1,1,1,1,1,1,1,1,1,1,1,1,1,1,1,1,1,1,1,1,1,1,1,1,1,1,1,1,1,1,1,1,1,1,1,1,1,1,1,1,1,1,1,1,1,1,1,1,1,1,1,1,1,1,1,1,1,1,1,1,-30.3220782417567,-59.9736175668271,34.7932210315023,12.464706940908,-21.9007520539823,-25.757243615509,-58.2127850660493,-44.2589206637581,42.5314730346468,1.2108040732738,5.04020808519796,-27.57943616271,2.49837994774581,30.233606405417,-30.0625991023203,30.5800238672137,-25.3738820812473,0.231347757405068,2.56680524301035,-18.9240689675616,-33.383378491321,12.9570130820177,-43.8025184223463,-34.7741216352312,-4.54158610717977,3.03320741754858,-19.6166302277802,42.6874655794064,33.3576012142067,-53.0568994120029,48.8316110984984,-9.19310090388398,-15.0420238538166,-35.2728733208818,-5.63347937529313,-2.04002236278331,-21.5459730861565,30.1161429806056,-30.1975343795922,2.00347208242849,-1.35323900182489,18.1700977241025,-8.30776115876,42.8326440668761,-14.2539905879735,-1.21432540787498,19.7480044310188,1.51146018383029,-32.5339764934275,-9.94930159100758,55.95840815037,-21.4514497953025,19.8039465139034,17.7289950003296,-53.9350332989075,68.7448453338635,-30.8831370218371,-28.9759134343781,-20.2817388157832,36.6459175251694,-12.1556864019691,24.060240261429,-8.13527996182586,1.75208049412264,-25.825024390586,-34.791370859107,33.7888135011748,-15.2190132908654,4.50420908660285,16.6120635372676,23.0517739552532,-32.3424931247866,-43.7114544474889,-3.44680302523638,-9.45319266138372,19.559765985027,-3.92804522543116,-13.5086297291015,-45.6931537875351,26.4821160777103,-9.72121715831853,-61.1788741224253,17.3888953104042,37.7575332689284,5.85184025382462,-21.471818648332,-3.25299717708074,12.1927824591792,-23.0016221049947,14.0227296524384,-38.4815958846292,5.5058037346261,-1.36026395814804,-6.36897462363714,17.7604203340199,-26.007722606453,-18.0321509764096,-16.9198482842944,25.9560109303798,7.60481187840678,-29.8741598278108,-7.91916036575671,-10.8167829931963,-8.20928560768826,7.64029480712442,10.9924555880406,2.65601664026066,-10.2964611247125,1.52293432999264,-37.4312834652402,-9.61018359634959,-28.2543366539695,6.58141532834378,-25.2878479797526,-44.6802687348685,-14.4556084407917,-13.3401512010878,-37.9097350870931,0.607213263118739,4.31583357711862,-30.8374142241257,-22.0467108931303,-26.3756047563692,31.4655373238788,12.4556639822456,51.8340821215842,-9.21848898501164,2.63189674822765,12.5434843588612,-18.1168394848576,25.1602467986894,1.40629990937579,-8.98104161677449,45.4768473748477,-25.3398478620367,11.8646356406012,28.2483957759085,-19.4670048366143,-15.7393701250457,-8.04959850388197,19.5506529137496,-7.68071696054576,5.68924704733592,37.8083258731879,-42.3088067074746,-21.5253713586918,20.7967880960306,9.7404835751793,2.8781863977644,30.1411439379321,48.5802543459142,-21.0365962052795,-7.19237120485162,-0.152291212277956,-18.7594032879824,2.35444938145105,-7.93096559500681,12.8578159618913,5.36227659306036,41.9841056898925,-10.9659880291208,-9.39520254676357,14.4233065769226,-12.3730622653223,37.4308360991449,1.26635586077128,-14.3432183075238,-19.6307265371334,-19.7072053323019,-25.1120230148354,2.72422735509418,-24.175198386003,-15.9146305223412,0.7409653158969,20.1340641547854,1.2205729528697,-18.773788267269,-18.4306860180084,16.929789578262,26.4196436387566,-4.23310239764829,-9.15738810701464,48.9542122814484,11.3604162990305,-23.9554641519932,-27.4075388179078,-9.05348901997232,12.511848076664,0.588907924884984,17.5313658537542,-29.2517356390076,34.6542700327687,-32.2064384829475,-21.4749756359143,-20.2229876006119,7.00180427389467,26.6010742064262,20.1762797592993,-23.6350902493074,-13.9010390381196,-42.5513327402348,-31.8241917747045,21.1098518580196,16.5821642430174,30.8450545153659,-24.9448056027073,0.746188628924843,-29.9575823198452,-34.0311110540946,4.1633182720957,-1.66872792220565,9.8738835354373,29.6607709961096,4.00912359402627,47.1971137252128,18.3909262787331,13.2919057501838,-58.8759087894854,-16.3782964216085,-28.9292109393942,35.0001252254259,-4.88869253845773,11.2258401421557,-25.5036516372887,-36.8906448127383,25.5919384478522,-1.59911104715108,14.8662655041291,10.658573337579,-8.56937321032776,-48.4668609968728,32.837639040489,-22.1718703389491,26.3601626334433,13.9734444845508,16.5918623262576,-8.29444794390313,-13.2147264661474,-19.9016167128338,-11.3295886272897,26.7094130307353,36.77222626838,5.7726457492937,-9.6639818064987,-32.5416174746847,-11.7793241586981,-12.3761338758888,12.4174296208288,49.3379112598062,-26.5814409172627,-14.8279048000022,7.66917426943027,6.81677829313579,20.8327985700704,-34.7508425570709,-9.50446821794916,21.4971665933348,-31.9412757665756,-0.299515902568274,41.0785745045968,13.489578231281,16.142197333728,14.2992577178907,60.838478606539,5.61737983696842,-83.3475927704147,-15.5850901745845,26.1934844259117,-38.1619670873422,44.4372557977276,1,1,1,1,1,1,1,1,1,1,1,1,1,1,1,1,1,1,1,1,1,1,1,1,1,1,1,1,1,1,1,1,1,1,1,1,1,1,1,1,1,1,1,1,1,1,1,1,1,1,1,1,1,1,1,1,1,1,1,1,1,1,1,1,1,1,1,1,1,1,1,1,1,1,1,1,1,1,1,1,1,1,1,1,1,1,1,1,1,1,1,1,1,1,1,1,1,1,1,1,1,1,1,1,1,1,1,1,1,1,1,1,1,1,1,1,1,1,1,1,1,1,1,1,1,1,1,1,1,1,1,1,1,1,1,1,1,1,1,1,1,1,1,1,1,1,1,1,1,1,1,1,1,1,1,1,1,1,1,1,1,1,1,1,1,1,1,1,1,1,1,1,1,1,1,1,1,1,1,1,1,1,1,1,1,1,1,1,1,1,1,1,1,1,1,1,1,1,1,1,1,1,1,1,1,1,1,1,1,1,1,1,1,1,1,1,1,1,1,1,1,1,1,1,1,1,1,1,1,1,1,1,1,1,1,1,1,1,1,1,1,1,1,1,1,1,1,1,1,1,1,1,1,1,1,1,1,1,1,1,1,1,1,1,1,1,1,1,1,1,-61.5247097127461,-69.9372685860171,8.98401462195367,-15.3608145446167,-6.28717832266014,23.3922700937604,-0.921036283851498,60.0806977093902,30.954635646073,1.23826872049364,-63.56905987874,2.14394387915932,-3.13500521061727,-32.0528473904713,38.1500787765866,-71.701765888098,-28.5032960874678,16.1847868586356,-48.8497639656597,-62.6174279339125,-76.4821826275677,48.011871453698,14.7534664618144,7.903459812759,-71.7344116174638,47.5488438326957,53.1056305830908,41.3498171558635,5.97984861870406,-8.76173625104551,-18.1890050881376,-48.3492995292287,27.4621929971263,-28.4848016299835,-9.88260754440912,-28.7344993302792,-46.1355262791684,-31.3447138529204,25.5272953346624,-4.61652342231766,-23.7077720624726,66.5868666851737,-42.4927403634442,67.2783000982901,-19.8905940983811,-4.87733674889909,-20.0628452437334,-55.375722764726,-7.16619904520309,43.5866908510284,43.8526136616781,64.7790318780583,55.6746782199533,-19.2355969779547,-20.3391940714684,17.9446217849588,-10.250035406874,22.9012739537433,10.3911567968514,-19.3412425242079,-32.326909794976,-24.1124287704722,9.08091629023139,-3.24643695136469,-31.8983569583621,-13.812442229428,83.9077663287383,26.5913441906209,18.071975550436,-1.46296812480887,38.8558115813561,42.3601677638463,47.8050337969309,-10.5805804439784,45.4708465186697,27.0187254067312,-12.899214150905,62.8435408378196,-17.6530004564282,11.0789499129545,64.8122607719146,10.6294735521213,-74.3155418583311,-15.1677377825902,15.6948530017414,12.7817096033663,32.7797668540384,17.9857207156055,67.151603180525,-11.4571770642414,1.37658040200704,-22.8485596508046,10.5115912007128,-24.5870920566897,44.6142871944818,31.3389373182388,98.5720210098004,22.7611721901955,18.9575519632455,23.2082459667022,-15.9087816359308,37.1341765092084,-9.79965930666862,24.5306307123743,-27.7576317727809,30.0182701897778,-45.4986661637744,18.6721492708488,-90.355509891307,12.4932840949936,17.880327545812,46.137039733895,-20.9912290076642,97.4266692812066,24.4284423856728,33.2098466213136,29.4660980524456,-10.6735515099709,45.0978144441294,50.2583994524128,-37.9121535188376,-16.3644729481743,8.19271253279818,19.7362404738182,-24.1099236879853,-20.1996288313929,21.5103891181562,20.8232823555396,10.7604546339558,73.9393447786573,-59.6838888109363,-42.053670181316,107.459097235148,17.0392990902214,-22.4305101093108,50.5934165315912,-55.8009043088948,23.137756040291,-3.55815699352657,74.5496726276262,16.3559175817792,21.3551889109383,-16.8515036494482,-15.2376848972541,-57.0747198774522,34.6921070142058,-28.5194693941059,28.5414182730695,31.5758259904751,25.3155193509359,0.321046998486747,-16.8779846192886,16.4622265619253,2.53950036621706,18.5324586858432,4.88788128600385,-21.4074164198152,34.6308902391562,-30.9907853894715,-38.6768696025016,21.1561077982292,1.74139693746869,-9.49143358529698,-40.9486524658284,9.32317320137184,25.4303819206709,-31.6962731229738,29.8892601457305,14.1925984980924,5.24596752763973,-21.9380153570096,2.38141274009598,-6.59404685425077,-71.6650285844962,66.7216639714372,-17.729561288815,3.70801462363242,72.5028443676358,64.8926273373502,48.8810069772843,18.1657624070659,6.3905477325278,-43.1769841143643,29.9235658867308,57.6389809954043,-1.83145567532157,-20.3640922512409,62.7463491500402,12.9129297295496,94.394421561797,42.0239020083673,28.934065578093,6.72989145726377,-32.6565381520411,3.44212922019668,-17.6369836175317,117.884957160373,-35.7648079953898,50.5925724681888,-7.41325336709501,-76.9398239476214,-52.5663223894375,-6.29508135285893,55.2605952410014,53.8324860427493,-50.959880661254,-7.08097600558573,-22.7514175557356,-29.4282693326854,-6.19179350534872,-20.2925622194063,55.409953430954,21.8002459495601,0.492510457836437,37.4627031187858,60.939683238171,20.7671160011617,-2.83705206775374,29.5254577524996,9.73832946279689,62.7819141962106,-22.6258262445881,10.7556926567854,-4.16559461880137,52.2199612491297,3.2272638165253,-67.7158770805471,37.1216493141303,-89.465039992522,-65.3019212587183,36.7542089252895,-32.3198454374098,-24.4571340254547,-1.9154982183675,-21.6737735967412,64.7124232133957,88.9251144344627,21.3749568794059,-17.078593257035,-28.8761688120484,26.1959774582656,-0.200093843492187,74.169909552054,9.2437376861208,6.90443061176125,-27.451719155906,40.1081179467508,34.2373512495606,49.5946426003917,-39.6561837948118,-14.3496067968226,-6.56219231448963,38.9041638672516,9.93710545417368,-21.5727465721146,72.6604143603438,24.2434351241602,68.106964512874,33.1201852624236,0.0590287800275143,-10.3058423651707,30.7065045896837,-20.2875107411511,8.19169503708904,13.0388144262908,42.6430880673183,-13.7792527922521,-9.80888315419751,76.8565733421156,-22.623883610398,-1.44515757218535,20.1422822122042,1,1,1,1,1,1,1,1,1,1,1,1,1,1,1,1,1,1,1,1,1,1,1,1,1,1,1,1,1,1,1,1,1,1,1,1,1,1,1,1,1,1,1,1,1,1,1,1,1,1,1,1,1,1,1,1,1,1,1,1,1,1,1,1,1,1,1,1,1,1,1,1,1,1,1,1,1,1,1,1,1,1,1,1,1,1,1,1,1,1,1,1,1,1,1,1,1,1,1,1,1,1,1,1,1,1,1,1,1,1,1,1,1,1,1,1,1,1,1,1,1,1,1,1,1,1,1,1,1,1,1,1,1,1,1,1,1,1,1,1,1,1,1,1,1,1,1,1,1,1,1,1,1,1,1,1,1,1,1,1,1,1,1,1,1,1,1,1,1,1,1,1,1,1,1,1,1,1,1,1,1,1,1,1,1,1,1,1,1,1,1,1,1,1,1,1,1,1,1,1,1,1,1,1,1,1,1,1,1,1,1,1,1,1,1,1,1,1,1,1,1,1,1,1,1,1,1,1,1,1,1,1,1,1,1,1,1,1,1,1,1,1,1,1,1,1,1,1,1,1,1,1,1,1,1,1,1,1,1,1,1,1,1,1,1,1,1,1,1,1,-30.3220782417567,-59.9736175668271,34.7932210315023,12.464706940908,-21.9007520539823,-25.757243615509,-58.2127850660493,-44.2589206637581,42.5314730346468,1.2108040732738,5.04020808519796,-27.57943616271,2.49837994774581,30.233606405417,-30.0625991023203,30.5800238672137,-25.3738820812473,0.231347757405068,2.56680524301035,-18.9240689675616,-33.383378491321,12.9570130820177,-43.8025184223463,-34.7741216352312,-4.54158610717977,3.03320741754858,-19.6166302277802,42.6874655794064,33.3576012142067,-53.0568994120029,48.8316110984984,-9.19310090388398,-15.0420238538166,-35.2728733208818,-5.63347937529313,-2.04002236278331,-21.5459730861565,30.1161429806056,-30.1975343795922,2.00347208242849,-1.35323900182489,18.1700977241025,-8.30776115876,42.8326440668761,-14.2539905879735,-1.21432540787498,19.7480044310188,1.51146018383029,-32.5339764934275,-9.94930159100758,55.95840815037,-21.4514497953025,19.8039465139034,17.7289950003296,-53.9350332989075,68.7448453338635,-30.8831370218371,-28.9759134343781,-20.2817388157832,36.6459175251694,-12.1556864019691,24.060240261429,-8.13527996182586,1.75208049412264,-25.825024390586,-34.791370859107,33.7888135011748,-15.2190132908654,4.50420908660285,16.6120635372676,23.0517739552532,-32.3424931247866,-43.7114544474889,-3.44680302523638,-9.45319266138372,19.559765985027,-3.92804522543116,-13.5086297291015,-45.6931537875351,26.4821160777103,-9.72121715831853,-61.1788741224253,17.3888953104042,37.7575332689284,5.85184025382462,-21.471818648332,-3.25299717708074,12.1927824591792,-23.0016221049947,14.0227296524384,-38.4815958846292,5.5058037346261,-1.36026395814804,-6.36897462363714,17.7604203340199,-26.007722606453,-18.0321509764096,-16.9198482842944,25.9560109303798,7.60481187840678,-29.8741598278108,-7.91916036575671,-10.8167829931963,-8.20928560768826,7.64029480712442,10.9924555880406,2.65601664026066,-10.2964611247125,1.52293432999264,-37.4312834652402,-9.61018359634959,-28.2543366539695,6.58141532834378,-25.2878479797526,-44.6802687348685,-14.4556084407917,-13.3401512010878,-37.9097350870931,0.607213263118739,4.31583357711862,-30.8374142241257,-22.0467108931303,-26.3756047563692,31.4655373238788,12.4556639822456,51.8340821215842,-9.21848898501164,2.63189674822765,12.5434843588612,-18.1168394848576,25.1602467986894,1.40629990937579,-8.98104161677449,45.4768473748477,-25.3398478620367,11.8646356406012,28.2483957759085,-19.4670048366143,-15.7393701250457,-8.04959850388197,19.5506529137496,-7.68071696054576,5.68924704733592,37.8083258731879,-42.3088067074746,-21.5253713586918,20.7967880960306,9.7404835751793,2.8781863977644,30.1411439379321,48.5802543459142,-21.0365962052795,-7.19237120485162,-0.152291212277956,-18.7594032879824,2.35444938145105,-7.93096559500681,12.8578159618913,5.36227659306036,41.9841056898925,-10.9659880291208,-9.39520254676357,14.4233065769226,-12.3730622653223,37.4308360991449,1.26635586077128,-14.3432183075238,-19.6307265371334,-19.7072053323019,-25.1120230148354,2.72422735509418,-24.175198386003,-15.9146305223412,0.7409653158969,20.1340641547854,1.2205729528697,-18.773788267269,-18.4306860180084,16.929789578262,26.4196436387566,-4.23310239764829,-9.15738810701464,48.9542122814484,11.3604162990305,-23.9554641519932,-27.4075388179078,-9.05348901997232,12.511848076664,0.588907924884984,17.5313658537542,-29.2517356390076,34.6542700327687,-32.2064384829475,-21.4749756359143,-20.2229876006119,7.00180427389467,26.6010742064262,20.1762797592993,-23.6350902493074,-13.9010390381196,-42.5513327402348,-31.8241917747045,21.1098518580196,16.5821642430174,30.8450545153659,-24.9448056027073,0.746188628924843,-29.9575823198452,-34.0311110540946,4.1633182720957,-1.66872792220565,9.8738835354373,29.6607709961096,4.00912359402627,47.1971137252128,18.3909262787331,13.2919057501838,-58.8759087894854,-16.3782964216085,-28.9292109393942,35.0001252254259,-4.88869253845773,11.2258401421557,-25.5036516372887,-36.8906448127383,25.5919384478522,-1.59911104715108,14.8662655041291,10.658573337579,-8.56937321032776,-48.4668609968728,32.837639040489,-22.1718703389491,26.3601626334433,13.9734444845508,16.5918623262576,-8.29444794390313,-13.2147264661474,-19.9016167128338,-11.3295886272897,26.7094130307353,36.77222626838,5.7726457492937,-9.6639818064987,-32.5416174746847,-11.7793241586981,-12.3761338758888,12.4174296208288,49.3379112598062,-26.5814409172627,-14.8279048000022,7.66917426943027,6.81677829313579,20.8327985700704,-34.7508425570709,-9.50446821794916,21.4971665933348,-31.9412757665756,-0.299515902568274,41.0785745045968,13.489578231281,16.142197333728,14.2992577178907,60.838478606539,5.61737983696842,-83.3475927704147,-15.5850901745845,26.1934844259117,-38.1619670873422,44.4372557977276,1,1,1,1,1,1,1,1,1,1,1,1,1,1,1,1,1,1,1,1,1,1,1,1,1,1,1,1,1,1,1,1,1,1,1,1,1,1,1,1,1,1,1,1,1,1,1,1,1,1,1,1,1,1,1,1,1,1,1,1,1,1,1,1,1,1,1,1,1,1,1,1,1,1,1,1,1,1,1,1,1,1,1,1,1,1,1,1,1,1,1,1,1,1,1,1,1,1,1,1,1,1,1,1,1,1,1,1,1,1,1,1,1,1,1,1,1,1,1,1,1,1,1,1,1,1,1,1,1,1,1,1,1,1,1,1,1,1,1,1,1,1,1,1,1,1,1,1,1,1,1,1,1,1,1,1,1,1,1,1,1,1,1,1,1,1,1,1,1,1,1,1,1,1,1,1,1,1,1,1,1,1,1,1,1,1,1,1,1,1,1,1,1,1,1,1,1,1,1,1,1,1,1,1,1,1,1,1,1,1,1,1,1,1,1,1,1,1,1,1,1,1,1,1,1,1,1,1,1,1,1,1,1,1,1,1,1,1,1,1,1,1,1,1,1,1,1,1,1,1,1,1,1,1,1,1,1,1,1,1,1,1,1,1,1,1,1,1,1,1,160.847689632917,-81.1541573432428,8.98401462195367,-15.3608145446167,-6.28717832266014,23.3922700937604,-0.921036283851498,60.0806977093902,30.954635646073,1.23826872049364,-63.56905987874,2.14394387915932,-3.13500521061727,-32.0528473904713,38.1500787765866,-71.701765888098,-28.5032960874678,16.1847868586356,-48.8497639656597,-62.6174279339125,-76.4821826275677,48.011871453698,14.7534664618144,7.903459812759,-71.7344116174638,47.5488438326957,53.1056305830908,41.3498171558635,5.97984861870406,-8.76173625104551,-18.1890050881376,-48.3492995292287,27.4621929971263,-28.4848016299835,-9.88260754440912,-28.7344993302792,-46.1355262791684,-31.3447138529204,25.5272953346624,-4.61652342231766,-23.7077720624726,66.5868666851737,-42.4927403634442,67.2783000982901,-19.8905940983811,-4.87733674889909,-20.0628452437334,-55.375722764726,-7.16619904520309,43.5866908510284,43.8526136616781,64.7790318780583,55.6746782199533,-19.2355969779547,-20.3391940714684,17.9446217849588,-10.250035406874,22.9012739537433,10.3911567968514,-19.3412425242079,-32.326909794976,-24.1124287704722,9.08091629023139,-3.24643695136469,-31.8983569583621,-13.812442229428,83.9077663287383,26.5913441906209,18.071975550436,-1.46296812480887,38.8558115813561,42.3601677638463,47.8050337969309,-10.5805804439784,45.4708465186697,27.0187254067312,-12.899214150905,62.8435408378196,-17.6530004564282,11.0789499129545,64.8122607719146,10.6294735521213,-74.3155418583311,-15.1677377825902,15.6948530017414,12.7817096033663,32.7797668540384,17.9857207156055,67.151603180525,-11.4571770642414,1.37658040200704,-22.8485596508046,10.5115912007128,-24.5870920566897,44.6142871944818,31.3389373182388,98.5720210098004,22.7611721901955,18.9575519632455,23.2082459667022,-15.9087816359308,37.1341765092084,-9.79965930666862,24.5306307123743,-27.7576317727809,30.0182701897778,-45.4986661637744,18.6721492708488,-90.355509891307,12.4932840949936,17.880327545812,46.137039733895,-20.9912290076642,97.4266692812066,24.4284423856728,33.2098466213136,29.4660980524456,-10.6735515099709,45.0978144441294,50.2583994524128,-37.9121535188376,-16.3644729481743,8.19271253279818,19.7362404738182,-24.1099236879853,-20.1996288313929,21.5103891181562,20.8232823555396,10.7604546339558,73.9393447786573,-59.6838888109363,-42.053670181316,107.459097235148,17.0392990902214,-22.4305101093108,50.5934165315912,-55.8009043088948,23.137756040291,-3.55815699352657,74.5496726276262,16.3559175817792,21.3551889109383,-16.8515036494482,-15.2376848972541,-57.0747198774522,34.6921070142058,-28.5194693941059,28.5414182730695,31.5758259904751,25.3155193509359,0.321046998486747,-16.8779846192886,16.4622265619253,2.53950036621706,18.5324586858432,4.88788128600385,-21.4074164198152,34.6308902391562,-30.9907853894715,-38.6768696025016,21.1561077982292,1.74139693746869,-9.49143358529698,-40.9486524658284,9.32317320137184,25.4303819206709,-31.6962731229738,29.8892601457305,14.1925984980924,5.24596752763973,-21.9380153570096,2.38141274009598,-6.59404685425077,-71.6650285844962,66.7216639714372,-17.729561288815,3.70801462363242,72.5028443676358,64.8926273373502,48.8810069772843,18.1657624070659,6.3905477325278,-43.1769841143643,29.9235658867308,57.6389809954043,-1.83145567532157,-20.3640922512409,62.7463491500402,12.9129297295496,94.394421561797,42.0239020083673,28.934065578093,6.72989145726377,-32.6565381520411,3.44212922019668,-17.6369836175317,117.884957160373,-35.7648079953898,50.5925724681888,-7.41325336709501,-76.9398239476214,-52.5663223894375,-6.29508135285893,55.2605952410014,53.8324860427493,-50.959880661254,-7.08097600558573,-22.7514175557356,-29.4282693326854,-6.19179350534872,-20.2925622194063,55.409953430954,21.8002459495601,0.492510457836437,37.4627031187858,60.939683238171,20.7671160011617,-2.83705206775374,29.5254577524996,9.73832946279689,62.7819141962106,-22.6258262445881,10.7556926567854,-4.16559461880137,52.2199612491297,3.2272638165253,-67.7158770805471,37.1216493141303,-89.465039992522,-65.3019212587183,36.7542089252895,-32.3198454374098,-24.4571340254547,-1.9154982183675,-21.6737735967412,64.7124232133957,88.9251144344627,21.3749568794059,-17.078593257035,-28.8761688120484,26.1959774582656,-0.200093843492187,74.169909552054,9.2437376861208,6.90443061176125,-27.451719155906,40.1081179467508,34.2373512495606,49.5946426003917,-39.6561837948118,-14.3496067968226,-6.56219231448963,38.9041638672516,9.93710545417368,-21.5727465721146,72.6604143603438,24.2434351241602,68.106964512874,33.1201852624236,0.0590287800275143,-10.3058423651707,30.7065045896837,-20.2875107411511,8.19169503708904,13.0388144262908,42.6430880673183,-13.7792527922521,-9.80888315419751,76.8565733421156,-22.623883610398,-1.44515757218535,20.1422822122042,1,1,1,1,1,1,1,1,1,1,1,1,1,1,1,1,1,1,1,1,1,1,1,1,1,1,1,1,1,1,1,1,1,1,1,1,1,1,1,1,1,1,1,1,1,1,1,1,1,1,1,1,1,1,1,1,1,1,1,1,1,1,1,1,1,1,1,1,1,1,1,1,1,1,1,1,1,1,1,1,1,1,1,1,1,1,1,1,1,1,1,1,1,1,1,1,1,1,1,1,1,1,1,1,1,1,1,1,1,1,1,1,1,1,1,1,1,1,1,1,1,1,1,1,1,1,1,1,1,1,1,1,1,1,1,1,1,1,1,1,1,1,1,1,1,1,1,1,1,1,1,1,1,1,1,1,1,1,1,1,1,1,1,1,1,1,1,1,1,1,1,1,1,1,1,1,1,1,1,1,1,1,1,1,1,1,1,1,1,1,1,1,1,1,1,1,1,1,1,1,1,1,1,1,1,1,1,1,1,1,1,1,1,1,1,1,1,1,1,1,1,1,1,1,1,1,1,1,1,1,1,1,1,1,1,1,1,1,1,1,1,1,1,1,1,1,1,1,1,1,1,1,1,1,1,1,1,1,1,1,1,1,1,1,1,1,1,1,1,1,-30.3220782417567,-59.9736175668271,34.7932210315023,12.464706940908,-21.9007520539823,-25.757243615509,-58.2127850660493,-44.2589206637581,42.5314730346468,1.2108040732738,5.04020808519796,-27.57943616271,2.49837994774581,30.233606405417,-30.0625991023203,30.5800238672137,-25.3738820812473,0.231347757405068,2.56680524301035,-18.9240689675616,-33.383378491321,12.9570130820177,-43.8025184223463,-34.7741216352312,-4.54158610717977,3.03320741754858,-19.6166302277802,42.6874655794064,33.3576012142067,-53.0568994120029,48.8316110984984,-9.19310090388398,-15.0420238538166,-35.2728733208818,-5.63347937529313,-2.04002236278331,-21.5459730861565,30.1161429806056,-30.1975343795922,2.00347208242849,-1.35323900182489,18.1700977241025,-8.30776115876,42.8326440668761,-14.2539905879735,-1.21432540787498,19.7480044310188,1.51146018383029,-32.5339764934275,-9.94930159100758,55.95840815037,-21.4514497953025,19.8039465139034,17.7289950003296,-53.9350332989075,68.7448453338635,-30.8831370218371,-28.9759134343781,-20.2817388157832,36.6459175251694,-12.1556864019691,24.060240261429,-8.13527996182586,1.75208049412264,-25.825024390586,-34.791370859107,33.7888135011748,-15.2190132908654,4.50420908660285,16.6120635372676,23.0517739552532,-32.3424931247866,-43.7114544474889,-3.44680302523638,-9.45319266138372,19.559765985027,-3.92804522543116,-13.5086297291015,-45.6931537875351,26.4821160777103,-9.72121715831853,-61.1788741224253,17.3888953104042,37.7575332689284,5.85184025382462,-21.471818648332,-3.25299717708074,12.1927824591792,-23.0016221049947,14.0227296524384,-38.4815958846292,5.5058037346261,-1.36026395814804,-6.36897462363714,17.7604203340199,-26.007722606453,-18.0321509764096,-16.9198482842944,25.9560109303798,7.60481187840678,-29.8741598278108,-7.91916036575671,-10.8167829931963,-8.20928560768826,7.64029480712442,10.9924555880406,2.65601664026066,-10.2964611247125,1.52293432999264,-37.4312834652402,-9.61018359634959,-28.2543366539695,6.58141532834378,-25.2878479797526,-44.6802687348685,-14.4556084407917,-13.3401512010878,-37.9097350870931,0.607213263118739,4.31583357711862,-30.8374142241257,-22.0467108931303,-26.3756047563692,31.4655373238788,12.4556639822456,51.8340821215842,-9.21848898501164,2.63189674822765,12.5434843588612,-18.1168394848576,25.1602467986894,1.40629990937579,-8.98104161677449,45.4768473748477,-25.3398478620367,11.8646356406012,28.2483957759085,-19.4670048366143,-15.7393701250457,-8.04959850388197,19.5506529137496,-7.68071696054576,5.68924704733592,37.8083258731879,-42.3088067074746,-21.5253713586918,20.7967880960306,9.7404835751793,2.8781863977644,30.1411439379321,48.5802543459142,-21.0365962052795,-7.19237120485162,-0.152291212277956,-18.7594032879824,2.35444938145105,-7.93096559500681,12.8578159618913,5.36227659306036,41.9841056898925,-10.9659880291208,-9.39520254676357,14.4233065769226,-12.3730622653223,37.4308360991449,1.26635586077128,-14.3432183075238,-19.6307265371334,-19.7072053323019,-25.1120230148354,2.72422735509418,-24.175198386003,-15.9146305223412,0.7409653158969,20.1340641547854,1.2205729528697,-18.773788267269,-18.4306860180084,16.929789578262,26.4196436387566,-4.23310239764829,-9.15738810701464,48.9542122814484,11.3604162990305,-23.9554641519932,-27.4075388179078,-9.05348901997232,12.511848076664,0.588907924884984,17.5313658537542,-29.2517356390076,34.6542700327687,-32.2064384829475,-21.4749756359143,-20.2229876006119,7.00180427389467,26.6010742064262,20.1762797592993,-23.6350902493074,-13.9010390381196,-42.5513327402348,-31.8241917747045,21.1098518580196,16.5821642430174,30.8450545153659,-24.9448056027073,0.746188628924843,-29.9575823198452,-34.0311110540946,4.1633182720957,-1.66872792220565,9.8738835354373,29.6607709961096,4.00912359402627,47.1971137252128,18.3909262787331,13.2919057501838,-58.8759087894854,-16.3782964216085,-28.9292109393942,35.0001252254259,-4.88869253845773,11.2258401421557,-25.5036516372887,-36.8906448127383,25.5919384478522,-1.59911104715108,14.8662655041291,10.658573337579,-8.56937321032776,-48.4668609968728,32.837639040489,-22.1718703389491,26.3601626334433,13.9734444845508,16.5918623262576,-8.29444794390313,-13.2147264661474,-19.9016167128338,-11.3295886272897,26.7094130307353,36.77222626838,5.7726457492937,-9.6639818064987,-32.5416174746847,-11.7793241586981,-12.3761338758888,12.4174296208288,49.3379112598062,-26.5814409172627,-14.8279048000022,7.66917426943027,6.81677829313579,20.8327985700704,-34.7508425570709,-9.50446821794916,21.4971665933348,-31.9412757665756,-0.299515902568274,41.0785745045968,13.489578231281,16.142197333728,14.2992577178907,60.838478606539,5.61737983696842,-83.3475927704147,-15.5850901745845,26.1934844259117,-38.1619670873422,44.4372557977276,1,1,1,1,1,1,1,1,1,1,1,1,1,1,1,1,1,1,1,1,1,1,1,1,1,1,1,1,1,1,1,1,1,1,1,1,1,1,1,1,1,1,1,1,1,1,1,1,1,1,1,1,1,1,1,1,1,1,1,1,1,1,1,1,1,1,1,1,1,1,1,1,1,1,1,1,1,1,1,1,1,1,1,1,1,1,1,1,1,1,1,1,1,1,1,1,1,1,1,1,1,1,1,1,1,1,1,1,1,1,1,1,1,1,1,1,1,1,1,1,1,1,1,1,1,1,1,1,1,1,1,1,1,1,1,1,1,1,1,1,1,1,1,1,1,1,1,1,1,1,1,1,1,1,1,1,1,1,1,1,1,1,1,1,1,1,1,1,1,1,1,1,1,1,1,1,1,1,1,1,1,1,1,1,1,1,1,1,1,1,1,1,1,1,1,1,1,1,1,1,1,1,1,1,1,1,1,1,1,1,1,1,1,1,1,1,1,1,1,1,1,1,1,1,1,1,1,1,1,1,1,1,1,1,1,1,1,1,1,1,1,1,1,1,1,1,1,1,1,1,1,1,1,1,1,1,1,1,1,1,1,1,1,1,1,1,1,1,1,1
421.000464013778,149.363755718043,139.080193974115,-19.8367275668895,104.099431118249,8.98401462195367,-15.3608145446167,-6.28717832266014,23.3922700937604,-0.921036283851498,60.0806977093902,30.954635646073,1.23826872049364,-63.56905987874,2.14394387915932,-3.13500521061727,-32.0528473904713,38.1500787765866,-71.701765888098,-28.5032960874678,16.1847868586356,-48.8497639656597,-62.6174279339125,-76.4821826275677,48.011871453698,14.7534664618144,7.903459812759,-71.7344116174638,47.5488438326957,53.1056305830908,41.3498171558635,5.97984861870406,-8.76173625104551,-18.1890050881376,-48.3492995292287,27.4621929971263,-28.4848016299835,-9.88260754440912,-28.7344993302792,-46.1355262791684,-31.3447138529204,25.5272953346624,-4.61652342231766,-23.7077720624726,66.5868666851737,-42.4927403634442,67.2783000982901,-19.8905940983811,-4.87733674889909,-20.0628452437334,-55.375722764726,-7.16619904520309,43.5866908510284,43.8526136616781,64.7790318780583,55.6746782199533,-19.2355969779547,-20.3391940714684,17.9446217849588,-10.250035406874,22.9012739537433,10.3911567968514,-19.3412425242079,-32.326909794976,-24.1124287704722,9.08091629023139,-3.24643695136469,-31.8983569583621,-13.812442229428,83.9077663287383,26.5913441906209,18.071975550436,-1.46296812480887,38.8558115813561,42.3601677638463,47.8050337969309,-10.5805804439784,45.4708465186697,27.0187254067312,-12.899214150905,62.8435408378196,-17.6530004564282,11.0789499129545,64.8122607719146,10.6294735521213,-74.3155418583311,-15.1677377825902,15.6948530017414,12.7817096033663,32.7797668540384,17.9857207156055,67.151603180525,-11.4571770642414,1.37658040200704,-22.8485596508046,10.5115912007128,-24.5870920566897,44.6142871944818,31.3389373182388,98.5720210098004,22.7611721901955,18.9575519632455,23.2082459667022,-15.9087816359308,37.1341765092084,-9.79965930666862,24.5306307123743,-27.7576317727809,30.0182701897778,-45.4986661637744,18.6721492708488,-90.355509891307,12.4932840949936,17.880327545812,46.137039733895,-20.9912290076642,97.4266692812066,24.4284423856728,33.2098466213136,29.4660980524456,-10.6735515099709,45.0978144441294,50.2583994524128,-37.9121535188376,-16.3644729481743,8.19271253279818,19.7362404738182,-24.1099236879853,-20.1996288313929,21.5103891181562,20.8232823555396,10.7604546339558,73.9393447786573,-59.6838888109363,-42.053670181316,107.459097235148,17.0392990902214,-22.4305101093108,50.5934165315912,-55.8009043088948,23.137756040291,-3.55815699352657,74.5496726276262,16.3559175817792,21.3551889109383,-16.8515036494482,-15.2376848972541,-57.0747198774522,34.6921070142058,-28.5194693941059,28.5414182730695,31.5758259904751,25.3155193509359,0.321046998486747,-16.8779846192886,16.4622265619253,2.53950036621706,18.5324586858432,4.88788128600385,-21.4074164198152,34.6308902391562,-30.9907853894715,-38.6768696025016,21.1561077982292,1.74139693746869,-9.49143358529698,-40.9486524658284,9.32317320137184,25.4303819206709,-31.6962731229738,29.8892601457305,14.1925984980924,5.24596752763973,-21.9380153570096,2.38141274009598,-6.59404685425077,-71.6650285844962,66.7216639714372,-17.729561288815,3.70801462363242,72.5028443676358,64.8926273373502,48.8810069772843,18.1657624070659,6.3905477325278,-43.1769841143643,29.9235658867308,57.6389809954043,-1.83145567532157,-20.3640922512409,62.7463491500402,12.9129297295496,94.394421561797,42.0239020083673,28.934065578093,6.72989145726377,-32.6565381520411,3.44212922019668,-17.6369836175317,117.884957160373,-35.7648079953898,50.5925724681888,-7.41325336709501,-76.9398239476214,-52.5663223894375,-6.29508135285893,55.2605952410014,53.8324860427493,-50.959880661254,-7.08097600558573,-22.7514175557356,-29.4282693326854,-6.19179350534872,-20.2925622194063,55.409953430954,21.8002459495601,0.492510457836437,37.4627031187858,60.939683238171,20.7671160011617,-2.83705206775374,29.5254577524996,9.73832946279689,62.7819141962106,-22.6258262445881,10.7556926567854,-4.16559461880137,52.2199612491297,3.2272638165253,-67.7158770805471,37.1216493141303,-89.465039992522,-65.3019212587183,36.7542089252895,-32.3198454374098,-24.4571340254547,-1.9154982183675,-21.6737735967412,64.7124232133957,88.9251144344627,21.3749568794059,-17.078593257035,-28.8761688120484,26.1959774582656,-0.200093843492187,74.169909552054,9.2437376861208,6.90443061176125,-27.451719155906,40.1081179467508,34.2373512495606,49.5946426003917,-39.6561837948118,-14.3496067968226,-6.56219231448963,38.9041638672516,9.93710545417368,-21.5727465721146,72.6604143603438,24.2434351241602,68.106964512874,33.1201852624236,0.0590287800275143,-10.3058423651707,30.7065045896837,-20.2875107411511,8.19169503708904,13.0388144262908,42.6430880673183,-13.7792527922521,-9.80888315419751,76.8565733421156,-22.623883610398,-1.44515757218535,20.1422822122042,1,1,1,1,1,1,1,1,1,1,1,1,1,1,1,1,1,1,1,1,1,1,1,1,1,1,1,1,1,1,1,1,1,1,1,1,1,1,1,1,1,1,1,1,1,1,1,1,1,1,1,1,1,1,1,1,1,1,1,1,1,1,1,1,1,1,1,1,1,1,1,1,1,1,1,1,1,1,1,1,1,1,1,1,1,1,1,1,1,1,1,1,1,1,1,1,1,1,1,1,1,1,1,1,1,1,1,1,1,1,1,1,1,1,1,1,1,1,1,1,1,1,1,1,1,1,1,1,1,1,1,1,1,1,1,1,1,1,1,1,1,1,1,1,1,1,1,1,1,1,1,1,1,1,1,1,1,1,1,1,1,1,1,1,1,1,1,1,1,1,1,1,1,1,1,1,1,1,1,1,1,1,1,1,1,1,1,1,1,1,1,1,1,1,1,1,1,1,1,1,1,1,1,1,1,1,1,1,1,1,1,1,1,1,1,1,1,1,1,1,1,1,1,1,1,1,1,1,1,1,1,1,1,1,1,1,1,1,1,1,1,1,1,1,1,1,1,1,1,1,1,1,1,1,1,1,1,1,1,1,1,1,1,1,1,1,1,1,1,1,-30.3220782417567,-59.9736175668271,34.7932210315023,12.464706940908,-21.9007520539823,-25.757243615509,-58.2127850660493,-44.2589206637581,42.5314730346468,1.2108040732738,5.04020808519796,-27.57943616271,2.49837994774581,30.233606405417,-30.0625991023203,30.5800238672137,-25.3738820812473,0.231347757405068,2.56680524301035,-18.9240689675616,-33.383378491321,12.9570130820177,-43.8025184223463,-34.7741216352312,-4.54158610717977,3.03320741754858,-19.6166302277802,42.6874655794064,33.3576012142067,-53.0568994120029,48.8316110984984,-9.19310090388398,-15.0420238538166,-35.2728733208818,-5.63347937529313,-2.04002236278331,-21.5459730861565,30.1161429806056,-30.1975343795922,2.00347208242849,-1.35323900182489,18.1700977241025,-8.30776115876,42.8326440668761,-14.2539905879735,-1.21432540787498,19.7480044310188,1.51146018383029,-32.5339764934275,-9.94930159100758,55.95840815037,-21.4514497953025,19.8039465139034,17.7289950003296,-53.9350332989075,68.7448453338635,-30.8831370218371,-28.9759134343781,-20.2817388157832,36.6459175251694,-12.1556864019691,24.060240261429,-8.13527996182586,1.75208049412264,-25.825024390586,-34.791370859107,33.7888135011748,-15.2190132908654,4.50420908660285,16.6120635372676,23.0517739552532,-32.3424931247866,-43.7114544474889,-3.44680302523638,-9.45319266138372,19.559765985027,-3.92804522543116,-13.5086297291015,-45.6931537875351,26.4821160777103,-9.72121715831853,-61.1788741224253,17.3888953104042,37.7575332689284,5.85184025382462,-21.471818648332,-3.25299717708074,12.1927824591792,-23.0016221049947,14.0227296524384,-38.4815958846292,5.5058037346261,-1.36026395814804,-6.36897462363714,17.7604203340199,-26.007722606453,-18.0321509764096,-16.9198482842944,25.9560109303798,7.60481187840678,-29.8741598278108,-7.91916036575671,-10.8167829931963,-8.20928560768826,7.64029480712442,10.9924555880406,2.65601664026066,-10.2964611247125,1.52293432999264,-37.4312834652402,-9.61018359634959,-28.2543366539695,6.58141532834378,-25.2878479797526,-44.6802687348685,-14.4556084407917,-13.3401512010878,-37.9097350870931,0.607213263118739,4.31583357711862,-30.8374142241257,-22.0467108931303,-26.3756047563692,31.4655373238788,12.4556639822456,51.8340821215842,-9.21848898501164,2.63189674822765,12.5434843588612,-18.1168394848576,25.1602467986894,1.40629990937579,-8.98104161677449,45.4768473748477,-25.3398478620367,11.8646356406012,28.2483957759085,-19.4670048366143,-15.7393701250457,-8.04959850388197,19.5506529137496,-7.68071696054576,5.68924704733592,37.8083258731879,-42.3088067074746,-21.5253713586918,20.7967880960306,9.7404835751793,2.8781863977644,30.1411439379321,48.5802543459142,-21.0365962052795,-7.19237120485162,-0.152291212277956,-18.7594032879824,2.35444938145105,-7.93096559500681,12.8578159618913,5.36227659306036,41.9841056898925,-10.9659880291208,-9.39520254676357,14.4233065769226,-12.3730622653223,37.4308360991449,1.26635586077128,-14.3432183075238,-19.6307265371334,-19.7072053323019,-25.1120230148354,2.72422735509418,-24.175198386003,-15.9146305223412,0.7409653158969,20.1340641547854,1.2205729528697,-18.773788267269,-18.4306860180084,16.929789578262,26.4196436387566,-4.23310239764829,-9.15738810701464,48.9542122814484,11.3604162990305,-23.9554641519932,-27.4075388179078,-9.05348901997232,12.511848076664,0.588907924884984,17.5313658537542,-29.2517356390076,34.6542700327687,-32.2064384829475,-21.4749756359143,-20.2229876006119,7.00180427389467,26.6010742064262,20.1762797592993,-23.6350902493074,-13.9010390381196,-42.5513327402348,-31.8241917747045,21.1098518580196,16.5821642430174,30.8450545153659,-24.9448056027073,0.746188628924843,-29.9575823198452,-34.0311110540946,4.1633182720957,-1.66872792220565,9.8738835354373,29.6607709961096,4.00912359402627,47.1971137252128,18.3909262787331,13.2919057501838,-58.8759087894854,-16.3782964216085,-28.9292109393942,35.0001252254259,-4.88869253845773,11.2258401421557,-25.5036516372887,-36.8906448127383,25.5919384478522,-1.59911104715108,14.8662655041291,10.658573337579,-8.56937321032776,-48.4668609968728,32.837639040489,-22.1718703389491,26.3601626334433,13.9734444845508,16.5918623262576,-8.29444794390313,-13.2147264661474,-19.9016167128338,-11.3295886272897,26.7094130307353,36.77222626838,5.7726457492937,-9.6639818064987,-32.5416174746847,-11.7793241586981,-12.3761338758888,12.4174296208288,49.3379112598062,-26.5814409172627,-14.8279048000022,7.66917426943027,6.81677829313579,20.8327985700704,-34.7508425570709,-9.50446821794916,21.4971665933348,-31.9412757665756,-0.299515902568274,41.0785745045968,13.489578231281,16.142197333728,14.2992577178907,60.838478606539,5.61737983696842,-83.3475927704147,-15.5850901745845,26.1934844259117,-38.1619670873422,44.4372557977276,1,1,1,1,1,1,1,1,1,1,1,1,1,1,1,1,1,1,1,1,1,1,1,1,1,1,1,1,1,1,1,1,1,1,1,1,1,1,1,1,1,1,1,1,1,1,1,1,1,1,1,1,1,1,1,1,1,1,1,1,1,1,1,1,1,1,1,1,1,1,1,1,1,1,1,1,1,1,1,1,1,1,1,1,1,1,1,1,1,1,1,1,1,1,1,1,1,1,1,1,1,1,1,1,1,1,1,1,1,1,1,1,1,1,1,1,1,1,1,1,1,1,1,1,1,1,1,1,1,1,1,1,1,1,1,1,1,1,1,1,1,1,1,1,1,1,1,1,1,1,1,1,1,1,1,1,1,1,1,1,1,1,1,1,1,1,1,1,1,1,1,1,1,1,1,1,1,1,1,1,1,1,1,1,1,1,1,1,1,1,1,1,1,1,1,1,1,1,1,1,1,1,1,1,1,1,1,1,1,1,1,1,1,1,1,1,1,1,1,1,1,1,1,1,1,1,1,1,1,1,1,1,1,1,1,1,1,1,1,1,1,1,1,1,1,1,1,1,1,1,1,1,1,1,1,1,1,1,1,1,1,1,1,1,1,1,1,1,1,1,-61.5247097127461,-69.9372685860171,8.98401462195367,-15.3608145446167,-6.28717832266014,23.3922700937604,-0.921036283851498,60.0806977093902,30.954635646073,1.23826872049364,-63.56905987874,2.14394387915932,-3.13500521061727,-32.0528473904713,38.1500787765866,-71.701765888098,-28.5032960874678,16.1847868586356,-48.8497639656597,-62.6174279339125,-76.4821826275677,48.011871453698,14.7534664618144,7.903459812759,-71.7344116174638,47.5488438326957,53.1056305830908,41.3498171558635,5.97984861870406,-8.76173625104551,-18.1890050881376,-48.3492995292287,27.4621929971263,-28.4848016299835,-9.88260754440912,-28.7344993302792,-46.1355262791684,-31.3447138529204,25.5272953346624,-4.61652342231766,-23.7077720624726,66.5868666851737,-42.4927403634442,67.2783000982901,-19.8905940983811,-4.87733674889909,-20.0628452437334,-55.375722764726,-7.16619904520309,43.5866908510284,43.8526136616781,64.7790318780583,55.6746782199533,-19.2355969779547,-20.3391940714684,17.9446217849588,-10.250035406874,22.9012739537433,10.3911567968514,-19.3412425242079,-32.326909794976,-24.1124287704722,9.08091629023139,-3.24643695136469,-31.8983569583621,-13.812442229428,83.9077663287383,26.5913441906209,18.071975550436,-1.46296812480887,38.8558115813561,42.3601677638463,47.8050337969309,-10.5805804439784,45.4708465186697,27.0187254067312,-12.899214150905,62.8435408378196,-17.6530004564282,11.0789499129545,64.8122607719146,10.6294735521213,-74.3155418583311,-15.1677377825902,15.6948530017414,12.7817096033663,32.7797668540384,17.9857207156055,67.151603180525,-11.4571770642414,1.37658040200704,-22.8485596508046,10.5115912007128,-24.5870920566897,44.6142871944818,31.3389373182388,98.5720210098004,22.7611721901955,18.9575519632455,23.2082459667022,-15.9087816359308,37.1341765092084,-9.79965930666862,24.5306307123743,-27.7576317727809,30.0182701897778,-45.4986661637744,18.6721492708488,-90.355509891307,12.4932840949936,17.880327545812,46.137039733895,-20.9912290076642,97.4266692812066,24.4284423856728,33.2098466213136,29.4660980524456,-10.6735515099709,45.0978144441294,50.2583994524128,-37.9121535188376,-16.3644729481743,8.19271253279818,19.7362404738182,-24.1099236879853,-20.1996288313929,21.5103891181562,20.8232823555396,10.7604546339558,73.9393447786573,-59.6838888109363,-42.053670181316,107.459097235148,17.0392990902214,-22.4305101093108,50.5934165315912,-55.8009043088948,23.137756040291,-3.55815699352657,74.5496726276262,16.3559175817792,21.3551889109383,-16.8515036494482,-15.2376848972541,-57.0747198774522,34.6921070142058,-28.5194693941059,28.5414182730695,31.5758259904751,25.3155193509359,0.321046998486747,-16.8779846192886,16.4622265619253,2.53950036621706,18.5324586858432,4.88788128600385,-21.4074164198152,34.6308902391562,-30.9907853894715,-38.6768696025016,21.1561077982292,1.74139693746869,-9.49143358529698,-40.9486524658284,9.32317320137184,25.4303819206709,-31.6962731229738,29.8892601457305,14.1925984980924,5.24596752763973,-21.9380153570096,2.38141274009598,-6.59404685425077,-71.6650285844962,66.7216639714372,-17.729561288815,3.70801462363242,72.5028443676358,64.8926273373502,48.8810069772843,18.1657624070659,6.3905477325278,-43.1769841143643,29.9235658867308,57.6389809954043,-1.83145567532157,-20.3640922512409,62.7463491500402,12.9129297295496,94.394421561797,42.0239020083673,28.934065578093,6.72989145726377,-32.6565381520411,3.44212922019668,-17.6369836175317,117.884957160373,-35.7648079953898,50.5925724681888,-7.41325336709501,-76.9398239476214,-52.5663223894375,-6.29508135285893,55.2605952410014,53.8324860427493,-50.959880661254,-7.08097600558573,-22.7514175557356,-29.4282693326854,-6.19179350534872,-20.2925622194063,55.409953430954,21.8002459495601,0.492510457836437,37.4627031187858,60.939683238171,20.7671160011617,-2.83705206775374,29.5254577524996,9.73832946279689,62.7819141962106,-22.6258262445881,10.7556926567854,-4.16559461880137,52.2199612491297,3.2272638165253,-67.7158770805471,37.1216493141303,-89.465039992522,-65.3019212587183,36.7542089252895,-32.3198454374098,-24.4571340254547,-1.9154982183675,-21.6737735967412,64.7124232133957,88.9251144344627,21.3749568794059,-17.078593257035,-28.8761688120484,26.1959774582656,-0.200093843492187,74.169909552054,9.2437376861208,6.90443061176125,-27.451719155906,40.1081179467508,34.2373512495606,49.5946426003917,-39.6561837948118,-14.3496067968226,-6.56219231448963,38.9041638672516,9.93710545417368,-21.5727465721146,72.6604143603438,24.2434351241602,68.106964512874,33.1201852624236,0.0590287800275143,-10.3058423651707,30.7065045896837,-20.2875107411511,8.19169503708904,13.0388144262908,42.6430880673183,-13.7792527922521,-9.80888315419751,76.8565733421156,-22.623883610398,-1.44515757218535,20.1422822122042,1,1,1,1,1,1,1,1,1,1,1,1,1,1,1,1,1,1,1,1,1,1,1,1,1,1,1,1,1,1,1,1,1,1,1,1,1,1,1,1,1,1,1,1,1,1,1,1,1,1,1,1,1,1,1,1,1,1,1,1,1,1,1,1,1,1,1,1,1,1,1,1,1,1,1,1,1,1,1,1,1,1,1,1,1,1,1,1,1,1,1,1,1,1,1,1,1,1,1,1,1,1,1,1,1,1,1,1,1,1,1,1,1,1,1,1,1,1,1,1,1,1,1,1,1,1,1,1,1,1,1,1,1,1,1,1,1,1,1,1,1,1,1,1,1,1,1,1,1,1,1,1,1,1,1,1,1,1,1,1,1,1,1,1,1,1,1,1,1,1,1,1,1,1,1,1,1,1,1,1,1,1,1,1,1,1,1,1,1,1,1,1,1,1,1,1,1,1,1,1,1,1,1,1,1,1,1,1,1,1,1,1,1,1,1,1,1,1,1,1,1,1,1,1,1,1,1,1,1,1,1,1,1,1,1,1,1,1,1,1,1,1,1,1,1,1,1,1,1,1,1,1,1,1,1,1,1,1,1,1,1,1,1,1,1,1,1,1,1,1,-30.3220782417567,-59.9736175668271,34.7932210315023,12.464706940908,-21.9007520539823,-25.757243615509,-58.2127850660493,-44.2589206637581,42.5314730346468,1.2108040732738,5.04020808519796,-27.57943616271,2.49837994774581,30.233606405417,-30.0625991023203,30.5800238672137,-25.3738820812473,0.231347757405068,2.56680524301035,-18.9240689675616,-33.383378491321,12.9570130820177,-43.8025184223463,-34.7741216352312,-4.54158610717977,3.03320741754858,-19.6166302277802,42.6874655794064,33.3576012142067,-53.0568994120029,48.8316110984984,-9.19310090388398,-15.0420238538166,-35.2728733208818,-5.63347937529313,-2.04002236278331,-21.5459730861565,30.1161429806056,-30.1975343795922,2.00347208242849,-1.35323900182489,18.1700977241025,-8.30776115876,42.8326440668761,-14.2539905879735,-1.21432540787498,19.7480044310188,1.51146018383029,-32.5339764934275,-9.94930159100758,55.95840815037,-21.4514497953025,19.8039465139034,17.7289950003296,-53.9350332989075,68.7448453338635,-30.8831370218371,-28.9759134343781,-20.2817388157832,36.6459175251694,-12.1556864019691,24.060240261429,-8.13527996182586,1.75208049412264,-25.825024390586,-34.791370859107,33.7888135011748,-15.2190132908654,4.50420908660285,16.6120635372676,23.0517739552532,-32.3424931247866,-43.7114544474889,-3.44680302523638,-9.45319266138372,19.559765985027,-3.92804522543116,-13.5086297291015,-45.6931537875351,26.4821160777103,-9.72121715831853,-61.1788741224253,17.3888953104042,37.7575332689284,5.85184025382462,-21.471818648332,-3.25299717708074,12.1927824591792,-23.0016221049947,14.0227296524384,-38.4815958846292,5.5058037346261,-1.36026395814804,-6.36897462363714,17.7604203340199,-26.007722606453,-18.0321509764096,-16.9198482842944,25.9560109303798,7.60481187840678,-29.8741598278108,-7.91916036575671,-10.8167829931963,-8.20928560768826,7.64029480712442,10.9924555880406,2.65601664026066,-10.2964611247125,1.52293432999264,-37.4312834652402,-9.61018359634959,-28.2543366539695,6.58141532834378,-25.2878479797526,-44.6802687348685,-14.4556084407917,-13.3401512010878,-37.9097350870931,0.607213263118739,4.31583357711862,-30.8374142241257,-22.0467108931303,-26.3756047563692,31.4655373238788,12.4556639822456,51.8340821215842,-9.21848898501164,2.63189674822765,12.5434843588612,-18.1168394848576,25.1602467986894,1.40629990937579,-8.98104161677449,45.4768473748477,-25.3398478620367,11.8646356406012,28.2483957759085,-19.4670048366143,-15.7393701250457,-8.04959850388197,19.5506529137496,-7.68071696054576,5.68924704733592,37.8083258731879,-42.3088067074746,-21.5253713586918,20.7967880960306,9.7404835751793,2.8781863977644,30.1411439379321,48.5802543459142,-21.0365962052795,-7.19237120485162,-0.152291212277956,-18.7594032879824,2.35444938145105,-7.93096559500681,12.8578159618913,5.36227659306036,41.9841056898925,-10.9659880291208,-9.39520254676357,14.4233065769226,-12.3730622653223,37.4308360991449,1.26635586077128,-14.3432183075238,-19.6307265371334,-19.7072053323019,-25.1120230148354,2.72422735509418,-24.175198386003,-15.9146305223412,0.7409653158969,20.1340641547854,1.2205729528697,-18.773788267269,-18.4306860180084,16.929789578262,26.4196436387566,-4.23310239764829,-9.15738810701464,48.9542122814484,11.3604162990305,-23.9554641519932,-27.4075388179078,-9.05348901997232,12.511848076664,0.588907924884984,17.5313658537542,-29.2517356390076,34.6542700327687,-32.2064384829475,-21.4749756359143,-20.2229876006119,7.00180427389467,26.6010742064262,20.1762797592993,-23.6350902493074,-13.9010390381196,-42.5513327402348,-31.8241917747045,21.1098518580196,16.5821642430174,30.8450545153659,-24.9448056027073,0.746188628924843,-29.9575823198452,-34.0311110540946,4.1633182720957,-1.66872792220565,9.8738835354373,29.6607709961096,4.00912359402627,47.1971137252128,18.3909262787331,13.2919057501838,-58.8759087894854,-16.3782964216085,-28.9292109393942,35.0001252254259,-4.88869253845773,11.2258401421557,-25.5036516372887,-36.8906448127383,25.5919384478522,-1.59911104715108,14.8662655041291,10.658573337579,-8.56937321032776,-48.4668609968728,32.837639040489,-22.1718703389491,26.3601626334433,13.9734444845508,16.5918623262576,-8.29444794390313,-13.2147264661474,-19.9016167128338,-11.3295886272897,26.7094130307353,36.77222626838,5.7726457492937,-9.6639818064987,-32.5416174746847,-11.7793241586981,-12.3761338758888,12.4174296208288,49.3379112598062,-26.5814409172627,-14.8279048000022,7.66917426943027,6.81677829313579,20.8327985700704,-34.7508425570709,-9.50446821794916,21.4971665933348,-31.9412757665756,-0.299515902568274,41.0785745045968,13.489578231281,16.142197333728,14.2992577178907,60.838478606539,5.61737983696842,-83.3475927704147,-15.5850901745845,26.1934844259117,-38.1619670873422,44.4372557977276,1,1,1,1,1,1,1,1,1,1,1,1,1,1,1,1,1,1,1,1,1,1,1,1,1,1,1,1,1,1,1,1,1,1,1,1,1,1,1,1,1,1,1,1,1,1,1,1,1,1,1,1,1,1,1,1,1,1,1,1,1,1,1,1,1,1,1,1,1,1,1,1,1,1,1,1,1,1,1,1,1,1,1,1,1,1,1,1,1,1,1,1,1,1,1,1,1,1,1,1,1,1,1,1,1,1,1,1,1,1,1,1,1,1,1,1,1,1,1,1,1,1,1,1,1,1,1,1,1,1,1,1,1,1,1,1,1,1,1,1,1,1,1,1,1,1,1,1,1,1,1,1,1,1,1,1,1,1,1,1,1,1,1,1,1,1,1,1,1,1,1,1,1,1,1,1,1,1,1,1,1,1,1,1,1,1,1,1,1,1,1,1,1,1,1,1,1,1,1,1,1,1,1,1,1,1,1,1,1,1,1,1,1,1,1,1,1,1,1,1,1,1,1,1,1,1,1,1,1,1,1,1,1,1,1,1,1,1,1,1,1,1,1,1,1,1,1,1,1,1,1,1,1,1,1,1,1,1,1,1,1,1,1,1,1,1,1,1,1,1,160.847689632917,-81.1541573432428,8.98401462195367,-15.3608145446167,-6.28717832266014,23.3922700937604,-0.921036283851498,60.0806977093902,30.954635646073,1.23826872049364,-63.56905987874,2.14394387915932,-3.13500521061727,-32.0528473904713,38.1500787765866,-71.701765888098,-28.5032960874678,16.1847868586356,-48.8497639656597,-62.6174279339125,-76.4821826275677,48.011871453698,14.7534664618144,7.903459812759,-71.7344116174638,47.5488438326957,53.1056305830908,41.3498171558635,5.97984861870406,-8.76173625104551,-18.1890050881376,-48.3492995292287,27.4621929971263,-28.4848016299835,-9.88260754440912,-28.7344993302792,-46.1355262791684,-31.3447138529204,25.5272953346624,-4.61652342231766,-23.7077720624726,66.5868666851737,-42.4927403634442,67.2783000982901,-19.8905940983811,-4.87733674889909,-20.0628452437334,-55.375722764726,-7.16619904520309,43.5866908510284,43.8526136616781,64.7790318780583,55.6746782199533,-19.2355969779547,-20.3391940714684,17.9446217849588,-10.250035406874,22.9012739537433,10.3911567968514,-19.3412425242079,-32.326909794976,-24.1124287704722,9.08091629023139,-3.24643695136469,-31.8983569583621,-13.812442229428,83.9077663287383,26.5913441906209,18.071975550436,-1.46296812480887,38.8558115813561,42.3601677638463,47.8050337969309,-10.5805804439784,45.4708465186697,27.0187254067312,-12.899214150905,62.8435408378196,-17.6530004564282,11.0789499129545,64.8122607719146,10.6294735521213,-74.3155418583311,-15.1677377825902,15.6948530017414,12.7817096033663,32.7797668540384,17.9857207156055,67.151603180525,-11.4571770642414,1.37658040200704,-22.8485596508046,10.5115912007128,-24.5870920566897,44.6142871944818,31.3389373182388,98.5720210098004,22.7611721901955,18.9575519632455,23.2082459667022,-15.9087816359308,37.1341765092084,-9.79965930666862,24.5306307123743,-27.7576317727809,30.0182701897778,-45.4986661637744,18.6721492708488,-90.355509891307,12.4932840949936,17.880327545812,46.137039733895,-20.9912290076642,97.4266692812066,24.4284423856728,33.2098466213136,29.4660980524456,-10.6735515099709,45.0978144441294,50.2583994524128,-37.9121535188376,-16.3644729481743,8.19271253279818,19.7362404738182,-24.1099236879853,-20.1996288313929,21.5103891181562,20.8232823555396,10.7604546339558,73.9393447786573,-59.6838888109363,-42.053670181316,107.459097235148,17.0392990902214,-22.4305101093108,50.5934165315912,-55.8009043088948,23.137756040291,-3.55815699352657,74.5496726276262,16.3559175817792,21.3551889109383,-16.8515036494482,-15.2376848972541,-57.0747198774522,34.6921070142058,-28.5194693941059,28.5414182730695,31.5758259904751,25.3155193509359,0.321046998486747,-16.8779846192886,16.4622265619253,2.53950036621706,18.5324586858432,4.88788128600385,-21.4074164198152,34.6308902391562,-30.9907853894715,-38.6768696025016,21.1561077982292,1.74139693746869,-9.49143358529698,-40.9486524658284,9.32317320137184,25.4303819206709,-31.6962731229738,29.8892601457305,14.1925984980924,5.24596752763973,-21.9380153570096,2.38141274009598,-6.59404685425077,-71.6650285844962,66.7216639714372,-17.729561288815,3.70801462363242,72.5028443676358,64.8926273373502,48.8810069772843,18.1657624070659,6.3905477325278,-43.1769841143643,29.9235658867308,57.6389809954043,-1.83145567532157,-20.3640922512409,62.7463491500402,12.9129297295496,94.394421561797,42.0239020083673,28.934065578093,6.72989145726377,-32.6565381520411,3.44212922019668,-17.6369836175317,117.884957160373,-35.7648079953898,50.5925724681888,-7.41325336709501,-76.9398239476214,-52.5663223894375,-6.29508135285893,55.2605952410014,53.8324860427493,-50.959880661254,-7.08097600558573,-22.7514175557356,-29.4282693326854,-6.19179350534872,-20.2925622194063,55.409953430954,21.8002459495601,0.492510457836437,37.4627031187858,60.939683238171,20.7671160011617,-2.83705206775374,29.5254577524996,9.73832946279689,62.7819141962106,-22.6258262445881,10.7556926567854,-4.16559461880137,52.2199612491297,3.2272638165253,-67.7158770805471,37.1216493141303,-89.465039992522,-65.3019212587183,36.7542089252895,-32.3198454374098,-24.4571340254547,-1.9154982183675,-21.6737735967412,64.7124232133957,88.9251144344627,21.3749568794059,-17.078593257035,-28.8761688120484,26.1959774582656,-0.200093843492187,74.169909552054,9.2437376861208,6.90443061176125,-27.451719155906,40.1081179467508,34.2373512495606,49.5946426003917,-39.6561837948118,-14.3496067968226,-6.56219231448963,38.9041638672516,9.93710545417368,-21.5727465721146,72.6604143603438,24.2434351241602,68.106964512874,33.1201852624236,0.0590287800275143,-10.3058423651707,30.7065045896837,-20.2875107411511,8.19169503708904,13.0388144262908,42.6430880673183,-13.7792527922521,-9.80888315419751,76.8565733421156,-22.623883610398,-1.44515757218535,20.1422822122042,1,1,1,1,1,1,1,1,1,1,1,1,1,1,1,1,1,1,1,1,1,1,1,1,1,1,1,1,1,1,1,1,1,1,1,1,1,1,1,1,1,1,1,1,1,1,1,1,1,1,1,1,1,1,1,1,1,1,1,1,1,1,1,1,1,1,1,1,1,1,1,1,1,1,1,1,1,1,1,1,1,1,1,1,1,1,1,1,1,1,1,1,1,1,1,1,1,1,1,1,1,1,1,1,1,1,1,1,1,1,1,1,1,1,1,1,1,1,1,1,1,1,1,1,1,1,1,1,1,1,1,1,1,1,1,1,1,1,1,1,1,1,1,1,1,1,1,1,1,1,1,1,1,1,1,1,1,1,1,1,1,1,1,1,1,1,1,1,1,1,1,1,1,1,1,1,1,1,1,1,1,1,1,1,1,1,1,1,1,1,1,1,1,1,1,1,1,1,1,1,1,1,1,1,1,1,1,1,1,1,1,1,1,1,1,1,1,1,1,1,1,1,1,1,1,1,1,1,1,1,1,1,1,1,1,1,1,1,1,1,1,1,1,1,1,1,1,1,1,1,1,1,1,1,1,1,1,1,1,1,1,1,1,1,1,1,1,1,1,1,-30.3220782417567,-59.9736175668271,34.7932210315023,12.464706940908,-21.9007520539823,-25.757243615509,-58.2127850660493,-44.2589206637581,42.5314730346468,1.2108040732738,5.04020808519796,-27.57943616271,2.49837994774581,30.233606405417,-30.0625991023203,30.5800238672137,-25.3738820812473,0.231347757405068,2.56680524301035,-18.9240689675616,-33.383378491321,12.9570130820177,-43.8025184223463,-34.7741216352312,-4.54158610717977,3.03320741754858,-19.6166302277802,42.6874655794064,33.3576012142067,-53.0568994120029,48.8316110984984,-9.19310090388398,-15.0420238538166,-35.2728733208818,-5.63347937529313,-2.04002236278331,-21.5459730861565,30.1161429806056,-30.1975343795922,2.00347208242849,-1.35323900182489,18.1700977241025,-8.30776115876,42.8326440668761,-14.2539905879735,-1.21432540787498,19.7480044310188,1.51146018383029,-32.5339764934275,-9.94930159100758,55.95840815037,-21.4514497953025,19.8039465139034,17.7289950003296,-53.9350332989075,68.7448453338635,-30.8831370218371,-28.9759134343781,-20.2817388157832,36.6459175251694,-12.1556864019691,24.060240261429,-8.13527996182586,1.75208049412264,-25.825024390586,-34.791370859107,33.7888135011748,-15.2190132908654,4.50420908660285,16.6120635372676,23.0517739552532,-32.3424931247866,-43.7114544474889,-3.44680302523638,-9.45319266138372,19.559765985027,-3.92804522543116,-13.5086297291015,-45.6931537875351,26.4821160777103,-9.72121715831853,-61.1788741224253,17.3888953104042,37.7575332689284,5.85184025382462,-21.471818648332,-3.25299717708074,12.1927824591792,-23.0016221049947,14.0227296524384,-38.4815958846292,5.5058037346261,-1.36026395814804,-6.36897462363714,17.7604203340199,-26.007722606453,-18.0321509764096,-16.9198482842944,25.9560109303798,7.60481187840678,-29.8741598278108,-7.91916036575671,-10.8167829931963,-8.20928560768826,7.64029480712442,10.9924555880406,2.65601664026066,-10.2964611247125,1.52293432999264,-37.4312834652402,-9.61018359634959,-28.2543366539695,6.58141532834378,-25.2878479797526,-44.6802687348685,-14.4556084407917,-13.3401512010878,-37.9097350870931,0.607213263118739,4.31583357711862,-30.8374142241257,-22.0467108931303,-26.3756047563692,31.4655373238788,12.4556639822456,51.8340821215842,-9.21848898501164,2.63189674822765,12.5434843588612,-18.1168394848576,25.1602467986894,1.40629990937579,-8.98104161677449,45.4768473748477,-25.3398478620367,11.8646356406012,28.2483957759085,-19.4670048366143,-15.7393701250457,-8.04959850388197,19.5506529137496,-7.68071696054576,5.68924704733592,37.8083258731879,-42.3088067074746,-21.5253713586918,20.7967880960306,9.7404835751793,2.8781863977644,30.1411439379321,48.5802543459142,-21.0365962052795,-7.19237120485162,-0.152291212277956,-18.7594032879824,2.35444938145105,-7.93096559500681,12.8578159618913,5.36227659306036,41.9841056898925,-10.9659880291208,-9.39520254676357,14.4233065769226,-12.3730622653223,37.4308360991449,1.26635586077128,-14.3432183075238,-19.6307265371334,-19.7072053323019,-25.1120230148354,2.72422735509418,-24.175198386003,-15.9146305223412,0.7409653158969,20.1340641547854,1.2205729528697,-18.773788267269,-18.4306860180084,16.929789578262,26.4196436387566,-4.23310239764829,-9.15738810701464,48.9542122814484,11.3604162990305,-23.9554641519932,-27.4075388179078,-9.05348901997232,12.511848076664,0.588907924884984,17.5313658537542,-29.2517356390076,34.6542700327687,-32.2064384829475,-21.4749756359143,-20.2229876006119,7.00180427389467,26.6010742064262,20.1762797592993,-23.6350902493074,-13.9010390381196,-42.5513327402348,-31.8241917747045,21.1098518580196,16.5821642430174,30.8450545153659,-24.9448056027073,0.746188628924843,-29.9575823198452,-34.0311110540946,4.1633182720957,-1.66872792220565,9.8738835354373,29.6607709961096,4.00912359402627,47.1971137252128,18.3909262787331,13.2919057501838,-58.8759087894854,-16.3782964216085,-28.9292109393942,35.0001252254259,-4.88869253845773,11.2258401421557,-25.5036516372887,-36.8906448127383,25.5919384478522,-1.59911104715108,14.8662655041291,10.658573337579,-8.56937321032776,-48.4668609968728,32.837639040489,-22.1718703389491,26.3601626334433,13.9734444845508,16.5918623262576,-8.29444794390313,-13.2147264661474,-19.9016167128338,-11.3295886272897,26.7094130307353,36.77222626838,5.7726457492937,-9.6639818064987,-32.5416174746847,-11.7793241586981,-12.3761338758888,12.4174296208288,49.3379112598062,-26.5814409172627,-14.8279048000022,7.66917426943027,6.81677829313579,20.8327985700704,-34.7508425570709,-9.50446821794916,21.4971665933348,-31.9412757665756,-0.299515902568274,41.0785745045968,13.489578231281,16.142197333728,14.2992577178907,60.838478606539,5.61737983696842,-83.3475927704147,-15.5850901745845,26.1934844259117,-38.1619670873422,44.4372557977276,1,1,1,1,1,1,1,1,1,1,1,1,1,1,1,1,1,1,1,1,1,1,1,1,1,1,1,1,1,1,1,1,1,1,1,1,1,1,1,1,1,1,1,1,1,1,1,1,1,1,1,1,1,1,1,1,1,1,1,1,1,1,1,1,1,1,1,1,1,1,1,1,1,1,1,1,1,1,1,1,1,1,1,1,1,1,1,1,1,1,1,1,1,1,1,1,1,1,1,1,1,1,1,1,1,1,1,1,1,1,1,1,1,1,1,1,1,1,1,1,1,1,1,1,1,1,1,1,1,1,1,1,1,1,1,1,1,1,1,1,1,1,1,1,1,1,1,1,1,1,1,1,1,1,1,1,1,1,1,1,1,1,1,1,1,1,1,1,1,1,1,1,1,1,1,1,1,1,1,1,1,1,1,1,1,1,1,1,1,1,1,1,1,1,1,1,1,1,1,1,1,1,1,1,1,1,1,1,1,1,1,1,1,1,1,1,1,1,1,1,1,1,1,1,1,1,1,1,1,1,1,1,1,1,1,1,1,1,1,1,1,1,1,1,1,1,1,1,1,1,1,1,1,1,1,1,1,1,1,1,1,1,1,1,1,1,1,1,1,1
