161.852885689984,43.3134608465775,-123.367932304911,-195.806085081206,93.658694349034,30.1903152429578,37.6128517258485,0.0315919786543648,-34.607755490735,19.9253375743484,49.9768643940626,5.17217719466919,111.712159362037,-26.9390886690117,-41.2402481952933,-73.8446166367021,17.6707294846989,25.0978947449884,-14.704156984543,-15.6702922741155,-24.9873170728889,-29.2915310877398,-15.5968646153931,-33.9977292014712,-46.0129914234445,-8.84148053141351,19.3823554635014,88.2353563252871,6.06989827347153,-33.5378964599502,21.4535226879194,71.456592363588,40.5193514578864,21.4757527547815,-4.46320139878579,-21.6992206499199,-18.2267556369548,-9.8441185510189,-20.5582785184705,-19.6981618215317,26.3009017939675,-34.6597144376765,-32.6846710450565,34.3462382625348,-12.3537513813597,10.1484404657876,-20.3839059811344,-35.1826781694952,1.12464467864561,-45.3115866757587,16.9579473413695,21.0600428350052,-24.3983644407868,-4.85103203105034,52.9399731083057,-31.192701238077,1.10971862517778,-13.3440000229699,-18.9297573264523,25.1484599345897,62.5492989040825,2.97046442817704,20.1057464305481,23.3445633542197,-13.0615748644887,-21.5338256339112,18.4218571130418,13.5292636136273,49.4192002799006,-17.5293234737044,-31.4791857470322,62.6858499016899,-13.8075978381515,-1.49807390284483,-29.7998852536418,12.7165166223513,45.3574799250866,27.1916223116171,27.0761949943652,11.6237491654757,-56.5757802163852,-45.0870831894278,50.2407257281727,-25.633400611503,-11.3507847699826,64.3884214288146,-1.83574165220947,-55.3892397599744,-37.7275546248555,1.83112186286321,-23.2988577728405,33.385860323252,-52.549684441333,21.9788241846228,38.6758359281166,26.2632384460662,31.5647599618055,-22.4520396968537,42.3148059742415,59.296386128975,11.8700556141137,60.1680554738738,25.718206946205,42.2842663055046,-61.041257136206,60.4358262327632,55.6742172852711,28.8290694606678,0.48825139756143,-92.4399507305799,33.3150176516102,-68.5272478887124,26.172898557767,-34.5159261308785,38.676944764472,-17.1987967700127,100.16363411771,52.2916560968862,64.703131036671,48.1301305666999,85.9356159914292,6.80240745017708,-3.53806221542917,25.7136663801745,6.64010408020671,22.4542284282656,-27.8453416605739,-52.6188884793281,-20.957103490416,-95.603941631636,-7.45292165548532,113.160369615404,-42.6720947197182,-0.0361111545116168,81.7004866849154,-56.0246474824774,5.31977435566368,61.876839157734,59.8434217460075,-16.8753625008109,39.276046329156,-16.8608770681688,-30.2774285370816,13.8743205386459,75.5995409981155,45.0118280424444,65.807370167467,2.50690316345374,-6.94724786293949,12.5813385079068,23.4134589596784,-37.3689890629844,8.0868737130713,12.1194163738187,5.47323685251388,4.54377005956659,-2.78842449208253,19.7366750094576,24.6123123971666,-11.4109084078793,-13.9556640586602,-24.4684889203051,22.4095809452719,-16.5465758189766,-12.6033870202279,-64.0317758276885,-15.9057249233789,25.562176575162,-3.90822770704519,80.0070903181647,26.7529616713982,20.6033871799139,13.3356509461967,-42.8891756123117,-8.00221132473254,1.03941809386711,-0.127683368629955,2.05512498564064,-45.8987833396664,63.5686650868228,71.3996364136837,44.2724948450822,64.3676965794854,81.3941106297846,-42.5738208611164,-18.1173241373033,42.0887675703347,-65.9055174776627,24.0839968365752,35.3716745747814,19.4948053818196,-41.7685754925829,12.6628060288885,15.0588738927345,48.4686418230425,50.7354970036037,19.143110095364,21.5111684759628,-16.818786835903,-43.4190378916689,-48.647105281051,89.0015898946216,-11.7351620054486,41.7118143043022,-20.316319376206,-64.5384285160004,-39.8650942877216,16.9749966104032,17.9637764725896,30.5383970116944,-13.9512538208116,-34.0636742708748,-41.1837437001519,32.0565122572737,11.1266270414069,-44.0592427014431,63.1934533674714,-22.8302864030433,-11.4347955490756,32.1437656874423,-20.9809234226472,14.8188553571737,-29.4383685765701,-10.8403489573784,2.55177800234422,15.5290808727675,0.791504529371795,20.1727366322016,31.0823404859258,-8.43280795183998,-20.2596839063384,-36.7035457307145,23.0613434182211,-58.532414008161,11.7631621141579,81.8464004309937,11.8130873198382,-75.6689473003292,-41.7176709944651,21.3381999919052,28.2133582937607,68.7840141518642,-28.9999994566437,-24.0699655818162,-4.8387039775887,12.9927182598872,0.746088983930525,13.2262917419778,76.9076530056853,-27.251061325373,9.54592627392541,3.56104898331471,19.3806469821818,47.6898364902985,-48.8328182614279,44.9829446499756,-12.6708080060025,50.8040278293134,-15.6214721687091,26.7783298767872,58.2284606240278,16.9333565876358,54.6916641765774,-2.18516607813335,12.9471038529902,3.41143465484976,10.6589640893814,-39.390093934747,-18.4697795223126,-31.2813076963807,21.0439023289782,4.68749654649866,52.4714781116182,32.5127490844429,8.32674163739895,1,1,1,1,1,1,1,1,1,1,1,1,1,1,1,1,1,1,1,1,1,1,1,1,1,1,1,1,1,1,1,1,1,1,1,1,1,1,1,1,1,1,1,1,1,1,1,1,1,1,1,1,1,1,1,1,1,1,1,1,1,1,1,1,1,1,1,1,1,1,1,1,1,1,1,1,1,1,1,1,1,1,1,1,1,1,1,1,1,1,1,1,1,1,1,1,1,1,1,1,1,1,1,1,1,1,1,1,1,1,1,1,1,1,1,1,1,1,1,1,1,1,1,1,1,1,1,1,1,1,1,1,1,1,1,1,1,1,1,1,1,1,1,1,1,1,1,1,1,1,1,1,1,1,1,1,1,1,1,1,1,1,1,1,1,1,1,1,1,1,1,1,1,1,1,1,1,1,1,1,1,1,1,1,1,1,1,1,1,1,1,1,1,1,1,1,1,1,1,1,1,1,1,1,1,1,1,1,1,1,1,1,1,1,1,1,1,1,1,1,1,1,1,1,1,1,1,1,1,1,1,1,1,1,1,1,1,1,1,1,1,1,1,1,1,1,1,1,1,1,1,1,1,1,1,1,1,1,1,1,1,1,1,1,1,1,1,1,1,1,25.2613708369215,-0.896380277628582,17.6651854235883,22.3178708191733,-54.4449706710974,-19.7444991453412,31.6895753770125,-17.6335068696573,38.2239105210829,-41.0170672286498,16.5759498054946,8.64131615737345,-35.5881470921638,-77.6829507517655,-21.6334132333071,40.4266294166534,34.5011521042022,6.05275893236027,4.4643208914735,-34.2851502501672,25.8957142715066,-15.9924602816342,30.5348466980721,29.6791792134793,-36.7532715395896,-9.84844873054297,-32.5184896590662,-28.5198922476811,-30.3196811792764,-22.5085994753581,-15.7180817421395,-0.396751160469703,6.81428557163329,44.4753528473186,4.77239307059074,8.62977935714523,30.0581435369784,9.06356905844514,-41.4903522995627,4.75491131801231,9.70628344035829,-19.8037823498429,30.6522612208624,24.4338318524469,-61.1843277978652,-21.8519700367106,24.6602386486279,42.0884042951832,-0.2261812609377,45.5273357125003,31.7688240735551,34.4341258794888,-59.7069713905309,-21.3194059808445,65.8328938906163,54.1010567847905,49.5381209043713,21.2093682479115,-16.6382080635385,-49.4065192100164,-11.5454957949028,8.23546444723409,22.4514904543634,-45.0681488962973,83.3752342888124,-16.1135860332662,24.9096604291381,16.6800542887674,-22.1045438005877,48.7072698721511,-28.0101365695104,39.9357594121216,15.2337848345635,8.19815151763838,21.5134911094247,27.8515069730548,15.3401153806391,74.111463192728,3.54894697403843,2.74914316271564,16.0048253884908,-25.4847157032671,28.5845616548278,-40.987147791997,22.4876826144603,13.3638440485202,4.52625450158222,7.84911520917479,13.2493453020334,35.7382083882849,-17.0730051307386,-32.2005495442329,-1.91998290444808,-43.1384320885336,-21.7527734141394,19.329591889267,23.5452637969709,-52.8946147799646,2.12417388508932,-47.9687589872402,-21.3524795740101,37.9276844635855,25.4167204473709,43.2837979440047,-9.4484668619187,11.1700390148007,-19.9342463358743,8.10088659105064,30.8315229323013,-31.5340997971809,-37.5557117790077,-40.6198561209434,-23.8777021669566,-12.055764817591,60.3853570121266,-47.8940978824281,65.4637263485617,58.6982556031728,-39.4754938193966,11.3906740997359,6.53090326957615,-20.0948332861525,5.78504105856826,-12.3661920995027,76.9473245700406,47.2750267272168,-5.81714258306917,23.419446734971,-34.757002560052,-32.6104564549438,-11.1030172521484,-8.50924556386318,-8.71149872634411,14.3112180949855,-33.2381313402598,55.8813480095979,73.7414580249782,-1.01979822209774,-20.3802813190533,-13.8377821247936,19.9134407691763,20.9808660335475,19.7098353722218,-33.5562178310419,-45.7994851344406,29.1116693478127,64.8695023287169,-40.0419201504311,-23.2985702653848,-19.4240530130137,38.5451731359092,0.579067496917484,-23.9675571011958,30.7723858664845,-31.6178804304882,2.10014718021489,31.2610918921412,43.4659285006586,-33.4078132257563,-32.9935255784963,1.43920008076802,-26.5617169563805,-6.11668763681737,33.2430163764751,-99.2886283116268,-13.2110887016873,-64.885163825549,-23.7330949013593,17.0803912903411,24.6012931450777,-1.55399824366283,23.8918252705442,-59.0264043270318,34.5917579362917,-0.90357816412899,-31.7544216046578,-58.4097789860431,9.95250915438729,-1.44140733693076,-7.66290038156427,36.8877268087869,-2.08930843246293,-35.0880895759514,-12.75033079099,37.2884977446082,4.0027123406102,-5.29709518790545,-26.7588929190718,57.0118164449885,29.2889148922861,-39.5529410695489,6.35565832939425,10.4388541006942,25.1102649711703,-21.6346517125298,-5.92617004487162,10.6590280212806,11.1293121790544,-10.8333652550959,-6.17548050783709,-36.1179305009793,-28.3373273629422,-13.9987891364567,-8.47338321603177,-15.7663597888324,34.1629686379497,24.1004062826207,3.23132799130101,-35.0784074078393,-8.74512345222586,-52.166615836884,-33.4894381388978,-77.9698057986644,-6.00894857316583,-69.9146013997721,-3.44873629157137,21.1586250975207,-47.3400136225905,-47.4035814767971,-11.3122483744619,24.3034573899667,-9.59852339279451,47.7598289567985,-50.6187776492292,19.1663702619812,4.97682944959468,-11.5967461911745,34.6224076439488,11.3873356060657,108.43677990659,-92.002488216673,0.260694552276171,-11.4573216646158,4.89886511163425,71.5329188554766,17.648413593922,27.4160396943081,16.655618402459,-23.4653492857757,-4.14293186376312,-24.3849948910552,22.5539199081658,-78.2435305475675,-21.2080848825328,25.4230413868803,35.0205851908034,-19.1091490324435,-52.1426677581016,-23.485991142073,-18.858104159069,10.5016864499553,14.1106256605537,-39.3759621004122,19.3032860247441,21.121356235818,16.6518268580749,-65.7077061706492,35.7678690457594,-59.1314676311357,-2.03277736120174,-34.6460878313832,28.4552744756711,18.8478023249344,30.2174138105063,27.6381938406193,-14.2115163045316,47.6187498868159,30.2374499261798,2.76955345814733,-33.2977658799342,1,1,1,1,1,1,1,1,1,1,1,1,1,1,1,1,1,1,1,1,1,1,1,1,1,1,1,1,1,1,1,1,1,1,1,1,1,1,1,1,1,1,1,1,1,1,1,1,1,1,1,1,1,1,1,1,1,1,1,1,1,1,1,1,1,1,1,1,1,1,1,1,1,1,1,1,1,1,1,1,1,1,1,1,1,1,1,1,1,1,1,1,1,1,1,1,1,1,1,1,1,1,1,1,1,1,1,1,1,1,1,1,1,1,1,1,1,1,1,1,1,1,1,1,1,1,1,1,1,1,1,1,1,1,1,1,1,1,1,1,1,1,1,1,1,1,1,1,1,1,1,1,1,1,1,1,1,1,1,1,1,1,1,1,1,1,1,1,1,1,1,1,1,1,1,1,1,1,1,1,1,1,1,1,1,1,1,1,1,1,1,1,1,1,1,1,1,1,1,1,1,1,1,1,1,1,1,1,1,1,1,1,1,1,1,1,1,1,1,1,1,1,1,1,1,1,1,1,1,1,1,1,1,1,1,1,1,1,1,1,1,1,1,1,1,1,1,1,1,1,1,1,1,1,1,1,1,1,1,1,1,1,1,1,1,1,1,1,1,1,28.3928867504285,-149.094225991809,30.1903152429578,37.6128517258485,0.0315919786543648,-34.607755490735,19.9253375743484,49.9768643940626,5.17217719466919,111.712159362037,-26.9390886690117,-41.2402481952933,-73.8446166367021,17.6707294846989,25.0978947449884,-14.704156984543,-15.6702922741155,-24.9873170728889,-29.2915310877398,-15.5968646153931,-33.9977292014712,-46.0129914234445,-8.84148053141351,19.3823554635014,88.2353563252871,6.06989827347153,-33.5378964599502,21.4535226879194,71.456592363588,40.5193514578864,21.4757527547815,-4.46320139878579,-21.6992206499199,-18.2267556369548,-9.8441185510189,-20.5582785184705,-19.6981618215317,26.3009017939675,-34.6597144376765,-32.6846710450565,34.3462382625348,-12.3537513813597,10.1484404657876,-20.3839059811344,-35.1826781694952,1.12464467864561,-45.3115866757587,16.9579473413695,21.0600428350052,-24.3983644407868,-4.85103203105034,52.9399731083057,-31.192701238077,1.10971862517778,-13.3440000229699,-18.9297573264523,25.1484599345897,62.5492989040825,2.97046442817704,20.1057464305481,23.3445633542197,-13.0615748644887,-21.5338256339112,18.4218571130418,13.5292636136273,49.4192002799006,-17.5293234737044,-31.4791857470322,62.6858499016899,-13.8075978381515,-1.49807390284483,-29.7998852536418,12.7165166223513,45.3574799250866,27.1916223116171,27.0761949943652,11.6237491654757,-56.5757802163852,-45.0870831894278,50.2407257281727,-25.633400611503,-11.3507847699826,64.3884214288146,-1.83574165220947,-55.3892397599744,-37.7275546248555,1.83112186286321,-23.2988577728405,33.385860323252,-52.549684441333,21.9788241846228,38.6758359281166,26.2632384460662,31.5647599618055,-22.4520396968537,42.3148059742415,59.296386128975,11.8700556141137,60.1680554738738,25.718206946205,42.2842663055046,-61.041257136206,60.4358262327632,55.6742172852711,28.8290694606678,0.48825139756143,-92.4399507305799,33.3150176516102,-68.5272478887124,26.172898557767,-34.5159261308785,38.676944764472,-17.1987967700127,100.16363411771,52.2916560968862,64.703131036671,48.1301305666999,85.9356159914292,6.80240745017708,-3.53806221542917,25.7136663801745,6.64010408020671,22.4542284282656,-27.8453416605739,-52.6188884793281,-20.957103490416,-95.603941631636,-7.45292165548532,113.160369615404,-42.6720947197182,-0.0361111545116168,81.7004866849154,-56.0246474824774,5.31977435566368,61.876839157734,59.8434217460075,-16.8753625008109,39.276046329156,-16.8608770681688,-30.2774285370816,13.8743205386459,75.5995409981155,45.0118280424444,65.807370167467,2.50690316345374,-6.94724786293949,12.5813385079068,23.4134589596784,-37.3689890629844,8.0868737130713,12.1194163738187,5.47323685251388,4.54377005956659,-2.78842449208253,19.7366750094576,24.6123123971666,-11.4109084078793,-13.9556640586602,-24.4684889203051,22.4095809452719,-16.5465758189766,-12.6033870202279,-64.0317758276885,-15.9057249233789,25.562176575162,-3.90822770704519,80.0070903181647,26.7529616713982,20.6033871799139,13.3356509461967,-42.8891756123117,-8.00221132473254,1.03941809386711,-0.127683368629955,2.05512498564064,-45.8987833396664,63.5686650868228,71.3996364136837,44.2724948450822,64.3676965794854,81.3941106297846,-42.5738208611164,-18.1173241373033,42.0887675703347,-65.9055174776627,24.0839968365752,35.3716745747814,19.4948053818196,-41.7685754925829,12.6628060288885,15.0588738927345,48.4686418230425,50.7354970036037,19.143110095364,21.5111684759628,-16.818786835903,-43.4190378916689,-48.647105281051,89.0015898946216,-11.7351620054486,41.7118143043022,-20.316319376206,-64.5384285160004,-39.8650942877216,16.9749966104032,17.9637764725896,30.5383970116944,-13.9512538208116,-34.0636742708748,-41.1837437001519,32.0565122572737,11.1266270414069,-44.0592427014431,63.1934533674714,-22.8302864030433,-11.4347955490756,32.1437656874423,-20.9809234226472,14.8188553571737,-29.4383685765701,-10.8403489573784,2.55177800234422,15.5290808727675,0.791504529371795,20.1727366322016,31.0823404859258,-8.43280795183998,-20.2596839063384,-36.7035457307145,23.0613434182211,-58.532414008161,11.7631621141579,81.8464004309937,11.8130873198382,-75.6689473003292,-41.7176709944651,21.3381999919052,28.2133582937607,68.7840141518642,-28.9999994566437,-24.0699655818162,-4.8387039775887,12.9927182598872,0.746088983930525,13.2262917419778,76.9076530056853,-27.251061325373,9.54592627392541,3.56104898331471,19.3806469821818,47.6898364902985,-48.8328182614279,44.9829446499756,-12.6708080060025,50.8040278293134,-15.6214721687091,26.7783298767872,58.2284606240278,16.9333565876358,54.6916641765774,-2.18516607813335,12.9471038529902,3.41143465484976,10.6589640893814,-39.390093934747,-18.4697795223126,-31.2813076963807,21.0439023289782,4.68749654649866,52.4714781116182,32.5127490844429,8.32674163739895,1,1,1,1,1,1,1,1,1,1,1,1,1,1,1,1,1,1,1,1,1,1,1,1,1,1,1,1,1,1,1,1,1,1,1,1,1,1,1,1,1,1,1,1,1,1,1,1,1,1,1,1,1,1,1,1,1,1,1,1,1,1,1,1,1,1,1,1,1,1,1,1,1,1,1,1,1,1,1,1,1,1,1,1,1,1,1,1,1,1,1,1,1,1,1,1,1,1,1,1,1,1,1,1,1,1,1,1,1,1,1,1,1,1,1,1,1,1,1,1,1,1,1,1,1,1,1,1,1,1,1,1,1,1,1,1,1,1,1,1,1,1,1,1,1,1,1,1,1,1,1,1,1,1,1,1,1,1,1,1,1,1,1,1,1,1,1,1,1,1,1,1,1,1,1,1,1,1,1,1,1,1,1,1,1,1,1,1,1,1,1,1,1,1,1,1,1,1,1,1,1,1,1,1,1,1,1,1,1,1,1,1,1,1,1,1,1,1,1,1,1,1,1,1,1,1,1,1,1,1,1,1,1,1,1,1,1,1,1,1,1,1,1,1,1,1,1,1,1,1,1,1,1,1,1,1,1,1,1,1,1,1,1,1,1,1,1,1,1,1,25.2613708369215,-0.896380277628582,17.6651854235883,22.3178708191733,-54.4449706710974,-19.7444991453412,31.6895753770125,-17.6335068696573,38.2239105210829,-41.0170672286498,16.5759498054946,8.64131615737345,-35.5881470921638,-77.6829507517655,-21.6334132333071,40.4266294166534,34.5011521042022,6.05275893236027,4.4643208914735,-34.2851502501672,25.8957142715066,-15.9924602816342,30.5348466980721,29.6791792134793,-36.7532715395896,-9.84844873054297,-32.5184896590662,-28.5198922476811,-30.3196811792764,-22.5085994753581,-15.7180817421395,-0.396751160469703,6.81428557163329,44.4753528473186,4.77239307059074,8.62977935714523,30.0581435369784,9.06356905844514,-41.4903522995627,4.75491131801231,9.70628344035829,-19.8037823498429,30.6522612208624,24.4338318524469,-61.1843277978652,-21.8519700367106,24.6602386486279,42.0884042951832,-0.2261812609377,45.5273357125003,31.7688240735551,34.4341258794888,-59.7069713905309,-21.3194059808445,65.8328938906163,54.1010567847905,49.5381209043713,21.2093682479115,-16.6382080635385,-49.4065192100164,-11.5454957949028,8.23546444723409,22.4514904543634,-45.0681488962973,83.3752342888124,-16.1135860332662,24.9096604291381,16.6800542887674,-22.1045438005877,48.7072698721511,-28.0101365695104,39.9357594121216,15.2337848345635,8.19815151763838,21.5134911094247,27.8515069730548,15.3401153806391,74.111463192728,3.54894697403843,2.74914316271564,16.0048253884908,-25.4847157032671,28.5845616548278,-40.987147791997,22.4876826144603,13.3638440485202,4.52625450158222,7.84911520917479,13.2493453020334,35.7382083882849,-17.0730051307386,-32.2005495442329,-1.91998290444808,-43.1384320885336,-21.7527734141394,19.329591889267,23.5452637969709,-52.8946147799646,2.12417388508932,-47.9687589872402,-21.3524795740101,37.9276844635855,25.4167204473709,43.2837979440047,-9.4484668619187,11.1700390148007,-19.9342463358743,8.10088659105064,30.8315229323013,-31.5340997971809,-37.5557117790077,-40.6198561209434,-23.8777021669566,-12.055764817591,60.3853570121266,-47.8940978824281,65.4637263485617,58.6982556031728,-39.4754938193966,11.3906740997359,6.53090326957615,-20.0948332861525,5.78504105856826,-12.3661920995027,76.9473245700406,47.2750267272168,-5.81714258306917,23.419446734971,-34.757002560052,-32.6104564549438,-11.1030172521484,-8.50924556386318,-8.71149872634411,14.3112180949855,-33.2381313402598,55.8813480095979,73.7414580249782,-1.01979822209774,-20.3802813190533,-13.8377821247936,19.9134407691763,20.9808660335475,19.7098353722218,-33.5562178310419,-45.7994851344406,29.1116693478127,64.8695023287169,-40.0419201504311,-23.2985702653848,-19.4240530130137,38.5451731359092,0.579067496917484,-23.9675571011958,30.7723858664845,-31.6178804304882,2.10014718021489,31.2610918921412,43.4659285006586,-33.4078132257563,-32.9935255784963,1.43920008076802,-26.5617169563805,-6.11668763681737,33.2430163764751,-99.2886283116268,-13.2110887016873,-64.885163825549,-23.7330949013593,17.0803912903411,24.6012931450777,-1.55399824366283,23.8918252705442,-59.0264043270318,34.5917579362917,-0.90357816412899,-31.7544216046578,-58.4097789860431,9.95250915438729,-1.44140733693076,-7.66290038156427,36.8877268087869,-2.08930843246293,-35.0880895759514,-12.75033079099,37.2884977446082,4.0027123406102,-5.29709518790545,-26.7588929190718,57.0118164449885,29.2889148922861,-39.5529410695489,6.35565832939425,10.4388541006942,25.1102649711703,-21.6346517125298,-5.92617004487162,10.6590280212806,11.1293121790544,-10.8333652550959,-6.17548050783709,-36.1179305009793,-28.3373273629422,-13.9987891364567,-8.47338321603177,-15.7663597888324,34.1629686379497,24.1004062826207,3.23132799130101,-35.0784074078393,-8.74512345222586,-52.166615836884,-33.4894381388978,-77.9698057986644,-6.00894857316583,-69.9146013997721,-3.44873629157137,21.1586250975207,-47.3400136225905,-47.4035814767971,-11.3122483744619,24.3034573899667,-9.59852339279451,47.7598289567985,-50.6187776492292,19.1663702619812,4.97682944959468,-11.5967461911745,34.6224076439488,11.3873356060657,108.43677990659,-92.002488216673,0.260694552276171,-11.4573216646158,4.89886511163425,71.5329188554766,17.648413593922,27.4160396943081,16.655618402459,-23.4653492857757,-4.14293186376312,-24.3849948910552,22.5539199081658,-78.2435305475675,-21.2080848825328,25.4230413868803,35.0205851908034,-19.1091490324435,-52.1426677581016,-23.485991142073,-18.858104159069,10.5016864499553,14.1106256605537,-39.3759621004122,19.3032860247441,21.121356235818,16.6518268580749,-65.7077061706492,35.7678690457594,-59.1314676311357,-2.03277736120174,-34.6460878313832,28.4552744756711,18.8478023249344,30.2174138105063,27.6381938406193,-14.2115163045316,47.6187498868159,30.2374499261798,2.76955345814733,-33.2977658799342,1,1,1,1,1,1,1,1,1,1,1,1,1,1,1,1,1,1,1,1,1,1,1,1,1,1,1,1,1,1,1,1,1,1,1,1,1,1,1,1,1,1,1,1,1,1,1,1,1,1,1,1,1,1,1,1,1,1,1,1,1,1,1,1,1,1,1,1,1,1,1,1,1,1,1,1,1,1,1,1,1,1,1,1,1,1,1,1,1,1,1,1,1,1,1,1,1,1,1,1,1,1,1,1,1,1,1,1,1,1,1,1,1,1,1,1,1,1,1,1,1,1,1,1,1,1,1,1,1,1,1,1,1,1,1,1,1,1,1,1,1,1,1,1,1,1,1,1,1,1,1,1,1,1,1,1,1,1,1,1,1,1,1,1,1,1,1,1,1,1,1,1,1,1,1,1,1,1,1,1,1,1,1,1,1,1,1,1,1,1,1,1,1,1,1,1,1,1,1,1,1,1,1,1,1,1,1,1,1,1,1,1,1,1,1,1,1,1,1,1,1,1,1,1,1,1,1,1,1,1,1,1,1,1,1,1,1,1,1,1,1,1,1,1,1,1,1,1,1,1,1,1,1,1,1,1,1,1,1,1,1,1,1,1,1,1,1,1,1,1,-53.1454175988126,-98.114114947094,30.1903152429578,37.6128517258485,0.0315919786543648,-34.607755490735,19.9253375743484,49.9768643940626,5.17217719466919,111.712159362037,-26.9390886690117,-41.2402481952933,-73.8446166367021,17.6707294846989,25.0978947449884,-14.704156984543,-15.6702922741155,-24.9873170728889,-29.2915310877398,-15.5968646153931,-33.9977292014712,-46.0129914234445,-8.84148053141351,19.3823554635014,88.2353563252871,6.06989827347153,-33.5378964599502,21.4535226879194,71.456592363588,40.5193514578864,21.4757527547815,-4.46320139878579,-21.6992206499199,-18.2267556369548,-9.8441185510189,-20.5582785184705,-19.6981618215317,26.3009017939675,-34.6597144376765,-32.6846710450565,34.3462382625348,-12.3537513813597,10.1484404657876,-20.3839059811344,-35.1826781694952,1.12464467864561,-45.3115866757587,16.9579473413695,21.0600428350052,-24.3983644407868,-4.85103203105034,52.9399731083057,-31.192701238077,1.10971862517778,-13.3440000229699,-18.9297573264523,25.1484599345897,62.5492989040825,2.97046442817704,20.1057464305481,23.3445633542197,-13.0615748644887,-21.5338256339112,18.4218571130418,13.5292636136273,49.4192002799006,-17.5293234737044,-31.4791857470322,62.6858499016899,-13.8075978381515,-1.49807390284483,-29.7998852536418,12.7165166223513,45.3574799250866,27.1916223116171,27.0761949943652,11.6237491654757,-56.5757802163852,-45.0870831894278,50.2407257281727,-25.633400611503,-11.3507847699826,64.3884214288146,-1.83574165220947,-55.3892397599744,-37.7275546248555,1.83112186286321,-23.2988577728405,33.385860323252,-52.549684441333,21.9788241846228,38.6758359281166,26.2632384460662,31.5647599618055,-22.4520396968537,42.3148059742415,59.296386128975,11.8700556141137,60.1680554738738,25.718206946205,42.2842663055046,-61.041257136206,60.4358262327632,55.6742172852711,28.8290694606678,0.48825139756143,-92.4399507305799,33.3150176516102,-68.5272478887124,26.172898557767,-34.5159261308785,38.676944764472,-17.1987967700127,100.16363411771,52.2916560968862,64.703131036671,48.1301305666999,85.9356159914292,6.80240745017708,-3.53806221542917,25.7136663801745,6.64010408020671,22.4542284282656,-27.8453416605739,-52.6188884793281,-20.957103490416,-95.603941631636,-7.45292165548532,113.160369615404,-42.6720947197182,-0.0361111545116168,81.7004866849154,-56.0246474824774,5.31977435566368,61.876839157734,59.8434217460075,-16.8753625008109,39.276046329156,-16.8608770681688,-30.2774285370816,13.8743205386459,75.5995409981155,45.0118280424444,65.807370167467,2.50690316345374,-6.94724786293949,12.5813385079068,23.4134589596784,-37.3689890629844,8.0868737130713,12.1194163738187,5.47323685251388,4.54377005956659,-2.78842449208253,19.7366750094576,24.6123123971666,-11.4109084078793,-13.9556640586602,-24.4684889203051,22.4095809452719,-16.5465758189766,-12.6033870202279,-64.0317758276885,-15.9057249233789,25.562176575162,-3.90822770704519,80.0070903181647,26.7529616713982,20.6033871799139,13.3356509461967,-42.8891756123117,-8.00221132473254,1.03941809386711,-0.127683368629955,2.05512498564064,-45.8987833396664,63.5686650868228,71.3996364136837,44.2724948450822,64.3676965794854,81.3941106297846,-42.5738208611164,-18.1173241373033,42.0887675703347,-65.9055174776627,24.0839968365752,35.3716745747814,19.4948053818196,-41.7685754925829,12.6628060288885,15.0588738927345,48.4686418230425,50.7354970036037,19.143110095364,21.5111684759628,-16.818786835903,-43.4190378916689,-48.647105281051,89.0015898946216,-11.7351620054486,41.7118143043022,-20.316319376206,-64.5384285160004,-39.8650942877216,16.9749966104032,17.9637764725896,30.5383970116944,-13.9512538208116,-34.0636742708748,-41.1837437001519,32.0565122572737,11.1266270414069,-44.0592427014431,63.1934533674714,-22.8302864030433,-11.4347955490756,32.1437656874423,-20.9809234226472,14.8188553571737,-29.4383685765701,-10.8403489573784,2.55177800234422,15.5290808727675,0.791504529371795,20.1727366322016,31.0823404859258,-8.43280795183998,-20.2596839063384,-36.7035457307145,23.0613434182211,-58.532414008161,11.7631621141579,81.8464004309937,11.8130873198382,-75.6689473003292,-41.7176709944651,21.3381999919052,28.2133582937607,68.7840141518642,-28.9999994566437,-24.0699655818162,-4.8387039775887,12.9927182598872,0.746088983930525,13.2262917419778,76.9076530056853,-27.251061325373,9.54592627392541,3.56104898331471,19.3806469821818,47.6898364902985,-48.8328182614279,44.9829446499756,-12.6708080060025,50.8040278293134,-15.6214721687091,26.7783298767872,58.2284606240278,16.9333565876358,54.6916641765774,-2.18516607813335,12.9471038529902,3.41143465484976,10.6589640893814,-39.390093934747,-18.4697795223126,-31.2813076963807,21.0439023289782,4.68749654649866,52.4714781116182,32.5127490844429,8.32674163739895,1,1,1,1,1,1,1,1,1,1,1,1,1,1,1,1,1,1,1,1,1,1,1,1,1,1,1,1,1,1,1,1,1,1,1,1,1,1,1,1,1,1,1,1,1,1,1,1,1,1,1,1,1,1,1,1,1,1,1,1,1,1,1,1,1,1,1,1,1,1,1,1,1,1,1,1,1,1,1,1,1,1,1,1,1,1,1,1,1,1,1,1,1,1,1,1,1,1,1,1,1,1,1,1,1,1,1,1,1,1,1,1,1,1,1,1,1,1,1,1,1,1,1,1,1,1,1,1,1,1,1,1,1,1,1,1,1,1,1,1,1,1,1,1,1,1,1,1,1,1,1,1,1,1,1,1,1,1,1,1,1,1,1,1,1,1,1,1,1,1,1,1,1,1,1,1,1,1,1,1,1,1,1,1,1,1,1,1,1,1,1,1,1,1,1,1,1,1,1,1,1,1,1,1,1,1,1,1,1,1,1,1,1,1,1,1,1,1,1,1,1,1,1,1,1,1,1,1,1,1,1,1,1,1,1,1,1,1,1,1,1,1,1,1,1,1,1,1,1,1,1,1,1,1,1,1,1,1,1,1,1,1,1,1,1,1,1,1,1,1,25.2613708369215,-0.896380277628582,17.6651854235883,22.3178708191733,-54.4449706710974,-19.7444991453412,31.6895753770125,-17.6335068696573,38.2239105210829,-41.0170672286498,16.5759498054946,8.64131615737345,-35.5881470921638,-77.6829507517655,-21.6334132333071,40.4266294166534,34.5011521042022,6.05275893236027,4.4643208914735,-34.2851502501672,25.8957142715066,-15.9924602816342,30.5348466980721,29.6791792134793,-36.7532715395896,-9.84844873054297,-32.5184896590662,-28.5198922476811,-30.3196811792764,-22.5085994753581,-15.7180817421395,-0.396751160469703,6.81428557163329,44.4753528473186,4.77239307059074,8.62977935714523,30.0581435369784,9.06356905844514,-41.4903522995627,4.75491131801231,9.70628344035829,-19.8037823498429,30.6522612208624,24.4338318524469,-61.1843277978652,-21.8519700367106,24.6602386486279,42.0884042951832,-0.2261812609377,45.5273357125003,31.7688240735551,34.4341258794888,-59.7069713905309,-21.3194059808445,65.8328938906163,54.1010567847905,49.5381209043713,21.2093682479115,-16.6382080635385,-49.4065192100164,-11.5454957949028,8.23546444723409,22.4514904543634,-45.0681488962973,83.3752342888124,-16.1135860332662,24.9096604291381,16.6800542887674,-22.1045438005877,48.7072698721511,-28.0101365695104,39.9357594121216,15.2337848345635,8.19815151763838,21.5134911094247,27.8515069730548,15.3401153806391,74.111463192728,3.54894697403843,2.74914316271564,16.0048253884908,-25.4847157032671,28.5845616548278,-40.987147791997,22.4876826144603,13.3638440485202,4.52625450158222,7.84911520917479,13.2493453020334,35.7382083882849,-17.0730051307386,-32.2005495442329,-1.91998290444808,-43.1384320885336,-21.7527734141394,19.329591889267,23.5452637969709,-52.8946147799646,2.12417388508932,-47.9687589872402,-21.3524795740101,37.9276844635855,25.4167204473709,43.2837979440047,-9.4484668619187,11.1700390148007,-19.9342463358743,8.10088659105064,30.8315229323013,-31.5340997971809,-37.5557117790077,-40.6198561209434,-23.8777021669566,-12.055764817591,60.3853570121266,-47.8940978824281,65.4637263485617,58.6982556031728,-39.4754938193966,11.3906740997359,6.53090326957615,-20.0948332861525,5.78504105856826,-12.3661920995027,76.9473245700406,47.2750267272168,-5.81714258306917,23.419446734971,-34.757002560052,-32.6104564549438,-11.1030172521484,-8.50924556386318,-8.71149872634411,14.3112180949855,-33.2381313402598,55.8813480095979,73.7414580249782,-1.01979822209774,-20.3802813190533,-13.8377821247936,19.9134407691763,20.9808660335475,19.7098353722218,-33.5562178310419,-45.7994851344406,29.1116693478127,64.8695023287169,-40.0419201504311,-23.2985702653848,-19.4240530130137,38.5451731359092,0.579067496917484,-23.9675571011958,30.7723858664845,-31.6178804304882,2.10014718021489,31.2610918921412,43.4659285006586,-33.4078132257563,-32.9935255784963,1.43920008076802,-26.5617169563805,-6.11668763681737,33.2430163764751,-99.2886283116268,-13.2110887016873,-64.885163825549,-23.7330949013593,17.0803912903411,24.6012931450777,-1.55399824366283,23.8918252705442,-59.0264043270318,34.5917579362917,-0.90357816412899,-31.7544216046578,-58.4097789860431,9.95250915438729,-1.44140733693076,-7.66290038156427,36.8877268087869,-2.08930843246293,-35.0880895759514,-12.75033079099,37.2884977446082,4.0027123406102,-5.29709518790545,-26.7588929190718,57.0118164449885,29.2889148922861,-39.5529410695489,6.35565832939425,10.4388541006942,25.1102649711703,-21.6346517125298,-5.92617004487162,10.6590280212806,11.1293121790544,-10.8333652550959,-6.17548050783709,-36.1179305009793,-28.3373273629422,-13.9987891364567,-8.47338321603177,-15.7663597888324,34.1629686379497,24.1004062826207,3.23132799130101,-35.0784074078393,-8.74512345222586,-52.166615836884,-33.4894381388978,-77.9698057986644,-6.00894857316583,-69.9146013997721,-3.44873629157137,21.1586250975207,-47.3400136225905,-47.4035814767971,-11.3122483744619,24.3034573899667,-9.59852339279451,47.7598289567985,-50.6187776492292,19.1663702619812,4.97682944959468,-11.5967461911745,34.6224076439488,11.3873356060657,108.43677990659,-92.002488216673,0.260694552276171,-11.4573216646158,4.89886511163425,71.5329188554766,17.648413593922,27.4160396943081,16.655618402459,-23.4653492857757,-4.14293186376312,-24.3849948910552,22.5539199081658,-78.2435305475675,-21.2080848825328,25.4230413868803,35.0205851908034,-19.1091490324435,-52.1426677581016,-23.485991142073,-18.858104159069,10.5016864499553,14.1106256605537,-39.3759621004122,19.3032860247441,21.121356235818,16.6518268580749,-65.7077061706492,35.7678690457594,-59.1314676311357,-2.03277736120174,-34.6460878313832,28.4552744756711,18.8478023249344,30.2174138105063,27.6381938406193,-14.2115163045316,47.6187498868159,30.2374499261798,2.76955345814733,-33.2977658799342,1,1,1,1,1,1,1,1,1,1,1,1,1,1,1,1,1,1,1,1,1,1,1,1,1,1,1,1,1,1,1,1,1,1,1,1,1,1,1,1,1,1,1,1,1,1,1,1,1,1,1,1,1,1,1,1,1,1,1,1,1,1,1,1,1,1,1,1,1,1,1,1,1,1,1,1,1,1,1,1,1,1,1,1,1,1,1,1,1,1,1,1,1,1,1,1,1,1,1,1,1,1,1,1,1,1,1,1,1,1,1,1,1,1,1,1,1,1,1,1,1,1,1,1,1,1,1,1,1,1,1,1,1,1,1,1,1,1,1,1,1,1,1,1,1,1,1,1,1,1,1,1,1,1,1,1,1,1,1,1,1,1,1,1,1,1,1,1,1,1,1,1,1,1,1,1,1,1,1,1,1,1,1,1,1,1,1,1,1,1,1,1,1,1,1,1,1,1,1,1,1,1,1,1,1,1,1,1,1,1,1,1,1,1,1,1,1,1,1,1,1,1,1,1,1,1,1,1,1,1,1,1,1,1,1,1,1,1,1,1,1,1,1,1,1,1,1,1,1,1,1,1,1,1,1,1,1,1,1,1,1,1,1,1,1,1,1,1,1,1
-55.7454655406742,-72.966105620361,241.973612500808,-195.806085081206,93.658694349034,30.1903152429578,37.6128517258485,0.0315919786543648,-34.607755490735,19.9253375743484,49.9768643940626,5.17217719466919,111.712159362037,-26.9390886690117,-41.2402481952933,-73.8446166367021,17.6707294846989,25.0978947449884,-14.704156984543,-15.6702922741155,-24.9873170728889,-29.2915310877398,-15.5968646153931,-33.9977292014712,-46.0129914234445,-8.84148053141351,19.3823554635014,88.2353563252871,6.06989827347153,-33.5378964599502,21.4535226879194,71.456592363588,40.5193514578864,21.4757527547815,-4.46320139878579,-21.6992206499199,-18.2267556369548,-9.8441185510189,-20.5582785184705,-19.6981618215317,26.3009017939675,-34.6597144376765,-32.6846710450565,34.3462382625348,-12.3537513813597,10.1484404657876,-20.3839059811344,-35.1826781694952,1.12464467864561,-45.3115866757587,16.9579473413695,21.0600428350052,-24.3983644407868,-4.85103203105034,52.9399731083057,-31.192701238077,1.10971862517778,-13.3440000229699,-18.9297573264523,25.1484599345897,62.5492989040825,2.97046442817704,20.1057464305481,23.3445633542197,-13.0615748644887,-21.5338256339112,18.4218571130418,13.5292636136273,49.4192002799006,-17.5293234737044,-31.4791857470322,62.6858499016899,-13.8075978381515,-1.49807390284483,-29.7998852536418,12.7165166223513,45.3574799250866,27.1916223116171,27.0761949943652,11.6237491654757,-56.5757802163852,-45.0870831894278,50.2407257281727,-25.633400611503,-11.3507847699826,64.3884214288146,-1.83574165220947,-55.3892397599744,-37.7275546248555,1.83112186286321,-23.2988577728405,33.385860323252,-52.549684441333,21.9788241846228,38.6758359281166,26.2632384460662,31.5647599618055,-22.4520396968537,42.3148059742415,59.296386128975,11.8700556141137,60.1680554738738,25.718206946205,42.2842663055046,-61.041257136206,60.4358262327632,55.6742172852711,28.8290694606678,0.48825139756143,-92.4399507305799,33.3150176516102,-68.5272478887124,26.172898557767,-34.5159261308785,38.676944764472,-17.1987967700127,100.16363411771,52.2916560968862,64.703131036671,48.1301305666999,85.9356159914292,6.80240745017708,-3.53806221542917,25.7136663801745,6.64010408020671,22.4542284282656,-27.8453416605739,-52.6188884793281,-20.957103490416,-95.603941631636,-7.45292165548532,113.160369615404,-42.6720947197182,-0.0361111545116168,81.7004866849154,-56.0246474824774,5.31977435566368,61.876839157734,59.8434217460075,-16.8753625008109,39.276046329156,-16.8608770681688,-30.2774285370816,13.8743205386459,75.5995409981155,45.0118280424444,65.807370167467,2.50690316345374,-6.94724786293949,12.5813385079068,23.4134589596784,-37.3689890629844,8.0868737130713,12.1194163738187,5.47323685251388,4.54377005956659,-2.78842449208253,19.7366750094576,24.6123123971666,-11.4109084078793,-13.9556640586602,-24.4684889203051,22.4095809452719,-16.5465758189766,-12.6033870202279,-64.0317758276885,-15.9057249233789,25.562176575162,-3.90822770704519,80.0070903181647,26.7529616713982,20.6033871799139,13.3356509461967,-42.8891756123117,-8.00221132473254,1.03941809386711,-0.127683368629955,2.05512498564064,-45.8987833396664,63.5686650868228,71.3996364136837,44.2724948450822,64.3676965794854,81.3941106297846,-42.5738208611164,-18.1173241373033,42.0887675703347,-65.9055174776627,24.0839968365752,35.3716745747814,19.4948053818196,-41.7685754925829,12.6628060288885,15.0588738927345,48.4686418230425,50.7354970036037,19.143110095364,21.5111684759628,-16.818786835903,-43.4190378916689,-48.647105281051,89.0015898946216,-11.7351620054486,41.7118143043022,-20.316319376206,-64.5384285160004,-39.8650942877216,16.9749966104032,17.9637764725896,30.5383970116944,-13.9512538208116,-34.0636742708748,-41.1837437001519,32.0565122572737,11.1266270414069,-44.0592427014431,63.1934533674714,-22.8302864030433,-11.4347955490756,32.1437656874423,-20.9809234226472,14.8188553571737,-29.4383685765701,-10.8403489573784,2.55177800234422,15.5290808727675,0.791504529371795,20.1727366322016,31.0823404859258,-8.43280795183998,-20.2596839063384,-36.7035457307145,23.0613434182211,-58.532414008161,11.7631621141579,81.8464004309937,11.8130873198382,-75.6689473003292,-41.7176709944651,21.3381999919052,28.2133582937607,68.7840141518642,-28.9999994566437,-24.0699655818162,-4.8387039775887,12.9927182598872,0.746088983930525,13.2262917419778,76.9076530056853,-27.251061325373,9.54592627392541,3.56104898331471,19.3806469821818,47.6898364902985,-48.8328182614279,44.9829446499756,-12.6708080060025,50.8040278293134,-15.6214721687091,26.7783298767872,58.2284606240278,16.9333565876358,54.6916641765774,-2.18516607813335,12.9471038529902,3.41143465484976,10.6589640893814,-39.390093934747,-18.4697795223126,-31.2813076963807,21.0439023289782,4.68749654649866,52.4714781116182,32.5127490844429,8.32674163739895,1,1,1,1,1,1,1,1,1,1,1,1,1,1,1,1,1,1,1,1,1,1,1,1,1,1,1,1,1,1,1,1,1,1,1,1,1,1,1,1,1,1,1,1,1,1,1,1,1,1,1,1,1,1,1,1,1,1,1,1,1,1,1,1,1,1,1,1,1,1,1,1,1,1,1,1,1,1,1,1,1,1,1,1,1,1,1,1,1,1,1,1,1,1,1,1,1,1,1,1,1,1,1,1,1,1,1,1,1,1,1,1,1,1,1,1,1,1,1,1,1,1,1,1,1,1,1,1,1,1,1,1,1,1,1,1,1,1,1,1,1,1,1,1,1,1,1,1,1,1,1,1,1,1,1,1,1,1,1,1,1,1,1,1,1,1,1,1,1,1,1,1,1,1,1,1,1,1,1,1,1,1,1,1,1,1,1,1,1,1,1,1,1,1,1,1,1,1,1,1,1,1,1,1,1,1,1,1,1,1,1,1,1,1,1,1,1,1,1,1,1,1,1,1,1,1,1,1,1,1,1,1,1,1,1,1,1,1,1,1,1,1,1,1,1,1,1,1,1,1,1,1,1,1,1,1,1,1,1,1,1,1,1,1,1,1,1,1,1,1,25.2613708369215,-0.896380277628582,17.6651854235883,22.3178708191733,-54.4449706710974,-19.7444991453412,31.6895753770125,-17.6335068696573,38.2239105210829,-41.0170672286498,16.5759498054946,8.64131615737345,-35.5881470921638,-77.6829507517655,-21.6334132333071,40.4266294166534,34.5011521042022,6.05275893236027,4.4643208914735,-34.2851502501672,25.8957142715066,-15.9924602816342,30.5348466980721,29.6791792134793,-36.7532715395896,-9.84844873054297,-32.5184896590662,-28.5198922476811,-30.3196811792764,-22.5085994753581,-15.7180817421395,-0.396751160469703,6.81428557163329,44.4753528473186,4.77239307059074,8.62977935714523,30.0581435369784,9.06356905844514,-41.4903522995627,4.75491131801231,9.70628344035829,-19.8037823498429,30.6522612208624,24.4338318524469,-61.1843277978652,-21.8519700367106,24.6602386486279,42.0884042951832,-0.2261812609377,45.5273357125003,31.7688240735551,34.4341258794888,-59.7069713905309,-21.3194059808445,65.8328938906163,54.1010567847905,49.5381209043713,21.2093682479115,-16.6382080635385,-49.4065192100164,-11.5454957949028,8.23546444723409,22.4514904543634,-45.0681488962973,83.3752342888124,-16.1135860332662,24.9096604291381,16.6800542887674,-22.1045438005877,48.7072698721511,-28.0101365695104,39.9357594121216,15.2337848345635,8.19815151763838,21.5134911094247,27.8515069730548,15.3401153806391,74.111463192728,3.54894697403843,2.74914316271564,16.0048253884908,-25.4847157032671,28.5845616548278,-40.987147791997,22.4876826144603,13.3638440485202,4.52625450158222,7.84911520917479,13.2493453020334,35.7382083882849,-17.0730051307386,-32.2005495442329,-1.91998290444808,-43.1384320885336,-21.7527734141394,19.329591889267,23.5452637969709,-52.8946147799646,2.12417388508932,-47.9687589872402,-21.3524795740101,37.9276844635855,25.4167204473709,43.2837979440047,-9.4484668619187,11.1700390148007,-19.9342463358743,8.10088659105064,30.8315229323013,-31.5340997971809,-37.5557117790077,-40.6198561209434,-23.8777021669566,-12.055764817591,60.3853570121266,-47.8940978824281,65.4637263485617,58.6982556031728,-39.4754938193966,11.3906740997359,6.53090326957615,-20.0948332861525,5.78504105856826,-12.3661920995027,76.9473245700406,47.2750267272168,-5.81714258306917,23.419446734971,-34.757002560052,-32.6104564549438,-11.1030172521484,-8.50924556386318,-8.71149872634411,14.3112180949855,-33.2381313402598,55.8813480095979,73.7414580249782,-1.01979822209774,-20.3802813190533,-13.8377821247936,19.9134407691763,20.9808660335475,19.7098353722218,-33.5562178310419,-45.7994851344406,29.1116693478127,64.8695023287169,-40.0419201504311,-23.2985702653848,-19.4240530130137,38.5451731359092,0.579067496917484,-23.9675571011958,30.7723858664845,-31.6178804304882,2.10014718021489,31.2610918921412,43.4659285006586,-33.4078132257563,-32.9935255784963,1.43920008076802,-26.5617169563805,-6.11668763681737,33.2430163764751,-99.2886283116268,-13.2110887016873,-64.885163825549,-23.7330949013593,17.0803912903411,24.6012931450777,-1.55399824366283,23.8918252705442,-59.0264043270318,34.5917579362917,-0.90357816412899,-31.7544216046578,-58.4097789860431,9.95250915438729,-1.44140733693076,-7.66290038156427,36.8877268087869,-2.08930843246293,-35.0880895759514,-12.75033079099,37.2884977446082,4.0027123406102,-5.29709518790545,-26.7588929190718,57.0118164449885,29.2889148922861,-39.5529410695489,6.35565832939425,10.4388541006942,25.1102649711703,-21.6346517125298,-5.92617004487162,10.6590280212806,11.1293121790544,-10.8333652550959,-6.17548050783709,-36.1179305009793,-28.3373273629422,-13.9987891364567,-8.47338321603177,-15.7663597888324,34.1629686379497,24.1004062826207,3.23132799130101,-35.0784074078393,-8.74512345222586,-52.166615836884,-33.4894381388978,-77.9698057986644,-6.00894857316583,-69.9146013997721,-3.44873629157137,21.1586250975207,-47.3400136225905,-47.4035814767971,-11.3122483744619,24.3034573899667,-9.59852339279451,47.7598289567985,-50.6187776492292,19.1663702619812,4.97682944959468,-11.5967461911745,34.6224076439488,11.3873356060657,108.43677990659,-92.002488216673,0.260694552276171,-11.4573216646158,4.89886511163425,71.5329188554766,17.648413593922,27.4160396943081,16.655618402459,-23.4653492857757,-4.14293186376312,-24.3849948910552,22.5539199081658,-78.2435305475675,-21.2080848825328,25.4230413868803,35.0205851908034,-19.1091490324435,-52.1426677581016,-23.485991142073,-18.858104159069,10.5016864499553,14.1106256605537,-39.3759621004122,19.3032860247441,21.121356235818,16.6518268580749,-65.7077061706492,35.7678690457594,-59.1314676311357,-2.03277736120174,-34.6460878313832,28.4552744756711,18.8478023249344,30.2174138105063,27.6381938406193,-14.2115163045316,47.6187498868159,30.2374499261798,2.76955345814733,-33.2977658799342,1,1,1,1,1,1,1,1,1,1,1,1,1,1,1,1,1,1,1,1,1,1,1,1,1,1,1,1,1,1,1,1,1,1,1,1,1,1,1,1,1,1,1,1,1,1,1,1,1,1,1,1,1,1,1,1,1,1,1,1,1,1,1,1,1,1,1,1,1,1,1,1,1,1,1,1,1,1,1,1,1,1,1,1,1,1,1,1,1,1,1,1,1,1,1,1,1,1,1,1,1,1,1,1,1,1,1,1,1,1,1,1,1,1,1,1,1,1,1,1,1,1,1,1,1,1,1,1,1,1,1,1,1,1,1,1,1,1,1,1,1,1,1,1,1,1,1,1,1,1,1,1,1,1,1,1,1,1,1,1,1,1,1,1,1,1,1,1,1,1,1,1,1,1,1,1,1,1,1,1,1,1,1,1,1,1,1,1,1,1,1,1,1,1,1,1,1,1,1,1,1,1,1,1,1,1,1,1,1,1,1,1,1,1,1,1,1,1,1,1,1,1,1,1,1,1,1,1,1,1,1,1,1,1,1,1,1,1,1,1,1,1,1,1,1,1,1,1,1,1,1,1,1,1,1,1,1,1,1,1,1,1,1,1,1,1,1,1,1,1,28.3928867504285,-149.094225991809,30.1903152429578,37.6128517258485,0.0315919786543648,-34.607755490735,19.9253375743484,49.9768643940626,5.17217719466919,111.712159362037,-26.9390886690117,-41.2402481952933,-73.8446166367021,17.6707294846989,25.0978947449884,-14.704156984543,-15.6702922741155,-24.9873170728889,-29.2915310877398,-15.5968646153931,-33.9977292014712,-46.0129914234445,-8.84148053141351,19.3823554635014,88.2353563252871,6.06989827347153,-33.5378964599502,21.4535226879194,71.456592363588,40.5193514578864,21.4757527547815,-4.46320139878579,-21.6992206499199,-18.2267556369548,-9.8441185510189,-20.5582785184705,-19.6981618215317,26.3009017939675,-34.6597144376765,-32.6846710450565,34.3462382625348,-12.3537513813597,10.1484404657876,-20.3839059811344,-35.1826781694952,1.12464467864561,-45.3115866757587,16.9579473413695,21.0600428350052,-24.3983644407868,-4.85103203105034,52.9399731083057,-31.192701238077,1.10971862517778,-13.3440000229699,-18.9297573264523,25.1484599345897,62.5492989040825,2.97046442817704,20.1057464305481,23.3445633542197,-13.0615748644887,-21.5338256339112,18.4218571130418,13.5292636136273,49.4192002799006,-17.5293234737044,-31.4791857470322,62.6858499016899,-13.8075978381515,-1.49807390284483,-29.7998852536418,12.7165166223513,45.3574799250866,27.1916223116171,27.0761949943652,11.6237491654757,-56.5757802163852,-45.0870831894278,50.2407257281727,-25.633400611503,-11.3507847699826,64.3884214288146,-1.83574165220947,-55.3892397599744,-37.7275546248555,1.83112186286321,-23.2988577728405,33.385860323252,-52.549684441333,21.9788241846228,38.6758359281166,26.2632384460662,31.5647599618055,-22.4520396968537,42.3148059742415,59.296386128975,11.8700556141137,60.1680554738738,25.718206946205,42.2842663055046,-61.041257136206,60.4358262327632,55.6742172852711,28.8290694606678,0.48825139756143,-92.4399507305799,33.3150176516102,-68.5272478887124,26.172898557767,-34.5159261308785,38.676944764472,-17.1987967700127,100.16363411771,52.2916560968862,64.703131036671,48.1301305666999,85.9356159914292,6.80240745017708,-3.53806221542917,25.7136663801745,6.64010408020671,22.4542284282656,-27.8453416605739,-52.6188884793281,-20.957103490416,-95.603941631636,-7.45292165548532,113.160369615404,-42.6720947197182,-0.0361111545116168,81.7004866849154,-56.0246474824774,5.31977435566368,61.876839157734,59.8434217460075,-16.8753625008109,39.276046329156,-16.8608770681688,-30.2774285370816,13.8743205386459,75.5995409981155,45.0118280424444,65.807370167467,2.50690316345374,-6.94724786293949,12.5813385079068,23.4134589596784,-37.3689890629844,8.0868737130713,12.1194163738187,5.47323685251388,4.54377005956659,-2.78842449208253,19.7366750094576,24.6123123971666,-11.4109084078793,-13.9556640586602,-24.4684889203051,22.4095809452719,-16.5465758189766,-12.6033870202279,-64.0317758276885,-15.9057249233789,25.562176575162,-3.90822770704519,80.0070903181647,26.7529616713982,20.6033871799139,13.3356509461967,-42.8891756123117,-8.00221132473254,1.03941809386711,-0.127683368629955,2.05512498564064,-45.8987833396664,63.5686650868228,71.3996364136837,44.2724948450822,64.3676965794854,81.3941106297846,-42.5738208611164,-18.1173241373033,42.0887675703347,-65.9055174776627,24.0839968365752,35.3716745747814,19.4948053818196,-41.7685754925829,12.6628060288885,15.0588738927345,48.4686418230425,50.7354970036037,19.143110095364,21.5111684759628,-16.818786835903,-43.4190378916689,-48.647105281051,89.0015898946216,-11.7351620054486,41.7118143043022,-20.316319376206,-64.5384285160004,-39.8650942877216,16.9749966104032,17.9637764725896,30.5383970116944,-13.9512538208116,-34.0636742708748,-41.1837437001519,32.0565122572737,11.1266270414069,-44.0592427014431,63.1934533674714,-22.8302864030433,-11.4347955490756,32.1437656874423,-20.9809234226472,14.8188553571737,-29.4383685765701,-10.8403489573784,2.55177800234422,15.5290808727675,0.791504529371795,20.1727366322016,31.0823404859258,-8.43280795183998,-20.2596839063384,-36.7035457307145,23.0613434182211,-58.532414008161,11.7631621141579,81.8464004309937,11.8130873198382,-75.6689473003292,-41.7176709944651,21.3381999919052,28.2133582937607,68.7840141518642,-28.9999994566437,-24.0699655818162,-4.8387039775887,12.9927182598872,0.746088983930525,13.2262917419778,76.9076530056853,-27.251061325373,9.54592627392541,3.56104898331471,19.3806469821818,47.6898364902985,-48.8328182614279,44.9829446499756,-12.6708080060025,50.8040278293134,-15.6214721687091,26.7783298767872,58.2284606240278,16.9333565876358,54.6916641765774,-2.18516607813335,12.9471038529902,3.41143465484976,10.6589640893814,-39.390093934747,-18.4697795223126,-31.2813076963807,21.0439023289782,4.68749654649866,52.4714781116182,32.5127490844429,8.32674163739895,1,1,1,1,1,1,1,1,1,1,1,1,1,1,1,1,1,1,1,1,1,1,1,1,1,1,1,1,1,1,1,1,1,1,1,1,1,1,1,1,1,1,1,1,1,1,1,1,1,1,1,1,1,1,1,1,1,1,1,1,1,1,1,1,1,1,1,1,1,1,1,1,1,1,1,1,1,1,1,1,1,1,1,1,1,1,1,1,1,1,1,1,1,1,1,1,1,1,1,1,1,1,1,1,1,1,1,1,1,1,1,1,1,1,1,1,1,1,1,1,1,1,1,1,1,1,1,1,1,1,1,1,1,1,1,1,1,1,1,1,1,1,1,1,1,1,1,1,1,1,1,1,1,1,1,1,1,1,1,1,1,1,1,1,1,1,1,1,1,1,1,1,1,1,1,1,1,1,1,1,1,1,1,1,1,1,1,1,1,1,1,1,1,1,1,1,1,1,1,1,1,1,1,1,1,1,1,1,1,1,1,1,1,1,1,1,1,1,1,1,1,1,1,1,1,1,1,1,1,1,1,1,1,1,1,1,1,1,1,1,1,1,1,1,1,1,1,1,1,1,1,1,1,1,1,1,1,1,1,1,1,1,1,1,1,1,1,1,1,1,25.2613708369215,-0.896380277628582,17.6651854235883,22.3178708191733,-54.4449706710974,-19.7444991453412,31.6895753770125,-17.6335068696573,38.2239105210829,-41.0170672286498,16.5759498054946,8.64131615737345,-35.5881470921638,-77.6829507517655,-21.6334132333071,40.4266294166534,34.5011521042022,6.05275893236027,4.4643208914735,-34.2851502501672,25.8957142715066,-15.9924602816342,30.5348466980721,29.6791792134793,-36.7532715395896,-9.84844873054297,-32.5184896590662,-28.5198922476811,-30.3196811792764,-22.5085994753581,-15.7180817421395,-0.396751160469703,6.81428557163329,44.4753528473186,4.77239307059074,8.62977935714523,30.0581435369784,9.06356905844514,-41.4903522995627,4.75491131801231,9.70628344035829,-19.8037823498429,30.6522612208624,24.4338318524469,-61.1843277978652,-21.8519700367106,24.6602386486279,42.0884042951832,-0.2261812609377,45.5273357125003,31.7688240735551,34.4341258794888,-59.7069713905309,-21.3194059808445,65.8328938906163,54.1010567847905,49.5381209043713,21.2093682479115,-16.6382080635385,-49.4065192100164,-11.5454957949028,8.23546444723409,22.4514904543634,-45.0681488962973,83.3752342888124,-16.1135860332662,24.9096604291381,16.6800542887674,-22.1045438005877,48.7072698721511,-28.0101365695104,39.9357594121216,15.2337848345635,8.19815151763838,21.5134911094247,27.8515069730548,15.3401153806391,74.111463192728,3.54894697403843,2.74914316271564,16.0048253884908,-25.4847157032671,28.5845616548278,-40.987147791997,22.4876826144603,13.3638440485202,4.52625450158222,7.84911520917479,13.2493453020334,35.7382083882849,-17.0730051307386,-32.2005495442329,-1.91998290444808,-43.1384320885336,-21.7527734141394,19.329591889267,23.5452637969709,-52.8946147799646,2.12417388508932,-47.9687589872402,-21.3524795740101,37.9276844635855,25.4167204473709,43.2837979440047,-9.4484668619187,11.1700390148007,-19.9342463358743,8.10088659105064,30.8315229323013,-31.5340997971809,-37.5557117790077,-40.6198561209434,-23.8777021669566,-12.055764817591,60.3853570121266,-47.8940978824281,65.4637263485617,58.6982556031728,-39.4754938193966,11.3906740997359,6.53090326957615,-20.0948332861525,5.78504105856826,-12.3661920995027,76.9473245700406,47.2750267272168,-5.81714258306917,23.419446734971,-34.757002560052,-32.6104564549438,-11.1030172521484,-8.50924556386318,-8.71149872634411,14.3112180949855,-33.2381313402598,55.8813480095979,73.7414580249782,-1.01979822209774,-20.3802813190533,-13.8377821247936,19.9134407691763,20.9808660335475,19.7098353722218,-33.5562178310419,-45.7994851344406,29.1116693478127,64.8695023287169,-40.0419201504311,-23.2985702653848,-19.4240530130137,38.5451731359092,0.579067496917484,-23.9675571011958,30.7723858664845,-31.6178804304882,2.10014718021489,31.2610918921412,43.4659285006586,-33.4078132257563,-32.9935255784963,1.43920008076802,-26.5617169563805,-6.11668763681737,33.2430163764751,-99.2886283116268,-13.2110887016873,-64.885163825549,-23.7330949013593,17.0803912903411,24.6012931450777,-1.55399824366283,23.8918252705442,-59.0264043270318,34.5917579362917,-0.90357816412899,-31.7544216046578,-58.4097789860431,9.95250915438729,-1.44140733693076,-7.66290038156427,36.8877268087869,-2.08930843246293,-35.0880895759514,-12.75033079099,37.2884977446082,4.0027123406102,-5.29709518790545,-26.7588929190718,57.0118164449885,29.2889148922861,-39.5529410695489,6.35565832939425,10.4388541006942,25.1102649711703,-21.6346517125298,-5.92617004487162,10.6590280212806,11.1293121790544,-10.8333652550959,-6.17548050783709,-36.1179305009793,-28.3373273629422,-13.9987891364567,-8.47338321603177,-15.7663597888324,34.1629686379497,24.1004062826207,3.23132799130101,-35.0784074078393,-8.74512345222586,-52.166615836884,-33.4894381388978,-77.9698057986644,-6.00894857316583,-69.9146013997721,-3.44873629157137,21.1586250975207,-47.3400136225905,-47.4035814767971,-11.3122483744619,24.3034573899667,-9.59852339279451,47.7598289567985,-50.6187776492292,19.1663702619812,4.97682944959468,-11.5967461911745,34.6224076439488,11.3873356060657,108.43677990659,-92.002488216673,0.260694552276171,-11.4573216646158,4.89886511163425,71.5329188554766,17.648413593922,27.4160396943081,16.655618402459,-23.4653492857757,-4.14293186376312,-24.3849948910552,22.5539199081658,-78.2435305475675,-21.2080848825328,25.4230413868803,35.0205851908034,-19.1091490324435,-52.1426677581016,-23.485991142073,-18.858104159069,10.5016864499553,14.1106256605537,-39.3759621004122,19.3032860247441,21.121356235818,16.6518268580749,-65.7077061706492,35.7678690457594,-59.1314676311357,-2.03277736120174,-34.6460878313832,28.4552744756711,18.8478023249344,30.2174138105063,27.6381938406193,-14.2115163045316,47.6187498868159,30.2374499261798,2.76955345814733,-33.2977658799342,1,1,1,1,1,1,1,1,1,1,1,1,1,1,1,1,1,1,1,1,1,1,1,1,1,1,1,1,1,1,1,1,1,1,1,1,1,1,1,1,1,1,1,1,1,1,1,1,1,1,1,1,1,1,1,1,1,1,1,1,1,1,1,1,1,1,1,1,1,1,1,1,1,1,1,1,1,1,1,1,1,1,1,1,1,1,1,1,1,1,1,1,1,1,1,1,1,1,1,1,1,1,1,1,1,1,1,1,1,1,1,1,1,1,1,1,1,1,1,1,1,1,1,1,1,1,1,1,1,1,1,1,1,1,1,1,1,1,1,1,1,1,1,1,1,1,1,1,1,1,1,1,1,1,1,1,1,1,1,1,1,1,1,1,1,1,1,1,1,1,1,1,1,1,1,1,1,1,1,1,1,1,1,1,1,1,1,1,1,1,1,1,1,1,1,1,1,1,1,1,1,1,1,1,1,1,1,1,1,1,1,1,1,1,1,1,1,1,1,1,1,1,1,1,1,1,1,1,1,1,1,1,1,1,1,1,1,1,1,1,1,1,1,1,1,1,1,1,1,1,1,1,1,1,1,1,1,1,1,1,1,1,1,1,1,1,1,1,1,1,-53.1454175988126,-98.114114947094,30.1903152429578,37.6128517258485,0.0315919786543648,-34.607755490735,19.9253375743484,49.9768643940626,5.17217719466919,111.712159362037,-26.9390886690117,-41.2402481952933,-73.8446166367021,17.6707294846989,25.0978947449884,-14.704156984543,-15.6702922741155,-24.9873170728889,-29.2915310877398,-15.5968646153931,-33.9977292014712,-46.0129914234445,-8.84148053141351,19.3823554635014,88.2353563252871,6.06989827347153,-33.5378964599502,21.4535226879194,71.456592363588,40.5193514578864,21.4757527547815,-4.46320139878579,-21.6992206499199,-18.2267556369548,-9.8441185510189,-20.5582785184705,-19.6981618215317,26.3009017939675,-34.6597144376765,-32.6846710450565,34.3462382625348,-12.3537513813597,10.1484404657876,-20.3839059811344,-35.1826781694952,1.12464467864561,-45.3115866757587,16.9579473413695,21.0600428350052,-24.3983644407868,-4.85103203105034,52.9399731083057,-31.192701238077,1.10971862517778,-13.3440000229699,-18.9297573264523,25.1484599345897,62.5492989040825,2.97046442817704,20.1057464305481,23.3445633542197,-13.0615748644887,-21.5338256339112,18.4218571130418,13.5292636136273,49.4192002799006,-17.5293234737044,-31.4791857470322,62.6858499016899,-13.8075978381515,-1.49807390284483,-29.7998852536418,12.7165166223513,45.3574799250866,27.1916223116171,27.0761949943652,11.6237491654757,-56.5757802163852,-45.0870831894278,50.2407257281727,-25.633400611503,-11.3507847699826,64.3884214288146,-1.83574165220947,-55.3892397599744,-37.7275546248555,1.83112186286321,-23.2988577728405,33.385860323252,-52.549684441333,21.9788241846228,38.6758359281166,26.2632384460662,31.5647599618055,-22.4520396968537,42.3148059742415,59.296386128975,11.8700556141137,60.1680554738738,25.718206946205,42.2842663055046,-61.041257136206,60.4358262327632,55.6742172852711,28.8290694606678,0.48825139756143,-92.4399507305799,33.3150176516102,-68.5272478887124,26.172898557767,-34.5159261308785,38.676944764472,-17.1987967700127,100.16363411771,52.2916560968862,64.703131036671,48.1301305666999,85.9356159914292,6.80240745017708,-3.53806221542917,25.7136663801745,6.64010408020671,22.4542284282656,-27.8453416605739,-52.6188884793281,-20.957103490416,-95.603941631636,-7.45292165548532,113.160369615404,-42.6720947197182,-0.0361111545116168,81.7004866849154,-56.0246474824774,5.31977435566368,61.876839157734,59.8434217460075,-16.8753625008109,39.276046329156,-16.8608770681688,-30.2774285370816,13.8743205386459,75.5995409981155,45.0118280424444,65.807370167467,2.50690316345374,-6.94724786293949,12.5813385079068,23.4134589596784,-37.3689890629844,8.0868737130713,12.1194163738187,5.47323685251388,4.54377005956659,-2.78842449208253,19.7366750094576,24.6123123971666,-11.4109084078793,-13.9556640586602,-24.4684889203051,22.4095809452719,-16.5465758189766,-12.6033870202279,-64.0317758276885,-15.9057249233789,25.562176575162,-3.90822770704519,80.0070903181647,26.7529616713982,20.6033871799139,13.3356509461967,-42.8891756123117,-8.00221132473254,1.03941809386711,-0.127683368629955,2.05512498564064,-45.8987833396664,63.5686650868228,71.3996364136837,44.2724948450822,64.3676965794854,81.3941106297846,-42.5738208611164,-18.1173241373033,42.0887675703347,-65.9055174776627,24.0839968365752,35.3716745747814,19.4948053818196,-41.7685754925829,12.6628060288885,15.0588738927345,48.4686418230425,50.7354970036037,19.143110095364,21.5111684759628,-16.818786835903,-43.4190378916689,-48.647105281051,89.0015898946216,-11.7351620054486,41.7118143043022,-20.316319376206,-64.5384285160004,-39.8650942877216,16.9749966104032,17.9637764725896,30.5383970116944,-13.9512538208116,-34.0636742708748,-41.1837437001519,32.0565122572737,11.1266270414069,-44.0592427014431,63.1934533674714,-22.8302864030433,-11.4347955490756,32.1437656874423,-20.9809234226472,14.8188553571737,-29.4383685765701,-10.8403489573784,2.55177800234422,15.5290808727675,0.791504529371795,20.1727366322016,31.0823404859258,-8.43280795183998,-20.2596839063384,-36.7035457307145,23.0613434182211,-58.532414008161,11.7631621141579,81.8464004309937,11.8130873198382,-75.6689473003292,-41.7176709944651,21.3381999919052,28.2133582937607,68.7840141518642,-28.9999994566437,-24.0699655818162,-4.8387039775887,12.9927182598872,0.746088983930525,13.2262917419778,76.9076530056853,-27.251061325373,9.54592627392541,3.56104898331471,19.3806469821818,47.6898364902985,-48.8328182614279,44.9829446499756,-12.6708080060025,50.8040278293134,-15.6214721687091,26.7783298767872,58.2284606240278,16.9333565876358,54.6916641765774,-2.18516607813335,12.9471038529902,3.41143465484976,10.6589640893814,-39.390093934747,-18.4697795223126,-31.2813076963807,21.0439023289782,4.68749654649866,52.4714781116182,32.5127490844429,8.32674163739895,1,1,1,1,1,1,1,1,1,1,1,1,1,1,1,1,1,1,1,1,1,1,1,1,1,1,1,1,1,1,1,1,1,1,1,1,1,1,1,1,1,1,1,1,1,1,1,1,1,1,1,1,1,1,1,1,1,1,1,1,1,1,1,1,1,1,1,1,1,1,1,1,1,1,1,1,1,1,1,1,1,1,1,1,1,1,1,1,1,1,1,1,1,1,1,1,1,1,1,1,1,1,1,1,1,1,1,1,1,1,1,1,1,1,1,1,1,1,1,1,1,1,1,1,1,1,1,1,1,1,1,1,1,1,1,1,1,1,1,1,1,1,1,1,1,1,1,1,1,1,1,1,1,1,1,1,1,1,1,1,1,1,1,1,1,1,1,1,1,1,1,1,1,1,1,1,1,1,1,1,1,1,1,1,1,1,1,1,1,1,1,1,1,1,1,1,1,1,1,1,1,1,1,1,1,1,1,1,1,1,1,1,1,1,1,1,1,1,1,1,1,1,1,1,1,1,1,1,1,1,1,1,1,1,1,1,1,1,1,1,1,1,1,1,1,1,1,1,1,1,1,1,1,1,1,1,1,1,1,1,1,1,1,1,1,1,1,1,1,1,25.2613708369215,-0.896380277628582,17.6651854235883,22.3178708191733,-54.4449706710974,-19.7444991453412,31.6895753770125,-17.6335068696573,38.2239105210829,-41.0170672286498,16.5759498054946,8.64131615737345,-35.5881470921638,-77.6829507517655,-21.6334132333071,40.4266294166534,34.5011521042022,6.05275893236027,4.4643208914735,-34.2851502501672,25.8957142715066,-15.9924602816342,30.5348466980721,29.6791792134793,-36.7532715395896,-9.84844873054297,-32.5184896590662,-28.5198922476811,-30.3196811792764,-22.5085994753581,-15.7180817421395,-0.396751160469703,6.81428557163329,44.4753528473186,4.77239307059074,8.62977935714523,30.0581435369784,9.06356905844514,-41.4903522995627,4.75491131801231,9.70628344035829,-19.8037823498429,30.6522612208624,24.4338318524469,-61.1843277978652,-21.8519700367106,24.6602386486279,42.0884042951832,-0.2261812609377,45.5273357125003,31.7688240735551,34.4341258794888,-59.7069713905309,-21.3194059808445,65.8328938906163,54.1010567847905,49.5381209043713,21.2093682479115,-16.6382080635385,-49.4065192100164,-11.5454957949028,8.23546444723409,22.4514904543634,-45.0681488962973,83.3752342888124,-16.1135860332662,24.9096604291381,16.6800542887674,-22.1045438005877,48.7072698721511,-28.0101365695104,39.9357594121216,15.2337848345635,8.19815151763838,21.5134911094247,27.8515069730548,15.3401153806391,74.111463192728,3.54894697403843,2.74914316271564,16.0048253884908,-25.4847157032671,28.5845616548278,-40.987147791997,22.4876826144603,13.3638440485202,4.52625450158222,7.84911520917479,13.2493453020334,35.7382083882849,-17.0730051307386,-32.2005495442329,-1.91998290444808,-43.1384320885336,-21.7527734141394,19.329591889267,23.5452637969709,-52.8946147799646,2.12417388508932,-47.9687589872402,-21.3524795740101,37.9276844635855,25.4167204473709,43.2837979440047,-9.4484668619187,11.1700390148007,-19.9342463358743,8.10088659105064,30.8315229323013,-31.5340997971809,-37.5557117790077,-40.6198561209434,-23.8777021669566,-12.055764817591,60.3853570121266,-47.8940978824281,65.4637263485617,58.6982556031728,-39.4754938193966,11.3906740997359,6.53090326957615,-20.0948332861525,5.78504105856826,-12.3661920995027,76.9473245700406,47.2750267272168,-5.81714258306917,23.419446734971,-34.757002560052,-32.6104564549438,-11.1030172521484,-8.50924556386318,-8.71149872634411,14.3112180949855,-33.2381313402598,55.8813480095979,73.7414580249782,-1.01979822209774,-20.3802813190533,-13.8377821247936,19.9134407691763,20.9808660335475,19.7098353722218,-33.5562178310419,-45.7994851344406,29.1116693478127,64.8695023287169,-40.0419201504311,-23.2985702653848,-19.4240530130137,38.5451731359092,0.579067496917484,-23.9675571011958,30.7723858664845,-31.6178804304882,2.10014718021489,31.2610918921412,43.4659285006586,-33.4078132257563,-32.9935255784963,1.43920008076802,-26.5617169563805,-6.11668763681737,33.2430163764751,-99.2886283116268,-13.2110887016873,-64.885163825549,-23.7330949013593,17.0803912903411,24.6012931450777,-1.55399824366283,23.8918252705442,-59.0264043270318,34.5917579362917,-0.90357816412899,-31.7544216046578,-58.4097789860431,9.95250915438729,-1.44140733693076,-7.66290038156427,36.8877268087869,-2.08930843246293,-35.0880895759514,-12.75033079099,37.2884977446082,4.0027123406102,-5.29709518790545,-26.7588929190718,57.0118164449885,29.2889148922861,-39.5529410695489,6.35565832939425,10.4388541006942,25.1102649711703,-21.6346517125298,-5.92617004487162,10.6590280212806,11.1293121790544,-10.8333652550959,-6.17548050783709,-36.1179305009793,-28.3373273629422,-13.9987891364567,-8.47338321603177,-15.7663597888324,34.1629686379497,24.1004062826207,3.23132799130101,-35.0784074078393,-8.74512345222586,-52.166615836884,-33.4894381388978,-77.9698057986644,-6.00894857316583,-69.9146013997721,-3.44873629157137,21.1586250975207,-47.3400136225905,-47.4035814767971,-11.3122483744619,24.3034573899667,-9.59852339279451,47.7598289567985,-50.6187776492292,19.1663702619812,4.97682944959468,-11.5967461911745,34.6224076439488,11.3873356060657,108.43677990659,-92.002488216673,0.260694552276171,-11.4573216646158,4.89886511163425,71.5329188554766,17.648413593922,27.4160396943081,16.655618402459,-23.4653492857757,-4.14293186376312,-24.3849948910552,22.5539199081658,-78.2435305475675,-21.2080848825328,25.4230413868803,35.0205851908034,-19.1091490324435,-52.1426677581016,-23.485991142073,-18.858104159069,10.5016864499553,14.1106256605537,-39.3759621004122,19.3032860247441,21.121356235818,16.6518268580749,-65.7077061706492,35.7678690457594,-59.1314676311357,-2.03277736120174,-34.6460878313832,28.4552744756711,18.8478023249344,30.2174138105063,27.6381938406193,-14.2115163045316,47.6187498868159,30.2374499261798,2.76955345814733,-33.2977658799342,1,1,1,1,1,1,1,1,1,1,1,1,1,1,1,1,1,1,1,1,1,1,1,1,1,1,1,1,1,1,1,1,1,1,1,1,1,1,1,1,1,1,1,1,1,1,1,1,1,1,1,1,1,1,1,1,1,1,1,1,1,1,1,1,1,1,1,1,1,1,1,1,1,1,1,1,1,1,1,1,1,1,1,1,1,1,1,1,1,1,1,1,1,1,1,1,1,1,1,1,1,1,1,1,1,1,1,1,1,1,1,1,1,1,1,1,1,1,1,1,1,1,1,1,1,1,1,1,1,1,1,1,1,1,1,1,1,1,1,1,1,1,1,1,1,1,1,1,1,1,1,1,1,1,1,1,1,1,1,1,1,1,1,1,1,1,1,1,1,1,1,1,1,1,1,1,1,1,1,1,1,1,1,1,1,1,1,1,1,1,1,1,1,1,1,1,1,1,1,1,1,1,1,1,1,1,1,1,1,1,1,1,1,1,1,1,1,1,1,1,1,1,1,1,1,1,1,1,1,1,1,1,1,1,1,1,1,1,1,1,1,1,1,1,1,1,1,1,1,1,1,1,1,1,1,1,1,1,1,1,1,1,1,1,1,1,1,1,1,1
-4.57301831132407,151.68847475233,277.969751491663,-195.806085081206,93.658694349034,30.1903152429578,37.6128517258485,0.0315919786543648,-34.607755490735,19.9253375743484,49.9768643940626,5.17217719466919,111.712159362037,-26.9390886690117,-41.2402481952933,-73.8446166367021,17.6707294846989,25.0978947449884,-14.704156984543,-15.6702922741155,-24.9873170728889,-29.2915310877398,-15.5968646153931,-33.9977292014712,-46.0129914234445,-8.84148053141351,19.3823554635014,88.2353563252871,6.06989827347153,-33.5378964599502,21.4535226879194,71.456592363588,40.5193514578864,21.4757527547815,-4.46320139878579,-21.6992206499199,-18.2267556369548,-9.8441185510189,-20.5582785184705,-19.6981618215317,26.3009017939675,-34.6597144376765,-32.6846710450565,34.3462382625348,-12.3537513813597,10.1484404657876,-20.3839059811344,-35.1826781694952,1.12464467864561,-45.3115866757587,16.9579473413695,21.0600428350052,-24.3983644407868,-4.85103203105034,52.9399731083057,-31.192701238077,1.10971862517778,-13.3440000229699,-18.9297573264523,25.1484599345897,62.5492989040825,2.97046442817704,20.1057464305481,23.3445633542197,-13.0615748644887,-21.5338256339112,18.4218571130418,13.5292636136273,49.4192002799006,-17.5293234737044,-31.4791857470322,62.6858499016899,-13.8075978381515,-1.49807390284483,-29.7998852536418,12.7165166223513,45.3574799250866,27.1916223116171,27.0761949943652,11.6237491654757,-56.5757802163852,-45.0870831894278,50.2407257281727,-25.633400611503,-11.3507847699826,64.3884214288146,-1.83574165220947,-55.3892397599744,-37.7275546248555,1.83112186286321,-23.2988577728405,33.385860323252,-52.549684441333,21.9788241846228,38.6758359281166,26.2632384460662,31.5647599618055,-22.4520396968537,42.3148059742415,59.296386128975,11.8700556141137,60.1680554738738,25.718206946205,42.2842663055046,-61.041257136206,60.4358262327632,55.6742172852711,28.8290694606678,0.48825139756143,-92.4399507305799,33.3150176516102,-68.5272478887124,26.172898557767,-34.5159261308785,38.676944764472,-17.1987967700127,100.16363411771,52.2916560968862,64.703131036671,48.1301305666999,85.9356159914292,6.80240745017708,-3.53806221542917,25.7136663801745,6.64010408020671,22.4542284282656,-27.8453416605739,-52.6188884793281,-20.957103490416,-95.603941631636,-7.45292165548532,113.160369615404,-42.6720947197182,-0.0361111545116168,81.7004866849154,-56.0246474824774,5.31977435566368,61.876839157734,59.8434217460075,-16.8753625008109,39.276046329156,-16.8608770681688,-30.2774285370816,13.8743205386459,75.5995409981155,45.0118280424444,65.807370167467,2.50690316345374,-6.94724786293949,12.5813385079068,23.4134589596784,-37.3689890629844,8.0868737130713,12.1194163738187,5.47323685251388,4.54377005956659,-2.78842449208253,19.7366750094576,24.6123123971666,-11.4109084078793,-13.9556640586602,-24.4684889203051,22.4095809452719,-16.5465758189766,-12.6033870202279,-64.0317758276885,-15.9057249233789,25.562176575162,-3.90822770704519,80.0070903181647,26.7529616713982,20.6033871799139,13.3356509461967,-42.8891756123117,-8.00221132473254,1.03941809386711,-0.127683368629955,2.05512498564064,-45.8987833396664,63.5686650868228,71.3996364136837,44.2724948450822,64.3676965794854,81.3941106297846,-42.5738208611164,-18.1173241373033,42.0887675703347,-65.9055174776627,24.0839968365752,35.3716745747814,19.4948053818196,-41.7685754925829,12.6628060288885,15.0588738927345,48.4686418230425,50.7354970036037,19.143110095364,21.5111684759628,-16.818786835903,-43.4190378916689,-48.647105281051,89.0015898946216,-11.7351620054486,41.7118143043022,-20.316319376206,-64.5384285160004,-39.8650942877216,16.9749966104032,17.9637764725896,30.5383970116944,-13.9512538208116,-34.0636742708748,-41.1837437001519,32.0565122572737,11.1266270414069,-44.0592427014431,63.1934533674714,-22.8302864030433,-11.4347955490756,32.1437656874423,-20.9809234226472,14.8188553571737,-29.4383685765701,-10.8403489573784,2.55177800234422,15.5290808727675,0.791504529371795,20.1727366322016,31.0823404859258,-8.43280795183998,-20.2596839063384,-36.7035457307145,23.0613434182211,-58.532414008161,11.7631621141579,81.8464004309937,11.8130873198382,-75.6689473003292,-41.7176709944651,21.3381999919052,28.2133582937607,68.7840141518642,-28.9999994566437,-24.0699655818162,-4.8387039775887,12.9927182598872,0.746088983930525,13.2262917419778,76.9076530056853,-27.251061325373,9.54592627392541,3.56104898331471,19.3806469821818,47.6898364902985,-48.8328182614279,44.9829446499756,-12.6708080060025,50.8040278293134,-15.6214721687091,26.7783298767872,58.2284606240278,16.9333565876358,54.6916641765774,-2.18516607813335,12.9471038529902,3.41143465484976,10.6589640893814,-39.390093934747,-18.4697795223126,-31.2813076963807,21.0439023289782,4.68749654649866,52.4714781116182,32.5127490844429,8.32674163739895,1,1,1,1,1,1,1,1,1,1,1,1,1,1,1,1,1,1,1,1,1,1,1,1,1,1,1,1,1,1,1,1,1,1,1,1,1,1,1,1,1,1,1,1,1,1,1,1,1,1,1,1,1,1,1,1,1,1,1,1,1,1,1,1,1,1,1,1,1,1,1,1,1,1,1,1,1,1,1,1,1,1,1,1,1,1,1,1,1,1,1,1,1,1,1,1,1,1,1,1,1,1,1,1,1,1,1,1,1,1,1,1,1,1,1,1,1,1,1,1,1,1,1,1,1,1,1,1,1,1,1,1,1,1,1,1,1,1,1,1,1,1,1,1,1,1,1,1,1,1,1,1,1,1,1,1,1,1,1,1,1,1,1,1,1,1,1,1,1,1,1,1,1,1,1,1,1,1,1,1,1,1,1,1,1,1,1,1,1,1,1,1,1,1,1,1,1,1,1,1,1,1,1,1,1,1,1,1,1,1,1,1,1,1,1,1,1,1,1,1,1,1,1,1,1,1,1,1,1,1,1,1,1,1,1,1,1,1,1,1,1,1,1,1,1,1,1,1,1,1,1,1,1,1,1,1,1,1,1,1,1,1,1,1,1,1,1,1,1,1,25.2613708369215,-0.896380277628582,17.6651854235883,22.3178708191733,-54.4449706710974,-19.7444991453412,31.6895753770125,-17.6335068696573,38.2239105210829,-41.0170672286498,16.5759498054946,8.64131615737345,-35.5881470921638,-77.6829507517655,-21.6334132333071,40.4266294166534,34.5011521042022,6.05275893236027,4.4643208914735,-34.2851502501672,25.8957142715066,-15.9924602816342,30.5348466980721,29.6791792134793,-36.7532715395896,-9.84844873054297,-32.5184896590662,-28.5198922476811,-30.3196811792764,-22.5085994753581,-15.7180817421395,-0.396751160469703,6.81428557163329,44.4753528473186,4.77239307059074,8.62977935714523,30.0581435369784,9.06356905844514,-41.4903522995627,4.75491131801231,9.70628344035829,-19.8037823498429,30.6522612208624,24.4338318524469,-61.1843277978652,-21.8519700367106,24.6602386486279,42.0884042951832,-0.2261812609377,45.5273357125003,31.7688240735551,34.4341258794888,-59.7069713905309,-21.3194059808445,65.8328938906163,54.1010567847905,49.5381209043713,21.2093682479115,-16.6382080635385,-49.4065192100164,-11.5454957949028,8.23546444723409,22.4514904543634,-45.0681488962973,83.3752342888124,-16.1135860332662,24.9096604291381,16.6800542887674,-22.1045438005877,48.7072698721511,-28.0101365695104,39.9357594121216,15.2337848345635,8.19815151763838,21.5134911094247,27.8515069730548,15.3401153806391,74.111463192728,3.54894697403843,2.74914316271564,16.0048253884908,-25.4847157032671,28.5845616548278,-40.987147791997,22.4876826144603,13.3638440485202,4.52625450158222,7.84911520917479,13.2493453020334,35.7382083882849,-17.0730051307386,-32.2005495442329,-1.91998290444808,-43.1384320885336,-21.7527734141394,19.329591889267,23.5452637969709,-52.8946147799646,2.12417388508932,-47.9687589872402,-21.3524795740101,37.9276844635855,25.4167204473709,43.2837979440047,-9.4484668619187,11.1700390148007,-19.9342463358743,8.10088659105064,30.8315229323013,-31.5340997971809,-37.5557117790077,-40.6198561209434,-23.8777021669566,-12.055764817591,60.3853570121266,-47.8940978824281,65.4637263485617,58.6982556031728,-39.4754938193966,11.3906740997359,6.53090326957615,-20.0948332861525,5.78504105856826,-12.3661920995027,76.9473245700406,47.2750267272168,-5.81714258306917,23.419446734971,-34.757002560052,-32.6104564549438,-11.1030172521484,-8.50924556386318,-8.71149872634411,14.3112180949855,-33.2381313402598,55.8813480095979,73.7414580249782,-1.01979822209774,-20.3802813190533,-13.8377821247936,19.9134407691763,20.9808660335475,19.7098353722218,-33.5562178310419,-45.7994851344406,29.1116693478127,64.8695023287169,-40.0419201504311,-23.2985702653848,-19.4240530130137,38.5451731359092,0.579067496917484,-23.9675571011958,30.7723858664845,-31.6178804304882,2.10014718021489,31.2610918921412,43.4659285006586,-33.4078132257563,-32.9935255784963,1.43920008076802,-26.5617169563805,-6.11668763681737,33.2430163764751,-99.2886283116268,-13.2110887016873,-64.885163825549,-23.7330949013593,17.0803912903411,24.6012931450777,-1.55399824366283,23.8918252705442,-59.0264043270318,34.5917579362917,-0.90357816412899,-31.7544216046578,-58.4097789860431,9.95250915438729,-1.44140733693076,-7.66290038156427,36.8877268087869,-2.08930843246293,-35.0880895759514,-12.75033079099,37.2884977446082,4.0027123406102,-5.29709518790545,-26.7588929190718,57.0118164449885,29.2889148922861,-39.5529410695489,6.35565832939425,10.4388541006942,25.1102649711703,-21.6346517125298,-5.92617004487162,10.6590280212806,11.1293121790544,-10.8333652550959,-6.17548050783709,-36.1179305009793,-28.3373273629422,-13.9987891364567,-8.47338321603177,-15.7663597888324,34.1629686379497,24.1004062826207,3.23132799130101,-35.0784074078393,-8.74512345222586,-52.166615836884,-33.4894381388978,-77.9698057986644,-6.00894857316583,-69.9146013997721,-3.44873629157137,21.1586250975207,-47.3400136225905,-47.4035814767971,-11.3122483744619,24.3034573899667,-9.59852339279451,47.7598289567985,-50.6187776492292,19.1663702619812,4.97682944959468,-11.5967461911745,34.6224076439488,11.3873356060657,108.43677990659,-92.002488216673,0.260694552276171,-11.4573216646158,4.89886511163425,71.5329188554766,17.648413593922,27.4160396943081,16.655618402459,-23.4653492857757,-4.14293186376312,-24.3849948910552,22.5539199081658,-78.2435305475675,-21.2080848825328,25.4230413868803,35.0205851908034,-19.1091490324435,-52.1426677581016,-23.485991142073,-18.858104159069,10.5016864499553,14.1106256605537,-39.3759621004122,19.3032860247441,21.121356235818,16.6518268580749,-65.7077061706492,35.7678690457594,-59.1314676311357,-2.03277736120174,-34.6460878313832,28.4552744756711,18.8478023249344,30.2174138105063,27.6381938406193,-14.2115163045316,47.6187498868159,30.2374499261798,2.76955345814733,-33.2977658799342,1,1,1,1,1,1,1,1,1,1,1,1,1,1,1,1,1,1,1,1,1,1,1,1,1,1,1,1,1,1,1,1,1,1,1,1,1,1,1,1,1,1,1,1,1,1,1,1,1,1,1,1,1,1,1,1,1,1,1,1,1,1,1,1,1,1,1,1,1,1,1,1,1,1,1,1,1,1,1,1,1,1,1,1,1,1,1,1,1,1,1,1,1,1,1,1,1,1,1,1,1,1,1,1,1,1,1,1,1,1,1,1,1,1,1,1,1,1,1,1,1,1,1,1,1,1,1,1,1,1,1,1,1,1,1,1,1,1,1,1,1,1,1,1,1,1,1,1,1,1,1,1,1,1,1,1,1,1,1,1,1,1,1,1,1,1,1,1,1,1,1,1,1,1,1,1,1,1,1,1,1,1,1,1,1,1,1,1,1,1,1,1,1,1,1,1,1,1,1,1,1,1,1,1,1,1,1,1,1,1,1,1,1,1,1,1,1,1,1,1,1,1,1,1,1,1,1,1,1,1,1,1,1,1,1,1,1,1,1,1,1,1,1,1,1,1,1,1,1,1,1,1,1,1,1,1,1,1,1,1,1,1,1,1,1,1,1,1,1,1,28.3928867504285,-149.094225991809,30.1903152429578,37.6128517258485,0.0315919786543648,-34.607755490735,19.9253375743484,49.9768643940626,5.17217719466919,111.712159362037,-26.9390886690117,-41.2402481952933,-73.8446166367021,17.6707294846989,25.0978947449884,-14.704156984543,-15.6702922741155,-24.9873170728889,-29.2915310877398,-15.5968646153931,-33.9977292014712,-46.0129914234445,-8.84148053141351,19.3823554635014,88.2353563252871,6.06989827347153,-33.5378964599502,21.4535226879194,71.456592363588,40.5193514578864,21.4757527547815,-4.46320139878579,-21.6992206499199,-18.2267556369548,-9.8441185510189,-20.5582785184705,-19.6981618215317,26.3009017939675,-34.6597144376765,-32.6846710450565,34.3462382625348,-12.3537513813597,10.1484404657876,-20.3839059811344,-35.1826781694952,1.12464467864561,-45.3115866757587,16.9579473413695,21.0600428350052,-24.3983644407868,-4.85103203105034,52.9399731083057,-31.192701238077,1.10971862517778,-13.3440000229699,-18.9297573264523,25.1484599345897,62.5492989040825,2.97046442817704,20.1057464305481,23.3445633542197,-13.0615748644887,-21.5338256339112,18.4218571130418,13.5292636136273,49.4192002799006,-17.5293234737044,-31.4791857470322,62.6858499016899,-13.8075978381515,-1.49807390284483,-29.7998852536418,12.7165166223513,45.3574799250866,27.1916223116171,27.0761949943652,11.6237491654757,-56.5757802163852,-45.0870831894278,50.2407257281727,-25.633400611503,-11.3507847699826,64.3884214288146,-1.83574165220947,-55.3892397599744,-37.7275546248555,1.83112186286321,-23.2988577728405,33.385860323252,-52.549684441333,21.9788241846228,38.6758359281166,26.2632384460662,31.5647599618055,-22.4520396968537,42.3148059742415,59.296386128975,11.8700556141137,60.1680554738738,25.718206946205,42.2842663055046,-61.041257136206,60.4358262327632,55.6742172852711,28.8290694606678,0.48825139756143,-92.4399507305799,33.3150176516102,-68.5272478887124,26.172898557767,-34.5159261308785,38.676944764472,-17.1987967700127,100.16363411771,52.2916560968862,64.703131036671,48.1301305666999,85.9356159914292,6.80240745017708,-3.53806221542917,25.7136663801745,6.64010408020671,22.4542284282656,-27.8453416605739,-52.6188884793281,-20.957103490416,-95.603941631636,-7.45292165548532,113.160369615404,-42.6720947197182,-0.0361111545116168,81.7004866849154,-56.0246474824774,5.31977435566368,61.876839157734,59.8434217460075,-16.8753625008109,39.276046329156,-16.8608770681688,-30.2774285370816,13.8743205386459,75.5995409981155,45.0118280424444,65.807370167467,2.50690316345374,-6.94724786293949,12.5813385079068,23.4134589596784,-37.3689890629844,8.0868737130713,12.1194163738187,5.47323685251388,4.54377005956659,-2.78842449208253,19.7366750094576,24.6123123971666,-11.4109084078793,-13.9556640586602,-24.4684889203051,22.4095809452719,-16.5465758189766,-12.6033870202279,-64.0317758276885,-15.9057249233789,25.562176575162,-3.90822770704519,80.0070903181647,26.7529616713982,20.6033871799139,13.3356509461967,-42.8891756123117,-8.00221132473254,1.03941809386711,-0.127683368629955,2.05512498564064,-45.8987833396664,63.5686650868228,71.3996364136837,44.2724948450822,64.3676965794854,81.3941106297846,-42.5738208611164,-18.1173241373033,42.0887675703347,-65.9055174776627,24.0839968365752,35.3716745747814,19.4948053818196,-41.7685754925829,12.6628060288885,15.0588738927345,48.4686418230425,50.7354970036037,19.143110095364,21.5111684759628,-16.818786835903,-43.4190378916689,-48.647105281051,89.0015898946216,-11.7351620054486,41.7118143043022,-20.316319376206,-64.5384285160004,-39.8650942877216,16.9749966104032,17.9637764725896,30.5383970116944,-13.9512538208116,-34.0636742708748,-41.1837437001519,32.0565122572737,11.1266270414069,-44.0592427014431,63.1934533674714,-22.8302864030433,-11.4347955490756,32.1437656874423,-20.9809234226472,14.8188553571737,-29.4383685765701,-10.8403489573784,2.55177800234422,15.5290808727675,0.791504529371795,20.1727366322016,31.0823404859258,-8.43280795183998,-20.2596839063384,-36.7035457307145,23.0613434182211,-58.532414008161,11.7631621141579,81.8464004309937,11.8130873198382,-75.6689473003292,-41.7176709944651,21.3381999919052,28.2133582937607,68.7840141518642,-28.9999994566437,-24.0699655818162,-4.8387039775887,12.9927182598872,0.746088983930525,13.2262917419778,76.9076530056853,-27.251061325373,9.54592627392541,3.56104898331471,19.3806469821818,47.6898364902985,-48.8328182614279,44.9829446499756,-12.6708080060025,50.8040278293134,-15.6214721687091,26.7783298767872,58.2284606240278,16.9333565876358,54.6916641765774,-2.18516607813335,12.9471038529902,3.41143465484976,10.6589640893814,-39.390093934747,-18.4697795223126,-31.2813076963807,21.0439023289782,4.68749654649866,52.4714781116182,32.5127490844429,8.32674163739895,1,1,1,1,1,1,1,1,1,1,1,1,1,1,1,1,1,1,1,1,1,1,1,1,1,1,1,1,1,1,1,1,1,1,1,1,1,1,1,1,1,1,1,1,1,1,1,1,1,1,1,1,1,1,1,1,1,1,1,1,1,1,1,1,1,1,1,1,1,1,1,1,1,1,1,1,1,1,1,1,1,1,1,1,1,1,1,1,1,1,1,1,1,1,1,1,1,1,1,1,1,1,1,1,1,1,1,1,1,1,1,1,1,1,1,1,1,1,1,1,1,1,1,1,1,1,1,1,1,1,1,1,1,1,1,1,1,1,1,1,1,1,1,1,1,1,1,1,1,1,1,1,1,1,1,1,1,1,1,1,1,1,1,1,1,1,1,1,1,1,1,1,1,1,1,1,1,1,1,1,1,1,1,1,1,1,1,1,1,1,1,1,1,1,1,1,1,1,1,1,1,1,1,1,1,1,1,1,1,1,1,1,1,1,1,1,1,1,1,1,1,1,1,1,1,1,1,1,1,1,1,1,1,1,1,1,1,1,1,1,1,1,1,1,1,1,1,1,1,1,1,1,1,1,1,1,1,1,1,1,1,1,1,1,1,1,1,1,1,1,25.2613708369215,-0.896380277628582,17.6651854235883,22.3178708191733,-54.4449706710974,-19.7444991453412,31.6895753770125,-17.6335068696573,38.2239105210829,-41.0170672286498,16.5759498054946,8.64131615737345,-35.5881470921638,-77.6829507517655,-21.6334132333071,40.4266294166534,34.5011521042022,6.05275893236027,4.4643208914735,-34.2851502501672,25.8957142715066,-15.9924602816342,30.5348466980721,29.6791792134793,-36.7532715395896,-9.84844873054297,-32.5184896590662,-28.5198922476811,-30.3196811792764,-22.5085994753581,-15.7180817421395,-0.396751160469703,6.81428557163329,44.4753528473186,4.77239307059074,8.62977935714523,30.0581435369784,9.06356905844514,-41.4903522995627,4.75491131801231,9.70628344035829,-19.8037823498429,30.6522612208624,24.4338318524469,-61.1843277978652,-21.8519700367106,24.6602386486279,42.0884042951832,-0.2261812609377,45.5273357125003,31.7688240735551,34.4341258794888,-59.7069713905309,-21.3194059808445,65.8328938906163,54.1010567847905,49.5381209043713,21.2093682479115,-16.6382080635385,-49.4065192100164,-11.5454957949028,8.23546444723409,22.4514904543634,-45.0681488962973,83.3752342888124,-16.1135860332662,24.9096604291381,16.6800542887674,-22.1045438005877,48.7072698721511,-28.0101365695104,39.9357594121216,15.2337848345635,8.19815151763838,21.5134911094247,27.8515069730548,15.3401153806391,74.111463192728,3.54894697403843,2.74914316271564,16.0048253884908,-25.4847157032671,28.5845616548278,-40.987147791997,22.4876826144603,13.3638440485202,4.52625450158222,7.84911520917479,13.2493453020334,35.7382083882849,-17.0730051307386,-32.2005495442329,-1.91998290444808,-43.1384320885336,-21.7527734141394,19.329591889267,23.5452637969709,-52.8946147799646,2.12417388508932,-47.9687589872402,-21.3524795740101,37.9276844635855,25.4167204473709,43.2837979440047,-9.4484668619187,11.1700390148007,-19.9342463358743,8.10088659105064,30.8315229323013,-31.5340997971809,-37.5557117790077,-40.6198561209434,-23.8777021669566,-12.055764817591,60.3853570121266,-47.8940978824281,65.4637263485617,58.6982556031728,-39.4754938193966,11.3906740997359,6.53090326957615,-20.0948332861525,5.78504105856826,-12.3661920995027,76.9473245700406,47.2750267272168,-5.81714258306917,23.419446734971,-34.757002560052,-32.6104564549438,-11.1030172521484,-8.50924556386318,-8.71149872634411,14.3112180949855,-33.2381313402598,55.8813480095979,73.7414580249782,-1.01979822209774,-20.3802813190533,-13.8377821247936,19.9134407691763,20.9808660335475,19.7098353722218,-33.5562178310419,-45.7994851344406,29.1116693478127,64.8695023287169,-40.0419201504311,-23.2985702653848,-19.4240530130137,38.5451731359092,0.579067496917484,-23.9675571011958,30.7723858664845,-31.6178804304882,2.10014718021489,31.2610918921412,43.4659285006586,-33.4078132257563,-32.9935255784963,1.43920008076802,-26.5617169563805,-6.11668763681737,33.2430163764751,-99.2886283116268,-13.2110887016873,-64.885163825549,-23.7330949013593,17.0803912903411,24.6012931450777,-1.55399824366283,23.8918252705442,-59.0264043270318,34.5917579362917,-0.90357816412899,-31.7544216046578,-58.4097789860431,9.95250915438729,-1.44140733693076,-7.66290038156427,36.8877268087869,-2.08930843246293,-35.0880895759514,-12.75033079099,37.2884977446082,4.0027123406102,-5.29709518790545,-26.7588929190718,57.0118164449885,29.2889148922861,-39.5529410695489,6.35565832939425,10.4388541006942,25.1102649711703,-21.6346517125298,-5.92617004487162,10.6590280212806,11.1293121790544,-10.8333652550959,-6.17548050783709,-36.1179305009793,-28.3373273629422,-13.9987891364567,-8.47338321603177,-15.7663597888324,34.1629686379497,24.1004062826207,3.23132799130101,-35.0784074078393,-8.74512345222586,-52.166615836884,-33.4894381388978,-77.9698057986644,-6.00894857316583,-69.9146013997721,-3.44873629157137,21.1586250975207,-47.3400136225905,-47.4035814767971,-11.3122483744619,24.3034573899667,-9.59852339279451,47.7598289567985,-50.6187776492292,19.1663702619812,4.97682944959468,-11.5967461911745,34.6224076439488,11.3873356060657,108.43677990659,-92.002488216673,0.260694552276171,-11.4573216646158,4.89886511163425,71.5329188554766,17.648413593922,27.4160396943081,16.655618402459,-23.4653492857757,-4.14293186376312,-24.3849948910552,22.5539199081658,-78.2435305475675,-21.2080848825328,25.4230413868803,35.0205851908034,-19.1091490324435,-52.1426677581016,-23.485991142073,-18.858104159069,10.5016864499553,14.1106256605537,-39.3759621004122,19.3032860247441,21.121356235818,16.6518268580749,-65.7077061706492,35.7678690457594,-59.1314676311357,-2.03277736120174,-34.6460878313832,28.4552744756711,18.8478023249344,30.2174138105063,27.6381938406193,-14.2115163045316,47.6187498868159,30.2374499261798,2.76955345814733,-33.2977658799342,1,1,1,1,1,1,1,1,1,1,1,1,1,1,1,1,1,1,1,1,1,1,1,1,1,1,1,1,1,1,1,1,1,1,1,1,1,1,1,1,1,1,1,1,1,1,1,1,1,1,1,1,1,1,1,1,1,1,1,1,1,1,1,1,1,1,1,1,1,1,1,1,1,1,1,1,1,1,1,1,1,1,1,1,1,1,1,1,1,1,1,1,1,1,1,1,1,1,1,1,1,1,1,1,1,1,1,1,1,1,1,1,1,1,1,1,1,1,1,1,1,1,1,1,1,1,1,1,1,1,1,1,1,1,1,1,1,1,1,1,1,1,1,1,1,1,1,1,1,1,1,1,1,1,1,1,1,1,1,1,1,1,1,1,1,1,1,1,1,1,1,1,1,1,1,1,1,1,1,1,1,1,1,1,1,1,1,1,1,1,1,1,1,1,1,1,1,1,1,1,1,1,1,1,1,1,1,1,1,1,1,1,1,1,1,1,1,1,1,1,1,1,1,1,1,1,1,1,1,1,1,1,1,1,1,1,1,1,1,1,1,1,1,1,1,1,1,1,1,1,1,1,1,1,1,1,1,1,1,1,1,1,1,1,1,1,1,1,1,1,-53.1454175988126,-98.114114947094,30.1903152429578,37.6128517258485,0.0315919786543648,-34.607755490735,19.9253375743484,49.9768643940626,5.17217719466919,111.712159362037,-26.9390886690117,-41.2402481952933,-73.8446166367021,17.6707294846989,25.0978947449884,-14.704156984543,-15.6702922741155,-24.9873170728889,-29.2915310877398,-15.5968646153931,-33.9977292014712,-46.0129914234445,-8.84148053141351,19.3823554635014,88.2353563252871,6.06989827347153,-33.5378964599502,21.4535226879194,71.456592363588,40.5193514578864,21.4757527547815,-4.46320139878579,-21.6992206499199,-18.2267556369548,-9.8441185510189,-20.5582785184705,-19.6981618215317,26.3009017939675,-34.6597144376765,-32.6846710450565,34.3462382625348,-12.3537513813597,10.1484404657876,-20.3839059811344,-35.1826781694952,1.12464467864561,-45.3115866757587,16.9579473413695,21.0600428350052,-24.3983644407868,-4.85103203105034,52.9399731083057,-31.192701238077,1.10971862517778,-13.3440000229699,-18.9297573264523,25.1484599345897,62.5492989040825,2.97046442817704,20.1057464305481,23.3445633542197,-13.0615748644887,-21.5338256339112,18.4218571130418,13.5292636136273,49.4192002799006,-17.5293234737044,-31.4791857470322,62.6858499016899,-13.8075978381515,-1.49807390284483,-29.7998852536418,12.7165166223513,45.3574799250866,27.1916223116171,27.0761949943652,11.6237491654757,-56.5757802163852,-45.0870831894278,50.2407257281727,-25.633400611503,-11.3507847699826,64.3884214288146,-1.83574165220947,-55.3892397599744,-37.7275546248555,1.83112186286321,-23.2988577728405,33.385860323252,-52.549684441333,21.9788241846228,38.6758359281166,26.2632384460662,31.5647599618055,-22.4520396968537,42.3148059742415,59.296386128975,11.8700556141137,60.1680554738738,25.718206946205,42.2842663055046,-61.041257136206,60.4358262327632,55.6742172852711,28.8290694606678,0.48825139756143,-92.4399507305799,33.3150176516102,-68.5272478887124,26.172898557767,-34.5159261308785,38.676944764472,-17.1987967700127,100.16363411771,52.2916560968862,64.703131036671,48.1301305666999,85.9356159914292,6.80240745017708,-3.53806221542917,25.7136663801745,6.64010408020671,22.4542284282656,-27.8453416605739,-52.6188884793281,-20.957103490416,-95.603941631636,-7.45292165548532,113.160369615404,-42.6720947197182,-0.0361111545116168,81.7004866849154,-56.0246474824774,5.31977435566368,61.876839157734,59.8434217460075,-16.8753625008109,39.276046329156,-16.8608770681688,-30.2774285370816,13.8743205386459,75.5995409981155,45.0118280424444,65.807370167467,2.50690316345374,-6.94724786293949,12.5813385079068,23.4134589596784,-37.3689890629844,8.0868737130713,12.1194163738187,5.47323685251388,4.54377005956659,-2.78842449208253,19.7366750094576,24.6123123971666,-11.4109084078793,-13.9556640586602,-24.4684889203051,22.4095809452719,-16.5465758189766,-12.6033870202279,-64.0317758276885,-15.9057249233789,25.562176575162,-3.90822770704519,80.0070903181647,26.7529616713982,20.6033871799139,13.3356509461967,-42.8891756123117,-8.00221132473254,1.03941809386711,-0.127683368629955,2.05512498564064,-45.8987833396664,63.5686650868228,71.3996364136837,44.2724948450822,64.3676965794854,81.3941106297846,-42.5738208611164,-18.1173241373033,42.0887675703347,-65.9055174776627,24.0839968365752,35.3716745747814,19.4948053818196,-41.7685754925829,12.6628060288885,15.0588738927345,48.4686418230425,50.7354970036037,19.143110095364,21.5111684759628,-16.818786835903,-43.4190378916689,-48.647105281051,89.0015898946216,-11.7351620054486,41.7118143043022,-20.316319376206,-64.5384285160004,-39.8650942877216,16.9749966104032,17.9637764725896,30.5383970116944,-13.9512538208116,-34.0636742708748,-41.1837437001519,32.0565122572737,11.1266270414069,-44.0592427014431,63.1934533674714,-22.8302864030433,-11.4347955490756,32.1437656874423,-20.9809234226472,14.8188553571737,-29.4383685765701,-10.8403489573784,2.55177800234422,15.5290808727675,0.791504529371795,20.1727366322016,31.0823404859258,-8.43280795183998,-20.2596839063384,-36.7035457307145,23.0613434182211,-58.532414008161,11.7631621141579,81.8464004309937,11.8130873198382,-75.6689473003292,-41.7176709944651,21.3381999919052,28.2133582937607,68.7840141518642,-28.9999994566437,-24.0699655818162,-4.8387039775887,12.9927182598872,0.746088983930525,13.2262917419778,76.9076530056853,-27.251061325373,9.54592627392541,3.56104898331471,19.3806469821818,47.6898364902985,-48.8328182614279,44.9829446499756,-12.6708080060025,50.8040278293134,-15.6214721687091,26.7783298767872,58.2284606240278,16.9333565876358,54.6916641765774,-2.18516607813335,12.9471038529902,3.41143465484976,10.6589640893814,-39.390093934747,-18.4697795223126,-31.2813076963807,21.0439023289782,4.68749654649866,52.4714781116182,32.5127490844429,8.32674163739895,1,1,1,1,1,1,1,1,1,1,1,1,1,1,1,1,1,1,1,1,1,1,1,1,1,1,1,1,1,1,1,1,1,1,1,1,1,1,1,1,1,1,1,1,1,1,1,1,1,1,1,1,1,1,1,1,1,1,1,1,1,1,1,1,1,1,1,1,1,1,1,1,1,1,1,1,1,1,1,1,1,1,1,1,1,1,1,1,1,1,1,1,1,1,1,1,1,1,1,1,1,1,1,1,1,1,1,1,1,1,1,1,1,1,1,1,1,1,1,1,1,1,1,1,1,1,1,1,1,1,1,1,1,1,1,1,1,1,1,1,1,1,1,1,1,1,1,1,1,1,1,1,1,1,1,1,1,1,1,1,1,1,1,1,1,1,1,1,1,1,1,1,1,1,1,1,1,1,1,1,1,1,1,1,1,1,1,1,1,1,1,1,1,1,1,1,1,1,1,1,1,1,1,1,1,1,1,1,1,1,1,1,1,1,1,1,1,1,1,1,1,1,1,1,1,1,1,1,1,1,1,1,1,1,1,1,1,1,1,1,1,1,1,1,1,1,1,1,1,1,1,1,1,1,1,1,1,1,1,1,1,1,1,1,1,1,1,1,1,1,25.2613708369215,-0.896380277628582,17.6651854235883,22.3178708191733,-54.4449706710974,-19.7444991453412,31.6895753770125,-17.6335068696573,38.2239105210829,-41.0170672286498,16.5759498054946,8.64131615737345,-35.5881470921638,-77.6829507517655,-21.6334132333071,40.4266294166534,34.5011521042022,6.05275893236027,4.4643208914735,-34.2851502501672,25.8957142715066,-15.9924602816342,30.5348466980721,29.6791792134793,-36.7532715395896,-9.84844873054297,-32.5184896590662,-28.5198922476811,-30.3196811792764,-22.5085994753581,-15.7180817421395,-0.396751160469703,6.81428557163329,44.4753528473186,4.77239307059074,8.62977935714523,30.0581435369784,9.06356905844514,-41.4903522995627,4.75491131801231,9.70628344035829,-19.8037823498429,30.6522612208624,24.4338318524469,-61.1843277978652,-21.8519700367106,24.6602386486279,42.0884042951832,-0.2261812609377,45.5273357125003,31.7688240735551,34.4341258794888,-59.7069713905309,-21.3194059808445,65.8328938906163,54.1010567847905,49.5381209043713,21.2093682479115,-16.6382080635385,-49.4065192100164,-11.5454957949028,8.23546444723409,22.4514904543634,-45.0681488962973,83.3752342888124,-16.1135860332662,24.9096604291381,16.6800542887674,-22.1045438005877,48.7072698721511,-28.0101365695104,39.9357594121216,15.2337848345635,8.19815151763838,21.5134911094247,27.8515069730548,15.3401153806391,74.111463192728,3.54894697403843,2.74914316271564,16.0048253884908,-25.4847157032671,28.5845616548278,-40.987147791997,22.4876826144603,13.3638440485202,4.52625450158222,7.84911520917479,13.2493453020334,35.7382083882849,-17.0730051307386,-32.2005495442329,-1.91998290444808,-43.1384320885336,-21.7527734141394,19.329591889267,23.5452637969709,-52.8946147799646,2.12417388508932,-47.9687589872402,-21.3524795740101,37.9276844635855,25.4167204473709,43.2837979440047,-9.4484668619187,11.1700390148007,-19.9342463358743,8.10088659105064,30.8315229323013,-31.5340997971809,-37.5557117790077,-40.6198561209434,-23.8777021669566,-12.055764817591,60.3853570121266,-47.8940978824281,65.4637263485617,58.6982556031728,-39.4754938193966,11.3906740997359,6.53090326957615,-20.0948332861525,5.78504105856826,-12.3661920995027,76.9473245700406,47.2750267272168,-5.81714258306917,23.419446734971,-34.757002560052,-32.6104564549438,-11.1030172521484,-8.50924556386318,-8.71149872634411,14.3112180949855,-33.2381313402598,55.8813480095979,73.7414580249782,-1.01979822209774,-20.3802813190533,-13.8377821247936,19.9134407691763,20.9808660335475,19.7098353722218,-33.5562178310419,-45.7994851344406,29.1116693478127,64.8695023287169,-40.0419201504311,-23.2985702653848,-19.4240530130137,38.5451731359092,0.579067496917484,-23.9675571011958,30.7723858664845,-31.6178804304882,2.10014718021489,31.2610918921412,43.4659285006586,-33.4078132257563,-32.9935255784963,1.43920008076802,-26.5617169563805,-6.11668763681737,33.2430163764751,-99.2886283116268,-13.2110887016873,-64.885163825549,-23.7330949013593,17.0803912903411,24.6012931450777,-1.55399824366283,23.8918252705442,-59.0264043270318,34.5917579362917,-0.90357816412899,-31.7544216046578,-58.4097789860431,9.95250915438729,-1.44140733693076,-7.66290038156427,36.8877268087869,-2.08930843246293,-35.0880895759514,-12.75033079099,37.2884977446082,4.0027123406102,-5.29709518790545,-26.7588929190718,57.0118164449885,29.2889148922861,-39.5529410695489,6.35565832939425,10.4388541006942,25.1102649711703,-21.6346517125298,-5.92617004487162,10.6590280212806,11.1293121790544,-10.8333652550959,-6.17548050783709,-36.1179305009793,-28.3373273629422,-13.9987891364567,-8.47338321603177,-15.7663597888324,34.1629686379497,24.1004062826207,3.23132799130101,-35.0784074078393,-8.74512345222586,-52.166615836884,-33.4894381388978,-77.9698057986644,-6.00894857316583,-69.9146013997721,-3.44873629157137,21.1586250975207,-47.3400136225905,-47.4035814767971,-11.3122483744619,24.3034573899667,-9.59852339279451,47.7598289567985,-50.6187776492292,19.1663702619812,4.97682944959468,-11.5967461911745,34.6224076439488,11.3873356060657,108.43677990659,-92.002488216673,0.260694552276171,-11.4573216646158,4.89886511163425,71.5329188554766,17.648413593922,27.4160396943081,16.655618402459,-23.4653492857757,-4.14293186376312,-24.3849948910552,22.5539199081658,-78.2435305475675,-21.2080848825328,25.4230413868803,35.0205851908034,-19.1091490324435,-52.1426677581016,-23.485991142073,-18.858104159069,10.5016864499553,14.1106256605537,-39.3759621004122,19.3032860247441,21.121356235818,16.6518268580749,-65.7077061706492,35.7678690457594,-59.1314676311357,-2.03277736120174,-34.6460878313832,28.4552744756711,18.8478023249344,30.2174138105063,27.6381938406193,-14.2115163045316,47.6187498868159,30.2374499261798,2.76955345814733,-33.2977658799342,1,1,1,1,1,1,1,1,1,1,1,1,1,1,1,1,1,1,1,1,1,1,1,1,1,1,1,1,1,1,1,1,1,1,1,1,1,1,1,1,1,1,1,1,1,1,1,1,1,1,1,1,1,1,1,1,1,1,1,1,1,1,1,1,1,1,1,1,1,1,1,1,1,1,1,1,1,1,1,1,1,1,1,1,1,1,1,1,1,1,1,1,1,1,1,1,1,1,1,1,1,1,1,1,1,1,1,1,1,1,1,1,1,1,1,1,1,1,1,1,1,1,1,1,1,1,1,1,1,1,1,1,1,1,1,1,1,1,1,1,1,1,1,1,1,1,1,1,1,1,1,1,1,1,1,1,1,1,1,1,1,1,1,1,1,1,1,1,1,1,1,1,1,1,1,1,1,1,1,1,1,1,1,1,1,1,1,1,1,1,1,1,1,1,1,1,1,1,1,1,1,1,1,1,1,1,1,1,1,1,1,1,1,1,1,1,1,1,1,1,1,1,1,1,1,1,1,1,1,1,1,1,1,1,1,1,1,1,1,1,1,1,1,1,1,1,1,1,1,1,1,1,1,1,1,1,1,1,1,1,1,1,1,1,1,1,1,1,1,1
