269.022696809854,88.230698902733,74.8710722904052,-107.355142328272,40.6407678212391,18.5094874808371,6.36409748789614,21.124167706434,32.0661779714524,-28.8265455356438,70.3726052986805,-1.39462145984245,-13.4063722467981,-90.5335935848517,33.7021637463565,3.39807870846695,-38.3475394097451,30.7670983031939,-46.9192345778164,-25.1171323565927,-9.37907358017185,-39.2625092293824,-47.9608914426618,-77.0104098615461,-13.5033298369144,31.474929384284,13.5121401704632,-44.2156026588026,44.8250935296763,18.6116568799854,42.3347739922385,49.8798573859282,26.730660483444,-45.5377402661947,-19.9205324799899,-7.03686350285392,10.351414212673,-17.2349190509507,0.317419824472895,-39.818818285299,0.706286625705335,31.2243225704227,1.55830766123937,14.6202131750121,17.2038365752124,-45.1733971977572,32.2698191028662,-37.0554026672283,1.24145424114164,6.67502231444176,-28.1358390086811,4.66427129555112,28.002214529816,8.22201017899026,53.3651091296612,29.1306862170075,-25.2616778667262,3.28716018781948,17.4160276145641,14.1202212166189,13.2351757699837,21.5284120016619,-11.2886175379302,-21.5521876450394,-35.1080518152162,33.5070558773934,-11.1747209629667,-41.2053022144634,-26.8270755177374,28.6347443479541,49.7945564439658,12.3116033558565,6.80391363404905,72.6201235306922,36.5568416144274,24.858983497847,4.47249097149924,38.0794319903358,-11.0554768760576,-29.0319520502374,31.7217534540043,-18.5492995299715,-3.89632460699222,42.7420934998662,3.38494930628838,-57.0780089380219,-13.8698401560555,13.0571292571222,2.50953969761504,27.1853178450974,4.46613143326741,8.2405175786421,-21.1626368019448,30.1957527248214,-3.85443136354857,-50.581606195459,-26.2274253051187,49.7858553568957,32.5081640631627,85.5692343758933,29.0707407143257,-4.34925707675571,-15.8596667945701,-2.98782610332891,56.6836414588811,0.939005992111548,22.6479751559135,-60.2833482677198,11.0809414328836,-24.596371286675,27.9852011304827,-59.3363096951408,9.87098184131763,-14.1532150267531,73.5694748310792,6.65114897186456,48.5437041777166,12.6085368039564,57.4963600574476,25.3607115585447,-10.9762321653128,24.9532970393923,36.6221916291945,13.1644045935508,-9.87267450344443,9.68581990788639,-5.07971048253498,-49.1409189898891,-12.9439800561977,35.9630353176124,1.68603676889028,7.28804925546974,97.3856158206854,-20.2995563123089,-61.3406378122373,89.5846772996076,27.2878694473556,-4.16725545282308,63.5191858369161,-27.5235458535885,18.8849765608322,3.51421508002883,76.2306966198408,33.5167713573664,39.2113083104134,15.8790859677007,-20.7801672202608,-38.6339111946105,5.84404211237319,-29.83066383899,-8.40386011314784,-14.1616653108096,51.1956581472254,6.24386789653447,11.2796510635044,7.67269204874174,-24.8625524019948,17.8924649353107,0.885905602530644,-21.2736140879338,13.3092850068852,-3.70097562887084,-43.8769498737684,-0.607809694377955,9.09330382118257,31.6879814255052,-18.0921142200651,9.39652465924629,8.49468175411818,26.6252820334613,12.5712018718347,-15.8615591530655,-15.3231929050378,-15.9249950422832,-11.4111695976593,-12.9172377926874,-60.43842299624,60.9123797357835,72.4295900957161,49.7735564782841,58.7511148665642,45.647999137287,16.4080983125004,5.25000387245394,-34.1138578070073,-21.7466612076663,11.7825344585296,59.2654355585086,40.1434268254071,-30.8116262238744,54.3669543931679,11.7147875898464,73.0929129556895,71.4206185545227,45.3949016109909,-21.8331909501688,-40.971629645805,-14.5565284636193,-40.7702027500476,42.8496099280799,-43.1721773889654,35.3960815323079,-44.6633318361619,-50.2861521248032,-40.0117649873512,0.327537450438072,37.3162390189379,27.5363331352877,-39.0254662782435,-42.3203911198197,-12.3690956446299,34.7440063775823,3.86065659678296,-3.40043886646868,26.4524980982479,27.2383168162236,8.11596561253669,20.7705685066387,53.5062466748111,26.3623045756929,7.12887941844402,25.5891389205757,32.9895460312785,41.6007781439962,-47.6428053277045,32.307078038117,15.4679971160568,25.2055348764326,-1.60900687369569,-48.4704541412873,32.0354058662933,-41.6114349857581,-52.4904973988566,32.1872199110337,-23.5642801386649,-40.096538300318,-26.5294245786083,16.8262126445017,41.0147994507241,76.2946667130099,-23.6871451514575,-2.56573561026395,-10.0262743502721,19.6497759463496,41.7771994472056,46.6288256685395,36.5789472365173,-3.25636400806974,-24.8286284066952,16.0919528758637,-6.22746015255269,31.9294176501,-40.3602518329635,-0.517428142718393,20.4765513368333,9.42982067703115,1.07992525300015,-4.1892210286786,25.5003369546853,13.7185859276986,71.3668178014623,12.268068648452,-2.49923100204327,21.6453185285896,10.8355652226567,-4.83382663394589,-6.91246723412455,1.72244646973795,65.5473301290152,-14.412746931244,19.7141926773096,43.9585248060246,-31.9945701753073,-4.00642170828757,18.480916091664,1,1,1,1,1,1,1,1,1,1,1,1,1,1,1,1,1,1,1,1,1,1,1,1,1,1,1,1,1,1,1,1,1,1,1,1,1,1,1,1,1,1,1,1,1,1,1,1,1,1,1,1,1,1,1,1,1,1,1,1,1,1,1,1,1,1,1,1,1,1,1,1,1,1,1,1,1,1,1,1,1,1,1,1,1,1,1,1,1,1,1,1,1,1,1,1,1,1,1,1,1,1,1,1,1,1,1,1,1,1,1,1,1,1,1,1,1,1,1,1,1,1,1,1,1,1,1,1,1,1,1,1,1,1,1,1,1,1,1,1,1,1,1,1,1,1,1,1,1,1,1,1,1,1,1,1,1,1,1,1,1,1,1,1,1,1,1,1,1,1,1,1,1,1,1,1,1,1,1,1,1,1,1,1,1,1,1,1,1,1,1,1,1,1,1,1,1,1,1,1,1,1,1,1,1,1,1,1,1,1,1,1,1,1,1,1,1,1,1,1,1,1,1,1,1,1,1,1,1,1,1,1,1,1,1,1,1,1,1,1,1,1,1,1,1,1,1,1,1,1,1,1,1,1,1,1,1,1,1,1,1,1,1,1,1,1,1,1,1,1,-3.84031528955247,-4.94584882598175,5.16680328184984,-5.58929723914824,19.207998751932,7.89246413210224,-6.16714773973117,2.85585419541746,9.33939561238416,-26.6498841920195,-4.11087429092193,9.43548186618204,4.33145945810976,1.61352175566177,-13.7893423106979,4.73584866967953,9.74861430624862,7.64958477053163,-3.28521683741549,0.010579049085544,9.49744131705454,-5.25276103437123,0.30990109663968,4.11591004813427,3.99880126695971,4.27635204573659,-1.31416858491281,-0.647844542495938,2.06817018563136,3.59519840155027,9.40683028371298,7.89718310434617,4.03976178130193,-11.8746957969161,8.24002195903029,-20.9758593206328,3.77291284558974,4.47181077721281,2.57974921905033,-8.37123031430968,-0.85756054828115,6.69131667442713,16.1978439619652,1.13446768382909,-5.29104988753296,8.1464798295646,7.30504487750808,6.60145359799471,-6.08561803096021,-13.3841468663626,-1.8986486184158,-9.33361767765161,13.8841452279453,-8.91279661407745,8.5723790824404,-9.49114499339145,6.22621624661481,21.7769213765343,2.45369653784094,15.7846704085268,3.84540339346274,-16.6375938510967,12.8065586199391,0.528126221761931,22.0858737255093,-16.6247755248043,-23.2175033960117,4.15120242265654,-12.9663460158368,3.24751001580081,-4.56303197479382,0.789553968248995,-11.3869849936736,10.9760105961201,10.0667199947482,20.3492221490518,-1.18990007655739,-5.06832937318011,3.03561358075633,-6.67288360184059,-20.3185370739654,4.32390609041396,7.48656117100814,-3.75327088461328,-0.532364232840011,9.04054305520375,17.1168624866236,-10.6503618515204,-4.87198564567949,12.3103689942428,-11.8617047157438,13.1183679651428,-6.35773222097991,2.23312266700228,-0.747408554314818,6.24725656382402,-7.0438861270647,-11.1300406281023,6.27957454297938,3.34050562383409,10.2134604732949,2.05034105542245,0.883302597832068,29.9021982499939,-3.71003701715517,-0.532660800389837,-19.1247001968153,-6.69823472886586,13.0620699703445,0.318987702577133,15.0150002881832,-9.81183185649975,-1.13390423450862,-14.5918037286555,6.32610753142945,-1.04819648534341,-1.73898248011507,11.8322160090752,-1.85841797427116,-4.18762084053124,-19.0403447912542,-4.38795970454074,-9.46486588790201,-5.98352741889046,-17.3445091274956,17.762802852367,7.28436040429338,0.727232299933789,4.93870555382976,-17.2562803154751,18.4221906156807,-10.9351422257405,-4.47305601924517,7.39916329758551,13.2266830000679,10.0854277872879,-3.83458609555653,20.1036519574162,-0.850697206674901,-2.22760139314274,-9.13890625057066,-15.0424111292416,15.2019354077176,2.00477678714835,2.30249997387844,-3.88955117365741,4.67871227559381,-9.71583302662878,4.78986541683919,-9.93710958891372,-7.77011197968574,9.11290085658098,-5.44175947363734,-22.3343311629153,-5.37446160611483,8.38675376113728,-3.76283044204215,-1.21011801766894,-13.1212062152348,-1.60717752744354,22.3766124418872,-14.8781161354518,-0.7691102465788,15.4404021279779,-5.03271755502862,-0.322281294770097,14.6508557702781,-7.29645350770577,2.97952836978885,13.2389553160781,16.6001488458527,14.3403561470793,-4.81440183247184,13.7765968709603,27.2358475270803,4.0622193197616,-11.437699574192,-2.02501709383391,-4.74463658370624,-12.0739195643535,8.69734187559165,3.11283908006107,9.00904298911635,-2.94378537523718,8.23729326400745,-6.32270101706569,10.7530663200756,-2.18478941595379,-11.3344225504832,9.54012809429577,10.3786810000321,-0.695905073899564,-0.776670707850975,-1.51847144799597,6.12950171617181,5.17210354351453,2.1929641382062,6.56048559589734,9.29378531331648,5.98404779857975,1.31183865829539,4.44346576048206,4.71363105608807,5.43793350609764,8.56388112513484,2.61370648246281,-4.56046733767444,-6.02901101374597,0.13606648765471,0.828620580832071,3.99888037541671,2.34114644142332,-3.4673788358143,0.866287346142453,4.48742860154579,3.61351240871671,-6.20707434724666,-5.75729813543154,0.636566207188449,6.08620598535409,16.5594417137443,7.18147536275022,-4.17727673392405,1.06361519094011,-1.22362149329181,2.7527531665919,-1.0787988734939,-1.02365412920166,-15.5886108381361,2.29347928889221,2.22383353691433,-9.70680270965915,-12.0730258484598,16.0052927887092,24.1045548331782,24.9264068826057,4.83162607130823,4.67464787393133,2.08388041973419,-4.78258914637437,4.40004240861539,-2.18156341769566,-4.30760922097766,6.90803321988799,-3.60735887437881,6.08575633000692,-5.56735157893194,9.45725356850474,4.58495950073352,-13.4853751020177,14.8413286139315,-3.11410140651682,13.8821937415243,21.6642147226121,21.0561157537935,-7.13027828579874,-3.02133091312067,-12.6910865675864,12.7817664066489,6.38327535175496,-0.502993243064241,2.96118341327154,15.5404649544457,4.5725190195763,26.0846548585507,0.807906024227348,21.4106046002991,13.9452383521453,-30.4956435340385,10.4639111468933,1,1,1,1,1,1,1,1,1,1,1,1,1,1,1,1,1,1,1,1,1,1,1,1,1,1,1,1,1,1,1,1,1,1,1,1,1,1,1,1,1,1,1,1,1,1,1,1,1,1,1,1,1,1,1,1,1,1,1,1,1,1,1,1,1,1,1,1,1,1,1,1,1,1,1,1,1,1,1,1,1,1,1,1,1,1,1,1,1,1,1,1,1,1,1,1,1,1,1,1,1,1,1,1,1,1,1,1,1,1,1,1,1,1,1,1,1,1,1,1,1,1,1,1,1,1,1,1,1,1,1,1,1,1,1,1,1,1,1,1,1,1,1,1,1,1,1,1,1,1,1,1,1,1,1,1,1,1,1,1,1,1,1,1,1,1,1,1,1,1,1,1,1,1,1,1,1,1,1,1,1,1,1,1,1,1,1,1,1,1,1,1,1,1,1,1,1,1,1,1,1,1,1,1,1,1,1,1,1,1,1,1,1,1,1,1,1,1,1,1,1,1,1,1,1,1,1,1,1,1,1,1,1,1,1,1,1,1,1,1,1,1,1,1,1,1,1,1,1,1,1,1,1,1,1,1,1,1,1,1,1,1,1,1,1,1,1,1,1,1,-20.2041217469412,43.9647013028817,18.5094874808371,6.36409748789614,21.124167706434,32.0661779714524,-28.8265455356438,70.3726052986805,-1.39462145984245,-13.4063722467981,-90.5335935848517,33.7021637463565,3.39807870846695,-38.3475394097451,30.7670983031939,-46.9192345778164,-25.1171323565927,-9.37907358017185,-39.2625092293824,-47.9608914426618,-77.0104098615461,-13.5033298369144,31.474929384284,13.5121401704632,-44.2156026588026,44.8250935296763,18.6116568799854,42.3347739922385,49.8798573859282,26.730660483444,-45.5377402661947,-19.9205324799899,-7.03686350285392,10.351414212673,-17.2349190509507,0.317419824472895,-39.818818285299,0.706286625705335,31.2243225704227,1.55830766123937,14.6202131750121,17.2038365752124,-45.1733971977572,32.2698191028662,-37.0554026672283,1.24145424114164,6.67502231444176,-28.1358390086811,4.66427129555112,28.002214529816,8.22201017899026,53.3651091296612,29.1306862170075,-25.2616778667262,3.28716018781948,17.4160276145641,14.1202212166189,13.2351757699837,21.5284120016619,-11.2886175379302,-21.5521876450394,-35.1080518152162,33.5070558773934,-11.1747209629667,-41.2053022144634,-26.8270755177374,28.6347443479541,49.7945564439658,12.3116033558565,6.80391363404905,72.6201235306922,36.5568416144274,24.858983497847,4.47249097149924,38.0794319903358,-11.0554768760576,-29.0319520502374,31.7217534540043,-18.5492995299715,-3.89632460699222,42.7420934998662,3.38494930628838,-57.0780089380219,-13.8698401560555,13.0571292571222,2.50953969761504,27.1853178450974,4.46613143326741,8.2405175786421,-21.1626368019448,30.1957527248214,-3.85443136354857,-50.581606195459,-26.2274253051187,49.7858553568957,32.5081640631627,85.5692343758933,29.0707407143257,-4.34925707675571,-15.8596667945701,-2.98782610332891,56.6836414588811,0.939005992111548,22.6479751559135,-60.2833482677198,11.0809414328836,-24.596371286675,27.9852011304827,-59.3363096951408,9.87098184131763,-14.1532150267531,73.5694748310792,6.65114897186456,48.5437041777166,12.6085368039564,57.4963600574476,25.3607115585447,-10.9762321653128,24.9532970393923,36.6221916291945,13.1644045935508,-9.87267450344443,9.68581990788639,-5.07971048253498,-49.1409189898891,-12.9439800561977,35.9630353176124,1.68603676889028,7.28804925546974,97.3856158206854,-20.2995563123089,-61.3406378122373,89.5846772996076,27.2878694473556,-4.16725545282308,63.5191858369161,-27.5235458535885,18.8849765608322,3.51421508002883,76.2306966198408,33.5167713573664,39.2113083104134,15.8790859677007,-20.7801672202608,-38.6339111946105,5.84404211237319,-29.83066383899,-8.40386011314784,-14.1616653108096,51.1956581472254,6.24386789653447,11.2796510635044,7.67269204874174,-24.8625524019948,17.8924649353107,0.885905602530644,-21.2736140879338,13.3092850068852,-3.70097562887084,-43.8769498737684,-0.607809694377955,9.09330382118257,31.6879814255052,-18.0921142200651,9.39652465924629,8.49468175411818,26.6252820334613,12.5712018718347,-15.8615591530655,-15.3231929050378,-15.9249950422832,-11.4111695976593,-12.9172377926874,-60.43842299624,60.9123797357835,72.4295900957161,49.7735564782841,58.7511148665642,45.647999137287,16.4080983125004,5.25000387245394,-34.1138578070073,-21.7466612076663,11.7825344585296,59.2654355585086,40.1434268254071,-30.8116262238744,54.3669543931679,11.7147875898464,73.0929129556895,71.4206185545227,45.3949016109909,-21.8331909501688,-40.971629645805,-14.5565284636193,-40.7702027500476,42.8496099280799,-43.1721773889654,35.3960815323079,-44.6633318361619,-50.2861521248032,-40.0117649873512,0.327537450438072,37.3162390189379,27.5363331352877,-39.0254662782435,-42.3203911198197,-12.3690956446299,34.7440063775823,3.86065659678296,-3.40043886646868,26.4524980982479,27.2383168162236,8.11596561253669,20.7705685066387,53.5062466748111,26.3623045756929,7.12887941844402,25.5891389205757,32.9895460312785,41.6007781439962,-47.6428053277045,32.307078038117,15.4679971160568,25.2055348764326,-1.60900687369569,-48.4704541412873,32.0354058662933,-41.6114349857581,-52.4904973988566,32.1872199110337,-23.5642801386649,-40.096538300318,-26.5294245786083,16.8262126445017,41.0147994507241,76.2946667130099,-23.6871451514575,-2.56573561026395,-10.0262743502721,19.6497759463496,41.7771994472056,46.6288256685395,36.5789472365173,-3.25636400806974,-24.8286284066952,16.0919528758637,-6.22746015255269,31.9294176501,-40.3602518329635,-0.517428142718393,20.4765513368333,9.42982067703115,1.07992525300015,-4.1892210286786,25.5003369546853,13.7185859276986,71.3668178014623,12.268068648452,-2.49923100204327,21.6453185285896,10.8355652226567,-4.83382663394589,-6.91246723412455,1.72244646973795,65.5473301290152,-14.412746931244,19.7141926773096,43.9585248060246,-31.9945701753073,-4.00642170828757,18.480916091664,1,1,1,1,1,1,1,1,1,1,1,1,1,1,1,1,1,1,1,1,1,1,1,1,1,1,1,1,1,1,1,1,1,1,1,1,1,1,1,1,1,1,1,1,1,1,1,1,1,1,1,1,1,1,1,1,1,1,1,1,1,1,1,1,1,1,1,1,1,1,1,1,1,1,1,1,1,1,1,1,1,1,1,1,1,1,1,1,1,1,1,1,1,1,1,1,1,1,1,1,1,1,1,1,1,1,1,1,1,1,1,1,1,1,1,1,1,1,1,1,1,1,1,1,1,1,1,1,1,1,1,1,1,1,1,1,1,1,1,1,1,1,1,1,1,1,1,1,1,1,1,1,1,1,1,1,1,1,1,1,1,1,1,1,1,1,1,1,1,1,1,1,1,1,1,1,1,1,1,1,1,1,1,1,1,1,1,1,1,1,1,1,1,1,1,1,1,1,1,1,1,1,1,1,1,1,1,1,1,1,1,1,1,1,1,1,1,1,1,1,1,1,1,1,1,1,1,1,1,1,1,1,1,1,1,1,1,1,1,1,1,1,1,1,1,1,1,1,1,1,1,1,1,1,1,1,1,1,1,1,1,1,1,1,1,1,1,1,1,1,-3.84031528955247,-4.94584882598175,5.16680328184984,-5.58929723914824,19.207998751932,7.89246413210224,-6.16714773973117,2.85585419541746,9.33939561238416,-26.6498841920195,-4.11087429092193,9.43548186618204,4.33145945810976,1.61352175566177,-13.7893423106979,4.73584866967953,9.74861430624862,7.64958477053163,-3.28521683741549,0.010579049085544,9.49744131705454,-5.25276103437123,0.30990109663968,4.11591004813427,3.99880126695971,4.27635204573659,-1.31416858491281,-0.647844542495938,2.06817018563136,3.59519840155027,9.40683028371298,7.89718310434617,4.03976178130193,-11.8746957969161,8.24002195903029,-20.9758593206328,3.77291284558974,4.47181077721281,2.57974921905033,-8.37123031430968,-0.85756054828115,6.69131667442713,16.1978439619652,1.13446768382909,-5.29104988753296,8.1464798295646,7.30504487750808,6.60145359799471,-6.08561803096021,-13.3841468663626,-1.8986486184158,-9.33361767765161,13.8841452279453,-8.91279661407745,8.5723790824404,-9.49114499339145,6.22621624661481,21.7769213765343,2.45369653784094,15.7846704085268,3.84540339346274,-16.6375938510967,12.8065586199391,0.528126221761931,22.0858737255093,-16.6247755248043,-23.2175033960117,4.15120242265654,-12.9663460158368,3.24751001580081,-4.56303197479382,0.789553968248995,-11.3869849936736,10.9760105961201,10.0667199947482,20.3492221490518,-1.18990007655739,-5.06832937318011,3.03561358075633,-6.67288360184059,-20.3185370739654,4.32390609041396,7.48656117100814,-3.75327088461328,-0.532364232840011,9.04054305520375,17.1168624866236,-10.6503618515204,-4.87198564567949,12.3103689942428,-11.8617047157438,13.1183679651428,-6.35773222097991,2.23312266700228,-0.747408554314818,6.24725656382402,-7.0438861270647,-11.1300406281023,6.27957454297938,3.34050562383409,10.2134604732949,2.05034105542245,0.883302597832068,29.9021982499939,-3.71003701715517,-0.532660800389837,-19.1247001968153,-6.69823472886586,13.0620699703445,0.318987702577133,15.0150002881832,-9.81183185649975,-1.13390423450862,-14.5918037286555,6.32610753142945,-1.04819648534341,-1.73898248011507,11.8322160090752,-1.85841797427116,-4.18762084053124,-19.0403447912542,-4.38795970454074,-9.46486588790201,-5.98352741889046,-17.3445091274956,17.762802852367,7.28436040429338,0.727232299933789,4.93870555382976,-17.2562803154751,18.4221906156807,-10.9351422257405,-4.47305601924517,7.39916329758551,13.2266830000679,10.0854277872879,-3.83458609555653,20.1036519574162,-0.850697206674901,-2.22760139314274,-9.13890625057066,-15.0424111292416,15.2019354077176,2.00477678714835,2.30249997387844,-3.88955117365741,4.67871227559381,-9.71583302662878,4.78986541683919,-9.93710958891372,-7.77011197968574,9.11290085658098,-5.44175947363734,-22.3343311629153,-5.37446160611483,8.38675376113728,-3.76283044204215,-1.21011801766894,-13.1212062152348,-1.60717752744354,22.3766124418872,-14.8781161354518,-0.7691102465788,15.4404021279779,-5.03271755502862,-0.322281294770097,14.6508557702781,-7.29645350770577,2.97952836978885,13.2389553160781,16.6001488458527,14.3403561470793,-4.81440183247184,13.7765968709603,27.2358475270803,4.0622193197616,-11.437699574192,-2.02501709383391,-4.74463658370624,-12.0739195643535,8.69734187559165,3.11283908006107,9.00904298911635,-2.94378537523718,8.23729326400745,-6.32270101706569,10.7530663200756,-2.18478941595379,-11.3344225504832,9.54012809429577,10.3786810000321,-0.695905073899564,-0.776670707850975,-1.51847144799597,6.12950171617181,5.17210354351453,2.1929641382062,6.56048559589734,9.29378531331648,5.98404779857975,1.31183865829539,4.44346576048206,4.71363105608807,5.43793350609764,8.56388112513484,2.61370648246281,-4.56046733767444,-6.02901101374597,0.13606648765471,0.828620580832071,3.99888037541671,2.34114644142332,-3.4673788358143,0.866287346142453,4.48742860154579,3.61351240871671,-6.20707434724666,-5.75729813543154,0.636566207188449,6.08620598535409,16.5594417137443,7.18147536275022,-4.17727673392405,1.06361519094011,-1.22362149329181,2.7527531665919,-1.0787988734939,-1.02365412920166,-15.5886108381361,2.29347928889221,2.22383353691433,-9.70680270965915,-12.0730258484598,16.0052927887092,24.1045548331782,24.9264068826057,4.83162607130823,4.67464787393133,2.08388041973419,-4.78258914637437,4.40004240861539,-2.18156341769566,-4.30760922097766,6.90803321988799,-3.60735887437881,6.08575633000692,-5.56735157893194,9.45725356850474,4.58495950073352,-13.4853751020177,14.8413286139315,-3.11410140651682,13.8821937415243,21.6642147226121,21.0561157537935,-7.13027828579874,-3.02133091312067,-12.6910865675864,12.7817664066489,6.38327535175496,-0.502993243064241,2.96118341327154,15.5404649544457,4.5725190195763,26.0846548585507,0.807906024227348,21.4106046002991,13.9452383521453,-30.4956435340385,10.4639111468933,1,1,1,1,1,1,1,1,1,1,1,1,1,1,1,1,1,1,1,1,1,1,1,1,1,1,1,1,1,1,1,1,1,1,1,1,1,1,1,1,1,1,1,1,1,1,1,1,1,1,1,1,1,1,1,1,1,1,1,1,1,1,1,1,1,1,1,1,1,1,1,1,1,1,1,1,1,1,1,1,1,1,1,1,1,1,1,1,1,1,1,1,1,1,1,1,1,1,1,1,1,1,1,1,1,1,1,1,1,1,1,1,1,1,1,1,1,1,1,1,1,1,1,1,1,1,1,1,1,1,1,1,1,1,1,1,1,1,1,1,1,1,1,1,1,1,1,1,1,1,1,1,1,1,1,1,1,1,1,1,1,1,1,1,1,1,1,1,1,1,1,1,1,1,1,1,1,1,1,1,1,1,1,1,1,1,1,1,1,1,1,1,1,1,1,1,1,1,1,1,1,1,1,1,1,1,1,1,1,1,1,1,1,1,1,1,1,1,1,1,1,1,1,1,1,1,1,1,1,1,1,1,1,1,1,1,1,1,1,1,1,1,1,1,1,1,1,1,1,1,1,1,1,1,1,1,1,1,1,1,1,1,1,1,1,1,1,1,1,1,51.8056526771133,-18.3139415679671,18.5094874808371,6.36409748789614,21.124167706434,32.0661779714524,-28.8265455356438,70.3726052986805,-1.39462145984245,-13.4063722467981,-90.5335935848517,33.7021637463565,3.39807870846695,-38.3475394097451,30.7670983031939,-46.9192345778164,-25.1171323565927,-9.37907358017185,-39.2625092293824,-47.9608914426618,-77.0104098615461,-13.5033298369144,31.474929384284,13.5121401704632,-44.2156026588026,44.8250935296763,18.6116568799854,42.3347739922385,49.8798573859282,26.730660483444,-45.5377402661947,-19.9205324799899,-7.03686350285392,10.351414212673,-17.2349190509507,0.317419824472895,-39.818818285299,0.706286625705335,31.2243225704227,1.55830766123937,14.6202131750121,17.2038365752124,-45.1733971977572,32.2698191028662,-37.0554026672283,1.24145424114164,6.67502231444176,-28.1358390086811,4.66427129555112,28.002214529816,8.22201017899026,53.3651091296612,29.1306862170075,-25.2616778667262,3.28716018781948,17.4160276145641,14.1202212166189,13.2351757699837,21.5284120016619,-11.2886175379302,-21.5521876450394,-35.1080518152162,33.5070558773934,-11.1747209629667,-41.2053022144634,-26.8270755177374,28.6347443479541,49.7945564439658,12.3116033558565,6.80391363404905,72.6201235306922,36.5568416144274,24.858983497847,4.47249097149924,38.0794319903358,-11.0554768760576,-29.0319520502374,31.7217534540043,-18.5492995299715,-3.89632460699222,42.7420934998662,3.38494930628838,-57.0780089380219,-13.8698401560555,13.0571292571222,2.50953969761504,27.1853178450974,4.46613143326741,8.2405175786421,-21.1626368019448,30.1957527248214,-3.85443136354857,-50.581606195459,-26.2274253051187,49.7858553568957,32.5081640631627,85.5692343758933,29.0707407143257,-4.34925707675571,-15.8596667945701,-2.98782610332891,56.6836414588811,0.939005992111548,22.6479751559135,-60.2833482677198,11.0809414328836,-24.596371286675,27.9852011304827,-59.3363096951408,9.87098184131763,-14.1532150267531,73.5694748310792,6.65114897186456,48.5437041777166,12.6085368039564,57.4963600574476,25.3607115585447,-10.9762321653128,24.9532970393923,36.6221916291945,13.1644045935508,-9.87267450344443,9.68581990788639,-5.07971048253498,-49.1409189898891,-12.9439800561977,35.9630353176124,1.68603676889028,7.28804925546974,97.3856158206854,-20.2995563123089,-61.3406378122373,89.5846772996076,27.2878694473556,-4.16725545282308,63.5191858369161,-27.5235458535885,18.8849765608322,3.51421508002883,76.2306966198408,33.5167713573664,39.2113083104134,15.8790859677007,-20.7801672202608,-38.6339111946105,5.84404211237319,-29.83066383899,-8.40386011314784,-14.1616653108096,51.1956581472254,6.24386789653447,11.2796510635044,7.67269204874174,-24.8625524019948,17.8924649353107,0.885905602530644,-21.2736140879338,13.3092850068852,-3.70097562887084,-43.8769498737684,-0.607809694377955,9.09330382118257,31.6879814255052,-18.0921142200651,9.39652465924629,8.49468175411818,26.6252820334613,12.5712018718347,-15.8615591530655,-15.3231929050378,-15.9249950422832,-11.4111695976593,-12.9172377926874,-60.43842299624,60.9123797357835,72.4295900957161,49.7735564782841,58.7511148665642,45.647999137287,16.4080983125004,5.25000387245394,-34.1138578070073,-21.7466612076663,11.7825344585296,59.2654355585086,40.1434268254071,-30.8116262238744,54.3669543931679,11.7147875898464,73.0929129556895,71.4206185545227,45.3949016109909,-21.8331909501688,-40.971629645805,-14.5565284636193,-40.7702027500476,42.8496099280799,-43.1721773889654,35.3960815323079,-44.6633318361619,-50.2861521248032,-40.0117649873512,0.327537450438072,37.3162390189379,27.5363331352877,-39.0254662782435,-42.3203911198197,-12.3690956446299,34.7440063775823,3.86065659678296,-3.40043886646868,26.4524980982479,27.2383168162236,8.11596561253669,20.7705685066387,53.5062466748111,26.3623045756929,7.12887941844402,25.5891389205757,32.9895460312785,41.6007781439962,-47.6428053277045,32.307078038117,15.4679971160568,25.2055348764326,-1.60900687369569,-48.4704541412873,32.0354058662933,-41.6114349857581,-52.4904973988566,32.1872199110337,-23.5642801386649,-40.096538300318,-26.5294245786083,16.8262126445017,41.0147994507241,76.2946667130099,-23.6871451514575,-2.56573561026395,-10.0262743502721,19.6497759463496,41.7771994472056,46.6288256685395,36.5789472365173,-3.25636400806974,-24.8286284066952,16.0919528758637,-6.22746015255269,31.9294176501,-40.3602518329635,-0.517428142718393,20.4765513368333,9.42982067703115,1.07992525300015,-4.1892210286786,25.5003369546853,13.7185859276986,71.3668178014623,12.268068648452,-2.49923100204327,21.6453185285896,10.8355652226567,-4.83382663394589,-6.91246723412455,1.72244646973795,65.5473301290152,-14.412746931244,19.7141926773096,43.9585248060246,-31.9945701753073,-4.00642170828757,18.480916091664,1,1,1,1,1,1,1,1,1,1,1,1,1,1,1,1,1,1,1,1,1,1,1,1,1,1,1,1,1,1,1,1,1,1,1,1,1,1,1,1,1,1,1,1,1,1,1,1,1,1,1,1,1,1,1,1,1,1,1,1,1,1,1,1,1,1,1,1,1,1,1,1,1,1,1,1,1,1,1,1,1,1,1,1,1,1,1,1,1,1,1,1,1,1,1,1,1,1,1,1,1,1,1,1,1,1,1,1,1,1,1,1,1,1,1,1,1,1,1,1,1,1,1,1,1,1,1,1,1,1,1,1,1,1,1,1,1,1,1,1,1,1,1,1,1,1,1,1,1,1,1,1,1,1,1,1,1,1,1,1,1,1,1,1,1,1,1,1,1,1,1,1,1,1,1,1,1,1,1,1,1,1,1,1,1,1,1,1,1,1,1,1,1,1,1,1,1,1,1,1,1,1,1,1,1,1,1,1,1,1,1,1,1,1,1,1,1,1,1,1,1,1,1,1,1,1,1,1,1,1,1,1,1,1,1,1,1,1,1,1,1,1,1,1,1,1,1,1,1,1,1,1,1,1,1,1,1,1,1,1,1,1,1,1,1,1,1,1,1,1,-3.84031528955247,-4.94584882598175,5.16680328184984,-5.58929723914824,19.207998751932,7.89246413210224,-6.16714773973117,2.85585419541746,9.33939561238416,-26.6498841920195,-4.11087429092193,9.43548186618204,4.33145945810976,1.61352175566177,-13.7893423106979,4.73584866967953,9.74861430624862,7.64958477053163,-3.28521683741549,0.010579049085544,9.49744131705454,-5.25276103437123,0.30990109663968,4.11591004813427,3.99880126695971,4.27635204573659,-1.31416858491281,-0.647844542495938,2.06817018563136,3.59519840155027,9.40683028371298,7.89718310434617,4.03976178130193,-11.8746957969161,8.24002195903029,-20.9758593206328,3.77291284558974,4.47181077721281,2.57974921905033,-8.37123031430968,-0.85756054828115,6.69131667442713,16.1978439619652,1.13446768382909,-5.29104988753296,8.1464798295646,7.30504487750808,6.60145359799471,-6.08561803096021,-13.3841468663626,-1.8986486184158,-9.33361767765161,13.8841452279453,-8.91279661407745,8.5723790824404,-9.49114499339145,6.22621624661481,21.7769213765343,2.45369653784094,15.7846704085268,3.84540339346274,-16.6375938510967,12.8065586199391,0.528126221761931,22.0858737255093,-16.6247755248043,-23.2175033960117,4.15120242265654,-12.9663460158368,3.24751001580081,-4.56303197479382,0.789553968248995,-11.3869849936736,10.9760105961201,10.0667199947482,20.3492221490518,-1.18990007655739,-5.06832937318011,3.03561358075633,-6.67288360184059,-20.3185370739654,4.32390609041396,7.48656117100814,-3.75327088461328,-0.532364232840011,9.04054305520375,17.1168624866236,-10.6503618515204,-4.87198564567949,12.3103689942428,-11.8617047157438,13.1183679651428,-6.35773222097991,2.23312266700228,-0.747408554314818,6.24725656382402,-7.0438861270647,-11.1300406281023,6.27957454297938,3.34050562383409,10.2134604732949,2.05034105542245,0.883302597832068,29.9021982499939,-3.71003701715517,-0.532660800389837,-19.1247001968153,-6.69823472886586,13.0620699703445,0.318987702577133,15.0150002881832,-9.81183185649975,-1.13390423450862,-14.5918037286555,6.32610753142945,-1.04819648534341,-1.73898248011507,11.8322160090752,-1.85841797427116,-4.18762084053124,-19.0403447912542,-4.38795970454074,-9.46486588790201,-5.98352741889046,-17.3445091274956,17.762802852367,7.28436040429338,0.727232299933789,4.93870555382976,-17.2562803154751,18.4221906156807,-10.9351422257405,-4.47305601924517,7.39916329758551,13.2266830000679,10.0854277872879,-3.83458609555653,20.1036519574162,-0.850697206674901,-2.22760139314274,-9.13890625057066,-15.0424111292416,15.2019354077176,2.00477678714835,2.30249997387844,-3.88955117365741,4.67871227559381,-9.71583302662878,4.78986541683919,-9.93710958891372,-7.77011197968574,9.11290085658098,-5.44175947363734,-22.3343311629153,-5.37446160611483,8.38675376113728,-3.76283044204215,-1.21011801766894,-13.1212062152348,-1.60717752744354,22.3766124418872,-14.8781161354518,-0.7691102465788,15.4404021279779,-5.03271755502862,-0.322281294770097,14.6508557702781,-7.29645350770577,2.97952836978885,13.2389553160781,16.6001488458527,14.3403561470793,-4.81440183247184,13.7765968709603,27.2358475270803,4.0622193197616,-11.437699574192,-2.02501709383391,-4.74463658370624,-12.0739195643535,8.69734187559165,3.11283908006107,9.00904298911635,-2.94378537523718,8.23729326400745,-6.32270101706569,10.7530663200756,-2.18478941595379,-11.3344225504832,9.54012809429577,10.3786810000321,-0.695905073899564,-0.776670707850975,-1.51847144799597,6.12950171617181,5.17210354351453,2.1929641382062,6.56048559589734,9.29378531331648,5.98404779857975,1.31183865829539,4.44346576048206,4.71363105608807,5.43793350609764,8.56388112513484,2.61370648246281,-4.56046733767444,-6.02901101374597,0.13606648765471,0.828620580832071,3.99888037541671,2.34114644142332,-3.4673788358143,0.866287346142453,4.48742860154579,3.61351240871671,-6.20707434724666,-5.75729813543154,0.636566207188449,6.08620598535409,16.5594417137443,7.18147536275022,-4.17727673392405,1.06361519094011,-1.22362149329181,2.7527531665919,-1.0787988734939,-1.02365412920166,-15.5886108381361,2.29347928889221,2.22383353691433,-9.70680270965915,-12.0730258484598,16.0052927887092,24.1045548331782,24.9264068826057,4.83162607130823,4.67464787393133,2.08388041973419,-4.78258914637437,4.40004240861539,-2.18156341769566,-4.30760922097766,6.90803321988799,-3.60735887437881,6.08575633000692,-5.56735157893194,9.45725356850474,4.58495950073352,-13.4853751020177,14.8413286139315,-3.11410140651682,13.8821937415243,21.6642147226121,21.0561157537935,-7.13027828579874,-3.02133091312067,-12.6910865675864,12.7817664066489,6.38327535175496,-0.502993243064241,2.96118341327154,15.5404649544457,4.5725190195763,26.0846548585507,0.807906024227348,21.4106046002991,13.9452383521453,-30.4956435340385,10.4639111468933,1,1,1,1,1,1,1,1,1,1,1,1,1,1,1,1,1,1,1,1,1,1,1,1,1,1,1,1,1,1,1,1,1,1,1,1,1,1,1,1,1,1,1,1,1,1,1,1,1,1,1,1,1,1,1,1,1,1,1,1,1,1,1,1,1,1,1,1,1,1,1,1,1,1,1,1,1,1,1,1,1,1,1,1,1,1,1,1,1,1,1,1,1,1,1,1,1,1,1,1,1,1,1,1,1,1,1,1,1,1,1,1,1,1,1,1,1,1,1,1,1,1,1,1,1,1,1,1,1,1,1,1,1,1,1,1,1,1,1,1,1,1,1,1,1,1,1,1,1,1,1,1,1,1,1,1,1,1,1,1,1,1,1,1,1,1,1,1,1,1,1,1,1,1,1,1,1,1,1,1,1,1,1,1,1,1,1,1,1,1,1,1,1,1,1,1,1,1,1,1,1,1,1,1,1,1,1,1,1,1,1,1,1,1,1,1,1,1,1,1,1,1,1,1,1,1,1,1,1,1,1,1,1,1,1,1,1,1,1,1,1,1,1,1,1,1,1,1,1,1,1,1,1,1,1,1,1,1,1,1,1,1,1,1,1,1,1,1,1,1
182.329346452528,-2.38692839880796,41.4353268064722,-107.355142328272,40.6407678212391,18.5094874808371,6.36409748789614,21.124167706434,32.0661779714524,-28.8265455356438,70.3726052986805,-1.39462145984245,-13.4063722467981,-90.5335935848517,33.7021637463565,3.39807870846695,-38.3475394097451,30.7670983031939,-46.9192345778164,-25.1171323565927,-9.37907358017185,-39.2625092293824,-47.9608914426618,-77.0104098615461,-13.5033298369144,31.474929384284,13.5121401704632,-44.2156026588026,44.8250935296763,18.6116568799854,42.3347739922385,49.8798573859282,26.730660483444,-45.5377402661947,-19.9205324799899,-7.03686350285392,10.351414212673,-17.2349190509507,0.317419824472895,-39.818818285299,0.706286625705335,31.2243225704227,1.55830766123937,14.6202131750121,17.2038365752124,-45.1733971977572,32.2698191028662,-37.0554026672283,1.24145424114164,6.67502231444176,-28.1358390086811,4.66427129555112,28.002214529816,8.22201017899026,53.3651091296612,29.1306862170075,-25.2616778667262,3.28716018781948,17.4160276145641,14.1202212166189,13.2351757699837,21.5284120016619,-11.2886175379302,-21.5521876450394,-35.1080518152162,33.5070558773934,-11.1747209629667,-41.2053022144634,-26.8270755177374,28.6347443479541,49.7945564439658,12.3116033558565,6.80391363404905,72.6201235306922,36.5568416144274,24.858983497847,4.47249097149924,38.0794319903358,-11.0554768760576,-29.0319520502374,31.7217534540043,-18.5492995299715,-3.89632460699222,42.7420934998662,3.38494930628838,-57.0780089380219,-13.8698401560555,13.0571292571222,2.50953969761504,27.1853178450974,4.46613143326741,8.2405175786421,-21.1626368019448,30.1957527248214,-3.85443136354857,-50.581606195459,-26.2274253051187,49.7858553568957,32.5081640631627,85.5692343758933,29.0707407143257,-4.34925707675571,-15.8596667945701,-2.98782610332891,56.6836414588811,0.939005992111548,22.6479751559135,-60.2833482677198,11.0809414328836,-24.596371286675,27.9852011304827,-59.3363096951408,9.87098184131763,-14.1532150267531,73.5694748310792,6.65114897186456,48.5437041777166,12.6085368039564,57.4963600574476,25.3607115585447,-10.9762321653128,24.9532970393923,36.6221916291945,13.1644045935508,-9.87267450344443,9.68581990788639,-5.07971048253498,-49.1409189898891,-12.9439800561977,35.9630353176124,1.68603676889028,7.28804925546974,97.3856158206854,-20.2995563123089,-61.3406378122373,89.5846772996076,27.2878694473556,-4.16725545282308,63.5191858369161,-27.5235458535885,18.8849765608322,3.51421508002883,76.2306966198408,33.5167713573664,39.2113083104134,15.8790859677007,-20.7801672202608,-38.6339111946105,5.84404211237319,-29.83066383899,-8.40386011314784,-14.1616653108096,51.1956581472254,6.24386789653447,11.2796510635044,7.67269204874174,-24.8625524019948,17.8924649353107,0.885905602530644,-21.2736140879338,13.3092850068852,-3.70097562887084,-43.8769498737684,-0.607809694377955,9.09330382118257,31.6879814255052,-18.0921142200651,9.39652465924629,8.49468175411818,26.6252820334613,12.5712018718347,-15.8615591530655,-15.3231929050378,-15.9249950422832,-11.4111695976593,-12.9172377926874,-60.43842299624,60.9123797357835,72.4295900957161,49.7735564782841,58.7511148665642,45.647999137287,16.4080983125004,5.25000387245394,-34.1138578070073,-21.7466612076663,11.7825344585296,59.2654355585086,40.1434268254071,-30.8116262238744,54.3669543931679,11.7147875898464,73.0929129556895,71.4206185545227,45.3949016109909,-21.8331909501688,-40.971629645805,-14.5565284636193,-40.7702027500476,42.8496099280799,-43.1721773889654,35.3960815323079,-44.6633318361619,-50.2861521248032,-40.0117649873512,0.327537450438072,37.3162390189379,27.5363331352877,-39.0254662782435,-42.3203911198197,-12.3690956446299,34.7440063775823,3.86065659678296,-3.40043886646868,26.4524980982479,27.2383168162236,8.11596561253669,20.7705685066387,53.5062466748111,26.3623045756929,7.12887941844402,25.5891389205757,32.9895460312785,41.6007781439962,-47.6428053277045,32.307078038117,15.4679971160568,25.2055348764326,-1.60900687369569,-48.4704541412873,32.0354058662933,-41.6114349857581,-52.4904973988566,32.1872199110337,-23.5642801386649,-40.096538300318,-26.5294245786083,16.8262126445017,41.0147994507241,76.2946667130099,-23.6871451514575,-2.56573561026395,-10.0262743502721,19.6497759463496,41.7771994472056,46.6288256685395,36.5789472365173,-3.25636400806974,-24.8286284066952,16.0919528758637,-6.22746015255269,31.9294176501,-40.3602518329635,-0.517428142718393,20.4765513368333,9.42982067703115,1.07992525300015,-4.1892210286786,25.5003369546853,13.7185859276986,71.3668178014623,12.268068648452,-2.49923100204327,21.6453185285896,10.8355652226567,-4.83382663394589,-6.91246723412455,1.72244646973795,65.5473301290152,-14.412746931244,19.7141926773096,43.9585248060246,-31.9945701753073,-4.00642170828757,18.480916091664,1,1,1,1,1,1,1,1,1,1,1,1,1,1,1,1,1,1,1,1,1,1,1,1,1,1,1,1,1,1,1,1,1,1,1,1,1,1,1,1,1,1,1,1,1,1,1,1,1,1,1,1,1,1,1,1,1,1,1,1,1,1,1,1,1,1,1,1,1,1,1,1,1,1,1,1,1,1,1,1,1,1,1,1,1,1,1,1,1,1,1,1,1,1,1,1,1,1,1,1,1,1,1,1,1,1,1,1,1,1,1,1,1,1,1,1,1,1,1,1,1,1,1,1,1,1,1,1,1,1,1,1,1,1,1,1,1,1,1,1,1,1,1,1,1,1,1,1,1,1,1,1,1,1,1,1,1,1,1,1,1,1,1,1,1,1,1,1,1,1,1,1,1,1,1,1,1,1,1,1,1,1,1,1,1,1,1,1,1,1,1,1,1,1,1,1,1,1,1,1,1,1,1,1,1,1,1,1,1,1,1,1,1,1,1,1,1,1,1,1,1,1,1,1,1,1,1,1,1,1,1,1,1,1,1,1,1,1,1,1,1,1,1,1,1,1,1,1,1,1,1,1,1,1,1,1,1,1,1,1,1,1,1,1,1,1,1,1,1,1,-3.84031528955247,-4.94584882598175,5.16680328184984,-5.58929723914824,19.207998751932,7.89246413210224,-6.16714773973117,2.85585419541746,9.33939561238416,-26.6498841920195,-4.11087429092193,9.43548186618204,4.33145945810976,1.61352175566177,-13.7893423106979,4.73584866967953,9.74861430624862,7.64958477053163,-3.28521683741549,0.010579049085544,9.49744131705454,-5.25276103437123,0.30990109663968,4.11591004813427,3.99880126695971,4.27635204573659,-1.31416858491281,-0.647844542495938,2.06817018563136,3.59519840155027,9.40683028371298,7.89718310434617,4.03976178130193,-11.8746957969161,8.24002195903029,-20.9758593206328,3.77291284558974,4.47181077721281,2.57974921905033,-8.37123031430968,-0.85756054828115,6.69131667442713,16.1978439619652,1.13446768382909,-5.29104988753296,8.1464798295646,7.30504487750808,6.60145359799471,-6.08561803096021,-13.3841468663626,-1.8986486184158,-9.33361767765161,13.8841452279453,-8.91279661407745,8.5723790824404,-9.49114499339145,6.22621624661481,21.7769213765343,2.45369653784094,15.7846704085268,3.84540339346274,-16.6375938510967,12.8065586199391,0.528126221761931,22.0858737255093,-16.6247755248043,-23.2175033960117,4.15120242265654,-12.9663460158368,3.24751001580081,-4.56303197479382,0.789553968248995,-11.3869849936736,10.9760105961201,10.0667199947482,20.3492221490518,-1.18990007655739,-5.06832937318011,3.03561358075633,-6.67288360184059,-20.3185370739654,4.32390609041396,7.48656117100814,-3.75327088461328,-0.532364232840011,9.04054305520375,17.1168624866236,-10.6503618515204,-4.87198564567949,12.3103689942428,-11.8617047157438,13.1183679651428,-6.35773222097991,2.23312266700228,-0.747408554314818,6.24725656382402,-7.0438861270647,-11.1300406281023,6.27957454297938,3.34050562383409,10.2134604732949,2.05034105542245,0.883302597832068,29.9021982499939,-3.71003701715517,-0.532660800389837,-19.1247001968153,-6.69823472886586,13.0620699703445,0.318987702577133,15.0150002881832,-9.81183185649975,-1.13390423450862,-14.5918037286555,6.32610753142945,-1.04819648534341,-1.73898248011507,11.8322160090752,-1.85841797427116,-4.18762084053124,-19.0403447912542,-4.38795970454074,-9.46486588790201,-5.98352741889046,-17.3445091274956,17.762802852367,7.28436040429338,0.727232299933789,4.93870555382976,-17.2562803154751,18.4221906156807,-10.9351422257405,-4.47305601924517,7.39916329758551,13.2266830000679,10.0854277872879,-3.83458609555653,20.1036519574162,-0.850697206674901,-2.22760139314274,-9.13890625057066,-15.0424111292416,15.2019354077176,2.00477678714835,2.30249997387844,-3.88955117365741,4.67871227559381,-9.71583302662878,4.78986541683919,-9.93710958891372,-7.77011197968574,9.11290085658098,-5.44175947363734,-22.3343311629153,-5.37446160611483,8.38675376113728,-3.76283044204215,-1.21011801766894,-13.1212062152348,-1.60717752744354,22.3766124418872,-14.8781161354518,-0.7691102465788,15.4404021279779,-5.03271755502862,-0.322281294770097,14.6508557702781,-7.29645350770577,2.97952836978885,13.2389553160781,16.6001488458527,14.3403561470793,-4.81440183247184,13.7765968709603,27.2358475270803,4.0622193197616,-11.437699574192,-2.02501709383391,-4.74463658370624,-12.0739195643535,8.69734187559165,3.11283908006107,9.00904298911635,-2.94378537523718,8.23729326400745,-6.32270101706569,10.7530663200756,-2.18478941595379,-11.3344225504832,9.54012809429577,10.3786810000321,-0.695905073899564,-0.776670707850975,-1.51847144799597,6.12950171617181,5.17210354351453,2.1929641382062,6.56048559589734,9.29378531331648,5.98404779857975,1.31183865829539,4.44346576048206,4.71363105608807,5.43793350609764,8.56388112513484,2.61370648246281,-4.56046733767444,-6.02901101374597,0.13606648765471,0.828620580832071,3.99888037541671,2.34114644142332,-3.4673788358143,0.866287346142453,4.48742860154579,3.61351240871671,-6.20707434724666,-5.75729813543154,0.636566207188449,6.08620598535409,16.5594417137443,7.18147536275022,-4.17727673392405,1.06361519094011,-1.22362149329181,2.7527531665919,-1.0787988734939,-1.02365412920166,-15.5886108381361,2.29347928889221,2.22383353691433,-9.70680270965915,-12.0730258484598,16.0052927887092,24.1045548331782,24.9264068826057,4.83162607130823,4.67464787393133,2.08388041973419,-4.78258914637437,4.40004240861539,-2.18156341769566,-4.30760922097766,6.90803321988799,-3.60735887437881,6.08575633000692,-5.56735157893194,9.45725356850474,4.58495950073352,-13.4853751020177,14.8413286139315,-3.11410140651682,13.8821937415243,21.6642147226121,21.0561157537935,-7.13027828579874,-3.02133091312067,-12.6910865675864,12.7817664066489,6.38327535175496,-0.502993243064241,2.96118341327154,15.5404649544457,4.5725190195763,26.0846548585507,0.807906024227348,21.4106046002991,13.9452383521453,-30.4956435340385,10.4639111468933,1,1,1,1,1,1,1,1,1,1,1,1,1,1,1,1,1,1,1,1,1,1,1,1,1,1,1,1,1,1,1,1,1,1,1,1,1,1,1,1,1,1,1,1,1,1,1,1,1,1,1,1,1,1,1,1,1,1,1,1,1,1,1,1,1,1,1,1,1,1,1,1,1,1,1,1,1,1,1,1,1,1,1,1,1,1,1,1,1,1,1,1,1,1,1,1,1,1,1,1,1,1,1,1,1,1,1,1,1,1,1,1,1,1,1,1,1,1,1,1,1,1,1,1,1,1,1,1,1,1,1,1,1,1,1,1,1,1,1,1,1,1,1,1,1,1,1,1,1,1,1,1,1,1,1,1,1,1,1,1,1,1,1,1,1,1,1,1,1,1,1,1,1,1,1,1,1,1,1,1,1,1,1,1,1,1,1,1,1,1,1,1,1,1,1,1,1,1,1,1,1,1,1,1,1,1,1,1,1,1,1,1,1,1,1,1,1,1,1,1,1,1,1,1,1,1,1,1,1,1,1,1,1,1,1,1,1,1,1,1,1,1,1,1,1,1,1,1,1,1,1,1,1,1,1,1,1,1,1,1,1,1,1,1,1,1,1,1,1,1,-20.2041217469412,43.9647013028817,18.5094874808371,6.36409748789614,21.124167706434,32.0661779714524,-28.8265455356438,70.3726052986805,-1.39462145984245,-13.4063722467981,-90.5335935848517,33.7021637463565,3.39807870846695,-38.3475394097451,30.7670983031939,-46.9192345778164,-25.1171323565927,-9.37907358017185,-39.2625092293824,-47.9608914426618,-77.0104098615461,-13.5033298369144,31.474929384284,13.5121401704632,-44.2156026588026,44.8250935296763,18.6116568799854,42.3347739922385,49.8798573859282,26.730660483444,-45.5377402661947,-19.9205324799899,-7.03686350285392,10.351414212673,-17.2349190509507,0.317419824472895,-39.818818285299,0.706286625705335,31.2243225704227,1.55830766123937,14.6202131750121,17.2038365752124,-45.1733971977572,32.2698191028662,-37.0554026672283,1.24145424114164,6.67502231444176,-28.1358390086811,4.66427129555112,28.002214529816,8.22201017899026,53.3651091296612,29.1306862170075,-25.2616778667262,3.28716018781948,17.4160276145641,14.1202212166189,13.2351757699837,21.5284120016619,-11.2886175379302,-21.5521876450394,-35.1080518152162,33.5070558773934,-11.1747209629667,-41.2053022144634,-26.8270755177374,28.6347443479541,49.7945564439658,12.3116033558565,6.80391363404905,72.6201235306922,36.5568416144274,24.858983497847,4.47249097149924,38.0794319903358,-11.0554768760576,-29.0319520502374,31.7217534540043,-18.5492995299715,-3.89632460699222,42.7420934998662,3.38494930628838,-57.0780089380219,-13.8698401560555,13.0571292571222,2.50953969761504,27.1853178450974,4.46613143326741,8.2405175786421,-21.1626368019448,30.1957527248214,-3.85443136354857,-50.581606195459,-26.2274253051187,49.7858553568957,32.5081640631627,85.5692343758933,29.0707407143257,-4.34925707675571,-15.8596667945701,-2.98782610332891,56.6836414588811,0.939005992111548,22.6479751559135,-60.2833482677198,11.0809414328836,-24.596371286675,27.9852011304827,-59.3363096951408,9.87098184131763,-14.1532150267531,73.5694748310792,6.65114897186456,48.5437041777166,12.6085368039564,57.4963600574476,25.3607115585447,-10.9762321653128,24.9532970393923,36.6221916291945,13.1644045935508,-9.87267450344443,9.68581990788639,-5.07971048253498,-49.1409189898891,-12.9439800561977,35.9630353176124,1.68603676889028,7.28804925546974,97.3856158206854,-20.2995563123089,-61.3406378122373,89.5846772996076,27.2878694473556,-4.16725545282308,63.5191858369161,-27.5235458535885,18.8849765608322,3.51421508002883,76.2306966198408,33.5167713573664,39.2113083104134,15.8790859677007,-20.7801672202608,-38.6339111946105,5.84404211237319,-29.83066383899,-8.40386011314784,-14.1616653108096,51.1956581472254,6.24386789653447,11.2796510635044,7.67269204874174,-24.8625524019948,17.8924649353107,0.885905602530644,-21.2736140879338,13.3092850068852,-3.70097562887084,-43.8769498737684,-0.607809694377955,9.09330382118257,31.6879814255052,-18.0921142200651,9.39652465924629,8.49468175411818,26.6252820334613,12.5712018718347,-15.8615591530655,-15.3231929050378,-15.9249950422832,-11.4111695976593,-12.9172377926874,-60.43842299624,60.9123797357835,72.4295900957161,49.7735564782841,58.7511148665642,45.647999137287,16.4080983125004,5.25000387245394,-34.1138578070073,-21.7466612076663,11.7825344585296,59.2654355585086,40.1434268254071,-30.8116262238744,54.3669543931679,11.7147875898464,73.0929129556895,71.4206185545227,45.3949016109909,-21.8331909501688,-40.971629645805,-14.5565284636193,-40.7702027500476,42.8496099280799,-43.1721773889654,35.3960815323079,-44.6633318361619,-50.2861521248032,-40.0117649873512,0.327537450438072,37.3162390189379,27.5363331352877,-39.0254662782435,-42.3203911198197,-12.3690956446299,34.7440063775823,3.86065659678296,-3.40043886646868,26.4524980982479,27.2383168162236,8.11596561253669,20.7705685066387,53.5062466748111,26.3623045756929,7.12887941844402,25.5891389205757,32.9895460312785,41.6007781439962,-47.6428053277045,32.307078038117,15.4679971160568,25.2055348764326,-1.60900687369569,-48.4704541412873,32.0354058662933,-41.6114349857581,-52.4904973988566,32.1872199110337,-23.5642801386649,-40.096538300318,-26.5294245786083,16.8262126445017,41.0147994507241,76.2946667130099,-23.6871451514575,-2.56573561026395,-10.0262743502721,19.6497759463496,41.7771994472056,46.6288256685395,36.5789472365173,-3.25636400806974,-24.8286284066952,16.0919528758637,-6.22746015255269,31.9294176501,-40.3602518329635,-0.517428142718393,20.4765513368333,9.42982067703115,1.07992525300015,-4.1892210286786,25.5003369546853,13.7185859276986,71.3668178014623,12.268068648452,-2.49923100204327,21.6453185285896,10.8355652226567,-4.83382663394589,-6.91246723412455,1.72244646973795,65.5473301290152,-14.412746931244,19.7141926773096,43.9585248060246,-31.9945701753073,-4.00642170828757,18.480916091664,1,1,1,1,1,1,1,1,1,1,1,1,1,1,1,1,1,1,1,1,1,1,1,1,1,1,1,1,1,1,1,1,1,1,1,1,1,1,1,1,1,1,1,1,1,1,1,1,1,1,1,1,1,1,1,1,1,1,1,1,1,1,1,1,1,1,1,1,1,1,1,1,1,1,1,1,1,1,1,1,1,1,1,1,1,1,1,1,1,1,1,1,1,1,1,1,1,1,1,1,1,1,1,1,1,1,1,1,1,1,1,1,1,1,1,1,1,1,1,1,1,1,1,1,1,1,1,1,1,1,1,1,1,1,1,1,1,1,1,1,1,1,1,1,1,1,1,1,1,1,1,1,1,1,1,1,1,1,1,1,1,1,1,1,1,1,1,1,1,1,1,1,1,1,1,1,1,1,1,1,1,1,1,1,1,1,1,1,1,1,1,1,1,1,1,1,1,1,1,1,1,1,1,1,1,1,1,1,1,1,1,1,1,1,1,1,1,1,1,1,1,1,1,1,1,1,1,1,1,1,1,1,1,1,1,1,1,1,1,1,1,1,1,1,1,1,1,1,1,1,1,1,1,1,1,1,1,1,1,1,1,1,1,1,1,1,1,1,1,1,-3.84031528955247,-4.94584882598175,5.16680328184984,-5.58929723914824,19.207998751932,7.89246413210224,-6.16714773973117,2.85585419541746,9.33939561238416,-26.6498841920195,-4.11087429092193,9.43548186618204,4.33145945810976,1.61352175566177,-13.7893423106979,4.73584866967953,9.74861430624862,7.64958477053163,-3.28521683741549,0.010579049085544,9.49744131705454,-5.25276103437123,0.30990109663968,4.11591004813427,3.99880126695971,4.27635204573659,-1.31416858491281,-0.647844542495938,2.06817018563136,3.59519840155027,9.40683028371298,7.89718310434617,4.03976178130193,-11.8746957969161,8.24002195903029,-20.9758593206328,3.77291284558974,4.47181077721281,2.57974921905033,-8.37123031430968,-0.85756054828115,6.69131667442713,16.1978439619652,1.13446768382909,-5.29104988753296,8.1464798295646,7.30504487750808,6.60145359799471,-6.08561803096021,-13.3841468663626,-1.8986486184158,-9.33361767765161,13.8841452279453,-8.91279661407745,8.5723790824404,-9.49114499339145,6.22621624661481,21.7769213765343,2.45369653784094,15.7846704085268,3.84540339346274,-16.6375938510967,12.8065586199391,0.528126221761931,22.0858737255093,-16.6247755248043,-23.2175033960117,4.15120242265654,-12.9663460158368,3.24751001580081,-4.56303197479382,0.789553968248995,-11.3869849936736,10.9760105961201,10.0667199947482,20.3492221490518,-1.18990007655739,-5.06832937318011,3.03561358075633,-6.67288360184059,-20.3185370739654,4.32390609041396,7.48656117100814,-3.75327088461328,-0.532364232840011,9.04054305520375,17.1168624866236,-10.6503618515204,-4.87198564567949,12.3103689942428,-11.8617047157438,13.1183679651428,-6.35773222097991,2.23312266700228,-0.747408554314818,6.24725656382402,-7.0438861270647,-11.1300406281023,6.27957454297938,3.34050562383409,10.2134604732949,2.05034105542245,0.883302597832068,29.9021982499939,-3.71003701715517,-0.532660800389837,-19.1247001968153,-6.69823472886586,13.0620699703445,0.318987702577133,15.0150002881832,-9.81183185649975,-1.13390423450862,-14.5918037286555,6.32610753142945,-1.04819648534341,-1.73898248011507,11.8322160090752,-1.85841797427116,-4.18762084053124,-19.0403447912542,-4.38795970454074,-9.46486588790201,-5.98352741889046,-17.3445091274956,17.762802852367,7.28436040429338,0.727232299933789,4.93870555382976,-17.2562803154751,18.4221906156807,-10.9351422257405,-4.47305601924517,7.39916329758551,13.2266830000679,10.0854277872879,-3.83458609555653,20.1036519574162,-0.850697206674901,-2.22760139314274,-9.13890625057066,-15.0424111292416,15.2019354077176,2.00477678714835,2.30249997387844,-3.88955117365741,4.67871227559381,-9.71583302662878,4.78986541683919,-9.93710958891372,-7.77011197968574,9.11290085658098,-5.44175947363734,-22.3343311629153,-5.37446160611483,8.38675376113728,-3.76283044204215,-1.21011801766894,-13.1212062152348,-1.60717752744354,22.3766124418872,-14.8781161354518,-0.7691102465788,15.4404021279779,-5.03271755502862,-0.322281294770097,14.6508557702781,-7.29645350770577,2.97952836978885,13.2389553160781,16.6001488458527,14.3403561470793,-4.81440183247184,13.7765968709603,27.2358475270803,4.0622193197616,-11.437699574192,-2.02501709383391,-4.74463658370624,-12.0739195643535,8.69734187559165,3.11283908006107,9.00904298911635,-2.94378537523718,8.23729326400745,-6.32270101706569,10.7530663200756,-2.18478941595379,-11.3344225504832,9.54012809429577,10.3786810000321,-0.695905073899564,-0.776670707850975,-1.51847144799597,6.12950171617181,5.17210354351453,2.1929641382062,6.56048559589734,9.29378531331648,5.98404779857975,1.31183865829539,4.44346576048206,4.71363105608807,5.43793350609764,8.56388112513484,2.61370648246281,-4.56046733767444,-6.02901101374597,0.13606648765471,0.828620580832071,3.99888037541671,2.34114644142332,-3.4673788358143,0.866287346142453,4.48742860154579,3.61351240871671,-6.20707434724666,-5.75729813543154,0.636566207188449,6.08620598535409,16.5594417137443,7.18147536275022,-4.17727673392405,1.06361519094011,-1.22362149329181,2.7527531665919,-1.0787988734939,-1.02365412920166,-15.5886108381361,2.29347928889221,2.22383353691433,-9.70680270965915,-12.0730258484598,16.0052927887092,24.1045548331782,24.9264068826057,4.83162607130823,4.67464787393133,2.08388041973419,-4.78258914637437,4.40004240861539,-2.18156341769566,-4.30760922097766,6.90803321988799,-3.60735887437881,6.08575633000692,-5.56735157893194,9.45725356850474,4.58495950073352,-13.4853751020177,14.8413286139315,-3.11410140651682,13.8821937415243,21.6642147226121,21.0561157537935,-7.13027828579874,-3.02133091312067,-12.6910865675864,12.7817664066489,6.38327535175496,-0.502993243064241,2.96118341327154,15.5404649544457,4.5725190195763,26.0846548585507,0.807906024227348,21.4106046002991,13.9452383521453,-30.4956435340385,10.4639111468933,1,1,1,1,1,1,1,1,1,1,1,1,1,1,1,1,1,1,1,1,1,1,1,1,1,1,1,1,1,1,1,1,1,1,1,1,1,1,1,1,1,1,1,1,1,1,1,1,1,1,1,1,1,1,1,1,1,1,1,1,1,1,1,1,1,1,1,1,1,1,1,1,1,1,1,1,1,1,1,1,1,1,1,1,1,1,1,1,1,1,1,1,1,1,1,1,1,1,1,1,1,1,1,1,1,1,1,1,1,1,1,1,1,1,1,1,1,1,1,1,1,1,1,1,1,1,1,1,1,1,1,1,1,1,1,1,1,1,1,1,1,1,1,1,1,1,1,1,1,1,1,1,1,1,1,1,1,1,1,1,1,1,1,1,1,1,1,1,1,1,1,1,1,1,1,1,1,1,1,1,1,1,1,1,1,1,1,1,1,1,1,1,1,1,1,1,1,1,1,1,1,1,1,1,1,1,1,1,1,1,1,1,1,1,1,1,1,1,1,1,1,1,1,1,1,1,1,1,1,1,1,1,1,1,1,1,1,1,1,1,1,1,1,1,1,1,1,1,1,1,1,1,1,1,1,1,1,1,1,1,1,1,1,1,1,1,1,1,1,1,51.8056526771133,-18.3139415679671,18.5094874808371,6.36409748789614,21.124167706434,32.0661779714524,-28.8265455356438,70.3726052986805,-1.39462145984245,-13.4063722467981,-90.5335935848517,33.7021637463565,3.39807870846695,-38.3475394097451,30.7670983031939,-46.9192345778164,-25.1171323565927,-9.37907358017185,-39.2625092293824,-47.9608914426618,-77.0104098615461,-13.5033298369144,31.474929384284,13.5121401704632,-44.2156026588026,44.8250935296763,18.6116568799854,42.3347739922385,49.8798573859282,26.730660483444,-45.5377402661947,-19.9205324799899,-7.03686350285392,10.351414212673,-17.2349190509507,0.317419824472895,-39.818818285299,0.706286625705335,31.2243225704227,1.55830766123937,14.6202131750121,17.2038365752124,-45.1733971977572,32.2698191028662,-37.0554026672283,1.24145424114164,6.67502231444176,-28.1358390086811,4.66427129555112,28.002214529816,8.22201017899026,53.3651091296612,29.1306862170075,-25.2616778667262,3.28716018781948,17.4160276145641,14.1202212166189,13.2351757699837,21.5284120016619,-11.2886175379302,-21.5521876450394,-35.1080518152162,33.5070558773934,-11.1747209629667,-41.2053022144634,-26.8270755177374,28.6347443479541,49.7945564439658,12.3116033558565,6.80391363404905,72.6201235306922,36.5568416144274,24.858983497847,4.47249097149924,38.0794319903358,-11.0554768760576,-29.0319520502374,31.7217534540043,-18.5492995299715,-3.89632460699222,42.7420934998662,3.38494930628838,-57.0780089380219,-13.8698401560555,13.0571292571222,2.50953969761504,27.1853178450974,4.46613143326741,8.2405175786421,-21.1626368019448,30.1957527248214,-3.85443136354857,-50.581606195459,-26.2274253051187,49.7858553568957,32.5081640631627,85.5692343758933,29.0707407143257,-4.34925707675571,-15.8596667945701,-2.98782610332891,56.6836414588811,0.939005992111548,22.6479751559135,-60.2833482677198,11.0809414328836,-24.596371286675,27.9852011304827,-59.3363096951408,9.87098184131763,-14.1532150267531,73.5694748310792,6.65114897186456,48.5437041777166,12.6085368039564,57.4963600574476,25.3607115585447,-10.9762321653128,24.9532970393923,36.6221916291945,13.1644045935508,-9.87267450344443,9.68581990788639,-5.07971048253498,-49.1409189898891,-12.9439800561977,35.9630353176124,1.68603676889028,7.28804925546974,97.3856158206854,-20.2995563123089,-61.3406378122373,89.5846772996076,27.2878694473556,-4.16725545282308,63.5191858369161,-27.5235458535885,18.8849765608322,3.51421508002883,76.2306966198408,33.5167713573664,39.2113083104134,15.8790859677007,-20.7801672202608,-38.6339111946105,5.84404211237319,-29.83066383899,-8.40386011314784,-14.1616653108096,51.1956581472254,6.24386789653447,11.2796510635044,7.67269204874174,-24.8625524019948,17.8924649353107,0.885905602530644,-21.2736140879338,13.3092850068852,-3.70097562887084,-43.8769498737684,-0.607809694377955,9.09330382118257,31.6879814255052,-18.0921142200651,9.39652465924629,8.49468175411818,26.6252820334613,12.5712018718347,-15.8615591530655,-15.3231929050378,-15.9249950422832,-11.4111695976593,-12.9172377926874,-60.43842299624,60.9123797357835,72.4295900957161,49.7735564782841,58.7511148665642,45.647999137287,16.4080983125004,5.25000387245394,-34.1138578070073,-21.7466612076663,11.7825344585296,59.2654355585086,40.1434268254071,-30.8116262238744,54.3669543931679,11.7147875898464,73.0929129556895,71.4206185545227,45.3949016109909,-21.8331909501688,-40.971629645805,-14.5565284636193,-40.7702027500476,42.8496099280799,-43.1721773889654,35.3960815323079,-44.6633318361619,-50.2861521248032,-40.0117649873512,0.327537450438072,37.3162390189379,27.5363331352877,-39.0254662782435,-42.3203911198197,-12.3690956446299,34.7440063775823,3.86065659678296,-3.40043886646868,26.4524980982479,27.2383168162236,8.11596561253669,20.7705685066387,53.5062466748111,26.3623045756929,7.12887941844402,25.5891389205757,32.9895460312785,41.6007781439962,-47.6428053277045,32.307078038117,15.4679971160568,25.2055348764326,-1.60900687369569,-48.4704541412873,32.0354058662933,-41.6114349857581,-52.4904973988566,32.1872199110337,-23.5642801386649,-40.096538300318,-26.5294245786083,16.8262126445017,41.0147994507241,76.2946667130099,-23.6871451514575,-2.56573561026395,-10.0262743502721,19.6497759463496,41.7771994472056,46.6288256685395,36.5789472365173,-3.25636400806974,-24.8286284066952,16.0919528758637,-6.22746015255269,31.9294176501,-40.3602518329635,-0.517428142718393,20.4765513368333,9.42982067703115,1.07992525300015,-4.1892210286786,25.5003369546853,13.7185859276986,71.3668178014623,12.268068648452,-2.49923100204327,21.6453185285896,10.8355652226567,-4.83382663394589,-6.91246723412455,1.72244646973795,65.5473301290152,-14.412746931244,19.7141926773096,43.9585248060246,-31.9945701753073,-4.00642170828757,18.480916091664,1,1,1,1,1,1,1,1,1,1,1,1,1,1,1,1,1,1,1,1,1,1,1,1,1,1,1,1,1,1,1,1,1,1,1,1,1,1,1,1,1,1,1,1,1,1,1,1,1,1,1,1,1,1,1,1,1,1,1,1,1,1,1,1,1,1,1,1,1,1,1,1,1,1,1,1,1,1,1,1,1,1,1,1,1,1,1,1,1,1,1,1,1,1,1,1,1,1,1,1,1,1,1,1,1,1,1,1,1,1,1,1,1,1,1,1,1,1,1,1,1,1,1,1,1,1,1,1,1,1,1,1,1,1,1,1,1,1,1,1,1,1,1,1,1,1,1,1,1,1,1,1,1,1,1,1,1,1,1,1,1,1,1,1,1,1,1,1,1,1,1,1,1,1,1,1,1,1,1,1,1,1,1,1,1,1,1,1,1,1,1,1,1,1,1,1,1,1,1,1,1,1,1,1,1,1,1,1,1,1,1,1,1,1,1,1,1,1,1,1,1,1,1,1,1,1,1,1,1,1,1,1,1,1,1,1,1,1,1,1,1,1,1,1,1,1,1,1,1,1,1,1,1,1,1,1,1,1,1,1,1,1,1,1,1,1,1,1,1,1,-3.84031528955247,-4.94584882598175,5.16680328184984,-5.58929723914824,19.207998751932,7.89246413210224,-6.16714773973117,2.85585419541746,9.33939561238416,-26.6498841920195,-4.11087429092193,9.43548186618204,4.33145945810976,1.61352175566177,-13.7893423106979,4.73584866967953,9.74861430624862,7.64958477053163,-3.28521683741549,0.010579049085544,9.49744131705454,-5.25276103437123,0.30990109663968,4.11591004813427,3.99880126695971,4.27635204573659,-1.31416858491281,-0.647844542495938,2.06817018563136,3.59519840155027,9.40683028371298,7.89718310434617,4.03976178130193,-11.8746957969161,8.24002195903029,-20.9758593206328,3.77291284558974,4.47181077721281,2.57974921905033,-8.37123031430968,-0.85756054828115,6.69131667442713,16.1978439619652,1.13446768382909,-5.29104988753296,8.1464798295646,7.30504487750808,6.60145359799471,-6.08561803096021,-13.3841468663626,-1.8986486184158,-9.33361767765161,13.8841452279453,-8.91279661407745,8.5723790824404,-9.49114499339145,6.22621624661481,21.7769213765343,2.45369653784094,15.7846704085268,3.84540339346274,-16.6375938510967,12.8065586199391,0.528126221761931,22.0858737255093,-16.6247755248043,-23.2175033960117,4.15120242265654,-12.9663460158368,3.24751001580081,-4.56303197479382,0.789553968248995,-11.3869849936736,10.9760105961201,10.0667199947482,20.3492221490518,-1.18990007655739,-5.06832937318011,3.03561358075633,-6.67288360184059,-20.3185370739654,4.32390609041396,7.48656117100814,-3.75327088461328,-0.532364232840011,9.04054305520375,17.1168624866236,-10.6503618515204,-4.87198564567949,12.3103689942428,-11.8617047157438,13.1183679651428,-6.35773222097991,2.23312266700228,-0.747408554314818,6.24725656382402,-7.0438861270647,-11.1300406281023,6.27957454297938,3.34050562383409,10.2134604732949,2.05034105542245,0.883302597832068,29.9021982499939,-3.71003701715517,-0.532660800389837,-19.1247001968153,-6.69823472886586,13.0620699703445,0.318987702577133,15.0150002881832,-9.81183185649975,-1.13390423450862,-14.5918037286555,6.32610753142945,-1.04819648534341,-1.73898248011507,11.8322160090752,-1.85841797427116,-4.18762084053124,-19.0403447912542,-4.38795970454074,-9.46486588790201,-5.98352741889046,-17.3445091274956,17.762802852367,7.28436040429338,0.727232299933789,4.93870555382976,-17.2562803154751,18.4221906156807,-10.9351422257405,-4.47305601924517,7.39916329758551,13.2266830000679,10.0854277872879,-3.83458609555653,20.1036519574162,-0.850697206674901,-2.22760139314274,-9.13890625057066,-15.0424111292416,15.2019354077176,2.00477678714835,2.30249997387844,-3.88955117365741,4.67871227559381,-9.71583302662878,4.78986541683919,-9.93710958891372,-7.77011197968574,9.11290085658098,-5.44175947363734,-22.3343311629153,-5.37446160611483,8.38675376113728,-3.76283044204215,-1.21011801766894,-13.1212062152348,-1.60717752744354,22.3766124418872,-14.8781161354518,-0.7691102465788,15.4404021279779,-5.03271755502862,-0.322281294770097,14.6508557702781,-7.29645350770577,2.97952836978885,13.2389553160781,16.6001488458527,14.3403561470793,-4.81440183247184,13.7765968709603,27.2358475270803,4.0622193197616,-11.437699574192,-2.02501709383391,-4.74463658370624,-12.0739195643535,8.69734187559165,3.11283908006107,9.00904298911635,-2.94378537523718,8.23729326400745,-6.32270101706569,10.7530663200756,-2.18478941595379,-11.3344225504832,9.54012809429577,10.3786810000321,-0.695905073899564,-0.776670707850975,-1.51847144799597,6.12950171617181,5.17210354351453,2.1929641382062,6.56048559589734,9.29378531331648,5.98404779857975,1.31183865829539,4.44346576048206,4.71363105608807,5.43793350609764,8.56388112513484,2.61370648246281,-4.56046733767444,-6.02901101374597,0.13606648765471,0.828620580832071,3.99888037541671,2.34114644142332,-3.4673788358143,0.866287346142453,4.48742860154579,3.61351240871671,-6.20707434724666,-5.75729813543154,0.636566207188449,6.08620598535409,16.5594417137443,7.18147536275022,-4.17727673392405,1.06361519094011,-1.22362149329181,2.7527531665919,-1.0787988734939,-1.02365412920166,-15.5886108381361,2.29347928889221,2.22383353691433,-9.70680270965915,-12.0730258484598,16.0052927887092,24.1045548331782,24.9264068826057,4.83162607130823,4.67464787393133,2.08388041973419,-4.78258914637437,4.40004240861539,-2.18156341769566,-4.30760922097766,6.90803321988799,-3.60735887437881,6.08575633000692,-5.56735157893194,9.45725356850474,4.58495950073352,-13.4853751020177,14.8413286139315,-3.11410140651682,13.8821937415243,21.6642147226121,21.0561157537935,-7.13027828579874,-3.02133091312067,-12.6910865675864,12.7817664066489,6.38327535175496,-0.502993243064241,2.96118341327154,15.5404649544457,4.5725190195763,26.0846548585507,0.807906024227348,21.4106046002991,13.9452383521453,-30.4956435340385,10.4639111468933,1,1,1,1,1,1,1,1,1,1,1,1,1,1,1,1,1,1,1,1,1,1,1,1,1,1,1,1,1,1,1,1,1,1,1,1,1,1,1,1,1,1,1,1,1,1,1,1,1,1,1,1,1,1,1,1,1,1,1,1,1,1,1,1,1,1,1,1,1,1,1,1,1,1,1,1,1,1,1,1,1,1,1,1,1,1,1,1,1,1,1,1,1,1,1,1,1,1,1,1,1,1,1,1,1,1,1,1,1,1,1,1,1,1,1,1,1,1,1,1,1,1,1,1,1,1,1,1,1,1,1,1,1,1,1,1,1,1,1,1,1,1,1,1,1,1,1,1,1,1,1,1,1,1,1,1,1,1,1,1,1,1,1,1,1,1,1,1,1,1,1,1,1,1,1,1,1,1,1,1,1,1,1,1,1,1,1,1,1,1,1,1,1,1,1,1,1,1,1,1,1,1,1,1,1,1,1,1,1,1,1,1,1,1,1,1,1,1,1,1,1,1,1,1,1,1,1,1,1,1,1,1,1,1,1,1,1,1,1,1,1,1,1,1,1,1,1,1,1,1,1,1,1,1,1,1,1,1,1,1,1,1,1,1,1,1,1,1,1,1
185.818530794615,74.0327065712925,101.861165392614,-107.355142328272,40.6407678212391,18.5094874808371,6.36409748789614,21.124167706434,32.0661779714524,-28.8265455356438,70.3726052986805,-1.39462145984245,-13.4063722467981,-90.5335935848517,33.7021637463565,3.39807870846695,-38.3475394097451,30.7670983031939,-46.9192345778164,-25.1171323565927,-9.37907358017185,-39.2625092293824,-47.9608914426618,-77.0104098615461,-13.5033298369144,31.474929384284,13.5121401704632,-44.2156026588026,44.8250935296763,18.6116568799854,42.3347739922385,49.8798573859282,26.730660483444,-45.5377402661947,-19.9205324799899,-7.03686350285392,10.351414212673,-17.2349190509507,0.317419824472895,-39.818818285299,0.706286625705335,31.2243225704227,1.55830766123937,14.6202131750121,17.2038365752124,-45.1733971977572,32.2698191028662,-37.0554026672283,1.24145424114164,6.67502231444176,-28.1358390086811,4.66427129555112,28.002214529816,8.22201017899026,53.3651091296612,29.1306862170075,-25.2616778667262,3.28716018781948,17.4160276145641,14.1202212166189,13.2351757699837,21.5284120016619,-11.2886175379302,-21.5521876450394,-35.1080518152162,33.5070558773934,-11.1747209629667,-41.2053022144634,-26.8270755177374,28.6347443479541,49.7945564439658,12.3116033558565,6.80391363404905,72.6201235306922,36.5568416144274,24.858983497847,4.47249097149924,38.0794319903358,-11.0554768760576,-29.0319520502374,31.7217534540043,-18.5492995299715,-3.89632460699222,42.7420934998662,3.38494930628838,-57.0780089380219,-13.8698401560555,13.0571292571222,2.50953969761504,27.1853178450974,4.46613143326741,8.2405175786421,-21.1626368019448,30.1957527248214,-3.85443136354857,-50.581606195459,-26.2274253051187,49.7858553568957,32.5081640631627,85.5692343758933,29.0707407143257,-4.34925707675571,-15.8596667945701,-2.98782610332891,56.6836414588811,0.939005992111548,22.6479751559135,-60.2833482677198,11.0809414328836,-24.596371286675,27.9852011304827,-59.3363096951408,9.87098184131763,-14.1532150267531,73.5694748310792,6.65114897186456,48.5437041777166,12.6085368039564,57.4963600574476,25.3607115585447,-10.9762321653128,24.9532970393923,36.6221916291945,13.1644045935508,-9.87267450344443,9.68581990788639,-5.07971048253498,-49.1409189898891,-12.9439800561977,35.9630353176124,1.68603676889028,7.28804925546974,97.3856158206854,-20.2995563123089,-61.3406378122373,89.5846772996076,27.2878694473556,-4.16725545282308,63.5191858369161,-27.5235458535885,18.8849765608322,3.51421508002883,76.2306966198408,33.5167713573664,39.2113083104134,15.8790859677007,-20.7801672202608,-38.6339111946105,5.84404211237319,-29.83066383899,-8.40386011314784,-14.1616653108096,51.1956581472254,6.24386789653447,11.2796510635044,7.67269204874174,-24.8625524019948,17.8924649353107,0.885905602530644,-21.2736140879338,13.3092850068852,-3.70097562887084,-43.8769498737684,-0.607809694377955,9.09330382118257,31.6879814255052,-18.0921142200651,9.39652465924629,8.49468175411818,26.6252820334613,12.5712018718347,-15.8615591530655,-15.3231929050378,-15.9249950422832,-11.4111695976593,-12.9172377926874,-60.43842299624,60.9123797357835,72.4295900957161,49.7735564782841,58.7511148665642,45.647999137287,16.4080983125004,5.25000387245394,-34.1138578070073,-21.7466612076663,11.7825344585296,59.2654355585086,40.1434268254071,-30.8116262238744,54.3669543931679,11.7147875898464,73.0929129556895,71.4206185545227,45.3949016109909,-21.8331909501688,-40.971629645805,-14.5565284636193,-40.7702027500476,42.8496099280799,-43.1721773889654,35.3960815323079,-44.6633318361619,-50.2861521248032,-40.0117649873512,0.327537450438072,37.3162390189379,27.5363331352877,-39.0254662782435,-42.3203911198197,-12.3690956446299,34.7440063775823,3.86065659678296,-3.40043886646868,26.4524980982479,27.2383168162236,8.11596561253669,20.7705685066387,53.5062466748111,26.3623045756929,7.12887941844402,25.5891389205757,32.9895460312785,41.6007781439962,-47.6428053277045,32.307078038117,15.4679971160568,25.2055348764326,-1.60900687369569,-48.4704541412873,32.0354058662933,-41.6114349857581,-52.4904973988566,32.1872199110337,-23.5642801386649,-40.096538300318,-26.5294245786083,16.8262126445017,41.0147994507241,76.2946667130099,-23.6871451514575,-2.56573561026395,-10.0262743502721,19.6497759463496,41.7771994472056,46.6288256685395,36.5789472365173,-3.25636400806974,-24.8286284066952,16.0919528758637,-6.22746015255269,31.9294176501,-40.3602518329635,-0.517428142718393,20.4765513368333,9.42982067703115,1.07992525300015,-4.1892210286786,25.5003369546853,13.7185859276986,71.3668178014623,12.268068648452,-2.49923100204327,21.6453185285896,10.8355652226567,-4.83382663394589,-6.91246723412455,1.72244646973795,65.5473301290152,-14.412746931244,19.7141926773096,43.9585248060246,-31.9945701753073,-4.00642170828757,18.480916091664,1,1,1,1,1,1,1,1,1,1,1,1,1,1,1,1,1,1,1,1,1,1,1,1,1,1,1,1,1,1,1,1,1,1,1,1,1,1,1,1,1,1,1,1,1,1,1,1,1,1,1,1,1,1,1,1,1,1,1,1,1,1,1,1,1,1,1,1,1,1,1,1,1,1,1,1,1,1,1,1,1,1,1,1,1,1,1,1,1,1,1,1,1,1,1,1,1,1,1,1,1,1,1,1,1,1,1,1,1,1,1,1,1,1,1,1,1,1,1,1,1,1,1,1,1,1,1,1,1,1,1,1,1,1,1,1,1,1,1,1,1,1,1,1,1,1,1,1,1,1,1,1,1,1,1,1,1,1,1,1,1,1,1,1,1,1,1,1,1,1,1,1,1,1,1,1,1,1,1,1,1,1,1,1,1,1,1,1,1,1,1,1,1,1,1,1,1,1,1,1,1,1,1,1,1,1,1,1,1,1,1,1,1,1,1,1,1,1,1,1,1,1,1,1,1,1,1,1,1,1,1,1,1,1,1,1,1,1,1,1,1,1,1,1,1,1,1,1,1,1,1,1,1,1,1,1,1,1,1,1,1,1,1,1,1,1,1,1,1,1,-3.84031528955247,-4.94584882598175,5.16680328184984,-5.58929723914824,19.207998751932,7.89246413210224,-6.16714773973117,2.85585419541746,9.33939561238416,-26.6498841920195,-4.11087429092193,9.43548186618204,4.33145945810976,1.61352175566177,-13.7893423106979,4.73584866967953,9.74861430624862,7.64958477053163,-3.28521683741549,0.010579049085544,9.49744131705454,-5.25276103437123,0.30990109663968,4.11591004813427,3.99880126695971,4.27635204573659,-1.31416858491281,-0.647844542495938,2.06817018563136,3.59519840155027,9.40683028371298,7.89718310434617,4.03976178130193,-11.8746957969161,8.24002195903029,-20.9758593206328,3.77291284558974,4.47181077721281,2.57974921905033,-8.37123031430968,-0.85756054828115,6.69131667442713,16.1978439619652,1.13446768382909,-5.29104988753296,8.1464798295646,7.30504487750808,6.60145359799471,-6.08561803096021,-13.3841468663626,-1.8986486184158,-9.33361767765161,13.8841452279453,-8.91279661407745,8.5723790824404,-9.49114499339145,6.22621624661481,21.7769213765343,2.45369653784094,15.7846704085268,3.84540339346274,-16.6375938510967,12.8065586199391,0.528126221761931,22.0858737255093,-16.6247755248043,-23.2175033960117,4.15120242265654,-12.9663460158368,3.24751001580081,-4.56303197479382,0.789553968248995,-11.3869849936736,10.9760105961201,10.0667199947482,20.3492221490518,-1.18990007655739,-5.06832937318011,3.03561358075633,-6.67288360184059,-20.3185370739654,4.32390609041396,7.48656117100814,-3.75327088461328,-0.532364232840011,9.04054305520375,17.1168624866236,-10.6503618515204,-4.87198564567949,12.3103689942428,-11.8617047157438,13.1183679651428,-6.35773222097991,2.23312266700228,-0.747408554314818,6.24725656382402,-7.0438861270647,-11.1300406281023,6.27957454297938,3.34050562383409,10.2134604732949,2.05034105542245,0.883302597832068,29.9021982499939,-3.71003701715517,-0.532660800389837,-19.1247001968153,-6.69823472886586,13.0620699703445,0.318987702577133,15.0150002881832,-9.81183185649975,-1.13390423450862,-14.5918037286555,6.32610753142945,-1.04819648534341,-1.73898248011507,11.8322160090752,-1.85841797427116,-4.18762084053124,-19.0403447912542,-4.38795970454074,-9.46486588790201,-5.98352741889046,-17.3445091274956,17.762802852367,7.28436040429338,0.727232299933789,4.93870555382976,-17.2562803154751,18.4221906156807,-10.9351422257405,-4.47305601924517,7.39916329758551,13.2266830000679,10.0854277872879,-3.83458609555653,20.1036519574162,-0.850697206674901,-2.22760139314274,-9.13890625057066,-15.0424111292416,15.2019354077176,2.00477678714835,2.30249997387844,-3.88955117365741,4.67871227559381,-9.71583302662878,4.78986541683919,-9.93710958891372,-7.77011197968574,9.11290085658098,-5.44175947363734,-22.3343311629153,-5.37446160611483,8.38675376113728,-3.76283044204215,-1.21011801766894,-13.1212062152348,-1.60717752744354,22.3766124418872,-14.8781161354518,-0.7691102465788,15.4404021279779,-5.03271755502862,-0.322281294770097,14.6508557702781,-7.29645350770577,2.97952836978885,13.2389553160781,16.6001488458527,14.3403561470793,-4.81440183247184,13.7765968709603,27.2358475270803,4.0622193197616,-11.437699574192,-2.02501709383391,-4.74463658370624,-12.0739195643535,8.69734187559165,3.11283908006107,9.00904298911635,-2.94378537523718,8.23729326400745,-6.32270101706569,10.7530663200756,-2.18478941595379,-11.3344225504832,9.54012809429577,10.3786810000321,-0.695905073899564,-0.776670707850975,-1.51847144799597,6.12950171617181,5.17210354351453,2.1929641382062,6.56048559589734,9.29378531331648,5.98404779857975,1.31183865829539,4.44346576048206,4.71363105608807,5.43793350609764,8.56388112513484,2.61370648246281,-4.56046733767444,-6.02901101374597,0.13606648765471,0.828620580832071,3.99888037541671,2.34114644142332,-3.4673788358143,0.866287346142453,4.48742860154579,3.61351240871671,-6.20707434724666,-5.75729813543154,0.636566207188449,6.08620598535409,16.5594417137443,7.18147536275022,-4.17727673392405,1.06361519094011,-1.22362149329181,2.7527531665919,-1.0787988734939,-1.02365412920166,-15.5886108381361,2.29347928889221,2.22383353691433,-9.70680270965915,-12.0730258484598,16.0052927887092,24.1045548331782,24.9264068826057,4.83162607130823,4.67464787393133,2.08388041973419,-4.78258914637437,4.40004240861539,-2.18156341769566,-4.30760922097766,6.90803321988799,-3.60735887437881,6.08575633000692,-5.56735157893194,9.45725356850474,4.58495950073352,-13.4853751020177,14.8413286139315,-3.11410140651682,13.8821937415243,21.6642147226121,21.0561157537935,-7.13027828579874,-3.02133091312067,-12.6910865675864,12.7817664066489,6.38327535175496,-0.502993243064241,2.96118341327154,15.5404649544457,4.5725190195763,26.0846548585507,0.807906024227348,21.4106046002991,13.9452383521453,-30.4956435340385,10.4639111468933,1,1,1,1,1,1,1,1,1,1,1,1,1,1,1,1,1,1,1,1,1,1,1,1,1,1,1,1,1,1,1,1,1,1,1,1,1,1,1,1,1,1,1,1,1,1,1,1,1,1,1,1,1,1,1,1,1,1,1,1,1,1,1,1,1,1,1,1,1,1,1,1,1,1,1,1,1,1,1,1,1,1,1,1,1,1,1,1,1,1,1,1,1,1,1,1,1,1,1,1,1,1,1,1,1,1,1,1,1,1,1,1,1,1,1,1,1,1,1,1,1,1,1,1,1,1,1,1,1,1,1,1,1,1,1,1,1,1,1,1,1,1,1,1,1,1,1,1,1,1,1,1,1,1,1,1,1,1,1,1,1,1,1,1,1,1,1,1,1,1,1,1,1,1,1,1,1,1,1,1,1,1,1,1,1,1,1,1,1,1,1,1,1,1,1,1,1,1,1,1,1,1,1,1,1,1,1,1,1,1,1,1,1,1,1,1,1,1,1,1,1,1,1,1,1,1,1,1,1,1,1,1,1,1,1,1,1,1,1,1,1,1,1,1,1,1,1,1,1,1,1,1,1,1,1,1,1,1,1,1,1,1,1,1,1,1,1,1,1,1,-20.2041217469412,43.9647013028817,18.5094874808371,6.36409748789614,21.124167706434,32.0661779714524,-28.8265455356438,70.3726052986805,-1.39462145984245,-13.4063722467981,-90.5335935848517,33.7021637463565,3.39807870846695,-38.3475394097451,30.7670983031939,-46.9192345778164,-25.1171323565927,-9.37907358017185,-39.2625092293824,-47.9608914426618,-77.0104098615461,-13.5033298369144,31.474929384284,13.5121401704632,-44.2156026588026,44.8250935296763,18.6116568799854,42.3347739922385,49.8798573859282,26.730660483444,-45.5377402661947,-19.9205324799899,-7.03686350285392,10.351414212673,-17.2349190509507,0.317419824472895,-39.818818285299,0.706286625705335,31.2243225704227,1.55830766123937,14.6202131750121,17.2038365752124,-45.1733971977572,32.2698191028662,-37.0554026672283,1.24145424114164,6.67502231444176,-28.1358390086811,4.66427129555112,28.002214529816,8.22201017899026,53.3651091296612,29.1306862170075,-25.2616778667262,3.28716018781948,17.4160276145641,14.1202212166189,13.2351757699837,21.5284120016619,-11.2886175379302,-21.5521876450394,-35.1080518152162,33.5070558773934,-11.1747209629667,-41.2053022144634,-26.8270755177374,28.6347443479541,49.7945564439658,12.3116033558565,6.80391363404905,72.6201235306922,36.5568416144274,24.858983497847,4.47249097149924,38.0794319903358,-11.0554768760576,-29.0319520502374,31.7217534540043,-18.5492995299715,-3.89632460699222,42.7420934998662,3.38494930628838,-57.0780089380219,-13.8698401560555,13.0571292571222,2.50953969761504,27.1853178450974,4.46613143326741,8.2405175786421,-21.1626368019448,30.1957527248214,-3.85443136354857,-50.581606195459,-26.2274253051187,49.7858553568957,32.5081640631627,85.5692343758933,29.0707407143257,-4.34925707675571,-15.8596667945701,-2.98782610332891,56.6836414588811,0.939005992111548,22.6479751559135,-60.2833482677198,11.0809414328836,-24.596371286675,27.9852011304827,-59.3363096951408,9.87098184131763,-14.1532150267531,73.5694748310792,6.65114897186456,48.5437041777166,12.6085368039564,57.4963600574476,25.3607115585447,-10.9762321653128,24.9532970393923,36.6221916291945,13.1644045935508,-9.87267450344443,9.68581990788639,-5.07971048253498,-49.1409189898891,-12.9439800561977,35.9630353176124,1.68603676889028,7.28804925546974,97.3856158206854,-20.2995563123089,-61.3406378122373,89.5846772996076,27.2878694473556,-4.16725545282308,63.5191858369161,-27.5235458535885,18.8849765608322,3.51421508002883,76.2306966198408,33.5167713573664,39.2113083104134,15.8790859677007,-20.7801672202608,-38.6339111946105,5.84404211237319,-29.83066383899,-8.40386011314784,-14.1616653108096,51.1956581472254,6.24386789653447,11.2796510635044,7.67269204874174,-24.8625524019948,17.8924649353107,0.885905602530644,-21.2736140879338,13.3092850068852,-3.70097562887084,-43.8769498737684,-0.607809694377955,9.09330382118257,31.6879814255052,-18.0921142200651,9.39652465924629,8.49468175411818,26.6252820334613,12.5712018718347,-15.8615591530655,-15.3231929050378,-15.9249950422832,-11.4111695976593,-12.9172377926874,-60.43842299624,60.9123797357835,72.4295900957161,49.7735564782841,58.7511148665642,45.647999137287,16.4080983125004,5.25000387245394,-34.1138578070073,-21.7466612076663,11.7825344585296,59.2654355585086,40.1434268254071,-30.8116262238744,54.3669543931679,11.7147875898464,73.0929129556895,71.4206185545227,45.3949016109909,-21.8331909501688,-40.971629645805,-14.5565284636193,-40.7702027500476,42.8496099280799,-43.1721773889654,35.3960815323079,-44.6633318361619,-50.2861521248032,-40.0117649873512,0.327537450438072,37.3162390189379,27.5363331352877,-39.0254662782435,-42.3203911198197,-12.3690956446299,34.7440063775823,3.86065659678296,-3.40043886646868,26.4524980982479,27.2383168162236,8.11596561253669,20.7705685066387,53.5062466748111,26.3623045756929,7.12887941844402,25.5891389205757,32.9895460312785,41.6007781439962,-47.6428053277045,32.307078038117,15.4679971160568,25.2055348764326,-1.60900687369569,-48.4704541412873,32.0354058662933,-41.6114349857581,-52.4904973988566,32.1872199110337,-23.5642801386649,-40.096538300318,-26.5294245786083,16.8262126445017,41.0147994507241,76.2946667130099,-23.6871451514575,-2.56573561026395,-10.0262743502721,19.6497759463496,41.7771994472056,46.6288256685395,36.5789472365173,-3.25636400806974,-24.8286284066952,16.0919528758637,-6.22746015255269,31.9294176501,-40.3602518329635,-0.517428142718393,20.4765513368333,9.42982067703115,1.07992525300015,-4.1892210286786,25.5003369546853,13.7185859276986,71.3668178014623,12.268068648452,-2.49923100204327,21.6453185285896,10.8355652226567,-4.83382663394589,-6.91246723412455,1.72244646973795,65.5473301290152,-14.412746931244,19.7141926773096,43.9585248060246,-31.9945701753073,-4.00642170828757,18.480916091664,1,1,1,1,1,1,1,1,1,1,1,1,1,1,1,1,1,1,1,1,1,1,1,1,1,1,1,1,1,1,1,1,1,1,1,1,1,1,1,1,1,1,1,1,1,1,1,1,1,1,1,1,1,1,1,1,1,1,1,1,1,1,1,1,1,1,1,1,1,1,1,1,1,1,1,1,1,1,1,1,1,1,1,1,1,1,1,1,1,1,1,1,1,1,1,1,1,1,1,1,1,1,1,1,1,1,1,1,1,1,1,1,1,1,1,1,1,1,1,1,1,1,1,1,1,1,1,1,1,1,1,1,1,1,1,1,1,1,1,1,1,1,1,1,1,1,1,1,1,1,1,1,1,1,1,1,1,1,1,1,1,1,1,1,1,1,1,1,1,1,1,1,1,1,1,1,1,1,1,1,1,1,1,1,1,1,1,1,1,1,1,1,1,1,1,1,1,1,1,1,1,1,1,1,1,1,1,1,1,1,1,1,1,1,1,1,1,1,1,1,1,1,1,1,1,1,1,1,1,1,1,1,1,1,1,1,1,1,1,1,1,1,1,1,1,1,1,1,1,1,1,1,1,1,1,1,1,1,1,1,1,1,1,1,1,1,1,1,1,1,-3.84031528955247,-4.94584882598175,5.16680328184984,-5.58929723914824,19.207998751932,7.89246413210224,-6.16714773973117,2.85585419541746,9.33939561238416,-26.6498841920195,-4.11087429092193,9.43548186618204,4.33145945810976,1.61352175566177,-13.7893423106979,4.73584866967953,9.74861430624862,7.64958477053163,-3.28521683741549,0.010579049085544,9.49744131705454,-5.25276103437123,0.30990109663968,4.11591004813427,3.99880126695971,4.27635204573659,-1.31416858491281,-0.647844542495938,2.06817018563136,3.59519840155027,9.40683028371298,7.89718310434617,4.03976178130193,-11.8746957969161,8.24002195903029,-20.9758593206328,3.77291284558974,4.47181077721281,2.57974921905033,-8.37123031430968,-0.85756054828115,6.69131667442713,16.1978439619652,1.13446768382909,-5.29104988753296,8.1464798295646,7.30504487750808,6.60145359799471,-6.08561803096021,-13.3841468663626,-1.8986486184158,-9.33361767765161,13.8841452279453,-8.91279661407745,8.5723790824404,-9.49114499339145,6.22621624661481,21.7769213765343,2.45369653784094,15.7846704085268,3.84540339346274,-16.6375938510967,12.8065586199391,0.528126221761931,22.0858737255093,-16.6247755248043,-23.2175033960117,4.15120242265654,-12.9663460158368,3.24751001580081,-4.56303197479382,0.789553968248995,-11.3869849936736,10.9760105961201,10.0667199947482,20.3492221490518,-1.18990007655739,-5.06832937318011,3.03561358075633,-6.67288360184059,-20.3185370739654,4.32390609041396,7.48656117100814,-3.75327088461328,-0.532364232840011,9.04054305520375,17.1168624866236,-10.6503618515204,-4.87198564567949,12.3103689942428,-11.8617047157438,13.1183679651428,-6.35773222097991,2.23312266700228,-0.747408554314818,6.24725656382402,-7.0438861270647,-11.1300406281023,6.27957454297938,3.34050562383409,10.2134604732949,2.05034105542245,0.883302597832068,29.9021982499939,-3.71003701715517,-0.532660800389837,-19.1247001968153,-6.69823472886586,13.0620699703445,0.318987702577133,15.0150002881832,-9.81183185649975,-1.13390423450862,-14.5918037286555,6.32610753142945,-1.04819648534341,-1.73898248011507,11.8322160090752,-1.85841797427116,-4.18762084053124,-19.0403447912542,-4.38795970454074,-9.46486588790201,-5.98352741889046,-17.3445091274956,17.762802852367,7.28436040429338,0.727232299933789,4.93870555382976,-17.2562803154751,18.4221906156807,-10.9351422257405,-4.47305601924517,7.39916329758551,13.2266830000679,10.0854277872879,-3.83458609555653,20.1036519574162,-0.850697206674901,-2.22760139314274,-9.13890625057066,-15.0424111292416,15.2019354077176,2.00477678714835,2.30249997387844,-3.88955117365741,4.67871227559381,-9.71583302662878,4.78986541683919,-9.93710958891372,-7.77011197968574,9.11290085658098,-5.44175947363734,-22.3343311629153,-5.37446160611483,8.38675376113728,-3.76283044204215,-1.21011801766894,-13.1212062152348,-1.60717752744354,22.3766124418872,-14.8781161354518,-0.7691102465788,15.4404021279779,-5.03271755502862,-0.322281294770097,14.6508557702781,-7.29645350770577,2.97952836978885,13.2389553160781,16.6001488458527,14.3403561470793,-4.81440183247184,13.7765968709603,27.2358475270803,4.0622193197616,-11.437699574192,-2.02501709383391,-4.74463658370624,-12.0739195643535,8.69734187559165,3.11283908006107,9.00904298911635,-2.94378537523718,8.23729326400745,-6.32270101706569,10.7530663200756,-2.18478941595379,-11.3344225504832,9.54012809429577,10.3786810000321,-0.695905073899564,-0.776670707850975,-1.51847144799597,6.12950171617181,5.17210354351453,2.1929641382062,6.56048559589734,9.29378531331648,5.98404779857975,1.31183865829539,4.44346576048206,4.71363105608807,5.43793350609764,8.56388112513484,2.61370648246281,-4.56046733767444,-6.02901101374597,0.13606648765471,0.828620580832071,3.99888037541671,2.34114644142332,-3.4673788358143,0.866287346142453,4.48742860154579,3.61351240871671,-6.20707434724666,-5.75729813543154,0.636566207188449,6.08620598535409,16.5594417137443,7.18147536275022,-4.17727673392405,1.06361519094011,-1.22362149329181,2.7527531665919,-1.0787988734939,-1.02365412920166,-15.5886108381361,2.29347928889221,2.22383353691433,-9.70680270965915,-12.0730258484598,16.0052927887092,24.1045548331782,24.9264068826057,4.83162607130823,4.67464787393133,2.08388041973419,-4.78258914637437,4.40004240861539,-2.18156341769566,-4.30760922097766,6.90803321988799,-3.60735887437881,6.08575633000692,-5.56735157893194,9.45725356850474,4.58495950073352,-13.4853751020177,14.8413286139315,-3.11410140651682,13.8821937415243,21.6642147226121,21.0561157537935,-7.13027828579874,-3.02133091312067,-12.6910865675864,12.7817664066489,6.38327535175496,-0.502993243064241,2.96118341327154,15.5404649544457,4.5725190195763,26.0846548585507,0.807906024227348,21.4106046002991,13.9452383521453,-30.4956435340385,10.4639111468933,1,1,1,1,1,1,1,1,1,1,1,1,1,1,1,1,1,1,1,1,1,1,1,1,1,1,1,1,1,1,1,1,1,1,1,1,1,1,1,1,1,1,1,1,1,1,1,1,1,1,1,1,1,1,1,1,1,1,1,1,1,1,1,1,1,1,1,1,1,1,1,1,1,1,1,1,1,1,1,1,1,1,1,1,1,1,1,1,1,1,1,1,1,1,1,1,1,1,1,1,1,1,1,1,1,1,1,1,1,1,1,1,1,1,1,1,1,1,1,1,1,1,1,1,1,1,1,1,1,1,1,1,1,1,1,1,1,1,1,1,1,1,1,1,1,1,1,1,1,1,1,1,1,1,1,1,1,1,1,1,1,1,1,1,1,1,1,1,1,1,1,1,1,1,1,1,1,1,1,1,1,1,1,1,1,1,1,1,1,1,1,1,1,1,1,1,1,1,1,1,1,1,1,1,1,1,1,1,1,1,1,1,1,1,1,1,1,1,1,1,1,1,1,1,1,1,1,1,1,1,1,1,1,1,1,1,1,1,1,1,1,1,1,1,1,1,1,1,1,1,1,1,1,1,1,1,1,1,1,1,1,1,1,1,1,1,1,1,1,1,51.8056526771133,-18.3139415679671,18.5094874808371,6.36409748789614,21.124167706434,32.0661779714524,-28.8265455356438,70.3726052986805,-1.39462145984245,-13.4063722467981,-90.5335935848517,33.7021637463565,3.39807870846695,-38.3475394097451,30.7670983031939,-46.9192345778164,-25.1171323565927,-9.37907358017185,-39.2625092293824,-47.9608914426618,-77.0104098615461,-13.5033298369144,31.474929384284,13.5121401704632,-44.2156026588026,44.8250935296763,18.6116568799854,42.3347739922385,49.8798573859282,26.730660483444,-45.5377402661947,-19.9205324799899,-7.03686350285392,10.351414212673,-17.2349190509507,0.317419824472895,-39.818818285299,0.706286625705335,31.2243225704227,1.55830766123937,14.6202131750121,17.2038365752124,-45.1733971977572,32.2698191028662,-37.0554026672283,1.24145424114164,6.67502231444176,-28.1358390086811,4.66427129555112,28.002214529816,8.22201017899026,53.3651091296612,29.1306862170075,-25.2616778667262,3.28716018781948,17.4160276145641,14.1202212166189,13.2351757699837,21.5284120016619,-11.2886175379302,-21.5521876450394,-35.1080518152162,33.5070558773934,-11.1747209629667,-41.2053022144634,-26.8270755177374,28.6347443479541,49.7945564439658,12.3116033558565,6.80391363404905,72.6201235306922,36.5568416144274,24.858983497847,4.47249097149924,38.0794319903358,-11.0554768760576,-29.0319520502374,31.7217534540043,-18.5492995299715,-3.89632460699222,42.7420934998662,3.38494930628838,-57.0780089380219,-13.8698401560555,13.0571292571222,2.50953969761504,27.1853178450974,4.46613143326741,8.2405175786421,-21.1626368019448,30.1957527248214,-3.85443136354857,-50.581606195459,-26.2274253051187,49.7858553568957,32.5081640631627,85.5692343758933,29.0707407143257,-4.34925707675571,-15.8596667945701,-2.98782610332891,56.6836414588811,0.939005992111548,22.6479751559135,-60.2833482677198,11.0809414328836,-24.596371286675,27.9852011304827,-59.3363096951408,9.87098184131763,-14.1532150267531,73.5694748310792,6.65114897186456,48.5437041777166,12.6085368039564,57.4963600574476,25.3607115585447,-10.9762321653128,24.9532970393923,36.6221916291945,13.1644045935508,-9.87267450344443,9.68581990788639,-5.07971048253498,-49.1409189898891,-12.9439800561977,35.9630353176124,1.68603676889028,7.28804925546974,97.3856158206854,-20.2995563123089,-61.3406378122373,89.5846772996076,27.2878694473556,-4.16725545282308,63.5191858369161,-27.5235458535885,18.8849765608322,3.51421508002883,76.2306966198408,33.5167713573664,39.2113083104134,15.8790859677007,-20.7801672202608,-38.6339111946105,5.84404211237319,-29.83066383899,-8.40386011314784,-14.1616653108096,51.1956581472254,6.24386789653447,11.2796510635044,7.67269204874174,-24.8625524019948,17.8924649353107,0.885905602530644,-21.2736140879338,13.3092850068852,-3.70097562887084,-43.8769498737684,-0.607809694377955,9.09330382118257,31.6879814255052,-18.0921142200651,9.39652465924629,8.49468175411818,26.6252820334613,12.5712018718347,-15.8615591530655,-15.3231929050378,-15.9249950422832,-11.4111695976593,-12.9172377926874,-60.43842299624,60.9123797357835,72.4295900957161,49.7735564782841,58.7511148665642,45.647999137287,16.4080983125004,5.25000387245394,-34.1138578070073,-21.7466612076663,11.7825344585296,59.2654355585086,40.1434268254071,-30.8116262238744,54.3669543931679,11.7147875898464,73.0929129556895,71.4206185545227,45.3949016109909,-21.8331909501688,-40.971629645805,-14.5565284636193,-40.7702027500476,42.8496099280799,-43.1721773889654,35.3960815323079,-44.6633318361619,-50.2861521248032,-40.0117649873512,0.327537450438072,37.3162390189379,27.5363331352877,-39.0254662782435,-42.3203911198197,-12.3690956446299,34.7440063775823,3.86065659678296,-3.40043886646868,26.4524980982479,27.2383168162236,8.11596561253669,20.7705685066387,53.5062466748111,26.3623045756929,7.12887941844402,25.5891389205757,32.9895460312785,41.6007781439962,-47.6428053277045,32.307078038117,15.4679971160568,25.2055348764326,-1.60900687369569,-48.4704541412873,32.0354058662933,-41.6114349857581,-52.4904973988566,32.1872199110337,-23.5642801386649,-40.096538300318,-26.5294245786083,16.8262126445017,41.0147994507241,76.2946667130099,-23.6871451514575,-2.56573561026395,-10.0262743502721,19.6497759463496,41.7771994472056,46.6288256685395,36.5789472365173,-3.25636400806974,-24.8286284066952,16.0919528758637,-6.22746015255269,31.9294176501,-40.3602518329635,-0.517428142718393,20.4765513368333,9.42982067703115,1.07992525300015,-4.1892210286786,25.5003369546853,13.7185859276986,71.3668178014623,12.268068648452,-2.49923100204327,21.6453185285896,10.8355652226567,-4.83382663394589,-6.91246723412455,1.72244646973795,65.5473301290152,-14.412746931244,19.7141926773096,43.9585248060246,-31.9945701753073,-4.00642170828757,18.480916091664,1,1,1,1,1,1,1,1,1,1,1,1,1,1,1,1,1,1,1,1,1,1,1,1,1,1,1,1,1,1,1,1,1,1,1,1,1,1,1,1,1,1,1,1,1,1,1,1,1,1,1,1,1,1,1,1,1,1,1,1,1,1,1,1,1,1,1,1,1,1,1,1,1,1,1,1,1,1,1,1,1,1,1,1,1,1,1,1,1,1,1,1,1,1,1,1,1,1,1,1,1,1,1,1,1,1,1,1,1,1,1,1,1,1,1,1,1,1,1,1,1,1,1,1,1,1,1,1,1,1,1,1,1,1,1,1,1,1,1,1,1,1,1,1,1,1,1,1,1,1,1,1,1,1,1,1,1,1,1,1,1,1,1,1,1,1,1,1,1,1,1,1,1,1,1,1,1,1,1,1,1,1,1,1,1,1,1,1,1,1,1,1,1,1,1,1,1,1,1,1,1,1,1,1,1,1,1,1,1,1,1,1,1,1,1,1,1,1,1,1,1,1,1,1,1,1,1,1,1,1,1,1,1,1,1,1,1,1,1,1,1,1,1,1,1,1,1,1,1,1,1,1,1,1,1,1,1,1,1,1,1,1,1,1,1,1,1,1,1,1,-3.84031528955247,-4.94584882598175,5.16680328184984,-5.58929723914824,19.207998751932,7.89246413210224,-6.16714773973117,2.85585419541746,9.33939561238416,-26.6498841920195,-4.11087429092193,9.43548186618204,4.33145945810976,1.61352175566177,-13.7893423106979,4.73584866967953,9.74861430624862,7.64958477053163,-3.28521683741549,0.010579049085544,9.49744131705454,-5.25276103437123,0.30990109663968,4.11591004813427,3.99880126695971,4.27635204573659,-1.31416858491281,-0.647844542495938,2.06817018563136,3.59519840155027,9.40683028371298,7.89718310434617,4.03976178130193,-11.8746957969161,8.24002195903029,-20.9758593206328,3.77291284558974,4.47181077721281,2.57974921905033,-8.37123031430968,-0.85756054828115,6.69131667442713,16.1978439619652,1.13446768382909,-5.29104988753296,8.1464798295646,7.30504487750808,6.60145359799471,-6.08561803096021,-13.3841468663626,-1.8986486184158,-9.33361767765161,13.8841452279453,-8.91279661407745,8.5723790824404,-9.49114499339145,6.22621624661481,21.7769213765343,2.45369653784094,15.7846704085268,3.84540339346274,-16.6375938510967,12.8065586199391,0.528126221761931,22.0858737255093,-16.6247755248043,-23.2175033960117,4.15120242265654,-12.9663460158368,3.24751001580081,-4.56303197479382,0.789553968248995,-11.3869849936736,10.9760105961201,10.0667199947482,20.3492221490518,-1.18990007655739,-5.06832937318011,3.03561358075633,-6.67288360184059,-20.3185370739654,4.32390609041396,7.48656117100814,-3.75327088461328,-0.532364232840011,9.04054305520375,17.1168624866236,-10.6503618515204,-4.87198564567949,12.3103689942428,-11.8617047157438,13.1183679651428,-6.35773222097991,2.23312266700228,-0.747408554314818,6.24725656382402,-7.0438861270647,-11.1300406281023,6.27957454297938,3.34050562383409,10.2134604732949,2.05034105542245,0.883302597832068,29.9021982499939,-3.71003701715517,-0.532660800389837,-19.1247001968153,-6.69823472886586,13.0620699703445,0.318987702577133,15.0150002881832,-9.81183185649975,-1.13390423450862,-14.5918037286555,6.32610753142945,-1.04819648534341,-1.73898248011507,11.8322160090752,-1.85841797427116,-4.18762084053124,-19.0403447912542,-4.38795970454074,-9.46486588790201,-5.98352741889046,-17.3445091274956,17.762802852367,7.28436040429338,0.727232299933789,4.93870555382976,-17.2562803154751,18.4221906156807,-10.9351422257405,-4.47305601924517,7.39916329758551,13.2266830000679,10.0854277872879,-3.83458609555653,20.1036519574162,-0.850697206674901,-2.22760139314274,-9.13890625057066,-15.0424111292416,15.2019354077176,2.00477678714835,2.30249997387844,-3.88955117365741,4.67871227559381,-9.71583302662878,4.78986541683919,-9.93710958891372,-7.77011197968574,9.11290085658098,-5.44175947363734,-22.3343311629153,-5.37446160611483,8.38675376113728,-3.76283044204215,-1.21011801766894,-13.1212062152348,-1.60717752744354,22.3766124418872,-14.8781161354518,-0.7691102465788,15.4404021279779,-5.03271755502862,-0.322281294770097,14.6508557702781,-7.29645350770577,2.97952836978885,13.2389553160781,16.6001488458527,14.3403561470793,-4.81440183247184,13.7765968709603,27.2358475270803,4.0622193197616,-11.437699574192,-2.02501709383391,-4.74463658370624,-12.0739195643535,8.69734187559165,3.11283908006107,9.00904298911635,-2.94378537523718,8.23729326400745,-6.32270101706569,10.7530663200756,-2.18478941595379,-11.3344225504832,9.54012809429577,10.3786810000321,-0.695905073899564,-0.776670707850975,-1.51847144799597,6.12950171617181,5.17210354351453,2.1929641382062,6.56048559589734,9.29378531331648,5.98404779857975,1.31183865829539,4.44346576048206,4.71363105608807,5.43793350609764,8.56388112513484,2.61370648246281,-4.56046733767444,-6.02901101374597,0.13606648765471,0.828620580832071,3.99888037541671,2.34114644142332,-3.4673788358143,0.866287346142453,4.48742860154579,3.61351240871671,-6.20707434724666,-5.75729813543154,0.636566207188449,6.08620598535409,16.5594417137443,7.18147536275022,-4.17727673392405,1.06361519094011,-1.22362149329181,2.7527531665919,-1.0787988734939,-1.02365412920166,-15.5886108381361,2.29347928889221,2.22383353691433,-9.70680270965915,-12.0730258484598,16.0052927887092,24.1045548331782,24.9264068826057,4.83162607130823,4.67464787393133,2.08388041973419,-4.78258914637437,4.40004240861539,-2.18156341769566,-4.30760922097766,6.90803321988799,-3.60735887437881,6.08575633000692,-5.56735157893194,9.45725356850474,4.58495950073352,-13.4853751020177,14.8413286139315,-3.11410140651682,13.8821937415243,21.6642147226121,21.0561157537935,-7.13027828579874,-3.02133091312067,-12.6910865675864,12.7817664066489,6.38327535175496,-0.502993243064241,2.96118341327154,15.5404649544457,4.5725190195763,26.0846548585507,0.807906024227348,21.4106046002991,13.9452383521453,-30.4956435340385,10.4639111468933,1,1,1,1,1,1,1,1,1,1,1,1,1,1,1,1,1,1,1,1,1,1,1,1,1,1,1,1,1,1,1,1,1,1,1,1,1,1,1,1,1,1,1,1,1,1,1,1,1,1,1,1,1,1,1,1,1,1,1,1,1,1,1,1,1,1,1,1,1,1,1,1,1,1,1,1,1,1,1,1,1,1,1,1,1,1,1,1,1,1,1,1,1,1,1,1,1,1,1,1,1,1,1,1,1,1,1,1,1,1,1,1,1,1,1,1,1,1,1,1,1,1,1,1,1,1,1,1,1,1,1,1,1,1,1,1,1,1,1,1,1,1,1,1,1,1,1,1,1,1,1,1,1,1,1,1,1,1,1,1,1,1,1,1,1,1,1,1,1,1,1,1,1,1,1,1,1,1,1,1,1,1,1,1,1,1,1,1,1,1,1,1,1,1,1,1,1,1,1,1,1,1,1,1,1,1,1,1,1,1,1,1,1,1,1,1,1,1,1,1,1,1,1,1,1,1,1,1,1,1,1,1,1,1,1,1,1,1,1,1,1,1,1,1,1,1,1,1,1,1,1,1,1,1,1,1,1,1,1,1,1,1,1,1,1,1,1,1,1,1
