290.398168805706,-108.767554213185,-82.3993221453388,-125.818860717329,56.5665071427583,54.322451619801,31.9024767267877,10.3781158099015,-33.943158668277,-1.18181931961804,21.1323859379995,-0.0670674141438048,71.2458254416113,-21.9387386540443,-50.2533566940297,-67.9555025647568,12.6986728345672,-0.92655135905409,-24.4364724277927,11.792350714889,-51.9458944325067,-34.6652798010565,-5.98868500006551,-28.0408384967086,-33.2951257033504,-34.8837928997613,16.8524013735991,52.793764410057,7.66743710339899,-35.0586742398626,18.0536138961207,42.5693549784933,55.711724425946,-0.375917770736518,24.5292332602445,-22.8449317902396,-24.3294504452899,24.1046223110399,-32.2691673360135,-11.6995280662254,7.94888664196547,-51.0802394979456,12.762016794533,12.0588626761217,-4.30984058085993,5.36216543434202,-38.9005266375384,-32.6644823298427,7.92805494925893,-29.2314059394479,15.9909069365699,27.3934947860612,-6.43711154084036,33.2690134149802,44.9764224831779,8.69601041149639,-0.816300089945619,13.7617523273682,-31.7720615152696,12.1291871801645,39.3606302355263,-12.8471483142642,16.0819137405522,10.5185483495793,-18.1943927182821,-25.1454743771932,3.67739080212018,20.0470796307921,46.1372968771163,-19.1517220374541,5.76376216988646,51.7604908328489,12.9015434179376,-1.92451622089084,-13.5561272836783,22.8981060713588,48.3460228156287,14.3110240702096,15.4119727958354,11.731868190102,-4.85294189707876,-14.2575773371506,44.9457743338625,-36.857643748771,3.73392754174218,64.9218927232871,3.51037093166879,-64.0033360511814,-42.6055327979691,-0.3581252785672,-24.904748612293,13.5630806626545,-22.4866730398492,-11.3725891093841,13.8880276423422,36.4880240167928,6.73268217749098,-32.9896219560205,-2.01155796614942,48.7563490942387,10.624977336696,63.6450307036466,37.0692486443538,8.00280091293397,-44.4403227906011,43.2450577480965,35.8330144490123,5.29963023688142,12.9431742215427,-73.502584388303,33.1630173043945,-42.5604405697355,18.3798402446905,-73.520116912595,24.9470146391935,-1.28197633841176,64.2778526650162,9.00460911167985,46.5293331118213,16.706792349696,69.2244554826197,6.66957962716567,17.6396670514336,31.9434650723532,-0.0669096997676779,5.7326095746267,-19.0552049978436,-26.4460091017927,3.81996218573912,-52.4902637956715,2.05943617381792,89.2468166835591,-30.2478329158101,3.21676559837631,96.8479085533177,-23.949187299131,-38.0190046977791,53.2166786327603,40.9906273870538,5.57550364317359,26.5784845663954,-36.8664548380657,-9.7387450005751,17.5306163143842,70.2345260421758,19.4536543751498,56.3829975451039,8.38462273300091,-29.884016885179,13.8735567086083,6.55643337178064,-0.633360942218081,-14.1721467752803,4.35387378053144,31.3066531613345,-4.26532166480272,11.3733125812787,16.2837183600928,6.40290918503917,14.6286733909113,0.527734948005234,9.5880880359911,18.3134983278013,-0.743084079458891,-29.1984469360359,-39.7936815325369,-8.94945612910119,16.533908947505,-18.3659046833118,42.6501209933245,15.0646886440159,17.2863230783804,-9.33921940779003,-47.7055070446629,0.935252438839118,-15.4770146312658,8.11374723807753,-4.46301488272995,-35.7199927876019,54.8758456623347,57.2702638629976,42.7006898256387,36.2946449222047,58.046036188076,-21.1897378168737,-13.1713954766891,6.73626268405254,-23.0371691793173,25.9674166951171,34.7397424329658,45.952232017075,-20.9818213671624,20.8344179322378,30.5518871265763,55.6542270707977,60.3881494704234,40.0227383058991,17.86283435173,-20.9255893252013,-21.149659956996,-18.8156381231989,60.6329171294439,-39.8419622860514,22.7678710786233,-44.9363192027219,-49.9683794999451,-39.0058968525928,28.9908688285212,15.8470804812785,25.6517052092846,-41.6934508093429,-33.8831109768241,-23.9004713565034,31.823220550673,15.928658664272,-9.10138336294346,36.5836565676784,-21.3597089935157,8.67254794703651,14.4807305324848,0.60565676651432,-6.35233672627088,-6.40404125418558,-16.1828313724126,5.92752910856435,51.8854432412713,17.151661208416,16.7167930393216,6.91063986443748,5.14545903760854,12.3763620752092,-18.7903690192817,25.8652587116589,-26.5132163537559,4.68530450925057,53.2974570037559,-7.03115432869373,-62.6973516728322,-33.9930837875008,1.53007861791453,27.0539924916135,42.3732067553064,-48.4697722534408,-18.7187065602019,-26.907240428531,19.3738632805064,28.2592830614514,24.2928910281978,49.1358012089207,-7.40780731121434,-13.1435759939837,11.2566018590197,12.8517903538305,49.5393829007874,-3.02144446990588,23.2544385590793,-11.7934342832332,36.2811658644357,-7.76987344455449,2.42633907437978,31.7649814505033,3.03618438311105,68.5583800192125,10.2524490895911,-6.1756282374171,-1.80352704313666,17.6954508651776,-12.4481209734652,-20.1322903535621,-2.43019051598709,7.51960049094752,1.24374456800621,29.4274370211484,36.6054889375609,10.7013829418781,1,1,1,1,1,1,1,1,1,1,1,1,1,1,1,1,1,1,1,1,1,1,1,1,1,1,1,1,1,1,1,1,1,1,1,1,1,1,1,1,1,1,1,1,1,1,1,1,1,1,1,1,1,1,1,1,1,1,1,1,1,1,1,1,1,1,1,1,1,1,1,1,1,1,1,1,1,1,1,1,1,1,1,1,1,1,1,1,1,1,1,1,1,1,1,1,1,1,1,1,1,1,1,1,1,1,1,1,1,1,1,1,1,1,1,1,1,1,1,1,1,1,1,1,1,1,1,1,1,1,1,1,1,1,1,1,1,1,1,1,1,1,1,1,1,1,1,1,1,1,1,1,1,1,1,1,1,1,1,1,1,1,1,1,1,1,1,1,1,1,1,1,1,1,1,1,1,1,1,1,1,1,1,1,1,1,1,1,1,1,1,1,1,1,1,1,1,1,1,1,1,1,1,1,1,1,1,1,1,1,1,1,1,1,1,1,1,1,1,1,1,1,1,1,1,1,1,1,1,1,1,1,1,1,1,1,1,1,1,1,1,1,1,1,1,1,1,1,1,1,1,1,1,1,1,1,1,1,1,1,1,1,1,1,1,1,1,1,1,1,-6.4931546548353,-4.79441392751249,2.19867661346179,36.0927305392043,-55.3591364076636,-36.0821910396845,9.71482748777186,3.35838066850437,37.5223889206802,-46.6801831277798,29.4003248480605,2.71867804398651,-8.21057970829161,-56.6950865081786,-41.0357780795194,44.0193528336466,7.16275449210952,-11.765827537573,4.7832329452762,-10.5449692378753,-5.28870330659436,-29.6785612516663,38.8225675392338,44.9967338215088,-25.80495986786,11.2884550879373,-11.6675721943848,5.94967193372437,-17.5327255666533,-11.2875581048161,-6.9828677490814,0.314450932072183,-5.26878609281715,6.23132469656487,3.87534655663142,9.72764730931292,27.1784856479352,-23.4584802909455,-0.999912427092829,-17.4166978104241,9.45425738586621,-1.85476167011444,55.3854333201877,-19.1189659488029,-72.2035121577056,-30.4730136283172,19.5991129471045,40.8686956913322,-13.4924718195491,38.2727664003275,17.9073598568177,24.5582317392148,-38.7975484071612,-16.2060111544502,69.4669846343181,30.2900119363619,45.6754044859865,-3.99020976146451,-31.1969785214718,-35.2971357423199,-6.60172409637171,2.23787022362488,36.9331758495676,-42.6207097499756,61.6526753056294,-14.0242416081589,34.1147725960795,4.96028460717959,-43.2313315089207,7.81118509489772,-34.5945923913509,43.7308979773824,-0.202233674587309,33.1099399651254,35.2089511674537,6.13839817174589,-8.06756655451181,63.2354807420995,20.0506281681953,34.6887744784473,24.6500803827472,-13.8565928149801,30.9196896538221,-22.3825128099771,6.3896710125495,-15.5416878088261,-12.0869064492321,22.6077184528146,36.8983662276569,14.7472528632641,-36.4717758838089,-29.3511542834512,3.7173089035791,-32.0426443298491,-23.9810464428504,32.680423038843,0.859196945106491,-26.5328954575452,-12.3602831095466,-33.4612672713331,-10.6394030030958,8.50720104904847,15.3700135743031,18.7363372442132,10.5735433661577,-6.32301798027317,-28.3231087021038,3.86582955922524,24.9425933977139,-23.0170187018783,-27.9818419955177,-29.6885776810653,-8.38237808080256,-6.15180574541671,40.4929986474207,-40.12845476669,63.7966484137447,58.7030538459458,-21.8714016743346,7.78819760529248,-0.666574304142388,-9.8395971244472,15.0689046786414,-14.4576712201948,64.7941409298791,39.1188441903472,-3.85674473766819,17.4746508158655,-26.5282213011509,-36.3985071366198,-1.98396492576448,8.05859837612321,-25.439811708044,3.90524025844981,-42.7041902262419,51.538715981638,53.9974908933383,24.9700450491896,-8.34249042411348,-22.8530844413408,-10.9627669321958,30.2066492735087,17.1405653965392,-22.3238257258199,-46.3743932891367,10.1462103396303,57.8061061880011,-54.2305046163107,-37.9278329897154,-18.3380381386598,23.1306035146329,-13.5861861499854,-2.74685032247807,30.6844184922671,-48.8281825972687,-7.81735932514115,58.652374559228,15.3668586237432,-4.75224073176596,-6.39549156818592,34.0290462881748,-3.63723933001948,-19.7698772497528,19.7764103502535,-87.5819182865094,4.3442303535186,-44.7368034477355,-29.6222198876814,6.09223861792612,24.2168811380057,1.38312149292808,15.0017159251392,-51.6217660928495,2.59204317025083,14.2415304202988,-25.4111325318483,-52.966761309967,26.8475670831324,-9.27070471097993,0.104948474227645,45.5019182925457,-9.23312472561496,-30.329507853484,24.8100582643179,39.2832209621875,8.70159488767445,-26.634341985173,-32.775649803509,17.0819444764147,37.2739545822894,-20.412061476196,-7.96859258658605,-13.4017716308506,8.22450701853694,-2.17812134389797,0.693777511147883,47.0293282643401,6.53981575925029,-37.5288220043669,15.9584847210719,-34.1907946984061,-32.4419828359858,-12.2941987672398,-28.6728384873721,1.71736128336811,13.8363829283689,23.0101723112018,10.3862072314865,-40.5740968892097,-0.960519811164352,-30.0645671073103,-41.4149532241415,-56.5256831204704,-15.9386182454957,-50.0389476502457,4.19152529700319,17.649184292305,-10.2024610400341,-44.4933843802899,-9.14523007484681,34.2874456164892,14.7597897140496,63.1126686097013,-35.4288200254487,20.1228975414477,-15.4050456968578,-5.43232883466403,29.3175491861812,-6.34700167745541,69.2572187516702,-68.8889319636092,2.55952382216185,-4.87590240412271,11.6002466736011,63.7869628023779,31.4202476132335,5.74802105754559,-2.27177970583948,-2.7237576241375,-5.85610689445147,-22.2044092037057,23.3177279399119,-49.1319172267348,6.10405967472057,9.42978990636573,14.52766338786,-40.9547941944,-53.917076433732,-21.7406612307494,-4.2417157238174,-17.0936398876084,4.69103046213779,-49.9303363387597,-7.6570739458955,18.4684392648442,45.1505846994467,-26.8819231589134,12.4137104019797,-36.9790972194781,-0.608444879368961,-51.4025935434438,53.0842699175382,-5.00632148560317,44.9912198571588,13.2249007495902,-13.4730272130383,66.2452816139481,-19.9725558811066,43.8937277035368,-10.9362753067198,1,1,1,1,1,1,1,1,1,1,1,1,1,1,1,1,1,1,1,1,1,1,1,1,1,1,1,1,1,1,1,1,1,1,1,1,1,1,1,1,1,1,1,1,1,1,1,1,1,1,1,1,1,1,1,1,1,1,1,1,1,1,1,1,1,1,1,1,1,1,1,1,1,1,1,1,1,1,1,1,1,1,1,1,1,1,1,1,1,1,1,1,1,1,1,1,1,1,1,1,1,1,1,1,1,1,1,1,1,1,1,1,1,1,1,1,1,1,1,1,1,1,1,1,1,1,1,1,1,1,1,1,1,1,1,1,1,1,1,1,1,1,1,1,1,1,1,1,1,1,1,1,1,1,1,1,1,1,1,1,1,1,1,1,1,1,1,1,1,1,1,1,1,1,1,1,1,1,1,1,1,1,1,1,1,1,1,1,1,1,1,1,1,1,1,1,1,1,1,1,1,1,1,1,1,1,1,1,1,1,1,1,1,1,1,1,1,1,1,1,1,1,1,1,1,1,1,1,1,1,1,1,1,1,1,1,1,1,1,1,1,1,1,1,1,1,1,1,1,1,1,1,1,1,1,1,1,1,1,1,1,1,1,1,1,1,1,1,1,1,11.5678289902123,-70.2040304727757,54.322451619801,31.9024767267877,10.3781158099015,-33.943158668277,-1.18181931961804,21.1323859379995,-0.0670674141438048,71.2458254416113,-21.9387386540443,-50.2533566940297,-67.9555025647568,12.6986728345672,-0.92655135905409,-24.4364724277927,11.792350714889,-51.9458944325067,-34.6652798010565,-5.98868500006551,-28.0408384967086,-33.2951257033504,-34.8837928997613,16.8524013735991,52.793764410057,7.66743710339899,-35.0586742398626,18.0536138961207,42.5693549784933,55.711724425946,-0.375917770736518,24.5292332602445,-22.8449317902396,-24.3294504452899,24.1046223110399,-32.2691673360135,-11.6995280662254,7.94888664196547,-51.0802394979456,12.762016794533,12.0588626761217,-4.30984058085993,5.36216543434202,-38.9005266375384,-32.6644823298427,7.92805494925893,-29.2314059394479,15.9909069365699,27.3934947860612,-6.43711154084036,33.2690134149802,44.9764224831779,8.69601041149639,-0.816300089945619,13.7617523273682,-31.7720615152696,12.1291871801645,39.3606302355263,-12.8471483142642,16.0819137405522,10.5185483495793,-18.1943927182821,-25.1454743771932,3.67739080212018,20.0470796307921,46.1372968771163,-19.1517220374541,5.76376216988646,51.7604908328489,12.9015434179376,-1.92451622089084,-13.5561272836783,22.8981060713588,48.3460228156287,14.3110240702096,15.4119727958354,11.731868190102,-4.85294189707876,-14.2575773371506,44.9457743338625,-36.857643748771,3.73392754174218,64.9218927232871,3.51037093166879,-64.0033360511814,-42.6055327979691,-0.3581252785672,-24.904748612293,13.5630806626545,-22.4866730398492,-11.3725891093841,13.8880276423422,36.4880240167928,6.73268217749098,-32.9896219560205,-2.01155796614942,48.7563490942387,10.624977336696,63.6450307036466,37.0692486443538,8.00280091293397,-44.4403227906011,43.2450577480965,35.8330144490123,5.29963023688142,12.9431742215427,-73.502584388303,33.1630173043945,-42.5604405697355,18.3798402446905,-73.520116912595,24.9470146391935,-1.28197633841176,64.2778526650162,9.00460911167985,46.5293331118213,16.706792349696,69.2244554826197,6.66957962716567,17.6396670514336,31.9434650723532,-0.0669096997676779,5.7326095746267,-19.0552049978436,-26.4460091017927,3.81996218573912,-52.4902637956715,2.05943617381792,89.2468166835591,-30.2478329158101,3.21676559837631,96.8479085533177,-23.949187299131,-38.0190046977791,53.2166786327603,40.9906273870538,5.57550364317359,26.5784845663954,-36.8664548380657,-9.7387450005751,17.5306163143842,70.2345260421758,19.4536543751498,56.3829975451039,8.38462273300091,-29.884016885179,13.8735567086083,6.55643337178064,-0.633360942218081,-14.1721467752803,4.35387378053144,31.3066531613345,-4.26532166480272,11.3733125812787,16.2837183600928,6.40290918503917,14.6286733909113,0.527734948005234,9.5880880359911,18.3134983278013,-0.743084079458891,-29.1984469360359,-39.7936815325369,-8.94945612910119,16.533908947505,-18.3659046833118,42.6501209933245,15.0646886440159,17.2863230783804,-9.33921940779003,-47.7055070446629,0.935252438839118,-15.4770146312658,8.11374723807753,-4.46301488272995,-35.7199927876019,54.8758456623347,57.2702638629976,42.7006898256387,36.2946449222047,58.046036188076,-21.1897378168737,-13.1713954766891,6.73626268405254,-23.0371691793173,25.9674166951171,34.7397424329658,45.952232017075,-20.9818213671624,20.8344179322378,30.5518871265763,55.6542270707977,60.3881494704234,40.0227383058991,17.86283435173,-20.9255893252013,-21.149659956996,-18.8156381231989,60.6329171294439,-39.8419622860514,22.7678710786233,-44.9363192027219,-49.9683794999451,-39.0058968525928,28.9908688285212,15.8470804812785,25.6517052092846,-41.6934508093429,-33.8831109768241,-23.9004713565034,31.823220550673,15.928658664272,-9.10138336294346,36.5836565676784,-21.3597089935157,8.67254794703651,14.4807305324848,0.60565676651432,-6.35233672627088,-6.40404125418558,-16.1828313724126,5.92752910856435,51.8854432412713,17.151661208416,16.7167930393216,6.91063986443748,5.14545903760854,12.3763620752092,-18.7903690192817,25.8652587116589,-26.5132163537559,4.68530450925057,53.2974570037559,-7.03115432869373,-62.6973516728322,-33.9930837875008,1.53007861791453,27.0539924916135,42.3732067553064,-48.4697722534408,-18.7187065602019,-26.907240428531,19.3738632805064,28.2592830614514,24.2928910281978,49.1358012089207,-7.40780731121434,-13.1435759939837,11.2566018590197,12.8517903538305,49.5393829007874,-3.02144446990588,23.2544385590793,-11.7934342832332,36.2811658644357,-7.76987344455449,2.42633907437978,31.7649814505033,3.03618438311105,68.5583800192125,10.2524490895911,-6.1756282374171,-1.80352704313666,17.6954508651776,-12.4481209734652,-20.1322903535621,-2.43019051598709,7.51960049094752,1.24374456800621,29.4274370211484,36.6054889375609,10.7013829418781,1,1,1,1,1,1,1,1,1,1,1,1,1,1,1,1,1,1,1,1,1,1,1,1,1,1,1,1,1,1,1,1,1,1,1,1,1,1,1,1,1,1,1,1,1,1,1,1,1,1,1,1,1,1,1,1,1,1,1,1,1,1,1,1,1,1,1,1,1,1,1,1,1,1,1,1,1,1,1,1,1,1,1,1,1,1,1,1,1,1,1,1,1,1,1,1,1,1,1,1,1,1,1,1,1,1,1,1,1,1,1,1,1,1,1,1,1,1,1,1,1,1,1,1,1,1,1,1,1,1,1,1,1,1,1,1,1,1,1,1,1,1,1,1,1,1,1,1,1,1,1,1,1,1,1,1,1,1,1,1,1,1,1,1,1,1,1,1,1,1,1,1,1,1,1,1,1,1,1,1,1,1,1,1,1,1,1,1,1,1,1,1,1,1,1,1,1,1,1,1,1,1,1,1,1,1,1,1,1,1,1,1,1,1,1,1,1,1,1,1,1,1,1,1,1,1,1,1,1,1,1,1,1,1,1,1,1,1,1,1,1,1,1,1,1,1,1,1,1,1,1,1,1,1,1,1,1,1,1,1,1,1,1,1,1,1,1,1,1,1,-6.4931546548353,-4.79441392751249,2.19867661346179,36.0927305392043,-55.3591364076636,-36.0821910396845,9.71482748777186,3.35838066850437,37.5223889206802,-46.6801831277798,29.4003248480605,2.71867804398651,-8.21057970829161,-56.6950865081786,-41.0357780795194,44.0193528336466,7.16275449210952,-11.765827537573,4.7832329452762,-10.5449692378753,-5.28870330659436,-29.6785612516663,38.8225675392338,44.9967338215088,-25.80495986786,11.2884550879373,-11.6675721943848,5.94967193372437,-17.5327255666533,-11.2875581048161,-6.9828677490814,0.314450932072183,-5.26878609281715,6.23132469656487,3.87534655663142,9.72764730931292,27.1784856479352,-23.4584802909455,-0.999912427092829,-17.4166978104241,9.45425738586621,-1.85476167011444,55.3854333201877,-19.1189659488029,-72.2035121577056,-30.4730136283172,19.5991129471045,40.8686956913322,-13.4924718195491,38.2727664003275,17.9073598568177,24.5582317392148,-38.7975484071612,-16.2060111544502,69.4669846343181,30.2900119363619,45.6754044859865,-3.99020976146451,-31.1969785214718,-35.2971357423199,-6.60172409637171,2.23787022362488,36.9331758495676,-42.6207097499756,61.6526753056294,-14.0242416081589,34.1147725960795,4.96028460717959,-43.2313315089207,7.81118509489772,-34.5945923913509,43.7308979773824,-0.202233674587309,33.1099399651254,35.2089511674537,6.13839817174589,-8.06756655451181,63.2354807420995,20.0506281681953,34.6887744784473,24.6500803827472,-13.8565928149801,30.9196896538221,-22.3825128099771,6.3896710125495,-15.5416878088261,-12.0869064492321,22.6077184528146,36.8983662276569,14.7472528632641,-36.4717758838089,-29.3511542834512,3.7173089035791,-32.0426443298491,-23.9810464428504,32.680423038843,0.859196945106491,-26.5328954575452,-12.3602831095466,-33.4612672713331,-10.6394030030958,8.50720104904847,15.3700135743031,18.7363372442132,10.5735433661577,-6.32301798027317,-28.3231087021038,3.86582955922524,24.9425933977139,-23.0170187018783,-27.9818419955177,-29.6885776810653,-8.38237808080256,-6.15180574541671,40.4929986474207,-40.12845476669,63.7966484137447,58.7030538459458,-21.8714016743346,7.78819760529248,-0.666574304142388,-9.8395971244472,15.0689046786414,-14.4576712201948,64.7941409298791,39.1188441903472,-3.85674473766819,17.4746508158655,-26.5282213011509,-36.3985071366198,-1.98396492576448,8.05859837612321,-25.439811708044,3.90524025844981,-42.7041902262419,51.538715981638,53.9974908933383,24.9700450491896,-8.34249042411348,-22.8530844413408,-10.9627669321958,30.2066492735087,17.1405653965392,-22.3238257258199,-46.3743932891367,10.1462103396303,57.8061061880011,-54.2305046163107,-37.9278329897154,-18.3380381386598,23.1306035146329,-13.5861861499854,-2.74685032247807,30.6844184922671,-48.8281825972687,-7.81735932514115,58.652374559228,15.3668586237432,-4.75224073176596,-6.39549156818592,34.0290462881748,-3.63723933001948,-19.7698772497528,19.7764103502535,-87.5819182865094,4.3442303535186,-44.7368034477355,-29.6222198876814,6.09223861792612,24.2168811380057,1.38312149292808,15.0017159251392,-51.6217660928495,2.59204317025083,14.2415304202988,-25.4111325318483,-52.966761309967,26.8475670831324,-9.27070471097993,0.104948474227645,45.5019182925457,-9.23312472561496,-30.329507853484,24.8100582643179,39.2832209621875,8.70159488767445,-26.634341985173,-32.775649803509,17.0819444764147,37.2739545822894,-20.412061476196,-7.96859258658605,-13.4017716308506,8.22450701853694,-2.17812134389797,0.693777511147883,47.0293282643401,6.53981575925029,-37.5288220043669,15.9584847210719,-34.1907946984061,-32.4419828359858,-12.2941987672398,-28.6728384873721,1.71736128336811,13.8363829283689,23.0101723112018,10.3862072314865,-40.5740968892097,-0.960519811164352,-30.0645671073103,-41.4149532241415,-56.5256831204704,-15.9386182454957,-50.0389476502457,4.19152529700319,17.649184292305,-10.2024610400341,-44.4933843802899,-9.14523007484681,34.2874456164892,14.7597897140496,63.1126686097013,-35.4288200254487,20.1228975414477,-15.4050456968578,-5.43232883466403,29.3175491861812,-6.34700167745541,69.2572187516702,-68.8889319636092,2.55952382216185,-4.87590240412271,11.6002466736011,63.7869628023779,31.4202476132335,5.74802105754559,-2.27177970583948,-2.7237576241375,-5.85610689445147,-22.2044092037057,23.3177279399119,-49.1319172267348,6.10405967472057,9.42978990636573,14.52766338786,-40.9547941944,-53.917076433732,-21.7406612307494,-4.2417157238174,-17.0936398876084,4.69103046213779,-49.9303363387597,-7.6570739458955,18.4684392648442,45.1505846994467,-26.8819231589134,12.4137104019797,-36.9790972194781,-0.608444879368961,-51.4025935434438,53.0842699175382,-5.00632148560317,44.9912198571588,13.2249007495902,-13.4730272130383,66.2452816139481,-19.9725558811066,43.8937277035368,-10.9362753067198,1,1,1,1,1,1,1,1,1,1,1,1,1,1,1,1,1,1,1,1,1,1,1,1,1,1,1,1,1,1,1,1,1,1,1,1,1,1,1,1,1,1,1,1,1,1,1,1,1,1,1,1,1,1,1,1,1,1,1,1,1,1,1,1,1,1,1,1,1,1,1,1,1,1,1,1,1,1,1,1,1,1,1,1,1,1,1,1,1,1,1,1,1,1,1,1,1,1,1,1,1,1,1,1,1,1,1,1,1,1,1,1,1,1,1,1,1,1,1,1,1,1,1,1,1,1,1,1,1,1,1,1,1,1,1,1,1,1,1,1,1,1,1,1,1,1,1,1,1,1,1,1,1,1,1,1,1,1,1,1,1,1,1,1,1,1,1,1,1,1,1,1,1,1,1,1,1,1,1,1,1,1,1,1,1,1,1,1,1,1,1,1,1,1,1,1,1,1,1,1,1,1,1,1,1,1,1,1,1,1,1,1,1,1,1,1,1,1,1,1,1,1,1,1,1,1,1,1,1,1,1,1,1,1,1,1,1,1,1,1,1,1,1,1,1,1,1,1,1,1,1,1,1,1,1,1,1,1,1,1,1,1,1,1,1,1,1,1,1,1,-98.6297677991415,-17.1264217557424,54.322451619801,31.9024767267877,10.3781158099015,-33.943158668277,-1.18181931961804,21.1323859379995,-0.0670674141438048,71.2458254416113,-21.9387386540443,-50.2533566940297,-67.9555025647568,12.6986728345672,-0.92655135905409,-24.4364724277927,11.792350714889,-51.9458944325067,-34.6652798010565,-5.98868500006551,-28.0408384967086,-33.2951257033504,-34.8837928997613,16.8524013735991,52.793764410057,7.66743710339899,-35.0586742398626,18.0536138961207,42.5693549784933,55.711724425946,-0.375917770736518,24.5292332602445,-22.8449317902396,-24.3294504452899,24.1046223110399,-32.2691673360135,-11.6995280662254,7.94888664196547,-51.0802394979456,12.762016794533,12.0588626761217,-4.30984058085993,5.36216543434202,-38.9005266375384,-32.6644823298427,7.92805494925893,-29.2314059394479,15.9909069365699,27.3934947860612,-6.43711154084036,33.2690134149802,44.9764224831779,8.69601041149639,-0.816300089945619,13.7617523273682,-31.7720615152696,12.1291871801645,39.3606302355263,-12.8471483142642,16.0819137405522,10.5185483495793,-18.1943927182821,-25.1454743771932,3.67739080212018,20.0470796307921,46.1372968771163,-19.1517220374541,5.76376216988646,51.7604908328489,12.9015434179376,-1.92451622089084,-13.5561272836783,22.8981060713588,48.3460228156287,14.3110240702096,15.4119727958354,11.731868190102,-4.85294189707876,-14.2575773371506,44.9457743338625,-36.857643748771,3.73392754174218,64.9218927232871,3.51037093166879,-64.0033360511814,-42.6055327979691,-0.3581252785672,-24.904748612293,13.5630806626545,-22.4866730398492,-11.3725891093841,13.8880276423422,36.4880240167928,6.73268217749098,-32.9896219560205,-2.01155796614942,48.7563490942387,10.624977336696,63.6450307036466,37.0692486443538,8.00280091293397,-44.4403227906011,43.2450577480965,35.8330144490123,5.29963023688142,12.9431742215427,-73.502584388303,33.1630173043945,-42.5604405697355,18.3798402446905,-73.520116912595,24.9470146391935,-1.28197633841176,64.2778526650162,9.00460911167985,46.5293331118213,16.706792349696,69.2244554826197,6.66957962716567,17.6396670514336,31.9434650723532,-0.0669096997676779,5.7326095746267,-19.0552049978436,-26.4460091017927,3.81996218573912,-52.4902637956715,2.05943617381792,89.2468166835591,-30.2478329158101,3.21676559837631,96.8479085533177,-23.949187299131,-38.0190046977791,53.2166786327603,40.9906273870538,5.57550364317359,26.5784845663954,-36.8664548380657,-9.7387450005751,17.5306163143842,70.2345260421758,19.4536543751498,56.3829975451039,8.38462273300091,-29.884016885179,13.8735567086083,6.55643337178064,-0.633360942218081,-14.1721467752803,4.35387378053144,31.3066531613345,-4.26532166480272,11.3733125812787,16.2837183600928,6.40290918503917,14.6286733909113,0.527734948005234,9.5880880359911,18.3134983278013,-0.743084079458891,-29.1984469360359,-39.7936815325369,-8.94945612910119,16.533908947505,-18.3659046833118,42.6501209933245,15.0646886440159,17.2863230783804,-9.33921940779003,-47.7055070446629,0.935252438839118,-15.4770146312658,8.11374723807753,-4.46301488272995,-35.7199927876019,54.8758456623347,57.2702638629976,42.7006898256387,36.2946449222047,58.046036188076,-21.1897378168737,-13.1713954766891,6.73626268405254,-23.0371691793173,25.9674166951171,34.7397424329658,45.952232017075,-20.9818213671624,20.8344179322378,30.5518871265763,55.6542270707977,60.3881494704234,40.0227383058991,17.86283435173,-20.9255893252013,-21.149659956996,-18.8156381231989,60.6329171294439,-39.8419622860514,22.7678710786233,-44.9363192027219,-49.9683794999451,-39.0058968525928,28.9908688285212,15.8470804812785,25.6517052092846,-41.6934508093429,-33.8831109768241,-23.9004713565034,31.823220550673,15.928658664272,-9.10138336294346,36.5836565676784,-21.3597089935157,8.67254794703651,14.4807305324848,0.60565676651432,-6.35233672627088,-6.40404125418558,-16.1828313724126,5.92752910856435,51.8854432412713,17.151661208416,16.7167930393216,6.91063986443748,5.14545903760854,12.3763620752092,-18.7903690192817,25.8652587116589,-26.5132163537559,4.68530450925057,53.2974570037559,-7.03115432869373,-62.6973516728322,-33.9930837875008,1.53007861791453,27.0539924916135,42.3732067553064,-48.4697722534408,-18.7187065602019,-26.907240428531,19.3738632805064,28.2592830614514,24.2928910281978,49.1358012089207,-7.40780731121434,-13.1435759939837,11.2566018590197,12.8517903538305,49.5393829007874,-3.02144446990588,23.2544385590793,-11.7934342832332,36.2811658644357,-7.76987344455449,2.42633907437978,31.7649814505033,3.03618438311105,68.5583800192125,10.2524490895911,-6.1756282374171,-1.80352704313666,17.6954508651776,-12.4481209734652,-20.1322903535621,-2.43019051598709,7.51960049094752,1.24374456800621,29.4274370211484,36.6054889375609,10.7013829418781,1,1,1,1,1,1,1,1,1,1,1,1,1,1,1,1,1,1,1,1,1,1,1,1,1,1,1,1,1,1,1,1,1,1,1,1,1,1,1,1,1,1,1,1,1,1,1,1,1,1,1,1,1,1,1,1,1,1,1,1,1,1,1,1,1,1,1,1,1,1,1,1,1,1,1,1,1,1,1,1,1,1,1,1,1,1,1,1,1,1,1,1,1,1,1,1,1,1,1,1,1,1,1,1,1,1,1,1,1,1,1,1,1,1,1,1,1,1,1,1,1,1,1,1,1,1,1,1,1,1,1,1,1,1,1,1,1,1,1,1,1,1,1,1,1,1,1,1,1,1,1,1,1,1,1,1,1,1,1,1,1,1,1,1,1,1,1,1,1,1,1,1,1,1,1,1,1,1,1,1,1,1,1,1,1,1,1,1,1,1,1,1,1,1,1,1,1,1,1,1,1,1,1,1,1,1,1,1,1,1,1,1,1,1,1,1,1,1,1,1,1,1,1,1,1,1,1,1,1,1,1,1,1,1,1,1,1,1,1,1,1,1,1,1,1,1,1,1,1,1,1,1,1,1,1,1,1,1,1,1,1,1,1,1,1,1,1,1,1,1,-6.4931546548353,-4.79441392751249,2.19867661346179,36.0927305392043,-55.3591364076636,-36.0821910396845,9.71482748777186,3.35838066850437,37.5223889206802,-46.6801831277798,29.4003248480605,2.71867804398651,-8.21057970829161,-56.6950865081786,-41.0357780795194,44.0193528336466,7.16275449210952,-11.765827537573,4.7832329452762,-10.5449692378753,-5.28870330659436,-29.6785612516663,38.8225675392338,44.9967338215088,-25.80495986786,11.2884550879373,-11.6675721943848,5.94967193372437,-17.5327255666533,-11.2875581048161,-6.9828677490814,0.314450932072183,-5.26878609281715,6.23132469656487,3.87534655663142,9.72764730931292,27.1784856479352,-23.4584802909455,-0.999912427092829,-17.4166978104241,9.45425738586621,-1.85476167011444,55.3854333201877,-19.1189659488029,-72.2035121577056,-30.4730136283172,19.5991129471045,40.8686956913322,-13.4924718195491,38.2727664003275,17.9073598568177,24.5582317392148,-38.7975484071612,-16.2060111544502,69.4669846343181,30.2900119363619,45.6754044859865,-3.99020976146451,-31.1969785214718,-35.2971357423199,-6.60172409637171,2.23787022362488,36.9331758495676,-42.6207097499756,61.6526753056294,-14.0242416081589,34.1147725960795,4.96028460717959,-43.2313315089207,7.81118509489772,-34.5945923913509,43.7308979773824,-0.202233674587309,33.1099399651254,35.2089511674537,6.13839817174589,-8.06756655451181,63.2354807420995,20.0506281681953,34.6887744784473,24.6500803827472,-13.8565928149801,30.9196896538221,-22.3825128099771,6.3896710125495,-15.5416878088261,-12.0869064492321,22.6077184528146,36.8983662276569,14.7472528632641,-36.4717758838089,-29.3511542834512,3.7173089035791,-32.0426443298491,-23.9810464428504,32.680423038843,0.859196945106491,-26.5328954575452,-12.3602831095466,-33.4612672713331,-10.6394030030958,8.50720104904847,15.3700135743031,18.7363372442132,10.5735433661577,-6.32301798027317,-28.3231087021038,3.86582955922524,24.9425933977139,-23.0170187018783,-27.9818419955177,-29.6885776810653,-8.38237808080256,-6.15180574541671,40.4929986474207,-40.12845476669,63.7966484137447,58.7030538459458,-21.8714016743346,7.78819760529248,-0.666574304142388,-9.8395971244472,15.0689046786414,-14.4576712201948,64.7941409298791,39.1188441903472,-3.85674473766819,17.4746508158655,-26.5282213011509,-36.3985071366198,-1.98396492576448,8.05859837612321,-25.439811708044,3.90524025844981,-42.7041902262419,51.538715981638,53.9974908933383,24.9700450491896,-8.34249042411348,-22.8530844413408,-10.9627669321958,30.2066492735087,17.1405653965392,-22.3238257258199,-46.3743932891367,10.1462103396303,57.8061061880011,-54.2305046163107,-37.9278329897154,-18.3380381386598,23.1306035146329,-13.5861861499854,-2.74685032247807,30.6844184922671,-48.8281825972687,-7.81735932514115,58.652374559228,15.3668586237432,-4.75224073176596,-6.39549156818592,34.0290462881748,-3.63723933001948,-19.7698772497528,19.7764103502535,-87.5819182865094,4.3442303535186,-44.7368034477355,-29.6222198876814,6.09223861792612,24.2168811380057,1.38312149292808,15.0017159251392,-51.6217660928495,2.59204317025083,14.2415304202988,-25.4111325318483,-52.966761309967,26.8475670831324,-9.27070471097993,0.104948474227645,45.5019182925457,-9.23312472561496,-30.329507853484,24.8100582643179,39.2832209621875,8.70159488767445,-26.634341985173,-32.775649803509,17.0819444764147,37.2739545822894,-20.412061476196,-7.96859258658605,-13.4017716308506,8.22450701853694,-2.17812134389797,0.693777511147883,47.0293282643401,6.53981575925029,-37.5288220043669,15.9584847210719,-34.1907946984061,-32.4419828359858,-12.2941987672398,-28.6728384873721,1.71736128336811,13.8363829283689,23.0101723112018,10.3862072314865,-40.5740968892097,-0.960519811164352,-30.0645671073103,-41.4149532241415,-56.5256831204704,-15.9386182454957,-50.0389476502457,4.19152529700319,17.649184292305,-10.2024610400341,-44.4933843802899,-9.14523007484681,34.2874456164892,14.7597897140496,63.1126686097013,-35.4288200254487,20.1228975414477,-15.4050456968578,-5.43232883466403,29.3175491861812,-6.34700167745541,69.2572187516702,-68.8889319636092,2.55952382216185,-4.87590240412271,11.6002466736011,63.7869628023779,31.4202476132335,5.74802105754559,-2.27177970583948,-2.7237576241375,-5.85610689445147,-22.2044092037057,23.3177279399119,-49.1319172267348,6.10405967472057,9.42978990636573,14.52766338786,-40.9547941944,-53.917076433732,-21.7406612307494,-4.2417157238174,-17.0936398876084,4.69103046213779,-49.9303363387597,-7.6570739458955,18.4684392648442,45.1505846994467,-26.8819231589134,12.4137104019797,-36.9790972194781,-0.608444879368961,-51.4025935434438,53.0842699175382,-5.00632148560317,44.9912198571588,13.2249007495902,-13.4730272130383,66.2452816139481,-19.9725558811066,43.8937277035368,-10.9362753067198,1,1,1,1,1,1,1,1,1,1,1,1,1,1,1,1,1,1,1,1,1,1,1,1,1,1,1,1,1,1,1,1,1,1,1,1,1,1,1,1,1,1,1,1,1,1,1,1,1,1,1,1,1,1,1,1,1,1,1,1,1,1,1,1,1,1,1,1,1,1,1,1,1,1,1,1,1,1,1,1,1,1,1,1,1,1,1,1,1,1,1,1,1,1,1,1,1,1,1,1,1,1,1,1,1,1,1,1,1,1,1,1,1,1,1,1,1,1,1,1,1,1,1,1,1,1,1,1,1,1,1,1,1,1,1,1,1,1,1,1,1,1,1,1,1,1,1,1,1,1,1,1,1,1,1,1,1,1,1,1,1,1,1,1,1,1,1,1,1,1,1,1,1,1,1,1,1,1,1,1,1,1,1,1,1,1,1,1,1,1,1,1,1,1,1,1,1,1,1,1,1,1,1,1,1,1,1,1,1,1,1,1,1,1,1,1,1,1,1,1,1,1,1,1,1,1,1,1,1,1,1,1,1,1,1,1,1,1,1,1,1,1,1,1,1,1,1,1,1,1,1,1,1,1,1,1,1,1,1,1,1,1,1,1,1,1,1,1,1,1
-32.2937568683614,-10.0161322741844,167.81317770519,-125.818860717329,56.5665071427583,54.322451619801,31.9024767267877,10.3781158099015,-33.943158668277,-1.18181931961804,21.1323859379995,-0.0670674141438048,71.2458254416113,-21.9387386540443,-50.2533566940297,-67.9555025647568,12.6986728345672,-0.92655135905409,-24.4364724277927,11.792350714889,-51.9458944325067,-34.6652798010565,-5.98868500006551,-28.0408384967086,-33.2951257033504,-34.8837928997613,16.8524013735991,52.793764410057,7.66743710339899,-35.0586742398626,18.0536138961207,42.5693549784933,55.711724425946,-0.375917770736518,24.5292332602445,-22.8449317902396,-24.3294504452899,24.1046223110399,-32.2691673360135,-11.6995280662254,7.94888664196547,-51.0802394979456,12.762016794533,12.0588626761217,-4.30984058085993,5.36216543434202,-38.9005266375384,-32.6644823298427,7.92805494925893,-29.2314059394479,15.9909069365699,27.3934947860612,-6.43711154084036,33.2690134149802,44.9764224831779,8.69601041149639,-0.816300089945619,13.7617523273682,-31.7720615152696,12.1291871801645,39.3606302355263,-12.8471483142642,16.0819137405522,10.5185483495793,-18.1943927182821,-25.1454743771932,3.67739080212018,20.0470796307921,46.1372968771163,-19.1517220374541,5.76376216988646,51.7604908328489,12.9015434179376,-1.92451622089084,-13.5561272836783,22.8981060713588,48.3460228156287,14.3110240702096,15.4119727958354,11.731868190102,-4.85294189707876,-14.2575773371506,44.9457743338625,-36.857643748771,3.73392754174218,64.9218927232871,3.51037093166879,-64.0033360511814,-42.6055327979691,-0.3581252785672,-24.904748612293,13.5630806626545,-22.4866730398492,-11.3725891093841,13.8880276423422,36.4880240167928,6.73268217749098,-32.9896219560205,-2.01155796614942,48.7563490942387,10.624977336696,63.6450307036466,37.0692486443538,8.00280091293397,-44.4403227906011,43.2450577480965,35.8330144490123,5.29963023688142,12.9431742215427,-73.502584388303,33.1630173043945,-42.5604405697355,18.3798402446905,-73.520116912595,24.9470146391935,-1.28197633841176,64.2778526650162,9.00460911167985,46.5293331118213,16.706792349696,69.2244554826197,6.66957962716567,17.6396670514336,31.9434650723532,-0.0669096997676779,5.7326095746267,-19.0552049978436,-26.4460091017927,3.81996218573912,-52.4902637956715,2.05943617381792,89.2468166835591,-30.2478329158101,3.21676559837631,96.8479085533177,-23.949187299131,-38.0190046977791,53.2166786327603,40.9906273870538,5.57550364317359,26.5784845663954,-36.8664548380657,-9.7387450005751,17.5306163143842,70.2345260421758,19.4536543751498,56.3829975451039,8.38462273300091,-29.884016885179,13.8735567086083,6.55643337178064,-0.633360942218081,-14.1721467752803,4.35387378053144,31.3066531613345,-4.26532166480272,11.3733125812787,16.2837183600928,6.40290918503917,14.6286733909113,0.527734948005234,9.5880880359911,18.3134983278013,-0.743084079458891,-29.1984469360359,-39.7936815325369,-8.94945612910119,16.533908947505,-18.3659046833118,42.6501209933245,15.0646886440159,17.2863230783804,-9.33921940779003,-47.7055070446629,0.935252438839118,-15.4770146312658,8.11374723807753,-4.46301488272995,-35.7199927876019,54.8758456623347,57.2702638629976,42.7006898256387,36.2946449222047,58.046036188076,-21.1897378168737,-13.1713954766891,6.73626268405254,-23.0371691793173,25.9674166951171,34.7397424329658,45.952232017075,-20.9818213671624,20.8344179322378,30.5518871265763,55.6542270707977,60.3881494704234,40.0227383058991,17.86283435173,-20.9255893252013,-21.149659956996,-18.8156381231989,60.6329171294439,-39.8419622860514,22.7678710786233,-44.9363192027219,-49.9683794999451,-39.0058968525928,28.9908688285212,15.8470804812785,25.6517052092846,-41.6934508093429,-33.8831109768241,-23.9004713565034,31.823220550673,15.928658664272,-9.10138336294346,36.5836565676784,-21.3597089935157,8.67254794703651,14.4807305324848,0.60565676651432,-6.35233672627088,-6.40404125418558,-16.1828313724126,5.92752910856435,51.8854432412713,17.151661208416,16.7167930393216,6.91063986443748,5.14545903760854,12.3763620752092,-18.7903690192817,25.8652587116589,-26.5132163537559,4.68530450925057,53.2974570037559,-7.03115432869373,-62.6973516728322,-33.9930837875008,1.53007861791453,27.0539924916135,42.3732067553064,-48.4697722534408,-18.7187065602019,-26.907240428531,19.3738632805064,28.2592830614514,24.2928910281978,49.1358012089207,-7.40780731121434,-13.1435759939837,11.2566018590197,12.8517903538305,49.5393829007874,-3.02144446990588,23.2544385590793,-11.7934342832332,36.2811658644357,-7.76987344455449,2.42633907437978,31.7649814505033,3.03618438311105,68.5583800192125,10.2524490895911,-6.1756282374171,-1.80352704313666,17.6954508651776,-12.4481209734652,-20.1322903535621,-2.43019051598709,7.51960049094752,1.24374456800621,29.4274370211484,36.6054889375609,10.7013829418781,1,1,1,1,1,1,1,1,1,1,1,1,1,1,1,1,1,1,1,1,1,1,1,1,1,1,1,1,1,1,1,1,1,1,1,1,1,1,1,1,1,1,1,1,1,1,1,1,1,1,1,1,1,1,1,1,1,1,1,1,1,1,1,1,1,1,1,1,1,1,1,1,1,1,1,1,1,1,1,1,1,1,1,1,1,1,1,1,1,1,1,1,1,1,1,1,1,1,1,1,1,1,1,1,1,1,1,1,1,1,1,1,1,1,1,1,1,1,1,1,1,1,1,1,1,1,1,1,1,1,1,1,1,1,1,1,1,1,1,1,1,1,1,1,1,1,1,1,1,1,1,1,1,1,1,1,1,1,1,1,1,1,1,1,1,1,1,1,1,1,1,1,1,1,1,1,1,1,1,1,1,1,1,1,1,1,1,1,1,1,1,1,1,1,1,1,1,1,1,1,1,1,1,1,1,1,1,1,1,1,1,1,1,1,1,1,1,1,1,1,1,1,1,1,1,1,1,1,1,1,1,1,1,1,1,1,1,1,1,1,1,1,1,1,1,1,1,1,1,1,1,1,1,1,1,1,1,1,1,1,1,1,1,1,1,1,1,1,1,1,-6.4931546548353,-4.79441392751249,2.19867661346179,36.0927305392043,-55.3591364076636,-36.0821910396845,9.71482748777186,3.35838066850437,37.5223889206802,-46.6801831277798,29.4003248480605,2.71867804398651,-8.21057970829161,-56.6950865081786,-41.0357780795194,44.0193528336466,7.16275449210952,-11.765827537573,4.7832329452762,-10.5449692378753,-5.28870330659436,-29.6785612516663,38.8225675392338,44.9967338215088,-25.80495986786,11.2884550879373,-11.6675721943848,5.94967193372437,-17.5327255666533,-11.2875581048161,-6.9828677490814,0.314450932072183,-5.26878609281715,6.23132469656487,3.87534655663142,9.72764730931292,27.1784856479352,-23.4584802909455,-0.999912427092829,-17.4166978104241,9.45425738586621,-1.85476167011444,55.3854333201877,-19.1189659488029,-72.2035121577056,-30.4730136283172,19.5991129471045,40.8686956913322,-13.4924718195491,38.2727664003275,17.9073598568177,24.5582317392148,-38.7975484071612,-16.2060111544502,69.4669846343181,30.2900119363619,45.6754044859865,-3.99020976146451,-31.1969785214718,-35.2971357423199,-6.60172409637171,2.23787022362488,36.9331758495676,-42.6207097499756,61.6526753056294,-14.0242416081589,34.1147725960795,4.96028460717959,-43.2313315089207,7.81118509489772,-34.5945923913509,43.7308979773824,-0.202233674587309,33.1099399651254,35.2089511674537,6.13839817174589,-8.06756655451181,63.2354807420995,20.0506281681953,34.6887744784473,24.6500803827472,-13.8565928149801,30.9196896538221,-22.3825128099771,6.3896710125495,-15.5416878088261,-12.0869064492321,22.6077184528146,36.8983662276569,14.7472528632641,-36.4717758838089,-29.3511542834512,3.7173089035791,-32.0426443298491,-23.9810464428504,32.680423038843,0.859196945106491,-26.5328954575452,-12.3602831095466,-33.4612672713331,-10.6394030030958,8.50720104904847,15.3700135743031,18.7363372442132,10.5735433661577,-6.32301798027317,-28.3231087021038,3.86582955922524,24.9425933977139,-23.0170187018783,-27.9818419955177,-29.6885776810653,-8.38237808080256,-6.15180574541671,40.4929986474207,-40.12845476669,63.7966484137447,58.7030538459458,-21.8714016743346,7.78819760529248,-0.666574304142388,-9.8395971244472,15.0689046786414,-14.4576712201948,64.7941409298791,39.1188441903472,-3.85674473766819,17.4746508158655,-26.5282213011509,-36.3985071366198,-1.98396492576448,8.05859837612321,-25.439811708044,3.90524025844981,-42.7041902262419,51.538715981638,53.9974908933383,24.9700450491896,-8.34249042411348,-22.8530844413408,-10.9627669321958,30.2066492735087,17.1405653965392,-22.3238257258199,-46.3743932891367,10.1462103396303,57.8061061880011,-54.2305046163107,-37.9278329897154,-18.3380381386598,23.1306035146329,-13.5861861499854,-2.74685032247807,30.6844184922671,-48.8281825972687,-7.81735932514115,58.652374559228,15.3668586237432,-4.75224073176596,-6.39549156818592,34.0290462881748,-3.63723933001948,-19.7698772497528,19.7764103502535,-87.5819182865094,4.3442303535186,-44.7368034477355,-29.6222198876814,6.09223861792612,24.2168811380057,1.38312149292808,15.0017159251392,-51.6217660928495,2.59204317025083,14.2415304202988,-25.4111325318483,-52.966761309967,26.8475670831324,-9.27070471097993,0.104948474227645,45.5019182925457,-9.23312472561496,-30.329507853484,24.8100582643179,39.2832209621875,8.70159488767445,-26.634341985173,-32.775649803509,17.0819444764147,37.2739545822894,-20.412061476196,-7.96859258658605,-13.4017716308506,8.22450701853694,-2.17812134389797,0.693777511147883,47.0293282643401,6.53981575925029,-37.5288220043669,15.9584847210719,-34.1907946984061,-32.4419828359858,-12.2941987672398,-28.6728384873721,1.71736128336811,13.8363829283689,23.0101723112018,10.3862072314865,-40.5740968892097,-0.960519811164352,-30.0645671073103,-41.4149532241415,-56.5256831204704,-15.9386182454957,-50.0389476502457,4.19152529700319,17.649184292305,-10.2024610400341,-44.4933843802899,-9.14523007484681,34.2874456164892,14.7597897140496,63.1126686097013,-35.4288200254487,20.1228975414477,-15.4050456968578,-5.43232883466403,29.3175491861812,-6.34700167745541,69.2572187516702,-68.8889319636092,2.55952382216185,-4.87590240412271,11.6002466736011,63.7869628023779,31.4202476132335,5.74802105754559,-2.27177970583948,-2.7237576241375,-5.85610689445147,-22.2044092037057,23.3177279399119,-49.1319172267348,6.10405967472057,9.42978990636573,14.52766338786,-40.9547941944,-53.917076433732,-21.7406612307494,-4.2417157238174,-17.0936398876084,4.69103046213779,-49.9303363387597,-7.6570739458955,18.4684392648442,45.1505846994467,-26.8819231589134,12.4137104019797,-36.9790972194781,-0.608444879368961,-51.4025935434438,53.0842699175382,-5.00632148560317,44.9912198571588,13.2249007495902,-13.4730272130383,66.2452816139481,-19.9725558811066,43.8937277035368,-10.9362753067198,1,1,1,1,1,1,1,1,1,1,1,1,1,1,1,1,1,1,1,1,1,1,1,1,1,1,1,1,1,1,1,1,1,1,1,1,1,1,1,1,1,1,1,1,1,1,1,1,1,1,1,1,1,1,1,1,1,1,1,1,1,1,1,1,1,1,1,1,1,1,1,1,1,1,1,1,1,1,1,1,1,1,1,1,1,1,1,1,1,1,1,1,1,1,1,1,1,1,1,1,1,1,1,1,1,1,1,1,1,1,1,1,1,1,1,1,1,1,1,1,1,1,1,1,1,1,1,1,1,1,1,1,1,1,1,1,1,1,1,1,1,1,1,1,1,1,1,1,1,1,1,1,1,1,1,1,1,1,1,1,1,1,1,1,1,1,1,1,1,1,1,1,1,1,1,1,1,1,1,1,1,1,1,1,1,1,1,1,1,1,1,1,1,1,1,1,1,1,1,1,1,1,1,1,1,1,1,1,1,1,1,1,1,1,1,1,1,1,1,1,1,1,1,1,1,1,1,1,1,1,1,1,1,1,1,1,1,1,1,1,1,1,1,1,1,1,1,1,1,1,1,1,1,1,1,1,1,1,1,1,1,1,1,1,1,1,1,1,1,1,11.5678289902123,-70.2040304727757,54.322451619801,31.9024767267877,10.3781158099015,-33.943158668277,-1.18181931961804,21.1323859379995,-0.0670674141438048,71.2458254416113,-21.9387386540443,-50.2533566940297,-67.9555025647568,12.6986728345672,-0.92655135905409,-24.4364724277927,11.792350714889,-51.9458944325067,-34.6652798010565,-5.98868500006551,-28.0408384967086,-33.2951257033504,-34.8837928997613,16.8524013735991,52.793764410057,7.66743710339899,-35.0586742398626,18.0536138961207,42.5693549784933,55.711724425946,-0.375917770736518,24.5292332602445,-22.8449317902396,-24.3294504452899,24.1046223110399,-32.2691673360135,-11.6995280662254,7.94888664196547,-51.0802394979456,12.762016794533,12.0588626761217,-4.30984058085993,5.36216543434202,-38.9005266375384,-32.6644823298427,7.92805494925893,-29.2314059394479,15.9909069365699,27.3934947860612,-6.43711154084036,33.2690134149802,44.9764224831779,8.69601041149639,-0.816300089945619,13.7617523273682,-31.7720615152696,12.1291871801645,39.3606302355263,-12.8471483142642,16.0819137405522,10.5185483495793,-18.1943927182821,-25.1454743771932,3.67739080212018,20.0470796307921,46.1372968771163,-19.1517220374541,5.76376216988646,51.7604908328489,12.9015434179376,-1.92451622089084,-13.5561272836783,22.8981060713588,48.3460228156287,14.3110240702096,15.4119727958354,11.731868190102,-4.85294189707876,-14.2575773371506,44.9457743338625,-36.857643748771,3.73392754174218,64.9218927232871,3.51037093166879,-64.0033360511814,-42.6055327979691,-0.3581252785672,-24.904748612293,13.5630806626545,-22.4866730398492,-11.3725891093841,13.8880276423422,36.4880240167928,6.73268217749098,-32.9896219560205,-2.01155796614942,48.7563490942387,10.624977336696,63.6450307036466,37.0692486443538,8.00280091293397,-44.4403227906011,43.2450577480965,35.8330144490123,5.29963023688142,12.9431742215427,-73.502584388303,33.1630173043945,-42.5604405697355,18.3798402446905,-73.520116912595,24.9470146391935,-1.28197633841176,64.2778526650162,9.00460911167985,46.5293331118213,16.706792349696,69.2244554826197,6.66957962716567,17.6396670514336,31.9434650723532,-0.0669096997676779,5.7326095746267,-19.0552049978436,-26.4460091017927,3.81996218573912,-52.4902637956715,2.05943617381792,89.2468166835591,-30.2478329158101,3.21676559837631,96.8479085533177,-23.949187299131,-38.0190046977791,53.2166786327603,40.9906273870538,5.57550364317359,26.5784845663954,-36.8664548380657,-9.7387450005751,17.5306163143842,70.2345260421758,19.4536543751498,56.3829975451039,8.38462273300091,-29.884016885179,13.8735567086083,6.55643337178064,-0.633360942218081,-14.1721467752803,4.35387378053144,31.3066531613345,-4.26532166480272,11.3733125812787,16.2837183600928,6.40290918503917,14.6286733909113,0.527734948005234,9.5880880359911,18.3134983278013,-0.743084079458891,-29.1984469360359,-39.7936815325369,-8.94945612910119,16.533908947505,-18.3659046833118,42.6501209933245,15.0646886440159,17.2863230783804,-9.33921940779003,-47.7055070446629,0.935252438839118,-15.4770146312658,8.11374723807753,-4.46301488272995,-35.7199927876019,54.8758456623347,57.2702638629976,42.7006898256387,36.2946449222047,58.046036188076,-21.1897378168737,-13.1713954766891,6.73626268405254,-23.0371691793173,25.9674166951171,34.7397424329658,45.952232017075,-20.9818213671624,20.8344179322378,30.5518871265763,55.6542270707977,60.3881494704234,40.0227383058991,17.86283435173,-20.9255893252013,-21.149659956996,-18.8156381231989,60.6329171294439,-39.8419622860514,22.7678710786233,-44.9363192027219,-49.9683794999451,-39.0058968525928,28.9908688285212,15.8470804812785,25.6517052092846,-41.6934508093429,-33.8831109768241,-23.9004713565034,31.823220550673,15.928658664272,-9.10138336294346,36.5836565676784,-21.3597089935157,8.67254794703651,14.4807305324848,0.60565676651432,-6.35233672627088,-6.40404125418558,-16.1828313724126,5.92752910856435,51.8854432412713,17.151661208416,16.7167930393216,6.91063986443748,5.14545903760854,12.3763620752092,-18.7903690192817,25.8652587116589,-26.5132163537559,4.68530450925057,53.2974570037559,-7.03115432869373,-62.6973516728322,-33.9930837875008,1.53007861791453,27.0539924916135,42.3732067553064,-48.4697722534408,-18.7187065602019,-26.907240428531,19.3738632805064,28.2592830614514,24.2928910281978,49.1358012089207,-7.40780731121434,-13.1435759939837,11.2566018590197,12.8517903538305,49.5393829007874,-3.02144446990588,23.2544385590793,-11.7934342832332,36.2811658644357,-7.76987344455449,2.42633907437978,31.7649814505033,3.03618438311105,68.5583800192125,10.2524490895911,-6.1756282374171,-1.80352704313666,17.6954508651776,-12.4481209734652,-20.1322903535621,-2.43019051598709,7.51960049094752,1.24374456800621,29.4274370211484,36.6054889375609,10.7013829418781,1,1,1,1,1,1,1,1,1,1,1,1,1,1,1,1,1,1,1,1,1,1,1,1,1,1,1,1,1,1,1,1,1,1,1,1,1,1,1,1,1,1,1,1,1,1,1,1,1,1,1,1,1,1,1,1,1,1,1,1,1,1,1,1,1,1,1,1,1,1,1,1,1,1,1,1,1,1,1,1,1,1,1,1,1,1,1,1,1,1,1,1,1,1,1,1,1,1,1,1,1,1,1,1,1,1,1,1,1,1,1,1,1,1,1,1,1,1,1,1,1,1,1,1,1,1,1,1,1,1,1,1,1,1,1,1,1,1,1,1,1,1,1,1,1,1,1,1,1,1,1,1,1,1,1,1,1,1,1,1,1,1,1,1,1,1,1,1,1,1,1,1,1,1,1,1,1,1,1,1,1,1,1,1,1,1,1,1,1,1,1,1,1,1,1,1,1,1,1,1,1,1,1,1,1,1,1,1,1,1,1,1,1,1,1,1,1,1,1,1,1,1,1,1,1,1,1,1,1,1,1,1,1,1,1,1,1,1,1,1,1,1,1,1,1,1,1,1,1,1,1,1,1,1,1,1,1,1,1,1,1,1,1,1,1,1,1,1,1,1,-6.4931546548353,-4.79441392751249,2.19867661346179,36.0927305392043,-55.3591364076636,-36.0821910396845,9.71482748777186,3.35838066850437,37.5223889206802,-46.6801831277798,29.4003248480605,2.71867804398651,-8.21057970829161,-56.6950865081786,-41.0357780795194,44.0193528336466,7.16275449210952,-11.765827537573,4.7832329452762,-10.5449692378753,-5.28870330659436,-29.6785612516663,38.8225675392338,44.9967338215088,-25.80495986786,11.2884550879373,-11.6675721943848,5.94967193372437,-17.5327255666533,-11.2875581048161,-6.9828677490814,0.314450932072183,-5.26878609281715,6.23132469656487,3.87534655663142,9.72764730931292,27.1784856479352,-23.4584802909455,-0.999912427092829,-17.4166978104241,9.45425738586621,-1.85476167011444,55.3854333201877,-19.1189659488029,-72.2035121577056,-30.4730136283172,19.5991129471045,40.8686956913322,-13.4924718195491,38.2727664003275,17.9073598568177,24.5582317392148,-38.7975484071612,-16.2060111544502,69.4669846343181,30.2900119363619,45.6754044859865,-3.99020976146451,-31.1969785214718,-35.2971357423199,-6.60172409637171,2.23787022362488,36.9331758495676,-42.6207097499756,61.6526753056294,-14.0242416081589,34.1147725960795,4.96028460717959,-43.2313315089207,7.81118509489772,-34.5945923913509,43.7308979773824,-0.202233674587309,33.1099399651254,35.2089511674537,6.13839817174589,-8.06756655451181,63.2354807420995,20.0506281681953,34.6887744784473,24.6500803827472,-13.8565928149801,30.9196896538221,-22.3825128099771,6.3896710125495,-15.5416878088261,-12.0869064492321,22.6077184528146,36.8983662276569,14.7472528632641,-36.4717758838089,-29.3511542834512,3.7173089035791,-32.0426443298491,-23.9810464428504,32.680423038843,0.859196945106491,-26.5328954575452,-12.3602831095466,-33.4612672713331,-10.6394030030958,8.50720104904847,15.3700135743031,18.7363372442132,10.5735433661577,-6.32301798027317,-28.3231087021038,3.86582955922524,24.9425933977139,-23.0170187018783,-27.9818419955177,-29.6885776810653,-8.38237808080256,-6.15180574541671,40.4929986474207,-40.12845476669,63.7966484137447,58.7030538459458,-21.8714016743346,7.78819760529248,-0.666574304142388,-9.8395971244472,15.0689046786414,-14.4576712201948,64.7941409298791,39.1188441903472,-3.85674473766819,17.4746508158655,-26.5282213011509,-36.3985071366198,-1.98396492576448,8.05859837612321,-25.439811708044,3.90524025844981,-42.7041902262419,51.538715981638,53.9974908933383,24.9700450491896,-8.34249042411348,-22.8530844413408,-10.9627669321958,30.2066492735087,17.1405653965392,-22.3238257258199,-46.3743932891367,10.1462103396303,57.8061061880011,-54.2305046163107,-37.9278329897154,-18.3380381386598,23.1306035146329,-13.5861861499854,-2.74685032247807,30.6844184922671,-48.8281825972687,-7.81735932514115,58.652374559228,15.3668586237432,-4.75224073176596,-6.39549156818592,34.0290462881748,-3.63723933001948,-19.7698772497528,19.7764103502535,-87.5819182865094,4.3442303535186,-44.7368034477355,-29.6222198876814,6.09223861792612,24.2168811380057,1.38312149292808,15.0017159251392,-51.6217660928495,2.59204317025083,14.2415304202988,-25.4111325318483,-52.966761309967,26.8475670831324,-9.27070471097993,0.104948474227645,45.5019182925457,-9.23312472561496,-30.329507853484,24.8100582643179,39.2832209621875,8.70159488767445,-26.634341985173,-32.775649803509,17.0819444764147,37.2739545822894,-20.412061476196,-7.96859258658605,-13.4017716308506,8.22450701853694,-2.17812134389797,0.693777511147883,47.0293282643401,6.53981575925029,-37.5288220043669,15.9584847210719,-34.1907946984061,-32.4419828359858,-12.2941987672398,-28.6728384873721,1.71736128336811,13.8363829283689,23.0101723112018,10.3862072314865,-40.5740968892097,-0.960519811164352,-30.0645671073103,-41.4149532241415,-56.5256831204704,-15.9386182454957,-50.0389476502457,4.19152529700319,17.649184292305,-10.2024610400341,-44.4933843802899,-9.14523007484681,34.2874456164892,14.7597897140496,63.1126686097013,-35.4288200254487,20.1228975414477,-15.4050456968578,-5.43232883466403,29.3175491861812,-6.34700167745541,69.2572187516702,-68.8889319636092,2.55952382216185,-4.87590240412271,11.6002466736011,63.7869628023779,31.4202476132335,5.74802105754559,-2.27177970583948,-2.7237576241375,-5.85610689445147,-22.2044092037057,23.3177279399119,-49.1319172267348,6.10405967472057,9.42978990636573,14.52766338786,-40.9547941944,-53.917076433732,-21.7406612307494,-4.2417157238174,-17.0936398876084,4.69103046213779,-49.9303363387597,-7.6570739458955,18.4684392648442,45.1505846994467,-26.8819231589134,12.4137104019797,-36.9790972194781,-0.608444879368961,-51.4025935434438,53.0842699175382,-5.00632148560317,44.9912198571588,13.2249007495902,-13.4730272130383,66.2452816139481,-19.9725558811066,43.8937277035368,-10.9362753067198,1,1,1,1,1,1,1,1,1,1,1,1,1,1,1,1,1,1,1,1,1,1,1,1,1,1,1,1,1,1,1,1,1,1,1,1,1,1,1,1,1,1,1,1,1,1,1,1,1,1,1,1,1,1,1,1,1,1,1,1,1,1,1,1,1,1,1,1,1,1,1,1,1,1,1,1,1,1,1,1,1,1,1,1,1,1,1,1,1,1,1,1,1,1,1,1,1,1,1,1,1,1,1,1,1,1,1,1,1,1,1,1,1,1,1,1,1,1,1,1,1,1,1,1,1,1,1,1,1,1,1,1,1,1,1,1,1,1,1,1,1,1,1,1,1,1,1,1,1,1,1,1,1,1,1,1,1,1,1,1,1,1,1,1,1,1,1,1,1,1,1,1,1,1,1,1,1,1,1,1,1,1,1,1,1,1,1,1,1,1,1,1,1,1,1,1,1,1,1,1,1,1,1,1,1,1,1,1,1,1,1,1,1,1,1,1,1,1,1,1,1,1,1,1,1,1,1,1,1,1,1,1,1,1,1,1,1,1,1,1,1,1,1,1,1,1,1,1,1,1,1,1,1,1,1,1,1,1,1,1,1,1,1,1,1,1,1,1,1,1,-98.6297677991415,-17.1264217557424,54.322451619801,31.9024767267877,10.3781158099015,-33.943158668277,-1.18181931961804,21.1323859379995,-0.0670674141438048,71.2458254416113,-21.9387386540443,-50.2533566940297,-67.9555025647568,12.6986728345672,-0.92655135905409,-24.4364724277927,11.792350714889,-51.9458944325067,-34.6652798010565,-5.98868500006551,-28.0408384967086,-33.2951257033504,-34.8837928997613,16.8524013735991,52.793764410057,7.66743710339899,-35.0586742398626,18.0536138961207,42.5693549784933,55.711724425946,-0.375917770736518,24.5292332602445,-22.8449317902396,-24.3294504452899,24.1046223110399,-32.2691673360135,-11.6995280662254,7.94888664196547,-51.0802394979456,12.762016794533,12.0588626761217,-4.30984058085993,5.36216543434202,-38.9005266375384,-32.6644823298427,7.92805494925893,-29.2314059394479,15.9909069365699,27.3934947860612,-6.43711154084036,33.2690134149802,44.9764224831779,8.69601041149639,-0.816300089945619,13.7617523273682,-31.7720615152696,12.1291871801645,39.3606302355263,-12.8471483142642,16.0819137405522,10.5185483495793,-18.1943927182821,-25.1454743771932,3.67739080212018,20.0470796307921,46.1372968771163,-19.1517220374541,5.76376216988646,51.7604908328489,12.9015434179376,-1.92451622089084,-13.5561272836783,22.8981060713588,48.3460228156287,14.3110240702096,15.4119727958354,11.731868190102,-4.85294189707876,-14.2575773371506,44.9457743338625,-36.857643748771,3.73392754174218,64.9218927232871,3.51037093166879,-64.0033360511814,-42.6055327979691,-0.3581252785672,-24.904748612293,13.5630806626545,-22.4866730398492,-11.3725891093841,13.8880276423422,36.4880240167928,6.73268217749098,-32.9896219560205,-2.01155796614942,48.7563490942387,10.624977336696,63.6450307036466,37.0692486443538,8.00280091293397,-44.4403227906011,43.2450577480965,35.8330144490123,5.29963023688142,12.9431742215427,-73.502584388303,33.1630173043945,-42.5604405697355,18.3798402446905,-73.520116912595,24.9470146391935,-1.28197633841176,64.2778526650162,9.00460911167985,46.5293331118213,16.706792349696,69.2244554826197,6.66957962716567,17.6396670514336,31.9434650723532,-0.0669096997676779,5.7326095746267,-19.0552049978436,-26.4460091017927,3.81996218573912,-52.4902637956715,2.05943617381792,89.2468166835591,-30.2478329158101,3.21676559837631,96.8479085533177,-23.949187299131,-38.0190046977791,53.2166786327603,40.9906273870538,5.57550364317359,26.5784845663954,-36.8664548380657,-9.7387450005751,17.5306163143842,70.2345260421758,19.4536543751498,56.3829975451039,8.38462273300091,-29.884016885179,13.8735567086083,6.55643337178064,-0.633360942218081,-14.1721467752803,4.35387378053144,31.3066531613345,-4.26532166480272,11.3733125812787,16.2837183600928,6.40290918503917,14.6286733909113,0.527734948005234,9.5880880359911,18.3134983278013,-0.743084079458891,-29.1984469360359,-39.7936815325369,-8.94945612910119,16.533908947505,-18.3659046833118,42.6501209933245,15.0646886440159,17.2863230783804,-9.33921940779003,-47.7055070446629,0.935252438839118,-15.4770146312658,8.11374723807753,-4.46301488272995,-35.7199927876019,54.8758456623347,57.2702638629976,42.7006898256387,36.2946449222047,58.046036188076,-21.1897378168737,-13.1713954766891,6.73626268405254,-23.0371691793173,25.9674166951171,34.7397424329658,45.952232017075,-20.9818213671624,20.8344179322378,30.5518871265763,55.6542270707977,60.3881494704234,40.0227383058991,17.86283435173,-20.9255893252013,-21.149659956996,-18.8156381231989,60.6329171294439,-39.8419622860514,22.7678710786233,-44.9363192027219,-49.9683794999451,-39.0058968525928,28.9908688285212,15.8470804812785,25.6517052092846,-41.6934508093429,-33.8831109768241,-23.9004713565034,31.823220550673,15.928658664272,-9.10138336294346,36.5836565676784,-21.3597089935157,8.67254794703651,14.4807305324848,0.60565676651432,-6.35233672627088,-6.40404125418558,-16.1828313724126,5.92752910856435,51.8854432412713,17.151661208416,16.7167930393216,6.91063986443748,5.14545903760854,12.3763620752092,-18.7903690192817,25.8652587116589,-26.5132163537559,4.68530450925057,53.2974570037559,-7.03115432869373,-62.6973516728322,-33.9930837875008,1.53007861791453,27.0539924916135,42.3732067553064,-48.4697722534408,-18.7187065602019,-26.907240428531,19.3738632805064,28.2592830614514,24.2928910281978,49.1358012089207,-7.40780731121434,-13.1435759939837,11.2566018590197,12.8517903538305,49.5393829007874,-3.02144446990588,23.2544385590793,-11.7934342832332,36.2811658644357,-7.76987344455449,2.42633907437978,31.7649814505033,3.03618438311105,68.5583800192125,10.2524490895911,-6.1756282374171,-1.80352704313666,17.6954508651776,-12.4481209734652,-20.1322903535621,-2.43019051598709,7.51960049094752,1.24374456800621,29.4274370211484,36.6054889375609,10.7013829418781,1,1,1,1,1,1,1,1,1,1,1,1,1,1,1,1,1,1,1,1,1,1,1,1,1,1,1,1,1,1,1,1,1,1,1,1,1,1,1,1,1,1,1,1,1,1,1,1,1,1,1,1,1,1,1,1,1,1,1,1,1,1,1,1,1,1,1,1,1,1,1,1,1,1,1,1,1,1,1,1,1,1,1,1,1,1,1,1,1,1,1,1,1,1,1,1,1,1,1,1,1,1,1,1,1,1,1,1,1,1,1,1,1,1,1,1,1,1,1,1,1,1,1,1,1,1,1,1,1,1,1,1,1,1,1,1,1,1,1,1,1,1,1,1,1,1,1,1,1,1,1,1,1,1,1,1,1,1,1,1,1,1,1,1,1,1,1,1,1,1,1,1,1,1,1,1,1,1,1,1,1,1,1,1,1,1,1,1,1,1,1,1,1,1,1,1,1,1,1,1,1,1,1,1,1,1,1,1,1,1,1,1,1,1,1,1,1,1,1,1,1,1,1,1,1,1,1,1,1,1,1,1,1,1,1,1,1,1,1,1,1,1,1,1,1,1,1,1,1,1,1,1,1,1,1,1,1,1,1,1,1,1,1,1,1,1,1,1,1,1,-6.4931546548353,-4.79441392751249,2.19867661346179,36.0927305392043,-55.3591364076636,-36.0821910396845,9.71482748777186,3.35838066850437,37.5223889206802,-46.6801831277798,29.4003248480605,2.71867804398651,-8.21057970829161,-56.6950865081786,-41.0357780795194,44.0193528336466,7.16275449210952,-11.765827537573,4.7832329452762,-10.5449692378753,-5.28870330659436,-29.6785612516663,38.8225675392338,44.9967338215088,-25.80495986786,11.2884550879373,-11.6675721943848,5.94967193372437,-17.5327255666533,-11.2875581048161,-6.9828677490814,0.314450932072183,-5.26878609281715,6.23132469656487,3.87534655663142,9.72764730931292,27.1784856479352,-23.4584802909455,-0.999912427092829,-17.4166978104241,9.45425738586621,-1.85476167011444,55.3854333201877,-19.1189659488029,-72.2035121577056,-30.4730136283172,19.5991129471045,40.8686956913322,-13.4924718195491,38.2727664003275,17.9073598568177,24.5582317392148,-38.7975484071612,-16.2060111544502,69.4669846343181,30.2900119363619,45.6754044859865,-3.99020976146451,-31.1969785214718,-35.2971357423199,-6.60172409637171,2.23787022362488,36.9331758495676,-42.6207097499756,61.6526753056294,-14.0242416081589,34.1147725960795,4.96028460717959,-43.2313315089207,7.81118509489772,-34.5945923913509,43.7308979773824,-0.202233674587309,33.1099399651254,35.2089511674537,6.13839817174589,-8.06756655451181,63.2354807420995,20.0506281681953,34.6887744784473,24.6500803827472,-13.8565928149801,30.9196896538221,-22.3825128099771,6.3896710125495,-15.5416878088261,-12.0869064492321,22.6077184528146,36.8983662276569,14.7472528632641,-36.4717758838089,-29.3511542834512,3.7173089035791,-32.0426443298491,-23.9810464428504,32.680423038843,0.859196945106491,-26.5328954575452,-12.3602831095466,-33.4612672713331,-10.6394030030958,8.50720104904847,15.3700135743031,18.7363372442132,10.5735433661577,-6.32301798027317,-28.3231087021038,3.86582955922524,24.9425933977139,-23.0170187018783,-27.9818419955177,-29.6885776810653,-8.38237808080256,-6.15180574541671,40.4929986474207,-40.12845476669,63.7966484137447,58.7030538459458,-21.8714016743346,7.78819760529248,-0.666574304142388,-9.8395971244472,15.0689046786414,-14.4576712201948,64.7941409298791,39.1188441903472,-3.85674473766819,17.4746508158655,-26.5282213011509,-36.3985071366198,-1.98396492576448,8.05859837612321,-25.439811708044,3.90524025844981,-42.7041902262419,51.538715981638,53.9974908933383,24.9700450491896,-8.34249042411348,-22.8530844413408,-10.9627669321958,30.2066492735087,17.1405653965392,-22.3238257258199,-46.3743932891367,10.1462103396303,57.8061061880011,-54.2305046163107,-37.9278329897154,-18.3380381386598,23.1306035146329,-13.5861861499854,-2.74685032247807,30.6844184922671,-48.8281825972687,-7.81735932514115,58.652374559228,15.3668586237432,-4.75224073176596,-6.39549156818592,34.0290462881748,-3.63723933001948,-19.7698772497528,19.7764103502535,-87.5819182865094,4.3442303535186,-44.7368034477355,-29.6222198876814,6.09223861792612,24.2168811380057,1.38312149292808,15.0017159251392,-51.6217660928495,2.59204317025083,14.2415304202988,-25.4111325318483,-52.966761309967,26.8475670831324,-9.27070471097993,0.104948474227645,45.5019182925457,-9.23312472561496,-30.329507853484,24.8100582643179,39.2832209621875,8.70159488767445,-26.634341985173,-32.775649803509,17.0819444764147,37.2739545822894,-20.412061476196,-7.96859258658605,-13.4017716308506,8.22450701853694,-2.17812134389797,0.693777511147883,47.0293282643401,6.53981575925029,-37.5288220043669,15.9584847210719,-34.1907946984061,-32.4419828359858,-12.2941987672398,-28.6728384873721,1.71736128336811,13.8363829283689,23.0101723112018,10.3862072314865,-40.5740968892097,-0.960519811164352,-30.0645671073103,-41.4149532241415,-56.5256831204704,-15.9386182454957,-50.0389476502457,4.19152529700319,17.649184292305,-10.2024610400341,-44.4933843802899,-9.14523007484681,34.2874456164892,14.7597897140496,63.1126686097013,-35.4288200254487,20.1228975414477,-15.4050456968578,-5.43232883466403,29.3175491861812,-6.34700167745541,69.2572187516702,-68.8889319636092,2.55952382216185,-4.87590240412271,11.6002466736011,63.7869628023779,31.4202476132335,5.74802105754559,-2.27177970583948,-2.7237576241375,-5.85610689445147,-22.2044092037057,23.3177279399119,-49.1319172267348,6.10405967472057,9.42978990636573,14.52766338786,-40.9547941944,-53.917076433732,-21.7406612307494,-4.2417157238174,-17.0936398876084,4.69103046213779,-49.9303363387597,-7.6570739458955,18.4684392648442,45.1505846994467,-26.8819231589134,12.4137104019797,-36.9790972194781,-0.608444879368961,-51.4025935434438,53.0842699175382,-5.00632148560317,44.9912198571588,13.2249007495902,-13.4730272130383,66.2452816139481,-19.9725558811066,43.8937277035368,-10.9362753067198,1,1,1,1,1,1,1,1,1,1,1,1,1,1,1,1,1,1,1,1,1,1,1,1,1,1,1,1,1,1,1,1,1,1,1,1,1,1,1,1,1,1,1,1,1,1,1,1,1,1,1,1,1,1,1,1,1,1,1,1,1,1,1,1,1,1,1,1,1,1,1,1,1,1,1,1,1,1,1,1,1,1,1,1,1,1,1,1,1,1,1,1,1,1,1,1,1,1,1,1,1,1,1,1,1,1,1,1,1,1,1,1,1,1,1,1,1,1,1,1,1,1,1,1,1,1,1,1,1,1,1,1,1,1,1,1,1,1,1,1,1,1,1,1,1,1,1,1,1,1,1,1,1,1,1,1,1,1,1,1,1,1,1,1,1,1,1,1,1,1,1,1,1,1,1,1,1,1,1,1,1,1,1,1,1,1,1,1,1,1,1,1,1,1,1,1,1,1,1,1,1,1,1,1,1,1,1,1,1,1,1,1,1,1,1,1,1,1,1,1,1,1,1,1,1,1,1,1,1,1,1,1,1,1,1,1,1,1,1,1,1,1,1,1,1,1,1,1,1,1,1,1,1,1,1,1,1,1,1,1,1,1,1,1,1,1,1,1,1,1
-125.464187803894,100.189380949917,265.628582198465,-125.818860717329,56.5665071427583,54.322451619801,31.9024767267877,10.3781158099015,-33.943158668277,-1.18181931961804,21.1323859379995,-0.0670674141438048,71.2458254416113,-21.9387386540443,-50.2533566940297,-67.9555025647568,12.6986728345672,-0.92655135905409,-24.4364724277927,11.792350714889,-51.9458944325067,-34.6652798010565,-5.98868500006551,-28.0408384967086,-33.2951257033504,-34.8837928997613,16.8524013735991,52.793764410057,7.66743710339899,-35.0586742398626,18.0536138961207,42.5693549784933,55.711724425946,-0.375917770736518,24.5292332602445,-22.8449317902396,-24.3294504452899,24.1046223110399,-32.2691673360135,-11.6995280662254,7.94888664196547,-51.0802394979456,12.762016794533,12.0588626761217,-4.30984058085993,5.36216543434202,-38.9005266375384,-32.6644823298427,7.92805494925893,-29.2314059394479,15.9909069365699,27.3934947860612,-6.43711154084036,33.2690134149802,44.9764224831779,8.69601041149639,-0.816300089945619,13.7617523273682,-31.7720615152696,12.1291871801645,39.3606302355263,-12.8471483142642,16.0819137405522,10.5185483495793,-18.1943927182821,-25.1454743771932,3.67739080212018,20.0470796307921,46.1372968771163,-19.1517220374541,5.76376216988646,51.7604908328489,12.9015434179376,-1.92451622089084,-13.5561272836783,22.8981060713588,48.3460228156287,14.3110240702096,15.4119727958354,11.731868190102,-4.85294189707876,-14.2575773371506,44.9457743338625,-36.857643748771,3.73392754174218,64.9218927232871,3.51037093166879,-64.0033360511814,-42.6055327979691,-0.3581252785672,-24.904748612293,13.5630806626545,-22.4866730398492,-11.3725891093841,13.8880276423422,36.4880240167928,6.73268217749098,-32.9896219560205,-2.01155796614942,48.7563490942387,10.624977336696,63.6450307036466,37.0692486443538,8.00280091293397,-44.4403227906011,43.2450577480965,35.8330144490123,5.29963023688142,12.9431742215427,-73.502584388303,33.1630173043945,-42.5604405697355,18.3798402446905,-73.520116912595,24.9470146391935,-1.28197633841176,64.2778526650162,9.00460911167985,46.5293331118213,16.706792349696,69.2244554826197,6.66957962716567,17.6396670514336,31.9434650723532,-0.0669096997676779,5.7326095746267,-19.0552049978436,-26.4460091017927,3.81996218573912,-52.4902637956715,2.05943617381792,89.2468166835591,-30.2478329158101,3.21676559837631,96.8479085533177,-23.949187299131,-38.0190046977791,53.2166786327603,40.9906273870538,5.57550364317359,26.5784845663954,-36.8664548380657,-9.7387450005751,17.5306163143842,70.2345260421758,19.4536543751498,56.3829975451039,8.38462273300091,-29.884016885179,13.8735567086083,6.55643337178064,-0.633360942218081,-14.1721467752803,4.35387378053144,31.3066531613345,-4.26532166480272,11.3733125812787,16.2837183600928,6.40290918503917,14.6286733909113,0.527734948005234,9.5880880359911,18.3134983278013,-0.743084079458891,-29.1984469360359,-39.7936815325369,-8.94945612910119,16.533908947505,-18.3659046833118,42.6501209933245,15.0646886440159,17.2863230783804,-9.33921940779003,-47.7055070446629,0.935252438839118,-15.4770146312658,8.11374723807753,-4.46301488272995,-35.7199927876019,54.8758456623347,57.2702638629976,42.7006898256387,36.2946449222047,58.046036188076,-21.1897378168737,-13.1713954766891,6.73626268405254,-23.0371691793173,25.9674166951171,34.7397424329658,45.952232017075,-20.9818213671624,20.8344179322378,30.5518871265763,55.6542270707977,60.3881494704234,40.0227383058991,17.86283435173,-20.9255893252013,-21.149659956996,-18.8156381231989,60.6329171294439,-39.8419622860514,22.7678710786233,-44.9363192027219,-49.9683794999451,-39.0058968525928,28.9908688285212,15.8470804812785,25.6517052092846,-41.6934508093429,-33.8831109768241,-23.9004713565034,31.823220550673,15.928658664272,-9.10138336294346,36.5836565676784,-21.3597089935157,8.67254794703651,14.4807305324848,0.60565676651432,-6.35233672627088,-6.40404125418558,-16.1828313724126,5.92752910856435,51.8854432412713,17.151661208416,16.7167930393216,6.91063986443748,5.14545903760854,12.3763620752092,-18.7903690192817,25.8652587116589,-26.5132163537559,4.68530450925057,53.2974570037559,-7.03115432869373,-62.6973516728322,-33.9930837875008,1.53007861791453,27.0539924916135,42.3732067553064,-48.4697722534408,-18.7187065602019,-26.907240428531,19.3738632805064,28.2592830614514,24.2928910281978,49.1358012089207,-7.40780731121434,-13.1435759939837,11.2566018590197,12.8517903538305,49.5393829007874,-3.02144446990588,23.2544385590793,-11.7934342832332,36.2811658644357,-7.76987344455449,2.42633907437978,31.7649814505033,3.03618438311105,68.5583800192125,10.2524490895911,-6.1756282374171,-1.80352704313666,17.6954508651776,-12.4481209734652,-20.1322903535621,-2.43019051598709,7.51960049094752,1.24374456800621,29.4274370211484,36.6054889375609,10.7013829418781,1,1,1,1,1,1,1,1,1,1,1,1,1,1,1,1,1,1,1,1,1,1,1,1,1,1,1,1,1,1,1,1,1,1,1,1,1,1,1,1,1,1,1,1,1,1,1,1,1,1,1,1,1,1,1,1,1,1,1,1,1,1,1,1,1,1,1,1,1,1,1,1,1,1,1,1,1,1,1,1,1,1,1,1,1,1,1,1,1,1,1,1,1,1,1,1,1,1,1,1,1,1,1,1,1,1,1,1,1,1,1,1,1,1,1,1,1,1,1,1,1,1,1,1,1,1,1,1,1,1,1,1,1,1,1,1,1,1,1,1,1,1,1,1,1,1,1,1,1,1,1,1,1,1,1,1,1,1,1,1,1,1,1,1,1,1,1,1,1,1,1,1,1,1,1,1,1,1,1,1,1,1,1,1,1,1,1,1,1,1,1,1,1,1,1,1,1,1,1,1,1,1,1,1,1,1,1,1,1,1,1,1,1,1,1,1,1,1,1,1,1,1,1,1,1,1,1,1,1,1,1,1,1,1,1,1,1,1,1,1,1,1,1,1,1,1,1,1,1,1,1,1,1,1,1,1,1,1,1,1,1,1,1,1,1,1,1,1,1,1,-6.4931546548353,-4.79441392751249,2.19867661346179,36.0927305392043,-55.3591364076636,-36.0821910396845,9.71482748777186,3.35838066850437,37.5223889206802,-46.6801831277798,29.4003248480605,2.71867804398651,-8.21057970829161,-56.6950865081786,-41.0357780795194,44.0193528336466,7.16275449210952,-11.765827537573,4.7832329452762,-10.5449692378753,-5.28870330659436,-29.6785612516663,38.8225675392338,44.9967338215088,-25.80495986786,11.2884550879373,-11.6675721943848,5.94967193372437,-17.5327255666533,-11.2875581048161,-6.9828677490814,0.314450932072183,-5.26878609281715,6.23132469656487,3.87534655663142,9.72764730931292,27.1784856479352,-23.4584802909455,-0.999912427092829,-17.4166978104241,9.45425738586621,-1.85476167011444,55.3854333201877,-19.1189659488029,-72.2035121577056,-30.4730136283172,19.5991129471045,40.8686956913322,-13.4924718195491,38.2727664003275,17.9073598568177,24.5582317392148,-38.7975484071612,-16.2060111544502,69.4669846343181,30.2900119363619,45.6754044859865,-3.99020976146451,-31.1969785214718,-35.2971357423199,-6.60172409637171,2.23787022362488,36.9331758495676,-42.6207097499756,61.6526753056294,-14.0242416081589,34.1147725960795,4.96028460717959,-43.2313315089207,7.81118509489772,-34.5945923913509,43.7308979773824,-0.202233674587309,33.1099399651254,35.2089511674537,6.13839817174589,-8.06756655451181,63.2354807420995,20.0506281681953,34.6887744784473,24.6500803827472,-13.8565928149801,30.9196896538221,-22.3825128099771,6.3896710125495,-15.5416878088261,-12.0869064492321,22.6077184528146,36.8983662276569,14.7472528632641,-36.4717758838089,-29.3511542834512,3.7173089035791,-32.0426443298491,-23.9810464428504,32.680423038843,0.859196945106491,-26.5328954575452,-12.3602831095466,-33.4612672713331,-10.6394030030958,8.50720104904847,15.3700135743031,18.7363372442132,10.5735433661577,-6.32301798027317,-28.3231087021038,3.86582955922524,24.9425933977139,-23.0170187018783,-27.9818419955177,-29.6885776810653,-8.38237808080256,-6.15180574541671,40.4929986474207,-40.12845476669,63.7966484137447,58.7030538459458,-21.8714016743346,7.78819760529248,-0.666574304142388,-9.8395971244472,15.0689046786414,-14.4576712201948,64.7941409298791,39.1188441903472,-3.85674473766819,17.4746508158655,-26.5282213011509,-36.3985071366198,-1.98396492576448,8.05859837612321,-25.439811708044,3.90524025844981,-42.7041902262419,51.538715981638,53.9974908933383,24.9700450491896,-8.34249042411348,-22.8530844413408,-10.9627669321958,30.2066492735087,17.1405653965392,-22.3238257258199,-46.3743932891367,10.1462103396303,57.8061061880011,-54.2305046163107,-37.9278329897154,-18.3380381386598,23.1306035146329,-13.5861861499854,-2.74685032247807,30.6844184922671,-48.8281825972687,-7.81735932514115,58.652374559228,15.3668586237432,-4.75224073176596,-6.39549156818592,34.0290462881748,-3.63723933001948,-19.7698772497528,19.7764103502535,-87.5819182865094,4.3442303535186,-44.7368034477355,-29.6222198876814,6.09223861792612,24.2168811380057,1.38312149292808,15.0017159251392,-51.6217660928495,2.59204317025083,14.2415304202988,-25.4111325318483,-52.966761309967,26.8475670831324,-9.27070471097993,0.104948474227645,45.5019182925457,-9.23312472561496,-30.329507853484,24.8100582643179,39.2832209621875,8.70159488767445,-26.634341985173,-32.775649803509,17.0819444764147,37.2739545822894,-20.412061476196,-7.96859258658605,-13.4017716308506,8.22450701853694,-2.17812134389797,0.693777511147883,47.0293282643401,6.53981575925029,-37.5288220043669,15.9584847210719,-34.1907946984061,-32.4419828359858,-12.2941987672398,-28.6728384873721,1.71736128336811,13.8363829283689,23.0101723112018,10.3862072314865,-40.5740968892097,-0.960519811164352,-30.0645671073103,-41.4149532241415,-56.5256831204704,-15.9386182454957,-50.0389476502457,4.19152529700319,17.649184292305,-10.2024610400341,-44.4933843802899,-9.14523007484681,34.2874456164892,14.7597897140496,63.1126686097013,-35.4288200254487,20.1228975414477,-15.4050456968578,-5.43232883466403,29.3175491861812,-6.34700167745541,69.2572187516702,-68.8889319636092,2.55952382216185,-4.87590240412271,11.6002466736011,63.7869628023779,31.4202476132335,5.74802105754559,-2.27177970583948,-2.7237576241375,-5.85610689445147,-22.2044092037057,23.3177279399119,-49.1319172267348,6.10405967472057,9.42978990636573,14.52766338786,-40.9547941944,-53.917076433732,-21.7406612307494,-4.2417157238174,-17.0936398876084,4.69103046213779,-49.9303363387597,-7.6570739458955,18.4684392648442,45.1505846994467,-26.8819231589134,12.4137104019797,-36.9790972194781,-0.608444879368961,-51.4025935434438,53.0842699175382,-5.00632148560317,44.9912198571588,13.2249007495902,-13.4730272130383,66.2452816139481,-19.9725558811066,43.8937277035368,-10.9362753067198,1,1,1,1,1,1,1,1,1,1,1,1,1,1,1,1,1,1,1,1,1,1,1,1,1,1,1,1,1,1,1,1,1,1,1,1,1,1,1,1,1,1,1,1,1,1,1,1,1,1,1,1,1,1,1,1,1,1,1,1,1,1,1,1,1,1,1,1,1,1,1,1,1,1,1,1,1,1,1,1,1,1,1,1,1,1,1,1,1,1,1,1,1,1,1,1,1,1,1,1,1,1,1,1,1,1,1,1,1,1,1,1,1,1,1,1,1,1,1,1,1,1,1,1,1,1,1,1,1,1,1,1,1,1,1,1,1,1,1,1,1,1,1,1,1,1,1,1,1,1,1,1,1,1,1,1,1,1,1,1,1,1,1,1,1,1,1,1,1,1,1,1,1,1,1,1,1,1,1,1,1,1,1,1,1,1,1,1,1,1,1,1,1,1,1,1,1,1,1,1,1,1,1,1,1,1,1,1,1,1,1,1,1,1,1,1,1,1,1,1,1,1,1,1,1,1,1,1,1,1,1,1,1,1,1,1,1,1,1,1,1,1,1,1,1,1,1,1,1,1,1,1,1,1,1,1,1,1,1,1,1,1,1,1,1,1,1,1,1,1,11.5678289902123,-70.2040304727757,54.322451619801,31.9024767267877,10.3781158099015,-33.943158668277,-1.18181931961804,21.1323859379995,-0.0670674141438048,71.2458254416113,-21.9387386540443,-50.2533566940297,-67.9555025647568,12.6986728345672,-0.92655135905409,-24.4364724277927,11.792350714889,-51.9458944325067,-34.6652798010565,-5.98868500006551,-28.0408384967086,-33.2951257033504,-34.8837928997613,16.8524013735991,52.793764410057,7.66743710339899,-35.0586742398626,18.0536138961207,42.5693549784933,55.711724425946,-0.375917770736518,24.5292332602445,-22.8449317902396,-24.3294504452899,24.1046223110399,-32.2691673360135,-11.6995280662254,7.94888664196547,-51.0802394979456,12.762016794533,12.0588626761217,-4.30984058085993,5.36216543434202,-38.9005266375384,-32.6644823298427,7.92805494925893,-29.2314059394479,15.9909069365699,27.3934947860612,-6.43711154084036,33.2690134149802,44.9764224831779,8.69601041149639,-0.816300089945619,13.7617523273682,-31.7720615152696,12.1291871801645,39.3606302355263,-12.8471483142642,16.0819137405522,10.5185483495793,-18.1943927182821,-25.1454743771932,3.67739080212018,20.0470796307921,46.1372968771163,-19.1517220374541,5.76376216988646,51.7604908328489,12.9015434179376,-1.92451622089084,-13.5561272836783,22.8981060713588,48.3460228156287,14.3110240702096,15.4119727958354,11.731868190102,-4.85294189707876,-14.2575773371506,44.9457743338625,-36.857643748771,3.73392754174218,64.9218927232871,3.51037093166879,-64.0033360511814,-42.6055327979691,-0.3581252785672,-24.904748612293,13.5630806626545,-22.4866730398492,-11.3725891093841,13.8880276423422,36.4880240167928,6.73268217749098,-32.9896219560205,-2.01155796614942,48.7563490942387,10.624977336696,63.6450307036466,37.0692486443538,8.00280091293397,-44.4403227906011,43.2450577480965,35.8330144490123,5.29963023688142,12.9431742215427,-73.502584388303,33.1630173043945,-42.5604405697355,18.3798402446905,-73.520116912595,24.9470146391935,-1.28197633841176,64.2778526650162,9.00460911167985,46.5293331118213,16.706792349696,69.2244554826197,6.66957962716567,17.6396670514336,31.9434650723532,-0.0669096997676779,5.7326095746267,-19.0552049978436,-26.4460091017927,3.81996218573912,-52.4902637956715,2.05943617381792,89.2468166835591,-30.2478329158101,3.21676559837631,96.8479085533177,-23.949187299131,-38.0190046977791,53.2166786327603,40.9906273870538,5.57550364317359,26.5784845663954,-36.8664548380657,-9.7387450005751,17.5306163143842,70.2345260421758,19.4536543751498,56.3829975451039,8.38462273300091,-29.884016885179,13.8735567086083,6.55643337178064,-0.633360942218081,-14.1721467752803,4.35387378053144,31.3066531613345,-4.26532166480272,11.3733125812787,16.2837183600928,6.40290918503917,14.6286733909113,0.527734948005234,9.5880880359911,18.3134983278013,-0.743084079458891,-29.1984469360359,-39.7936815325369,-8.94945612910119,16.533908947505,-18.3659046833118,42.6501209933245,15.0646886440159,17.2863230783804,-9.33921940779003,-47.7055070446629,0.935252438839118,-15.4770146312658,8.11374723807753,-4.46301488272995,-35.7199927876019,54.8758456623347,57.2702638629976,42.7006898256387,36.2946449222047,58.046036188076,-21.1897378168737,-13.1713954766891,6.73626268405254,-23.0371691793173,25.9674166951171,34.7397424329658,45.952232017075,-20.9818213671624,20.8344179322378,30.5518871265763,55.6542270707977,60.3881494704234,40.0227383058991,17.86283435173,-20.9255893252013,-21.149659956996,-18.8156381231989,60.6329171294439,-39.8419622860514,22.7678710786233,-44.9363192027219,-49.9683794999451,-39.0058968525928,28.9908688285212,15.8470804812785,25.6517052092846,-41.6934508093429,-33.8831109768241,-23.9004713565034,31.823220550673,15.928658664272,-9.10138336294346,36.5836565676784,-21.3597089935157,8.67254794703651,14.4807305324848,0.60565676651432,-6.35233672627088,-6.40404125418558,-16.1828313724126,5.92752910856435,51.8854432412713,17.151661208416,16.7167930393216,6.91063986443748,5.14545903760854,12.3763620752092,-18.7903690192817,25.8652587116589,-26.5132163537559,4.68530450925057,53.2974570037559,-7.03115432869373,-62.6973516728322,-33.9930837875008,1.53007861791453,27.0539924916135,42.3732067553064,-48.4697722534408,-18.7187065602019,-26.907240428531,19.3738632805064,28.2592830614514,24.2928910281978,49.1358012089207,-7.40780731121434,-13.1435759939837,11.2566018590197,12.8517903538305,49.5393829007874,-3.02144446990588,23.2544385590793,-11.7934342832332,36.2811658644357,-7.76987344455449,2.42633907437978,31.7649814505033,3.03618438311105,68.5583800192125,10.2524490895911,-6.1756282374171,-1.80352704313666,17.6954508651776,-12.4481209734652,-20.1322903535621,-2.43019051598709,7.51960049094752,1.24374456800621,29.4274370211484,36.6054889375609,10.7013829418781,1,1,1,1,1,1,1,1,1,1,1,1,1,1,1,1,1,1,1,1,1,1,1,1,1,1,1,1,1,1,1,1,1,1,1,1,1,1,1,1,1,1,1,1,1,1,1,1,1,1,1,1,1,1,1,1,1,1,1,1,1,1,1,1,1,1,1,1,1,1,1,1,1,1,1,1,1,1,1,1,1,1,1,1,1,1,1,1,1,1,1,1,1,1,1,1,1,1,1,1,1,1,1,1,1,1,1,1,1,1,1,1,1,1,1,1,1,1,1,1,1,1,1,1,1,1,1,1,1,1,1,1,1,1,1,1,1,1,1,1,1,1,1,1,1,1,1,1,1,1,1,1,1,1,1,1,1,1,1,1,1,1,1,1,1,1,1,1,1,1,1,1,1,1,1,1,1,1,1,1,1,1,1,1,1,1,1,1,1,1,1,1,1,1,1,1,1,1,1,1,1,1,1,1,1,1,1,1,1,1,1,1,1,1,1,1,1,1,1,1,1,1,1,1,1,1,1,1,1,1,1,1,1,1,1,1,1,1,1,1,1,1,1,1,1,1,1,1,1,1,1,1,1,1,1,1,1,1,1,1,1,1,1,1,1,1,1,1,1,1,-6.4931546548353,-4.79441392751249,2.19867661346179,36.0927305392043,-55.3591364076636,-36.0821910396845,9.71482748777186,3.35838066850437,37.5223889206802,-46.6801831277798,29.4003248480605,2.71867804398651,-8.21057970829161,-56.6950865081786,-41.0357780795194,44.0193528336466,7.16275449210952,-11.765827537573,4.7832329452762,-10.5449692378753,-5.28870330659436,-29.6785612516663,38.8225675392338,44.9967338215088,-25.80495986786,11.2884550879373,-11.6675721943848,5.94967193372437,-17.5327255666533,-11.2875581048161,-6.9828677490814,0.314450932072183,-5.26878609281715,6.23132469656487,3.87534655663142,9.72764730931292,27.1784856479352,-23.4584802909455,-0.999912427092829,-17.4166978104241,9.45425738586621,-1.85476167011444,55.3854333201877,-19.1189659488029,-72.2035121577056,-30.4730136283172,19.5991129471045,40.8686956913322,-13.4924718195491,38.2727664003275,17.9073598568177,24.5582317392148,-38.7975484071612,-16.2060111544502,69.4669846343181,30.2900119363619,45.6754044859865,-3.99020976146451,-31.1969785214718,-35.2971357423199,-6.60172409637171,2.23787022362488,36.9331758495676,-42.6207097499756,61.6526753056294,-14.0242416081589,34.1147725960795,4.96028460717959,-43.2313315089207,7.81118509489772,-34.5945923913509,43.7308979773824,-0.202233674587309,33.1099399651254,35.2089511674537,6.13839817174589,-8.06756655451181,63.2354807420995,20.0506281681953,34.6887744784473,24.6500803827472,-13.8565928149801,30.9196896538221,-22.3825128099771,6.3896710125495,-15.5416878088261,-12.0869064492321,22.6077184528146,36.8983662276569,14.7472528632641,-36.4717758838089,-29.3511542834512,3.7173089035791,-32.0426443298491,-23.9810464428504,32.680423038843,0.859196945106491,-26.5328954575452,-12.3602831095466,-33.4612672713331,-10.6394030030958,8.50720104904847,15.3700135743031,18.7363372442132,10.5735433661577,-6.32301798027317,-28.3231087021038,3.86582955922524,24.9425933977139,-23.0170187018783,-27.9818419955177,-29.6885776810653,-8.38237808080256,-6.15180574541671,40.4929986474207,-40.12845476669,63.7966484137447,58.7030538459458,-21.8714016743346,7.78819760529248,-0.666574304142388,-9.8395971244472,15.0689046786414,-14.4576712201948,64.7941409298791,39.1188441903472,-3.85674473766819,17.4746508158655,-26.5282213011509,-36.3985071366198,-1.98396492576448,8.05859837612321,-25.439811708044,3.90524025844981,-42.7041902262419,51.538715981638,53.9974908933383,24.9700450491896,-8.34249042411348,-22.8530844413408,-10.9627669321958,30.2066492735087,17.1405653965392,-22.3238257258199,-46.3743932891367,10.1462103396303,57.8061061880011,-54.2305046163107,-37.9278329897154,-18.3380381386598,23.1306035146329,-13.5861861499854,-2.74685032247807,30.6844184922671,-48.8281825972687,-7.81735932514115,58.652374559228,15.3668586237432,-4.75224073176596,-6.39549156818592,34.0290462881748,-3.63723933001948,-19.7698772497528,19.7764103502535,-87.5819182865094,4.3442303535186,-44.7368034477355,-29.6222198876814,6.09223861792612,24.2168811380057,1.38312149292808,15.0017159251392,-51.6217660928495,2.59204317025083,14.2415304202988,-25.4111325318483,-52.966761309967,26.8475670831324,-9.27070471097993,0.104948474227645,45.5019182925457,-9.23312472561496,-30.329507853484,24.8100582643179,39.2832209621875,8.70159488767445,-26.634341985173,-32.775649803509,17.0819444764147,37.2739545822894,-20.412061476196,-7.96859258658605,-13.4017716308506,8.22450701853694,-2.17812134389797,0.693777511147883,47.0293282643401,6.53981575925029,-37.5288220043669,15.9584847210719,-34.1907946984061,-32.4419828359858,-12.2941987672398,-28.6728384873721,1.71736128336811,13.8363829283689,23.0101723112018,10.3862072314865,-40.5740968892097,-0.960519811164352,-30.0645671073103,-41.4149532241415,-56.5256831204704,-15.9386182454957,-50.0389476502457,4.19152529700319,17.649184292305,-10.2024610400341,-44.4933843802899,-9.14523007484681,34.2874456164892,14.7597897140496,63.1126686097013,-35.4288200254487,20.1228975414477,-15.4050456968578,-5.43232883466403,29.3175491861812,-6.34700167745541,69.2572187516702,-68.8889319636092,2.55952382216185,-4.87590240412271,11.6002466736011,63.7869628023779,31.4202476132335,5.74802105754559,-2.27177970583948,-2.7237576241375,-5.85610689445147,-22.2044092037057,23.3177279399119,-49.1319172267348,6.10405967472057,9.42978990636573,14.52766338786,-40.9547941944,-53.917076433732,-21.7406612307494,-4.2417157238174,-17.0936398876084,4.69103046213779,-49.9303363387597,-7.6570739458955,18.4684392648442,45.1505846994467,-26.8819231589134,12.4137104019797,-36.9790972194781,-0.608444879368961,-51.4025935434438,53.0842699175382,-5.00632148560317,44.9912198571588,13.2249007495902,-13.4730272130383,66.2452816139481,-19.9725558811066,43.8937277035368,-10.9362753067198,1,1,1,1,1,1,1,1,1,1,1,1,1,1,1,1,1,1,1,1,1,1,1,1,1,1,1,1,1,1,1,1,1,1,1,1,1,1,1,1,1,1,1,1,1,1,1,1,1,1,1,1,1,1,1,1,1,1,1,1,1,1,1,1,1,1,1,1,1,1,1,1,1,1,1,1,1,1,1,1,1,1,1,1,1,1,1,1,1,1,1,1,1,1,1,1,1,1,1,1,1,1,1,1,1,1,1,1,1,1,1,1,1,1,1,1,1,1,1,1,1,1,1,1,1,1,1,1,1,1,1,1,1,1,1,1,1,1,1,1,1,1,1,1,1,1,1,1,1,1,1,1,1,1,1,1,1,1,1,1,1,1,1,1,1,1,1,1,1,1,1,1,1,1,1,1,1,1,1,1,1,1,1,1,1,1,1,1,1,1,1,1,1,1,1,1,1,1,1,1,1,1,1,1,1,1,1,1,1,1,1,1,1,1,1,1,1,1,1,1,1,1,1,1,1,1,1,1,1,1,1,1,1,1,1,1,1,1,1,1,1,1,1,1,1,1,1,1,1,1,1,1,1,1,1,1,1,1,1,1,1,1,1,1,1,1,1,1,1,1,-98.6297677991415,-17.1264217557424,54.322451619801,31.9024767267877,10.3781158099015,-33.943158668277,-1.18181931961804,21.1323859379995,-0.0670674141438048,71.2458254416113,-21.9387386540443,-50.2533566940297,-67.9555025647568,12.6986728345672,-0.92655135905409,-24.4364724277927,11.792350714889,-51.9458944325067,-34.6652798010565,-5.98868500006551,-28.0408384967086,-33.2951257033504,-34.8837928997613,16.8524013735991,52.793764410057,7.66743710339899,-35.0586742398626,18.0536138961207,42.5693549784933,55.711724425946,-0.375917770736518,24.5292332602445,-22.8449317902396,-24.3294504452899,24.1046223110399,-32.2691673360135,-11.6995280662254,7.94888664196547,-51.0802394979456,12.762016794533,12.0588626761217,-4.30984058085993,5.36216543434202,-38.9005266375384,-32.6644823298427,7.92805494925893,-29.2314059394479,15.9909069365699,27.3934947860612,-6.43711154084036,33.2690134149802,44.9764224831779,8.69601041149639,-0.816300089945619,13.7617523273682,-31.7720615152696,12.1291871801645,39.3606302355263,-12.8471483142642,16.0819137405522,10.5185483495793,-18.1943927182821,-25.1454743771932,3.67739080212018,20.0470796307921,46.1372968771163,-19.1517220374541,5.76376216988646,51.7604908328489,12.9015434179376,-1.92451622089084,-13.5561272836783,22.8981060713588,48.3460228156287,14.3110240702096,15.4119727958354,11.731868190102,-4.85294189707876,-14.2575773371506,44.9457743338625,-36.857643748771,3.73392754174218,64.9218927232871,3.51037093166879,-64.0033360511814,-42.6055327979691,-0.3581252785672,-24.904748612293,13.5630806626545,-22.4866730398492,-11.3725891093841,13.8880276423422,36.4880240167928,6.73268217749098,-32.9896219560205,-2.01155796614942,48.7563490942387,10.624977336696,63.6450307036466,37.0692486443538,8.00280091293397,-44.4403227906011,43.2450577480965,35.8330144490123,5.29963023688142,12.9431742215427,-73.502584388303,33.1630173043945,-42.5604405697355,18.3798402446905,-73.520116912595,24.9470146391935,-1.28197633841176,64.2778526650162,9.00460911167985,46.5293331118213,16.706792349696,69.2244554826197,6.66957962716567,17.6396670514336,31.9434650723532,-0.0669096997676779,5.7326095746267,-19.0552049978436,-26.4460091017927,3.81996218573912,-52.4902637956715,2.05943617381792,89.2468166835591,-30.2478329158101,3.21676559837631,96.8479085533177,-23.949187299131,-38.0190046977791,53.2166786327603,40.9906273870538,5.57550364317359,26.5784845663954,-36.8664548380657,-9.7387450005751,17.5306163143842,70.2345260421758,19.4536543751498,56.3829975451039,8.38462273300091,-29.884016885179,13.8735567086083,6.55643337178064,-0.633360942218081,-14.1721467752803,4.35387378053144,31.3066531613345,-4.26532166480272,11.3733125812787,16.2837183600928,6.40290918503917,14.6286733909113,0.527734948005234,9.5880880359911,18.3134983278013,-0.743084079458891,-29.1984469360359,-39.7936815325369,-8.94945612910119,16.533908947505,-18.3659046833118,42.6501209933245,15.0646886440159,17.2863230783804,-9.33921940779003,-47.7055070446629,0.935252438839118,-15.4770146312658,8.11374723807753,-4.46301488272995,-35.7199927876019,54.8758456623347,57.2702638629976,42.7006898256387,36.2946449222047,58.046036188076,-21.1897378168737,-13.1713954766891,6.73626268405254,-23.0371691793173,25.9674166951171,34.7397424329658,45.952232017075,-20.9818213671624,20.8344179322378,30.5518871265763,55.6542270707977,60.3881494704234,40.0227383058991,17.86283435173,-20.9255893252013,-21.149659956996,-18.8156381231989,60.6329171294439,-39.8419622860514,22.7678710786233,-44.9363192027219,-49.9683794999451,-39.0058968525928,28.9908688285212,15.8470804812785,25.6517052092846,-41.6934508093429,-33.8831109768241,-23.9004713565034,31.823220550673,15.928658664272,-9.10138336294346,36.5836565676784,-21.3597089935157,8.67254794703651,14.4807305324848,0.60565676651432,-6.35233672627088,-6.40404125418558,-16.1828313724126,5.92752910856435,51.8854432412713,17.151661208416,16.7167930393216,6.91063986443748,5.14545903760854,12.3763620752092,-18.7903690192817,25.8652587116589,-26.5132163537559,4.68530450925057,53.2974570037559,-7.03115432869373,-62.6973516728322,-33.9930837875008,1.53007861791453,27.0539924916135,42.3732067553064,-48.4697722534408,-18.7187065602019,-26.907240428531,19.3738632805064,28.2592830614514,24.2928910281978,49.1358012089207,-7.40780731121434,-13.1435759939837,11.2566018590197,12.8517903538305,49.5393829007874,-3.02144446990588,23.2544385590793,-11.7934342832332,36.2811658644357,-7.76987344455449,2.42633907437978,31.7649814505033,3.03618438311105,68.5583800192125,10.2524490895911,-6.1756282374171,-1.80352704313666,17.6954508651776,-12.4481209734652,-20.1322903535621,-2.43019051598709,7.51960049094752,1.24374456800621,29.4274370211484,36.6054889375609,10.7013829418781,1,1,1,1,1,1,1,1,1,1,1,1,1,1,1,1,1,1,1,1,1,1,1,1,1,1,1,1,1,1,1,1,1,1,1,1,1,1,1,1,1,1,1,1,1,1,1,1,1,1,1,1,1,1,1,1,1,1,1,1,1,1,1,1,1,1,1,1,1,1,1,1,1,1,1,1,1,1,1,1,1,1,1,1,1,1,1,1,1,1,1,1,1,1,1,1,1,1,1,1,1,1,1,1,1,1,1,1,1,1,1,1,1,1,1,1,1,1,1,1,1,1,1,1,1,1,1,1,1,1,1,1,1,1,1,1,1,1,1,1,1,1,1,1,1,1,1,1,1,1,1,1,1,1,1,1,1,1,1,1,1,1,1,1,1,1,1,1,1,1,1,1,1,1,1,1,1,1,1,1,1,1,1,1,1,1,1,1,1,1,1,1,1,1,1,1,1,1,1,1,1,1,1,1,1,1,1,1,1,1,1,1,1,1,1,1,1,1,1,1,1,1,1,1,1,1,1,1,1,1,1,1,1,1,1,1,1,1,1,1,1,1,1,1,1,1,1,1,1,1,1,1,1,1,1,1,1,1,1,1,1,1,1,1,1,1,1,1,1,1,-6.4931546548353,-4.79441392751249,2.19867661346179,36.0927305392043,-55.3591364076636,-36.0821910396845,9.71482748777186,3.35838066850437,37.5223889206802,-46.6801831277798,29.4003248480605,2.71867804398651,-8.21057970829161,-56.6950865081786,-41.0357780795194,44.0193528336466,7.16275449210952,-11.765827537573,4.7832329452762,-10.5449692378753,-5.28870330659436,-29.6785612516663,38.8225675392338,44.9967338215088,-25.80495986786,11.2884550879373,-11.6675721943848,5.94967193372437,-17.5327255666533,-11.2875581048161,-6.9828677490814,0.314450932072183,-5.26878609281715,6.23132469656487,3.87534655663142,9.72764730931292,27.1784856479352,-23.4584802909455,-0.999912427092829,-17.4166978104241,9.45425738586621,-1.85476167011444,55.3854333201877,-19.1189659488029,-72.2035121577056,-30.4730136283172,19.5991129471045,40.8686956913322,-13.4924718195491,38.2727664003275,17.9073598568177,24.5582317392148,-38.7975484071612,-16.2060111544502,69.4669846343181,30.2900119363619,45.6754044859865,-3.99020976146451,-31.1969785214718,-35.2971357423199,-6.60172409637171,2.23787022362488,36.9331758495676,-42.6207097499756,61.6526753056294,-14.0242416081589,34.1147725960795,4.96028460717959,-43.2313315089207,7.81118509489772,-34.5945923913509,43.7308979773824,-0.202233674587309,33.1099399651254,35.2089511674537,6.13839817174589,-8.06756655451181,63.2354807420995,20.0506281681953,34.6887744784473,24.6500803827472,-13.8565928149801,30.9196896538221,-22.3825128099771,6.3896710125495,-15.5416878088261,-12.0869064492321,22.6077184528146,36.8983662276569,14.7472528632641,-36.4717758838089,-29.3511542834512,3.7173089035791,-32.0426443298491,-23.9810464428504,32.680423038843,0.859196945106491,-26.5328954575452,-12.3602831095466,-33.4612672713331,-10.6394030030958,8.50720104904847,15.3700135743031,18.7363372442132,10.5735433661577,-6.32301798027317,-28.3231087021038,3.86582955922524,24.9425933977139,-23.0170187018783,-27.9818419955177,-29.6885776810653,-8.38237808080256,-6.15180574541671,40.4929986474207,-40.12845476669,63.7966484137447,58.7030538459458,-21.8714016743346,7.78819760529248,-0.666574304142388,-9.8395971244472,15.0689046786414,-14.4576712201948,64.7941409298791,39.1188441903472,-3.85674473766819,17.4746508158655,-26.5282213011509,-36.3985071366198,-1.98396492576448,8.05859837612321,-25.439811708044,3.90524025844981,-42.7041902262419,51.538715981638,53.9974908933383,24.9700450491896,-8.34249042411348,-22.8530844413408,-10.9627669321958,30.2066492735087,17.1405653965392,-22.3238257258199,-46.3743932891367,10.1462103396303,57.8061061880011,-54.2305046163107,-37.9278329897154,-18.3380381386598,23.1306035146329,-13.5861861499854,-2.74685032247807,30.6844184922671,-48.8281825972687,-7.81735932514115,58.652374559228,15.3668586237432,-4.75224073176596,-6.39549156818592,34.0290462881748,-3.63723933001948,-19.7698772497528,19.7764103502535,-87.5819182865094,4.3442303535186,-44.7368034477355,-29.6222198876814,6.09223861792612,24.2168811380057,1.38312149292808,15.0017159251392,-51.6217660928495,2.59204317025083,14.2415304202988,-25.4111325318483,-52.966761309967,26.8475670831324,-9.27070471097993,0.104948474227645,45.5019182925457,-9.23312472561496,-30.329507853484,24.8100582643179,39.2832209621875,8.70159488767445,-26.634341985173,-32.775649803509,17.0819444764147,37.2739545822894,-20.412061476196,-7.96859258658605,-13.4017716308506,8.22450701853694,-2.17812134389797,0.693777511147883,47.0293282643401,6.53981575925029,-37.5288220043669,15.9584847210719,-34.1907946984061,-32.4419828359858,-12.2941987672398,-28.6728384873721,1.71736128336811,13.8363829283689,23.0101723112018,10.3862072314865,-40.5740968892097,-0.960519811164352,-30.0645671073103,-41.4149532241415,-56.5256831204704,-15.9386182454957,-50.0389476502457,4.19152529700319,17.649184292305,-10.2024610400341,-44.4933843802899,-9.14523007484681,34.2874456164892,14.7597897140496,63.1126686097013,-35.4288200254487,20.1228975414477,-15.4050456968578,-5.43232883466403,29.3175491861812,-6.34700167745541,69.2572187516702,-68.8889319636092,2.55952382216185,-4.87590240412271,11.6002466736011,63.7869628023779,31.4202476132335,5.74802105754559,-2.27177970583948,-2.7237576241375,-5.85610689445147,-22.2044092037057,23.3177279399119,-49.1319172267348,6.10405967472057,9.42978990636573,14.52766338786,-40.9547941944,-53.917076433732,-21.7406612307494,-4.2417157238174,-17.0936398876084,4.69103046213779,-49.9303363387597,-7.6570739458955,18.4684392648442,45.1505846994467,-26.8819231589134,12.4137104019797,-36.9790972194781,-0.608444879368961,-51.4025935434438,53.0842699175382,-5.00632148560317,44.9912198571588,13.2249007495902,-13.4730272130383,66.2452816139481,-19.9725558811066,43.8937277035368,-10.9362753067198,1,1,1,1,1,1,1,1,1,1,1,1,1,1,1,1,1,1,1,1,1,1,1,1,1,1,1,1,1,1,1,1,1,1,1,1,1,1,1,1,1,1,1,1,1,1,1,1,1,1,1,1,1,1,1,1,1,1,1,1,1,1,1,1,1,1,1,1,1,1,1,1,1,1,1,1,1,1,1,1,1,1,1,1,1,1,1,1,1,1,1,1,1,1,1,1,1,1,1,1,1,1,1,1,1,1,1,1,1,1,1,1,1,1,1,1,1,1,1,1,1,1,1,1,1,1,1,1,1,1,1,1,1,1,1,1,1,1,1,1,1,1,1,1,1,1,1,1,1,1,1,1,1,1,1,1,1,1,1,1,1,1,1,1,1,1,1,1,1,1,1,1,1,1,1,1,1,1,1,1,1,1,1,1,1,1,1,1,1,1,1,1,1,1,1,1,1,1,1,1,1,1,1,1,1,1,1,1,1,1,1,1,1,1,1,1,1,1,1,1,1,1,1,1,1,1,1,1,1,1,1,1,1,1,1,1,1,1,1,1,1,1,1,1,1,1,1,1,1,1,1,1,1,1,1,1,1,1,1,1,1,1,1,1,1,1,1,1,1,1
