315.91478938326,295.648615354508,169.603769910337,-78.4594600026199,99.9448449676343,-16.6370961975875,-0.474605361660912,1.48679048070312,-4.94955733585592,6.66325229703209,68.7332802964518,-7.83877965755665,8.69013616694669,-55.2725414043416,15.9584486204939,-3.65636306049348,-49.3715689851405,24.2167987258481,-29.7380807071251,-43.4213797277668,-2.49570784481246,-29.1451633390996,-90.0249980664337,-68.0001407181035,9.91395389559613,25.0325801965526,1.04989755067569,-93.3862111909934,76.5753855372568,41.1694892647864,37.8412479905272,30.4391342825351,-3.64593376589805,-10.7989311172858,-25.4107337879015,9.02977570058994,15.7622445219727,-25.1664195443939,-44.3392548393221,-30.2328296074945,-5.18103157650661,34.2692833012387,-13.8726993518087,-21.2972007478762,29.4174905533669,-44.6183122800486,47.9697771653766,-69.1305941962451,-10.1278775545845,32.8233123198637,8.6313876053996,6.55301958758153,14.266459936834,-3.77421292704627,35.2231443247412,83.2930443837189,-3.41132806590846,-20.2596908112413,43.9837510666305,-22.0317008983995,25.1247037298532,13.499146086937,15.5702822325129,-40.3928896390021,-67.8865420186826,-12.331064401693,1.63475918378561,-37.9929357142972,19.3560090609516,57.1961733178625,43.4037604885393,-5.07583097004861,-1.3296016883064,79.0159381704928,-5.0861780844665,5.92646357388606,36.9271335815505,9.45569251772541,19.0209299646349,-44.8684560398667,47.2141955857007,-21.9027392051784,-3.38170751581372,36.8766635471405,15.1930483811796,-36.3515623116212,-9.67515563458548,25.4372149773693,25.0110210396913,46.2185875062656,30.6909105927527,35.5243066298544,-18.0385847090909,-12.6827145199551,31.4448863942947,-49.2137834552818,9.54687572057708,59.0298501578675,42.2814818773893,127.118736112878,-10.9613193853689,8.42538976472258,-4.89150571411172,22.5482080774393,12.9327468786703,-16.1271354166899,21.1859091590712,-62.1416997163769,-8.82391225201228,-29.0843185283264,52.2966976513365,-75.8996751662426,-6.97189307411812,-25.3893451991443,46.9772344214836,-17.3260705553238,52.1625323279916,40.9165090973153,18.9828728684138,45.1141185720728,-22.9149601117593,12.0381712371188,69.0007344245247,-5.60575798559631,-12.4273827346156,38.7227617986292,-7.96596653706402,-61.7831336699244,-0.387097397747249,13.9820222916353,-33.8274500131046,0.0421106352500509,105.07810955688,-37.7387353743416,-12.2085280772604,101.950747588017,29.7806828547873,13.8032342424631,27.2271650610799,-45.1407905251825,3.97273281593563,18.687441317468,56.7805914976017,45.4390089595147,-26.8593226725166,-9.96590327014663,-12.4063221886833,-18.0642784976987,21.7458379766512,-39.1122927505088,41.8382888521088,-20.5308163780424,45.1868271328335,1.73167399584702,1.78424863388978,3.24225466881162,7.45092140189518,22.5657301048778,-25.7979561017837,1.14191625965269,-5.11879957016946,-31.3969792275359,-17.9131698353666,9.6176536011282,-6.69161460275682,-10.0468870456986,-45.534403079178,-2.31128877919837,39.5707475014109,-36.053651360714,17.6657527346221,6.43453585708919,12.915278089393,-4.05184910564431,21.8621938805666,-42.9850600296656,-53.8188005320379,53.5554369266199,30.621876015196,81.8399890092961,55.9665378293424,58.4801908618509,39.6576050896714,4.9404463567786,-0.243670468643949,-24.5589824690487,30.6133589104645,69.8788920656916,64.1770119768684,-15.2996310184565,37.0948153560021,16.8563759103483,93.8150016427048,35.7439328924943,38.6281094745554,-22.0923748732652,-30.8288121191942,25.7166904842149,-32.702526637037,61.3890635803244,-30.5242326447299,42.7678028705239,-25.3922396512667,-21.0121811455825,-75.315328792809,-9.57580356970465,51.3109572804587,11.0473452395642,-37.6846058108262,5.54405247092581,-48.9268784632852,-7.39014423176782,-12.1296763362387,-8.38953952363789,53.2431247601331,15.4264766556065,2.58353605264553,53.8610393347904,37.0681468463753,24.4904359359785,-46.5378098417289,23.4942561806958,-5.21516710620705,15.4224119594095,-17.4311942765899,11.6369557037874,-32.5440253471889,41.635587909367,1.89466694476782,-66.4600052546848,4.10070889037511,-65.1508634709878,-79.8734909059061,15.7714572104594,-3.15548761772446,-18.596257312109,5.42749410256556,-21.1218760250937,54.7543078712514,104.132796163271,-9.60269873648679,-21.1453450524886,-50.1285370200517,2.67621109521677,35.3099703971109,36.383499062766,-23.9539241684206,8.28602077500886,-15.5425669523944,38.1428224817348,37.734724869167,48.4718129310054,3.59323596260687,-31.2297421946525,64.0052110624111,0.877206245570507,9.38293464711001,14.5863786778498,13.0994001646709,21.770859835379,80.2410945816935,11.0586050877435,-6.35659404142474,0.302993718953641,26.2398800022214,2.28199166035652,21.6105416168754,34.2925494725373,41.451687899919,-1.08328005544439,-4.60324560414224,74.5726015320138,-65.7487842774097,14.9174058329432,-13.5051678405624,1,1,1,1,1,1,1,1,1,1,1,1,1,1,1,1,1,1,1,1,1,1,1,1,1,1,1,1,1,1,1,1,1,1,1,1,1,1,1,1,1,1,1,1,1,1,1,1,1,1,1,1,1,1,1,1,1,1,1,1,1,1,1,1,1,1,1,1,1,1,1,1,1,1,1,1,1,1,1,1,1,1,1,1,1,1,1,1,1,1,1,1,1,1,1,1,1,1,1,1,1,1,1,1,1,1,1,1,1,1,1,1,1,1,1,1,1,1,1,1,1,1,1,1,1,1,1,1,1,1,1,1,1,1,1,1,1,1,1,1,1,1,1,1,1,1,1,1,1,1,1,1,1,1,1,1,1,1,1,1,1,1,1,1,1,1,1,1,1,1,1,1,1,1,1,1,1,1,1,1,1,1,1,1,1,1,1,1,1,1,1,1,1,1,1,1,1,1,1,1,1,1,1,1,1,1,1,1,1,1,1,1,1,1,1,1,1,1,1,1,1,1,1,1,1,1,1,1,1,1,1,1,1,1,1,1,1,1,1,1,1,1,1,1,1,1,1,1,1,1,1,1,1,1,1,1,1,1,1,1,1,1,1,1,1,1,1,1,1,1,-3.51472975010933,19.7863078103069,-33.068679549704,24.3052067676557,18.6091165790413,-12.6699207297162,-46.767997641979,-30.5594298620615,42.5018649905934,-0.950045033206817,-6.88213739710914,-38.4058787716291,43.4852150392334,-52.4232799653497,4.77666659359381,-38.8705600477558,-14.2504859770709,-4.84597568001141,-22.8754073490124,-14.168065048658,-51.2371212937723,-27.9779840536317,-14.0273699432309,-28.9380798252572,-90.6735211004162,19.5881393365404,-28.544558385057,-16.3146187542551,12.5865685673766,-100.780491652305,-5.60634638300492,53.8049842321755,23.3310930296103,-41.0870213465817,18.3813607302079,1.7367539161036,-7.7632936890036,-15.9482865783321,-79.5310095518805,17.3250415749344,21.5218444734567,8.29257712509089,-2.61586906453211,-21.972858678744,12.4974551653909,-8.89570905888241,37.8686547751411,2.73726772710302,-19.0392103263351,-33.2330590400007,23.9057617988759,-56.0616127155648,-7.48282292556885,-28.3809059911598,-19.5368563304526,66.7230914210184,-35.5873636054551,-64.4872507616751,-24.2045324459275,39.3021889022141,-52.5553817175616,16.6963225673245,-7.97849065767339,-23.072681285889,-71.618133177338,-7.79552092046782,2.75274703325501,-11.5236186722351,0.902656270999004,-11.6843382659399,-40.4038742067553,-23.3095237113218,-27.0831162512758,-10.6735789135074,-40.3130967918243,4.0200186185786,-19.3396428784823,-42.3750337091857,12.0660129277932,10.9062393130357,-40.8777083964175,-25.6426787269679,12.9865909289185,-4.28009988851113,45.3695900351832,-14.7070362846968,-6.81887944467942,-38.5775474025997,10.5988591619239,45.2394025319034,-8.15435122900046,-17.8370707497244,-21.5421131803776,21.4040437020246,45.7324530645212,-24.4904982451515,1.51688499729912,-19.7356425834164,52.6288846691353,-25.0561848909194,-27.1359098096407,24.2310200505916,6.49071212338084,89.2160348530079,-1.60783140981789,-6.15050349533045,13.4858807362884,3.5347553713947,8.3002018822774,-33.0121553189278,39.9691419778376,-68.0916402261672,2.28538684590401,-20.7022698987272,-24.021820318909,-9.937803524276,28.0529726542826,-6.85891903703916,6.11370751572282,-2.06838363340255,22.7332742188817,12.22442958808,-24.9700732846121,66.1833317069269,15.1608571344983,52.2195576911014,-2.19686908305657,7.29728059524713,16.9465932056919,40.8181662690148,-1.56353389967544,3.16029864057444,-58.0806006662676,21.598107229736,-47.8011623168956,46.0573256134881,-10.1710444626497,-13.7922215325992,32.7061396903459,0.522493252094393,3.77797469810862,-31.1653661056824,-34.9477936348233,22.7524977988056,-26.115182214289,15.8471929394347,14.0999928524716,-31.9283771320367,40.5078346583145,38.3067509831176,30.6317297505366,-11.2133952157645,6.43487138396024,22.7195345478633,41.5851068195512,47.7831307075124,38.0025674736424,-31.7344987980418,21.5751591786696,-12.8828064705951,-11.6383000430479,5.74861306771369,-38.4865281210624,45.8243023261132,8.31293106854422,-13.5539772858552,6.12840428097522,7.5565043924681,-0.0992426936494381,-48.5002586253779,-22.9480989059977,-26.8839290983349,-8.34924938777624,6.69429185409356,56.6145219860954,61.6161000722498,-20.3012257893509,10.2313860937805,-1.66037195398287,-55.0774730296084,-3.07313331839799,7.66057377773451,41.1087142460834,4.02825906641723,-56.0692329606867,5.98151725283395,-34.838870846304,10.7434345392448,-17.9994343044057,18.1642040458465,-35.2281399203534,-38.6402688126085,-21.4149649411354,8.77524891303385,-29.8719710197301,6.11014514906861,8.80523289413719,29.0142375846368,-6.02766861427914,-38.203136110632,-43.1427159680927,-2.3864569920371,9.1009342031475,-27.1079882206793,39.1393528190985,-15.0721747506956,10.616295156623,-13.8405894904455,-41.0532572094855,10.3542459833089,-24.2478492178449,0.0561127601037963,32.2582153694464,-45.9989204996153,38.3698012709664,-24.0982281981611,-5.79161002329008,-62.443384547176,-46.5703581108626,-39.2605329122712,30.8875485317146,2.6594154639798,22.3394688830545,-7.07831143918872,26.1638048204428,12.7014997641037,-22.1590591237397,-26.0637510256327,-20.3123120608913,9.87278026241183,23.4021598013459,-21.5015465182601,-30.3838355562617,-32.4404978344313,1.93093980951329,-13.4509025716384,53.0328368818046,5.84237488667493,5.59117643966852,15.7525643566192,12.8187873119823,33.6458577842055,-40.1497569381067,24.2753614405673,6.42122735311864,21.9656542869097,-19.0936094992754,3.28399995123162,54.4845025711925,-10.8412318638847,-41.1578939341548,3.58425367438942,1.84445506752955,2.36746233214601,-17.3546618429244,-12.5266959341603,-10.2191059642947,29.9487065018013,-5.45412192058292,32.8405707042967,-33.1814457680852,41.709700295847,21.4335550648917,35.6574808433022,-11.4264579022787,-66.7587010877976,-22.5608982862361,0.105950495472858,-87.477073066715,51.6362465098825,1,1,1,1,1,1,1,1,1,1,1,1,1,1,1,1,1,1,1,1,1,1,1,1,1,1,1,1,1,1,1,1,1,1,1,1,1,1,1,1,1,1,1,1,1,1,1,1,1,1,1,1,1,1,1,1,1,1,1,1,1,1,1,1,1,1,1,1,1,1,1,1,1,1,1,1,1,1,1,1,1,1,1,1,1,1,1,1,1,1,1,1,1,1,1,1,1,1,1,1,1,1,1,1,1,1,1,1,1,1,1,1,1,1,1,1,1,1,1,1,1,1,1,1,1,1,1,1,1,1,1,1,1,1,1,1,1,1,1,1,1,1,1,1,1,1,1,1,1,1,1,1,1,1,1,1,1,1,1,1,1,1,1,1,1,1,1,1,1,1,1,1,1,1,1,1,1,1,1,1,1,1,1,1,1,1,1,1,1,1,1,1,1,1,1,1,1,1,1,1,1,1,1,1,1,1,1,1,1,1,1,1,1,1,1,1,1,1,1,1,1,1,1,1,1,1,1,1,1,1,1,1,1,1,1,1,1,1,1,1,1,1,1,1,1,1,1,1,1,1,1,1,1,1,1,1,1,1,1,1,1,1,1,1,1,1,1,1,1,1,-29.7975187429666,36.3345030018575,-16.6370961975875,-0.474605361660912,1.48679048070312,-4.94955733585592,6.66325229703209,68.7332802964518,-7.83877965755665,8.69013616694669,-55.2725414043416,15.9584486204939,-3.65636306049348,-49.3715689851405,24.2167987258481,-29.7380807071251,-43.4213797277668,-2.49570784481246,-29.1451633390996,-90.0249980664337,-68.0001407181035,9.91395389559613,25.0325801965526,1.04989755067569,-93.3862111909934,76.5753855372568,41.1694892647864,37.8412479905272,30.4391342825351,-3.64593376589805,-10.7989311172858,-25.4107337879015,9.02977570058994,15.7622445219727,-25.1664195443939,-44.3392548393221,-30.2328296074945,-5.18103157650661,34.2692833012387,-13.8726993518087,-21.2972007478762,29.4174905533669,-44.6183122800486,47.9697771653766,-69.1305941962451,-10.1278775545845,32.8233123198637,8.6313876053996,6.55301958758153,14.266459936834,-3.77421292704627,35.2231443247412,83.2930443837189,-3.41132806590846,-20.2596908112413,43.9837510666305,-22.0317008983995,25.1247037298532,13.499146086937,15.5702822325129,-40.3928896390021,-67.8865420186826,-12.331064401693,1.63475918378561,-37.9929357142972,19.3560090609516,57.1961733178625,43.4037604885393,-5.07583097004861,-1.3296016883064,79.0159381704928,-5.0861780844665,5.92646357388606,36.9271335815505,9.45569251772541,19.0209299646349,-44.8684560398667,47.2141955857007,-21.9027392051784,-3.38170751581372,36.8766635471405,15.1930483811796,-36.3515623116212,-9.67515563458548,25.4372149773693,25.0110210396913,46.2185875062656,30.6909105927527,35.5243066298544,-18.0385847090909,-12.6827145199551,31.4448863942947,-49.2137834552818,9.54687572057708,59.0298501578675,42.2814818773893,127.118736112878,-10.9613193853689,8.42538976472258,-4.89150571411172,22.5482080774393,12.9327468786703,-16.1271354166899,21.1859091590712,-62.1416997163769,-8.82391225201228,-29.0843185283264,52.2966976513365,-75.8996751662426,-6.97189307411812,-25.3893451991443,46.9772344214836,-17.3260705553238,52.1625323279916,40.9165090973153,18.9828728684138,45.1141185720728,-22.9149601117593,12.0381712371188,69.0007344245247,-5.60575798559631,-12.4273827346156,38.7227617986292,-7.96596653706402,-61.7831336699244,-0.387097397747249,13.9820222916353,-33.8274500131046,0.0421106352500509,105.07810955688,-37.7387353743416,-12.2085280772604,101.950747588017,29.7806828547873,13.8032342424631,27.2271650610799,-45.1407905251825,3.97273281593563,18.687441317468,56.7805914976017,45.4390089595147,-26.8593226725166,-9.96590327014663,-12.4063221886833,-18.0642784976987,21.7458379766512,-39.1122927505088,41.8382888521088,-20.5308163780424,45.1868271328335,1.73167399584702,1.78424863388978,3.24225466881162,7.45092140189518,22.5657301048778,-25.7979561017837,1.14191625965269,-5.11879957016946,-31.3969792275359,-17.9131698353666,9.6176536011282,-6.69161460275682,-10.0468870456986,-45.534403079178,-2.31128877919837,39.5707475014109,-36.053651360714,17.6657527346221,6.43453585708919,12.915278089393,-4.05184910564431,21.8621938805666,-42.9850600296656,-53.8188005320379,53.5554369266199,30.621876015196,81.8399890092961,55.9665378293424,58.4801908618509,39.6576050896714,4.9404463567786,-0.243670468643949,-24.5589824690487,30.6133589104645,69.8788920656916,64.1770119768684,-15.2996310184565,37.0948153560021,16.8563759103483,93.8150016427048,35.7439328924943,38.6281094745554,-22.0923748732652,-30.8288121191942,25.7166904842149,-32.702526637037,61.3890635803244,-30.5242326447299,42.7678028705239,-25.3922396512667,-21.0121811455825,-75.315328792809,-9.57580356970465,51.3109572804587,11.0473452395642,-37.6846058108262,5.54405247092581,-48.9268784632852,-7.39014423176782,-12.1296763362387,-8.38953952363789,53.2431247601331,15.4264766556065,2.58353605264553,53.8610393347904,37.0681468463753,24.4904359359785,-46.5378098417289,23.4942561806958,-5.21516710620705,15.4224119594095,-17.4311942765899,11.6369557037874,-32.5440253471889,41.635587909367,1.89466694476782,-66.4600052546848,4.10070889037511,-65.1508634709878,-79.8734909059061,15.7714572104594,-3.15548761772446,-18.596257312109,5.42749410256556,-21.1218760250937,54.7543078712514,104.132796163271,-9.60269873648679,-21.1453450524886,-50.1285370200517,2.67621109521677,35.3099703971109,36.383499062766,-23.9539241684206,8.28602077500886,-15.5425669523944,38.1428224817348,37.734724869167,48.4718129310054,3.59323596260687,-31.2297421946525,64.0052110624111,0.877206245570507,9.38293464711001,14.5863786778498,13.0994001646709,21.770859835379,80.2410945816935,11.0586050877435,-6.35659404142474,0.302993718953641,26.2398800022214,2.28199166035652,21.6105416168754,34.2925494725373,41.451687899919,-1.08328005544439,-4.60324560414224,74.5726015320138,-65.7487842774097,14.9174058329432,-13.5051678405624,1,1,1,1,1,1,1,1,1,1,1,1,1,1,1,1,1,1,1,1,1,1,1,1,1,1,1,1,1,1,1,1,1,1,1,1,1,1,1,1,1,1,1,1,1,1,1,1,1,1,1,1,1,1,1,1,1,1,1,1,1,1,1,1,1,1,1,1,1,1,1,1,1,1,1,1,1,1,1,1,1,1,1,1,1,1,1,1,1,1,1,1,1,1,1,1,1,1,1,1,1,1,1,1,1,1,1,1,1,1,1,1,1,1,1,1,1,1,1,1,1,1,1,1,1,1,1,1,1,1,1,1,1,1,1,1,1,1,1,1,1,1,1,1,1,1,1,1,1,1,1,1,1,1,1,1,1,1,1,1,1,1,1,1,1,1,1,1,1,1,1,1,1,1,1,1,1,1,1,1,1,1,1,1,1,1,1,1,1,1,1,1,1,1,1,1,1,1,1,1,1,1,1,1,1,1,1,1,1,1,1,1,1,1,1,1,1,1,1,1,1,1,1,1,1,1,1,1,1,1,1,1,1,1,1,1,1,1,1,1,1,1,1,1,1,1,1,1,1,1,1,1,1,1,1,1,1,1,1,1,1,1,1,1,1,1,1,1,1,1,-3.51472975010933,19.7863078103069,-33.068679549704,24.3052067676557,18.6091165790413,-12.6699207297162,-46.767997641979,-30.5594298620615,42.5018649905934,-0.950045033206817,-6.88213739710914,-38.4058787716291,43.4852150392334,-52.4232799653497,4.77666659359381,-38.8705600477558,-14.2504859770709,-4.84597568001141,-22.8754073490124,-14.168065048658,-51.2371212937723,-27.9779840536317,-14.0273699432309,-28.9380798252572,-90.6735211004162,19.5881393365404,-28.544558385057,-16.3146187542551,12.5865685673766,-100.780491652305,-5.60634638300492,53.8049842321755,23.3310930296103,-41.0870213465817,18.3813607302079,1.7367539161036,-7.7632936890036,-15.9482865783321,-79.5310095518805,17.3250415749344,21.5218444734567,8.29257712509089,-2.61586906453211,-21.972858678744,12.4974551653909,-8.89570905888241,37.8686547751411,2.73726772710302,-19.0392103263351,-33.2330590400007,23.9057617988759,-56.0616127155648,-7.48282292556885,-28.3809059911598,-19.5368563304526,66.7230914210184,-35.5873636054551,-64.4872507616751,-24.2045324459275,39.3021889022141,-52.5553817175616,16.6963225673245,-7.97849065767339,-23.072681285889,-71.618133177338,-7.79552092046782,2.75274703325501,-11.5236186722351,0.902656270999004,-11.6843382659399,-40.4038742067553,-23.3095237113218,-27.0831162512758,-10.6735789135074,-40.3130967918243,4.0200186185786,-19.3396428784823,-42.3750337091857,12.0660129277932,10.9062393130357,-40.8777083964175,-25.6426787269679,12.9865909289185,-4.28009988851113,45.3695900351832,-14.7070362846968,-6.81887944467942,-38.5775474025997,10.5988591619239,45.2394025319034,-8.15435122900046,-17.8370707497244,-21.5421131803776,21.4040437020246,45.7324530645212,-24.4904982451515,1.51688499729912,-19.7356425834164,52.6288846691353,-25.0561848909194,-27.1359098096407,24.2310200505916,6.49071212338084,89.2160348530079,-1.60783140981789,-6.15050349533045,13.4858807362884,3.5347553713947,8.3002018822774,-33.0121553189278,39.9691419778376,-68.0916402261672,2.28538684590401,-20.7022698987272,-24.021820318909,-9.937803524276,28.0529726542826,-6.85891903703916,6.11370751572282,-2.06838363340255,22.7332742188817,12.22442958808,-24.9700732846121,66.1833317069269,15.1608571344983,52.2195576911014,-2.19686908305657,7.29728059524713,16.9465932056919,40.8181662690148,-1.56353389967544,3.16029864057444,-58.0806006662676,21.598107229736,-47.8011623168956,46.0573256134881,-10.1710444626497,-13.7922215325992,32.7061396903459,0.522493252094393,3.77797469810862,-31.1653661056824,-34.9477936348233,22.7524977988056,-26.115182214289,15.8471929394347,14.0999928524716,-31.9283771320367,40.5078346583145,38.3067509831176,30.6317297505366,-11.2133952157645,6.43487138396024,22.7195345478633,41.5851068195512,47.7831307075124,38.0025674736424,-31.7344987980418,21.5751591786696,-12.8828064705951,-11.6383000430479,5.74861306771369,-38.4865281210624,45.8243023261132,8.31293106854422,-13.5539772858552,6.12840428097522,7.5565043924681,-0.0992426936494381,-48.5002586253779,-22.9480989059977,-26.8839290983349,-8.34924938777624,6.69429185409356,56.6145219860954,61.6161000722498,-20.3012257893509,10.2313860937805,-1.66037195398287,-55.0774730296084,-3.07313331839799,7.66057377773451,41.1087142460834,4.02825906641723,-56.0692329606867,5.98151725283395,-34.838870846304,10.7434345392448,-17.9994343044057,18.1642040458465,-35.2281399203534,-38.6402688126085,-21.4149649411354,8.77524891303385,-29.8719710197301,6.11014514906861,8.80523289413719,29.0142375846368,-6.02766861427914,-38.203136110632,-43.1427159680927,-2.3864569920371,9.1009342031475,-27.1079882206793,39.1393528190985,-15.0721747506956,10.616295156623,-13.8405894904455,-41.0532572094855,10.3542459833089,-24.2478492178449,0.0561127601037963,32.2582153694464,-45.9989204996153,38.3698012709664,-24.0982281981611,-5.79161002329008,-62.443384547176,-46.5703581108626,-39.2605329122712,30.8875485317146,2.6594154639798,22.3394688830545,-7.07831143918872,26.1638048204428,12.7014997641037,-22.1590591237397,-26.0637510256327,-20.3123120608913,9.87278026241183,23.4021598013459,-21.5015465182601,-30.3838355562617,-32.4404978344313,1.93093980951329,-13.4509025716384,53.0328368818046,5.84237488667493,5.59117643966852,15.7525643566192,12.8187873119823,33.6458577842055,-40.1497569381067,24.2753614405673,6.42122735311864,21.9656542869097,-19.0936094992754,3.28399995123162,54.4845025711925,-10.8412318638847,-41.1578939341548,3.58425367438942,1.84445506752955,2.36746233214601,-17.3546618429244,-12.5266959341603,-10.2191059642947,29.9487065018013,-5.45412192058292,32.8405707042967,-33.1814457680852,41.709700295847,21.4335550648917,35.6574808433022,-11.4264579022787,-66.7587010877976,-22.5608982862361,0.105950495472858,-87.477073066715,51.6362465098825,1,1,1,1,1,1,1,1,1,1,1,1,1,1,1,1,1,1,1,1,1,1,1,1,1,1,1,1,1,1,1,1,1,1,1,1,1,1,1,1,1,1,1,1,1,1,1,1,1,1,1,1,1,1,1,1,1,1,1,1,1,1,1,1,1,1,1,1,1,1,1,1,1,1,1,1,1,1,1,1,1,1,1,1,1,1,1,1,1,1,1,1,1,1,1,1,1,1,1,1,1,1,1,1,1,1,1,1,1,1,1,1,1,1,1,1,1,1,1,1,1,1,1,1,1,1,1,1,1,1,1,1,1,1,1,1,1,1,1,1,1,1,1,1,1,1,1,1,1,1,1,1,1,1,1,1,1,1,1,1,1,1,1,1,1,1,1,1,1,1,1,1,1,1,1,1,1,1,1,1,1,1,1,1,1,1,1,1,1,1,1,1,1,1,1,1,1,1,1,1,1,1,1,1,1,1,1,1,1,1,1,1,1,1,1,1,1,1,1,1,1,1,1,1,1,1,1,1,1,1,1,1,1,1,1,1,1,1,1,1,1,1,1,1,1,1,1,1,1,1,1,1,1,1,1,1,1,1,1,1,1,1,1,1,1,1,1,1,1,1,43.9412484644976,151.286898508942,-16.6370961975875,-0.474605361660912,1.48679048070312,-4.94955733585592,6.66325229703209,68.7332802964518,-7.83877965755665,8.69013616694669,-55.2725414043416,15.9584486204939,-3.65636306049348,-49.3715689851405,24.2167987258481,-29.7380807071251,-43.4213797277668,-2.49570784481246,-29.1451633390996,-90.0249980664337,-68.0001407181035,9.91395389559613,25.0325801965526,1.04989755067569,-93.3862111909934,76.5753855372568,41.1694892647864,37.8412479905272,30.4391342825351,-3.64593376589805,-10.7989311172858,-25.4107337879015,9.02977570058994,15.7622445219727,-25.1664195443939,-44.3392548393221,-30.2328296074945,-5.18103157650661,34.2692833012387,-13.8726993518087,-21.2972007478762,29.4174905533669,-44.6183122800486,47.9697771653766,-69.1305941962451,-10.1278775545845,32.8233123198637,8.6313876053996,6.55301958758153,14.266459936834,-3.77421292704627,35.2231443247412,83.2930443837189,-3.41132806590846,-20.2596908112413,43.9837510666305,-22.0317008983995,25.1247037298532,13.499146086937,15.5702822325129,-40.3928896390021,-67.8865420186826,-12.331064401693,1.63475918378561,-37.9929357142972,19.3560090609516,57.1961733178625,43.4037604885393,-5.07583097004861,-1.3296016883064,79.0159381704928,-5.0861780844665,5.92646357388606,36.9271335815505,9.45569251772541,19.0209299646349,-44.8684560398667,47.2141955857007,-21.9027392051784,-3.38170751581372,36.8766635471405,15.1930483811796,-36.3515623116212,-9.67515563458548,25.4372149773693,25.0110210396913,46.2185875062656,30.6909105927527,35.5243066298544,-18.0385847090909,-12.6827145199551,31.4448863942947,-49.2137834552818,9.54687572057708,59.0298501578675,42.2814818773893,127.118736112878,-10.9613193853689,8.42538976472258,-4.89150571411172,22.5482080774393,12.9327468786703,-16.1271354166899,21.1859091590712,-62.1416997163769,-8.82391225201228,-29.0843185283264,52.2966976513365,-75.8996751662426,-6.97189307411812,-25.3893451991443,46.9772344214836,-17.3260705553238,52.1625323279916,40.9165090973153,18.9828728684138,45.1141185720728,-22.9149601117593,12.0381712371188,69.0007344245247,-5.60575798559631,-12.4273827346156,38.7227617986292,-7.96596653706402,-61.7831336699244,-0.387097397747249,13.9820222916353,-33.8274500131046,0.0421106352500509,105.07810955688,-37.7387353743416,-12.2085280772604,101.950747588017,29.7806828547873,13.8032342424631,27.2271650610799,-45.1407905251825,3.97273281593563,18.687441317468,56.7805914976017,45.4390089595147,-26.8593226725166,-9.96590327014663,-12.4063221886833,-18.0642784976987,21.7458379766512,-39.1122927505088,41.8382888521088,-20.5308163780424,45.1868271328335,1.73167399584702,1.78424863388978,3.24225466881162,7.45092140189518,22.5657301048778,-25.7979561017837,1.14191625965269,-5.11879957016946,-31.3969792275359,-17.9131698353666,9.6176536011282,-6.69161460275682,-10.0468870456986,-45.534403079178,-2.31128877919837,39.5707475014109,-36.053651360714,17.6657527346221,6.43453585708919,12.915278089393,-4.05184910564431,21.8621938805666,-42.9850600296656,-53.8188005320379,53.5554369266199,30.621876015196,81.8399890092961,55.9665378293424,58.4801908618509,39.6576050896714,4.9404463567786,-0.243670468643949,-24.5589824690487,30.6133589104645,69.8788920656916,64.1770119768684,-15.2996310184565,37.0948153560021,16.8563759103483,93.8150016427048,35.7439328924943,38.6281094745554,-22.0923748732652,-30.8288121191942,25.7166904842149,-32.702526637037,61.3890635803244,-30.5242326447299,42.7678028705239,-25.3922396512667,-21.0121811455825,-75.315328792809,-9.57580356970465,51.3109572804587,11.0473452395642,-37.6846058108262,5.54405247092581,-48.9268784632852,-7.39014423176782,-12.1296763362387,-8.38953952363789,53.2431247601331,15.4264766556065,2.58353605264553,53.8610393347904,37.0681468463753,24.4904359359785,-46.5378098417289,23.4942561806958,-5.21516710620705,15.4224119594095,-17.4311942765899,11.6369557037874,-32.5440253471889,41.635587909367,1.89466694476782,-66.4600052546848,4.10070889037511,-65.1508634709878,-79.8734909059061,15.7714572104594,-3.15548761772446,-18.596257312109,5.42749410256556,-21.1218760250937,54.7543078712514,104.132796163271,-9.60269873648679,-21.1453450524886,-50.1285370200517,2.67621109521677,35.3099703971109,36.383499062766,-23.9539241684206,8.28602077500886,-15.5425669523944,38.1428224817348,37.734724869167,48.4718129310054,3.59323596260687,-31.2297421946525,64.0052110624111,0.877206245570507,9.38293464711001,14.5863786778498,13.0994001646709,21.770859835379,80.2410945816935,11.0586050877435,-6.35659404142474,0.302993718953641,26.2398800022214,2.28199166035652,21.6105416168754,34.2925494725373,41.451687899919,-1.08328005544439,-4.60324560414224,74.5726015320138,-65.7487842774097,14.9174058329432,-13.5051678405624,1,1,1,1,1,1,1,1,1,1,1,1,1,1,1,1,1,1,1,1,1,1,1,1,1,1,1,1,1,1,1,1,1,1,1,1,1,1,1,1,1,1,1,1,1,1,1,1,1,1,1,1,1,1,1,1,1,1,1,1,1,1,1,1,1,1,1,1,1,1,1,1,1,1,1,1,1,1,1,1,1,1,1,1,1,1,1,1,1,1,1,1,1,1,1,1,1,1,1,1,1,1,1,1,1,1,1,1,1,1,1,1,1,1,1,1,1,1,1,1,1,1,1,1,1,1,1,1,1,1,1,1,1,1,1,1,1,1,1,1,1,1,1,1,1,1,1,1,1,1,1,1,1,1,1,1,1,1,1,1,1,1,1,1,1,1,1,1,1,1,1,1,1,1,1,1,1,1,1,1,1,1,1,1,1,1,1,1,1,1,1,1,1,1,1,1,1,1,1,1,1,1,1,1,1,1,1,1,1,1,1,1,1,1,1,1,1,1,1,1,1,1,1,1,1,1,1,1,1,1,1,1,1,1,1,1,1,1,1,1,1,1,1,1,1,1,1,1,1,1,1,1,1,1,1,1,1,1,1,1,1,1,1,1,1,1,1,1,1,1,-3.51472975010933,19.7863078103069,-33.068679549704,24.3052067676557,18.6091165790413,-12.6699207297162,-46.767997641979,-30.5594298620615,42.5018649905934,-0.950045033206817,-6.88213739710914,-38.4058787716291,43.4852150392334,-52.4232799653497,4.77666659359381,-38.8705600477558,-14.2504859770709,-4.84597568001141,-22.8754073490124,-14.168065048658,-51.2371212937723,-27.9779840536317,-14.0273699432309,-28.9380798252572,-90.6735211004162,19.5881393365404,-28.544558385057,-16.3146187542551,12.5865685673766,-100.780491652305,-5.60634638300492,53.8049842321755,23.3310930296103,-41.0870213465817,18.3813607302079,1.7367539161036,-7.7632936890036,-15.9482865783321,-79.5310095518805,17.3250415749344,21.5218444734567,8.29257712509089,-2.61586906453211,-21.972858678744,12.4974551653909,-8.89570905888241,37.8686547751411,2.73726772710302,-19.0392103263351,-33.2330590400007,23.9057617988759,-56.0616127155648,-7.48282292556885,-28.3809059911598,-19.5368563304526,66.7230914210184,-35.5873636054551,-64.4872507616751,-24.2045324459275,39.3021889022141,-52.5553817175616,16.6963225673245,-7.97849065767339,-23.072681285889,-71.618133177338,-7.79552092046782,2.75274703325501,-11.5236186722351,0.902656270999004,-11.6843382659399,-40.4038742067553,-23.3095237113218,-27.0831162512758,-10.6735789135074,-40.3130967918243,4.0200186185786,-19.3396428784823,-42.3750337091857,12.0660129277932,10.9062393130357,-40.8777083964175,-25.6426787269679,12.9865909289185,-4.28009988851113,45.3695900351832,-14.7070362846968,-6.81887944467942,-38.5775474025997,10.5988591619239,45.2394025319034,-8.15435122900046,-17.8370707497244,-21.5421131803776,21.4040437020246,45.7324530645212,-24.4904982451515,1.51688499729912,-19.7356425834164,52.6288846691353,-25.0561848909194,-27.1359098096407,24.2310200505916,6.49071212338084,89.2160348530079,-1.60783140981789,-6.15050349533045,13.4858807362884,3.5347553713947,8.3002018822774,-33.0121553189278,39.9691419778376,-68.0916402261672,2.28538684590401,-20.7022698987272,-24.021820318909,-9.937803524276,28.0529726542826,-6.85891903703916,6.11370751572282,-2.06838363340255,22.7332742188817,12.22442958808,-24.9700732846121,66.1833317069269,15.1608571344983,52.2195576911014,-2.19686908305657,7.29728059524713,16.9465932056919,40.8181662690148,-1.56353389967544,3.16029864057444,-58.0806006662676,21.598107229736,-47.8011623168956,46.0573256134881,-10.1710444626497,-13.7922215325992,32.7061396903459,0.522493252094393,3.77797469810862,-31.1653661056824,-34.9477936348233,22.7524977988056,-26.115182214289,15.8471929394347,14.0999928524716,-31.9283771320367,40.5078346583145,38.3067509831176,30.6317297505366,-11.2133952157645,6.43487138396024,22.7195345478633,41.5851068195512,47.7831307075124,38.0025674736424,-31.7344987980418,21.5751591786696,-12.8828064705951,-11.6383000430479,5.74861306771369,-38.4865281210624,45.8243023261132,8.31293106854422,-13.5539772858552,6.12840428097522,7.5565043924681,-0.0992426936494381,-48.5002586253779,-22.9480989059977,-26.8839290983349,-8.34924938777624,6.69429185409356,56.6145219860954,61.6161000722498,-20.3012257893509,10.2313860937805,-1.66037195398287,-55.0774730296084,-3.07313331839799,7.66057377773451,41.1087142460834,4.02825906641723,-56.0692329606867,5.98151725283395,-34.838870846304,10.7434345392448,-17.9994343044057,18.1642040458465,-35.2281399203534,-38.6402688126085,-21.4149649411354,8.77524891303385,-29.8719710197301,6.11014514906861,8.80523289413719,29.0142375846368,-6.02766861427914,-38.203136110632,-43.1427159680927,-2.3864569920371,9.1009342031475,-27.1079882206793,39.1393528190985,-15.0721747506956,10.616295156623,-13.8405894904455,-41.0532572094855,10.3542459833089,-24.2478492178449,0.0561127601037963,32.2582153694464,-45.9989204996153,38.3698012709664,-24.0982281981611,-5.79161002329008,-62.443384547176,-46.5703581108626,-39.2605329122712,30.8875485317146,2.6594154639798,22.3394688830545,-7.07831143918872,26.1638048204428,12.7014997641037,-22.1590591237397,-26.0637510256327,-20.3123120608913,9.87278026241183,23.4021598013459,-21.5015465182601,-30.3838355562617,-32.4404978344313,1.93093980951329,-13.4509025716384,53.0328368818046,5.84237488667493,5.59117643966852,15.7525643566192,12.8187873119823,33.6458577842055,-40.1497569381067,24.2753614405673,6.42122735311864,21.9656542869097,-19.0936094992754,3.28399995123162,54.4845025711925,-10.8412318638847,-41.1578939341548,3.58425367438942,1.84445506752955,2.36746233214601,-17.3546618429244,-12.5266959341603,-10.2191059642947,29.9487065018013,-5.45412192058292,32.8405707042967,-33.1814457680852,41.709700295847,21.4335550648917,35.6574808433022,-11.4264579022787,-66.7587010877976,-22.5608982862361,0.105950495472858,-87.477073066715,51.6362465098825,1,1,1,1,1,1,1,1,1,1,1,1,1,1,1,1,1,1,1,1,1,1,1,1,1,1,1,1,1,1,1,1,1,1,1,1,1,1,1,1,1,1,1,1,1,1,1,1,1,1,1,1,1,1,1,1,1,1,1,1,1,1,1,1,1,1,1,1,1,1,1,1,1,1,1,1,1,1,1,1,1,1,1,1,1,1,1,1,1,1,1,1,1,1,1,1,1,1,1,1,1,1,1,1,1,1,1,1,1,1,1,1,1,1,1,1,1,1,1,1,1,1,1,1,1,1,1,1,1,1,1,1,1,1,1,1,1,1,1,1,1,1,1,1,1,1,1,1,1,1,1,1,1,1,1,1,1,1,1,1,1,1,1,1,1,1,1,1,1,1,1,1,1,1,1,1,1,1,1,1,1,1,1,1,1,1,1,1,1,1,1,1,1,1,1,1,1,1,1,1,1,1,1,1,1,1,1,1,1,1,1,1,1,1,1,1,1,1,1,1,1,1,1,1,1,1,1,1,1,1,1,1,1,1,1,1,1,1,1,1,1,1,1,1,1,1,1,1,1,1,1,1,1,1,1,1,1,1,1,1,1,1,1,1,1,1,1,1,1,1
97.7855574888113,81.2194062113852,-131.455546089195,-78.4594600026199,99.9448449676343,-16.6370961975875,-0.474605361660912,1.48679048070312,-4.94955733585592,6.66325229703209,68.7332802964518,-7.83877965755665,8.69013616694669,-55.2725414043416,15.9584486204939,-3.65636306049348,-49.3715689851405,24.2167987258481,-29.7380807071251,-43.4213797277668,-2.49570784481246,-29.1451633390996,-90.0249980664337,-68.0001407181035,9.91395389559613,25.0325801965526,1.04989755067569,-93.3862111909934,76.5753855372568,41.1694892647864,37.8412479905272,30.4391342825351,-3.64593376589805,-10.7989311172858,-25.4107337879015,9.02977570058994,15.7622445219727,-25.1664195443939,-44.3392548393221,-30.2328296074945,-5.18103157650661,34.2692833012387,-13.8726993518087,-21.2972007478762,29.4174905533669,-44.6183122800486,47.9697771653766,-69.1305941962451,-10.1278775545845,32.8233123198637,8.6313876053996,6.55301958758153,14.266459936834,-3.77421292704627,35.2231443247412,83.2930443837189,-3.41132806590846,-20.2596908112413,43.9837510666305,-22.0317008983995,25.1247037298532,13.499146086937,15.5702822325129,-40.3928896390021,-67.8865420186826,-12.331064401693,1.63475918378561,-37.9929357142972,19.3560090609516,57.1961733178625,43.4037604885393,-5.07583097004861,-1.3296016883064,79.0159381704928,-5.0861780844665,5.92646357388606,36.9271335815505,9.45569251772541,19.0209299646349,-44.8684560398667,47.2141955857007,-21.9027392051784,-3.38170751581372,36.8766635471405,15.1930483811796,-36.3515623116212,-9.67515563458548,25.4372149773693,25.0110210396913,46.2185875062656,30.6909105927527,35.5243066298544,-18.0385847090909,-12.6827145199551,31.4448863942947,-49.2137834552818,9.54687572057708,59.0298501578675,42.2814818773893,127.118736112878,-10.9613193853689,8.42538976472258,-4.89150571411172,22.5482080774393,12.9327468786703,-16.1271354166899,21.1859091590712,-62.1416997163769,-8.82391225201228,-29.0843185283264,52.2966976513365,-75.8996751662426,-6.97189307411812,-25.3893451991443,46.9772344214836,-17.3260705553238,52.1625323279916,40.9165090973153,18.9828728684138,45.1141185720728,-22.9149601117593,12.0381712371188,69.0007344245247,-5.60575798559631,-12.4273827346156,38.7227617986292,-7.96596653706402,-61.7831336699244,-0.387097397747249,13.9820222916353,-33.8274500131046,0.0421106352500509,105.07810955688,-37.7387353743416,-12.2085280772604,101.950747588017,29.7806828547873,13.8032342424631,27.2271650610799,-45.1407905251825,3.97273281593563,18.687441317468,56.7805914976017,45.4390089595147,-26.8593226725166,-9.96590327014663,-12.4063221886833,-18.0642784976987,21.7458379766512,-39.1122927505088,41.8382888521088,-20.5308163780424,45.1868271328335,1.73167399584702,1.78424863388978,3.24225466881162,7.45092140189518,22.5657301048778,-25.7979561017837,1.14191625965269,-5.11879957016946,-31.3969792275359,-17.9131698353666,9.6176536011282,-6.69161460275682,-10.0468870456986,-45.534403079178,-2.31128877919837,39.5707475014109,-36.053651360714,17.6657527346221,6.43453585708919,12.915278089393,-4.05184910564431,21.8621938805666,-42.9850600296656,-53.8188005320379,53.5554369266199,30.621876015196,81.8399890092961,55.9665378293424,58.4801908618509,39.6576050896714,4.9404463567786,-0.243670468643949,-24.5589824690487,30.6133589104645,69.8788920656916,64.1770119768684,-15.2996310184565,37.0948153560021,16.8563759103483,93.8150016427048,35.7439328924943,38.6281094745554,-22.0923748732652,-30.8288121191942,25.7166904842149,-32.702526637037,61.3890635803244,-30.5242326447299,42.7678028705239,-25.3922396512667,-21.0121811455825,-75.315328792809,-9.57580356970465,51.3109572804587,11.0473452395642,-37.6846058108262,5.54405247092581,-48.9268784632852,-7.39014423176782,-12.1296763362387,-8.38953952363789,53.2431247601331,15.4264766556065,2.58353605264553,53.8610393347904,37.0681468463753,24.4904359359785,-46.5378098417289,23.4942561806958,-5.21516710620705,15.4224119594095,-17.4311942765899,11.6369557037874,-32.5440253471889,41.635587909367,1.89466694476782,-66.4600052546848,4.10070889037511,-65.1508634709878,-79.8734909059061,15.7714572104594,-3.15548761772446,-18.596257312109,5.42749410256556,-21.1218760250937,54.7543078712514,104.132796163271,-9.60269873648679,-21.1453450524886,-50.1285370200517,2.67621109521677,35.3099703971109,36.383499062766,-23.9539241684206,8.28602077500886,-15.5425669523944,38.1428224817348,37.734724869167,48.4718129310054,3.59323596260687,-31.2297421946525,64.0052110624111,0.877206245570507,9.38293464711001,14.5863786778498,13.0994001646709,21.770859835379,80.2410945816935,11.0586050877435,-6.35659404142474,0.302993718953641,26.2398800022214,2.28199166035652,21.6105416168754,34.2925494725373,41.451687899919,-1.08328005544439,-4.60324560414224,74.5726015320138,-65.7487842774097,14.9174058329432,-13.5051678405624,1,1,1,1,1,1,1,1,1,1,1,1,1,1,1,1,1,1,1,1,1,1,1,1,1,1,1,1,1,1,1,1,1,1,1,1,1,1,1,1,1,1,1,1,1,1,1,1,1,1,1,1,1,1,1,1,1,1,1,1,1,1,1,1,1,1,1,1,1,1,1,1,1,1,1,1,1,1,1,1,1,1,1,1,1,1,1,1,1,1,1,1,1,1,1,1,1,1,1,1,1,1,1,1,1,1,1,1,1,1,1,1,1,1,1,1,1,1,1,1,1,1,1,1,1,1,1,1,1,1,1,1,1,1,1,1,1,1,1,1,1,1,1,1,1,1,1,1,1,1,1,1,1,1,1,1,1,1,1,1,1,1,1,1,1,1,1,1,1,1,1,1,1,1,1,1,1,1,1,1,1,1,1,1,1,1,1,1,1,1,1,1,1,1,1,1,1,1,1,1,1,1,1,1,1,1,1,1,1,1,1,1,1,1,1,1,1,1,1,1,1,1,1,1,1,1,1,1,1,1,1,1,1,1,1,1,1,1,1,1,1,1,1,1,1,1,1,1,1,1,1,1,1,1,1,1,1,1,1,1,1,1,1,1,1,1,1,1,1,1,-3.51472975010933,19.7863078103069,-33.068679549704,24.3052067676557,18.6091165790413,-12.6699207297162,-46.767997641979,-30.5594298620615,42.5018649905934,-0.950045033206817,-6.88213739710914,-38.4058787716291,43.4852150392334,-52.4232799653497,4.77666659359381,-38.8705600477558,-14.2504859770709,-4.84597568001141,-22.8754073490124,-14.168065048658,-51.2371212937723,-27.9779840536317,-14.0273699432309,-28.9380798252572,-90.6735211004162,19.5881393365404,-28.544558385057,-16.3146187542551,12.5865685673766,-100.780491652305,-5.60634638300492,53.8049842321755,23.3310930296103,-41.0870213465817,18.3813607302079,1.7367539161036,-7.7632936890036,-15.9482865783321,-79.5310095518805,17.3250415749344,21.5218444734567,8.29257712509089,-2.61586906453211,-21.972858678744,12.4974551653909,-8.89570905888241,37.8686547751411,2.73726772710302,-19.0392103263351,-33.2330590400007,23.9057617988759,-56.0616127155648,-7.48282292556885,-28.3809059911598,-19.5368563304526,66.7230914210184,-35.5873636054551,-64.4872507616751,-24.2045324459275,39.3021889022141,-52.5553817175616,16.6963225673245,-7.97849065767339,-23.072681285889,-71.618133177338,-7.79552092046782,2.75274703325501,-11.5236186722351,0.902656270999004,-11.6843382659399,-40.4038742067553,-23.3095237113218,-27.0831162512758,-10.6735789135074,-40.3130967918243,4.0200186185786,-19.3396428784823,-42.3750337091857,12.0660129277932,10.9062393130357,-40.8777083964175,-25.6426787269679,12.9865909289185,-4.28009988851113,45.3695900351832,-14.7070362846968,-6.81887944467942,-38.5775474025997,10.5988591619239,45.2394025319034,-8.15435122900046,-17.8370707497244,-21.5421131803776,21.4040437020246,45.7324530645212,-24.4904982451515,1.51688499729912,-19.7356425834164,52.6288846691353,-25.0561848909194,-27.1359098096407,24.2310200505916,6.49071212338084,89.2160348530079,-1.60783140981789,-6.15050349533045,13.4858807362884,3.5347553713947,8.3002018822774,-33.0121553189278,39.9691419778376,-68.0916402261672,2.28538684590401,-20.7022698987272,-24.021820318909,-9.937803524276,28.0529726542826,-6.85891903703916,6.11370751572282,-2.06838363340255,22.7332742188817,12.22442958808,-24.9700732846121,66.1833317069269,15.1608571344983,52.2195576911014,-2.19686908305657,7.29728059524713,16.9465932056919,40.8181662690148,-1.56353389967544,3.16029864057444,-58.0806006662676,21.598107229736,-47.8011623168956,46.0573256134881,-10.1710444626497,-13.7922215325992,32.7061396903459,0.522493252094393,3.77797469810862,-31.1653661056824,-34.9477936348233,22.7524977988056,-26.115182214289,15.8471929394347,14.0999928524716,-31.9283771320367,40.5078346583145,38.3067509831176,30.6317297505366,-11.2133952157645,6.43487138396024,22.7195345478633,41.5851068195512,47.7831307075124,38.0025674736424,-31.7344987980418,21.5751591786696,-12.8828064705951,-11.6383000430479,5.74861306771369,-38.4865281210624,45.8243023261132,8.31293106854422,-13.5539772858552,6.12840428097522,7.5565043924681,-0.0992426936494381,-48.5002586253779,-22.9480989059977,-26.8839290983349,-8.34924938777624,6.69429185409356,56.6145219860954,61.6161000722498,-20.3012257893509,10.2313860937805,-1.66037195398287,-55.0774730296084,-3.07313331839799,7.66057377773451,41.1087142460834,4.02825906641723,-56.0692329606867,5.98151725283395,-34.838870846304,10.7434345392448,-17.9994343044057,18.1642040458465,-35.2281399203534,-38.6402688126085,-21.4149649411354,8.77524891303385,-29.8719710197301,6.11014514906861,8.80523289413719,29.0142375846368,-6.02766861427914,-38.203136110632,-43.1427159680927,-2.3864569920371,9.1009342031475,-27.1079882206793,39.1393528190985,-15.0721747506956,10.616295156623,-13.8405894904455,-41.0532572094855,10.3542459833089,-24.2478492178449,0.0561127601037963,32.2582153694464,-45.9989204996153,38.3698012709664,-24.0982281981611,-5.79161002329008,-62.443384547176,-46.5703581108626,-39.2605329122712,30.8875485317146,2.6594154639798,22.3394688830545,-7.07831143918872,26.1638048204428,12.7014997641037,-22.1590591237397,-26.0637510256327,-20.3123120608913,9.87278026241183,23.4021598013459,-21.5015465182601,-30.3838355562617,-32.4404978344313,1.93093980951329,-13.4509025716384,53.0328368818046,5.84237488667493,5.59117643966852,15.7525643566192,12.8187873119823,33.6458577842055,-40.1497569381067,24.2753614405673,6.42122735311864,21.9656542869097,-19.0936094992754,3.28399995123162,54.4845025711925,-10.8412318638847,-41.1578939341548,3.58425367438942,1.84445506752955,2.36746233214601,-17.3546618429244,-12.5266959341603,-10.2191059642947,29.9487065018013,-5.45412192058292,32.8405707042967,-33.1814457680852,41.709700295847,21.4335550648917,35.6574808433022,-11.4264579022787,-66.7587010877976,-22.5608982862361,0.105950495472858,-87.477073066715,51.6362465098825,1,1,1,1,1,1,1,1,1,1,1,1,1,1,1,1,1,1,1,1,1,1,1,1,1,1,1,1,1,1,1,1,1,1,1,1,1,1,1,1,1,1,1,1,1,1,1,1,1,1,1,1,1,1,1,1,1,1,1,1,1,1,1,1,1,1,1,1,1,1,1,1,1,1,1,1,1,1,1,1,1,1,1,1,1,1,1,1,1,1,1,1,1,1,1,1,1,1,1,1,1,1,1,1,1,1,1,1,1,1,1,1,1,1,1,1,1,1,1,1,1,1,1,1,1,1,1,1,1,1,1,1,1,1,1,1,1,1,1,1,1,1,1,1,1,1,1,1,1,1,1,1,1,1,1,1,1,1,1,1,1,1,1,1,1,1,1,1,1,1,1,1,1,1,1,1,1,1,1,1,1,1,1,1,1,1,1,1,1,1,1,1,1,1,1,1,1,1,1,1,1,1,1,1,1,1,1,1,1,1,1,1,1,1,1,1,1,1,1,1,1,1,1,1,1,1,1,1,1,1,1,1,1,1,1,1,1,1,1,1,1,1,1,1,1,1,1,1,1,1,1,1,1,1,1,1,1,1,1,1,1,1,1,1,1,1,1,1,1,1,-29.7975187429666,36.3345030018575,-16.6370961975875,-0.474605361660912,1.48679048070312,-4.94955733585592,6.66325229703209,68.7332802964518,-7.83877965755665,8.69013616694669,-55.2725414043416,15.9584486204939,-3.65636306049348,-49.3715689851405,24.2167987258481,-29.7380807071251,-43.4213797277668,-2.49570784481246,-29.1451633390996,-90.0249980664337,-68.0001407181035,9.91395389559613,25.0325801965526,1.04989755067569,-93.3862111909934,76.5753855372568,41.1694892647864,37.8412479905272,30.4391342825351,-3.64593376589805,-10.7989311172858,-25.4107337879015,9.02977570058994,15.7622445219727,-25.1664195443939,-44.3392548393221,-30.2328296074945,-5.18103157650661,34.2692833012387,-13.8726993518087,-21.2972007478762,29.4174905533669,-44.6183122800486,47.9697771653766,-69.1305941962451,-10.1278775545845,32.8233123198637,8.6313876053996,6.55301958758153,14.266459936834,-3.77421292704627,35.2231443247412,83.2930443837189,-3.41132806590846,-20.2596908112413,43.9837510666305,-22.0317008983995,25.1247037298532,13.499146086937,15.5702822325129,-40.3928896390021,-67.8865420186826,-12.331064401693,1.63475918378561,-37.9929357142972,19.3560090609516,57.1961733178625,43.4037604885393,-5.07583097004861,-1.3296016883064,79.0159381704928,-5.0861780844665,5.92646357388606,36.9271335815505,9.45569251772541,19.0209299646349,-44.8684560398667,47.2141955857007,-21.9027392051784,-3.38170751581372,36.8766635471405,15.1930483811796,-36.3515623116212,-9.67515563458548,25.4372149773693,25.0110210396913,46.2185875062656,30.6909105927527,35.5243066298544,-18.0385847090909,-12.6827145199551,31.4448863942947,-49.2137834552818,9.54687572057708,59.0298501578675,42.2814818773893,127.118736112878,-10.9613193853689,8.42538976472258,-4.89150571411172,22.5482080774393,12.9327468786703,-16.1271354166899,21.1859091590712,-62.1416997163769,-8.82391225201228,-29.0843185283264,52.2966976513365,-75.8996751662426,-6.97189307411812,-25.3893451991443,46.9772344214836,-17.3260705553238,52.1625323279916,40.9165090973153,18.9828728684138,45.1141185720728,-22.9149601117593,12.0381712371188,69.0007344245247,-5.60575798559631,-12.4273827346156,38.7227617986292,-7.96596653706402,-61.7831336699244,-0.387097397747249,13.9820222916353,-33.8274500131046,0.0421106352500509,105.07810955688,-37.7387353743416,-12.2085280772604,101.950747588017,29.7806828547873,13.8032342424631,27.2271650610799,-45.1407905251825,3.97273281593563,18.687441317468,56.7805914976017,45.4390089595147,-26.8593226725166,-9.96590327014663,-12.4063221886833,-18.0642784976987,21.7458379766512,-39.1122927505088,41.8382888521088,-20.5308163780424,45.1868271328335,1.73167399584702,1.78424863388978,3.24225466881162,7.45092140189518,22.5657301048778,-25.7979561017837,1.14191625965269,-5.11879957016946,-31.3969792275359,-17.9131698353666,9.6176536011282,-6.69161460275682,-10.0468870456986,-45.534403079178,-2.31128877919837,39.5707475014109,-36.053651360714,17.6657527346221,6.43453585708919,12.915278089393,-4.05184910564431,21.8621938805666,-42.9850600296656,-53.8188005320379,53.5554369266199,30.621876015196,81.8399890092961,55.9665378293424,58.4801908618509,39.6576050896714,4.9404463567786,-0.243670468643949,-24.5589824690487,30.6133589104645,69.8788920656916,64.1770119768684,-15.2996310184565,37.0948153560021,16.8563759103483,93.8150016427048,35.7439328924943,38.6281094745554,-22.0923748732652,-30.8288121191942,25.7166904842149,-32.702526637037,61.3890635803244,-30.5242326447299,42.7678028705239,-25.3922396512667,-21.0121811455825,-75.315328792809,-9.57580356970465,51.3109572804587,11.0473452395642,-37.6846058108262,5.54405247092581,-48.9268784632852,-7.39014423176782,-12.1296763362387,-8.38953952363789,53.2431247601331,15.4264766556065,2.58353605264553,53.8610393347904,37.0681468463753,24.4904359359785,-46.5378098417289,23.4942561806958,-5.21516710620705,15.4224119594095,-17.4311942765899,11.6369557037874,-32.5440253471889,41.635587909367,1.89466694476782,-66.4600052546848,4.10070889037511,-65.1508634709878,-79.8734909059061,15.7714572104594,-3.15548761772446,-18.596257312109,5.42749410256556,-21.1218760250937,54.7543078712514,104.132796163271,-9.60269873648679,-21.1453450524886,-50.1285370200517,2.67621109521677,35.3099703971109,36.383499062766,-23.9539241684206,8.28602077500886,-15.5425669523944,38.1428224817348,37.734724869167,48.4718129310054,3.59323596260687,-31.2297421946525,64.0052110624111,0.877206245570507,9.38293464711001,14.5863786778498,13.0994001646709,21.770859835379,80.2410945816935,11.0586050877435,-6.35659404142474,0.302993718953641,26.2398800022214,2.28199166035652,21.6105416168754,34.2925494725373,41.451687899919,-1.08328005544439,-4.60324560414224,74.5726015320138,-65.7487842774097,14.9174058329432,-13.5051678405624,1,1,1,1,1,1,1,1,1,1,1,1,1,1,1,1,1,1,1,1,1,1,1,1,1,1,1,1,1,1,1,1,1,1,1,1,1,1,1,1,1,1,1,1,1,1,1,1,1,1,1,1,1,1,1,1,1,1,1,1,1,1,1,1,1,1,1,1,1,1,1,1,1,1,1,1,1,1,1,1,1,1,1,1,1,1,1,1,1,1,1,1,1,1,1,1,1,1,1,1,1,1,1,1,1,1,1,1,1,1,1,1,1,1,1,1,1,1,1,1,1,1,1,1,1,1,1,1,1,1,1,1,1,1,1,1,1,1,1,1,1,1,1,1,1,1,1,1,1,1,1,1,1,1,1,1,1,1,1,1,1,1,1,1,1,1,1,1,1,1,1,1,1,1,1,1,1,1,1,1,1,1,1,1,1,1,1,1,1,1,1,1,1,1,1,1,1,1,1,1,1,1,1,1,1,1,1,1,1,1,1,1,1,1,1,1,1,1,1,1,1,1,1,1,1,1,1,1,1,1,1,1,1,1,1,1,1,1,1,1,1,1,1,1,1,1,1,1,1,1,1,1,1,1,1,1,1,1,1,1,1,1,1,1,1,1,1,1,1,1,-3.51472975010933,19.7863078103069,-33.068679549704,24.3052067676557,18.6091165790413,-12.6699207297162,-46.767997641979,-30.5594298620615,42.5018649905934,-0.950045033206817,-6.88213739710914,-38.4058787716291,43.4852150392334,-52.4232799653497,4.77666659359381,-38.8705600477558,-14.2504859770709,-4.84597568001141,-22.8754073490124,-14.168065048658,-51.2371212937723,-27.9779840536317,-14.0273699432309,-28.9380798252572,-90.6735211004162,19.5881393365404,-28.544558385057,-16.3146187542551,12.5865685673766,-100.780491652305,-5.60634638300492,53.8049842321755,23.3310930296103,-41.0870213465817,18.3813607302079,1.7367539161036,-7.7632936890036,-15.9482865783321,-79.5310095518805,17.3250415749344,21.5218444734567,8.29257712509089,-2.61586906453211,-21.972858678744,12.4974551653909,-8.89570905888241,37.8686547751411,2.73726772710302,-19.0392103263351,-33.2330590400007,23.9057617988759,-56.0616127155648,-7.48282292556885,-28.3809059911598,-19.5368563304526,66.7230914210184,-35.5873636054551,-64.4872507616751,-24.2045324459275,39.3021889022141,-52.5553817175616,16.6963225673245,-7.97849065767339,-23.072681285889,-71.618133177338,-7.79552092046782,2.75274703325501,-11.5236186722351,0.902656270999004,-11.6843382659399,-40.4038742067553,-23.3095237113218,-27.0831162512758,-10.6735789135074,-40.3130967918243,4.0200186185786,-19.3396428784823,-42.3750337091857,12.0660129277932,10.9062393130357,-40.8777083964175,-25.6426787269679,12.9865909289185,-4.28009988851113,45.3695900351832,-14.7070362846968,-6.81887944467942,-38.5775474025997,10.5988591619239,45.2394025319034,-8.15435122900046,-17.8370707497244,-21.5421131803776,21.4040437020246,45.7324530645212,-24.4904982451515,1.51688499729912,-19.7356425834164,52.6288846691353,-25.0561848909194,-27.1359098096407,24.2310200505916,6.49071212338084,89.2160348530079,-1.60783140981789,-6.15050349533045,13.4858807362884,3.5347553713947,8.3002018822774,-33.0121553189278,39.9691419778376,-68.0916402261672,2.28538684590401,-20.7022698987272,-24.021820318909,-9.937803524276,28.0529726542826,-6.85891903703916,6.11370751572282,-2.06838363340255,22.7332742188817,12.22442958808,-24.9700732846121,66.1833317069269,15.1608571344983,52.2195576911014,-2.19686908305657,7.29728059524713,16.9465932056919,40.8181662690148,-1.56353389967544,3.16029864057444,-58.0806006662676,21.598107229736,-47.8011623168956,46.0573256134881,-10.1710444626497,-13.7922215325992,32.7061396903459,0.522493252094393,3.77797469810862,-31.1653661056824,-34.9477936348233,22.7524977988056,-26.115182214289,15.8471929394347,14.0999928524716,-31.9283771320367,40.5078346583145,38.3067509831176,30.6317297505366,-11.2133952157645,6.43487138396024,22.7195345478633,41.5851068195512,47.7831307075124,38.0025674736424,-31.7344987980418,21.5751591786696,-12.8828064705951,-11.6383000430479,5.74861306771369,-38.4865281210624,45.8243023261132,8.31293106854422,-13.5539772858552,6.12840428097522,7.5565043924681,-0.0992426936494381,-48.5002586253779,-22.9480989059977,-26.8839290983349,-8.34924938777624,6.69429185409356,56.6145219860954,61.6161000722498,-20.3012257893509,10.2313860937805,-1.66037195398287,-55.0774730296084,-3.07313331839799,7.66057377773451,41.1087142460834,4.02825906641723,-56.0692329606867,5.98151725283395,-34.838870846304,10.7434345392448,-17.9994343044057,18.1642040458465,-35.2281399203534,-38.6402688126085,-21.4149649411354,8.77524891303385,-29.8719710197301,6.11014514906861,8.80523289413719,29.0142375846368,-6.02766861427914,-38.203136110632,-43.1427159680927,-2.3864569920371,9.1009342031475,-27.1079882206793,39.1393528190985,-15.0721747506956,10.616295156623,-13.8405894904455,-41.0532572094855,10.3542459833089,-24.2478492178449,0.0561127601037963,32.2582153694464,-45.9989204996153,38.3698012709664,-24.0982281981611,-5.79161002329008,-62.443384547176,-46.5703581108626,-39.2605329122712,30.8875485317146,2.6594154639798,22.3394688830545,-7.07831143918872,26.1638048204428,12.7014997641037,-22.1590591237397,-26.0637510256327,-20.3123120608913,9.87278026241183,23.4021598013459,-21.5015465182601,-30.3838355562617,-32.4404978344313,1.93093980951329,-13.4509025716384,53.0328368818046,5.84237488667493,5.59117643966852,15.7525643566192,12.8187873119823,33.6458577842055,-40.1497569381067,24.2753614405673,6.42122735311864,21.9656542869097,-19.0936094992754,3.28399995123162,54.4845025711925,-10.8412318638847,-41.1578939341548,3.58425367438942,1.84445506752955,2.36746233214601,-17.3546618429244,-12.5266959341603,-10.2191059642947,29.9487065018013,-5.45412192058292,32.8405707042967,-33.1814457680852,41.709700295847,21.4335550648917,35.6574808433022,-11.4264579022787,-66.7587010877976,-22.5608982862361,0.105950495472858,-87.477073066715,51.6362465098825,1,1,1,1,1,1,1,1,1,1,1,1,1,1,1,1,1,1,1,1,1,1,1,1,1,1,1,1,1,1,1,1,1,1,1,1,1,1,1,1,1,1,1,1,1,1,1,1,1,1,1,1,1,1,1,1,1,1,1,1,1,1,1,1,1,1,1,1,1,1,1,1,1,1,1,1,1,1,1,1,1,1,1,1,1,1,1,1,1,1,1,1,1,1,1,1,1,1,1,1,1,1,1,1,1,1,1,1,1,1,1,1,1,1,1,1,1,1,1,1,1,1,1,1,1,1,1,1,1,1,1,1,1,1,1,1,1,1,1,1,1,1,1,1,1,1,1,1,1,1,1,1,1,1,1,1,1,1,1,1,1,1,1,1,1,1,1,1,1,1,1,1,1,1,1,1,1,1,1,1,1,1,1,1,1,1,1,1,1,1,1,1,1,1,1,1,1,1,1,1,1,1,1,1,1,1,1,1,1,1,1,1,1,1,1,1,1,1,1,1,1,1,1,1,1,1,1,1,1,1,1,1,1,1,1,1,1,1,1,1,1,1,1,1,1,1,1,1,1,1,1,1,1,1,1,1,1,1,1,1,1,1,1,1,1,1,1,1,1,1,43.9412484644976,151.286898508942,-16.6370961975875,-0.474605361660912,1.48679048070312,-4.94955733585592,6.66325229703209,68.7332802964518,-7.83877965755665,8.69013616694669,-55.2725414043416,15.9584486204939,-3.65636306049348,-49.3715689851405,24.2167987258481,-29.7380807071251,-43.4213797277668,-2.49570784481246,-29.1451633390996,-90.0249980664337,-68.0001407181035,9.91395389559613,25.0325801965526,1.04989755067569,-93.3862111909934,76.5753855372568,41.1694892647864,37.8412479905272,30.4391342825351,-3.64593376589805,-10.7989311172858,-25.4107337879015,9.02977570058994,15.7622445219727,-25.1664195443939,-44.3392548393221,-30.2328296074945,-5.18103157650661,34.2692833012387,-13.8726993518087,-21.2972007478762,29.4174905533669,-44.6183122800486,47.9697771653766,-69.1305941962451,-10.1278775545845,32.8233123198637,8.6313876053996,6.55301958758153,14.266459936834,-3.77421292704627,35.2231443247412,83.2930443837189,-3.41132806590846,-20.2596908112413,43.9837510666305,-22.0317008983995,25.1247037298532,13.499146086937,15.5702822325129,-40.3928896390021,-67.8865420186826,-12.331064401693,1.63475918378561,-37.9929357142972,19.3560090609516,57.1961733178625,43.4037604885393,-5.07583097004861,-1.3296016883064,79.0159381704928,-5.0861780844665,5.92646357388606,36.9271335815505,9.45569251772541,19.0209299646349,-44.8684560398667,47.2141955857007,-21.9027392051784,-3.38170751581372,36.8766635471405,15.1930483811796,-36.3515623116212,-9.67515563458548,25.4372149773693,25.0110210396913,46.2185875062656,30.6909105927527,35.5243066298544,-18.0385847090909,-12.6827145199551,31.4448863942947,-49.2137834552818,9.54687572057708,59.0298501578675,42.2814818773893,127.118736112878,-10.9613193853689,8.42538976472258,-4.89150571411172,22.5482080774393,12.9327468786703,-16.1271354166899,21.1859091590712,-62.1416997163769,-8.82391225201228,-29.0843185283264,52.2966976513365,-75.8996751662426,-6.97189307411812,-25.3893451991443,46.9772344214836,-17.3260705553238,52.1625323279916,40.9165090973153,18.9828728684138,45.1141185720728,-22.9149601117593,12.0381712371188,69.0007344245247,-5.60575798559631,-12.4273827346156,38.7227617986292,-7.96596653706402,-61.7831336699244,-0.387097397747249,13.9820222916353,-33.8274500131046,0.0421106352500509,105.07810955688,-37.7387353743416,-12.2085280772604,101.950747588017,29.7806828547873,13.8032342424631,27.2271650610799,-45.1407905251825,3.97273281593563,18.687441317468,56.7805914976017,45.4390089595147,-26.8593226725166,-9.96590327014663,-12.4063221886833,-18.0642784976987,21.7458379766512,-39.1122927505088,41.8382888521088,-20.5308163780424,45.1868271328335,1.73167399584702,1.78424863388978,3.24225466881162,7.45092140189518,22.5657301048778,-25.7979561017837,1.14191625965269,-5.11879957016946,-31.3969792275359,-17.9131698353666,9.6176536011282,-6.69161460275682,-10.0468870456986,-45.534403079178,-2.31128877919837,39.5707475014109,-36.053651360714,17.6657527346221,6.43453585708919,12.915278089393,-4.05184910564431,21.8621938805666,-42.9850600296656,-53.8188005320379,53.5554369266199,30.621876015196,81.8399890092961,55.9665378293424,58.4801908618509,39.6576050896714,4.9404463567786,-0.243670468643949,-24.5589824690487,30.6133589104645,69.8788920656916,64.1770119768684,-15.2996310184565,37.0948153560021,16.8563759103483,93.8150016427048,35.7439328924943,38.6281094745554,-22.0923748732652,-30.8288121191942,25.7166904842149,-32.702526637037,61.3890635803244,-30.5242326447299,42.7678028705239,-25.3922396512667,-21.0121811455825,-75.315328792809,-9.57580356970465,51.3109572804587,11.0473452395642,-37.6846058108262,5.54405247092581,-48.9268784632852,-7.39014423176782,-12.1296763362387,-8.38953952363789,53.2431247601331,15.4264766556065,2.58353605264553,53.8610393347904,37.0681468463753,24.4904359359785,-46.5378098417289,23.4942561806958,-5.21516710620705,15.4224119594095,-17.4311942765899,11.6369557037874,-32.5440253471889,41.635587909367,1.89466694476782,-66.4600052546848,4.10070889037511,-65.1508634709878,-79.8734909059061,15.7714572104594,-3.15548761772446,-18.596257312109,5.42749410256556,-21.1218760250937,54.7543078712514,104.132796163271,-9.60269873648679,-21.1453450524886,-50.1285370200517,2.67621109521677,35.3099703971109,36.383499062766,-23.9539241684206,8.28602077500886,-15.5425669523944,38.1428224817348,37.734724869167,48.4718129310054,3.59323596260687,-31.2297421946525,64.0052110624111,0.877206245570507,9.38293464711001,14.5863786778498,13.0994001646709,21.770859835379,80.2410945816935,11.0586050877435,-6.35659404142474,0.302993718953641,26.2398800022214,2.28199166035652,21.6105416168754,34.2925494725373,41.451687899919,-1.08328005544439,-4.60324560414224,74.5726015320138,-65.7487842774097,14.9174058329432,-13.5051678405624,1,1,1,1,1,1,1,1,1,1,1,1,1,1,1,1,1,1,1,1,1,1,1,1,1,1,1,1,1,1,1,1,1,1,1,1,1,1,1,1,1,1,1,1,1,1,1,1,1,1,1,1,1,1,1,1,1,1,1,1,1,1,1,1,1,1,1,1,1,1,1,1,1,1,1,1,1,1,1,1,1,1,1,1,1,1,1,1,1,1,1,1,1,1,1,1,1,1,1,1,1,1,1,1,1,1,1,1,1,1,1,1,1,1,1,1,1,1,1,1,1,1,1,1,1,1,1,1,1,1,1,1,1,1,1,1,1,1,1,1,1,1,1,1,1,1,1,1,1,1,1,1,1,1,1,1,1,1,1,1,1,1,1,1,1,1,1,1,1,1,1,1,1,1,1,1,1,1,1,1,1,1,1,1,1,1,1,1,1,1,1,1,1,1,1,1,1,1,1,1,1,1,1,1,1,1,1,1,1,1,1,1,1,1,1,1,1,1,1,1,1,1,1,1,1,1,1,1,1,1,1,1,1,1,1,1,1,1,1,1,1,1,1,1,1,1,1,1,1,1,1,1,1,1,1,1,1,1,1,1,1,1,1,1,1,1,1,1,1,1,-3.51472975010933,19.7863078103069,-33.068679549704,24.3052067676557,18.6091165790413,-12.6699207297162,-46.767997641979,-30.5594298620615,42.5018649905934,-0.950045033206817,-6.88213739710914,-38.4058787716291,43.4852150392334,-52.4232799653497,4.77666659359381,-38.8705600477558,-14.2504859770709,-4.84597568001141,-22.8754073490124,-14.168065048658,-51.2371212937723,-27.9779840536317,-14.0273699432309,-28.9380798252572,-90.6735211004162,19.5881393365404,-28.544558385057,-16.3146187542551,12.5865685673766,-100.780491652305,-5.60634638300492,53.8049842321755,23.3310930296103,-41.0870213465817,18.3813607302079,1.7367539161036,-7.7632936890036,-15.9482865783321,-79.5310095518805,17.3250415749344,21.5218444734567,8.29257712509089,-2.61586906453211,-21.972858678744,12.4974551653909,-8.89570905888241,37.8686547751411,2.73726772710302,-19.0392103263351,-33.2330590400007,23.9057617988759,-56.0616127155648,-7.48282292556885,-28.3809059911598,-19.5368563304526,66.7230914210184,-35.5873636054551,-64.4872507616751,-24.2045324459275,39.3021889022141,-52.5553817175616,16.6963225673245,-7.97849065767339,-23.072681285889,-71.618133177338,-7.79552092046782,2.75274703325501,-11.5236186722351,0.902656270999004,-11.6843382659399,-40.4038742067553,-23.3095237113218,-27.0831162512758,-10.6735789135074,-40.3130967918243,4.0200186185786,-19.3396428784823,-42.3750337091857,12.0660129277932,10.9062393130357,-40.8777083964175,-25.6426787269679,12.9865909289185,-4.28009988851113,45.3695900351832,-14.7070362846968,-6.81887944467942,-38.5775474025997,10.5988591619239,45.2394025319034,-8.15435122900046,-17.8370707497244,-21.5421131803776,21.4040437020246,45.7324530645212,-24.4904982451515,1.51688499729912,-19.7356425834164,52.6288846691353,-25.0561848909194,-27.1359098096407,24.2310200505916,6.49071212338084,89.2160348530079,-1.60783140981789,-6.15050349533045,13.4858807362884,3.5347553713947,8.3002018822774,-33.0121553189278,39.9691419778376,-68.0916402261672,2.28538684590401,-20.7022698987272,-24.021820318909,-9.937803524276,28.0529726542826,-6.85891903703916,6.11370751572282,-2.06838363340255,22.7332742188817,12.22442958808,-24.9700732846121,66.1833317069269,15.1608571344983,52.2195576911014,-2.19686908305657,7.29728059524713,16.9465932056919,40.8181662690148,-1.56353389967544,3.16029864057444,-58.0806006662676,21.598107229736,-47.8011623168956,46.0573256134881,-10.1710444626497,-13.7922215325992,32.7061396903459,0.522493252094393,3.77797469810862,-31.1653661056824,-34.9477936348233,22.7524977988056,-26.115182214289,15.8471929394347,14.0999928524716,-31.9283771320367,40.5078346583145,38.3067509831176,30.6317297505366,-11.2133952157645,6.43487138396024,22.7195345478633,41.5851068195512,47.7831307075124,38.0025674736424,-31.7344987980418,21.5751591786696,-12.8828064705951,-11.6383000430479,5.74861306771369,-38.4865281210624,45.8243023261132,8.31293106854422,-13.5539772858552,6.12840428097522,7.5565043924681,-0.0992426936494381,-48.5002586253779,-22.9480989059977,-26.8839290983349,-8.34924938777624,6.69429185409356,56.6145219860954,61.6161000722498,-20.3012257893509,10.2313860937805,-1.66037195398287,-55.0774730296084,-3.07313331839799,7.66057377773451,41.1087142460834,4.02825906641723,-56.0692329606867,5.98151725283395,-34.838870846304,10.7434345392448,-17.9994343044057,18.1642040458465,-35.2281399203534,-38.6402688126085,-21.4149649411354,8.77524891303385,-29.8719710197301,6.11014514906861,8.80523289413719,29.0142375846368,-6.02766861427914,-38.203136110632,-43.1427159680927,-2.3864569920371,9.1009342031475,-27.1079882206793,39.1393528190985,-15.0721747506956,10.616295156623,-13.8405894904455,-41.0532572094855,10.3542459833089,-24.2478492178449,0.0561127601037963,32.2582153694464,-45.9989204996153,38.3698012709664,-24.0982281981611,-5.79161002329008,-62.443384547176,-46.5703581108626,-39.2605329122712,30.8875485317146,2.6594154639798,22.3394688830545,-7.07831143918872,26.1638048204428,12.7014997641037,-22.1590591237397,-26.0637510256327,-20.3123120608913,9.87278026241183,23.4021598013459,-21.5015465182601,-30.3838355562617,-32.4404978344313,1.93093980951329,-13.4509025716384,53.0328368818046,5.84237488667493,5.59117643966852,15.7525643566192,12.8187873119823,33.6458577842055,-40.1497569381067,24.2753614405673,6.42122735311864,21.9656542869097,-19.0936094992754,3.28399995123162,54.4845025711925,-10.8412318638847,-41.1578939341548,3.58425367438942,1.84445506752955,2.36746233214601,-17.3546618429244,-12.5266959341603,-10.2191059642947,29.9487065018013,-5.45412192058292,32.8405707042967,-33.1814457680852,41.709700295847,21.4335550648917,35.6574808433022,-11.4264579022787,-66.7587010877976,-22.5608982862361,0.105950495472858,-87.477073066715,51.6362465098825,1,1,1,1,1,1,1,1,1,1,1,1,1,1,1,1,1,1,1,1,1,1,1,1,1,1,1,1,1,1,1,1,1,1,1,1,1,1,1,1,1,1,1,1,1,1,1,1,1,1,1,1,1,1,1,1,1,1,1,1,1,1,1,1,1,1,1,1,1,1,1,1,1,1,1,1,1,1,1,1,1,1,1,1,1,1,1,1,1,1,1,1,1,1,1,1,1,1,1,1,1,1,1,1,1,1,1,1,1,1,1,1,1,1,1,1,1,1,1,1,1,1,1,1,1,1,1,1,1,1,1,1,1,1,1,1,1,1,1,1,1,1,1,1,1,1,1,1,1,1,1,1,1,1,1,1,1,1,1,1,1,1,1,1,1,1,1,1,1,1,1,1,1,1,1,1,1,1,1,1,1,1,1,1,1,1,1,1,1,1,1,1,1,1,1,1,1,1,1,1,1,1,1,1,1,1,1,1,1,1,1,1,1,1,1,1,1,1,1,1,1,1,1,1,1,1,1,1,1,1,1,1,1,1,1,1,1,1,1,1,1,1,1,1,1,1,1,1,1,1,1,1,1,1,1,1,1,1,1,1,1,1,1,1,1,1,1,1,1,1
292.658523434149,154.662505759235,219.521579970383,-78.4594600026199,99.9448449676343,-16.6370961975875,-0.474605361660912,1.48679048070312,-4.94955733585592,6.66325229703209,68.7332802964518,-7.83877965755665,8.69013616694669,-55.2725414043416,15.9584486204939,-3.65636306049348,-49.3715689851405,24.2167987258481,-29.7380807071251,-43.4213797277668,-2.49570784481246,-29.1451633390996,-90.0249980664337,-68.0001407181035,9.91395389559613,25.0325801965526,1.04989755067569,-93.3862111909934,76.5753855372568,41.1694892647864,37.8412479905272,30.4391342825351,-3.64593376589805,-10.7989311172858,-25.4107337879015,9.02977570058994,15.7622445219727,-25.1664195443939,-44.3392548393221,-30.2328296074945,-5.18103157650661,34.2692833012387,-13.8726993518087,-21.2972007478762,29.4174905533669,-44.6183122800486,47.9697771653766,-69.1305941962451,-10.1278775545845,32.8233123198637,8.6313876053996,6.55301958758153,14.266459936834,-3.77421292704627,35.2231443247412,83.2930443837189,-3.41132806590846,-20.2596908112413,43.9837510666305,-22.0317008983995,25.1247037298532,13.499146086937,15.5702822325129,-40.3928896390021,-67.8865420186826,-12.331064401693,1.63475918378561,-37.9929357142972,19.3560090609516,57.1961733178625,43.4037604885393,-5.07583097004861,-1.3296016883064,79.0159381704928,-5.0861780844665,5.92646357388606,36.9271335815505,9.45569251772541,19.0209299646349,-44.8684560398667,47.2141955857007,-21.9027392051784,-3.38170751581372,36.8766635471405,15.1930483811796,-36.3515623116212,-9.67515563458548,25.4372149773693,25.0110210396913,46.2185875062656,30.6909105927527,35.5243066298544,-18.0385847090909,-12.6827145199551,31.4448863942947,-49.2137834552818,9.54687572057708,59.0298501578675,42.2814818773893,127.118736112878,-10.9613193853689,8.42538976472258,-4.89150571411172,22.5482080774393,12.9327468786703,-16.1271354166899,21.1859091590712,-62.1416997163769,-8.82391225201228,-29.0843185283264,52.2966976513365,-75.8996751662426,-6.97189307411812,-25.3893451991443,46.9772344214836,-17.3260705553238,52.1625323279916,40.9165090973153,18.9828728684138,45.1141185720728,-22.9149601117593,12.0381712371188,69.0007344245247,-5.60575798559631,-12.4273827346156,38.7227617986292,-7.96596653706402,-61.7831336699244,-0.387097397747249,13.9820222916353,-33.8274500131046,0.0421106352500509,105.07810955688,-37.7387353743416,-12.2085280772604,101.950747588017,29.7806828547873,13.8032342424631,27.2271650610799,-45.1407905251825,3.97273281593563,18.687441317468,56.7805914976017,45.4390089595147,-26.8593226725166,-9.96590327014663,-12.4063221886833,-18.0642784976987,21.7458379766512,-39.1122927505088,41.8382888521088,-20.5308163780424,45.1868271328335,1.73167399584702,1.78424863388978,3.24225466881162,7.45092140189518,22.5657301048778,-25.7979561017837,1.14191625965269,-5.11879957016946,-31.3969792275359,-17.9131698353666,9.6176536011282,-6.69161460275682,-10.0468870456986,-45.534403079178,-2.31128877919837,39.5707475014109,-36.053651360714,17.6657527346221,6.43453585708919,12.915278089393,-4.05184910564431,21.8621938805666,-42.9850600296656,-53.8188005320379,53.5554369266199,30.621876015196,81.8399890092961,55.9665378293424,58.4801908618509,39.6576050896714,4.9404463567786,-0.243670468643949,-24.5589824690487,30.6133589104645,69.8788920656916,64.1770119768684,-15.2996310184565,37.0948153560021,16.8563759103483,93.8150016427048,35.7439328924943,38.6281094745554,-22.0923748732652,-30.8288121191942,25.7166904842149,-32.702526637037,61.3890635803244,-30.5242326447299,42.7678028705239,-25.3922396512667,-21.0121811455825,-75.315328792809,-9.57580356970465,51.3109572804587,11.0473452395642,-37.6846058108262,5.54405247092581,-48.9268784632852,-7.39014423176782,-12.1296763362387,-8.38953952363789,53.2431247601331,15.4264766556065,2.58353605264553,53.8610393347904,37.0681468463753,24.4904359359785,-46.5378098417289,23.4942561806958,-5.21516710620705,15.4224119594095,-17.4311942765899,11.6369557037874,-32.5440253471889,41.635587909367,1.89466694476782,-66.4600052546848,4.10070889037511,-65.1508634709878,-79.8734909059061,15.7714572104594,-3.15548761772446,-18.596257312109,5.42749410256556,-21.1218760250937,54.7543078712514,104.132796163271,-9.60269873648679,-21.1453450524886,-50.1285370200517,2.67621109521677,35.3099703971109,36.383499062766,-23.9539241684206,8.28602077500886,-15.5425669523944,38.1428224817348,37.734724869167,48.4718129310054,3.59323596260687,-31.2297421946525,64.0052110624111,0.877206245570507,9.38293464711001,14.5863786778498,13.0994001646709,21.770859835379,80.2410945816935,11.0586050877435,-6.35659404142474,0.302993718953641,26.2398800022214,2.28199166035652,21.6105416168754,34.2925494725373,41.451687899919,-1.08328005544439,-4.60324560414224,74.5726015320138,-65.7487842774097,14.9174058329432,-13.5051678405624,1,1,1,1,1,1,1,1,1,1,1,1,1,1,1,1,1,1,1,1,1,1,1,1,1,1,1,1,1,1,1,1,1,1,1,1,1,1,1,1,1,1,1,1,1,1,1,1,1,1,1,1,1,1,1,1,1,1,1,1,1,1,1,1,1,1,1,1,1,1,1,1,1,1,1,1,1,1,1,1,1,1,1,1,1,1,1,1,1,1,1,1,1,1,1,1,1,1,1,1,1,1,1,1,1,1,1,1,1,1,1,1,1,1,1,1,1,1,1,1,1,1,1,1,1,1,1,1,1,1,1,1,1,1,1,1,1,1,1,1,1,1,1,1,1,1,1,1,1,1,1,1,1,1,1,1,1,1,1,1,1,1,1,1,1,1,1,1,1,1,1,1,1,1,1,1,1,1,1,1,1,1,1,1,1,1,1,1,1,1,1,1,1,1,1,1,1,1,1,1,1,1,1,1,1,1,1,1,1,1,1,1,1,1,1,1,1,1,1,1,1,1,1,1,1,1,1,1,1,1,1,1,1,1,1,1,1,1,1,1,1,1,1,1,1,1,1,1,1,1,1,1,1,1,1,1,1,1,1,1,1,1,1,1,1,1,1,1,1,1,-3.51472975010933,19.7863078103069,-33.068679549704,24.3052067676557,18.6091165790413,-12.6699207297162,-46.767997641979,-30.5594298620615,42.5018649905934,-0.950045033206817,-6.88213739710914,-38.4058787716291,43.4852150392334,-52.4232799653497,4.77666659359381,-38.8705600477558,-14.2504859770709,-4.84597568001141,-22.8754073490124,-14.168065048658,-51.2371212937723,-27.9779840536317,-14.0273699432309,-28.9380798252572,-90.6735211004162,19.5881393365404,-28.544558385057,-16.3146187542551,12.5865685673766,-100.780491652305,-5.60634638300492,53.8049842321755,23.3310930296103,-41.0870213465817,18.3813607302079,1.7367539161036,-7.7632936890036,-15.9482865783321,-79.5310095518805,17.3250415749344,21.5218444734567,8.29257712509089,-2.61586906453211,-21.972858678744,12.4974551653909,-8.89570905888241,37.8686547751411,2.73726772710302,-19.0392103263351,-33.2330590400007,23.9057617988759,-56.0616127155648,-7.48282292556885,-28.3809059911598,-19.5368563304526,66.7230914210184,-35.5873636054551,-64.4872507616751,-24.2045324459275,39.3021889022141,-52.5553817175616,16.6963225673245,-7.97849065767339,-23.072681285889,-71.618133177338,-7.79552092046782,2.75274703325501,-11.5236186722351,0.902656270999004,-11.6843382659399,-40.4038742067553,-23.3095237113218,-27.0831162512758,-10.6735789135074,-40.3130967918243,4.0200186185786,-19.3396428784823,-42.3750337091857,12.0660129277932,10.9062393130357,-40.8777083964175,-25.6426787269679,12.9865909289185,-4.28009988851113,45.3695900351832,-14.7070362846968,-6.81887944467942,-38.5775474025997,10.5988591619239,45.2394025319034,-8.15435122900046,-17.8370707497244,-21.5421131803776,21.4040437020246,45.7324530645212,-24.4904982451515,1.51688499729912,-19.7356425834164,52.6288846691353,-25.0561848909194,-27.1359098096407,24.2310200505916,6.49071212338084,89.2160348530079,-1.60783140981789,-6.15050349533045,13.4858807362884,3.5347553713947,8.3002018822774,-33.0121553189278,39.9691419778376,-68.0916402261672,2.28538684590401,-20.7022698987272,-24.021820318909,-9.937803524276,28.0529726542826,-6.85891903703916,6.11370751572282,-2.06838363340255,22.7332742188817,12.22442958808,-24.9700732846121,66.1833317069269,15.1608571344983,52.2195576911014,-2.19686908305657,7.29728059524713,16.9465932056919,40.8181662690148,-1.56353389967544,3.16029864057444,-58.0806006662676,21.598107229736,-47.8011623168956,46.0573256134881,-10.1710444626497,-13.7922215325992,32.7061396903459,0.522493252094393,3.77797469810862,-31.1653661056824,-34.9477936348233,22.7524977988056,-26.115182214289,15.8471929394347,14.0999928524716,-31.9283771320367,40.5078346583145,38.3067509831176,30.6317297505366,-11.2133952157645,6.43487138396024,22.7195345478633,41.5851068195512,47.7831307075124,38.0025674736424,-31.7344987980418,21.5751591786696,-12.8828064705951,-11.6383000430479,5.74861306771369,-38.4865281210624,45.8243023261132,8.31293106854422,-13.5539772858552,6.12840428097522,7.5565043924681,-0.0992426936494381,-48.5002586253779,-22.9480989059977,-26.8839290983349,-8.34924938777624,6.69429185409356,56.6145219860954,61.6161000722498,-20.3012257893509,10.2313860937805,-1.66037195398287,-55.0774730296084,-3.07313331839799,7.66057377773451,41.1087142460834,4.02825906641723,-56.0692329606867,5.98151725283395,-34.838870846304,10.7434345392448,-17.9994343044057,18.1642040458465,-35.2281399203534,-38.6402688126085,-21.4149649411354,8.77524891303385,-29.8719710197301,6.11014514906861,8.80523289413719,29.0142375846368,-6.02766861427914,-38.203136110632,-43.1427159680927,-2.3864569920371,9.1009342031475,-27.1079882206793,39.1393528190985,-15.0721747506956,10.616295156623,-13.8405894904455,-41.0532572094855,10.3542459833089,-24.2478492178449,0.0561127601037963,32.2582153694464,-45.9989204996153,38.3698012709664,-24.0982281981611,-5.79161002329008,-62.443384547176,-46.5703581108626,-39.2605329122712,30.8875485317146,2.6594154639798,22.3394688830545,-7.07831143918872,26.1638048204428,12.7014997641037,-22.1590591237397,-26.0637510256327,-20.3123120608913,9.87278026241183,23.4021598013459,-21.5015465182601,-30.3838355562617,-32.4404978344313,1.93093980951329,-13.4509025716384,53.0328368818046,5.84237488667493,5.59117643966852,15.7525643566192,12.8187873119823,33.6458577842055,-40.1497569381067,24.2753614405673,6.42122735311864,21.9656542869097,-19.0936094992754,3.28399995123162,54.4845025711925,-10.8412318638847,-41.1578939341548,3.58425367438942,1.84445506752955,2.36746233214601,-17.3546618429244,-12.5266959341603,-10.2191059642947,29.9487065018013,-5.45412192058292,32.8405707042967,-33.1814457680852,41.709700295847,21.4335550648917,35.6574808433022,-11.4264579022787,-66.7587010877976,-22.5608982862361,0.105950495472858,-87.477073066715,51.6362465098825,1,1,1,1,1,1,1,1,1,1,1,1,1,1,1,1,1,1,1,1,1,1,1,1,1,1,1,1,1,1,1,1,1,1,1,1,1,1,1,1,1,1,1,1,1,1,1,1,1,1,1,1,1,1,1,1,1,1,1,1,1,1,1,1,1,1,1,1,1,1,1,1,1,1,1,1,1,1,1,1,1,1,1,1,1,1,1,1,1,1,1,1,1,1,1,1,1,1,1,1,1,1,1,1,1,1,1,1,1,1,1,1,1,1,1,1,1,1,1,1,1,1,1,1,1,1,1,1,1,1,1,1,1,1,1,1,1,1,1,1,1,1,1,1,1,1,1,1,1,1,1,1,1,1,1,1,1,1,1,1,1,1,1,1,1,1,1,1,1,1,1,1,1,1,1,1,1,1,1,1,1,1,1,1,1,1,1,1,1,1,1,1,1,1,1,1,1,1,1,1,1,1,1,1,1,1,1,1,1,1,1,1,1,1,1,1,1,1,1,1,1,1,1,1,1,1,1,1,1,1,1,1,1,1,1,1,1,1,1,1,1,1,1,1,1,1,1,1,1,1,1,1,1,1,1,1,1,1,1,1,1,1,1,1,1,1,1,1,1,1,-29.7975187429666,36.3345030018575,-16.6370961975875,-0.474605361660912,1.48679048070312,-4.94955733585592,6.66325229703209,68.7332802964518,-7.83877965755665,8.69013616694669,-55.2725414043416,15.9584486204939,-3.65636306049348,-49.3715689851405,24.2167987258481,-29.7380807071251,-43.4213797277668,-2.49570784481246,-29.1451633390996,-90.0249980664337,-68.0001407181035,9.91395389559613,25.0325801965526,1.04989755067569,-93.3862111909934,76.5753855372568,41.1694892647864,37.8412479905272,30.4391342825351,-3.64593376589805,-10.7989311172858,-25.4107337879015,9.02977570058994,15.7622445219727,-25.1664195443939,-44.3392548393221,-30.2328296074945,-5.18103157650661,34.2692833012387,-13.8726993518087,-21.2972007478762,29.4174905533669,-44.6183122800486,47.9697771653766,-69.1305941962451,-10.1278775545845,32.8233123198637,8.6313876053996,6.55301958758153,14.266459936834,-3.77421292704627,35.2231443247412,83.2930443837189,-3.41132806590846,-20.2596908112413,43.9837510666305,-22.0317008983995,25.1247037298532,13.499146086937,15.5702822325129,-40.3928896390021,-67.8865420186826,-12.331064401693,1.63475918378561,-37.9929357142972,19.3560090609516,57.1961733178625,43.4037604885393,-5.07583097004861,-1.3296016883064,79.0159381704928,-5.0861780844665,5.92646357388606,36.9271335815505,9.45569251772541,19.0209299646349,-44.8684560398667,47.2141955857007,-21.9027392051784,-3.38170751581372,36.8766635471405,15.1930483811796,-36.3515623116212,-9.67515563458548,25.4372149773693,25.0110210396913,46.2185875062656,30.6909105927527,35.5243066298544,-18.0385847090909,-12.6827145199551,31.4448863942947,-49.2137834552818,9.54687572057708,59.0298501578675,42.2814818773893,127.118736112878,-10.9613193853689,8.42538976472258,-4.89150571411172,22.5482080774393,12.9327468786703,-16.1271354166899,21.1859091590712,-62.1416997163769,-8.82391225201228,-29.0843185283264,52.2966976513365,-75.8996751662426,-6.97189307411812,-25.3893451991443,46.9772344214836,-17.3260705553238,52.1625323279916,40.9165090973153,18.9828728684138,45.1141185720728,-22.9149601117593,12.0381712371188,69.0007344245247,-5.60575798559631,-12.4273827346156,38.7227617986292,-7.96596653706402,-61.7831336699244,-0.387097397747249,13.9820222916353,-33.8274500131046,0.0421106352500509,105.07810955688,-37.7387353743416,-12.2085280772604,101.950747588017,29.7806828547873,13.8032342424631,27.2271650610799,-45.1407905251825,3.97273281593563,18.687441317468,56.7805914976017,45.4390089595147,-26.8593226725166,-9.96590327014663,-12.4063221886833,-18.0642784976987,21.7458379766512,-39.1122927505088,41.8382888521088,-20.5308163780424,45.1868271328335,1.73167399584702,1.78424863388978,3.24225466881162,7.45092140189518,22.5657301048778,-25.7979561017837,1.14191625965269,-5.11879957016946,-31.3969792275359,-17.9131698353666,9.6176536011282,-6.69161460275682,-10.0468870456986,-45.534403079178,-2.31128877919837,39.5707475014109,-36.053651360714,17.6657527346221,6.43453585708919,12.915278089393,-4.05184910564431,21.8621938805666,-42.9850600296656,-53.8188005320379,53.5554369266199,30.621876015196,81.8399890092961,55.9665378293424,58.4801908618509,39.6576050896714,4.9404463567786,-0.243670468643949,-24.5589824690487,30.6133589104645,69.8788920656916,64.1770119768684,-15.2996310184565,37.0948153560021,16.8563759103483,93.8150016427048,35.7439328924943,38.6281094745554,-22.0923748732652,-30.8288121191942,25.7166904842149,-32.702526637037,61.3890635803244,-30.5242326447299,42.7678028705239,-25.3922396512667,-21.0121811455825,-75.315328792809,-9.57580356970465,51.3109572804587,11.0473452395642,-37.6846058108262,5.54405247092581,-48.9268784632852,-7.39014423176782,-12.1296763362387,-8.38953952363789,53.2431247601331,15.4264766556065,2.58353605264553,53.8610393347904,37.0681468463753,24.4904359359785,-46.5378098417289,23.4942561806958,-5.21516710620705,15.4224119594095,-17.4311942765899,11.6369557037874,-32.5440253471889,41.635587909367,1.89466694476782,-66.4600052546848,4.10070889037511,-65.1508634709878,-79.8734909059061,15.7714572104594,-3.15548761772446,-18.596257312109,5.42749410256556,-21.1218760250937,54.7543078712514,104.132796163271,-9.60269873648679,-21.1453450524886,-50.1285370200517,2.67621109521677,35.3099703971109,36.383499062766,-23.9539241684206,8.28602077500886,-15.5425669523944,38.1428224817348,37.734724869167,48.4718129310054,3.59323596260687,-31.2297421946525,64.0052110624111,0.877206245570507,9.38293464711001,14.5863786778498,13.0994001646709,21.770859835379,80.2410945816935,11.0586050877435,-6.35659404142474,0.302993718953641,26.2398800022214,2.28199166035652,21.6105416168754,34.2925494725373,41.451687899919,-1.08328005544439,-4.60324560414224,74.5726015320138,-65.7487842774097,14.9174058329432,-13.5051678405624,1,1,1,1,1,1,1,1,1,1,1,1,1,1,1,1,1,1,1,1,1,1,1,1,1,1,1,1,1,1,1,1,1,1,1,1,1,1,1,1,1,1,1,1,1,1,1,1,1,1,1,1,1,1,1,1,1,1,1,1,1,1,1,1,1,1,1,1,1,1,1,1,1,1,1,1,1,1,1,1,1,1,1,1,1,1,1,1,1,1,1,1,1,1,1,1,1,1,1,1,1,1,1,1,1,1,1,1,1,1,1,1,1,1,1,1,1,1,1,1,1,1,1,1,1,1,1,1,1,1,1,1,1,1,1,1,1,1,1,1,1,1,1,1,1,1,1,1,1,1,1,1,1,1,1,1,1,1,1,1,1,1,1,1,1,1,1,1,1,1,1,1,1,1,1,1,1,1,1,1,1,1,1,1,1,1,1,1,1,1,1,1,1,1,1,1,1,1,1,1,1,1,1,1,1,1,1,1,1,1,1,1,1,1,1,1,1,1,1,1,1,1,1,1,1,1,1,1,1,1,1,1,1,1,1,1,1,1,1,1,1,1,1,1,1,1,1,1,1,1,1,1,1,1,1,1,1,1,1,1,1,1,1,1,1,1,1,1,1,1,-3.51472975010933,19.7863078103069,-33.068679549704,24.3052067676557,18.6091165790413,-12.6699207297162,-46.767997641979,-30.5594298620615,42.5018649905934,-0.950045033206817,-6.88213739710914,-38.4058787716291,43.4852150392334,-52.4232799653497,4.77666659359381,-38.8705600477558,-14.2504859770709,-4.84597568001141,-22.8754073490124,-14.168065048658,-51.2371212937723,-27.9779840536317,-14.0273699432309,-28.9380798252572,-90.6735211004162,19.5881393365404,-28.544558385057,-16.3146187542551,12.5865685673766,-100.780491652305,-5.60634638300492,53.8049842321755,23.3310930296103,-41.0870213465817,18.3813607302079,1.7367539161036,-7.7632936890036,-15.9482865783321,-79.5310095518805,17.3250415749344,21.5218444734567,8.29257712509089,-2.61586906453211,-21.972858678744,12.4974551653909,-8.89570905888241,37.8686547751411,2.73726772710302,-19.0392103263351,-33.2330590400007,23.9057617988759,-56.0616127155648,-7.48282292556885,-28.3809059911598,-19.5368563304526,66.7230914210184,-35.5873636054551,-64.4872507616751,-24.2045324459275,39.3021889022141,-52.5553817175616,16.6963225673245,-7.97849065767339,-23.072681285889,-71.618133177338,-7.79552092046782,2.75274703325501,-11.5236186722351,0.902656270999004,-11.6843382659399,-40.4038742067553,-23.3095237113218,-27.0831162512758,-10.6735789135074,-40.3130967918243,4.0200186185786,-19.3396428784823,-42.3750337091857,12.0660129277932,10.9062393130357,-40.8777083964175,-25.6426787269679,12.9865909289185,-4.28009988851113,45.3695900351832,-14.7070362846968,-6.81887944467942,-38.5775474025997,10.5988591619239,45.2394025319034,-8.15435122900046,-17.8370707497244,-21.5421131803776,21.4040437020246,45.7324530645212,-24.4904982451515,1.51688499729912,-19.7356425834164,52.6288846691353,-25.0561848909194,-27.1359098096407,24.2310200505916,6.49071212338084,89.2160348530079,-1.60783140981789,-6.15050349533045,13.4858807362884,3.5347553713947,8.3002018822774,-33.0121553189278,39.9691419778376,-68.0916402261672,2.28538684590401,-20.7022698987272,-24.021820318909,-9.937803524276,28.0529726542826,-6.85891903703916,6.11370751572282,-2.06838363340255,22.7332742188817,12.22442958808,-24.9700732846121,66.1833317069269,15.1608571344983,52.2195576911014,-2.19686908305657,7.29728059524713,16.9465932056919,40.8181662690148,-1.56353389967544,3.16029864057444,-58.0806006662676,21.598107229736,-47.8011623168956,46.0573256134881,-10.1710444626497,-13.7922215325992,32.7061396903459,0.522493252094393,3.77797469810862,-31.1653661056824,-34.9477936348233,22.7524977988056,-26.115182214289,15.8471929394347,14.0999928524716,-31.9283771320367,40.5078346583145,38.3067509831176,30.6317297505366,-11.2133952157645,6.43487138396024,22.7195345478633,41.5851068195512,47.7831307075124,38.0025674736424,-31.7344987980418,21.5751591786696,-12.8828064705951,-11.6383000430479,5.74861306771369,-38.4865281210624,45.8243023261132,8.31293106854422,-13.5539772858552,6.12840428097522,7.5565043924681,-0.0992426936494381,-48.5002586253779,-22.9480989059977,-26.8839290983349,-8.34924938777624,6.69429185409356,56.6145219860954,61.6161000722498,-20.3012257893509,10.2313860937805,-1.66037195398287,-55.0774730296084,-3.07313331839799,7.66057377773451,41.1087142460834,4.02825906641723,-56.0692329606867,5.98151725283395,-34.838870846304,10.7434345392448,-17.9994343044057,18.1642040458465,-35.2281399203534,-38.6402688126085,-21.4149649411354,8.77524891303385,-29.8719710197301,6.11014514906861,8.80523289413719,29.0142375846368,-6.02766861427914,-38.203136110632,-43.1427159680927,-2.3864569920371,9.1009342031475,-27.1079882206793,39.1393528190985,-15.0721747506956,10.616295156623,-13.8405894904455,-41.0532572094855,10.3542459833089,-24.2478492178449,0.0561127601037963,32.2582153694464,-45.9989204996153,38.3698012709664,-24.0982281981611,-5.79161002329008,-62.443384547176,-46.5703581108626,-39.2605329122712,30.8875485317146,2.6594154639798,22.3394688830545,-7.07831143918872,26.1638048204428,12.7014997641037,-22.1590591237397,-26.0637510256327,-20.3123120608913,9.87278026241183,23.4021598013459,-21.5015465182601,-30.3838355562617,-32.4404978344313,1.93093980951329,-13.4509025716384,53.0328368818046,5.84237488667493,5.59117643966852,15.7525643566192,12.8187873119823,33.6458577842055,-40.1497569381067,24.2753614405673,6.42122735311864,21.9656542869097,-19.0936094992754,3.28399995123162,54.4845025711925,-10.8412318638847,-41.1578939341548,3.58425367438942,1.84445506752955,2.36746233214601,-17.3546618429244,-12.5266959341603,-10.2191059642947,29.9487065018013,-5.45412192058292,32.8405707042967,-33.1814457680852,41.709700295847,21.4335550648917,35.6574808433022,-11.4264579022787,-66.7587010877976,-22.5608982862361,0.105950495472858,-87.477073066715,51.6362465098825,1,1,1,1,1,1,1,1,1,1,1,1,1,1,1,1,1,1,1,1,1,1,1,1,1,1,1,1,1,1,1,1,1,1,1,1,1,1,1,1,1,1,1,1,1,1,1,1,1,1,1,1,1,1,1,1,1,1,1,1,1,1,1,1,1,1,1,1,1,1,1,1,1,1,1,1,1,1,1,1,1,1,1,1,1,1,1,1,1,1,1,1,1,1,1,1,1,1,1,1,1,1,1,1,1,1,1,1,1,1,1,1,1,1,1,1,1,1,1,1,1,1,1,1,1,1,1,1,1,1,1,1,1,1,1,1,1,1,1,1,1,1,1,1,1,1,1,1,1,1,1,1,1,1,1,1,1,1,1,1,1,1,1,1,1,1,1,1,1,1,1,1,1,1,1,1,1,1,1,1,1,1,1,1,1,1,1,1,1,1,1,1,1,1,1,1,1,1,1,1,1,1,1,1,1,1,1,1,1,1,1,1,1,1,1,1,1,1,1,1,1,1,1,1,1,1,1,1,1,1,1,1,1,1,1,1,1,1,1,1,1,1,1,1,1,1,1,1,1,1,1,1,1,1,1,1,1,1,1,1,1,1,1,1,1,1,1,1,1,1,43.9412484644976,151.286898508942,-16.6370961975875,-0.474605361660912,1.48679048070312,-4.94955733585592,6.66325229703209,68.7332802964518,-7.83877965755665,8.69013616694669,-55.2725414043416,15.9584486204939,-3.65636306049348,-49.3715689851405,24.2167987258481,-29.7380807071251,-43.4213797277668,-2.49570784481246,-29.1451633390996,-90.0249980664337,-68.0001407181035,9.91395389559613,25.0325801965526,1.04989755067569,-93.3862111909934,76.5753855372568,41.1694892647864,37.8412479905272,30.4391342825351,-3.64593376589805,-10.7989311172858,-25.4107337879015,9.02977570058994,15.7622445219727,-25.1664195443939,-44.3392548393221,-30.2328296074945,-5.18103157650661,34.2692833012387,-13.8726993518087,-21.2972007478762,29.4174905533669,-44.6183122800486,47.9697771653766,-69.1305941962451,-10.1278775545845,32.8233123198637,8.6313876053996,6.55301958758153,14.266459936834,-3.77421292704627,35.2231443247412,83.2930443837189,-3.41132806590846,-20.2596908112413,43.9837510666305,-22.0317008983995,25.1247037298532,13.499146086937,15.5702822325129,-40.3928896390021,-67.8865420186826,-12.331064401693,1.63475918378561,-37.9929357142972,19.3560090609516,57.1961733178625,43.4037604885393,-5.07583097004861,-1.3296016883064,79.0159381704928,-5.0861780844665,5.92646357388606,36.9271335815505,9.45569251772541,19.0209299646349,-44.8684560398667,47.2141955857007,-21.9027392051784,-3.38170751581372,36.8766635471405,15.1930483811796,-36.3515623116212,-9.67515563458548,25.4372149773693,25.0110210396913,46.2185875062656,30.6909105927527,35.5243066298544,-18.0385847090909,-12.6827145199551,31.4448863942947,-49.2137834552818,9.54687572057708,59.0298501578675,42.2814818773893,127.118736112878,-10.9613193853689,8.42538976472258,-4.89150571411172,22.5482080774393,12.9327468786703,-16.1271354166899,21.1859091590712,-62.1416997163769,-8.82391225201228,-29.0843185283264,52.2966976513365,-75.8996751662426,-6.97189307411812,-25.3893451991443,46.9772344214836,-17.3260705553238,52.1625323279916,40.9165090973153,18.9828728684138,45.1141185720728,-22.9149601117593,12.0381712371188,69.0007344245247,-5.60575798559631,-12.4273827346156,38.7227617986292,-7.96596653706402,-61.7831336699244,-0.387097397747249,13.9820222916353,-33.8274500131046,0.0421106352500509,105.07810955688,-37.7387353743416,-12.2085280772604,101.950747588017,29.7806828547873,13.8032342424631,27.2271650610799,-45.1407905251825,3.97273281593563,18.687441317468,56.7805914976017,45.4390089595147,-26.8593226725166,-9.96590327014663,-12.4063221886833,-18.0642784976987,21.7458379766512,-39.1122927505088,41.8382888521088,-20.5308163780424,45.1868271328335,1.73167399584702,1.78424863388978,3.24225466881162,7.45092140189518,22.5657301048778,-25.7979561017837,1.14191625965269,-5.11879957016946,-31.3969792275359,-17.9131698353666,9.6176536011282,-6.69161460275682,-10.0468870456986,-45.534403079178,-2.31128877919837,39.5707475014109,-36.053651360714,17.6657527346221,6.43453585708919,12.915278089393,-4.05184910564431,21.8621938805666,-42.9850600296656,-53.8188005320379,53.5554369266199,30.621876015196,81.8399890092961,55.9665378293424,58.4801908618509,39.6576050896714,4.9404463567786,-0.243670468643949,-24.5589824690487,30.6133589104645,69.8788920656916,64.1770119768684,-15.2996310184565,37.0948153560021,16.8563759103483,93.8150016427048,35.7439328924943,38.6281094745554,-22.0923748732652,-30.8288121191942,25.7166904842149,-32.702526637037,61.3890635803244,-30.5242326447299,42.7678028705239,-25.3922396512667,-21.0121811455825,-75.315328792809,-9.57580356970465,51.3109572804587,11.0473452395642,-37.6846058108262,5.54405247092581,-48.9268784632852,-7.39014423176782,-12.1296763362387,-8.38953952363789,53.2431247601331,15.4264766556065,2.58353605264553,53.8610393347904,37.0681468463753,24.4904359359785,-46.5378098417289,23.4942561806958,-5.21516710620705,15.4224119594095,-17.4311942765899,11.6369557037874,-32.5440253471889,41.635587909367,1.89466694476782,-66.4600052546848,4.10070889037511,-65.1508634709878,-79.8734909059061,15.7714572104594,-3.15548761772446,-18.596257312109,5.42749410256556,-21.1218760250937,54.7543078712514,104.132796163271,-9.60269873648679,-21.1453450524886,-50.1285370200517,2.67621109521677,35.3099703971109,36.383499062766,-23.9539241684206,8.28602077500886,-15.5425669523944,38.1428224817348,37.734724869167,48.4718129310054,3.59323596260687,-31.2297421946525,64.0052110624111,0.877206245570507,9.38293464711001,14.5863786778498,13.0994001646709,21.770859835379,80.2410945816935,11.0586050877435,-6.35659404142474,0.302993718953641,26.2398800022214,2.28199166035652,21.6105416168754,34.2925494725373,41.451687899919,-1.08328005544439,-4.60324560414224,74.5726015320138,-65.7487842774097,14.9174058329432,-13.5051678405624,1,1,1,1,1,1,1,1,1,1,1,1,1,1,1,1,1,1,1,1,1,1,1,1,1,1,1,1,1,1,1,1,1,1,1,1,1,1,1,1,1,1,1,1,1,1,1,1,1,1,1,1,1,1,1,1,1,1,1,1,1,1,1,1,1,1,1,1,1,1,1,1,1,1,1,1,1,1,1,1,1,1,1,1,1,1,1,1,1,1,1,1,1,1,1,1,1,1,1,1,1,1,1,1,1,1,1,1,1,1,1,1,1,1,1,1,1,1,1,1,1,1,1,1,1,1,1,1,1,1,1,1,1,1,1,1,1,1,1,1,1,1,1,1,1,1,1,1,1,1,1,1,1,1,1,1,1,1,1,1,1,1,1,1,1,1,1,1,1,1,1,1,1,1,1,1,1,1,1,1,1,1,1,1,1,1,1,1,1,1,1,1,1,1,1,1,1,1,1,1,1,1,1,1,1,1,1,1,1,1,1,1,1,1,1,1,1,1,1,1,1,1,1,1,1,1,1,1,1,1,1,1,1,1,1,1,1,1,1,1,1,1,1,1,1,1,1,1,1,1,1,1,1,1,1,1,1,1,1,1,1,1,1,1,1,1,1,1,1,1,-3.51472975010933,19.7863078103069,-33.068679549704,24.3052067676557,18.6091165790413,-12.6699207297162,-46.767997641979,-30.5594298620615,42.5018649905934,-0.950045033206817,-6.88213739710914,-38.4058787716291,43.4852150392334,-52.4232799653497,4.77666659359381,-38.8705600477558,-14.2504859770709,-4.84597568001141,-22.8754073490124,-14.168065048658,-51.2371212937723,-27.9779840536317,-14.0273699432309,-28.9380798252572,-90.6735211004162,19.5881393365404,-28.544558385057,-16.3146187542551,12.5865685673766,-100.780491652305,-5.60634638300492,53.8049842321755,23.3310930296103,-41.0870213465817,18.3813607302079,1.7367539161036,-7.7632936890036,-15.9482865783321,-79.5310095518805,17.3250415749344,21.5218444734567,8.29257712509089,-2.61586906453211,-21.972858678744,12.4974551653909,-8.89570905888241,37.8686547751411,2.73726772710302,-19.0392103263351,-33.2330590400007,23.9057617988759,-56.0616127155648,-7.48282292556885,-28.3809059911598,-19.5368563304526,66.7230914210184,-35.5873636054551,-64.4872507616751,-24.2045324459275,39.3021889022141,-52.5553817175616,16.6963225673245,-7.97849065767339,-23.072681285889,-71.618133177338,-7.79552092046782,2.75274703325501,-11.5236186722351,0.902656270999004,-11.6843382659399,-40.4038742067553,-23.3095237113218,-27.0831162512758,-10.6735789135074,-40.3130967918243,4.0200186185786,-19.3396428784823,-42.3750337091857,12.0660129277932,10.9062393130357,-40.8777083964175,-25.6426787269679,12.9865909289185,-4.28009988851113,45.3695900351832,-14.7070362846968,-6.81887944467942,-38.5775474025997,10.5988591619239,45.2394025319034,-8.15435122900046,-17.8370707497244,-21.5421131803776,21.4040437020246,45.7324530645212,-24.4904982451515,1.51688499729912,-19.7356425834164,52.6288846691353,-25.0561848909194,-27.1359098096407,24.2310200505916,6.49071212338084,89.2160348530079,-1.60783140981789,-6.15050349533045,13.4858807362884,3.5347553713947,8.3002018822774,-33.0121553189278,39.9691419778376,-68.0916402261672,2.28538684590401,-20.7022698987272,-24.021820318909,-9.937803524276,28.0529726542826,-6.85891903703916,6.11370751572282,-2.06838363340255,22.7332742188817,12.22442958808,-24.9700732846121,66.1833317069269,15.1608571344983,52.2195576911014,-2.19686908305657,7.29728059524713,16.9465932056919,40.8181662690148,-1.56353389967544,3.16029864057444,-58.0806006662676,21.598107229736,-47.8011623168956,46.0573256134881,-10.1710444626497,-13.7922215325992,32.7061396903459,0.522493252094393,3.77797469810862,-31.1653661056824,-34.9477936348233,22.7524977988056,-26.115182214289,15.8471929394347,14.0999928524716,-31.9283771320367,40.5078346583145,38.3067509831176,30.6317297505366,-11.2133952157645,6.43487138396024,22.7195345478633,41.5851068195512,47.7831307075124,38.0025674736424,-31.7344987980418,21.5751591786696,-12.8828064705951,-11.6383000430479,5.74861306771369,-38.4865281210624,45.8243023261132,8.31293106854422,-13.5539772858552,6.12840428097522,7.5565043924681,-0.0992426936494381,-48.5002586253779,-22.9480989059977,-26.8839290983349,-8.34924938777624,6.69429185409356,56.6145219860954,61.6161000722498,-20.3012257893509,10.2313860937805,-1.66037195398287,-55.0774730296084,-3.07313331839799,7.66057377773451,41.1087142460834,4.02825906641723,-56.0692329606867,5.98151725283395,-34.838870846304,10.7434345392448,-17.9994343044057,18.1642040458465,-35.2281399203534,-38.6402688126085,-21.4149649411354,8.77524891303385,-29.8719710197301,6.11014514906861,8.80523289413719,29.0142375846368,-6.02766861427914,-38.203136110632,-43.1427159680927,-2.3864569920371,9.1009342031475,-27.1079882206793,39.1393528190985,-15.0721747506956,10.616295156623,-13.8405894904455,-41.0532572094855,10.3542459833089,-24.2478492178449,0.0561127601037963,32.2582153694464,-45.9989204996153,38.3698012709664,-24.0982281981611,-5.79161002329008,-62.443384547176,-46.5703581108626,-39.2605329122712,30.8875485317146,2.6594154639798,22.3394688830545,-7.07831143918872,26.1638048204428,12.7014997641037,-22.1590591237397,-26.0637510256327,-20.3123120608913,9.87278026241183,23.4021598013459,-21.5015465182601,-30.3838355562617,-32.4404978344313,1.93093980951329,-13.4509025716384,53.0328368818046,5.84237488667493,5.59117643966852,15.7525643566192,12.8187873119823,33.6458577842055,-40.1497569381067,24.2753614405673,6.42122735311864,21.9656542869097,-19.0936094992754,3.28399995123162,54.4845025711925,-10.8412318638847,-41.1578939341548,3.58425367438942,1.84445506752955,2.36746233214601,-17.3546618429244,-12.5266959341603,-10.2191059642947,29.9487065018013,-5.45412192058292,32.8405707042967,-33.1814457680852,41.709700295847,21.4335550648917,35.6574808433022,-11.4264579022787,-66.7587010877976,-22.5608982862361,0.105950495472858,-87.477073066715,51.6362465098825,1,1,1,1,1,1,1,1,1,1,1,1,1,1,1,1,1,1,1,1,1,1,1,1,1,1,1,1,1,1,1,1,1,1,1,1,1,1,1,1,1,1,1,1,1,1,1,1,1,1,1,1,1,1,1,1,1,1,1,1,1,1,1,1,1,1,1,1,1,1,1,1,1,1,1,1,1,1,1,1,1,1,1,1,1,1,1,1,1,1,1,1,1,1,1,1,1,1,1,1,1,1,1,1,1,1,1,1,1,1,1,1,1,1,1,1,1,1,1,1,1,1,1,1,1,1,1,1,1,1,1,1,1,1,1,1,1,1,1,1,1,1,1,1,1,1,1,1,1,1,1,1,1,1,1,1,1,1,1,1,1,1,1,1,1,1,1,1,1,1,1,1,1,1,1,1,1,1,1,1,1,1,1,1,1,1,1,1,1,1,1,1,1,1,1,1,1,1,1,1,1,1,1,1,1,1,1,1,1,1,1,1,1,1,1,1,1,1,1,1,1,1,1,1,1,1,1,1,1,1,1,1,1,1,1,1,1,1,1,1,1,1,1,1,1,1,1,1,1,1,1,1,1,1,1,1,1,1,1,1,1,1,1,1,1,1,1,1,1,1
