159.819061523219,-57.9938961621346,63.3311673129588,-150.739273181782,56.7808436526324,43.7805101591174,20.9043943320295,26.7627463267116,-18.1253260402419,3.43700710216089,-5.48848884832978,-2.38072749828373,78.4918399400871,-21.9366560114834,-41.505407115366,-22.8445647583002,37.0556317897404,15.4105139674705,-17.0821904658621,21.7091991403301,-41.1500904788828,-49.6505277304646,-38.5989320408201,-5.16115853694917,-44.4535435533923,-52.6364831642262,6.81447579510413,40.9650375709515,33.8182162162203,-35.5795597796334,13.2980037803328,38.9558073471922,55.6960904692247,15.9121244096282,7.56978953671635,-36.1673271377124,-11.8831597686904,-0.403687785927796,-1.04798956801098,4.93689902480524,0.667791581098435,-41.1647708618914,14.7858735838927,33.1422588462893,-9.36994681756653,13.5010168243931,-11.4194640949683,-49.6681126681993,22.360465631472,-34.0606770621799,17.0132584049115,20.4154107889641,2.97006025839145,13.9361037296958,15.7076303025312,-1.47977326651521,0.896858311392974,46.5408129336574,-9.06405080399444,0.526217262673203,46.1962693197614,-9.38014669195148,3.35468840747579,5.6408260907855,-13.2139709727726,-33.9573175685865,6.31469296094977,49.9126997876981,28.1877806806638,-27.1609828649824,-4.05449517804305,45.683693483718,31.0927021618964,-15.8197569392472,8.93950194739119,13.69862894987,41.1984504718255,-25.1466927727802,7.46513810108949,11.4713634794835,-3.58393562522382,-3.34158069220952,45.0105304851105,-25.3450521781377,-4.75224621207488,75.8375503348331,10.750503777266,-59.6879222624373,-24.4385209112967,40.7118709665964,-8.03772733611743,22.8349534573484,-9.22313841878307,13.6505440489574,-21.1490437116068,23.2278929599804,16.7567504745892,-44.948419266734,-28.1544422765071,46.2218754618165,28.2493728087288,86.6765439543195,32.3721316417723,-3.03072545108018,-18.3021407074478,15.3882528295553,14.2428369035156,6.01861486697147,0.70852824139206,-63.0870347919612,7.05269773393108,-25.3200481607728,27.3413792227026,-69.3255273244552,19.9614231251945,22.1872666033266,69.3481985313051,12.0619408452481,52.3942544155914,-0.526268625232429,73.3260293761307,14.6948688867381,19.8273278629776,27.9449525707245,-0.903026110917108,12.7730041033396,-9.62063377411233,-29.3358810399877,-2.15009526257612,-44.5667886397357,-2.59836563209994,76.0996140425192,-26.3885055368574,45.2965410697061,73.283851542011,-16.321728856059,-40.0022816071272,39.2655851198863,22.4349945874439,29.5620619376494,32.5578346199037,-35.6125545390999,13.1636744669561,44.9310429238377,70.6433312038154,43.2325350232209,32.7503657114555,-11.3998343737994,-54.8037383701516,7.4454321683827,2.79614298919278,-30.6127196937282,-13.8665351129445,-1.27369652168172,-2.65641705551834,8.78361850621941,19.4677827800152,6.30691839367788,-14.9603745767917,8.9712205445005,14.8863463846144,26.9719307889651,22.0303826417565,-18.0189102778379,-14.5602260555259,-37.8769131566317,-49.5802695878006,14.7490269083284,-24.8733738930268,8.61077964139229,21.7473391185322,1.73890172334711,8.35093312244383,-36.8465837014835,-21.1418011136202,-7.82495609902368,1.24679554289965,-2.34648433540336,-55.6031685681933,59.5465309703907,66.8609417930666,17.9011663873209,39.1817520525315,39.2302708668809,-23.6917623227843,3.79833284638093,-15.9698289625901,-33.8935353260523,10.603273866616,57.4144714545838,15.2389182508696,-3.8044857371936,46.5210820015373,-1.01201418392181,69.4283047297106,62.8137417621803,43.3312283755108,-6.91881511735741,-1.88524440823448,-23.9416385061068,-23.6307188503546,61.0408842291148,-50.5730675606787,2.57509480380551,-36.6925855145065,-27.7215295516255,-47.9799137327146,17.5847147097528,38.2510639781799,15.1821001076922,-39.7421735858957,-39.8363559428534,-37.7240285125796,20.3518051547228,2.9271340295958,-1.08032220515879,30.7626309681221,-20.606526680947,6.32083432060557,2.47142835675276,20.5015215693667,22.2727511199356,20.5251899194889,-7.85171034688707,6.78091317858396,52.8009296667736,-11.9025846159189,4.17234846712808,18.5705483343407,9.26082320368829,13.1185391267422,-19.3970472923934,22.2239991267286,-46.3705618181835,-19.2918255456392,62.9510206404793,-8.58521169524354,-44.6657325151752,-47.5937203801444,14.0599541794896,41.0216656455245,65.6727391746634,-32.1152849278942,-5.49995151537328,-42.316049900976,20.5673744408818,24.9879789570665,32.0067672391066,42.287207131862,21.0772254071311,16.5850997723168,-5.27057990953429,38.4580084434296,54.1113451381266,-6.08082774875158,-1.54157501760392,-9.21123849273121,20.8958914020109,-2.36550951409868,21.3625416696957,30.6856272538684,-7.25208790502968,77.5760584933095,11.5589135160666,-20.2507346698192,9.59853161387268,21.3901696102092,-15.6296219006406,-11.9920886181387,8.1129256783353,19.8943460340017,-5.11813258143483,23.472596508399,25.9989079685336,-20.0255288487106,1,1,1,1,1,1,1,1,1,1,1,1,1,1,1,1,1,1,1,1,1,1,1,1,1,1,1,1,1,1,1,1,1,1,1,1,1,1,1,1,1,1,1,1,1,1,1,1,1,1,1,1,1,1,1,1,1,1,1,1,1,1,1,1,1,1,1,1,1,1,1,1,1,1,1,1,1,1,1,1,1,1,1,1,1,1,1,1,1,1,1,1,1,1,1,1,1,1,1,1,1,1,1,1,1,1,1,1,1,1,1,1,1,1,1,1,1,1,1,1,1,1,1,1,1,1,1,1,1,1,1,1,1,1,1,1,1,1,1,1,1,1,1,1,1,1,1,1,1,1,1,1,1,1,1,1,1,1,1,1,1,1,1,1,1,1,1,1,1,1,1,1,1,1,1,1,1,1,1,1,1,1,1,1,1,1,1,1,1,1,1,1,1,1,1,1,1,1,1,1,1,1,1,1,1,1,1,1,1,1,1,1,1,1,1,1,1,1,1,1,1,1,1,1,1,1,1,1,1,1,1,1,1,1,1,1,1,1,1,1,1,1,1,1,1,1,1,1,1,1,1,1,1,1,1,1,1,1,1,1,1,1,1,1,1,1,1,1,1,1,-17.2807749529308,-13.7463586713744,4.5221091365898,33.1015181527671,-43.5864996628965,-14.5554689122095,33.7588296277613,-4.18464935239566,65.8426999949937,-40.7338416946676,22.3655856367294,-22.8848743072614,-28.0164708105915,-46.4346716454033,-23.7290293159695,45.5228436050081,-3.42917880709337,-11.5902491047859,-3.94929342011793,-7.01899485110236,9.91427048443033,-48.8565073558273,27.22323391769,32.5576522680682,9.36029653724853,27.4874777282242,14.3748843153053,-17.1957455819494,-13.8542362484458,-15.0005562698455,-10.6822656654103,-10.5540382557055,15.1985000095308,8.31465330548815,0.920886143969732,8.22949347582028,39.3092416800364,-40.2444680541663,20.1032526998543,-9.66961296450275,-5.02968452370468,1.30653747203066,47.3323346006254,-1.00371853094058,-68.3058797389136,-38.2114686910303,-9.90129189121418,57.3026339290477,-11.1423416326947,63.8786477652856,5.65454577904797,10.8350467088365,-4.22515469867155,-24.6368143731795,76.9635776923332,9.48819302221631,54.6231286277479,-18.9902605070266,-41.5136697142994,-42.5338994753336,0.603987242650036,19.0995882997148,49.0685317146951,-40.2075358591029,54.2039459623234,11.2033522120548,17.1639543586958,11.1937795894917,-39.4955125800626,21.1328420197724,-25.899654374085,37.5768942692078,12.4652948813477,2.60965937946588,43.3650452058727,23.0950587855279,21.7571070620363,89.1611598543373,27.2061152321717,27.2126241533516,-1.7694344736418,0.0240287579093332,46.7470041261582,-35.5638933330281,-4.07657528760757,-39.5932995006282,-9.8361666437853,16.3384389638413,15.3328694637906,11.4489787440369,-51.5199011264641,-44.0311683573904,48.4617717093762,-17.3136467810269,-16.9721374504407,39.4626371385745,28.1148703135903,-8.80453021841792,47.3337932148257,-33.0680226304789,-9.52747224695242,-11.4543238692339,12.023504535619,41.9202002519328,35.3527602926593,2.17926640514729,-51.2153943500253,8.85285285544401,30.1248256076994,-7.36877783990709,-18.4872158638188,-1.33292040931111,-10.3332054753783,-14.7589889991965,33.1285218870268,-44.0313812128896,37.2826066830574,81.360088756196,5.86216604425102,13.8215867951633,35.6929071711857,-27.1369065020684,23.9430170027167,-5.82104293364521,54.8089609915328,30.9748963468002,10.0168629497029,6.5174057551577,-1.50874499264785,-36.6156824324964,26.6478267859507,-8.08962441791149,2.24934565577661,14.6515586920815,-64.2907502198398,46.3494249204982,44.1207501369006,24.9737967857956,1.26776818800878,-25.4538875113226,3.7084521480228,27.3102691389298,-13.1884026532045,-14.3129646657111,-42.91845380378,9.1248111495215,27.3178831046229,-54.857121217882,-18.5851767529629,4.46593183958103,15.7810344021847,13.371298805937,-6.58837243986064,29.9098235647417,-46.5597691197606,-5.01651846269383,18.6003940413605,3.2779019365511,-16.8776617467817,-0.596809663517106,41.2930468816882,2.80970522741055,-15.6563349047088,34.0776180175061,-79.2392294589572,-11.5042786201889,-49.7572294827181,-22.856997041557,-1.08778301818118,28.4005039448418,13.1205843987226,-17.7392964591881,-14.5934601494168,-26.8591540403274,17.1658005165548,-22.1287586287219,-28.0606691310102,41.5065421313398,29.4231054497716,-1.56022238182372,53.4597853141484,-14.1632110309555,-50.6932348161132,34.0834943286804,33.9929417117938,8.72381219860697,5.71973653103983,-12.1255380360619,19.7849357889165,50.7469598186195,-23.6276779374011,-29.0677250177613,-18.6928924584723,7.46374575774187,-32.6208136398323,-16.7715204778421,42.1653214641685,-13.8508716446016,-3.44002524727248,29.1517182799115,-63.4643050028381,-20.196564003018,13.6701386842089,-56.5693812459756,2.01128893808361,16.8519825553862,36.6360712502978,17.4778785536598,-7.67267793218132,-18.1750299456331,-58.7178517457429,-40.988012498865,-48.5669803799743,5.18261698340667,-34.7184147028427,30.281551952509,11.0741687529065,-6.14355101292628,-46.8203586946422,-12.1575825945157,3.12527166828554,13.2125033864198,51.0899630900598,-4.44828382175246,19.3387770905675,-29.8419405969035,-8.72456827455053,20.7070194535698,4.79279961670467,68.8691017721678,-55.8732882341085,12.2731327393883,26.5589876395183,24.2005480512252,64.8280174443584,35.2959226191947,-20.1851475752894,-5.02082540446619,3.59382435615881,-27.750943451905,-41.5058937046869,-5.43490910794123,-31.7163494557992,18.9709207049359,28.3926374380912,-6.64557032749371,-29.4176622741312,-40.1621955258951,-31.0827767921668,4.29085908646583,-8.38446596885276,13.3869450768731,-7.20346926903643,-2.55650037659853,16.2919671127287,53.3904261818178,-25.4437862121594,15.1690794132229,-21.3537471668762,-4.01092176217809,-31.6869851332956,24.3126516589924,7.89717522178937,57.2857014269221,-10.8046144418862,-27.6965673150814,61.9305013045226,4.19445722618453,27.4806028078364,-1.01565541333274,1,1,1,1,1,1,1,1,1,1,1,1,1,1,1,1,1,1,1,1,1,1,1,1,1,1,1,1,1,1,1,1,1,1,1,1,1,1,1,1,1,1,1,1,1,1,1,1,1,1,1,1,1,1,1,1,1,1,1,1,1,1,1,1,1,1,1,1,1,1,1,1,1,1,1,1,1,1,1,1,1,1,1,1,1,1,1,1,1,1,1,1,1,1,1,1,1,1,1,1,1,1,1,1,1,1,1,1,1,1,1,1,1,1,1,1,1,1,1,1,1,1,1,1,1,1,1,1,1,1,1,1,1,1,1,1,1,1,1,1,1,1,1,1,1,1,1,1,1,1,1,1,1,1,1,1,1,1,1,1,1,1,1,1,1,1,1,1,1,1,1,1,1,1,1,1,1,1,1,1,1,1,1,1,1,1,1,1,1,1,1,1,1,1,1,1,1,1,1,1,1,1,1,1,1,1,1,1,1,1,1,1,1,1,1,1,1,1,1,1,1,1,1,1,1,1,1,1,1,1,1,1,1,1,1,1,1,1,1,1,1,1,1,1,1,1,1,1,1,1,1,1,1,1,1,1,1,1,1,1,1,1,1,1,1,1,1,1,1,1,39.697757373364,-71.8361663751501,43.7805101591174,20.9043943320295,26.7627463267116,-18.1253260402419,3.43700710216089,-5.48848884832978,-2.38072749828373,78.4918399400871,-21.9366560114834,-41.505407115366,-22.8445647583002,37.0556317897404,15.4105139674705,-17.0821904658621,21.7091991403301,-41.1500904788828,-49.6505277304646,-38.5989320408201,-5.16115853694917,-44.4535435533923,-52.6364831642262,6.81447579510413,40.9650375709515,33.8182162162203,-35.5795597796334,13.2980037803328,38.9558073471922,55.6960904692247,15.9121244096282,7.56978953671635,-36.1673271377124,-11.8831597686904,-0.403687785927796,-1.04798956801098,4.93689902480524,0.667791581098435,-41.1647708618914,14.7858735838927,33.1422588462893,-9.36994681756653,13.5010168243931,-11.4194640949683,-49.6681126681993,22.360465631472,-34.0606770621799,17.0132584049115,20.4154107889641,2.97006025839145,13.9361037296958,15.7076303025312,-1.47977326651521,0.896858311392974,46.5408129336574,-9.06405080399444,0.526217262673203,46.1962693197614,-9.38014669195148,3.35468840747579,5.6408260907855,-13.2139709727726,-33.9573175685865,6.31469296094977,49.9126997876981,28.1877806806638,-27.1609828649824,-4.05449517804305,45.683693483718,31.0927021618964,-15.8197569392472,8.93950194739119,13.69862894987,41.1984504718255,-25.1466927727802,7.46513810108949,11.4713634794835,-3.58393562522382,-3.34158069220952,45.0105304851105,-25.3450521781377,-4.75224621207488,75.8375503348331,10.750503777266,-59.6879222624373,-24.4385209112967,40.7118709665964,-8.03772733611743,22.8349534573484,-9.22313841878307,13.6505440489574,-21.1490437116068,23.2278929599804,16.7567504745892,-44.948419266734,-28.1544422765071,46.2218754618165,28.2493728087288,86.6765439543195,32.3721316417723,-3.03072545108018,-18.3021407074478,15.3882528295553,14.2428369035156,6.01861486697147,0.70852824139206,-63.0870347919612,7.05269773393108,-25.3200481607728,27.3413792227026,-69.3255273244552,19.9614231251945,22.1872666033266,69.3481985313051,12.0619408452481,52.3942544155914,-0.526268625232429,73.3260293761307,14.6948688867381,19.8273278629776,27.9449525707245,-0.903026110917108,12.7730041033396,-9.62063377411233,-29.3358810399877,-2.15009526257612,-44.5667886397357,-2.59836563209994,76.0996140425192,-26.3885055368574,45.2965410697061,73.283851542011,-16.321728856059,-40.0022816071272,39.2655851198863,22.4349945874439,29.5620619376494,32.5578346199037,-35.6125545390999,13.1636744669561,44.9310429238377,70.6433312038154,43.2325350232209,32.7503657114555,-11.3998343737994,-54.8037383701516,7.4454321683827,2.79614298919278,-30.6127196937282,-13.8665351129445,-1.27369652168172,-2.65641705551834,8.78361850621941,19.4677827800152,6.30691839367788,-14.9603745767917,8.9712205445005,14.8863463846144,26.9719307889651,22.0303826417565,-18.0189102778379,-14.5602260555259,-37.8769131566317,-49.5802695878006,14.7490269083284,-24.8733738930268,8.61077964139229,21.7473391185322,1.73890172334711,8.35093312244383,-36.8465837014835,-21.1418011136202,-7.82495609902368,1.24679554289965,-2.34648433540336,-55.6031685681933,59.5465309703907,66.8609417930666,17.9011663873209,39.1817520525315,39.2302708668809,-23.6917623227843,3.79833284638093,-15.9698289625901,-33.8935353260523,10.603273866616,57.4144714545838,15.2389182508696,-3.8044857371936,46.5210820015373,-1.01201418392181,69.4283047297106,62.8137417621803,43.3312283755108,-6.91881511735741,-1.88524440823448,-23.9416385061068,-23.6307188503546,61.0408842291148,-50.5730675606787,2.57509480380551,-36.6925855145065,-27.7215295516255,-47.9799137327146,17.5847147097528,38.2510639781799,15.1821001076922,-39.7421735858957,-39.8363559428534,-37.7240285125796,20.3518051547228,2.9271340295958,-1.08032220515879,30.7626309681221,-20.606526680947,6.32083432060557,2.47142835675276,20.5015215693667,22.2727511199356,20.5251899194889,-7.85171034688707,6.78091317858396,52.8009296667736,-11.9025846159189,4.17234846712808,18.5705483343407,9.26082320368829,13.1185391267422,-19.3970472923934,22.2239991267286,-46.3705618181835,-19.2918255456392,62.9510206404793,-8.58521169524354,-44.6657325151752,-47.5937203801444,14.0599541794896,41.0216656455245,65.6727391746634,-32.1152849278942,-5.49995151537328,-42.316049900976,20.5673744408818,24.9879789570665,32.0067672391066,42.287207131862,21.0772254071311,16.5850997723168,-5.27057990953429,38.4580084434296,54.1113451381266,-6.08082774875158,-1.54157501760392,-9.21123849273121,20.8958914020109,-2.36550951409868,21.3625416696957,30.6856272538684,-7.25208790502968,77.5760584933095,11.5589135160666,-20.2507346698192,9.59853161387268,21.3901696102092,-15.6296219006406,-11.9920886181387,8.1129256783353,19.8943460340017,-5.11813258143483,23.472596508399,25.9989079685336,-20.0255288487106,1,1,1,1,1,1,1,1,1,1,1,1,1,1,1,1,1,1,1,1,1,1,1,1,1,1,1,1,1,1,1,1,1,1,1,1,1,1,1,1,1,1,1,1,1,1,1,1,1,1,1,1,1,1,1,1,1,1,1,1,1,1,1,1,1,1,1,1,1,1,1,1,1,1,1,1,1,1,1,1,1,1,1,1,1,1,1,1,1,1,1,1,1,1,1,1,1,1,1,1,1,1,1,1,1,1,1,1,1,1,1,1,1,1,1,1,1,1,1,1,1,1,1,1,1,1,1,1,1,1,1,1,1,1,1,1,1,1,1,1,1,1,1,1,1,1,1,1,1,1,1,1,1,1,1,1,1,1,1,1,1,1,1,1,1,1,1,1,1,1,1,1,1,1,1,1,1,1,1,1,1,1,1,1,1,1,1,1,1,1,1,1,1,1,1,1,1,1,1,1,1,1,1,1,1,1,1,1,1,1,1,1,1,1,1,1,1,1,1,1,1,1,1,1,1,1,1,1,1,1,1,1,1,1,1,1,1,1,1,1,1,1,1,1,1,1,1,1,1,1,1,1,1,1,1,1,1,1,1,1,1,1,1,1,1,1,1,1,1,1,-17.2807749529308,-13.7463586713744,4.5221091365898,33.1015181527671,-43.5864996628965,-14.5554689122095,33.7588296277613,-4.18464935239566,65.8426999949937,-40.7338416946676,22.3655856367294,-22.8848743072614,-28.0164708105915,-46.4346716454033,-23.7290293159695,45.5228436050081,-3.42917880709337,-11.5902491047859,-3.94929342011793,-7.01899485110236,9.91427048443033,-48.8565073558273,27.22323391769,32.5576522680682,9.36029653724853,27.4874777282242,14.3748843153053,-17.1957455819494,-13.8542362484458,-15.0005562698455,-10.6822656654103,-10.5540382557055,15.1985000095308,8.31465330548815,0.920886143969732,8.22949347582028,39.3092416800364,-40.2444680541663,20.1032526998543,-9.66961296450275,-5.02968452370468,1.30653747203066,47.3323346006254,-1.00371853094058,-68.3058797389136,-38.2114686910303,-9.90129189121418,57.3026339290477,-11.1423416326947,63.8786477652856,5.65454577904797,10.8350467088365,-4.22515469867155,-24.6368143731795,76.9635776923332,9.48819302221631,54.6231286277479,-18.9902605070266,-41.5136697142994,-42.5338994753336,0.603987242650036,19.0995882997148,49.0685317146951,-40.2075358591029,54.2039459623234,11.2033522120548,17.1639543586958,11.1937795894917,-39.4955125800626,21.1328420197724,-25.899654374085,37.5768942692078,12.4652948813477,2.60965937946588,43.3650452058727,23.0950587855279,21.7571070620363,89.1611598543373,27.2061152321717,27.2126241533516,-1.7694344736418,0.0240287579093332,46.7470041261582,-35.5638933330281,-4.07657528760757,-39.5932995006282,-9.8361666437853,16.3384389638413,15.3328694637906,11.4489787440369,-51.5199011264641,-44.0311683573904,48.4617717093762,-17.3136467810269,-16.9721374504407,39.4626371385745,28.1148703135903,-8.80453021841792,47.3337932148257,-33.0680226304789,-9.52747224695242,-11.4543238692339,12.023504535619,41.9202002519328,35.3527602926593,2.17926640514729,-51.2153943500253,8.85285285544401,30.1248256076994,-7.36877783990709,-18.4872158638188,-1.33292040931111,-10.3332054753783,-14.7589889991965,33.1285218870268,-44.0313812128896,37.2826066830574,81.360088756196,5.86216604425102,13.8215867951633,35.6929071711857,-27.1369065020684,23.9430170027167,-5.82104293364521,54.8089609915328,30.9748963468002,10.0168629497029,6.5174057551577,-1.50874499264785,-36.6156824324964,26.6478267859507,-8.08962441791149,2.24934565577661,14.6515586920815,-64.2907502198398,46.3494249204982,44.1207501369006,24.9737967857956,1.26776818800878,-25.4538875113226,3.7084521480228,27.3102691389298,-13.1884026532045,-14.3129646657111,-42.91845380378,9.1248111495215,27.3178831046229,-54.857121217882,-18.5851767529629,4.46593183958103,15.7810344021847,13.371298805937,-6.58837243986064,29.9098235647417,-46.5597691197606,-5.01651846269383,18.6003940413605,3.2779019365511,-16.8776617467817,-0.596809663517106,41.2930468816882,2.80970522741055,-15.6563349047088,34.0776180175061,-79.2392294589572,-11.5042786201889,-49.7572294827181,-22.856997041557,-1.08778301818118,28.4005039448418,13.1205843987226,-17.7392964591881,-14.5934601494168,-26.8591540403274,17.1658005165548,-22.1287586287219,-28.0606691310102,41.5065421313398,29.4231054497716,-1.56022238182372,53.4597853141484,-14.1632110309555,-50.6932348161132,34.0834943286804,33.9929417117938,8.72381219860697,5.71973653103983,-12.1255380360619,19.7849357889165,50.7469598186195,-23.6276779374011,-29.0677250177613,-18.6928924584723,7.46374575774187,-32.6208136398323,-16.7715204778421,42.1653214641685,-13.8508716446016,-3.44002524727248,29.1517182799115,-63.4643050028381,-20.196564003018,13.6701386842089,-56.5693812459756,2.01128893808361,16.8519825553862,36.6360712502978,17.4778785536598,-7.67267793218132,-18.1750299456331,-58.7178517457429,-40.988012498865,-48.5669803799743,5.18261698340667,-34.7184147028427,30.281551952509,11.0741687529065,-6.14355101292628,-46.8203586946422,-12.1575825945157,3.12527166828554,13.2125033864198,51.0899630900598,-4.44828382175246,19.3387770905675,-29.8419405969035,-8.72456827455053,20.7070194535698,4.79279961670467,68.8691017721678,-55.8732882341085,12.2731327393883,26.5589876395183,24.2005480512252,64.8280174443584,35.2959226191947,-20.1851475752894,-5.02082540446619,3.59382435615881,-27.750943451905,-41.5058937046869,-5.43490910794123,-31.7163494557992,18.9709207049359,28.3926374380912,-6.64557032749371,-29.4176622741312,-40.1621955258951,-31.0827767921668,4.29085908646583,-8.38446596885276,13.3869450768731,-7.20346926903643,-2.55650037659853,16.2919671127287,53.3904261818178,-25.4437862121594,15.1690794132229,-21.3537471668762,-4.01092176217809,-31.6869851332956,24.3126516589924,7.89717522178937,57.2857014269221,-10.8046144418862,-27.6965673150814,61.9305013045226,4.19445722618453,27.4806028078364,-1.01565541333274,1,1,1,1,1,1,1,1,1,1,1,1,1,1,1,1,1,1,1,1,1,1,1,1,1,1,1,1,1,1,1,1,1,1,1,1,1,1,1,1,1,1,1,1,1,1,1,1,1,1,1,1,1,1,1,1,1,1,1,1,1,1,1,1,1,1,1,1,1,1,1,1,1,1,1,1,1,1,1,1,1,1,1,1,1,1,1,1,1,1,1,1,1,1,1,1,1,1,1,1,1,1,1,1,1,1,1,1,1,1,1,1,1,1,1,1,1,1,1,1,1,1,1,1,1,1,1,1,1,1,1,1,1,1,1,1,1,1,1,1,1,1,1,1,1,1,1,1,1,1,1,1,1,1,1,1,1,1,1,1,1,1,1,1,1,1,1,1,1,1,1,1,1,1,1,1,1,1,1,1,1,1,1,1,1,1,1,1,1,1,1,1,1,1,1,1,1,1,1,1,1,1,1,1,1,1,1,1,1,1,1,1,1,1,1,1,1,1,1,1,1,1,1,1,1,1,1,1,1,1,1,1,1,1,1,1,1,1,1,1,1,1,1,1,1,1,1,1,1,1,1,1,1,1,1,1,1,1,1,1,1,1,1,1,1,1,1,1,1,1,-103.480302745431,-36.8190078306378,43.7805101591174,20.9043943320295,26.7627463267116,-18.1253260402419,3.43700710216089,-5.48848884832978,-2.38072749828373,78.4918399400871,-21.9366560114834,-41.505407115366,-22.8445647583002,37.0556317897404,15.4105139674705,-17.0821904658621,21.7091991403301,-41.1500904788828,-49.6505277304646,-38.5989320408201,-5.16115853694917,-44.4535435533923,-52.6364831642262,6.81447579510413,40.9650375709515,33.8182162162203,-35.5795597796334,13.2980037803328,38.9558073471922,55.6960904692247,15.9121244096282,7.56978953671635,-36.1673271377124,-11.8831597686904,-0.403687785927796,-1.04798956801098,4.93689902480524,0.667791581098435,-41.1647708618914,14.7858735838927,33.1422588462893,-9.36994681756653,13.5010168243931,-11.4194640949683,-49.6681126681993,22.360465631472,-34.0606770621799,17.0132584049115,20.4154107889641,2.97006025839145,13.9361037296958,15.7076303025312,-1.47977326651521,0.896858311392974,46.5408129336574,-9.06405080399444,0.526217262673203,46.1962693197614,-9.38014669195148,3.35468840747579,5.6408260907855,-13.2139709727726,-33.9573175685865,6.31469296094977,49.9126997876981,28.1877806806638,-27.1609828649824,-4.05449517804305,45.683693483718,31.0927021618964,-15.8197569392472,8.93950194739119,13.69862894987,41.1984504718255,-25.1466927727802,7.46513810108949,11.4713634794835,-3.58393562522382,-3.34158069220952,45.0105304851105,-25.3450521781377,-4.75224621207488,75.8375503348331,10.750503777266,-59.6879222624373,-24.4385209112967,40.7118709665964,-8.03772733611743,22.8349534573484,-9.22313841878307,13.6505440489574,-21.1490437116068,23.2278929599804,16.7567504745892,-44.948419266734,-28.1544422765071,46.2218754618165,28.2493728087288,86.6765439543195,32.3721316417723,-3.03072545108018,-18.3021407074478,15.3882528295553,14.2428369035156,6.01861486697147,0.70852824139206,-63.0870347919612,7.05269773393108,-25.3200481607728,27.3413792227026,-69.3255273244552,19.9614231251945,22.1872666033266,69.3481985313051,12.0619408452481,52.3942544155914,-0.526268625232429,73.3260293761307,14.6948688867381,19.8273278629776,27.9449525707245,-0.903026110917108,12.7730041033396,-9.62063377411233,-29.3358810399877,-2.15009526257612,-44.5667886397357,-2.59836563209994,76.0996140425192,-26.3885055368574,45.2965410697061,73.283851542011,-16.321728856059,-40.0022816071272,39.2655851198863,22.4349945874439,29.5620619376494,32.5578346199037,-35.6125545390999,13.1636744669561,44.9310429238377,70.6433312038154,43.2325350232209,32.7503657114555,-11.3998343737994,-54.8037383701516,7.4454321683827,2.79614298919278,-30.6127196937282,-13.8665351129445,-1.27369652168172,-2.65641705551834,8.78361850621941,19.4677827800152,6.30691839367788,-14.9603745767917,8.9712205445005,14.8863463846144,26.9719307889651,22.0303826417565,-18.0189102778379,-14.5602260555259,-37.8769131566317,-49.5802695878006,14.7490269083284,-24.8733738930268,8.61077964139229,21.7473391185322,1.73890172334711,8.35093312244383,-36.8465837014835,-21.1418011136202,-7.82495609902368,1.24679554289965,-2.34648433540336,-55.6031685681933,59.5465309703907,66.8609417930666,17.9011663873209,39.1817520525315,39.2302708668809,-23.6917623227843,3.79833284638093,-15.9698289625901,-33.8935353260523,10.603273866616,57.4144714545838,15.2389182508696,-3.8044857371936,46.5210820015373,-1.01201418392181,69.4283047297106,62.8137417621803,43.3312283755108,-6.91881511735741,-1.88524440823448,-23.9416385061068,-23.6307188503546,61.0408842291148,-50.5730675606787,2.57509480380551,-36.6925855145065,-27.7215295516255,-47.9799137327146,17.5847147097528,38.2510639781799,15.1821001076922,-39.7421735858957,-39.8363559428534,-37.7240285125796,20.3518051547228,2.9271340295958,-1.08032220515879,30.7626309681221,-20.606526680947,6.32083432060557,2.47142835675276,20.5015215693667,22.2727511199356,20.5251899194889,-7.85171034688707,6.78091317858396,52.8009296667736,-11.9025846159189,4.17234846712808,18.5705483343407,9.26082320368829,13.1185391267422,-19.3970472923934,22.2239991267286,-46.3705618181835,-19.2918255456392,62.9510206404793,-8.58521169524354,-44.6657325151752,-47.5937203801444,14.0599541794896,41.0216656455245,65.6727391746634,-32.1152849278942,-5.49995151537328,-42.316049900976,20.5673744408818,24.9879789570665,32.0067672391066,42.287207131862,21.0772254071311,16.5850997723168,-5.27057990953429,38.4580084434296,54.1113451381266,-6.08082774875158,-1.54157501760392,-9.21123849273121,20.8958914020109,-2.36550951409868,21.3625416696957,30.6856272538684,-7.25208790502968,77.5760584933095,11.5589135160666,-20.2507346698192,9.59853161387268,21.3901696102092,-15.6296219006406,-11.9920886181387,8.1129256783353,19.8943460340017,-5.11813258143483,23.472596508399,25.9989079685336,-20.0255288487106,1,1,1,1,1,1,1,1,1,1,1,1,1,1,1,1,1,1,1,1,1,1,1,1,1,1,1,1,1,1,1,1,1,1,1,1,1,1,1,1,1,1,1,1,1,1,1,1,1,1,1,1,1,1,1,1,1,1,1,1,1,1,1,1,1,1,1,1,1,1,1,1,1,1,1,1,1,1,1,1,1,1,1,1,1,1,1,1,1,1,1,1,1,1,1,1,1,1,1,1,1,1,1,1,1,1,1,1,1,1,1,1,1,1,1,1,1,1,1,1,1,1,1,1,1,1,1,1,1,1,1,1,1,1,1,1,1,1,1,1,1,1,1,1,1,1,1,1,1,1,1,1,1,1,1,1,1,1,1,1,1,1,1,1,1,1,1,1,1,1,1,1,1,1,1,1,1,1,1,1,1,1,1,1,1,1,1,1,1,1,1,1,1,1,1,1,1,1,1,1,1,1,1,1,1,1,1,1,1,1,1,1,1,1,1,1,1,1,1,1,1,1,1,1,1,1,1,1,1,1,1,1,1,1,1,1,1,1,1,1,1,1,1,1,1,1,1,1,1,1,1,1,1,1,1,1,1,1,1,1,1,1,1,1,1,1,1,1,1,1,-17.2807749529308,-13.7463586713744,4.5221091365898,33.1015181527671,-43.5864996628965,-14.5554689122095,33.7588296277613,-4.18464935239566,65.8426999949937,-40.7338416946676,22.3655856367294,-22.8848743072614,-28.0164708105915,-46.4346716454033,-23.7290293159695,45.5228436050081,-3.42917880709337,-11.5902491047859,-3.94929342011793,-7.01899485110236,9.91427048443033,-48.8565073558273,27.22323391769,32.5576522680682,9.36029653724853,27.4874777282242,14.3748843153053,-17.1957455819494,-13.8542362484458,-15.0005562698455,-10.6822656654103,-10.5540382557055,15.1985000095308,8.31465330548815,0.920886143969732,8.22949347582028,39.3092416800364,-40.2444680541663,20.1032526998543,-9.66961296450275,-5.02968452370468,1.30653747203066,47.3323346006254,-1.00371853094058,-68.3058797389136,-38.2114686910303,-9.90129189121418,57.3026339290477,-11.1423416326947,63.8786477652856,5.65454577904797,10.8350467088365,-4.22515469867155,-24.6368143731795,76.9635776923332,9.48819302221631,54.6231286277479,-18.9902605070266,-41.5136697142994,-42.5338994753336,0.603987242650036,19.0995882997148,49.0685317146951,-40.2075358591029,54.2039459623234,11.2033522120548,17.1639543586958,11.1937795894917,-39.4955125800626,21.1328420197724,-25.899654374085,37.5768942692078,12.4652948813477,2.60965937946588,43.3650452058727,23.0950587855279,21.7571070620363,89.1611598543373,27.2061152321717,27.2126241533516,-1.7694344736418,0.0240287579093332,46.7470041261582,-35.5638933330281,-4.07657528760757,-39.5932995006282,-9.8361666437853,16.3384389638413,15.3328694637906,11.4489787440369,-51.5199011264641,-44.0311683573904,48.4617717093762,-17.3136467810269,-16.9721374504407,39.4626371385745,28.1148703135903,-8.80453021841792,47.3337932148257,-33.0680226304789,-9.52747224695242,-11.4543238692339,12.023504535619,41.9202002519328,35.3527602926593,2.17926640514729,-51.2153943500253,8.85285285544401,30.1248256076994,-7.36877783990709,-18.4872158638188,-1.33292040931111,-10.3332054753783,-14.7589889991965,33.1285218870268,-44.0313812128896,37.2826066830574,81.360088756196,5.86216604425102,13.8215867951633,35.6929071711857,-27.1369065020684,23.9430170027167,-5.82104293364521,54.8089609915328,30.9748963468002,10.0168629497029,6.5174057551577,-1.50874499264785,-36.6156824324964,26.6478267859507,-8.08962441791149,2.24934565577661,14.6515586920815,-64.2907502198398,46.3494249204982,44.1207501369006,24.9737967857956,1.26776818800878,-25.4538875113226,3.7084521480228,27.3102691389298,-13.1884026532045,-14.3129646657111,-42.91845380378,9.1248111495215,27.3178831046229,-54.857121217882,-18.5851767529629,4.46593183958103,15.7810344021847,13.371298805937,-6.58837243986064,29.9098235647417,-46.5597691197606,-5.01651846269383,18.6003940413605,3.2779019365511,-16.8776617467817,-0.596809663517106,41.2930468816882,2.80970522741055,-15.6563349047088,34.0776180175061,-79.2392294589572,-11.5042786201889,-49.7572294827181,-22.856997041557,-1.08778301818118,28.4005039448418,13.1205843987226,-17.7392964591881,-14.5934601494168,-26.8591540403274,17.1658005165548,-22.1287586287219,-28.0606691310102,41.5065421313398,29.4231054497716,-1.56022238182372,53.4597853141484,-14.1632110309555,-50.6932348161132,34.0834943286804,33.9929417117938,8.72381219860697,5.71973653103983,-12.1255380360619,19.7849357889165,50.7469598186195,-23.6276779374011,-29.0677250177613,-18.6928924584723,7.46374575774187,-32.6208136398323,-16.7715204778421,42.1653214641685,-13.8508716446016,-3.44002524727248,29.1517182799115,-63.4643050028381,-20.196564003018,13.6701386842089,-56.5693812459756,2.01128893808361,16.8519825553862,36.6360712502978,17.4778785536598,-7.67267793218132,-18.1750299456331,-58.7178517457429,-40.988012498865,-48.5669803799743,5.18261698340667,-34.7184147028427,30.281551952509,11.0741687529065,-6.14355101292628,-46.8203586946422,-12.1575825945157,3.12527166828554,13.2125033864198,51.0899630900598,-4.44828382175246,19.3387770905675,-29.8419405969035,-8.72456827455053,20.7070194535698,4.79279961670467,68.8691017721678,-55.8732882341085,12.2731327393883,26.5589876395183,24.2005480512252,64.8280174443584,35.2959226191947,-20.1851475752894,-5.02082540446619,3.59382435615881,-27.750943451905,-41.5058937046869,-5.43490910794123,-31.7163494557992,18.9709207049359,28.3926374380912,-6.64557032749371,-29.4176622741312,-40.1621955258951,-31.0827767921668,4.29085908646583,-8.38446596885276,13.3869450768731,-7.20346926903643,-2.55650037659853,16.2919671127287,53.3904261818178,-25.4437862121594,15.1690794132229,-21.3537471668762,-4.01092176217809,-31.6869851332956,24.3126516589924,7.89717522178937,57.2857014269221,-10.8046144418862,-27.6965673150814,61.9305013045226,4.19445722618453,27.4806028078364,-1.01565541333274,1,1,1,1,1,1,1,1,1,1,1,1,1,1,1,1,1,1,1,1,1,1,1,1,1,1,1,1,1,1,1,1,1,1,1,1,1,1,1,1,1,1,1,1,1,1,1,1,1,1,1,1,1,1,1,1,1,1,1,1,1,1,1,1,1,1,1,1,1,1,1,1,1,1,1,1,1,1,1,1,1,1,1,1,1,1,1,1,1,1,1,1,1,1,1,1,1,1,1,1,1,1,1,1,1,1,1,1,1,1,1,1,1,1,1,1,1,1,1,1,1,1,1,1,1,1,1,1,1,1,1,1,1,1,1,1,1,1,1,1,1,1,1,1,1,1,1,1,1,1,1,1,1,1,1,1,1,1,1,1,1,1,1,1,1,1,1,1,1,1,1,1,1,1,1,1,1,1,1,1,1,1,1,1,1,1,1,1,1,1,1,1,1,1,1,1,1,1,1,1,1,1,1,1,1,1,1,1,1,1,1,1,1,1,1,1,1,1,1,1,1,1,1,1,1,1,1,1,1,1,1,1,1,1,1,1,1,1,1,1,1,1,1,1,1,1,1,1,1,1,1,1,1,1,1,1,1,1,1,1,1,1,1,1,1,1,1,1,1,1
-102.383175872445,38.7670900713499,76.8189667914151,-150.739273181782,56.7808436526324,43.7805101591174,20.9043943320295,26.7627463267116,-18.1253260402419,3.43700710216089,-5.48848884832978,-2.38072749828373,78.4918399400871,-21.9366560114834,-41.505407115366,-22.8445647583002,37.0556317897404,15.4105139674705,-17.0821904658621,21.7091991403301,-41.1500904788828,-49.6505277304646,-38.5989320408201,-5.16115853694917,-44.4535435533923,-52.6364831642262,6.81447579510413,40.9650375709515,33.8182162162203,-35.5795597796334,13.2980037803328,38.9558073471922,55.6960904692247,15.9121244096282,7.56978953671635,-36.1673271377124,-11.8831597686904,-0.403687785927796,-1.04798956801098,4.93689902480524,0.667791581098435,-41.1647708618914,14.7858735838927,33.1422588462893,-9.36994681756653,13.5010168243931,-11.4194640949683,-49.6681126681993,22.360465631472,-34.0606770621799,17.0132584049115,20.4154107889641,2.97006025839145,13.9361037296958,15.7076303025312,-1.47977326651521,0.896858311392974,46.5408129336574,-9.06405080399444,0.526217262673203,46.1962693197614,-9.38014669195148,3.35468840747579,5.6408260907855,-13.2139709727726,-33.9573175685865,6.31469296094977,49.9126997876981,28.1877806806638,-27.1609828649824,-4.05449517804305,45.683693483718,31.0927021618964,-15.8197569392472,8.93950194739119,13.69862894987,41.1984504718255,-25.1466927727802,7.46513810108949,11.4713634794835,-3.58393562522382,-3.34158069220952,45.0105304851105,-25.3450521781377,-4.75224621207488,75.8375503348331,10.750503777266,-59.6879222624373,-24.4385209112967,40.7118709665964,-8.03772733611743,22.8349534573484,-9.22313841878307,13.6505440489574,-21.1490437116068,23.2278929599804,16.7567504745892,-44.948419266734,-28.1544422765071,46.2218754618165,28.2493728087288,86.6765439543195,32.3721316417723,-3.03072545108018,-18.3021407074478,15.3882528295553,14.2428369035156,6.01861486697147,0.70852824139206,-63.0870347919612,7.05269773393108,-25.3200481607728,27.3413792227026,-69.3255273244552,19.9614231251945,22.1872666033266,69.3481985313051,12.0619408452481,52.3942544155914,-0.526268625232429,73.3260293761307,14.6948688867381,19.8273278629776,27.9449525707245,-0.903026110917108,12.7730041033396,-9.62063377411233,-29.3358810399877,-2.15009526257612,-44.5667886397357,-2.59836563209994,76.0996140425192,-26.3885055368574,45.2965410697061,73.283851542011,-16.321728856059,-40.0022816071272,39.2655851198863,22.4349945874439,29.5620619376494,32.5578346199037,-35.6125545390999,13.1636744669561,44.9310429238377,70.6433312038154,43.2325350232209,32.7503657114555,-11.3998343737994,-54.8037383701516,7.4454321683827,2.79614298919278,-30.6127196937282,-13.8665351129445,-1.27369652168172,-2.65641705551834,8.78361850621941,19.4677827800152,6.30691839367788,-14.9603745767917,8.9712205445005,14.8863463846144,26.9719307889651,22.0303826417565,-18.0189102778379,-14.5602260555259,-37.8769131566317,-49.5802695878006,14.7490269083284,-24.8733738930268,8.61077964139229,21.7473391185322,1.73890172334711,8.35093312244383,-36.8465837014835,-21.1418011136202,-7.82495609902368,1.24679554289965,-2.34648433540336,-55.6031685681933,59.5465309703907,66.8609417930666,17.9011663873209,39.1817520525315,39.2302708668809,-23.6917623227843,3.79833284638093,-15.9698289625901,-33.8935353260523,10.603273866616,57.4144714545838,15.2389182508696,-3.8044857371936,46.5210820015373,-1.01201418392181,69.4283047297106,62.8137417621803,43.3312283755108,-6.91881511735741,-1.88524440823448,-23.9416385061068,-23.6307188503546,61.0408842291148,-50.5730675606787,2.57509480380551,-36.6925855145065,-27.7215295516255,-47.9799137327146,17.5847147097528,38.2510639781799,15.1821001076922,-39.7421735858957,-39.8363559428534,-37.7240285125796,20.3518051547228,2.9271340295958,-1.08032220515879,30.7626309681221,-20.606526680947,6.32083432060557,2.47142835675276,20.5015215693667,22.2727511199356,20.5251899194889,-7.85171034688707,6.78091317858396,52.8009296667736,-11.9025846159189,4.17234846712808,18.5705483343407,9.26082320368829,13.1185391267422,-19.3970472923934,22.2239991267286,-46.3705618181835,-19.2918255456392,62.9510206404793,-8.58521169524354,-44.6657325151752,-47.5937203801444,14.0599541794896,41.0216656455245,65.6727391746634,-32.1152849278942,-5.49995151537328,-42.316049900976,20.5673744408818,24.9879789570665,32.0067672391066,42.287207131862,21.0772254071311,16.5850997723168,-5.27057990953429,38.4580084434296,54.1113451381266,-6.08082774875158,-1.54157501760392,-9.21123849273121,20.8958914020109,-2.36550951409868,21.3625416696957,30.6856272538684,-7.25208790502968,77.5760584933095,11.5589135160666,-20.2507346698192,9.59853161387268,21.3901696102092,-15.6296219006406,-11.9920886181387,8.1129256783353,19.8943460340017,-5.11813258143483,23.472596508399,25.9989079685336,-20.0255288487106,1,1,1,1,1,1,1,1,1,1,1,1,1,1,1,1,1,1,1,1,1,1,1,1,1,1,1,1,1,1,1,1,1,1,1,1,1,1,1,1,1,1,1,1,1,1,1,1,1,1,1,1,1,1,1,1,1,1,1,1,1,1,1,1,1,1,1,1,1,1,1,1,1,1,1,1,1,1,1,1,1,1,1,1,1,1,1,1,1,1,1,1,1,1,1,1,1,1,1,1,1,1,1,1,1,1,1,1,1,1,1,1,1,1,1,1,1,1,1,1,1,1,1,1,1,1,1,1,1,1,1,1,1,1,1,1,1,1,1,1,1,1,1,1,1,1,1,1,1,1,1,1,1,1,1,1,1,1,1,1,1,1,1,1,1,1,1,1,1,1,1,1,1,1,1,1,1,1,1,1,1,1,1,1,1,1,1,1,1,1,1,1,1,1,1,1,1,1,1,1,1,1,1,1,1,1,1,1,1,1,1,1,1,1,1,1,1,1,1,1,1,1,1,1,1,1,1,1,1,1,1,1,1,1,1,1,1,1,1,1,1,1,1,1,1,1,1,1,1,1,1,1,1,1,1,1,1,1,1,1,1,1,1,1,1,1,1,1,1,1,-17.2807749529308,-13.7463586713744,4.5221091365898,33.1015181527671,-43.5864996628965,-14.5554689122095,33.7588296277613,-4.18464935239566,65.8426999949937,-40.7338416946676,22.3655856367294,-22.8848743072614,-28.0164708105915,-46.4346716454033,-23.7290293159695,45.5228436050081,-3.42917880709337,-11.5902491047859,-3.94929342011793,-7.01899485110236,9.91427048443033,-48.8565073558273,27.22323391769,32.5576522680682,9.36029653724853,27.4874777282242,14.3748843153053,-17.1957455819494,-13.8542362484458,-15.0005562698455,-10.6822656654103,-10.5540382557055,15.1985000095308,8.31465330548815,0.920886143969732,8.22949347582028,39.3092416800364,-40.2444680541663,20.1032526998543,-9.66961296450275,-5.02968452370468,1.30653747203066,47.3323346006254,-1.00371853094058,-68.3058797389136,-38.2114686910303,-9.90129189121418,57.3026339290477,-11.1423416326947,63.8786477652856,5.65454577904797,10.8350467088365,-4.22515469867155,-24.6368143731795,76.9635776923332,9.48819302221631,54.6231286277479,-18.9902605070266,-41.5136697142994,-42.5338994753336,0.603987242650036,19.0995882997148,49.0685317146951,-40.2075358591029,54.2039459623234,11.2033522120548,17.1639543586958,11.1937795894917,-39.4955125800626,21.1328420197724,-25.899654374085,37.5768942692078,12.4652948813477,2.60965937946588,43.3650452058727,23.0950587855279,21.7571070620363,89.1611598543373,27.2061152321717,27.2126241533516,-1.7694344736418,0.0240287579093332,46.7470041261582,-35.5638933330281,-4.07657528760757,-39.5932995006282,-9.8361666437853,16.3384389638413,15.3328694637906,11.4489787440369,-51.5199011264641,-44.0311683573904,48.4617717093762,-17.3136467810269,-16.9721374504407,39.4626371385745,28.1148703135903,-8.80453021841792,47.3337932148257,-33.0680226304789,-9.52747224695242,-11.4543238692339,12.023504535619,41.9202002519328,35.3527602926593,2.17926640514729,-51.2153943500253,8.85285285544401,30.1248256076994,-7.36877783990709,-18.4872158638188,-1.33292040931111,-10.3332054753783,-14.7589889991965,33.1285218870268,-44.0313812128896,37.2826066830574,81.360088756196,5.86216604425102,13.8215867951633,35.6929071711857,-27.1369065020684,23.9430170027167,-5.82104293364521,54.8089609915328,30.9748963468002,10.0168629497029,6.5174057551577,-1.50874499264785,-36.6156824324964,26.6478267859507,-8.08962441791149,2.24934565577661,14.6515586920815,-64.2907502198398,46.3494249204982,44.1207501369006,24.9737967857956,1.26776818800878,-25.4538875113226,3.7084521480228,27.3102691389298,-13.1884026532045,-14.3129646657111,-42.91845380378,9.1248111495215,27.3178831046229,-54.857121217882,-18.5851767529629,4.46593183958103,15.7810344021847,13.371298805937,-6.58837243986064,29.9098235647417,-46.5597691197606,-5.01651846269383,18.6003940413605,3.2779019365511,-16.8776617467817,-0.596809663517106,41.2930468816882,2.80970522741055,-15.6563349047088,34.0776180175061,-79.2392294589572,-11.5042786201889,-49.7572294827181,-22.856997041557,-1.08778301818118,28.4005039448418,13.1205843987226,-17.7392964591881,-14.5934601494168,-26.8591540403274,17.1658005165548,-22.1287586287219,-28.0606691310102,41.5065421313398,29.4231054497716,-1.56022238182372,53.4597853141484,-14.1632110309555,-50.6932348161132,34.0834943286804,33.9929417117938,8.72381219860697,5.71973653103983,-12.1255380360619,19.7849357889165,50.7469598186195,-23.6276779374011,-29.0677250177613,-18.6928924584723,7.46374575774187,-32.6208136398323,-16.7715204778421,42.1653214641685,-13.8508716446016,-3.44002524727248,29.1517182799115,-63.4643050028381,-20.196564003018,13.6701386842089,-56.5693812459756,2.01128893808361,16.8519825553862,36.6360712502978,17.4778785536598,-7.67267793218132,-18.1750299456331,-58.7178517457429,-40.988012498865,-48.5669803799743,5.18261698340667,-34.7184147028427,30.281551952509,11.0741687529065,-6.14355101292628,-46.8203586946422,-12.1575825945157,3.12527166828554,13.2125033864198,51.0899630900598,-4.44828382175246,19.3387770905675,-29.8419405969035,-8.72456827455053,20.7070194535698,4.79279961670467,68.8691017721678,-55.8732882341085,12.2731327393883,26.5589876395183,24.2005480512252,64.8280174443584,35.2959226191947,-20.1851475752894,-5.02082540446619,3.59382435615881,-27.750943451905,-41.5058937046869,-5.43490910794123,-31.7163494557992,18.9709207049359,28.3926374380912,-6.64557032749371,-29.4176622741312,-40.1621955258951,-31.0827767921668,4.29085908646583,-8.38446596885276,13.3869450768731,-7.20346926903643,-2.55650037659853,16.2919671127287,53.3904261818178,-25.4437862121594,15.1690794132229,-21.3537471668762,-4.01092176217809,-31.6869851332956,24.3126516589924,7.89717522178937,57.2857014269221,-10.8046144418862,-27.6965673150814,61.9305013045226,4.19445722618453,27.4806028078364,-1.01565541333274,1,1,1,1,1,1,1,1,1,1,1,1,1,1,1,1,1,1,1,1,1,1,1,1,1,1,1,1,1,1,1,1,1,1,1,1,1,1,1,1,1,1,1,1,1,1,1,1,1,1,1,1,1,1,1,1,1,1,1,1,1,1,1,1,1,1,1,1,1,1,1,1,1,1,1,1,1,1,1,1,1,1,1,1,1,1,1,1,1,1,1,1,1,1,1,1,1,1,1,1,1,1,1,1,1,1,1,1,1,1,1,1,1,1,1,1,1,1,1,1,1,1,1,1,1,1,1,1,1,1,1,1,1,1,1,1,1,1,1,1,1,1,1,1,1,1,1,1,1,1,1,1,1,1,1,1,1,1,1,1,1,1,1,1,1,1,1,1,1,1,1,1,1,1,1,1,1,1,1,1,1,1,1,1,1,1,1,1,1,1,1,1,1,1,1,1,1,1,1,1,1,1,1,1,1,1,1,1,1,1,1,1,1,1,1,1,1,1,1,1,1,1,1,1,1,1,1,1,1,1,1,1,1,1,1,1,1,1,1,1,1,1,1,1,1,1,1,1,1,1,1,1,1,1,1,1,1,1,1,1,1,1,1,1,1,1,1,1,1,1,39.697757373364,-71.8361663751501,43.7805101591174,20.9043943320295,26.7627463267116,-18.1253260402419,3.43700710216089,-5.48848884832978,-2.38072749828373,78.4918399400871,-21.9366560114834,-41.505407115366,-22.8445647583002,37.0556317897404,15.4105139674705,-17.0821904658621,21.7091991403301,-41.1500904788828,-49.6505277304646,-38.5989320408201,-5.16115853694917,-44.4535435533923,-52.6364831642262,6.81447579510413,40.9650375709515,33.8182162162203,-35.5795597796334,13.2980037803328,38.9558073471922,55.6960904692247,15.9121244096282,7.56978953671635,-36.1673271377124,-11.8831597686904,-0.403687785927796,-1.04798956801098,4.93689902480524,0.667791581098435,-41.1647708618914,14.7858735838927,33.1422588462893,-9.36994681756653,13.5010168243931,-11.4194640949683,-49.6681126681993,22.360465631472,-34.0606770621799,17.0132584049115,20.4154107889641,2.97006025839145,13.9361037296958,15.7076303025312,-1.47977326651521,0.896858311392974,46.5408129336574,-9.06405080399444,0.526217262673203,46.1962693197614,-9.38014669195148,3.35468840747579,5.6408260907855,-13.2139709727726,-33.9573175685865,6.31469296094977,49.9126997876981,28.1877806806638,-27.1609828649824,-4.05449517804305,45.683693483718,31.0927021618964,-15.8197569392472,8.93950194739119,13.69862894987,41.1984504718255,-25.1466927727802,7.46513810108949,11.4713634794835,-3.58393562522382,-3.34158069220952,45.0105304851105,-25.3450521781377,-4.75224621207488,75.8375503348331,10.750503777266,-59.6879222624373,-24.4385209112967,40.7118709665964,-8.03772733611743,22.8349534573484,-9.22313841878307,13.6505440489574,-21.1490437116068,23.2278929599804,16.7567504745892,-44.948419266734,-28.1544422765071,46.2218754618165,28.2493728087288,86.6765439543195,32.3721316417723,-3.03072545108018,-18.3021407074478,15.3882528295553,14.2428369035156,6.01861486697147,0.70852824139206,-63.0870347919612,7.05269773393108,-25.3200481607728,27.3413792227026,-69.3255273244552,19.9614231251945,22.1872666033266,69.3481985313051,12.0619408452481,52.3942544155914,-0.526268625232429,73.3260293761307,14.6948688867381,19.8273278629776,27.9449525707245,-0.903026110917108,12.7730041033396,-9.62063377411233,-29.3358810399877,-2.15009526257612,-44.5667886397357,-2.59836563209994,76.0996140425192,-26.3885055368574,45.2965410697061,73.283851542011,-16.321728856059,-40.0022816071272,39.2655851198863,22.4349945874439,29.5620619376494,32.5578346199037,-35.6125545390999,13.1636744669561,44.9310429238377,70.6433312038154,43.2325350232209,32.7503657114555,-11.3998343737994,-54.8037383701516,7.4454321683827,2.79614298919278,-30.6127196937282,-13.8665351129445,-1.27369652168172,-2.65641705551834,8.78361850621941,19.4677827800152,6.30691839367788,-14.9603745767917,8.9712205445005,14.8863463846144,26.9719307889651,22.0303826417565,-18.0189102778379,-14.5602260555259,-37.8769131566317,-49.5802695878006,14.7490269083284,-24.8733738930268,8.61077964139229,21.7473391185322,1.73890172334711,8.35093312244383,-36.8465837014835,-21.1418011136202,-7.82495609902368,1.24679554289965,-2.34648433540336,-55.6031685681933,59.5465309703907,66.8609417930666,17.9011663873209,39.1817520525315,39.2302708668809,-23.6917623227843,3.79833284638093,-15.9698289625901,-33.8935353260523,10.603273866616,57.4144714545838,15.2389182508696,-3.8044857371936,46.5210820015373,-1.01201418392181,69.4283047297106,62.8137417621803,43.3312283755108,-6.91881511735741,-1.88524440823448,-23.9416385061068,-23.6307188503546,61.0408842291148,-50.5730675606787,2.57509480380551,-36.6925855145065,-27.7215295516255,-47.9799137327146,17.5847147097528,38.2510639781799,15.1821001076922,-39.7421735858957,-39.8363559428534,-37.7240285125796,20.3518051547228,2.9271340295958,-1.08032220515879,30.7626309681221,-20.606526680947,6.32083432060557,2.47142835675276,20.5015215693667,22.2727511199356,20.5251899194889,-7.85171034688707,6.78091317858396,52.8009296667736,-11.9025846159189,4.17234846712808,18.5705483343407,9.26082320368829,13.1185391267422,-19.3970472923934,22.2239991267286,-46.3705618181835,-19.2918255456392,62.9510206404793,-8.58521169524354,-44.6657325151752,-47.5937203801444,14.0599541794896,41.0216656455245,65.6727391746634,-32.1152849278942,-5.49995151537328,-42.316049900976,20.5673744408818,24.9879789570665,32.0067672391066,42.287207131862,21.0772254071311,16.5850997723168,-5.27057990953429,38.4580084434296,54.1113451381266,-6.08082774875158,-1.54157501760392,-9.21123849273121,20.8958914020109,-2.36550951409868,21.3625416696957,30.6856272538684,-7.25208790502968,77.5760584933095,11.5589135160666,-20.2507346698192,9.59853161387268,21.3901696102092,-15.6296219006406,-11.9920886181387,8.1129256783353,19.8943460340017,-5.11813258143483,23.472596508399,25.9989079685336,-20.0255288487106,1,1,1,1,1,1,1,1,1,1,1,1,1,1,1,1,1,1,1,1,1,1,1,1,1,1,1,1,1,1,1,1,1,1,1,1,1,1,1,1,1,1,1,1,1,1,1,1,1,1,1,1,1,1,1,1,1,1,1,1,1,1,1,1,1,1,1,1,1,1,1,1,1,1,1,1,1,1,1,1,1,1,1,1,1,1,1,1,1,1,1,1,1,1,1,1,1,1,1,1,1,1,1,1,1,1,1,1,1,1,1,1,1,1,1,1,1,1,1,1,1,1,1,1,1,1,1,1,1,1,1,1,1,1,1,1,1,1,1,1,1,1,1,1,1,1,1,1,1,1,1,1,1,1,1,1,1,1,1,1,1,1,1,1,1,1,1,1,1,1,1,1,1,1,1,1,1,1,1,1,1,1,1,1,1,1,1,1,1,1,1,1,1,1,1,1,1,1,1,1,1,1,1,1,1,1,1,1,1,1,1,1,1,1,1,1,1,1,1,1,1,1,1,1,1,1,1,1,1,1,1,1,1,1,1,1,1,1,1,1,1,1,1,1,1,1,1,1,1,1,1,1,1,1,1,1,1,1,1,1,1,1,1,1,1,1,1,1,1,1,-17.2807749529308,-13.7463586713744,4.5221091365898,33.1015181527671,-43.5864996628965,-14.5554689122095,33.7588296277613,-4.18464935239566,65.8426999949937,-40.7338416946676,22.3655856367294,-22.8848743072614,-28.0164708105915,-46.4346716454033,-23.7290293159695,45.5228436050081,-3.42917880709337,-11.5902491047859,-3.94929342011793,-7.01899485110236,9.91427048443033,-48.8565073558273,27.22323391769,32.5576522680682,9.36029653724853,27.4874777282242,14.3748843153053,-17.1957455819494,-13.8542362484458,-15.0005562698455,-10.6822656654103,-10.5540382557055,15.1985000095308,8.31465330548815,0.920886143969732,8.22949347582028,39.3092416800364,-40.2444680541663,20.1032526998543,-9.66961296450275,-5.02968452370468,1.30653747203066,47.3323346006254,-1.00371853094058,-68.3058797389136,-38.2114686910303,-9.90129189121418,57.3026339290477,-11.1423416326947,63.8786477652856,5.65454577904797,10.8350467088365,-4.22515469867155,-24.6368143731795,76.9635776923332,9.48819302221631,54.6231286277479,-18.9902605070266,-41.5136697142994,-42.5338994753336,0.603987242650036,19.0995882997148,49.0685317146951,-40.2075358591029,54.2039459623234,11.2033522120548,17.1639543586958,11.1937795894917,-39.4955125800626,21.1328420197724,-25.899654374085,37.5768942692078,12.4652948813477,2.60965937946588,43.3650452058727,23.0950587855279,21.7571070620363,89.1611598543373,27.2061152321717,27.2126241533516,-1.7694344736418,0.0240287579093332,46.7470041261582,-35.5638933330281,-4.07657528760757,-39.5932995006282,-9.8361666437853,16.3384389638413,15.3328694637906,11.4489787440369,-51.5199011264641,-44.0311683573904,48.4617717093762,-17.3136467810269,-16.9721374504407,39.4626371385745,28.1148703135903,-8.80453021841792,47.3337932148257,-33.0680226304789,-9.52747224695242,-11.4543238692339,12.023504535619,41.9202002519328,35.3527602926593,2.17926640514729,-51.2153943500253,8.85285285544401,30.1248256076994,-7.36877783990709,-18.4872158638188,-1.33292040931111,-10.3332054753783,-14.7589889991965,33.1285218870268,-44.0313812128896,37.2826066830574,81.360088756196,5.86216604425102,13.8215867951633,35.6929071711857,-27.1369065020684,23.9430170027167,-5.82104293364521,54.8089609915328,30.9748963468002,10.0168629497029,6.5174057551577,-1.50874499264785,-36.6156824324964,26.6478267859507,-8.08962441791149,2.24934565577661,14.6515586920815,-64.2907502198398,46.3494249204982,44.1207501369006,24.9737967857956,1.26776818800878,-25.4538875113226,3.7084521480228,27.3102691389298,-13.1884026532045,-14.3129646657111,-42.91845380378,9.1248111495215,27.3178831046229,-54.857121217882,-18.5851767529629,4.46593183958103,15.7810344021847,13.371298805937,-6.58837243986064,29.9098235647417,-46.5597691197606,-5.01651846269383,18.6003940413605,3.2779019365511,-16.8776617467817,-0.596809663517106,41.2930468816882,2.80970522741055,-15.6563349047088,34.0776180175061,-79.2392294589572,-11.5042786201889,-49.7572294827181,-22.856997041557,-1.08778301818118,28.4005039448418,13.1205843987226,-17.7392964591881,-14.5934601494168,-26.8591540403274,17.1658005165548,-22.1287586287219,-28.0606691310102,41.5065421313398,29.4231054497716,-1.56022238182372,53.4597853141484,-14.1632110309555,-50.6932348161132,34.0834943286804,33.9929417117938,8.72381219860697,5.71973653103983,-12.1255380360619,19.7849357889165,50.7469598186195,-23.6276779374011,-29.0677250177613,-18.6928924584723,7.46374575774187,-32.6208136398323,-16.7715204778421,42.1653214641685,-13.8508716446016,-3.44002524727248,29.1517182799115,-63.4643050028381,-20.196564003018,13.6701386842089,-56.5693812459756,2.01128893808361,16.8519825553862,36.6360712502978,17.4778785536598,-7.67267793218132,-18.1750299456331,-58.7178517457429,-40.988012498865,-48.5669803799743,5.18261698340667,-34.7184147028427,30.281551952509,11.0741687529065,-6.14355101292628,-46.8203586946422,-12.1575825945157,3.12527166828554,13.2125033864198,51.0899630900598,-4.44828382175246,19.3387770905675,-29.8419405969035,-8.72456827455053,20.7070194535698,4.79279961670467,68.8691017721678,-55.8732882341085,12.2731327393883,26.5589876395183,24.2005480512252,64.8280174443584,35.2959226191947,-20.1851475752894,-5.02082540446619,3.59382435615881,-27.750943451905,-41.5058937046869,-5.43490910794123,-31.7163494557992,18.9709207049359,28.3926374380912,-6.64557032749371,-29.4176622741312,-40.1621955258951,-31.0827767921668,4.29085908646583,-8.38446596885276,13.3869450768731,-7.20346926903643,-2.55650037659853,16.2919671127287,53.3904261818178,-25.4437862121594,15.1690794132229,-21.3537471668762,-4.01092176217809,-31.6869851332956,24.3126516589924,7.89717522178937,57.2857014269221,-10.8046144418862,-27.6965673150814,61.9305013045226,4.19445722618453,27.4806028078364,-1.01565541333274,1,1,1,1,1,1,1,1,1,1,1,1,1,1,1,1,1,1,1,1,1,1,1,1,1,1,1,1,1,1,1,1,1,1,1,1,1,1,1,1,1,1,1,1,1,1,1,1,1,1,1,1,1,1,1,1,1,1,1,1,1,1,1,1,1,1,1,1,1,1,1,1,1,1,1,1,1,1,1,1,1,1,1,1,1,1,1,1,1,1,1,1,1,1,1,1,1,1,1,1,1,1,1,1,1,1,1,1,1,1,1,1,1,1,1,1,1,1,1,1,1,1,1,1,1,1,1,1,1,1,1,1,1,1,1,1,1,1,1,1,1,1,1,1,1,1,1,1,1,1,1,1,1,1,1,1,1,1,1,1,1,1,1,1,1,1,1,1,1,1,1,1,1,1,1,1,1,1,1,1,1,1,1,1,1,1,1,1,1,1,1,1,1,1,1,1,1,1,1,1,1,1,1,1,1,1,1,1,1,1,1,1,1,1,1,1,1,1,1,1,1,1,1,1,1,1,1,1,1,1,1,1,1,1,1,1,1,1,1,1,1,1,1,1,1,1,1,1,1,1,1,1,1,1,1,1,1,1,1,1,1,1,1,1,1,1,1,1,1,1,-103.480302745431,-36.8190078306378,43.7805101591174,20.9043943320295,26.7627463267116,-18.1253260402419,3.43700710216089,-5.48848884832978,-2.38072749828373,78.4918399400871,-21.9366560114834,-41.505407115366,-22.8445647583002,37.0556317897404,15.4105139674705,-17.0821904658621,21.7091991403301,-41.1500904788828,-49.6505277304646,-38.5989320408201,-5.16115853694917,-44.4535435533923,-52.6364831642262,6.81447579510413,40.9650375709515,33.8182162162203,-35.5795597796334,13.2980037803328,38.9558073471922,55.6960904692247,15.9121244096282,7.56978953671635,-36.1673271377124,-11.8831597686904,-0.403687785927796,-1.04798956801098,4.93689902480524,0.667791581098435,-41.1647708618914,14.7858735838927,33.1422588462893,-9.36994681756653,13.5010168243931,-11.4194640949683,-49.6681126681993,22.360465631472,-34.0606770621799,17.0132584049115,20.4154107889641,2.97006025839145,13.9361037296958,15.7076303025312,-1.47977326651521,0.896858311392974,46.5408129336574,-9.06405080399444,0.526217262673203,46.1962693197614,-9.38014669195148,3.35468840747579,5.6408260907855,-13.2139709727726,-33.9573175685865,6.31469296094977,49.9126997876981,28.1877806806638,-27.1609828649824,-4.05449517804305,45.683693483718,31.0927021618964,-15.8197569392472,8.93950194739119,13.69862894987,41.1984504718255,-25.1466927727802,7.46513810108949,11.4713634794835,-3.58393562522382,-3.34158069220952,45.0105304851105,-25.3450521781377,-4.75224621207488,75.8375503348331,10.750503777266,-59.6879222624373,-24.4385209112967,40.7118709665964,-8.03772733611743,22.8349534573484,-9.22313841878307,13.6505440489574,-21.1490437116068,23.2278929599804,16.7567504745892,-44.948419266734,-28.1544422765071,46.2218754618165,28.2493728087288,86.6765439543195,32.3721316417723,-3.03072545108018,-18.3021407074478,15.3882528295553,14.2428369035156,6.01861486697147,0.70852824139206,-63.0870347919612,7.05269773393108,-25.3200481607728,27.3413792227026,-69.3255273244552,19.9614231251945,22.1872666033266,69.3481985313051,12.0619408452481,52.3942544155914,-0.526268625232429,73.3260293761307,14.6948688867381,19.8273278629776,27.9449525707245,-0.903026110917108,12.7730041033396,-9.62063377411233,-29.3358810399877,-2.15009526257612,-44.5667886397357,-2.59836563209994,76.0996140425192,-26.3885055368574,45.2965410697061,73.283851542011,-16.321728856059,-40.0022816071272,39.2655851198863,22.4349945874439,29.5620619376494,32.5578346199037,-35.6125545390999,13.1636744669561,44.9310429238377,70.6433312038154,43.2325350232209,32.7503657114555,-11.3998343737994,-54.8037383701516,7.4454321683827,2.79614298919278,-30.6127196937282,-13.8665351129445,-1.27369652168172,-2.65641705551834,8.78361850621941,19.4677827800152,6.30691839367788,-14.9603745767917,8.9712205445005,14.8863463846144,26.9719307889651,22.0303826417565,-18.0189102778379,-14.5602260555259,-37.8769131566317,-49.5802695878006,14.7490269083284,-24.8733738930268,8.61077964139229,21.7473391185322,1.73890172334711,8.35093312244383,-36.8465837014835,-21.1418011136202,-7.82495609902368,1.24679554289965,-2.34648433540336,-55.6031685681933,59.5465309703907,66.8609417930666,17.9011663873209,39.1817520525315,39.2302708668809,-23.6917623227843,3.79833284638093,-15.9698289625901,-33.8935353260523,10.603273866616,57.4144714545838,15.2389182508696,-3.8044857371936,46.5210820015373,-1.01201418392181,69.4283047297106,62.8137417621803,43.3312283755108,-6.91881511735741,-1.88524440823448,-23.9416385061068,-23.6307188503546,61.0408842291148,-50.5730675606787,2.57509480380551,-36.6925855145065,-27.7215295516255,-47.9799137327146,17.5847147097528,38.2510639781799,15.1821001076922,-39.7421735858957,-39.8363559428534,-37.7240285125796,20.3518051547228,2.9271340295958,-1.08032220515879,30.7626309681221,-20.606526680947,6.32083432060557,2.47142835675276,20.5015215693667,22.2727511199356,20.5251899194889,-7.85171034688707,6.78091317858396,52.8009296667736,-11.9025846159189,4.17234846712808,18.5705483343407,9.26082320368829,13.1185391267422,-19.3970472923934,22.2239991267286,-46.3705618181835,-19.2918255456392,62.9510206404793,-8.58521169524354,-44.6657325151752,-47.5937203801444,14.0599541794896,41.0216656455245,65.6727391746634,-32.1152849278942,-5.49995151537328,-42.316049900976,20.5673744408818,24.9879789570665,32.0067672391066,42.287207131862,21.0772254071311,16.5850997723168,-5.27057990953429,38.4580084434296,54.1113451381266,-6.08082774875158,-1.54157501760392,-9.21123849273121,20.8958914020109,-2.36550951409868,21.3625416696957,30.6856272538684,-7.25208790502968,77.5760584933095,11.5589135160666,-20.2507346698192,9.59853161387268,21.3901696102092,-15.6296219006406,-11.9920886181387,8.1129256783353,19.8943460340017,-5.11813258143483,23.472596508399,25.9989079685336,-20.0255288487106,1,1,1,1,1,1,1,1,1,1,1,1,1,1,1,1,1,1,1,1,1,1,1,1,1,1,1,1,1,1,1,1,1,1,1,1,1,1,1,1,1,1,1,1,1,1,1,1,1,1,1,1,1,1,1,1,1,1,1,1,1,1,1,1,1,1,1,1,1,1,1,1,1,1,1,1,1,1,1,1,1,1,1,1,1,1,1,1,1,1,1,1,1,1,1,1,1,1,1,1,1,1,1,1,1,1,1,1,1,1,1,1,1,1,1,1,1,1,1,1,1,1,1,1,1,1,1,1,1,1,1,1,1,1,1,1,1,1,1,1,1,1,1,1,1,1,1,1,1,1,1,1,1,1,1,1,1,1,1,1,1,1,1,1,1,1,1,1,1,1,1,1,1,1,1,1,1,1,1,1,1,1,1,1,1,1,1,1,1,1,1,1,1,1,1,1,1,1,1,1,1,1,1,1,1,1,1,1,1,1,1,1,1,1,1,1,1,1,1,1,1,1,1,1,1,1,1,1,1,1,1,1,1,1,1,1,1,1,1,1,1,1,1,1,1,1,1,1,1,1,1,1,1,1,1,1,1,1,1,1,1,1,1,1,1,1,1,1,1,1,-17.2807749529308,-13.7463586713744,4.5221091365898,33.1015181527671,-43.5864996628965,-14.5554689122095,33.7588296277613,-4.18464935239566,65.8426999949937,-40.7338416946676,22.3655856367294,-22.8848743072614,-28.0164708105915,-46.4346716454033,-23.7290293159695,45.5228436050081,-3.42917880709337,-11.5902491047859,-3.94929342011793,-7.01899485110236,9.91427048443033,-48.8565073558273,27.22323391769,32.5576522680682,9.36029653724853,27.4874777282242,14.3748843153053,-17.1957455819494,-13.8542362484458,-15.0005562698455,-10.6822656654103,-10.5540382557055,15.1985000095308,8.31465330548815,0.920886143969732,8.22949347582028,39.3092416800364,-40.2444680541663,20.1032526998543,-9.66961296450275,-5.02968452370468,1.30653747203066,47.3323346006254,-1.00371853094058,-68.3058797389136,-38.2114686910303,-9.90129189121418,57.3026339290477,-11.1423416326947,63.8786477652856,5.65454577904797,10.8350467088365,-4.22515469867155,-24.6368143731795,76.9635776923332,9.48819302221631,54.6231286277479,-18.9902605070266,-41.5136697142994,-42.5338994753336,0.603987242650036,19.0995882997148,49.0685317146951,-40.2075358591029,54.2039459623234,11.2033522120548,17.1639543586958,11.1937795894917,-39.4955125800626,21.1328420197724,-25.899654374085,37.5768942692078,12.4652948813477,2.60965937946588,43.3650452058727,23.0950587855279,21.7571070620363,89.1611598543373,27.2061152321717,27.2126241533516,-1.7694344736418,0.0240287579093332,46.7470041261582,-35.5638933330281,-4.07657528760757,-39.5932995006282,-9.8361666437853,16.3384389638413,15.3328694637906,11.4489787440369,-51.5199011264641,-44.0311683573904,48.4617717093762,-17.3136467810269,-16.9721374504407,39.4626371385745,28.1148703135903,-8.80453021841792,47.3337932148257,-33.0680226304789,-9.52747224695242,-11.4543238692339,12.023504535619,41.9202002519328,35.3527602926593,2.17926640514729,-51.2153943500253,8.85285285544401,30.1248256076994,-7.36877783990709,-18.4872158638188,-1.33292040931111,-10.3332054753783,-14.7589889991965,33.1285218870268,-44.0313812128896,37.2826066830574,81.360088756196,5.86216604425102,13.8215867951633,35.6929071711857,-27.1369065020684,23.9430170027167,-5.82104293364521,54.8089609915328,30.9748963468002,10.0168629497029,6.5174057551577,-1.50874499264785,-36.6156824324964,26.6478267859507,-8.08962441791149,2.24934565577661,14.6515586920815,-64.2907502198398,46.3494249204982,44.1207501369006,24.9737967857956,1.26776818800878,-25.4538875113226,3.7084521480228,27.3102691389298,-13.1884026532045,-14.3129646657111,-42.91845380378,9.1248111495215,27.3178831046229,-54.857121217882,-18.5851767529629,4.46593183958103,15.7810344021847,13.371298805937,-6.58837243986064,29.9098235647417,-46.5597691197606,-5.01651846269383,18.6003940413605,3.2779019365511,-16.8776617467817,-0.596809663517106,41.2930468816882,2.80970522741055,-15.6563349047088,34.0776180175061,-79.2392294589572,-11.5042786201889,-49.7572294827181,-22.856997041557,-1.08778301818118,28.4005039448418,13.1205843987226,-17.7392964591881,-14.5934601494168,-26.8591540403274,17.1658005165548,-22.1287586287219,-28.0606691310102,41.5065421313398,29.4231054497716,-1.56022238182372,53.4597853141484,-14.1632110309555,-50.6932348161132,34.0834943286804,33.9929417117938,8.72381219860697,5.71973653103983,-12.1255380360619,19.7849357889165,50.7469598186195,-23.6276779374011,-29.0677250177613,-18.6928924584723,7.46374575774187,-32.6208136398323,-16.7715204778421,42.1653214641685,-13.8508716446016,-3.44002524727248,29.1517182799115,-63.4643050028381,-20.196564003018,13.6701386842089,-56.5693812459756,2.01128893808361,16.8519825553862,36.6360712502978,17.4778785536598,-7.67267793218132,-18.1750299456331,-58.7178517457429,-40.988012498865,-48.5669803799743,5.18261698340667,-34.7184147028427,30.281551952509,11.0741687529065,-6.14355101292628,-46.8203586946422,-12.1575825945157,3.12527166828554,13.2125033864198,51.0899630900598,-4.44828382175246,19.3387770905675,-29.8419405969035,-8.72456827455053,20.7070194535698,4.79279961670467,68.8691017721678,-55.8732882341085,12.2731327393883,26.5589876395183,24.2005480512252,64.8280174443584,35.2959226191947,-20.1851475752894,-5.02082540446619,3.59382435615881,-27.750943451905,-41.5058937046869,-5.43490910794123,-31.7163494557992,18.9709207049359,28.3926374380912,-6.64557032749371,-29.4176622741312,-40.1621955258951,-31.0827767921668,4.29085908646583,-8.38446596885276,13.3869450768731,-7.20346926903643,-2.55650037659853,16.2919671127287,53.3904261818178,-25.4437862121594,15.1690794132229,-21.3537471668762,-4.01092176217809,-31.6869851332956,24.3126516589924,7.89717522178937,57.2857014269221,-10.8046144418862,-27.6965673150814,61.9305013045226,4.19445722618453,27.4806028078364,-1.01565541333274,1,1,1,1,1,1,1,1,1,1,1,1,1,1,1,1,1,1,1,1,1,1,1,1,1,1,1,1,1,1,1,1,1,1,1,1,1,1,1,1,1,1,1,1,1,1,1,1,1,1,1,1,1,1,1,1,1,1,1,1,1,1,1,1,1,1,1,1,1,1,1,1,1,1,1,1,1,1,1,1,1,1,1,1,1,1,1,1,1,1,1,1,1,1,1,1,1,1,1,1,1,1,1,1,1,1,1,1,1,1,1,1,1,1,1,1,1,1,1,1,1,1,1,1,1,1,1,1,1,1,1,1,1,1,1,1,1,1,1,1,1,1,1,1,1,1,1,1,1,1,1,1,1,1,1,1,1,1,1,1,1,1,1,1,1,1,1,1,1,1,1,1,1,1,1,1,1,1,1,1,1,1,1,1,1,1,1,1,1,1,1,1,1,1,1,1,1,1,1,1,1,1,1,1,1,1,1,1,1,1,1,1,1,1,1,1,1,1,1,1,1,1,1,1,1,1,1,1,1,1,1,1,1,1,1,1,1,1,1,1,1,1,1,1,1,1,1,1,1,1,1,1,1,1,1,1,1,1,1,1,1,1,1,1,1,1,1,1,1,1
-266.741927367981,49.6396115588209,179.497482473728,-150.739273181782,56.7808436526324,43.7805101591174,20.9043943320295,26.7627463267116,-18.1253260402419,3.43700710216089,-5.48848884832978,-2.38072749828373,78.4918399400871,-21.9366560114834,-41.505407115366,-22.8445647583002,37.0556317897404,15.4105139674705,-17.0821904658621,21.7091991403301,-41.1500904788828,-49.6505277304646,-38.5989320408201,-5.16115853694917,-44.4535435533923,-52.6364831642262,6.81447579510413,40.9650375709515,33.8182162162203,-35.5795597796334,13.2980037803328,38.9558073471922,55.6960904692247,15.9121244096282,7.56978953671635,-36.1673271377124,-11.8831597686904,-0.403687785927796,-1.04798956801098,4.93689902480524,0.667791581098435,-41.1647708618914,14.7858735838927,33.1422588462893,-9.36994681756653,13.5010168243931,-11.4194640949683,-49.6681126681993,22.360465631472,-34.0606770621799,17.0132584049115,20.4154107889641,2.97006025839145,13.9361037296958,15.7076303025312,-1.47977326651521,0.896858311392974,46.5408129336574,-9.06405080399444,0.526217262673203,46.1962693197614,-9.38014669195148,3.35468840747579,5.6408260907855,-13.2139709727726,-33.9573175685865,6.31469296094977,49.9126997876981,28.1877806806638,-27.1609828649824,-4.05449517804305,45.683693483718,31.0927021618964,-15.8197569392472,8.93950194739119,13.69862894987,41.1984504718255,-25.1466927727802,7.46513810108949,11.4713634794835,-3.58393562522382,-3.34158069220952,45.0105304851105,-25.3450521781377,-4.75224621207488,75.8375503348331,10.750503777266,-59.6879222624373,-24.4385209112967,40.7118709665964,-8.03772733611743,22.8349534573484,-9.22313841878307,13.6505440489574,-21.1490437116068,23.2278929599804,16.7567504745892,-44.948419266734,-28.1544422765071,46.2218754618165,28.2493728087288,86.6765439543195,32.3721316417723,-3.03072545108018,-18.3021407074478,15.3882528295553,14.2428369035156,6.01861486697147,0.70852824139206,-63.0870347919612,7.05269773393108,-25.3200481607728,27.3413792227026,-69.3255273244552,19.9614231251945,22.1872666033266,69.3481985313051,12.0619408452481,52.3942544155914,-0.526268625232429,73.3260293761307,14.6948688867381,19.8273278629776,27.9449525707245,-0.903026110917108,12.7730041033396,-9.62063377411233,-29.3358810399877,-2.15009526257612,-44.5667886397357,-2.59836563209994,76.0996140425192,-26.3885055368574,45.2965410697061,73.283851542011,-16.321728856059,-40.0022816071272,39.2655851198863,22.4349945874439,29.5620619376494,32.5578346199037,-35.6125545390999,13.1636744669561,44.9310429238377,70.6433312038154,43.2325350232209,32.7503657114555,-11.3998343737994,-54.8037383701516,7.4454321683827,2.79614298919278,-30.6127196937282,-13.8665351129445,-1.27369652168172,-2.65641705551834,8.78361850621941,19.4677827800152,6.30691839367788,-14.9603745767917,8.9712205445005,14.8863463846144,26.9719307889651,22.0303826417565,-18.0189102778379,-14.5602260555259,-37.8769131566317,-49.5802695878006,14.7490269083284,-24.8733738930268,8.61077964139229,21.7473391185322,1.73890172334711,8.35093312244383,-36.8465837014835,-21.1418011136202,-7.82495609902368,1.24679554289965,-2.34648433540336,-55.6031685681933,59.5465309703907,66.8609417930666,17.9011663873209,39.1817520525315,39.2302708668809,-23.6917623227843,3.79833284638093,-15.9698289625901,-33.8935353260523,10.603273866616,57.4144714545838,15.2389182508696,-3.8044857371936,46.5210820015373,-1.01201418392181,69.4283047297106,62.8137417621803,43.3312283755108,-6.91881511735741,-1.88524440823448,-23.9416385061068,-23.6307188503546,61.0408842291148,-50.5730675606787,2.57509480380551,-36.6925855145065,-27.7215295516255,-47.9799137327146,17.5847147097528,38.2510639781799,15.1821001076922,-39.7421735858957,-39.8363559428534,-37.7240285125796,20.3518051547228,2.9271340295958,-1.08032220515879,30.7626309681221,-20.606526680947,6.32083432060557,2.47142835675276,20.5015215693667,22.2727511199356,20.5251899194889,-7.85171034688707,6.78091317858396,52.8009296667736,-11.9025846159189,4.17234846712808,18.5705483343407,9.26082320368829,13.1185391267422,-19.3970472923934,22.2239991267286,-46.3705618181835,-19.2918255456392,62.9510206404793,-8.58521169524354,-44.6657325151752,-47.5937203801444,14.0599541794896,41.0216656455245,65.6727391746634,-32.1152849278942,-5.49995151537328,-42.316049900976,20.5673744408818,24.9879789570665,32.0067672391066,42.287207131862,21.0772254071311,16.5850997723168,-5.27057990953429,38.4580084434296,54.1113451381266,-6.08082774875158,-1.54157501760392,-9.21123849273121,20.8958914020109,-2.36550951409868,21.3625416696957,30.6856272538684,-7.25208790502968,77.5760584933095,11.5589135160666,-20.2507346698192,9.59853161387268,21.3901696102092,-15.6296219006406,-11.9920886181387,8.1129256783353,19.8943460340017,-5.11813258143483,23.472596508399,25.9989079685336,-20.0255288487106,1,1,1,1,1,1,1,1,1,1,1,1,1,1,1,1,1,1,1,1,1,1,1,1,1,1,1,1,1,1,1,1,1,1,1,1,1,1,1,1,1,1,1,1,1,1,1,1,1,1,1,1,1,1,1,1,1,1,1,1,1,1,1,1,1,1,1,1,1,1,1,1,1,1,1,1,1,1,1,1,1,1,1,1,1,1,1,1,1,1,1,1,1,1,1,1,1,1,1,1,1,1,1,1,1,1,1,1,1,1,1,1,1,1,1,1,1,1,1,1,1,1,1,1,1,1,1,1,1,1,1,1,1,1,1,1,1,1,1,1,1,1,1,1,1,1,1,1,1,1,1,1,1,1,1,1,1,1,1,1,1,1,1,1,1,1,1,1,1,1,1,1,1,1,1,1,1,1,1,1,1,1,1,1,1,1,1,1,1,1,1,1,1,1,1,1,1,1,1,1,1,1,1,1,1,1,1,1,1,1,1,1,1,1,1,1,1,1,1,1,1,1,1,1,1,1,1,1,1,1,1,1,1,1,1,1,1,1,1,1,1,1,1,1,1,1,1,1,1,1,1,1,1,1,1,1,1,1,1,1,1,1,1,1,1,1,1,1,1,1,-17.2807749529308,-13.7463586713744,4.5221091365898,33.1015181527671,-43.5864996628965,-14.5554689122095,33.7588296277613,-4.18464935239566,65.8426999949937,-40.7338416946676,22.3655856367294,-22.8848743072614,-28.0164708105915,-46.4346716454033,-23.7290293159695,45.5228436050081,-3.42917880709337,-11.5902491047859,-3.94929342011793,-7.01899485110236,9.91427048443033,-48.8565073558273,27.22323391769,32.5576522680682,9.36029653724853,27.4874777282242,14.3748843153053,-17.1957455819494,-13.8542362484458,-15.0005562698455,-10.6822656654103,-10.5540382557055,15.1985000095308,8.31465330548815,0.920886143969732,8.22949347582028,39.3092416800364,-40.2444680541663,20.1032526998543,-9.66961296450275,-5.02968452370468,1.30653747203066,47.3323346006254,-1.00371853094058,-68.3058797389136,-38.2114686910303,-9.90129189121418,57.3026339290477,-11.1423416326947,63.8786477652856,5.65454577904797,10.8350467088365,-4.22515469867155,-24.6368143731795,76.9635776923332,9.48819302221631,54.6231286277479,-18.9902605070266,-41.5136697142994,-42.5338994753336,0.603987242650036,19.0995882997148,49.0685317146951,-40.2075358591029,54.2039459623234,11.2033522120548,17.1639543586958,11.1937795894917,-39.4955125800626,21.1328420197724,-25.899654374085,37.5768942692078,12.4652948813477,2.60965937946588,43.3650452058727,23.0950587855279,21.7571070620363,89.1611598543373,27.2061152321717,27.2126241533516,-1.7694344736418,0.0240287579093332,46.7470041261582,-35.5638933330281,-4.07657528760757,-39.5932995006282,-9.8361666437853,16.3384389638413,15.3328694637906,11.4489787440369,-51.5199011264641,-44.0311683573904,48.4617717093762,-17.3136467810269,-16.9721374504407,39.4626371385745,28.1148703135903,-8.80453021841792,47.3337932148257,-33.0680226304789,-9.52747224695242,-11.4543238692339,12.023504535619,41.9202002519328,35.3527602926593,2.17926640514729,-51.2153943500253,8.85285285544401,30.1248256076994,-7.36877783990709,-18.4872158638188,-1.33292040931111,-10.3332054753783,-14.7589889991965,33.1285218870268,-44.0313812128896,37.2826066830574,81.360088756196,5.86216604425102,13.8215867951633,35.6929071711857,-27.1369065020684,23.9430170027167,-5.82104293364521,54.8089609915328,30.9748963468002,10.0168629497029,6.5174057551577,-1.50874499264785,-36.6156824324964,26.6478267859507,-8.08962441791149,2.24934565577661,14.6515586920815,-64.2907502198398,46.3494249204982,44.1207501369006,24.9737967857956,1.26776818800878,-25.4538875113226,3.7084521480228,27.3102691389298,-13.1884026532045,-14.3129646657111,-42.91845380378,9.1248111495215,27.3178831046229,-54.857121217882,-18.5851767529629,4.46593183958103,15.7810344021847,13.371298805937,-6.58837243986064,29.9098235647417,-46.5597691197606,-5.01651846269383,18.6003940413605,3.2779019365511,-16.8776617467817,-0.596809663517106,41.2930468816882,2.80970522741055,-15.6563349047088,34.0776180175061,-79.2392294589572,-11.5042786201889,-49.7572294827181,-22.856997041557,-1.08778301818118,28.4005039448418,13.1205843987226,-17.7392964591881,-14.5934601494168,-26.8591540403274,17.1658005165548,-22.1287586287219,-28.0606691310102,41.5065421313398,29.4231054497716,-1.56022238182372,53.4597853141484,-14.1632110309555,-50.6932348161132,34.0834943286804,33.9929417117938,8.72381219860697,5.71973653103983,-12.1255380360619,19.7849357889165,50.7469598186195,-23.6276779374011,-29.0677250177613,-18.6928924584723,7.46374575774187,-32.6208136398323,-16.7715204778421,42.1653214641685,-13.8508716446016,-3.44002524727248,29.1517182799115,-63.4643050028381,-20.196564003018,13.6701386842089,-56.5693812459756,2.01128893808361,16.8519825553862,36.6360712502978,17.4778785536598,-7.67267793218132,-18.1750299456331,-58.7178517457429,-40.988012498865,-48.5669803799743,5.18261698340667,-34.7184147028427,30.281551952509,11.0741687529065,-6.14355101292628,-46.8203586946422,-12.1575825945157,3.12527166828554,13.2125033864198,51.0899630900598,-4.44828382175246,19.3387770905675,-29.8419405969035,-8.72456827455053,20.7070194535698,4.79279961670467,68.8691017721678,-55.8732882341085,12.2731327393883,26.5589876395183,24.2005480512252,64.8280174443584,35.2959226191947,-20.1851475752894,-5.02082540446619,3.59382435615881,-27.750943451905,-41.5058937046869,-5.43490910794123,-31.7163494557992,18.9709207049359,28.3926374380912,-6.64557032749371,-29.4176622741312,-40.1621955258951,-31.0827767921668,4.29085908646583,-8.38446596885276,13.3869450768731,-7.20346926903643,-2.55650037659853,16.2919671127287,53.3904261818178,-25.4437862121594,15.1690794132229,-21.3537471668762,-4.01092176217809,-31.6869851332956,24.3126516589924,7.89717522178937,57.2857014269221,-10.8046144418862,-27.6965673150814,61.9305013045226,4.19445722618453,27.4806028078364,-1.01565541333274,1,1,1,1,1,1,1,1,1,1,1,1,1,1,1,1,1,1,1,1,1,1,1,1,1,1,1,1,1,1,1,1,1,1,1,1,1,1,1,1,1,1,1,1,1,1,1,1,1,1,1,1,1,1,1,1,1,1,1,1,1,1,1,1,1,1,1,1,1,1,1,1,1,1,1,1,1,1,1,1,1,1,1,1,1,1,1,1,1,1,1,1,1,1,1,1,1,1,1,1,1,1,1,1,1,1,1,1,1,1,1,1,1,1,1,1,1,1,1,1,1,1,1,1,1,1,1,1,1,1,1,1,1,1,1,1,1,1,1,1,1,1,1,1,1,1,1,1,1,1,1,1,1,1,1,1,1,1,1,1,1,1,1,1,1,1,1,1,1,1,1,1,1,1,1,1,1,1,1,1,1,1,1,1,1,1,1,1,1,1,1,1,1,1,1,1,1,1,1,1,1,1,1,1,1,1,1,1,1,1,1,1,1,1,1,1,1,1,1,1,1,1,1,1,1,1,1,1,1,1,1,1,1,1,1,1,1,1,1,1,1,1,1,1,1,1,1,1,1,1,1,1,1,1,1,1,1,1,1,1,1,1,1,1,1,1,1,1,1,1,39.697757373364,-71.8361663751501,43.7805101591174,20.9043943320295,26.7627463267116,-18.1253260402419,3.43700710216089,-5.48848884832978,-2.38072749828373,78.4918399400871,-21.9366560114834,-41.505407115366,-22.8445647583002,37.0556317897404,15.4105139674705,-17.0821904658621,21.7091991403301,-41.1500904788828,-49.6505277304646,-38.5989320408201,-5.16115853694917,-44.4535435533923,-52.6364831642262,6.81447579510413,40.9650375709515,33.8182162162203,-35.5795597796334,13.2980037803328,38.9558073471922,55.6960904692247,15.9121244096282,7.56978953671635,-36.1673271377124,-11.8831597686904,-0.403687785927796,-1.04798956801098,4.93689902480524,0.667791581098435,-41.1647708618914,14.7858735838927,33.1422588462893,-9.36994681756653,13.5010168243931,-11.4194640949683,-49.6681126681993,22.360465631472,-34.0606770621799,17.0132584049115,20.4154107889641,2.97006025839145,13.9361037296958,15.7076303025312,-1.47977326651521,0.896858311392974,46.5408129336574,-9.06405080399444,0.526217262673203,46.1962693197614,-9.38014669195148,3.35468840747579,5.6408260907855,-13.2139709727726,-33.9573175685865,6.31469296094977,49.9126997876981,28.1877806806638,-27.1609828649824,-4.05449517804305,45.683693483718,31.0927021618964,-15.8197569392472,8.93950194739119,13.69862894987,41.1984504718255,-25.1466927727802,7.46513810108949,11.4713634794835,-3.58393562522382,-3.34158069220952,45.0105304851105,-25.3450521781377,-4.75224621207488,75.8375503348331,10.750503777266,-59.6879222624373,-24.4385209112967,40.7118709665964,-8.03772733611743,22.8349534573484,-9.22313841878307,13.6505440489574,-21.1490437116068,23.2278929599804,16.7567504745892,-44.948419266734,-28.1544422765071,46.2218754618165,28.2493728087288,86.6765439543195,32.3721316417723,-3.03072545108018,-18.3021407074478,15.3882528295553,14.2428369035156,6.01861486697147,0.70852824139206,-63.0870347919612,7.05269773393108,-25.3200481607728,27.3413792227026,-69.3255273244552,19.9614231251945,22.1872666033266,69.3481985313051,12.0619408452481,52.3942544155914,-0.526268625232429,73.3260293761307,14.6948688867381,19.8273278629776,27.9449525707245,-0.903026110917108,12.7730041033396,-9.62063377411233,-29.3358810399877,-2.15009526257612,-44.5667886397357,-2.59836563209994,76.0996140425192,-26.3885055368574,45.2965410697061,73.283851542011,-16.321728856059,-40.0022816071272,39.2655851198863,22.4349945874439,29.5620619376494,32.5578346199037,-35.6125545390999,13.1636744669561,44.9310429238377,70.6433312038154,43.2325350232209,32.7503657114555,-11.3998343737994,-54.8037383701516,7.4454321683827,2.79614298919278,-30.6127196937282,-13.8665351129445,-1.27369652168172,-2.65641705551834,8.78361850621941,19.4677827800152,6.30691839367788,-14.9603745767917,8.9712205445005,14.8863463846144,26.9719307889651,22.0303826417565,-18.0189102778379,-14.5602260555259,-37.8769131566317,-49.5802695878006,14.7490269083284,-24.8733738930268,8.61077964139229,21.7473391185322,1.73890172334711,8.35093312244383,-36.8465837014835,-21.1418011136202,-7.82495609902368,1.24679554289965,-2.34648433540336,-55.6031685681933,59.5465309703907,66.8609417930666,17.9011663873209,39.1817520525315,39.2302708668809,-23.6917623227843,3.79833284638093,-15.9698289625901,-33.8935353260523,10.603273866616,57.4144714545838,15.2389182508696,-3.8044857371936,46.5210820015373,-1.01201418392181,69.4283047297106,62.8137417621803,43.3312283755108,-6.91881511735741,-1.88524440823448,-23.9416385061068,-23.6307188503546,61.0408842291148,-50.5730675606787,2.57509480380551,-36.6925855145065,-27.7215295516255,-47.9799137327146,17.5847147097528,38.2510639781799,15.1821001076922,-39.7421735858957,-39.8363559428534,-37.7240285125796,20.3518051547228,2.9271340295958,-1.08032220515879,30.7626309681221,-20.606526680947,6.32083432060557,2.47142835675276,20.5015215693667,22.2727511199356,20.5251899194889,-7.85171034688707,6.78091317858396,52.8009296667736,-11.9025846159189,4.17234846712808,18.5705483343407,9.26082320368829,13.1185391267422,-19.3970472923934,22.2239991267286,-46.3705618181835,-19.2918255456392,62.9510206404793,-8.58521169524354,-44.6657325151752,-47.5937203801444,14.0599541794896,41.0216656455245,65.6727391746634,-32.1152849278942,-5.49995151537328,-42.316049900976,20.5673744408818,24.9879789570665,32.0067672391066,42.287207131862,21.0772254071311,16.5850997723168,-5.27057990953429,38.4580084434296,54.1113451381266,-6.08082774875158,-1.54157501760392,-9.21123849273121,20.8958914020109,-2.36550951409868,21.3625416696957,30.6856272538684,-7.25208790502968,77.5760584933095,11.5589135160666,-20.2507346698192,9.59853161387268,21.3901696102092,-15.6296219006406,-11.9920886181387,8.1129256783353,19.8943460340017,-5.11813258143483,23.472596508399,25.9989079685336,-20.0255288487106,1,1,1,1,1,1,1,1,1,1,1,1,1,1,1,1,1,1,1,1,1,1,1,1,1,1,1,1,1,1,1,1,1,1,1,1,1,1,1,1,1,1,1,1,1,1,1,1,1,1,1,1,1,1,1,1,1,1,1,1,1,1,1,1,1,1,1,1,1,1,1,1,1,1,1,1,1,1,1,1,1,1,1,1,1,1,1,1,1,1,1,1,1,1,1,1,1,1,1,1,1,1,1,1,1,1,1,1,1,1,1,1,1,1,1,1,1,1,1,1,1,1,1,1,1,1,1,1,1,1,1,1,1,1,1,1,1,1,1,1,1,1,1,1,1,1,1,1,1,1,1,1,1,1,1,1,1,1,1,1,1,1,1,1,1,1,1,1,1,1,1,1,1,1,1,1,1,1,1,1,1,1,1,1,1,1,1,1,1,1,1,1,1,1,1,1,1,1,1,1,1,1,1,1,1,1,1,1,1,1,1,1,1,1,1,1,1,1,1,1,1,1,1,1,1,1,1,1,1,1,1,1,1,1,1,1,1,1,1,1,1,1,1,1,1,1,1,1,1,1,1,1,1,1,1,1,1,1,1,1,1,1,1,1,1,1,1,1,1,1,-17.2807749529308,-13.7463586713744,4.5221091365898,33.1015181527671,-43.5864996628965,-14.5554689122095,33.7588296277613,-4.18464935239566,65.8426999949937,-40.7338416946676,22.3655856367294,-22.8848743072614,-28.0164708105915,-46.4346716454033,-23.7290293159695,45.5228436050081,-3.42917880709337,-11.5902491047859,-3.94929342011793,-7.01899485110236,9.91427048443033,-48.8565073558273,27.22323391769,32.5576522680682,9.36029653724853,27.4874777282242,14.3748843153053,-17.1957455819494,-13.8542362484458,-15.0005562698455,-10.6822656654103,-10.5540382557055,15.1985000095308,8.31465330548815,0.920886143969732,8.22949347582028,39.3092416800364,-40.2444680541663,20.1032526998543,-9.66961296450275,-5.02968452370468,1.30653747203066,47.3323346006254,-1.00371853094058,-68.3058797389136,-38.2114686910303,-9.90129189121418,57.3026339290477,-11.1423416326947,63.8786477652856,5.65454577904797,10.8350467088365,-4.22515469867155,-24.6368143731795,76.9635776923332,9.48819302221631,54.6231286277479,-18.9902605070266,-41.5136697142994,-42.5338994753336,0.603987242650036,19.0995882997148,49.0685317146951,-40.2075358591029,54.2039459623234,11.2033522120548,17.1639543586958,11.1937795894917,-39.4955125800626,21.1328420197724,-25.899654374085,37.5768942692078,12.4652948813477,2.60965937946588,43.3650452058727,23.0950587855279,21.7571070620363,89.1611598543373,27.2061152321717,27.2126241533516,-1.7694344736418,0.0240287579093332,46.7470041261582,-35.5638933330281,-4.07657528760757,-39.5932995006282,-9.8361666437853,16.3384389638413,15.3328694637906,11.4489787440369,-51.5199011264641,-44.0311683573904,48.4617717093762,-17.3136467810269,-16.9721374504407,39.4626371385745,28.1148703135903,-8.80453021841792,47.3337932148257,-33.0680226304789,-9.52747224695242,-11.4543238692339,12.023504535619,41.9202002519328,35.3527602926593,2.17926640514729,-51.2153943500253,8.85285285544401,30.1248256076994,-7.36877783990709,-18.4872158638188,-1.33292040931111,-10.3332054753783,-14.7589889991965,33.1285218870268,-44.0313812128896,37.2826066830574,81.360088756196,5.86216604425102,13.8215867951633,35.6929071711857,-27.1369065020684,23.9430170027167,-5.82104293364521,54.8089609915328,30.9748963468002,10.0168629497029,6.5174057551577,-1.50874499264785,-36.6156824324964,26.6478267859507,-8.08962441791149,2.24934565577661,14.6515586920815,-64.2907502198398,46.3494249204982,44.1207501369006,24.9737967857956,1.26776818800878,-25.4538875113226,3.7084521480228,27.3102691389298,-13.1884026532045,-14.3129646657111,-42.91845380378,9.1248111495215,27.3178831046229,-54.857121217882,-18.5851767529629,4.46593183958103,15.7810344021847,13.371298805937,-6.58837243986064,29.9098235647417,-46.5597691197606,-5.01651846269383,18.6003940413605,3.2779019365511,-16.8776617467817,-0.596809663517106,41.2930468816882,2.80970522741055,-15.6563349047088,34.0776180175061,-79.2392294589572,-11.5042786201889,-49.7572294827181,-22.856997041557,-1.08778301818118,28.4005039448418,13.1205843987226,-17.7392964591881,-14.5934601494168,-26.8591540403274,17.1658005165548,-22.1287586287219,-28.0606691310102,41.5065421313398,29.4231054497716,-1.56022238182372,53.4597853141484,-14.1632110309555,-50.6932348161132,34.0834943286804,33.9929417117938,8.72381219860697,5.71973653103983,-12.1255380360619,19.7849357889165,50.7469598186195,-23.6276779374011,-29.0677250177613,-18.6928924584723,7.46374575774187,-32.6208136398323,-16.7715204778421,42.1653214641685,-13.8508716446016,-3.44002524727248,29.1517182799115,-63.4643050028381,-20.196564003018,13.6701386842089,-56.5693812459756,2.01128893808361,16.8519825553862,36.6360712502978,17.4778785536598,-7.67267793218132,-18.1750299456331,-58.7178517457429,-40.988012498865,-48.5669803799743,5.18261698340667,-34.7184147028427,30.281551952509,11.0741687529065,-6.14355101292628,-46.8203586946422,-12.1575825945157,3.12527166828554,13.2125033864198,51.0899630900598,-4.44828382175246,19.3387770905675,-29.8419405969035,-8.72456827455053,20.7070194535698,4.79279961670467,68.8691017721678,-55.8732882341085,12.2731327393883,26.5589876395183,24.2005480512252,64.8280174443584,35.2959226191947,-20.1851475752894,-5.02082540446619,3.59382435615881,-27.750943451905,-41.5058937046869,-5.43490910794123,-31.7163494557992,18.9709207049359,28.3926374380912,-6.64557032749371,-29.4176622741312,-40.1621955258951,-31.0827767921668,4.29085908646583,-8.38446596885276,13.3869450768731,-7.20346926903643,-2.55650037659853,16.2919671127287,53.3904261818178,-25.4437862121594,15.1690794132229,-21.3537471668762,-4.01092176217809,-31.6869851332956,24.3126516589924,7.89717522178937,57.2857014269221,-10.8046144418862,-27.6965673150814,61.9305013045226,4.19445722618453,27.4806028078364,-1.01565541333274,1,1,1,1,1,1,1,1,1,1,1,1,1,1,1,1,1,1,1,1,1,1,1,1,1,1,1,1,1,1,1,1,1,1,1,1,1,1,1,1,1,1,1,1,1,1,1,1,1,1,1,1,1,1,1,1,1,1,1,1,1,1,1,1,1,1,1,1,1,1,1,1,1,1,1,1,1,1,1,1,1,1,1,1,1,1,1,1,1,1,1,1,1,1,1,1,1,1,1,1,1,1,1,1,1,1,1,1,1,1,1,1,1,1,1,1,1,1,1,1,1,1,1,1,1,1,1,1,1,1,1,1,1,1,1,1,1,1,1,1,1,1,1,1,1,1,1,1,1,1,1,1,1,1,1,1,1,1,1,1,1,1,1,1,1,1,1,1,1,1,1,1,1,1,1,1,1,1,1,1,1,1,1,1,1,1,1,1,1,1,1,1,1,1,1,1,1,1,1,1,1,1,1,1,1,1,1,1,1,1,1,1,1,1,1,1,1,1,1,1,1,1,1,1,1,1,1,1,1,1,1,1,1,1,1,1,1,1,1,1,1,1,1,1,1,1,1,1,1,1,1,1,1,1,1,1,1,1,1,1,1,1,1,1,1,1,1,1,1,1,-103.480302745431,-36.8190078306378,43.7805101591174,20.9043943320295,26.7627463267116,-18.1253260402419,3.43700710216089,-5.48848884832978,-2.38072749828373,78.4918399400871,-21.9366560114834,-41.505407115366,-22.8445647583002,37.0556317897404,15.4105139674705,-17.0821904658621,21.7091991403301,-41.1500904788828,-49.6505277304646,-38.5989320408201,-5.16115853694917,-44.4535435533923,-52.6364831642262,6.81447579510413,40.9650375709515,33.8182162162203,-35.5795597796334,13.2980037803328,38.9558073471922,55.6960904692247,15.9121244096282,7.56978953671635,-36.1673271377124,-11.8831597686904,-0.403687785927796,-1.04798956801098,4.93689902480524,0.667791581098435,-41.1647708618914,14.7858735838927,33.1422588462893,-9.36994681756653,13.5010168243931,-11.4194640949683,-49.6681126681993,22.360465631472,-34.0606770621799,17.0132584049115,20.4154107889641,2.97006025839145,13.9361037296958,15.7076303025312,-1.47977326651521,0.896858311392974,46.5408129336574,-9.06405080399444,0.526217262673203,46.1962693197614,-9.38014669195148,3.35468840747579,5.6408260907855,-13.2139709727726,-33.9573175685865,6.31469296094977,49.9126997876981,28.1877806806638,-27.1609828649824,-4.05449517804305,45.683693483718,31.0927021618964,-15.8197569392472,8.93950194739119,13.69862894987,41.1984504718255,-25.1466927727802,7.46513810108949,11.4713634794835,-3.58393562522382,-3.34158069220952,45.0105304851105,-25.3450521781377,-4.75224621207488,75.8375503348331,10.750503777266,-59.6879222624373,-24.4385209112967,40.7118709665964,-8.03772733611743,22.8349534573484,-9.22313841878307,13.6505440489574,-21.1490437116068,23.2278929599804,16.7567504745892,-44.948419266734,-28.1544422765071,46.2218754618165,28.2493728087288,86.6765439543195,32.3721316417723,-3.03072545108018,-18.3021407074478,15.3882528295553,14.2428369035156,6.01861486697147,0.70852824139206,-63.0870347919612,7.05269773393108,-25.3200481607728,27.3413792227026,-69.3255273244552,19.9614231251945,22.1872666033266,69.3481985313051,12.0619408452481,52.3942544155914,-0.526268625232429,73.3260293761307,14.6948688867381,19.8273278629776,27.9449525707245,-0.903026110917108,12.7730041033396,-9.62063377411233,-29.3358810399877,-2.15009526257612,-44.5667886397357,-2.59836563209994,76.0996140425192,-26.3885055368574,45.2965410697061,73.283851542011,-16.321728856059,-40.0022816071272,39.2655851198863,22.4349945874439,29.5620619376494,32.5578346199037,-35.6125545390999,13.1636744669561,44.9310429238377,70.6433312038154,43.2325350232209,32.7503657114555,-11.3998343737994,-54.8037383701516,7.4454321683827,2.79614298919278,-30.6127196937282,-13.8665351129445,-1.27369652168172,-2.65641705551834,8.78361850621941,19.4677827800152,6.30691839367788,-14.9603745767917,8.9712205445005,14.8863463846144,26.9719307889651,22.0303826417565,-18.0189102778379,-14.5602260555259,-37.8769131566317,-49.5802695878006,14.7490269083284,-24.8733738930268,8.61077964139229,21.7473391185322,1.73890172334711,8.35093312244383,-36.8465837014835,-21.1418011136202,-7.82495609902368,1.24679554289965,-2.34648433540336,-55.6031685681933,59.5465309703907,66.8609417930666,17.9011663873209,39.1817520525315,39.2302708668809,-23.6917623227843,3.79833284638093,-15.9698289625901,-33.8935353260523,10.603273866616,57.4144714545838,15.2389182508696,-3.8044857371936,46.5210820015373,-1.01201418392181,69.4283047297106,62.8137417621803,43.3312283755108,-6.91881511735741,-1.88524440823448,-23.9416385061068,-23.6307188503546,61.0408842291148,-50.5730675606787,2.57509480380551,-36.6925855145065,-27.7215295516255,-47.9799137327146,17.5847147097528,38.2510639781799,15.1821001076922,-39.7421735858957,-39.8363559428534,-37.7240285125796,20.3518051547228,2.9271340295958,-1.08032220515879,30.7626309681221,-20.606526680947,6.32083432060557,2.47142835675276,20.5015215693667,22.2727511199356,20.5251899194889,-7.85171034688707,6.78091317858396,52.8009296667736,-11.9025846159189,4.17234846712808,18.5705483343407,9.26082320368829,13.1185391267422,-19.3970472923934,22.2239991267286,-46.3705618181835,-19.2918255456392,62.9510206404793,-8.58521169524354,-44.6657325151752,-47.5937203801444,14.0599541794896,41.0216656455245,65.6727391746634,-32.1152849278942,-5.49995151537328,-42.316049900976,20.5673744408818,24.9879789570665,32.0067672391066,42.287207131862,21.0772254071311,16.5850997723168,-5.27057990953429,38.4580084434296,54.1113451381266,-6.08082774875158,-1.54157501760392,-9.21123849273121,20.8958914020109,-2.36550951409868,21.3625416696957,30.6856272538684,-7.25208790502968,77.5760584933095,11.5589135160666,-20.2507346698192,9.59853161387268,21.3901696102092,-15.6296219006406,-11.9920886181387,8.1129256783353,19.8943460340017,-5.11813258143483,23.472596508399,25.9989079685336,-20.0255288487106,1,1,1,1,1,1,1,1,1,1,1,1,1,1,1,1,1,1,1,1,1,1,1,1,1,1,1,1,1,1,1,1,1,1,1,1,1,1,1,1,1,1,1,1,1,1,1,1,1,1,1,1,1,1,1,1,1,1,1,1,1,1,1,1,1,1,1,1,1,1,1,1,1,1,1,1,1,1,1,1,1,1,1,1,1,1,1,1,1,1,1,1,1,1,1,1,1,1,1,1,1,1,1,1,1,1,1,1,1,1,1,1,1,1,1,1,1,1,1,1,1,1,1,1,1,1,1,1,1,1,1,1,1,1,1,1,1,1,1,1,1,1,1,1,1,1,1,1,1,1,1,1,1,1,1,1,1,1,1,1,1,1,1,1,1,1,1,1,1,1,1,1,1,1,1,1,1,1,1,1,1,1,1,1,1,1,1,1,1,1,1,1,1,1,1,1,1,1,1,1,1,1,1,1,1,1,1,1,1,1,1,1,1,1,1,1,1,1,1,1,1,1,1,1,1,1,1,1,1,1,1,1,1,1,1,1,1,1,1,1,1,1,1,1,1,1,1,1,1,1,1,1,1,1,1,1,1,1,1,1,1,1,1,1,1,1,1,1,1,1,-17.2807749529308,-13.7463586713744,4.5221091365898,33.1015181527671,-43.5864996628965,-14.5554689122095,33.7588296277613,-4.18464935239566,65.8426999949937,-40.7338416946676,22.3655856367294,-22.8848743072614,-28.0164708105915,-46.4346716454033,-23.7290293159695,45.5228436050081,-3.42917880709337,-11.5902491047859,-3.94929342011793,-7.01899485110236,9.91427048443033,-48.8565073558273,27.22323391769,32.5576522680682,9.36029653724853,27.4874777282242,14.3748843153053,-17.1957455819494,-13.8542362484458,-15.0005562698455,-10.6822656654103,-10.5540382557055,15.1985000095308,8.31465330548815,0.920886143969732,8.22949347582028,39.3092416800364,-40.2444680541663,20.1032526998543,-9.66961296450275,-5.02968452370468,1.30653747203066,47.3323346006254,-1.00371853094058,-68.3058797389136,-38.2114686910303,-9.90129189121418,57.3026339290477,-11.1423416326947,63.8786477652856,5.65454577904797,10.8350467088365,-4.22515469867155,-24.6368143731795,76.9635776923332,9.48819302221631,54.6231286277479,-18.9902605070266,-41.5136697142994,-42.5338994753336,0.603987242650036,19.0995882997148,49.0685317146951,-40.2075358591029,54.2039459623234,11.2033522120548,17.1639543586958,11.1937795894917,-39.4955125800626,21.1328420197724,-25.899654374085,37.5768942692078,12.4652948813477,2.60965937946588,43.3650452058727,23.0950587855279,21.7571070620363,89.1611598543373,27.2061152321717,27.2126241533516,-1.7694344736418,0.0240287579093332,46.7470041261582,-35.5638933330281,-4.07657528760757,-39.5932995006282,-9.8361666437853,16.3384389638413,15.3328694637906,11.4489787440369,-51.5199011264641,-44.0311683573904,48.4617717093762,-17.3136467810269,-16.9721374504407,39.4626371385745,28.1148703135903,-8.80453021841792,47.3337932148257,-33.0680226304789,-9.52747224695242,-11.4543238692339,12.023504535619,41.9202002519328,35.3527602926593,2.17926640514729,-51.2153943500253,8.85285285544401,30.1248256076994,-7.36877783990709,-18.4872158638188,-1.33292040931111,-10.3332054753783,-14.7589889991965,33.1285218870268,-44.0313812128896,37.2826066830574,81.360088756196,5.86216604425102,13.8215867951633,35.6929071711857,-27.1369065020684,23.9430170027167,-5.82104293364521,54.8089609915328,30.9748963468002,10.0168629497029,6.5174057551577,-1.50874499264785,-36.6156824324964,26.6478267859507,-8.08962441791149,2.24934565577661,14.6515586920815,-64.2907502198398,46.3494249204982,44.1207501369006,24.9737967857956,1.26776818800878,-25.4538875113226,3.7084521480228,27.3102691389298,-13.1884026532045,-14.3129646657111,-42.91845380378,9.1248111495215,27.3178831046229,-54.857121217882,-18.5851767529629,4.46593183958103,15.7810344021847,13.371298805937,-6.58837243986064,29.9098235647417,-46.5597691197606,-5.01651846269383,18.6003940413605,3.2779019365511,-16.8776617467817,-0.596809663517106,41.2930468816882,2.80970522741055,-15.6563349047088,34.0776180175061,-79.2392294589572,-11.5042786201889,-49.7572294827181,-22.856997041557,-1.08778301818118,28.4005039448418,13.1205843987226,-17.7392964591881,-14.5934601494168,-26.8591540403274,17.1658005165548,-22.1287586287219,-28.0606691310102,41.5065421313398,29.4231054497716,-1.56022238182372,53.4597853141484,-14.1632110309555,-50.6932348161132,34.0834943286804,33.9929417117938,8.72381219860697,5.71973653103983,-12.1255380360619,19.7849357889165,50.7469598186195,-23.6276779374011,-29.0677250177613,-18.6928924584723,7.46374575774187,-32.6208136398323,-16.7715204778421,42.1653214641685,-13.8508716446016,-3.44002524727248,29.1517182799115,-63.4643050028381,-20.196564003018,13.6701386842089,-56.5693812459756,2.01128893808361,16.8519825553862,36.6360712502978,17.4778785536598,-7.67267793218132,-18.1750299456331,-58.7178517457429,-40.988012498865,-48.5669803799743,5.18261698340667,-34.7184147028427,30.281551952509,11.0741687529065,-6.14355101292628,-46.8203586946422,-12.1575825945157,3.12527166828554,13.2125033864198,51.0899630900598,-4.44828382175246,19.3387770905675,-29.8419405969035,-8.72456827455053,20.7070194535698,4.79279961670467,68.8691017721678,-55.8732882341085,12.2731327393883,26.5589876395183,24.2005480512252,64.8280174443584,35.2959226191947,-20.1851475752894,-5.02082540446619,3.59382435615881,-27.750943451905,-41.5058937046869,-5.43490910794123,-31.7163494557992,18.9709207049359,28.3926374380912,-6.64557032749371,-29.4176622741312,-40.1621955258951,-31.0827767921668,4.29085908646583,-8.38446596885276,13.3869450768731,-7.20346926903643,-2.55650037659853,16.2919671127287,53.3904261818178,-25.4437862121594,15.1690794132229,-21.3537471668762,-4.01092176217809,-31.6869851332956,24.3126516589924,7.89717522178937,57.2857014269221,-10.8046144418862,-27.6965673150814,61.9305013045226,4.19445722618453,27.4806028078364,-1.01565541333274,1,1,1,1,1,1,1,1,1,1,1,1,1,1,1,1,1,1,1,1,1,1,1,1,1,1,1,1,1,1,1,1,1,1,1,1,1,1,1,1,1,1,1,1,1,1,1,1,1,1,1,1,1,1,1,1,1,1,1,1,1,1,1,1,1,1,1,1,1,1,1,1,1,1,1,1,1,1,1,1,1,1,1,1,1,1,1,1,1,1,1,1,1,1,1,1,1,1,1,1,1,1,1,1,1,1,1,1,1,1,1,1,1,1,1,1,1,1,1,1,1,1,1,1,1,1,1,1,1,1,1,1,1,1,1,1,1,1,1,1,1,1,1,1,1,1,1,1,1,1,1,1,1,1,1,1,1,1,1,1,1,1,1,1,1,1,1,1,1,1,1,1,1,1,1,1,1,1,1,1,1,1,1,1,1,1,1,1,1,1,1,1,1,1,1,1,1,1,1,1,1,1,1,1,1,1,1,1,1,1,1,1,1,1,1,1,1,1,1,1,1,1,1,1,1,1,1,1,1,1,1,1,1,1,1,1,1,1,1,1,1,1,1,1,1,1,1,1,1,1,1,1,1,1,1,1,1,1,1,1,1,1,1,1,1,1,1,1,1,1
